FANN_FLO_2.1
num_layers=3
learning_rate=0.700000
connection_rate=1.000000
network_type=0
learning_momentum=0.000000
training_algorithm=0
train_error_function=1
train_stop_function=0
cascade_output_change_fraction=0.010000
quickprop_decay=-0.000100
quickprop_mu=1.750000
rprop_increase_factor=1.200000
rprop_decrease_factor=0.500000
rprop_delta_min=0.000000
rprop_delta_max=50.000000
rprop_delta_zero=0.100000
cascade_output_stagnation_epochs=12
cascade_candidate_change_fraction=0.010000
cascade_candidate_stagnation_epochs=12
cascade_max_out_epochs=150
cascade_min_out_epochs=50
cascade_max_cand_epochs=150
cascade_min_cand_epochs=50
cascade_num_candidate_groups=2
bit_fail_limit=3.49999999999999980000e-001
cascade_candidate_limit=1.00000000000000000000e+003
cascade_weight_multiplier=4.00000000000000020000e-001
cascade_activation_functions_count=10
cascade_activation_functions=3 5 7 8 10 11 14 15 16 17 
cascade_activation_steepnesses_count=4
cascade_activation_steepnesses=2.50000000000000000000e-001 5.00000000000000000000e-001 7.50000000000000000000e-001 1.00000000000000000000e+000 
layer_sizes=785 31 11 
scale_included=1
scale_mean_in=0.000000 0.000000 0.000000 0.000000 0.000000 0.000000 0.000000 0.000000 0.000000 0.000000 0.000000 0.000000 0.000001 0.000019 0.000019 0.000001 0.000000 0.000000 0.000000 0.000000 0.000000 0.000000 0.000000 0.000000 0.000000 0.000000 0.000000 0.000000 0.000000 0.000000 0.000000 0.000000 0.000000 0.000001 0.000048 0.000104 0.000162 0.000246 0.000510 0.000675 0.000654 0.000671 0.000695 0.000618 0.000722 0.000632 0.000430 0.000301 0.000213 0.000085 0.000043 0.000018 0.000000 0.000000 0.000000 0.000000 0.000000 0.000000 0.000000 0.000004 0.000033 0.000019 0.000176 0.000596 0.001097 0.002053 0.003294 0.005000 0.007191 0.009624 0.012523 0.014257 0.014644 0.013237 0.010768 0.007929 0.004588 0.002283 0.001022 0.000333 0.000122 0.000020 0.000000 0.000000 0.000000 0.000000 0.000005 0.000030 0.000053 0.000312 0.000927 0.002340 0.004614 0.008576 0.013975 0.020909 0.028576 0.037525 0.046453 0.052236 0.052135 0.046646 0.037310 0.026463 0.015823 0.008433 0.003778 0.001382 0.000519 0.000102 0.000015 0.000000 0.000000 0.000003 0.000020 0.000059 0.000334 0.001652 0.004179 0.009490 0.018407 0.032428 0.051290 0.074996 0.104864 0.137183 0.163131 0.176820 0.174413 0.154148 0.122332 0.089402 0.057457 0.033036 0.017303 0.008168 0.003368 0.000795 0.000125 0.000011 0.000000 0.000000 0.000040 0.000222 0.001469 0.005536 0.013645 0.027877 0.050247 0.082173 0.122071 0.172386 0.230018 0.288523 0.332639 0.355028 0.349013 0.314619 0.258774 0.195919 0.134640 0.083930 0.048409 0.025933 0.011688 0.003139 0.000495 0.000013 0.000000 0.000000 0.000122 0.000785 0.004112 0.012307 0.028241 0.054925 0.093708 0.145165 0.207709 0.278168 0.349957 0.415706 0.463603 0.485396 0.476840 0.439387 0.377318 0.296411 0.212959 0.139256 0.082833 0.044892 0.020930 0.006911 0.001302 0.000092 0.000004 0.000088 0.000424 0.002278 0.008769 0.022772 0.048113 0.087266 0.142070 0.210863 0.289624 0.369974 0.438287 0.489985 0.519536 0.529521 0.522372 0.497398 0.446187 0.369660 0.275128 0.184571 0.111318 0.059803 0.027498 0.009908 0.002003 0.000107 0.000021 0.000215 0.001273 0.005000 0.014227 0.032691 0.065466 0.115884 0.184813 0.268013 0.355555 0.427237 0.470294 0.484329 0.481970 0.478537 0.480007 0.479867 0.457586 0.397156 0.305344 0.208163 0.125795 0.064679 0.027900 0.010083 0.001882 0.000073 0.000009 0.000293 0.001974 0.006480 0.017113 0.038217 0.075988 0.135244 0.215091 0.306582 0.389028 0.435558 0.436491 0.410303 0.386470 0.387398 0.407747 0.435272 0.436850 0.390347 0.303764 0.208047 0.124015 0.061020 0.023293 0.007415 0.001318 0.000086 0.000016 0.000410 0.002188 0.006487 0.016693 0.038493 0.080198 0.146271 0.234189 0.327384 0.394381 0.406131 0.369221 0.324436 0.308361 0.328858 0.366796 0.410439 0.418031 0.371210 0.283605 0.190849 0.112828 0.054079 0.018528 0.004664 0.000867 0.000077 0.000029 0.000320 0.001789 0.005154 0.014364 0.037499 0.083008 0.156731 0.251855 0.343633 0.389865 0.373925 0.320173 0.286325 0.296478 0.333939 0.381572 0.423132 0.416140 0.351320 0.256109 0.167555 0.100182 0.050296 0.016095 0.002380 0.000451 0.000031 0.000014 0.000170 0.000986 0.003449 0.012027 0.037369 0.089720 0.171931 0.272526 0.356277 0.385862 0.357161 0.312188 0.310667 0.349553 0.398183 0.443642 0.462004 0.422993 0.332765 0.231268 0.150895 0.093923 0.050479 0.016990 0.001637 0.000272 0.000038 0.000003 0.000085 0.000490 0.002261 0.011405 0.041768 0.100787 0.188136 0.287822 0.362198 0.380746 0.356600 0.340317 0.379833 0.435728 0.485830 0.509523 0.497103 0.427293 0.318879 0.217439 0.146543 0.095133 0.054161 0.020267 0.002256 0.000312 0.000032 0.000000 0.000043 0.000211 0.001735 0.011933 0.048816 0.112645 0.199419 0.291812 0.356468 0.373624 0.365451 0.383178 0.451786 0.509895 0.547302 0.538364 0.502434 0.418232 0.311327 0.220212 0.153665 0.101279 0.058160 0.022691 0.003197 0.000324 0.000007 0.000001 0.000020 0.000179 0.001934 0.013805 0.057009 0.122344 0.201583 0.281232 0.337018 0.358540 0.368536 0.410501 0.482095 0.531512 0.545031 0.517164 0.475229 0.395948 0.307298 0.228556 0.162436 0.106564 0.058562 0.022811 0.004103 0.000510 0.000040 0.000003 0.000021 0.000302 0.002467 0.017313 0.065258 0.128244 0.196635 0.260634 0.305014 0.326829 0.348589 0.394467 0.452764 0.494297 0.498272 0.473958 0.434655 0.373268 0.303221 0.233157 0.164564 0.104621 0.055552 0.021587 0.004729 0.000657 0.000060 0.000000 0.000032 0.000423 0.003755 0.023343 0.073094 0.131672 0.189524 0.236940 0.270696 0.290571 0.314132 0.349282 0.397834 0.440018 0.450889 0.439492 0.408926 0.362621 0.302938 0.231695 0.159200 0.097168 0.049957 0.019851 0.005261 0.000746 0.000037 0.000010 0.000022 0.000588 0.005777 0.030109 0.081130 0.137543 0.188729 0.227460 0.257772 0.279548 0.298212 0.322998 0.370519 0.416189 0.438936 0.437368 0.411990 0.366371 0.299318 0.221025 0.146730 0.087863 0.044199 0.017717 0.005082 0.000651 0.000039 0.000000 0.000027 0.001040 0.007857 0.034706 0.086485 0.145394 0.200007 0.243977 0.278882 0.304416 0.322260 0.350754 0.395622 0.439872 0.461993 0.455879 0.422348 0.362275 0.281095 0.198349 0.126579 0.072600 0.035288 0.014087 0.003994 0.000557 0.000014 0.000000 0.000046 0.001340 0.008717 0.033566 0.082040 0.147435 0.212422 0.270359 0.318942 0.354541 0.383256 0.417468 0.459146 0.490244 0.493049 0.464339 0.408152 0.329403 0.239508 0.159822 0.096803 0.052894 0.025383 0.010684 0.002783 0.000401 0.000004 0.000003 0.000045 0.001132 0.006912 0.025787 0.066721 0.130195 0.203761 0.277366 0.343002 0.396461 0.440316 0.480534 0.511689 0.517997 0.490006 0.431426 0.350801 0.261301 0.178415 0.111720 0.063566 0.033446 0.016247 0.006768 0.001742 0.000241 0.000003 0.000003 0.000001 0.000644 0.004128 0.015045 0.042687 0.092133 0.160586 0.240288 0.318622 0.388846 0.442902 0.480599 0.491838 0.473095 0.419854 0.343631 0.258812 0.178864 0.113071 0.065899 0.035651 0.018499 0.008803 0.003298 0.000759 0.000074 0.000006 0.000000 0.000000 0.000201 0.001606 0.006574 0.019254 0.046766 0.094011 0.158188 0.231699 0.303692 0.360772 0.391566 0.389569 0.355648 0.296358 0.225743 0.158266 0.101018 0.059987 0.032972 0.017196 0.008675 0.003802 0.001192 0.000232 0.000024 0.000000 0.000000 0.000000 0.000038 0.000458 0.002139 0.006251 0.016319 0.035927 0.066183 0.106521 0.150080 0.185950 0.204075 0.201051 0.179052 0.144095 0.107592 0.075622 0.047964 0.028342 0.015287 0.007659 0.003691 0.001484 0.000359 0.000092 0.000010 0.000000 0.000000 0.000000 0.000001 0.000047 0.000462 0.001696 0.005264 0.012119 0.023705 0.038298 0.054596 0.066281 0.071949 0.070316 0.063224 0.051834 0.041388 0.031065 0.020856 0.012464 0.006574 0.003140 0.001450 0.000506 0.000094 0.000008 0.000009 0.000000 0.000000 0.000000 0.000000 0.000000 0.000124 0.000527 0.001998 0.004597 0.008881 0.013561 0.019349 0.024102 0.025736 0.024715 0.022098 0.017580 0.013687 0.010295 0.006919 0.004098 0.002138 0.000912 0.000308 0.000067 0.000000 0.000005 0.000000 0.000000 0.000000 0.000000 0.000000 0.000000 0.000008 0.000048 0.000172 0.000315 0.000421 0.000809 0.001396 0.001773 0.002195 0.002523 0.002807 0.002275 0.001845 0.001401 0.000818 0.000329 0.000110 0.000038 0.000051 0.000010 0.000000 0.000000 0.000000 0.000000 
scale_deviation_in=0.000000 0.000000 0.000000 0.000000 0.000000 0.000000 0.000000 0.000000 0.000000 0.000000 0.000000 0.000000 0.000185 0.003993 0.003993 0.000166 0.000000 0.000000 0.000000 0.000000 0.000000 0.000000 0.000000 0.000000 0.000000 0.000000 0.000000 0.000000 0.000000 0.000000 0.000000 0.000000 0.000000 0.000148 0.004777 0.009108 0.011301 0.012477 0.020205 0.022476 0.021920 0.021909 0.022617 0.021470 0.023365 0.021941 0.017523 0.015185 0.012706 0.007391 0.005040 0.003652 0.000000 0.000000 0.000000 0.000000 0.000000 0.000000 0.000000 0.000587 0.003657 0.001685 0.010039 0.020631 0.028604 0.038961 0.049733 0.060575 0.073324 0.084209 0.096807 0.102876 0.105516 0.100628 0.090424 0.078508 0.059093 0.041557 0.027176 0.015118 0.009270 0.003219 0.000000 0.000000 0.000000 0.000000 0.000803 0.002983 0.003643 0.013532 0.024730 0.040859 0.058302 0.080501 0.102823 0.126478 0.146839 0.168046 0.187323 0.198668 0.197374 0.187722 0.168325 0.142668 0.108725 0.080172 0.051309 0.031389 0.019059 0.006688 0.002400 0.000000 0.000000 0.000702 0.002832 0.003770 0.014066 0.033140 0.052787 0.082128 0.115424 0.154244 0.194170 0.232855 0.270512 0.304807 0.328028 0.338656 0.336397 0.319820 0.289618 0.251315 0.203309 0.154161 0.110655 0.076073 0.047970 0.020875 0.008622 0.001596 0.000000 0.000000 0.003455 0.010825 0.028777 0.062515 0.099121 0.142884 0.191586 0.242618 0.290294 0.334922 0.374002 0.403867 0.420096 0.425537 0.423106 0.412116 0.388175 0.351703 0.300728 0.241850 0.185790 0.136576 0.089004 0.042983 0.016226 0.001915 0.000000 0.000074 0.007664 0.022606 0.053378 0.094162 0.143715 0.200807 0.259114 0.314283 0.361773 0.397991 0.422801 0.435839 0.440034 0.440612 0.440552 0.439810 0.431088 0.407590 0.365436 0.307024 0.242983 0.180303 0.121626 0.067783 0.028254 0.006686 0.000869 0.006189 0.016092 0.039103 0.078744 0.129095 0.187699 0.249649 0.309734 0.361013 0.398971 0.421685 0.431154 0.433015 0.433234 0.431662 0.432621 0.434075 0.435054 0.426488 0.396776 0.345327 0.278890 0.207143 0.139636 0.082563 0.035388 0.006854 0.003664 0.011849 0.029511 0.060255 0.103662 0.156220 0.219043 0.284461 0.346278 0.392930 0.421151 0.433124 0.435362 0.436324 0.436021 0.434255 0.434364 0.435231 0.436629 0.432871 0.410860 0.363529 0.295656 0.215726 0.141511 0.083994 0.034742 0.006220 0.001534 0.014511 0.037650 0.070651 0.114580 0.169599 0.235628 0.305842 0.368191 0.409197 0.431265 0.436840 0.436471 0.432246 0.426752 0.425472 0.428257 0.433331 0.435668 0.431800 0.410434 0.365090 0.294082 0.209217 0.128875 0.070863 0.028421 0.007248 0.003420 0.017702 0.040334 0.071113 0.113726 0.169943 0.241561 0.315548 0.378665 0.416952 0.432725 0.434717 0.423460 0.408035 0.402408 0.411391 0.421225 0.430489 0.433322 0.428078 0.402617 0.353564 0.282691 0.197793 0.115025 0.056558 0.023602 0.006312 0.003784 0.014613 0.036261 0.062160 0.104366 0.166350 0.244784 0.324160 0.387727 0.422665 0.432341 0.427271 0.408079 0.392023 0.402084 0.417290 0.423467 0.431193 0.433008 0.423773 0.389006 0.334009 0.269910 0.192913 0.106086 0.038621 0.016512 0.003249 0.003013 0.010464 0.026713 0.050316 0.094509 0.165521 0.253872 0.337566 0.398895 0.427937 0.432224 0.424103 0.407271 0.404105 0.426792 0.434729 0.430243 0.435661 0.436565 0.417660 0.373415 0.319493 0.263395 0.196055 0.109845 0.032035 0.013327 0.003658 0.000592 0.007413 0.019169 0.039577 0.091998 0.174780 0.268879 0.350744 0.407267 0.430191 0.431720 0.423970 0.416867 0.426723 0.446174 0.437354 0.431371 0.439526 0.437395 0.411232 0.365162 0.316929 0.266026 0.204139 0.122384 0.037699 0.013326 0.004769 0.000000 0.004676 0.011638 0.034470 0.092704 0.188827 0.284116 0.360505 0.409983 0.429403 0.430137 0.424916 0.424097 0.437055 0.445790 0.429633 0.430613 0.440338 0.434970 0.408638 0.368615 0.324414 0.273312 0.210945 0.130312 0.046460 0.013526 0.001083 0.000129 0.004179 0.009552 0.036246 0.098767 0.204733 0.295758 0.362993 0.405256 0.424381 0.425750 0.424752 0.429542 0.441466 0.441683 0.428741 0.436574 0.441929 0.430592 0.408256 0.374727 0.333061 0.278836 0.209848 0.130339 0.054076 0.017971 0.004081 0.000739 0.002678 0.013711 0.040710 0.110901 0.219202 0.302736 0.359428 0.394790 0.411873 0.415572 0.419756 0.430996 0.442740 0.441852 0.436150 0.439950 0.436107 0.425458 0.407536 0.379366 0.334128 0.275587 0.203569 0.124956 0.057744 0.020197 0.006180 0.000000 0.003451 0.016600 0.051065 0.131479 0.232916 0.306058 0.353545 0.381981 0.397380 0.404059 0.412392 0.425682 0.434723 0.439052 0.438110 0.435431 0.430109 0.424464 0.409124 0.378730 0.329393 0.264995 0.192462 0.118540 0.061163 0.021869 0.003247 0.001456 0.003730 0.018887 0.063868 0.150424 0.246012 0.312348 0.353156 0.376484 0.392100 0.402497 0.410362 0.416336 0.427071 0.435484 0.435076 0.431743 0.432358 0.427228 0.409722 0.373033 0.318499 0.253265 0.180674 0.112890 0.059829 0.020498 0.004284 0.000000 0.003682 0.027055 0.076153 0.162626 0.254648 0.320698 0.362038 0.386246 0.402892 0.413406 0.420057 0.425194 0.432118 0.436592 0.435502 0.433514 0.435744 0.427848 0.401785 0.358180 0.298535 0.230638 0.161406 0.101031 0.052531 0.019530 0.002065 0.000000 0.004944 0.030198 0.080808 0.160050 0.247286 0.321626 0.371902 0.401290 0.418612 0.428175 0.432977 0.435695 0.437530 0.436611 0.435978 0.436039 0.433543 0.418013 0.382601 0.328419 0.263885 0.197134 0.136271 0.087928 0.042888 0.015946 0.000943 0.000592 0.004691 0.028010 0.070356 0.137427 0.221839 0.302614 0.365844 0.405696 0.427184 0.436072 0.437139 0.435728 0.432758 0.433433 0.434984 0.433343 0.421391 0.391872 0.341638 0.280068 0.214975 0.157188 0.108893 0.069506 0.034584 0.011372 0.000721 0.000573 0.000226 0.019914 0.052951 0.102760 0.174778 0.254898 0.328747 0.384914 0.420081 0.437371 0.442184 0.441089 0.439967 0.440065 0.436419 0.420161 0.389456 0.340750 0.280622 0.217653 0.161542 0.116071 0.079332 0.046742 0.020205 0.006164 0.001331 0.000000 0.000000 0.009776 0.031389 0.066693 0.115294 0.179970 0.253811 0.322330 0.375687 0.411137 0.428337 0.433584 0.432342 0.422892 0.403073 0.368396 0.321011 0.264443 0.207296 0.155469 0.112609 0.078901 0.051355 0.027508 0.012129 0.002454 0.000000 0.000000 0.000000 0.004397 0.016147 0.037183 0.065945 0.106674 0.160614 0.217740 0.273633 0.318375 0.347517 0.358226 0.355449 0.338401 0.307522 0.271756 0.232092 0.186593 0.145626 0.106374 0.076072 0.051936 0.031514 0.014631 0.007592 0.001842 0.000000 0.000000 0.000000 0.000296 0.004640 0.017723 0.033822 0.061923 0.095844 0.136001 0.172049 0.204397 0.223432 0.232305 0.229091 0.216523 0.196037 0.176500 0.153511 0.126639 0.097635 0.070186 0.048303 0.031465 0.018230 0.006817 0.001608 0.001923 0.000000 0.000000 0.000000 0.000000 0.000000 0.008215 0.018378 0.038235 0.058929 0.082678 0.101656 0.122079 0.136198 0.139412 0.136333 0.129512 0.114367 0.101357 0.088339 0.072509 0.055381 0.040375 0.025604 0.014288 0.005119 0.000000 0.001091 0.000000 0.000000 0.000000 0.000000 0.000000 0.000000 0.001738 0.005752 0.010700 0.015166 0.016312 0.025017 0.031326 0.036568 0.040099 0.042779 0.045534 0.040778 0.036345 0.032061 0.023998 0.015060 0.008065 0.003938 0.006630 0.001569 0.000000 0.000000 0.000000 0.000000 
scale_new_min_in=0.000000 0.000000 0.000000 0.000000 0.000000 0.000000 0.000000 0.000000 0.000000 0.000000 0.000000 0.000000 0.000000 0.000000 0.000000 0.000000 0.000000 0.000000 0.000000 0.000000 0.000000 0.000000 0.000000 0.000000 0.000000 0.000000 0.000000 0.000000 0.000000 0.000000 0.000000 0.000000 0.000000 0.000000 0.000000 0.000000 0.000000 0.000000 0.000000 0.000000 0.000000 0.000000 0.000000 0.000000 0.000000 0.000000 0.000000 0.000000 0.000000 0.000000 0.000000 0.000000 0.000000 0.000000 0.000000 0.000000 0.000000 0.000000 0.000000 0.000000 0.000000 0.000000 0.000000 0.000000 0.000000 0.000000 0.000000 0.000000 0.000000 0.000000 0.000000 0.000000 0.000000 0.000000 0.000000 0.000000 0.000000 0.000000 0.000000 0.000000 0.000000 0.000000 0.000000 0.000000 0.000000 0.000000 0.000000 0.000000 0.000000 0.000000 0.000000 0.000000 0.000000 0.000000 0.000000 0.000000 0.000000 0.000000 0.000000 0.000000 0.000000 0.000000 0.000000 0.000000 0.000000 0.000000 0.000000 0.000000 0.000000 0.000000 0.000000 0.000000 0.000000 0.000000 0.000000 0.000000 0.000000 0.000000 0.000000 0.000000 0.000000 0.000000 0.000000 0.000000 0.000000 0.000000 0.000000 0.000000 0.000000 0.000000 0.000000 0.000000 0.000000 0.000000 0.000000 0.000000 0.000000 0.000000 0.000000 0.000000 0.000000 0.000000 0.000000 0.000000 0.000000 0.000000 0.000000 0.000000 0.000000 0.000000 0.000000 0.000000 0.000000 0.000000 0.000000 0.000000 0.000000 0.000000 0.000000 0.000000 0.000000 0.000000 0.000000 0.000000 0.000000 0.000000 0.000000 0.000000 0.000000 0.000000 0.000000 0.000000 0.000000 0.000000 0.000000 0.000000 0.000000 0.000000 0.000000 0.000000 0.000000 0.000000 0.000000 0.000000 0.000000 0.000000 0.000000 0.000000 0.000000 0.000000 0.000000 0.000000 0.000000 0.000000 0.000000 0.000000 0.000000 0.000000 0.000000 0.000000 0.000000 0.000000 0.000000 0.000000 0.000000 0.000000 0.000000 0.000000 0.000000 0.000000 0.000000 0.000000 0.000000 0.000000 0.000000 0.000000 0.000000 0.000000 0.000000 0.000000 0.000000 0.000000 0.000000 0.000000 0.000000 0.000000 0.000000 0.000000 0.000000 0.000000 0.000000 0.000000 0.000000 0.000000 0.000000 0.000000 0.000000 0.000000 0.000000 0.000000 0.000000 0.000000 0.000000 0.000000 0.000000 0.000000 0.000000 0.000000 0.000000 0.000000 0.000000 0.000000 0.000000 0.000000 0.000000 0.000000 0.000000 0.000000 0.000000 0.000000 0.000000 0.000000 0.000000 0.000000 0.000000 0.000000 0.000000 0.000000 0.000000 0.000000 0.000000 0.000000 0.000000 0.000000 0.000000 0.000000 0.000000 0.000000 0.000000 0.000000 0.000000 0.000000 0.000000 0.000000 0.000000 0.000000 0.000000 0.000000 0.000000 0.000000 0.000000 0.000000 0.000000 0.000000 0.000000 0.000000 0.000000 0.000000 0.000000 0.000000 0.000000 0.000000 0.000000 0.000000 0.000000 0.000000 0.000000 0.000000 0.000000 0.000000 0.000000 0.000000 0.000000 0.000000 0.000000 0.000000 0.000000 0.000000 0.000000 0.000000 0.000000 0.000000 0.000000 0.000000 0.000000 0.000000 0.000000 0.000000 0.000000 0.000000 0.000000 0.000000 0.000000 0.000000 0.000000 0.000000 0.000000 0.000000 0.000000 0.000000 0.000000 0.000000 0.000000 0.000000 0.000000 0.000000 0.000000 0.000000 0.000000 0.000000 0.000000 0.000000 0.000000 0.000000 0.000000 0.000000 0.000000 0.000000 0.000000 0.000000 0.000000 0.000000 0.000000 0.000000 0.000000 0.000000 0.000000 0.000000 0.000000 0.000000 0.000000 0.000000 0.000000 0.000000 0.000000 0.000000 0.000000 0.000000 0.000000 0.000000 0.000000 0.000000 0.000000 0.000000 0.000000 0.000000 0.000000 0.000000 0.000000 0.000000 0.000000 0.000000 0.000000 0.000000 0.000000 0.000000 0.000000 0.000000 0.000000 0.000000 0.000000 0.000000 0.000000 0.000000 0.000000 0.000000 0.000000 0.000000 0.000000 0.000000 0.000000 0.000000 0.000000 0.000000 0.000000 0.000000 0.000000 0.000000 0.000000 0.000000 0.000000 0.000000 0.000000 0.000000 0.000000 0.000000 0.000000 0.000000 0.000000 0.000000 0.000000 0.000000 0.000000 0.000000 0.000000 0.000000 0.000000 0.000000 0.000000 0.000000 0.000000 0.000000 0.000000 0.000000 0.000000 0.000000 0.000000 0.000000 0.000000 0.000000 0.000000 0.000000 0.000000 0.000000 0.000000 0.000000 0.000000 0.000000 0.000000 0.000000 0.000000 0.000000 0.000000 0.000000 0.000000 0.000000 0.000000 0.000000 0.000000 0.000000 0.000000 0.000000 0.000000 0.000000 0.000000 0.000000 0.000000 0.000000 0.000000 0.000000 0.000000 0.000000 0.000000 0.000000 0.000000 0.000000 0.000000 0.000000 0.000000 0.000000 0.000000 0.000000 0.000000 0.000000 0.000000 0.000000 0.000000 0.000000 0.000000 0.000000 0.000000 0.000000 0.000000 0.000000 0.000000 0.000000 0.000000 0.000000 0.000000 0.000000 0.000000 0.000000 0.000000 0.000000 0.000000 0.000000 0.000000 0.000000 0.000000 0.000000 0.000000 0.000000 0.000000 0.000000 0.000000 0.000000 0.000000 0.000000 0.000000 0.000000 0.000000 0.000000 0.000000 0.000000 0.000000 0.000000 0.000000 0.000000 0.000000 0.000000 0.000000 0.000000 0.000000 0.000000 0.000000 0.000000 0.000000 0.000000 0.000000 0.000000 0.000000 0.000000 0.000000 0.000000 0.000000 0.000000 0.000000 0.000000 0.000000 0.000000 0.000000 0.000000 0.000000 0.000000 0.000000 0.000000 0.000000 0.000000 0.000000 0.000000 0.000000 0.000000 0.000000 0.000000 0.000000 0.000000 0.000000 0.000000 0.000000 0.000000 0.000000 0.000000 0.000000 0.000000 0.000000 0.000000 0.000000 0.000000 0.000000 0.000000 0.000000 0.000000 0.000000 0.000000 0.000000 0.000000 0.000000 0.000000 0.000000 0.000000 0.000000 0.000000 0.000000 0.000000 0.000000 0.000000 0.000000 0.000000 0.000000 0.000000 0.000000 0.000000 0.000000 0.000000 0.000000 0.000000 0.000000 0.000000 0.000000 0.000000 0.000000 0.000000 0.000000 0.000000 0.000000 0.000000 0.000000 0.000000 0.000000 0.000000 0.000000 0.000000 0.000000 0.000000 0.000000 0.000000 0.000000 0.000000 0.000000 0.000000 0.000000 0.000000 0.000000 0.000000 0.000000 0.000000 0.000000 0.000000 0.000000 0.000000 0.000000 0.000000 0.000000 0.000000 0.000000 0.000000 0.000000 0.000000 0.000000 0.000000 0.000000 0.000000 0.000000 0.000000 0.000000 0.000000 0.000000 0.000000 0.000000 0.000000 0.000000 0.000000 0.000000 0.000000 0.000000 0.000000 0.000000 0.000000 0.000000 0.000000 0.000000 0.000000 0.000000 0.000000 0.000000 0.000000 0.000000 0.000000 0.000000 0.000000 0.000000 0.000000 0.000000 0.000000 0.000000 0.000000 0.000000 0.000000 0.000000 0.000000 0.000000 0.000000 0.000000 0.000000 0.000000 0.000000 0.000000 0.000000 0.000000 0.000000 0.000000 0.000000 0.000000 0.000000 0.000000 0.000000 0.000000 0.000000 0.000000 0.000000 0.000000 0.000000 0.000000 0.000000 0.000000 0.000000 0.000000 0.000000 0.000000 0.000000 0.000000 0.000000 0.000000 0.000000 0.000000 0.000000 0.000000 0.000000 0.000000 0.000000 0.000000 0.000000 0.000000 0.000000 0.000000 0.000000 0.000000 0.000000 0.000000 0.000000 0.000000 0.000000 0.000000 0.000000 0.000000 0.000000 0.000000 0.000000 0.000000 0.000000 0.000000 0.000000 0.000000 0.000000 0.000000 0.000000 0.000000 0.000000 0.000000 0.000000 0.000000 0.000000 0.000000 0.000000 0.000000 0.000000 0.000000 0.000000 0.000000 0.000000 0.000000 0.000000 0.000000 0.000000 
scale_factor_in=0.500000 0.500000 0.500000 0.500000 0.500000 0.500000 0.500000 0.500000 0.500000 0.500000 0.500000 0.500000 0.500000 0.500000 0.500000 0.500000 0.500000 0.500000 0.500000 0.500000 0.500000 0.500000 0.500000 0.500000 0.500000 0.500000 0.500000 0.500000 0.500000 0.500000 0.500000 0.500000 0.500000 0.500000 0.500000 0.500000 0.500000 0.500000 0.500000 0.500000 0.500000 0.500000 0.500000 0.500000 0.500000 0.500000 0.500000 0.500000 0.500000 0.500000 0.500000 0.500000 0.500000 0.500000 0.500000 0.500000 0.500000 0.500000 0.500000 0.500000 0.500000 0.500000 0.500000 0.500000 0.500000 0.500000 0.500000 0.500000 0.500000 0.500000 0.500000 0.500000 0.500000 0.500000 0.500000 0.500000 0.500000 0.500000 0.500000 0.500000 0.500000 0.500000 0.500000 0.500000 0.500000 0.500000 0.500000 0.500000 0.500000 0.500000 0.500000 0.500000 0.500000 0.500000 0.500000 0.500000 0.500000 0.500000 0.500000 0.500000 0.500000 0.500000 0.500000 0.500000 0.500000 0.500000 0.500000 0.500000 0.500000 0.500000 0.500000 0.500000 0.500000 0.500000 0.500000 0.500000 0.500000 0.500000 0.500000 0.500000 0.500000 0.500000 0.500000 0.500000 0.500000 0.500000 0.500000 0.500000 0.500000 0.500000 0.500000 0.500000 0.500000 0.500000 0.500000 0.500000 0.500000 0.500000 0.500000 0.500000 0.500000 0.500000 0.500000 0.500000 0.500000 0.500000 0.500000 0.500000 0.500000 0.500000 0.500000 0.500000 0.500000 0.500000 0.500000 0.500000 0.500000 0.500000 0.500000 0.500000 0.500000 0.500000 0.500000 0.500000 0.500000 0.500000 0.500000 0.500000 0.500000 0.500000 0.500000 0.500000 0.500000 0.500000 0.500000 0.500000 0.500000 0.500000 0.500000 0.500000 0.500000 0.500000 0.500000 0.500000 0.500000 0.500000 0.500000 0.500000 0.500000 0.500000 0.500000 0.500000 0.500000 0.500000 0.500000 0.500000 0.500000 0.500000 0.500000 0.500000 0.500000 0.500000 0.500000 0.500000 0.500000 0.500000 0.500000 0.500000 0.500000 0.500000 0.500000 0.500000 0.500000 0.500000 0.500000 0.500000 0.500000 0.500000 0.500000 0.500000 0.500000 0.500000 0.500000 0.500000 0.500000 0.500000 0.500000 0.500000 0.500000 0.500000 0.500000 0.500000 0.500000 0.500000 0.500000 0.500000 0.500000 0.500000 0.500000 0.500000 0.500000 0.500000 0.500000 0.500000 0.500000 0.500000 0.500000 0.500000 0.500000 0.500000 0.500000 0.500000 0.500000 0.500000 0.500000 0.500000 0.500000 0.500000 0.500000 0.500000 0.500000 0.500000 0.500000 0.500000 0.500000 0.500000 0.500000 0.500000 0.500000 0.500000 0.500000 0.500000 0.500000 0.500000 0.500000 0.500000 0.500000 0.500000 0.500000 0.500000 0.500000 0.500000 0.500000 0.500000 0.500000 0.500000 0.500000 0.500000 0.500000 0.500000 0.500000 0.500000 0.500000 0.500000 0.500000 0.500000 0.500000 0.500000 0.500000 0.500000 0.500000 0.500000 0.500000 0.500000 0.500000 0.500000 0.500000 0.500000 0.500000 0.500000 0.500000 0.500000 0.500000 0.500000 0.500000 0.500000 0.500000 0.500000 0.500000 0.500000 0.500000 0.500000 0.500000 0.500000 0.500000 0.500000 0.500000 0.500000 0.500000 0.500000 0.500000 0.500000 0.500000 0.500000 0.500000 0.500000 0.500000 0.500000 0.500000 0.500000 0.500000 0.500000 0.500000 0.500000 0.500000 0.500000 0.500000 0.500000 0.500000 0.500000 0.500000 0.500000 0.500000 0.500000 0.500000 0.500000 0.500000 0.500000 0.500000 0.500000 0.500000 0.500000 0.500000 0.500000 0.500000 0.500000 0.500000 0.500000 0.500000 0.500000 0.500000 0.500000 0.500000 0.500000 0.500000 0.500000 0.500000 0.500000 0.500000 0.500000 0.500000 0.500000 0.500000 0.500000 0.500000 0.500000 0.500000 0.500000 0.500000 0.500000 0.500000 0.500000 0.500000 0.500000 0.500000 0.500000 0.500000 0.500000 0.500000 0.500000 0.500000 0.500000 0.500000 0.500000 0.500000 0.500000 0.500000 0.500000 0.500000 0.500000 0.500000 0.500000 0.500000 0.500000 0.500000 0.500000 0.500000 0.500000 0.500000 0.500000 0.500000 0.500000 0.500000 0.500000 0.500000 0.500000 0.500000 0.500000 0.500000 0.500000 0.500000 0.500000 0.500000 0.500000 0.500000 0.500000 0.500000 0.500000 0.500000 0.500000 0.500000 0.500000 0.500000 0.500000 0.500000 0.500000 0.500000 0.500000 0.500000 0.500000 0.500000 0.500000 0.500000 0.500000 0.500000 0.500000 0.500000 0.500000 0.500000 0.500000 0.500000 0.500000 0.500000 0.500000 0.500000 0.500000 0.500000 0.500000 0.500000 0.500000 0.500000 0.500000 0.500000 0.500000 0.500000 0.500000 0.500000 0.500000 0.500000 0.500000 0.500000 0.500000 0.500000 0.500000 0.500000 0.500000 0.500000 0.500000 0.500000 0.500000 0.500000 0.500000 0.500000 0.500000 0.500000 0.500000 0.500000 0.500000 0.500000 0.500000 0.500000 0.500000 0.500000 0.500000 0.500000 0.500000 0.500000 0.500000 0.500000 0.500000 0.500000 0.500000 0.500000 0.500000 0.500000 0.500000 0.500000 0.500000 0.500000 0.500000 0.500000 0.500000 0.500000 0.500000 0.500000 0.500000 0.500000 0.500000 0.500000 0.500000 0.500000 0.500000 0.500000 0.500000 0.500000 0.500000 0.500000 0.500000 0.500000 0.500000 0.500000 0.500000 0.500000 0.500000 0.500000 0.500000 0.500000 0.500000 0.500000 0.500000 0.500000 0.500000 0.500000 0.500000 0.500000 0.500000 0.500000 0.500000 0.500000 0.500000 0.500000 0.500000 0.500000 0.500000 0.500000 0.500000 0.500000 0.500000 0.500000 0.500000 0.500000 0.500000 0.500000 0.500000 0.500000 0.500000 0.500000 0.500000 0.500000 0.500000 0.500000 0.500000 0.500000 0.500000 0.500000 0.500000 0.500000 0.500000 0.500000 0.500000 0.500000 0.500000 0.500000 0.500000 0.500000 0.500000 0.500000 0.500000 0.500000 0.500000 0.500000 0.500000 0.500000 0.500000 0.500000 0.500000 0.500000 0.500000 0.500000 0.500000 0.500000 0.500000 0.500000 0.500000 0.500000 0.500000 0.500000 0.500000 0.500000 0.500000 0.500000 0.500000 0.500000 0.500000 0.500000 0.500000 0.500000 0.500000 0.500000 0.500000 0.500000 0.500000 0.500000 0.500000 0.500000 0.500000 0.500000 0.500000 0.500000 0.500000 0.500000 0.500000 0.500000 0.500000 0.500000 0.500000 0.500000 0.500000 0.500000 0.500000 0.500000 0.500000 0.500000 0.500000 0.500000 0.500000 0.500000 0.500000 0.500000 0.500000 0.500000 0.500000 0.500000 0.500000 0.500000 0.500000 0.500000 0.500000 0.500000 0.500000 0.500000 0.500000 0.500000 0.500000 0.500000 0.500000 0.500000 0.500000 0.500000 0.500000 0.500000 0.500000 0.500000 0.500000 0.500000 0.500000 0.500000 0.500000 0.500000 0.500000 0.500000 0.500000 0.500000 0.500000 0.500000 0.500000 0.500000 0.500000 0.500000 0.500000 0.500000 0.500000 0.500000 0.500000 0.500000 0.500000 0.500000 0.500000 0.500000 0.500000 0.500000 0.500000 0.500000 0.500000 0.500000 0.500000 0.500000 0.500000 0.500000 0.500000 0.500000 0.500000 0.500000 0.500000 0.500000 0.500000 0.500000 0.500000 0.500000 0.500000 0.500000 0.500000 0.500000 0.500000 0.500000 0.500000 0.500000 0.500000 0.500000 0.500000 0.500000 0.500000 0.500000 0.500000 0.500000 0.500000 0.500000 0.500000 0.500000 0.500000 0.500000 0.500000 0.500000 0.500000 0.500000 0.500000 0.500000 0.500000 0.500000 0.500000 0.500000 0.500000 0.500000 0.500000 0.500000 0.500000 0.500000 0.500000 0.500000 0.500000 0.500000 0.500000 0.500000 0.500000 0.500000 0.500000 0.500000 0.500000 0.500000 0.500000 0.500000 0.500000 0.500000 0.500000 
scale_mean_out=0.100378 0.111600 0.098378 0.101133 0.098178 0.090422 0.097333 0.105244 0.097978 0.099356 
scale_deviation_out=0.300474 0.314901 0.297883 0.301532 0.297467 0.286709 0.296454 0.306816 0.297245 0.299077 
scale_new_min_out=0.000000 0.000000 0.000000 0.000000 0.000000 0.000000 0.000000 0.000000 0.000000 0.000000 
scale_factor_out=0.500000 0.500000 0.500000 0.500000 0.500000 0.500000 0.500000 0.500000 0.500000 0.500000 
neurons (num_inputs, activation_function, activation_steepness)=(0, 0, 0.00000000000000000000e+000) (0, 0, 0.00000000000000000000e+000) (0, 0, 0.00000000000000000000e+000) (0, 0, 0.00000000000000000000e+000) (0, 0, 0.00000000000000000000e+000) (0, 0, 0.00000000000000000000e+000) (0, 0, 0.00000000000000000000e+000) (0, 0, 0.00000000000000000000e+000) (0, 0, 0.00000000000000000000e+000) (0, 0, 0.00000000000000000000e+000) (0, 0, 0.00000000000000000000e+000) (0, 0, 0.00000000000000000000e+000) (0, 0, 0.00000000000000000000e+000) (0, 0, 0.00000000000000000000e+000) (0, 0, 0.00000000000000000000e+000) (0, 0, 0.00000000000000000000e+000) (0, 0, 0.00000000000000000000e+000) (0, 0, 0.00000000000000000000e+000) (0, 0, 0.00000000000000000000e+000) (0, 0, 0.00000000000000000000e+000) (0, 0, 0.00000000000000000000e+000) (0, 0, 0.00000000000000000000e+000) (0, 0, 0.00000000000000000000e+000) (0, 0, 0.00000000000000000000e+000) (0, 0, 0.00000000000000000000e+000) (0, 0, 0.00000000000000000000e+000) (0, 0, 0.00000000000000000000e+000) (0, 0, 0.00000000000000000000e+000) (0, 0, 0.00000000000000000000e+000) (0, 0, 0.00000000000000000000e+000) (0, 0, 0.00000000000000000000e+000) (0, 0, 0.00000000000000000000e+000) (0, 0, 0.00000000000000000000e+000) (0, 0, 0.00000000000000000000e+000) (0, 0, 0.00000000000000000000e+000) (0, 0, 0.00000000000000000000e+000) (0, 0, 0.00000000000000000000e+000) (0, 0, 0.00000000000000000000e+000) (0, 0, 0.00000000000000000000e+000) (0, 0, 0.00000000000000000000e+000) (0, 0, 0.00000000000000000000e+000) (0, 0, 0.00000000000000000000e+000) (0, 0, 0.00000000000000000000e+000) (0, 0, 0.00000000000000000000e+000) (0, 0, 0.00000000000000000000e+000) (0, 0, 0.00000000000000000000e+000) (0, 0, 0.00000000000000000000e+000) (0, 0, 0.00000000000000000000e+000) (0, 0, 0.00000000000000000000e+000) (0, 0, 0.00000000000000000000e+000) (0, 0, 0.00000000000000000000e+000) (0, 0, 0.00000000000000000000e+000) (0, 0, 0.00000000000000000000e+000) (0, 0, 0.00000000000000000000e+000) (0, 0, 0.00000000000000000000e+000) (0, 0, 0.00000000000000000000e+000) (0, 0, 0.00000000000000000000e+000) (0, 0, 0.00000000000000000000e+000) (0, 0, 0.00000000000000000000e+000) (0, 0, 0.00000000000000000000e+000) (0, 0, 0.00000000000000000000e+000) (0, 0, 0.00000000000000000000e+000) (0, 0, 0.00000000000000000000e+000) (0, 0, 0.00000000000000000000e+000) (0, 0, 0.00000000000000000000e+000) (0, 0, 0.00000000000000000000e+000) (0, 0, 0.00000000000000000000e+000) (0, 0, 0.00000000000000000000e+000) (0, 0, 0.00000000000000000000e+000) (0, 0, 0.00000000000000000000e+000) (0, 0, 0.00000000000000000000e+000) (0, 0, 0.00000000000000000000e+000) (0, 0, 0.00000000000000000000e+000) (0, 0, 0.00000000000000000000e+000) (0, 0, 0.00000000000000000000e+000) (0, 0, 0.00000000000000000000e+000) (0, 0, 0.00000000000000000000e+000) (0, 0, 0.00000000000000000000e+000) (0, 0, 0.00000000000000000000e+000) (0, 0, 0.00000000000000000000e+000) (0, 0, 0.00000000000000000000e+000) (0, 0, 0.00000000000000000000e+000) (0, 0, 0.00000000000000000000e+000) (0, 0, 0.00000000000000000000e+000) (0, 0, 0.00000000000000000000e+000) (0, 0, 0.00000000000000000000e+000) (0, 0, 0.00000000000000000000e+000) (0, 0, 0.00000000000000000000e+000) (0, 0, 0.00000000000000000000e+000) (0, 0, 0.00000000000000000000e+000) (0, 0, 0.00000000000000000000e+000) (0, 0, 0.00000000000000000000e+000) (0, 0, 0.00000000000000000000e+000) (0, 0, 0.00000000000000000000e+000) (0, 0, 0.00000000000000000000e+000) (0, 0, 0.00000000000000000000e+000) (0, 0, 0.00000000000000000000e+000) (0, 0, 0.00000000000000000000e+000) (0, 0, 0.00000000000000000000e+000) (0, 0, 0.00000000000000000000e+000) (0, 0, 0.00000000000000000000e+000) (0, 0, 0.00000000000000000000e+000) (0, 0, 0.00000000000000000000e+000) (0, 0, 0.00000000000000000000e+000) (0, 0, 0.00000000000000000000e+000) (0, 0, 0.00000000000000000000e+000) (0, 0, 0.00000000000000000000e+000) (0, 0, 0.00000000000000000000e+000) (0, 0, 0.00000000000000000000e+000) (0, 0, 0.00000000000000000000e+000) (0, 0, 0.00000000000000000000e+000) (0, 0, 0.00000000000000000000e+000) (0, 0, 0.00000000000000000000e+000) (0, 0, 0.00000000000000000000e+000) (0, 0, 0.00000000000000000000e+000) (0, 0, 0.00000000000000000000e+000) (0, 0, 0.00000000000000000000e+000) (0, 0, 0.00000000000000000000e+000) (0, 0, 0.00000000000000000000e+000) (0, 0, 0.00000000000000000000e+000) (0, 0, 0.00000000000000000000e+000) (0, 0, 0.00000000000000000000e+000) (0, 0, 0.00000000000000000000e+000) (0, 0, 0.00000000000000000000e+000) (0, 0, 0.00000000000000000000e+000) (0, 0, 0.00000000000000000000e+000) (0, 0, 0.00000000000000000000e+000) (0, 0, 0.00000000000000000000e+000) (0, 0, 0.00000000000000000000e+000) (0, 0, 0.00000000000000000000e+000) (0, 0, 0.00000000000000000000e+000) (0, 0, 0.00000000000000000000e+000) (0, 0, 0.00000000000000000000e+000) (0, 0, 0.00000000000000000000e+000) (0, 0, 0.00000000000000000000e+000) (0, 0, 0.00000000000000000000e+000) (0, 0, 0.00000000000000000000e+000) (0, 0, 0.00000000000000000000e+000) (0, 0, 0.00000000000000000000e+000) (0, 0, 0.00000000000000000000e+000) (0, 0, 0.00000000000000000000e+000) (0, 0, 0.00000000000000000000e+000) (0, 0, 0.00000000000000000000e+000) (0, 0, 0.00000000000000000000e+000) (0, 0, 0.00000000000000000000e+000) (0, 0, 0.00000000000000000000e+000) (0, 0, 0.00000000000000000000e+000) (0, 0, 0.00000000000000000000e+000) (0, 0, 0.00000000000000000000e+000) (0, 0, 0.00000000000000000000e+000) (0, 0, 0.00000000000000000000e+000) (0, 0, 0.00000000000000000000e+000) (0, 0, 0.00000000000000000000e+000) (0, 0, 0.00000000000000000000e+000) (0, 0, 0.00000000000000000000e+000) (0, 0, 0.00000000000000000000e+000) (0, 0, 0.00000000000000000000e+000) (0, 0, 0.00000000000000000000e+000) (0, 0, 0.00000000000000000000e+000) (0, 0, 0.00000000000000000000e+000) (0, 0, 0.00000000000000000000e+000) (0, 0, 0.00000000000000000000e+000) (0, 0, 0.00000000000000000000e+000) (0, 0, 0.00000000000000000000e+000) (0, 0, 0.00000000000000000000e+000) (0, 0, 0.00000000000000000000e+000) (0, 0, 0.00000000000000000000e+000) (0, 0, 0.00000000000000000000e+000) (0, 0, 0.00000000000000000000e+000) (0, 0, 0.00000000000000000000e+000) (0, 0, 0.00000000000000000000e+000) (0, 0, 0.00000000000000000000e+000) (0, 0, 0.00000000000000000000e+000) (0, 0, 0.00000000000000000000e+000) (0, 0, 0.00000000000000000000e+000) (0, 0, 0.00000000000000000000e+000) (0, 0, 0.00000000000000000000e+000) (0, 0, 0.00000000000000000000e+000) (0, 0, 0.00000000000000000000e+000) (0, 0, 0.00000000000000000000e+000) (0, 0, 0.00000000000000000000e+000) (0, 0, 0.00000000000000000000e+000) (0, 0, 0.00000000000000000000e+000) (0, 0, 0.00000000000000000000e+000) (0, 0, 0.00000000000000000000e+000) (0, 0, 0.00000000000000000000e+000) (0, 0, 0.00000000000000000000e+000) (0, 0, 0.00000000000000000000e+000) (0, 0, 0.00000000000000000000e+000) (0, 0, 0.00000000000000000000e+000) (0, 0, 0.00000000000000000000e+000) (0, 0, 0.00000000000000000000e+000) (0, 0, 0.00000000000000000000e+000) (0, 0, 0.00000000000000000000e+000) (0, 0, 0.00000000000000000000e+000) (0, 0, 0.00000000000000000000e+000) (0, 0, 0.00000000000000000000e+000) (0, 0, 0.00000000000000000000e+000) (0, 0, 0.00000000000000000000e+000) (0, 0, 0.00000000000000000000e+000) (0, 0, 0.00000000000000000000e+000) (0, 0, 0.00000000000000000000e+000) (0, 0, 0.00000000000000000000e+000) (0, 0, 0.00000000000000000000e+000) (0, 0, 0.00000000000000000000e+000) (0, 0, 0.00000000000000000000e+000) (0, 0, 0.00000000000000000000e+000) (0, 0, 0.00000000000000000000e+000) (0, 0, 0.00000000000000000000e+000) (0, 0, 0.00000000000000000000e+000) (0, 0, 0.00000000000000000000e+000) (0, 0, 0.00000000000000000000e+000) (0, 0, 0.00000000000000000000e+000) (0, 0, 0.00000000000000000000e+000) (0, 0, 0.00000000000000000000e+000) (0, 0, 0.00000000000000000000e+000) (0, 0, 0.00000000000000000000e+000) (0, 0, 0.00000000000000000000e+000) (0, 0, 0.00000000000000000000e+000) (0, 0, 0.00000000000000000000e+000) (0, 0, 0.00000000000000000000e+000) (0, 0, 0.00000000000000000000e+000) (0, 0, 0.00000000000000000000e+000) (0, 0, 0.00000000000000000000e+000) (0, 0, 0.00000000000000000000e+000) (0, 0, 0.00000000000000000000e+000) (0, 0, 0.00000000000000000000e+000) (0, 0, 0.00000000000000000000e+000) (0, 0, 0.00000000000000000000e+000) (0, 0, 0.00000000000000000000e+000) (0, 0, 0.00000000000000000000e+000) (0, 0, 0.00000000000000000000e+000) (0, 0, 0.00000000000000000000e+000) (0, 0, 0.00000000000000000000e+000) (0, 0, 0.00000000000000000000e+000) (0, 0, 0.00000000000000000000e+000) (0, 0, 0.00000000000000000000e+000) (0, 0, 0.00000000000000000000e+000) (0, 0, 0.00000000000000000000e+000) (0, 0, 0.00000000000000000000e+000) (0, 0, 0.00000000000000000000e+000) (0, 0, 0.00000000000000000000e+000) (0, 0, 0.00000000000000000000e+000) (0, 0, 0.00000000000000000000e+000) (0, 0, 0.00000000000000000000e+000) (0, 0, 0.00000000000000000000e+000) (0, 0, 0.00000000000000000000e+000) (0, 0, 0.00000000000000000000e+000) (0, 0, 0.00000000000000000000e+000) (0, 0, 0.00000000000000000000e+000) (0, 0, 0.00000000000000000000e+000) (0, 0, 0.00000000000000000000e+000) (0, 0, 0.00000000000000000000e+000) (0, 0, 0.00000000000000000000e+000) (0, 0, 0.00000000000000000000e+000) (0, 0, 0.00000000000000000000e+000) (0, 0, 0.00000000000000000000e+000) (0, 0, 0.00000000000000000000e+000) (0, 0, 0.00000000000000000000e+000) (0, 0, 0.00000000000000000000e+000) (0, 0, 0.00000000000000000000e+000) (0, 0, 0.00000000000000000000e+000) (0, 0, 0.00000000000000000000e+000) (0, 0, 0.00000000000000000000e+000) (0, 0, 0.00000000000000000000e+000) (0, 0, 0.00000000000000000000e+000) (0, 0, 0.00000000000000000000e+000) (0, 0, 0.00000000000000000000e+000) (0, 0, 0.00000000000000000000e+000) (0, 0, 0.00000000000000000000e+000) (0, 0, 0.00000000000000000000e+000) (0, 0, 0.00000000000000000000e+000) (0, 0, 0.00000000000000000000e+000) (0, 0, 0.00000000000000000000e+000) (0, 0, 0.00000000000000000000e+000) (0, 0, 0.00000000000000000000e+000) (0, 0, 0.00000000000000000000e+000) (0, 0, 0.00000000000000000000e+000) (0, 0, 0.00000000000000000000e+000) (0, 0, 0.00000000000000000000e+000) (0, 0, 0.00000000000000000000e+000) (0, 0, 0.00000000000000000000e+000) (0, 0, 0.00000000000000000000e+000) (0, 0, 0.00000000000000000000e+000) (0, 0, 0.00000000000000000000e+000) (0, 0, 0.00000000000000000000e+000) (0, 0, 0.00000000000000000000e+000) (0, 0, 0.00000000000000000000e+000) (0, 0, 0.00000000000000000000e+000) (0, 0, 0.00000000000000000000e+000) (0, 0, 0.00000000000000000000e+000) (0, 0, 0.00000000000000000000e+000) (0, 0, 0.00000000000000000000e+000) (0, 0, 0.00000000000000000000e+000) (0, 0, 0.00000000000000000000e+000) (0, 0, 0.00000000000000000000e+000) (0, 0, 0.00000000000000000000e+000) (0, 0, 0.00000000000000000000e+000) (0, 0, 0.00000000000000000000e+000) (0, 0, 0.00000000000000000000e+000) (0, 0, 0.00000000000000000000e+000) (0, 0, 0.00000000000000000000e+000) (0, 0, 0.00000000000000000000e+000) (0, 0, 0.00000000000000000000e+000) (0, 0, 0.00000000000000000000e+000) (0, 0, 0.00000000000000000000e+000) (0, 0, 0.00000000000000000000e+000) (0, 0, 0.00000000000000000000e+000) (0, 0, 0.00000000000000000000e+000) (0, 0, 0.00000000000000000000e+000) (0, 0, 0.00000000000000000000e+000) (0, 0, 0.00000000000000000000e+000) (0, 0, 0.00000000000000000000e+000) (0, 0, 0.00000000000000000000e+000) (0, 0, 0.00000000000000000000e+000) (0, 0, 0.00000000000000000000e+000) (0, 0, 0.00000000000000000000e+000) (0, 0, 0.00000000000000000000e+000) (0, 0, 0.00000000000000000000e+000) (0, 0, 0.00000000000000000000e+000) (0, 0, 0.00000000000000000000e+000) (0, 0, 0.00000000000000000000e+000) (0, 0, 0.00000000000000000000e+000) (0, 0, 0.00000000000000000000e+000) (0, 0, 0.00000000000000000000e+000) (0, 0, 0.00000000000000000000e+000) (0, 0, 0.00000000000000000000e+000) (0, 0, 0.00000000000000000000e+000) (0, 0, 0.00000000000000000000e+000) (0, 0, 0.00000000000000000000e+000) (0, 0, 0.00000000000000000000e+000) (0, 0, 0.00000000000000000000e+000) (0, 0, 0.00000000000000000000e+000) (0, 0, 0.00000000000000000000e+000) (0, 0, 0.00000000000000000000e+000) (0, 0, 0.00000000000000000000e+000) (0, 0, 0.00000000000000000000e+000) (0, 0, 0.00000000000000000000e+000) (0, 0, 0.00000000000000000000e+000) (0, 0, 0.00000000000000000000e+000) (0, 0, 0.00000000000000000000e+000) (0, 0, 0.00000000000000000000e+000) (0, 0, 0.00000000000000000000e+000) (0, 0, 0.00000000000000000000e+000) (0, 0, 0.00000000000000000000e+000) (0, 0, 0.00000000000000000000e+000) (0, 0, 0.00000000000000000000e+000) (0, 0, 0.00000000000000000000e+000) (0, 0, 0.00000000000000000000e+000) (0, 0, 0.00000000000000000000e+000) (0, 0, 0.00000000000000000000e+000) (0, 0, 0.00000000000000000000e+000) (0, 0, 0.00000000000000000000e+000) (0, 0, 0.00000000000000000000e+000) (0, 0, 0.00000000000000000000e+000) (0, 0, 0.00000000000000000000e+000) (0, 0, 0.00000000000000000000e+000) (0, 0, 0.00000000000000000000e+000) (0, 0, 0.00000000000000000000e+000) (0, 0, 0.00000000000000000000e+000) (0, 0, 0.00000000000000000000e+000) (0, 0, 0.00000000000000000000e+000) (0, 0, 0.00000000000000000000e+000) (0, 0, 0.00000000000000000000e+000) (0, 0, 0.00000000000000000000e+000) (0, 0, 0.00000000000000000000e+000) (0, 0, 0.00000000000000000000e+000) (0, 0, 0.00000000000000000000e+000) (0, 0, 0.00000000000000000000e+000) (0, 0, 0.00000000000000000000e+000) (0, 0, 0.00000000000000000000e+000) (0, 0, 0.00000000000000000000e+000) (0, 0, 0.00000000000000000000e+000) (0, 0, 0.00000000000000000000e+000) (0, 0, 0.00000000000000000000e+000) (0, 0, 0.00000000000000000000e+000) (0, 0, 0.00000000000000000000e+000) (0, 0, 0.00000000000000000000e+000) (0, 0, 0.00000000000000000000e+000) (0, 0, 0.00000000000000000000e+000) (0, 0, 0.00000000000000000000e+000) (0, 0, 0.00000000000000000000e+000) (0, 0, 0.00000000000000000000e+000) (0, 0, 0.00000000000000000000e+000) (0, 0, 0.00000000000000000000e+000) (0, 0, 0.00000000000000000000e+000) (0, 0, 0.00000000000000000000e+000) (0, 0, 0.00000000000000000000e+000) (0, 0, 0.00000000000000000000e+000) (0, 0, 0.00000000000000000000e+000) (0, 0, 0.00000000000000000000e+000) (0, 0, 0.00000000000000000000e+000) (0, 0, 0.00000000000000000000e+000) (0, 0, 0.00000000000000000000e+000) (0, 0, 0.00000000000000000000e+000) (0, 0, 0.00000000000000000000e+000) (0, 0, 0.00000000000000000000e+000) (0, 0, 0.00000000000000000000e+000) (0, 0, 0.00000000000000000000e+000) (0, 0, 0.00000000000000000000e+000) (0, 0, 0.00000000000000000000e+000) (0, 0, 0.00000000000000000000e+000) (0, 0, 0.00000000000000000000e+000) (0, 0, 0.00000000000000000000e+000) (0, 0, 0.00000000000000000000e+000) (0, 0, 0.00000000000000000000e+000) (0, 0, 0.00000000000000000000e+000) (0, 0, 0.00000000000000000000e+000) (0, 0, 0.00000000000000000000e+000) (0, 0, 0.00000000000000000000e+000) (0, 0, 0.00000000000000000000e+000) (0, 0, 0.00000000000000000000e+000) (0, 0, 0.00000000000000000000e+000) (0, 0, 0.00000000000000000000e+000) (0, 0, 0.00000000000000000000e+000) (0, 0, 0.00000000000000000000e+000) (0, 0, 0.00000000000000000000e+000) (0, 0, 0.00000000000000000000e+000) (0, 0, 0.00000000000000000000e+000) (0, 0, 0.00000000000000000000e+000) (0, 0, 0.00000000000000000000e+000) (0, 0, 0.00000000000000000000e+000) (0, 0, 0.00000000000000000000e+000) (0, 0, 0.00000000000000000000e+000) (0, 0, 0.00000000000000000000e+000) (0, 0, 0.00000000000000000000e+000) (0, 0, 0.00000000000000000000e+000) (0, 0, 0.00000000000000000000e+000) (0, 0, 0.00000000000000000000e+000) (0, 0, 0.00000000000000000000e+000) (0, 0, 0.00000000000000000000e+000) (0, 0, 0.00000000000000000000e+000) (0, 0, 0.00000000000000000000e+000) (0, 0, 0.00000000000000000000e+000) (0, 0, 0.00000000000000000000e+000) (0, 0, 0.00000000000000000000e+000) (0, 0, 0.00000000000000000000e+000) (0, 0, 0.00000000000000000000e+000) (0, 0, 0.00000000000000000000e+000) (0, 0, 0.00000000000000000000e+000) (0, 0, 0.00000000000000000000e+000) (0, 0, 0.00000000000000000000e+000) (0, 0, 0.00000000000000000000e+000) (0, 0, 0.00000000000000000000e+000) (0, 0, 0.00000000000000000000e+000) (0, 0, 0.00000000000000000000e+000) (0, 0, 0.00000000000000000000e+000) (0, 0, 0.00000000000000000000e+000) (0, 0, 0.00000000000000000000e+000) (0, 0, 0.00000000000000000000e+000) (0, 0, 0.00000000000000000000e+000) (0, 0, 0.00000000000000000000e+000) (0, 0, 0.00000000000000000000e+000) (0, 0, 0.00000000000000000000e+000) (0, 0, 0.00000000000000000000e+000) (0, 0, 0.00000000000000000000e+000) (0, 0, 0.00000000000000000000e+000) (0, 0, 0.00000000000000000000e+000) (0, 0, 0.00000000000000000000e+000) (0, 0, 0.00000000000000000000e+000) (0, 0, 0.00000000000000000000e+000) (0, 0, 0.00000000000000000000e+000) (0, 0, 0.00000000000000000000e+000) (0, 0, 0.00000000000000000000e+000) (0, 0, 0.00000000000000000000e+000) (0, 0, 0.00000000000000000000e+000) (0, 0, 0.00000000000000000000e+000) (0, 0, 0.00000000000000000000e+000) (0, 0, 0.00000000000000000000e+000) (0, 0, 0.00000000000000000000e+000) (0, 0, 0.00000000000000000000e+000) (0, 0, 0.00000000000000000000e+000) (0, 0, 0.00000000000000000000e+000) (0, 0, 0.00000000000000000000e+000) (0, 0, 0.00000000000000000000e+000) (0, 0, 0.00000000000000000000e+000) (0, 0, 0.00000000000000000000e+000) (0, 0, 0.00000000000000000000e+000) (0, 0, 0.00000000000000000000e+000) (0, 0, 0.00000000000000000000e+000) (0, 0, 0.00000000000000000000e+000) (0, 0, 0.00000000000000000000e+000) (0, 0, 0.00000000000000000000e+000) (0, 0, 0.00000000000000000000e+000) (0, 0, 0.00000000000000000000e+000) (0, 0, 0.00000000000000000000e+000) (0, 0, 0.00000000000000000000e+000) (0, 0, 0.00000000000000000000e+000) (0, 0, 0.00000000000000000000e+000) (0, 0, 0.00000000000000000000e+000) (0, 0, 0.00000000000000000000e+000) (0, 0, 0.00000000000000000000e+000) (0, 0, 0.00000000000000000000e+000) (0, 0, 0.00000000000000000000e+000) (0, 0, 0.00000000000000000000e+000) (0, 0, 0.00000000000000000000e+000) (0, 0, 0.00000000000000000000e+000) (0, 0, 0.00000000000000000000e+000) (0, 0, 0.00000000000000000000e+000) (0, 0, 0.00000000000000000000e+000) (0, 0, 0.00000000000000000000e+000) (0, 0, 0.00000000000000000000e+000) (0, 0, 0.00000000000000000000e+000) (0, 0, 0.00000000000000000000e+000) (0, 0, 0.00000000000000000000e+000) (0, 0, 0.00000000000000000000e+000) (0, 0, 0.00000000000000000000e+000) (0, 0, 0.00000000000000000000e+000) (0, 0, 0.00000000000000000000e+000) (0, 0, 0.00000000000000000000e+000) (0, 0, 0.00000000000000000000e+000) (0, 0, 0.00000000000000000000e+000) (0, 0, 0.00000000000000000000e+000) (0, 0, 0.00000000000000000000e+000) (0, 0, 0.00000000000000000000e+000) (0, 0, 0.00000000000000000000e+000) (0, 0, 0.00000000000000000000e+000) (0, 0, 0.00000000000000000000e+000) (0, 0, 0.00000000000000000000e+000) (0, 0, 0.00000000000000000000e+000) (0, 0, 0.00000000000000000000e+000) (0, 0, 0.00000000000000000000e+000) (0, 0, 0.00000000000000000000e+000) (0, 0, 0.00000000000000000000e+000) (0, 0, 0.00000000000000000000e+000) (0, 0, 0.00000000000000000000e+000) (0, 0, 0.00000000000000000000e+000) (0, 0, 0.00000000000000000000e+000) (0, 0, 0.00000000000000000000e+000) (0, 0, 0.00000000000000000000e+000) (0, 0, 0.00000000000000000000e+000) (0, 0, 0.00000000000000000000e+000) (0, 0, 0.00000000000000000000e+000) (0, 0, 0.00000000000000000000e+000) (0, 0, 0.00000000000000000000e+000) (0, 0, 0.00000000000000000000e+000) (0, 0, 0.00000000000000000000e+000) (0, 0, 0.00000000000000000000e+000) (0, 0, 0.00000000000000000000e+000) (0, 0, 0.00000000000000000000e+000) (0, 0, 0.00000000000000000000e+000) (0, 0, 0.00000000000000000000e+000) (0, 0, 0.00000000000000000000e+000) (0, 0, 0.00000000000000000000e+000) (0, 0, 0.00000000000000000000e+000) (0, 0, 0.00000000000000000000e+000) (0, 0, 0.00000000000000000000e+000) (0, 0, 0.00000000000000000000e+000) (0, 0, 0.00000000000000000000e+000) (0, 0, 0.00000000000000000000e+000) (0, 0, 0.00000000000000000000e+000) (0, 0, 0.00000000000000000000e+000) (0, 0, 0.00000000000000000000e+000) (0, 0, 0.00000000000000000000e+000) (0, 0, 0.00000000000000000000e+000) (0, 0, 0.00000000000000000000e+000) (0, 0, 0.00000000000000000000e+000) (0, 0, 0.00000000000000000000e+000) (0, 0, 0.00000000000000000000e+000) (0, 0, 0.00000000000000000000e+000) (0, 0, 0.00000000000000000000e+000) (0, 0, 0.00000000000000000000e+000) (0, 0, 0.00000000000000000000e+000) (0, 0, 0.00000000000000000000e+000) (0, 0, 0.00000000000000000000e+000) (0, 0, 0.00000000000000000000e+000) (0, 0, 0.00000000000000000000e+000) (0, 0, 0.00000000000000000000e+000) (0, 0, 0.00000000000000000000e+000) (0, 0, 0.00000000000000000000e+000) (0, 0, 0.00000000000000000000e+000) (0, 0, 0.00000000000000000000e+000) (0, 0, 0.00000000000000000000e+000) (0, 0, 0.00000000000000000000e+000) (0, 0, 0.00000000000000000000e+000) (0, 0, 0.00000000000000000000e+000) (0, 0, 0.00000000000000000000e+000) (0, 0, 0.00000000000000000000e+000) (0, 0, 0.00000000000000000000e+000) (0, 0, 0.00000000000000000000e+000) (0, 0, 0.00000000000000000000e+000) (0, 0, 0.00000000000000000000e+000) (0, 0, 0.00000000000000000000e+000) (0, 0, 0.00000000000000000000e+000) (0, 0, 0.00000000000000000000e+000) (0, 0, 0.00000000000000000000e+000) (0, 0, 0.00000000000000000000e+000) (0, 0, 0.00000000000000000000e+000) (0, 0, 0.00000000000000000000e+000) (0, 0, 0.00000000000000000000e+000) (0, 0, 0.00000000000000000000e+000) (0, 0, 0.00000000000000000000e+000) (0, 0, 0.00000000000000000000e+000) (0, 0, 0.00000000000000000000e+000) (0, 0, 0.00000000000000000000e+000) (0, 0, 0.00000000000000000000e+000) (0, 0, 0.00000000000000000000e+000) (0, 0, 0.00000000000000000000e+000) (0, 0, 0.00000000000000000000e+000) (0, 0, 0.00000000000000000000e+000) (0, 0, 0.00000000000000000000e+000) (0, 0, 0.00000000000000000000e+000) (0, 0, 0.00000000000000000000e+000) (0, 0, 0.00000000000000000000e+000) (0, 0, 0.00000000000000000000e+000) (0, 0, 0.00000000000000000000e+000) (0, 0, 0.00000000000000000000e+000) (0, 0, 0.00000000000000000000e+000) (0, 0, 0.00000000000000000000e+000) (0, 0, 0.00000000000000000000e+000) (0, 0, 0.00000000000000000000e+000) (0, 0, 0.00000000000000000000e+000) (0, 0, 0.00000000000000000000e+000) (0, 0, 0.00000000000000000000e+000) (0, 0, 0.00000000000000000000e+000) (0, 0, 0.00000000000000000000e+000) (0, 0, 0.00000000000000000000e+000) (0, 0, 0.00000000000000000000e+000) (0, 0, 0.00000000000000000000e+000) (0, 0, 0.00000000000000000000e+000) (0, 0, 0.00000000000000000000e+000) (0, 0, 0.00000000000000000000e+000) (0, 0, 0.00000000000000000000e+000) (0, 0, 0.00000000000000000000e+000) (0, 0, 0.00000000000000000000e+000) (0, 0, 0.00000000000000000000e+000) (0, 0, 0.00000000000000000000e+000) (0, 0, 0.00000000000000000000e+000) (0, 0, 0.00000000000000000000e+000) (0, 0, 0.00000000000000000000e+000) (0, 0, 0.00000000000000000000e+000) (0, 0, 0.00000000000000000000e+000) (0, 0, 0.00000000000000000000e+000) (0, 0, 0.00000000000000000000e+000) (0, 0, 0.00000000000000000000e+000) (0, 0, 0.00000000000000000000e+000) (0, 0, 0.00000000000000000000e+000) (0, 0, 0.00000000000000000000e+000) (0, 0, 0.00000000000000000000e+000) (0, 0, 0.00000000000000000000e+000) (0, 0, 0.00000000000000000000e+000) (0, 0, 0.00000000000000000000e+000) (0, 0, 0.00000000000000000000e+000) (0, 0, 0.00000000000000000000e+000) (0, 0, 0.00000000000000000000e+000) (0, 0, 0.00000000000000000000e+000) (0, 0, 0.00000000000000000000e+000) (0, 0, 0.00000000000000000000e+000) (0, 0, 0.00000000000000000000e+000) (0, 0, 0.00000000000000000000e+000) (0, 0, 0.00000000000000000000e+000) (0, 0, 0.00000000000000000000e+000) (0, 0, 0.00000000000000000000e+000) (0, 0, 0.00000000000000000000e+000) (0, 0, 0.00000000000000000000e+000) (0, 0, 0.00000000000000000000e+000) (0, 0, 0.00000000000000000000e+000) (0, 0, 0.00000000000000000000e+000) (0, 0, 0.00000000000000000000e+000) (0, 0, 0.00000000000000000000e+000) (0, 0, 0.00000000000000000000e+000) (0, 0, 0.00000000000000000000e+000) (0, 0, 0.00000000000000000000e+000) (0, 0, 0.00000000000000000000e+000) (0, 0, 0.00000000000000000000e+000) (0, 0, 0.00000000000000000000e+000) (0, 0, 0.00000000000000000000e+000) (0, 0, 0.00000000000000000000e+000) (0, 0, 0.00000000000000000000e+000) (0, 0, 0.00000000000000000000e+000) (0, 0, 0.00000000000000000000e+000) (0, 0, 0.00000000000000000000e+000) (0, 0, 0.00000000000000000000e+000) (0, 0, 0.00000000000000000000e+000) (0, 0, 0.00000000000000000000e+000) (0, 0, 0.00000000000000000000e+000) (0, 0, 0.00000000000000000000e+000) (0, 0, 0.00000000000000000000e+000) (0, 0, 0.00000000000000000000e+000) (0, 0, 0.00000000000000000000e+000) (0, 0, 0.00000000000000000000e+000) (0, 0, 0.00000000000000000000e+000) (0, 0, 0.00000000000000000000e+000) (0, 0, 0.00000000000000000000e+000) (0, 0, 0.00000000000000000000e+000) (0, 0, 0.00000000000000000000e+000) (0, 0, 0.00000000000000000000e+000) (0, 0, 0.00000000000000000000e+000) (0, 0, 0.00000000000000000000e+000) (0, 0, 0.00000000000000000000e+000) (0, 0, 0.00000000000000000000e+000) (0, 0, 0.00000000000000000000e+000) (0, 0, 0.00000000000000000000e+000) (0, 0, 0.00000000000000000000e+000) (0, 0, 0.00000000000000000000e+000) (0, 0, 0.00000000000000000000e+000) (0, 0, 0.00000000000000000000e+000) (0, 0, 0.00000000000000000000e+000) (0, 0, 0.00000000000000000000e+000) (0, 0, 0.00000000000000000000e+000) (0, 0, 0.00000000000000000000e+000) (0, 0, 0.00000000000000000000e+000) (0, 0, 0.00000000000000000000e+000) (0, 0, 0.00000000000000000000e+000) (0, 0, 0.00000000000000000000e+000) (0, 0, 0.00000000000000000000e+000) (0, 0, 0.00000000000000000000e+000) (0, 0, 0.00000000000000000000e+000) (0, 0, 0.00000000000000000000e+000) (0, 0, 0.00000000000000000000e+000) (0, 0, 0.00000000000000000000e+000) (0, 0, 0.00000000000000000000e+000) (0, 0, 0.00000000000000000000e+000) (0, 0, 0.00000000000000000000e+000) (0, 0, 0.00000000000000000000e+000) (0, 0, 0.00000000000000000000e+000) (0, 0, 0.00000000000000000000e+000) (0, 0, 0.00000000000000000000e+000) (0, 0, 0.00000000000000000000e+000) (0, 0, 0.00000000000000000000e+000) (0, 0, 0.00000000000000000000e+000) (0, 0, 0.00000000000000000000e+000) (0, 0, 0.00000000000000000000e+000) (0, 0, 0.00000000000000000000e+000) (0, 0, 0.00000000000000000000e+000) (0, 0, 0.00000000000000000000e+000) (0, 0, 0.00000000000000000000e+000) (0, 0, 0.00000000000000000000e+000) (0, 0, 0.00000000000000000000e+000) (0, 0, 0.00000000000000000000e+000) (0, 0, 0.00000000000000000000e+000) (0, 0, 0.00000000000000000000e+000) (0, 0, 0.00000000000000000000e+000) (0, 0, 0.00000000000000000000e+000) (0, 0, 0.00000000000000000000e+000) (0, 0, 0.00000000000000000000e+000) (0, 0, 0.00000000000000000000e+000) (0, 0, 0.00000000000000000000e+000) (0, 0, 0.00000000000000000000e+000) (0, 0, 0.00000000000000000000e+000) (0, 0, 0.00000000000000000000e+000) (0, 0, 0.00000000000000000000e+000) (0, 0, 0.00000000000000000000e+000) (0, 0, 0.00000000000000000000e+000) (0, 0, 0.00000000000000000000e+000) (0, 0, 0.00000000000000000000e+000) (0, 0, 0.00000000000000000000e+000) (0, 0, 0.00000000000000000000e+000) (0, 0, 0.00000000000000000000e+000) (0, 0, 0.00000000000000000000e+000) (0, 0, 0.00000000000000000000e+000) (0, 0, 0.00000000000000000000e+000) (0, 0, 0.00000000000000000000e+000) (0, 0, 0.00000000000000000000e+000) (0, 0, 0.00000000000000000000e+000) (0, 0, 0.00000000000000000000e+000) (0, 0, 0.00000000000000000000e+000) (0, 0, 0.00000000000000000000e+000) (0, 0, 0.00000000000000000000e+000) (0, 0, 0.00000000000000000000e+000) (0, 0, 0.00000000000000000000e+000) (0, 0, 0.00000000000000000000e+000) (0, 0, 0.00000000000000000000e+000) (0, 0, 0.00000000000000000000e+000) (0, 0, 0.00000000000000000000e+000) (0, 0, 0.00000000000000000000e+000) (0, 0, 0.00000000000000000000e+000) (0, 0, 0.00000000000000000000e+000) (0, 0, 0.00000000000000000000e+000) (0, 0, 0.00000000000000000000e+000) (0, 0, 0.00000000000000000000e+000) (0, 0, 0.00000000000000000000e+000) (0, 0, 0.00000000000000000000e+000) (0, 0, 0.00000000000000000000e+000) (0, 0, 0.00000000000000000000e+000) (0, 0, 0.00000000000000000000e+000) (0, 0, 0.00000000000000000000e+000) (0, 0, 0.00000000000000000000e+000) (0, 0, 0.00000000000000000000e+000) (0, 0, 0.00000000000000000000e+000) (0, 0, 0.00000000000000000000e+000) (0, 0, 0.00000000000000000000e+000) (0, 0, 0.00000000000000000000e+000) (0, 0, 0.00000000000000000000e+000) (0, 0, 0.00000000000000000000e+000) (785, 3, 5.00000000000000000000e-001) (785, 3, 5.00000000000000000000e-001) (785, 3, 5.00000000000000000000e-001) (785, 3, 5.00000000000000000000e-001) (785, 3, 5.00000000000000000000e-001) (785, 3, 5.00000000000000000000e-001) (785, 3, 5.00000000000000000000e-001) (785, 3, 5.00000000000000000000e-001) (785, 3, 5.00000000000000000000e-001) (785, 3, 5.00000000000000000000e-001) (785, 3, 5.00000000000000000000e-001) (785, 3, 5.00000000000000000000e-001) (785, 3, 5.00000000000000000000e-001) (785, 3, 5.00000000000000000000e-001) (785, 3, 5.00000000000000000000e-001) (785, 3, 5.00000000000000000000e-001) (785, 3, 5.00000000000000000000e-001) (785, 3, 5.00000000000000000000e-001) (785, 3, 5.00000000000000000000e-001) (785, 3, 5.00000000000000000000e-001) (785, 3, 5.00000000000000000000e-001) (785, 3, 5.00000000000000000000e-001) (785, 3, 5.00000000000000000000e-001) (785, 3, 5.00000000000000000000e-001) (785, 3, 5.00000000000000000000e-001) (785, 3, 5.00000000000000000000e-001) (785, 3, 5.00000000000000000000e-001) (785, 3, 5.00000000000000000000e-001) (785, 3, 5.00000000000000000000e-001) (785, 3, 5.00000000000000000000e-001) (0, 3, 0.00000000000000000000e+000) (31, 3, 5.00000000000000000000e-001) (31, 3, 5.00000000000000000000e-001) (31, 3, 5.00000000000000000000e-001) (31, 3, 5.00000000000000000000e-001) (31, 3, 5.00000000000000000000e-001) (31, 3, 5.00000000000000000000e-001) (31, 3, 5.00000000000000000000e-001) (31, 3, 5.00000000000000000000e-001) (31, 3, 5.00000000000000000000e-001) (31, 3, 5.00000000000000000000e-001) (0, 3, 0.00000000000000000000e+000) 
connections (connected_to_neuron, weight)=(0, -3.95996099650801630000e-002) (1, 5.89599618160718820000e-003) (2, 1.75598147147866260000e-002) (3, -8.81591810011741470000e-002) (4, 2.00256350640302120000e-002) (5, 8.59436047962844900000e-002) (6, -7.39807139930235280000e-002) (7, -3.55163579511099670000e-002) (8, 5.65307625611239930000e-002) (9, 7.55004894062949460000e-003) (10, 2.44567874738095270000e-002) (11, 9.47265639115357770000e-003) (12, -8.93426095378501430000e-002) (13, 5.58600639617081100000e-002) (14, -2.24663532210714300000e-002) (15, 7.80383090504113840000e-002) (16, -3.51074223981413520000e-002) (17, -6.48498544819631210000e-002) (18, 9.06494154132815310000e-002) (19, 4.28283697788174320000e-002) (20, -2.21923831431922740000e-002) (21, -4.43481451920888500000e-002) (22, -9.82116713853429250000e-002) (23, 4.03015142724143520000e-002) (24, -5.37414558789350850000e-002) (25, 7.13500987194493060000e-003) (26, -4.15344244470361450000e-002) (27, -8.05664074505330060000e-003) (28, 6.10412606752106510000e-002) (29, -5.06530769266646530000e-002) (30, 8.50708020489037150000e-002) (31, -8.62304700349341150000e-002) (32, -9.33532728754471460000e-002) (33, 3.11914198797213180000e-002) (34, 2.68277055624355880000e-002) (35, 7.46783492344236120000e-004) (36, -6.00596855406909520000e-002) (37, 1.09461226153631350000e-003) (38, -5.82953663116341920000e-002) (39, -3.27472021319951050000e-002) (40, -9.49858431714235290000e-002) (41, -2.53848811671937810000e-002) (42, -1.83371675701571230000e-001) (43, -1.82593942905805800000e-001) (44, 1.95152615275320100000e-001) (45, -1.35713699639311240000e-001) (46, -3.64107691523492210000e-001) (47, -2.97501008831539570000e-001) (48, -1.63346868267728600000e-001) (49, 5.59475937733818350000e-002) (50, -3.43100997720815000000e-002) (51, 1.63624867857121090000e-002) (52, -2.37609866821912870000e-002) (53, 5.57495125494824610000e-002) (54, 4.34509283818442780000e-002) (55, -9.49462904773099580000e-002) (56, 3.58886724097828850000e-002) (57, 2.72460941559984350000e-002) (58, 9.28955091967509360000e-003) (59, -2.44829284869039140000e-002) (60, -6.40342234701479910000e-002) (61, -8.02177268560226450000e-002) (62, 1.02156350173801240000e-001) (63, 1.06838528742920190000e-001) (64, 7.03114105072855210000e-001) (65, 1.64770334169855400000e+000) (66, 1.06591307987644800000e+000) (67, 4.21797617523431310000e-001) (68, 3.16387103606663940000e-001) (69, 2.71798959781133440000e-001) (70, -2.55629819744761010000e-001) (71, -1.86934234185732460000e-001) (72, -2.33974534647097170000e-001) (73, -1.42683008082471790000e+000) (74, -6.83927693265997670000e-001) (75, -1.11347955883596410000e+000) (76, -1.03811548124796540000e+000) (77, -7.18237656812565130000e-001) (78, -6.94716085051370720000e-001) (79, -2.85706488510805380000e-001) (80, 2.05227005559300320000e-001) (81, 6.55008877716218710000e-002) (82, -1.67358400931334470000e-002) (83, 3.75976568102487360000e-003) (84, -1.50634767869632920000e-002) (85, 4.57458502910412790000e-002) (86, -2.79988644566376320000e-002) (87, -2.30011703425422250000e-002) (88, -9.16421577141243210000e-003) (89, -3.93713259657831330000e-002) (90, 5.74583409205424790000e-002) (91, 8.45145834025595290000e-001) (92, 2.13002997229221560000e+000) (93, 5.21150363849680250000e+000) (94, 6.20083461864435130000e+000) (95, 3.80536780735319800000e+000) (96, 2.01739394826527450000e+000) (97, 1.13995489571918870000e+000) (98, -2.26520755892154830000e+000) (99, -3.91835286953034910000e+000) (100, -2.74984517020127180000e+000) (101, -3.29588016217835870000e+000) (102, -2.21502798663759440000e+000) (103, -1.94217020298655600000e+000) (104, -1.05774030592508850000e+000) (105, -6.38990898490877650000e-001) (106, -7.06170164830000830000e-001) (107, -1.00617839147717070000e+000) (108, -3.76611909760970700000e-001) (109, 7.65824902014975440000e-002) (110, 1.67299001768686920000e-001) (111, 6.44409189289945060000e-002) (112, 3.60107427241018740000e-003) (113, -5.50795474778819700000e-002) (114, -1.88820094389940230000e-002) (115, -1.62389216108765670000e-001) (116, -1.32484561461303740000e+000) (117, -1.69469112175853590000e+000) (118, -8.91576281380906830000e-001) (119, 1.70133867441603330000e+000) (120, 2.92528924369174840000e+000) (121, 7.28937089419972220000e+000) (122, 6.99300448799876580000e+000) (123, 8.72916097087805380000e+000) (124, 8.86416792136443380000e+000) (125, 6.78001563040991240000e+000) (126, 6.48685940597658830000e+000) (127, 3.28802451439018210000e+000) (128, 5.01304118320611190000e+000) (129, 3.60773053651861630000e+000) (130, 3.79025966781863490000e+000) (131, 2.89602849860209410000e+000) (132, 3.56576816844973620000e+000) (133, 2.59497502592930960000e+000) (134, 6.64567153518916540000e-002) (135, 3.19788902937615800000e-001) (136, -1.43006768427477860000e-001) (137, 4.09551844489114080000e-001) (138, -5.65847835939328750000e-002) (139, 1.07559404262048550000e-001) (140, 3.20739750873144660000e-002) (141, 2.64587406286409530000e-002) (142, -7.69871573006521980000e-002) (143, -5.56858719443632630000e-001) (144, -1.60302986479992640000e+000) (145, -3.08412061942625430000e+000) (146, -2.66764730620914700000e+000) (147, 1.64250776558032150000e+000) (148, 7.46986322556873980000e+000) (149, 8.35292645598939210000e+000) (150, 1.12437421182187920000e+001) (151, 1.36153053557990180000e+001) (152, 9.34619032330140520000e+000) (153, 1.30522288883016680000e+001) (154, 1.26778318713474060000e+001) (155, 1.28847676058256210000e+001) (156, 8.66585041450204590000e+000) (157, 7.80276684154682960000e+000) (158, 7.25035812991256010000e+000) (159, 1.31406610713742440000e+000) (160, 5.00357568598280440000e+000) (161, 6.11195307721659290000e+000) (162, 3.66988538178792560000e+000) (163, 1.56369689285781190000e+000) (164, 6.82555411303634510000e-001) (165, 6.31502434016114610000e-001) (166, 8.49820482318774800000e-002) (167, 5.90970258030988210000e-002) (168, -6.82983408614745710000e-002) (169, 9.78934466355476370000e-002) (170, -4.36784695104352970000e-001) (171, -2.05525521756428950000e+000) (172, -4.61878798681158110000e+000) (173, -4.53385673106504950000e+000) (174, -2.05857590603658020000e+000) (175, 8.83371990402750500000e-001) (176, 2.22392418351066710000e-001) (177, 3.85280251975547650000e+000) (178, 2.79372501998972260000e+000) (179, 1.33569702687968620000e+000) (180, 2.71886594252374580000e+000) (181, 2.88026522453967180000e+000) (182, 9.14402655189531370000e+000) (183, 5.86534281014791950000e+000) (184, 6.67673533744577250000e+000) (185, 3.23127379264294450000e+000) (186, 4.53624171941704550000e+000) (187, -3.16544540561982530000e+000) (188, -1.49250025270672300000e+000) (189, 5.32210873858126270000e-001) (190, 7.42366343527080090000e-001) (191, 5.49363872959848120000e-001) (192, 2.09956008021504830000e+000) (193, 7.83985011850160010000e-001) (194, 4.60089812737608960000e-001) (195, 4.37736018239996280000e-002) (196, -1.79948606849953990000e-002) (197, -1.32586184330210220000e-001) (198, -3.37302592672727890000e-001) (199, -2.29955410679624390000e+000) (200, -6.07477635269080450000e+000) (201, -5.51682995854904500000e+000) (202, -2.14332888172806290000e+000) (203, -1.28109597296580290000e+000) (204, 8.53035122922722540000e-001) (205, 3.01068739484317320000e+000) (206, 5.12694571827996710000e+000) (207, 8.34607559285213800000e+000) (208, 4.52931169489927130000e+000) (209, 3.54017611913188500000e+000) (210, 3.75159052472580480000e+000) (211, 1.32664474838884460000e+000) (212, 5.83528541376249700000e+000) (213, 4.82723160888244340000e+000) (214, 1.37307062757245780000e+000) (215, -4.08794897874788270000e+000) (216, -5.22566883494232390000e+000) (217, 1.75249949128590780000e+000) (218, -1.39650041120974010000e-001) (219, -3.09268040073359310000e+000) (220, 1.59738104444824100000e+000) (221, 2.01545053101482760000e+000) (222, 4.85930118699690380000e-001) (223, 1.61904022629632220000e-001) (224, 9.09998081611483180000e-002) (225, -2.31301394998261020000e-001) (226, -5.78980556240897170000e-001) (227, -2.55039886531343820000e+000) (228, -6.42673517339171860000e+000) (229, -5.11311276367946020000e+000) (230, -7.05024667475958470000e+000) (231, -6.84349767021470880000e+000) (232, 2.33579113235802740000e-001) (233, 3.29218818722186670000e-001) (234, 8.16717661633023970000e+000) (235, 7.07277760708105770000e+000) (236, 3.52736154513256040000e+000) (237, 5.09782324728550760000e+000) (238, 1.03381976450189480000e+001) (239, 1.05264575003700500000e+001) (240, 3.05946330240810620000e+000) (241, 8.34909872938884410000e+000) (242, -4.69414966601119230000e-002) (243, -3.87900379313482670000e+000) (244, -7.05524436888735100000e+000) (245, -6.69105787688668930000e+000) (246, -6.69742027566363520000e+000) (247, -2.74660231084345390000e+000) (248, 1.62636755970634320000e+000) (249, 3.30347631106020370000e+000) (250, 3.72951558642923900000e-001) (251, -2.11131235317345570000e-001) (252, -7.85372605075096430000e-002) (253, -2.53135475633763710000e-001) (254, -8.84344126430682390000e-001) (255, -3.16614071070180940000e+000) (256, -6.25484688212907260000e+000) (257, -6.42348900802749870000e+000) (258, -5.08984567601760320000e+000) (259, -4.68686705528843820000e+000) (260, -9.14650237073850470000e+000) (261, -6.66744715356031660000e+000) (262, 2.77754872931289440000e+000) (263, 1.08139404375490960000e+001) (264, 9.14009781443797210000e+000) (265, 5.93140507647022460000e+000) (266, 2.87586321876391390000e+000) (267, 1.40075458093001530000e+000) (268, 4.44460409782833850000e-001) (269, 3.98260658496425760000e+000) (270, -2.00633874427131740000e+000) (271, -1.01519041747554510000e+001) (272, -1.36617714242802980000e+001) (273, -1.63999854411045580000e+001) (274, -1.14222949451998680000e+001) (275, -4.49418584042868920000e+000) (276, 2.47119057085973730000e+000) (277, 4.13839179118918030000e+000) (278, 3.50267978671204020000e-001) (279, 3.87957320588386690000e-002) (280, -9.15964114285064500000e-004) (281, -2.06254126924551970000e-001) (282, -6.12469031969491540000e-001) (283, -2.83680934898458800000e+000) (284, -6.14408293039385000000e+000) (285, -3.89562578743308970000e+000) (286, -2.40138475629596870000e+000) (287, -4.71789826599402760000e+000) (288, -8.08395074393113330000e+000) (289, -6.31410673575889540000e+000) (290, -1.96241825754589370000e+000) (291, 2.68606694567363840000e+000) (292, -5.14161424863541060000e+000) (293, -1.86413834702176580000e+001) (294, -1.70690296115604950000e+001) (295, -1.45871108663581930000e+001) (296, -1.29885151657560310000e+001) (297, -1.12796021979810170000e+001) (298, -1.26744322363472880000e+001) (299, -2.00728493118889910000e+001) (300, -1.75281969291639610000e+001) (301, -1.64161980807224630000e+001) (302, -1.26484276628285720000e+001) (303, -7.10889778198585450000e+000) (304, 6.24711466635948720000e-002) (305, 1.02141097059404640000e+000) (306, 3.48753285103482690000e-001) (307, -1.31126008956397640000e-001) (308, 3.81406151450605360000e-002) (309, -2.09078511537340690000e-001) (310, -1.00162901088709310000e+000) (311, -2.97006036719910150000e+000) (312, -2.26758543751243870000e+000) (313, -3.69580238345677170000e+000) (314, -7.60321601409879650000e+000) (315, -1.70421624412817890000e+001) (316, -1.49912171105958870000e+001) (317, -1.72283610474163180000e+001) (318, -2.10824552781987440000e+001) (319, -2.84266339360376890000e+001) (320, -3.68636160226519540000e+001) (321, -4.38941166700079180000e+001) (322, -4.34304973127387020000e+001) (323, -3.56602128858638420000e+001) (324, -2.16577252137841360000e+001) (325, -1.88336285622764630000e+001) (326, -1.97773310280727800000e+001) (327, -1.44172698385702350000e+001) (328, -1.71072057303636310000e+001) (329, -1.56293853629734070000e+001) (330, -1.31642412330063280000e+001) (331, -1.24559867869904850000e+001) (332, -7.27277019766460600000e+000) (333, -1.53215118590358460000e+000) (334, -1.84358128572976260000e-001) (335, -1.73486346404829320000e-002) (336, -4.01823574959073930000e-002) (337, -3.31638575826118000000e-001) (338, -9.26289363844455820000e-001) (339, -2.40463263977356250000e+000) (340, -1.97412986397810440000e+000) (341, -7.40086123811389830000e+000) (342, -1.10923022534026840000e+001) (343, -2.27846513548607560000e+001) (344, -2.05947016113629430000e+001) (345, -2.77977738107516360000e+001) (346, -3.30852854623164920000e+001) (347, -3.87733242848403490000e+001) (348, -4.45032650165696350000e+001) (349, -4.41758582469440380000e+001) (350, -4.48701768764520210000e+001) (351, -3.43360670933944760000e+001) (352, -2.47347117198767350000e+001) (353, -2.80691459284375780000e+001) (354, -1.56015857858250990000e+001) (355, -7.33504957508606380000e+000) (356, -9.40708231036805210000e+000) (357, -1.30497778352627060000e+001) (358, -1.41425986243755660000e+001) (359, -1.44592973986487860000e+001) (360, -8.09787848824312920000e+000) (361, -2.11937651763220550000e+000) (362, -4.77004731768180150000e-001) (363, -7.68170809950171760000e-002) (364, -3.69234374281299450000e-002) (365, -1.93155037436487100000e-001) (366, -5.39428359880508520000e-001) (367, -8.72541359138056420000e-001) (368, -2.09757064606768260000e+000) (369, -5.94755420891666020000e+000) (370, -9.31946258673862890000e+000) (371, -1.58949238999985790000e+001) (372, -1.77791769436808130000e+001) (373, -1.74686469951519140000e+001) (374, -1.70578096316774610000e+001) (375, -1.70863139545108000000e+001) (376, -2.43257636210291710000e+001) (377, -2.36857269061739690000e+001) (378, -2.03354773642254150000e+001) (379, -2.11923111069776340000e+001) (380, -2.21690602640689960000e+001) (381, -1.88248189016763520000e+001) (382, -1.60905906262910890000e+001) (383, -9.45326681023822250000e+000) (384, -8.64891465077833030000e+000) (385, -8.44579474633747300000e+000) (386, -8.87767370753278760000e+000) (387, -9.85814966354225320000e+000) (388, -3.90093777867266220000e+000) (389, 2.10162727149131760000e-001) (390, 5.67351040181460880000e-001) (391, 8.39912360537956450000e-002) (392, -8.33740246798697630000e-003) (393, -1.40764392219272590000e-001) (394, -3.49451233299514330000e-001) (395, -2.23810386298098190000e-001) (396, -1.88389742901210690000e+000) (397, -4.34633854679311420000e+000) (398, -2.24922873681373940000e+000) (399, -5.58601925314955780000e-001) (400, 4.80898871815216790000e-001) (401, 1.20808354286382900000e+000) (402, 2.37620245749307340000e+000) (403, 2.98740564639401120000e-002) (404, -3.59458373080728810000e+000) (405, 1.42800193255085610000e-001) (406, -5.37101417844794590000e+000) (407, -1.29518223929038410000e+001) (408, -1.07213399033877100000e+001) (409, -1.72136835451794210000e+001) (410, -1.74575228228949970000e+001) (411, -1.60402062012087010000e+001) (412, -7.81911337114447760000e+000) (413, -1.17253463909917000000e+001) (414, -1.14351720551868560000e+001) (415, -6.88822582868907140000e+000) (416, -4.28310543169288570000e-001) (417, 1.29206286195269440000e+000) (418, 1.49851086415243410000e+000) (419, 2.48386200539604240000e-003) (420, -1.09939013022086400000e-002) (421, -3.28615347045130290000e-001) (422, -9.52709803742687990000e-001) (423, 1.05171023354271460000e+000) (424, 2.27828185097302250000e+000) (425, 4.53287927685862610000e+000) (426, 6.15152089395859480000e+000) (427, 6.90311820120345310000e+000) (428, 6.75508853628227610000e+000) (429, 8.06531744780281380000e+000) (430, 8.77688950949463020000e+000) (431, 4.75064755020251180000e+000) (432, 7.74986089753197940000e-001) (433, 1.61753883918284250000e+000) (434, -6.46447746037114430000e+000) (435, -9.58235390181880040000e+000) (436, -5.12377462694698330000e+000) (437, -7.55725295340694280000e+000) (438, -1.35666770211072120000e+001) (439, -1.37282735064251380000e+001) (440, -1.02793071326090930000e+001) (441, -1.01932841012541720000e+001) (442, -1.34285171543335840000e+001) (443, -5.90142894500578310000e+000) (444, 1.86770518056140960000e+000) (445, 4.43107639170910430000e+000) (446, 1.86758718780501320000e+000) (447, 3.57846435246319320000e-001) (448, -1.33524263468909730000e-002) (449, -2.28921447642107980000e-001) (450, -1.95093545276790170000e+000) (451, 2.27186682204309020000e+000) (452, 4.92192526165254750000e+000) (453, 7.81953624413387430000e+000) (454, 1.03722085927095660000e+001) (455, 1.13548694527094880000e+000) (456, -1.62484107309496320000e+000) (457, 2.03499548044570310000e+000) (458, 9.11726409802871810000e+000) (459, 9.47721617394432590000e+000) (460, 7.03002093466556750000e+000) (461, 2.69601789020830870000e+000) (462, -8.19143647834854050000e-001) (463, -4.72268727156792160000e+000) (464, 5.75304768174907250000e-002) (465, 6.49680628945787150000e-001) (466, -9.43326770928432980000e+000) (467, -1.33462173637115700000e+001) (468, -9.03567008934847140000e+000) (469, -4.18005749550968100000e+000) (470, -7.66583287223907120000e-001) (471, -5.00055529246553830000e-001) (472, 6.30730933860089760000e+000) (473, 8.54301439423656640000e+000) (474, 3.18411420359316420000e+000) (475, 6.09332044625217620000e-001) (476, 7.41638194645020120000e-002) (477, -2.47930159724527410000e-002) (478, -1.22991626943366380000e+000) (479, 2.39781225847340940000e+000) (480, 7.53238471301281190000e+000) (481, 1.32340999695945630000e+001) (482, 1.84406318167419270000e+001) (483, 4.43924871721941110000e+000) (484, 7.24187578844217690000e-001) (485, 4.97257224390900010000e+000) (486, 1.30745644864961360000e+001) (487, 1.99910772588269840000e+001) (488, 1.24002828668831350000e+001) (489, 5.11904665006851460000e+000) (490, -1.78886524063751870000e+000) (491, 4.79439560039370870000e+000) (492, 3.59182834292740600000e+000) (493, 2.86794873545032260000e+000) (494, -4.34390431652165090000e+000) (495, -1.08974714717912030000e+001) (496, -2.99941427971600350000e+000) (497, 1.60275397536569950000e-002) (498, 7.02545468312579670000e+000) (499, 8.70871710089027570000e+000) (500, 1.46067338305137880000e+001) (501, 1.14693174892432830000e+001) (502, 2.07313317209634770000e+000) (503, 1.47712696371551070000e-001) (504, 6.74376345637444360000e-002) (505, 1.86015558108291660000e-002) (506, -1.35368601589366740000e+000) (507, 2.48813897474568360000e-001) (508, 8.87796687958977420000e+000) (509, 1.67572012259565140000e+001) (510, 2.23464350872705280000e+001) (511, 1.66211996563685960000e+001) (512, 7.13005360304322530000e+000) (513, 6.34383002116060980000e+000) (514, 1.07803132010634480000e+001) (515, 1.69931072839672870000e+001) (516, 1.81910141851083900000e+001) (517, 1.16596392112935270000e+001) (518, 3.76664111824793670000e+000) (519, 1.72568714420592560000e+000) (520, 5.24970506370314280000e+000) (521, 2.82584316140362590000e+000) (522, -2.35541238849082420000e+000) (523, -8.47016075830549650000e+000) (524, -3.47629449120289240000e+000) (525, 4.95871086448181940000e+000) (526, 1.68520401110277510000e+001) (527, 2.07785969344362410000e+001) (528, 1.99009927054265710000e+001) (529, 9.92797728693093620000e+000) (530, 5.63524668764264990000e-001) (531, 1.87824344893491840000e-001) (532, -7.52990733876686140000e-002) (533, -1.02668780891392110000e-001) (534, -8.74322578009025130000e-001) (535, -2.48886740572404810000e+000) (536, 7.82586080282630720000e+000) (537, 1.21181956431659330000e+001) (538, 1.99791089374334910000e+001) (539, 2.11542200224548690000e+001) (540, 1.75150335156403540000e+001) (541, 1.10705381728894970000e+001) (542, 1.12889870311710980000e+001) (543, 1.82731038628421060000e+001) (544, 1.84894328286070540000e+001) (545, 8.01053239212075850000e+000) (546, 1.84403555928318010000e+000) (547, 2.14294339013544420000e+000) (548, 4.29105466114478150000e+000) (549, -1.25247019678436880000e+000) (550, -3.15124019832795010000e+000) (551, -4.05749676969693770000e+000) (552, 2.30741274428807990000e+000) (553, 9.62400199444028640000e+000) (554, 1.72322476783013700000e+001) (555, 2.06039419632890460000e+001) (556, 1.55633227134153760000e+001) (557, 5.93157015292487430000e+000) (558, 6.19682850351202410000e-001) (559, 8.67294938049784220000e-002) (560, -4.63378913154883780000e-002) (561, -1.42841997265158950000e-001) (562, -4.65797191272292190000e-001) (563, -8.27740845934228700000e-001) (564, 5.29308178808766440000e+000) (565, 7.61579074821045140000e+000) (566, 1.14477256343897370000e+001) (567, 1.68225523415921960000e+001) (568, 1.63187432747918740000e+001) (569, 1.29111578626452490000e+001) (570, 1.22452837357653960000e+001) (571, 1.13023477609869650000e+001) (572, 4.28326708565219150000e+000) (573, 1.10300269873641630000e+000) (574, -4.02744580701629720000e-001) (575, -9.73751217545081430000e-001) (576, 3.61816779663383100000e-001) (577, -7.86324989243226910000e+000) (578, -3.59418750180953510000e+000) (579, 4.65899557657362800000e+000) (580, 8.50890793526147960000e+000) (581, 1.42589173736002350000e+001) (582, 2.07555666018266790000e+001) (583, 2.22861392010898630000e+001) (584, 1.33142357526711790000e+001) (585, 3.34746658493703020000e+000) (586, 5.40101211536899720000e-001) (587, -6.63529838394501940000e-002) (588, 2.47371494415441800000e-002) (589, 6.62511178352209050000e-002) (590, 4.92064631119871420000e-001) (591, 1.18496890047912200000e+000) (592, 1.57186140150183460000e+000) (593, 1.64881888915105890000e+000) (594, 3.37583238167202330000e+000) (595, 5.80932988769465730000e+000) (596, 1.09563781728768570000e+001) (597, 1.04434600158228540000e+001) (598, 1.14482406205557390000e+001) (599, 1.12667634171953690000e+001) (600, 6.39414873513002920000e+000) (601, 7.28431317728535530000e-001) (602, -1.23204244981554380000e+000) (603, -2.92326842803902490000e+000) (604, 1.15951409139973040000e+000) (605, -1.83903795655875450000e+000) (606, 2.48691219531136210000e-001) (607, 1.04440203047535080000e+001) (608, 1.42573428650605450000e+001) (609, 2.07533906794578480000e+001) (610, 2.03807663036795680000e+001) (611, 1.73672608701089080000e+001) (612, 8.78665199440208870000e+000) (613, 2.29002244981318940000e+000) (614, 2.32179267143880510000e-001) (615, 2.80342337830671550000e-002) (616, 8.95551636932146870000e-002) (617, -9.30645581348805010000e-002) (618, 4.22270548484482090000e-001) (619, 1.61779352056336490000e+000) (620, 2.72033749268241290000e+000) (621, -1.17673525317242690000e+000) (622, -1.66916338088490780000e+000) (623, 1.17719176471777580000e-001) (624, 4.06441101892451510000e+000) (625, 9.81702312235263190000e+000) (626, 6.92208340856802720000e+000) (627, 7.17413038499763280000e+000) (628, 6.84757142138109230000e-001) (629, -8.62894703144518080000e+000) (630, -1.63479753690667270000e+001) (631, -1.48012052014117380000e+001) (632, -5.20801351274497120000e+000) (633, -2.88039192750929420000e+000) (634, 7.22157328495088450000e+000) (635, 1.14975473426625340000e+001) (636, 1.59001895299714420000e+001) (637, 1.55861676754380020000e+001) (638, 1.30196929423207150000e+001) (639, 8.65241813137918210000e+000) (640, 4.78717291551675390000e+000) (641, 1.50017694378257070000e+000) (642, 5.25615749074747480000e-002) (643, -1.51686023003826300000e-002) (644, -1.44653322468002440000e-002) (645, 4.87548835390043680000e-002) (646, -1.66361714302263250000e-002) (647, -3.63990294851720630000e-001) (648, -4.70077716216335980000e-001) (649, -2.69382179190656550000e+000) (650, -3.03654989930712870000e+000) (651, -4.80820179591522830000e+000) (652, -4.13554011609035490000e+000) (653, -8.62992741965860330000e+000) (654, -6.12960856498159950000e+000) (655, -9.08338242638906480000e+000) (656, -1.81190279769651280000e+001) (657, -2.67906600203155950000e+001) (658, -2.82899003207500290000e+001) (659, -2.32280873270798160000e+001) (660, -1.30457384409089910000e+001) (661, -8.27638044499884980000e+000) (662, 7.26046552594688980000e-001) (663, 1.01229438635071280000e+001) (664, 1.06618601784298570000e+001) (665, 9.39149814970342870000e+000) (666, 7.31806008537723150000e+000) (667, 3.36254118348676160000e+000) (668, 1.44903645713945920000e+000) (669, 9.32818475638545360000e-001) (670, -5.04026868286141030000e-003) (671, -6.63208017695069430000e-002) (672, 2.87719730849858020000e-002) (673, -6.81762705471555820000e-002) (674, 8.89102671560483560000e-002) (675, -8.87318279827833840000e-001) (676, -1.60114583156701440000e+000) (677, -4.50391302917947560000e+000) (678, -7.47926779781533660000e+000) (679, -9.81324842445672910000e+000) (680, -1.39140105921305540000e+001) (681, -1.91364828843869650000e+001) (682, -2.16161177930854510000e+001) (683, -2.28730171728014790000e+001) (684, -2.05181210631207380000e+001) (685, -2.00575189940285980000e+001) (686, -1.62876169222241920000e+001) (687, -1.05235222852658500000e+001) (688, -6.81608714445678300000e+000) (689, -2.86894604193271570000e+000) (690, 1.63380969212565860000e+000) (691, 1.31568928789249680000e+000) (692, 2.75484184601051620000e+000) (693, 3.66482087973452010000e+000) (694, 3.66601319545852620000e+000) (695, 1.51103935997719780000e+000) (696, 1.74195355341897320000e+000) (697, 1.12967701878237390000e+000) (698, 5.77717538919489130000e-002) (699, -8.85681165541427620000e-002) (700, 1.65954592316666090000e-002) (701, -5.62377938067584180000e-002) (702, -8.89439848042185290000e-002) (703, -1.23006305752099070000e-001) (704, -4.86139722738160360000e-001) (705, -1.42608531637587750000e+000) (706, -2.44042716574026470000e+000) (707, -3.86092467055204210000e+000) (708, -5.18771449863548990000e+000) (709, -5.07613505579078250000e+000) (710, -4.66060542015005110000e+000) (711, -4.93330619323340700000e+000) (712, -5.56148535133474730000e+000) (713, -6.14985178896235410000e+000) (714, -7.73977770425677660000e+000) (715, -5.00161797647272440000e+000) (716, -2.76117626591030430000e+000) (717, -1.69224998491899090000e+000) (718, -1.15084089017970890000e+000) (719, -4.43494721614846770000e-001) (720, 2.04073274376025090000e+000) (721, 1.80823234731833300000e+000) (722, 1.38705652626659660000e+000) (723, 3.04689883720678900000e-001) (724, 4.08194022215250560000e-003) (725, 8.80874045496151110000e-002) (726, 1.05406662345743070000e-001) (727, 5.26428230500641800000e-002) (728, -7.08496104307414500000e-002) (729, 9.24743666123504230000e-002) (730, -8.07983410477390860000e-002) (731, -9.67407240977991020000e-002) (732, -9.39869417851446480000e-002) (733, 1.69695373467800980000e-001) (734, 1.76449501902728040000e-001) (735, -4.47828791699042160000e-001) (736, -1.40198702855517110000e-001) (737, 1.03256384687815440000e+000) (738, 1.24597306803933930000e+000) (739, 1.31693991929129890000e+000) (740, 1.47619502140391680000e+000) (741, 1.23691579390833950000e+000) (742, 1.32313157151123330000e+000) (743, 1.63755892569165140000e+000) (744, 8.39824352140714270000e-001) (745, -2.69256100327359760000e-002) (746, -1.49452794816314630000e-001) (747, 5.56664248141303330000e-001) (748, 9.39262284546286910000e-001) (749, 5.98189524209005400000e-001) (750, 2.40744998118076510000e-001) (751, 8.05165423701325460000e-002) (752, -9.79248061466933000000e-002) (753, 1.42742858302112720000e-002) (754, -2.18627932945310020000e-002) (755, 1.51550295227025340000e-002) (756, -7.16613780209627290000e-002) (757, -1.40991213038432760000e-002) (758, -8.75793470081589480000e-002) (759, 6.36474618859210750000e-002) (760, 3.32030116608894730000e-002) (761, -8.33716157364953330000e-002) (762, 6.19628699555085510000e-002) (763, 2.24146763774179550000e-001) (764, 5.12318641437563840000e-002) (765, 1.22204695539142110000e-001) (766, 6.80669561567692900000e-002) (767, 1.35785805037381250000e-001) (768, 9.98631007518839130000e-002) (769, -1.22373315638334770000e-001) (770, 8.98630193378762990000e-002) (771, 2.97258130763657160000e-002) (772, -1.83316007584226390000e-001) (773, -3.41769867522094210000e-001) (774, -3.37959652608918530000e-001) (775, 1.88284036139904980000e-002) (776, -2.12457406512421810000e-002) (777, -8.29454763702837110000e-002) (778, -2.72494948209895010000e-002) (779, 5.44628234818088640000e-002) (780, -8.79760755296956630000e-002) (781, 6.19689950640349710000e-002) (782, -3.85498052619368540000e-002) (783, 9.06982435390091270000e-003) (784, 1.41724488321159030000e+001) (0, 4.28405768102493310000e-002) (1, 9.05944837718379860000e-002) (2, 4.89318854947669020000e-002) (3, 1.66931154831218010000e-002) (4, 4.23950201629850200000e-002) (5, -9.36279310826648730000e-002) (6, 7.08618174621733490000e-003) (7, -2.07153323399325020000e-002) (8, 8.29345715483214010000e-002) (9, 8.14331066821978310000e-002) (10, -5.30639656344646940000e-002) (11, 9.93652358556573740000e-002) (12, 9.96424747575281600000e-002) (13, -8.24918656474229180000e-002) (14, -3.46403024343790930000e-002) (15, 2.86375769581363290000e-002) (16, 3.97705084051267480000e-002) (17, -4.54895026309714010000e-002) (18, -7.40905772759106180000e-002) (19, 8.11523449592641550000e-002) (20, 5.81848153201462990000e-002) (21, -5.44250496391214260000e-002) (22, 8.76220716181705940000e-002) (23, -3.02062992782339280000e-002) (24, -6.46545419790527380000e-002) (25, 9.14550794877868610000e-002) (26, 9.79675307567049460000e-002) (27, 5.45959480791680110000e-002) (28, -4.58496100582124200000e-002) (29, -4.66735846798655980000e-002) (30, -5.61889656810308220000e-002) (31, 6.37207040745124690000e-002) (32, -3.62304692898760550000e-002) (33, -1.74737348474793900000e-002) (34, -3.42898023541207340000e-002) (35, -7.59289344191548810000e-002) (36, 1.67519234587695490000e-002) (37, -7.47261876298213750000e-002) (38, -2.92093348527635540000e-002) (39, -2.87627414705048270000e-001) (40, -1.65656167493257570000e-001) (41, -8.34651718493055750000e-002) (42, -1.62889789654182960000e-001) (43, -2.43380617563881750000e-002) (44, -3.68936231214001540000e-002) (45, 7.61125473358952860000e-002) (46, -4.02044986321150110000e-002) (47, -1.45974760011331860000e-001) (48, -1.29333637932408350000e-001) (49, -9.93729014277285470000e-002) (50, -3.69497538583422320000e-002) (51, 1.13944790876685580000e-001) (52, -3.38012700349281660000e-002) (53, -8.94348157858075870000e-002) (54, -5.88012704074571960000e-002) (55, -8.34228528055973580000e-002) (56, -8.69079602794045060000e-002) (57, 8.20556652852246770000e-002) (58, 2.02453616298043930000e-002) (59, -1.31940083983680630000e-003) (60, -7.74940448374427100000e-002) (61, 4.92034283361602370000e-003) (62, 1.09987437711216090000e-001) (63, -3.46460293836217610000e-002) (64, -1.04273533871566540000e-001) (65, 1.50925478024610320000e-001) (66, -1.37236593911223170000e-001) (67, -4.69131659683399820000e-001) (68, -4.15330407230812490000e-001) (69, -5.10684773119240990000e-001) (70, -3.47109452048779580000e-001) (71, 1.45868506205151680000e-001) (72, 2.94951765032916760000e-001) (73, 2.96369162668876140000e-001) (74, 2.06926348001631620000e-001) (75, 9.34794396871808240000e-002) (76, -2.17897464271672920000e-001) (77, -2.62729465465244390000e-001) (78, -1.65645412089352820000e-001) (79, 4.88598701320851060000e-002) (80, 5.78747551167860950000e-002) (81, 1.35772971681982240000e-001) (82, 4.58801276367921670000e-002) (83, -9.78332534109540570000e-002) (84, 3.35693364377220860000e-002) (85, -3.96301275436599100000e-002) (86, 5.44357230533663510000e-002) (87, -6.14788323106308450000e-002) (88, 6.29758338851681700000e-002) (89, -9.07730125604221390000e-002) (90, -1.02105526883098600000e-003) (91, -6.12047874773511690000e-002) (92, 1.50673627792813100000e-001) (93, 7.23561957776061250000e-001) (94, 8.30410085590647660000e-001) (95, -1.62631479756348090000e-001) (96, -9.30669786205566060000e-001) (97, -5.81993558694119510000e-001) (98, -1.30397217241668200000e-001) (99, 1.04668074185732780000e+000) (100, 1.44735613422936700000e+000) (101, 1.21636873834794620000e+000) (102, 1.23089746205556970000e+000) (103, 1.23005377109616560000e+000) (104, 4.28393310242358330000e-001) (105, -1.99418313453698720000e-002) (106, 1.40607961186583250000e-002) (107, -1.63501582656047690000e-001) (108, -8.42490030860709170000e-002) (109, 5.65728117801345830000e-002) (110, 1.64535771861327010000e-001) (111, -2.67028812572789320000e-002) (112, 7.50061046333030390000e-002) (113, 7.43894838413258490000e-002) (114, -4.49845854739188300000e-003) (115, -7.14834114281882730000e-002) (116, -1.79596237997099060000e-001) (117, -3.81015507600806100000e-001) (118, -5.21061324615000210000e-001) (119, -9.99135410537753680000e-001) (120, -2.04364633395911580000e+000) (121, -2.16843959527390640000e+000) (122, -3.87287143586393960000e+000) (123, -4.61172164887497530000e+000) (124, -4.94403785368832430000e+000) (125, -4.70844174950579220000e+000) (126, -2.50547852569955950000e+000) (127, -1.55851806093146310000e+000) (128, -1.64411001961469360000e+000) (129, -2.07071938686292880000e+000) (130, -8.97689762956692230000e-001) (131, -2.53860527586915360000e-002) (132, -2.84094205800759780000e-001) (133, 5.53737152739719680000e-001) (134, -3.64055246135642720000e-001) (135, 2.51447610144480360000e-001) (136, 5.41427149105275670000e-001) (137, 5.14295240007821490000e-002) (138, -1.95889946725684920000e-002) (139, -6.74741947777103140000e-002) (140, 9.26208509895332100000e-002) (141, 3.67187505471520130000e-002) (142, -6.36269688918369160000e-002) (143, -1.72514662801734970000e-001) (144, -4.75774036039115060000e-001) (145, -1.27765859961759550000e+000) (146, -2.16046473788095870000e+000) (147, -2.28244712333001720000e+000) (148, -1.35229787524950300000e+000) (149, -2.54851415399635030000e+000) (150, -4.20688698211315690000e+000) (151, -7.75669823594293200000e+000) (152, -9.21769317741068940000e+000) (153, -1.01445109073741410000e+001) (154, -9.68030849448734540000e+000) (155, -7.79308073151781850000e+000) (156, -4.98195444988248500000e+000) (157, -4.22678591093031390000e+000) (158, -3.56526737671031450000e+000) (159, -3.96467729305654040000e+000) (160, -2.20286746355865540000e+000) (161, 1.43048731571608830000e-001) (162, 1.68137872334226750000e+000) (163, 1.29860956843232090000e+000) (164, 9.13886002252981780000e-001) (165, 2.57733558415695120000e-001) (166, 5.01281281584910480000e-002) (167, 9.73694162044559390000e-002) (168, -6.81640635157236830000e-002) (169, -2.12473385023049380000e-002) (170, 2.18148181057268330000e-001) (171, 2.99634310352562830000e-001) (172, 4.22456638760087380000e-001) (173, -6.22286129752476210000e-001) (174, -4.17265527194138950000e-001) (175, 2.59436393654859100000e-001) (176, 1.80393419779508960000e-001) (177, -1.02636859595189050000e+000) (178, -4.68715977891403850000e+000) (179, -6.94321918487346060000e+000) (180, -7.51354364231009340000e+000) (181, -9.88261139654369280000e+000) (182, -9.82564968082053800000e+000) (183, -1.20367403498650440000e+001) (184, -1.08658768535878800000e+001) (185, -1.21053749396691770000e+001) (186, -1.20294464840093780000e+001) (187, -9.37231417388300340000e+000) (188, -6.15275681082925360000e+000) (189, -1.84057121255044120000e+000) (190, 1.02814564854573450000e+000) (191, 1.50860067792367910000e+000) (192, 1.48119761495542580000e+000) (193, 4.74482956807241800000e-002) (194, -8.49208160098904040000e-002) (195, 1.26174515547746860000e-001) (196, -1.44334061788031450000e-002) (197, -3.77599930710842900000e-002) (198, 3.54325682104719100000e-001) (199, 1.00241072332671610000e+000) (200, 1.91751723689187050000e+000) (201, 8.76210018860121290000e-001) (202, 2.06378779592700830000e+000) (203, 4.20738404004642690000e+000) (204, 5.03261860405478160000e+000) (205, 2.37274673184723240000e+000) (206, -1.46058808484769840000e+000) (207, -2.42412673253345550000e+000) (208, -4.33003412399271510000e+000) (209, -9.29429065486292320000e+000) (210, -1.21185434867848990000e+001) (211, -1.26206222254469170000e+001) (212, -1.14941540896222970000e+001) (213, -8.71471196096234020000e+000) (214, -7.03928378432496160000e+000) (215, -6.05348308288158870000e+000) (216, -3.59962988619349570000e+000) (217, -6.43324317317156220000e-001) (218, 1.48345432620715270000e+000) (219, 3.22361600165630290000e+000) (220, 2.30635534586173650000e+000) (221, 1.01457195912665510000e+000) (222, 2.57787559183400410000e-001) (223, 1.23835530785781550000e-001) (224, -5.04010020752804840000e-002) (225, 4.98276110041054430000e-001) (226, 1.11765488498839980000e+000) (227, 1.90481776864890320000e+000) (228, 3.65090014430815390000e+000) (229, 3.02749538522590060000e+000) (230, 2.41193311306692640000e+000) (231, 5.44514511367725800000e+000) (232, 5.80959173725859210000e+000) (233, 4.80510984925064480000e+000) (234, 2.96018128185586170000e+000) (235, 2.00093583649434280000e+000) (236, -1.12730997087781120000e+000) (237, -6.02722989442469270000e+000) (238, -8.41712067411648060000e+000) (239, -7.82878222765370960000e+000) (240, -6.68793648157827470000e+000) (241, -3.19809585008885390000e+000) (242, -3.81767575239901280000e+000) (243, -4.91235869767100740000e+000) (244, -4.41905836588305420000e+000) (245, -2.75940738180388670000e+000) (246, 1.73749786568900500000e+000) (247, 6.30578815880253800000e+000) (248, 2.11239650175101850000e+000) (249, 1.63028138646193320000e+000) (250, -1.05705977959911560000e-001) (251, -1.38168296035700360000e-001) (252, 8.41503881189112350000e-002) (253, 5.91326961695474940000e-001) (254, 1.50621992361453110000e+000) (255, 2.45725767845438850000e+000) (256, 4.22501225262445510000e+000) (257, 5.48450316368958470000e+000) (258, 4.61634839981875000000e+000) (259, 4.12437565791595870000e+000) (260, 4.43584276426926300000e+000) (261, 4.42329426522398170000e+000) (262, 1.61791559825627760000e+000) (263, 3.24202293011226940000e+000) (264, 2.07001014307763140000e+000) (265, -1.23306539021980810000e+000) (266, -4.57339307955159930000e+000) (267, -3.08052256226797060000e+000) (268, -6.13245865627057740000e-001) (269, -2.20103883453565000000e+000) (270, -4.03492338095629060000e+000) (271, -5.64329967421347330000e+000) (272, -8.85179087879687820000e+000) (273, -3.49194304418307770000e+000) (274, 2.51637310909971390000e+000) (275, 4.68885278720755050000e+000) (276, 2.47417123078082880000e+000) (277, 2.13963153745951030000e+000) (278, 5.90568707260426650000e-001) (279, 1.16845082172087490000e-001) (280, 2.52712207722169020000e-002) (281, 6.97984387751652830000e-001) (282, 1.89184263320207040000e+000) (283, 3.28851176930051460000e+000) (284, 4.84975854987301340000e+000) (285, 5.39581593824986780000e+000) (286, 3.02845626198723930000e+000) (287, 2.87028582318436690000e+000) (288, 1.09223523298848700000e+000) (289, 1.14443104516383980000e+000) (290, 4.42614930378531500000e-001) (291, -9.50852265930259950000e-001) (292, 1.85823911037707350000e+000) (293, 2.64796609401998940000e+000) (294, 1.62700679123225640000e-001) (295, 3.37918619436059010000e+000) (296, 1.14645872010326720000e+000) (297, -2.31427111815285390000e+000) (298, -5.95228341708617140000e+000) (299, -8.77813019713648400000e+000) (300, -1.10807372633518800000e+001) (301, -3.26054518888309360000e+000) (302, 2.47855364550314450000e+000) (303, 1.56007738404836880000e+000) (304, 3.15165445329384130000e+000) (305, 2.33809742980548400000e+000) (306, 6.49745435498202520000e-001) (307, -8.60502468901652370000e-003) (308, 1.67374543481964530000e-002) (309, 4.07454115194312680000e-001) (310, 2.18045498422131390000e+000) (311, 3.52186656630960910000e+000) (312, 2.96724606186435520000e+000) (313, 7.39837117913710320000e-001) (314, -6.63856811827637780000e-001) (315, -1.19198479478349160000e+000) (316, -6.25305189015212280000e+000) (317, -5.81361799908574640000e+000) (318, -9.23622492474240180000e+000) (319, -7.29471617535399110000e+000) (320, -4.01798147332562620000e-002) (321, -1.52942178897885550000e+000) (322, -5.77247816749641540000e+000) (323, -3.53470839011328320000e+000) (324, -6.67934226094771420000e+000) (325, -1.39526741863956190000e+001) (326, -1.52907498026457330000e+001) (327, -1.61378437097191670000e+001) (328, -1.51603947274373190000e+001) (329, -8.72404509052265990000e+000) (330, -2.19511536105873310000e+000) (331, -1.59113794643466110000e+000) (332, 2.57607921415405510000e-001) (333, 1.10762776488185160000e+000) (334, 3.74755983095105110000e-001) (335, -3.77997353913514310000e-002) (336, 6.92312544475511130000e-002) (337, 2.53430407608674470000e-001) (338, 1.68548661158725930000e+000) (339, 2.39593266549861330000e+000) (340, 6.74841262961618370000e-002) (341, -2.75604285809855170000e+000) (342, -4.99586134284150770000e+000) (343, -5.81628387202986370000e+000) (344, -9.23814018305058400000e+000) (345, -1.58481848586067710000e+001) (346, -1.26733725706919400000e+001) (347, -7.34408946576282950000e+000) (348, -3.76713686971040310000e+000) (349, -9.30323108011143240000e+000) (350, -1.38820814961523580000e+001) (351, -9.47423284790775890000e+000) (352, 