FANN_FLO_2.1
num_layers=3
learning_rate=0.000000
connection_rate=1.000000
network_type=0
learning_momentum=0.000000
training_algorithm=0
train_error_function=1
train_stop_function=0
cascade_output_change_fraction=0.010000
quickprop_decay=-0.000100
quickprop_mu=1.750000
rprop_increase_factor=1.200000
rprop_decrease_factor=0.500000
rprop_delta_min=0.000000
rprop_delta_max=50.000000
rprop_delta_zero=0.100000
cascade_output_stagnation_epochs=12
cascade_candidate_change_fraction=0.010000
cascade_candidate_stagnation_epochs=12
cascade_max_out_epochs=150
cascade_min_out_epochs=50
cascade_max_cand_epochs=150
cascade_min_cand_epochs=50
cascade_num_candidate_groups=2
bit_fail_limit=3.49999999999999980000e-001
cascade_candidate_limit=1.00000000000000000000e+003
cascade_weight_multiplier=4.00000000000000020000e-001
cascade_activation_functions_count=10
cascade_activation_functions=3 5 7 8 10 11 14 15 16 17 
cascade_activation_steepnesses_count=4
cascade_activation_steepnesses=2.50000000000000000000e-001 5.00000000000000000000e-001 7.50000000000000000000e-001 1.00000000000000000000e+000 
layer_sizes=785 31 11 
scale_included=1
scale_mean_in=0.000000 0.000000 0.000000 0.000000 0.000000 0.000000 0.000000 0.000000 0.000000 0.000000 0.000000 0.000000 0.000001 0.000019 0.000019 0.000001 0.000000 0.000000 0.000000 0.000000 0.000000 0.000000 0.000000 0.000000 0.000000 0.000000 0.000000 0.000000 0.000000 0.000000 0.000000 0.000000 0.000000 0.000001 0.000048 0.000104 0.000162 0.000246 0.000510 0.000675 0.000654 0.000671 0.000695 0.000618 0.000722 0.000632 0.000430 0.000301 0.000213 0.000085 0.000043 0.000018 0.000000 0.000000 0.000000 0.000000 0.000000 0.000000 0.000000 0.000004 0.000033 0.000019 0.000176 0.000596 0.001097 0.002053 0.003294 0.005000 0.007191 0.009624 0.012523 0.014257 0.014644 0.013237 0.010768 0.007929 0.004588 0.002283 0.001022 0.000333 0.000122 0.000020 0.000000 0.000000 0.000000 0.000000 0.000005 0.000030 0.000053 0.000312 0.000927 0.002340 0.004614 0.008576 0.013975 0.020909 0.028576 0.037525 0.046453 0.052236 0.052135 0.046646 0.037310 0.026463 0.015823 0.008433 0.003778 0.001382 0.000519 0.000102 0.000015 0.000000 0.000000 0.000003 0.000020 0.000059 0.000334 0.001652 0.004179 0.009490 0.018407 0.032428 0.051290 0.074996 0.104864 0.137183 0.163131 0.176820 0.174413 0.154148 0.122332 0.089402 0.057457 0.033036 0.017303 0.008168 0.003368 0.000795 0.000125 0.000011 0.000000 0.000000 0.000040 0.000222 0.001469 0.005536 0.013645 0.027877 0.050247 0.082173 0.122071 0.172386 0.230018 0.288523 0.332639 0.355028 0.349013 0.314619 0.258774 0.195919 0.134640 0.083930 0.048409 0.025933 0.011688 0.003139 0.000495 0.000013 0.000000 0.000000 0.000122 0.000785 0.004112 0.012307 0.028241 0.054925 0.093708 0.145165 0.207709 0.278168 0.349957 0.415706 0.463603 0.485396 0.476840 0.439387 0.377318 0.296411 0.212959 0.139256 0.082833 0.044892 0.020930 0.006911 0.001302 0.000092 0.000004 0.000088 0.000424 0.002278 0.008769 0.022772 0.048113 0.087266 0.142070 0.210863 0.289624 0.369974 0.438287 0.489985 0.519536 0.529521 0.522372 0.497398 0.446187 0.369660 0.275128 0.184571 0.111318 0.059803 0.027498 0.009908 0.002003 0.000107 0.000021 0.000215 0.001273 0.005000 0.014227 0.032691 0.065466 0.115884 0.184813 0.268013 0.355555 0.427237 0.470294 0.484329 0.481970 0.478537 0.480007 0.479867 0.457586 0.397156 0.305344 0.208163 0.125795 0.064679 0.027900 0.010083 0.001882 0.000073 0.000009 0.000293 0.001974 0.006480 0.017113 0.038217 0.075988 0.135244 0.215091 0.306582 0.389028 0.435558 0.436491 0.410303 0.386470 0.387398 0.407747 0.435272 0.436850 0.390347 0.303764 0.208047 0.124015 0.061020 0.023293 0.007415 0.001318 0.000086 0.000016 0.000410 0.002188 0.006487 0.016693 0.038493 0.080198 0.146271 0.234189 0.327384 0.394381 0.406131 0.369221 0.324436 0.308361 0.328858 0.366796 0.410439 0.418031 0.371210 0.283605 0.190849 0.112828 0.054079 0.018528 0.004664 0.000867 0.000077 0.000029 0.000320 0.001789 0.005154 0.014364 0.037499 0.083008 0.156731 0.251855 0.343633 0.389865 0.373925 0.320173 0.286325 0.296478 0.333939 0.381572 0.423132 0.416140 0.351320 0.256109 0.167555 0.100182 0.050296 0.016095 0.002380 0.000451 0.000031 0.000014 0.000170 0.000986 0.003449 0.012027 0.037369 0.089720 0.171931 0.272526 0.356277 0.385862 0.357161 0.312188 0.310667 0.349553 0.398183 0.443642 0.462004 0.422993 0.332765 0.231268 0.150895 0.093923 0.050479 0.016990 0.001637 0.000272 0.000038 0.000003 0.000085 0.000490 0.002261 0.011405 0.041768 0.100787 0.188136 0.287822 0.362198 0.380746 0.356600 0.340317 0.379833 0.435728 0.485830 0.509523 0.497103 0.427293 0.318879 0.217439 0.146543 0.095133 0.054161 0.020267 0.002256 0.000312 0.000032 0.000000 0.000043 0.000211 0.001735 0.011933 0.048816 0.112645 0.199419 0.291812 0.356468 0.373624 0.365451 0.383178 0.451786 0.509895 0.547302 0.538364 0.502434 0.418232 0.311327 0.220212 0.153665 0.101279 0.058160 0.022691 0.003197 0.000324 0.000007 0.000001 0.000020 0.000179 0.001934 0.013805 0.057009 0.122344 0.201583 0.281232 0.337018 0.358540 0.368536 0.410501 0.482095 0.531512 0.545031 0.517164 0.475229 0.395948 0.307298 0.228556 0.162436 0.106564 0.058562 0.022811 0.004103 0.000510 0.000040 0.000003 0.000021 0.000302 0.002467 0.017313 0.065258 0.128244 0.196635 0.260634 0.305014 0.326829 0.348589 0.394467 0.452764 0.494297 0.498272 0.473958 0.434655 0.373268 0.303221 0.233157 0.164564 0.104621 0.055552 0.021587 0.004729 0.000657 0.000060 0.000000 0.000032 0.000423 0.003755 0.023343 0.073094 0.131672 0.189524 0.236940 0.270696 0.290571 0.314132 0.349282 0.397834 0.440018 0.450889 0.439492 0.408926 0.362621 0.302938 0.231695 0.159200 0.097168 0.049957 0.019851 0.005261 0.000746 0.000037 0.000010 0.000022 0.000588 0.005777 0.030109 0.081130 0.137543 0.188729 0.227460 0.257772 0.279548 0.298212 0.322998 0.370519 0.416189 0.438936 0.437368 0.411990 0.366371 0.299318 0.221025 0.146730 0.087863 0.044199 0.017717 0.005082 0.000651 0.000039 0.000000 0.000027 0.001040 0.007857 0.034706 0.086485 0.145394 0.200007 0.243977 0.278882 0.304416 0.322260 0.350754 0.395622 0.439872 0.461993 0.455879 0.422348 0.362275 0.281095 0.198349 0.126579 0.072600 0.035288 0.014087 0.003994 0.000557 0.000014 0.000000 0.000046 0.001340 0.008717 0.033566 0.082040 0.147435 0.212422 0.270359 0.318942 0.354541 0.383256 0.417468 0.459146 0.490244 0.493049 0.464339 0.408152 0.329403 0.239508 0.159822 0.096803 0.052894 0.025383 0.010684 0.002783 0.000401 0.000004 0.000003 0.000045 0.001132 0.006912 0.025787 0.066721 0.130195 0.203761 0.277366 0.343002 0.396461 0.440316 0.480534 0.511689 0.517997 0.490006 0.431426 0.350801 0.261301 0.178415 0.111720 0.063566 0.033446 0.016247 0.006768 0.001742 0.000241 0.000003 0.000003 0.000001 0.000644 0.004128 0.015045 0.042687 0.092133 0.160586 0.240288 0.318622 0.388846 0.442902 0.480599 0.491838 0.473095 0.419854 0.343631 0.258812 0.178864 0.113071 0.065899 0.035651 0.018499 0.008803 0.003298 0.000759 0.000074 0.000006 0.000000 0.000000 0.000201 0.001606 0.006574 0.019254 0.046766 0.094011 0.158188 0.231699 0.303692 0.360772 0.391566 0.389569 0.355648 0.296358 0.225743 0.158266 0.101018 0.059987 0.032972 0.017196 0.008675 0.003802 0.001192 0.000232 0.000024 0.000000 0.000000 0.000000 0.000038 0.000458 0.002139 0.006251 0.016319 0.035927 0.066183 0.106521 0.150080 0.185950 0.204075 0.201051 0.179052 0.144095 0.107592 0.075622 0.047964 0.028342 0.015287 0.007659 0.003691 0.001484 0.000359 0.000092 0.000010 0.000000 0.000000 0.000000 0.000001 0.000047 0.000462 0.001696 0.005264 0.012119 0.023705 0.038298 0.054596 0.066281 0.071949 0.070316 0.063224 0.051834 0.041388 0.031065 0.020856 0.012464 0.006574 0.003140 0.001450 0.000506 0.000094 0.000008 0.000009 0.000000 0.000000 0.000000 0.000000 0.000000 0.000124 0.000527 0.001998 0.004597 0.008881 0.013561 0.019349 0.024102 0.025736 0.024715 0.022098 0.017580 0.013687 0.010295 0.006919 0.004098 0.002138 0.000912 0.000308 0.000067 0.000000 0.000005 0.000000 0.000000 0.000000 0.000000 0.000000 0.000000 0.000008 0.000048 0.000172 0.000315 0.000421 0.000809 0.001396 0.001773 0.002195 0.002523 0.002807 0.002275 0.001845 0.001401 0.000818 0.000329 0.000110 0.000038 0.000051 0.000010 0.000000 0.000000 0.000000 0.000000 
scale_deviation_in=0.000000 0.000000 0.000000 0.000000 0.000000 0.000000 0.000000 0.000000 0.000000 0.000000 0.000000 0.000000 0.000185 0.003993 0.003993 0.000166 0.000000 0.000000 0.000000 0.000000 0.000000 0.000000 0.000000 0.000000 0.000000 0.000000 0.000000 0.000000 0.000000 0.000000 0.000000 0.000000 0.000000 0.000148 0.004777 0.009108 0.011301 0.012477 0.020205 0.022476 0.021920 0.021909 0.022617 0.021470 0.023365 0.021941 0.017523 0.015185 0.012706 0.007391 0.005040 0.003652 0.000000 0.000000 0.000000 0.000000 0.000000 0.000000 0.000000 0.000587 0.003657 0.001685 0.010039 0.020631 0.028604 0.038961 0.049733 0.060575 0.073324 0.084209 0.096807 0.102876 0.105516 0.100628 0.090424 0.078508 0.059093 0.041557 0.027176 0.015118 0.009270 0.003219 0.000000 0.000000 0.000000 0.000000 0.000803 0.002983 0.003643 0.013532 0.024730 0.040859 0.058302 0.080501 0.102823 0.126478 0.146839 0.168046 0.187323 0.198668 0.197374 0.187722 0.168325 0.142668 0.108725 0.080172 0.051309 0.031389 0.019059 0.006688 0.002400 0.000000 0.000000 0.000702 0.002832 0.003770 0.014066 0.033140 0.052787 0.082128 0.115424 0.154244 0.194170 0.232855 0.270512 0.304807 0.328028 0.338656 0.336397 0.319820 0.289618 0.251315 0.203309 0.154161 0.110655 0.076073 0.047970 0.020875 0.008622 0.001596 0.000000 0.000000 0.003455 0.010825 0.028777 0.062515 0.099121 0.142884 0.191586 0.242618 0.290294 0.334922 0.374002 0.403867 0.420096 0.425537 0.423106 0.412116 0.388175 0.351703 0.300728 0.241850 0.185790 0.136576 0.089004 0.042983 0.016226 0.001915 0.000000 0.000074 0.007664 0.022606 0.053378 0.094162 0.143715 0.200807 0.259114 0.314283 0.361773 0.397991 0.422801 0.435839 0.440034 0.440612 0.440552 0.439810 0.431088 0.407590 0.365436 0.307024 0.242983 0.180303 0.121626 0.067783 0.028254 0.006686 0.000869 0.006189 0.016092 0.039103 0.078744 0.129095 0.187699 0.249649 0.309734 0.361013 0.398971 0.421685 0.431154 0.433015 0.433234 0.431662 0.432621 0.434075 0.435054 0.426488 0.396776 0.345327 0.278890 0.207143 0.139636 0.082563 0.035388 0.006854 0.003664 0.011849 0.029511 0.060255 0.103662 0.156220 0.219043 0.284461 0.346278 0.392930 0.421151 0.433124 0.435362 0.436324 0.436021 0.434255 0.434364 0.435231 0.436629 0.432871 0.410860 0.363529 0.295656 0.215726 0.141511 0.083994 0.034742 0.006220 0.001534 0.014511 0.037650 0.070651 0.114580 0.169599 0.235628 0.305842 0.368191 0.409197 0.431265 0.436840 0.436471 0.432246 0.426752 0.425472 0.428257 0.433331 0.435668 0.431800 0.410434 0.365090 0.294082 0.209217 0.128875 0.070863 0.028421 0.007248 0.003420 0.017702 0.040334 0.071113 0.113726 0.169943 0.241561 0.315548 0.378665 0.416952 0.432725 0.434717 0.423460 0.408035 0.402408 0.411391 0.421225 0.430489 0.433322 0.428078 0.402617 0.353564 0.282691 0.197793 0.115025 0.056558 0.023602 0.006312 0.003784 0.014613 0.036261 0.062160 0.104366 0.166350 0.244784 0.324160 0.387727 0.422665 0.432341 0.427271 0.408079 0.392023 0.402084 0.417290 0.423467 0.431193 0.433008 0.423773 0.389006 0.334009 0.269910 0.192913 0.106086 0.038621 0.016512 0.003249 0.003013 0.010464 0.026713 0.050316 0.094509 0.165521 0.253872 0.337566 0.398895 0.427937 0.432224 0.424103 0.407271 0.404105 0.426792 0.434729 0.430243 0.435661 0.436565 0.417660 0.373415 0.319493 0.263395 0.196055 0.109845 0.032035 0.013327 0.003658 0.000592 0.007413 0.019169 0.039577 0.091998 0.174780 0.268879 0.350744 0.407267 0.430191 0.431720 0.423970 0.416867 0.426723 0.446174 0.437354 0.431371 0.439526 0.437395 0.411232 0.365162 0.316929 0.266026 0.204139 0.122384 0.037699 0.013326 0.004769 0.000000 0.004676 0.011638 0.034470 0.092704 0.188827 0.284116 0.360505 0.409983 0.429403 0.430137 0.424916 0.424097 0.437055 0.445790 0.429633 0.430613 0.440338 0.434970 0.408638 0.368615 0.324414 0.273312 0.210945 0.130312 0.046460 0.013526 0.001083 0.000129 0.004179 0.009552 0.036246 0.098767 0.204733 0.295758 0.362993 0.405256 0.424381 0.425750 0.424752 0.429542 0.441466 0.441683 0.428741 0.436574 0.441929 0.430592 0.408256 0.374727 0.333061 0.278836 0.209848 0.130339 0.054076 0.017971 0.004081 0.000739 0.002678 0.013711 0.040710 0.110901 0.219202 0.302736 0.359428 0.394790 0.411873 0.415572 0.419756 0.430996 0.442740 0.441852 0.436150 0.439950 0.436107 0.425458 0.407536 0.379366 0.334128 0.275587 0.203569 0.124956 0.057744 0.020197 0.006180 0.000000 0.003451 0.016600 0.051065 0.131479 0.232916 0.306058 0.353545 0.381981 0.397380 0.404059 0.412392 0.425682 0.434723 0.439052 0.438110 0.435431 0.430109 0.424464 0.409124 0.378730 0.329393 0.264995 0.192462 0.118540 0.061163 0.021869 0.003247 0.001456 0.003730 0.018887 0.063868 0.150424 0.246012 0.312348 0.353156 0.376484 0.392100 0.402497 0.410362 0.416336 0.427071 0.435484 0.435076 0.431743 0.432358 0.427228 0.409722 0.373033 0.318499 0.253265 0.180674 0.112890 0.059829 0.020498 0.004284 0.000000 0.003682 0.027055 0.076153 0.162626 0.254648 0.320698 0.362038 0.386246 0.402892 0.413406 0.420057 0.425194 0.432118 0.436592 0.435502 0.433514 0.435744 0.427848 0.401785 0.358180 0.298535 0.230638 0.161406 0.101031 0.052531 0.019530 0.002065 0.000000 0.004944 0.030198 0.080808 0.160050 0.247286 0.321626 0.371902 0.401290 0.418612 0.428175 0.432977 0.435695 0.437530 0.436611 0.435978 0.436039 0.433543 0.418013 0.382601 0.328419 0.263885 0.197134 0.136271 0.087928 0.042888 0.015946 0.000943 0.000592 0.004691 0.028010 0.070356 0.137427 0.221839 0.302614 0.365844 0.405696 0.427184 0.436072 0.437139 0.435728 0.432758 0.433433 0.434984 0.433343 0.421391 0.391872 0.341638 0.280068 0.214975 0.157188 0.108893 0.069506 0.034584 0.011372 0.000721 0.000573 0.000226 0.019914 0.052951 0.102760 0.174778 0.254898 0.328747 0.384914 0.420081 0.437371 0.442184 0.441089 0.439967 0.440065 0.436419 0.420161 0.389456 0.340750 0.280622 0.217653 0.161542 0.116071 0.079332 0.046742 0.020205 0.006164 0.001331 0.000000 0.000000 0.009776 0.031389 0.066693 0.115294 0.179970 0.253811 0.322330 0.375687 0.411137 0.428337 0.433584 0.432342 0.422892 0.403073 0.368396 0.321011 0.264443 0.207296 0.155469 0.112609 0.078901 0.051355 0.027508 0.012129 0.002454 0.000000 0.000000 0.000000 0.004397 0.016147 0.037183 0.065945 0.106674 0.160614 0.217740 0.273633 0.318375 0.347517 0.358226 0.355449 0.338401 0.307522 0.271756 0.232092 0.186593 0.145626 0.106374 0.076072 0.051936 0.031514 0.014631 0.007592 0.001842 0.000000 0.000000 0.000000 0.000296 0.004640 0.017723 0.033822 0.061923 0.095844 0.136001 0.172049 0.204397 0.223432 0.232305 0.229091 0.216523 0.196037 0.176500 0.153511 0.126639 0.097635 0.070186 0.048303 0.031465 0.018230 0.006817 0.001608 0.001923 0.000000 0.000000 0.000000 0.000000 0.000000 0.008215 0.018378 0.038235 0.058929 0.082678 0.101656 0.122079 0.136198 0.139412 0.136333 0.129512 0.114367 0.101357 0.088339 0.072509 0.055381 0.040375 0.025604 0.014288 0.005119 0.000000 0.001091 0.000000 0.000000 0.000000 0.000000 0.000000 0.000000 0.001738 0.005752 0.010700 0.015166 0.016312 0.025017 0.031326 0.036568 0.040099 0.042779 0.045534 0.040778 0.036345 0.032061 0.023998 0.015060 0.008065 0.003938 0.006630 0.001569 0.000000 0.000000 0.000000 0.000000 
scale_new_min_in=0.000000 0.000000 0.000000 0.000000 0.000000 0.000000 0.000000 0.000000 0.000000 0.000000 0.000000 0.000000 0.000000 0.000000 0.000000 0.000000 0.000000 0.000000 0.000000 0.000000 0.000000 0.000000 0.000000 0.000000 0.000000 0.000000 0.000000 0.000000 0.000000 0.000000 0.000000 0.000000 0.000000 0.000000 0.000000 0.000000 0.000000 0.000000 0.000000 0.000000 0.000000 0.000000 0.000000 0.000000 0.000000 0.000000 0.000000 0.000000 0.000000 0.000000 0.000000 0.000000 0.000000 0.000000 0.000000 0.000000 0.000000 0.000000 0.000000 0.000000 0.000000 0.000000 0.000000 0.000000 0.000000 0.000000 0.000000 0.000000 0.000000 0.000000 0.000000 0.000000 0.000000 0.000000 0.000000 0.000000 0.000000 0.000000 0.000000 0.000000 0.000000 0.000000 0.000000 0.000000 0.000000 0.000000 0.000000 0.000000 0.000000 0.000000 0.000000 0.000000 0.000000 0.000000 0.000000 0.000000 0.000000 0.000000 0.000000 0.000000 0.000000 0.000000 0.000000 0.000000 0.000000 0.000000 0.000000 0.000000 0.000000 0.000000 0.000000 0.000000 0.000000 0.000000 0.000000 0.000000 0.000000 0.000000 0.000000 0.000000 0.000000 0.000000 0.000000 0.000000 0.000000 0.000000 0.000000 0.000000 0.000000 0.000000 0.000000 0.000000 0.000000 0.000000 0.000000 0.000000 0.000000 0.000000 0.000000 0.000000 0.000000 0.000000 0.000000 0.000000 0.000000 0.000000 0.000000 0.000000 0.000000 0.000000 0.000000 0.000000 0.000000 0.000000 0.000000 0.000000 0.000000 0.000000 0.000000 0.000000 0.000000 0.000000 0.000000 0.000000 0.000000 0.000000 0.000000 0.000000 0.000000 0.000000 0.000000 0.000000 0.000000 0.000000 0.000000 0.000000 0.000000 0.000000 0.000000 0.000000 0.000000 0.000000 0.000000 0.000000 0.000000 0.000000 0.000000 0.000000 0.000000 0.000000 0.000000 0.000000 0.000000 0.000000 0.000000 0.000000 0.000000 0.000000 0.000000 0.000000 0.000000 0.000000 0.000000 0.000000 0.000000 0.000000 0.000000 0.000000 0.000000 0.000000 0.000000 0.000000 0.000000 0.000000 0.000000 0.000000 0.000000 0.000000 0.000000 0.000000 0.000000 0.000000 0.000000 0.000000 0.000000 0.000000 0.000000 0.000000 0.000000 0.000000 0.000000 0.000000 0.000000 0.000000 0.000000 0.000000 0.000000 0.000000 0.000000 0.000000 0.000000 0.000000 0.000000 0.000000 0.000000 0.000000 0.000000 0.000000 0.000000 0.000000 0.000000 0.000000 0.000000 0.000000 0.000000 0.000000 0.000000 0.000000 0.000000 0.000000 0.000000 0.000000 0.000000 0.000000 0.000000 0.000000 0.000000 0.000000 0.000000 0.000000 0.000000 0.000000 0.000000 0.000000 0.000000 0.000000 0.000000 0.000000 0.000000 0.000000 0.000000 0.000000 0.000000 0.000000 0.000000 0.000000 0.000000 0.000000 0.000000 0.000000 0.000000 0.000000 0.000000 0.000000 0.000000 0.000000 0.000000 0.000000 0.000000 0.000000 0.000000 0.000000 0.000000 0.000000 0.000000 0.000000 0.000000 0.000000 0.000000 0.000000 0.000000 0.000000 0.000000 0.000000 0.000000 0.000000 0.000000 0.000000 0.000000 0.000000 0.000000 0.000000 0.000000 0.000000 0.000000 0.000000 0.000000 0.000000 0.000000 0.000000 0.000000 0.000000 0.000000 0.000000 0.000000 0.000000 0.000000 0.000000 0.000000 0.000000 0.000000 0.000000 0.000000 0.000000 0.000000 0.000000 0.000000 0.000000 0.000000 0.000000 0.000000 0.000000 0.000000 0.000000 0.000000 0.000000 0.000000 0.000000 0.000000 0.000000 0.000000 0.000000 0.000000 0.000000 0.000000 0.000000 0.000000 0.000000 0.000000 0.000000 0.000000 0.000000 0.000000 0.000000 0.000000 0.000000 0.000000 0.000000 0.000000 0.000000 0.000000 0.000000 0.000000 0.000000 0.000000 0.000000 0.000000 0.000000 0.000000 0.000000 0.000000 0.000000 0.000000 0.000000 0.000000 0.000000 0.000000 0.000000 0.000000 0.000000 0.000000 0.000000 0.000000 0.000000 0.000000 0.000000 0.000000 0.000000 0.000000 0.000000 0.000000 0.000000 0.000000 0.000000 0.000000 0.000000 0.000000 0.000000 0.000000 0.000000 0.000000 0.000000 0.000000 0.000000 0.000000 0.000000 0.000000 0.000000 0.000000 0.000000 0.000000 0.000000 0.000000 0.000000 0.000000 0.000000 0.000000 0.000000 0.000000 0.000000 0.000000 0.000000 0.000000 0.000000 0.000000 0.000000 0.000000 0.000000 0.000000 0.000000 0.000000 0.000000 0.000000 0.000000 0.000000 0.000000 0.000000 0.000000 0.000000 0.000000 0.000000 0.000000 0.000000 0.000000 0.000000 0.000000 0.000000 0.000000 0.000000 0.000000 0.000000 0.000000 0.000000 0.000000 0.000000 0.000000 0.000000 0.000000 0.000000 0.000000 0.000000 0.000000 0.000000 0.000000 0.000000 0.000000 0.000000 0.000000 0.000000 0.000000 0.000000 0.000000 0.000000 0.000000 0.000000 0.000000 0.000000 0.000000 0.000000 0.000000 0.000000 0.000000 0.000000 0.000000 0.000000 0.000000 0.000000 0.000000 0.000000 0.000000 0.000000 0.000000 0.000000 0.000000 0.000000 0.000000 0.000000 0.000000 0.000000 0.000000 0.000000 0.000000 0.000000 0.000000 0.000000 0.000000 0.000000 0.000000 0.000000 0.000000 0.000000 0.000000 0.000000 0.000000 0.000000 0.000000 0.000000 0.000000 0.000000 0.000000 0.000000 0.000000 0.000000 0.000000 0.000000 0.000000 0.000000 0.000000 0.000000 0.000000 0.000000 0.000000 0.000000 0.000000 0.000000 0.000000 0.000000 0.000000 0.000000 0.000000 0.000000 0.000000 0.000000 0.000000 0.000000 0.000000 0.000000 0.000000 0.000000 0.000000 0.000000 0.000000 0.000000 0.000000 0.000000 0.000000 0.000000 0.000000 0.000000 0.000000 0.000000 0.000000 0.000000 0.000000 0.000000 0.000000 0.000000 0.000000 0.000000 0.000000 0.000000 0.000000 0.000000 0.000000 0.000000 0.000000 0.000000 0.000000 0.000000 0.000000 0.000000 0.000000 0.000000 0.000000 0.000000 0.000000 0.000000 0.000000 0.000000 0.000000 0.000000 0.000000 0.000000 0.000000 0.000000 0.000000 0.000000 0.000000 0.000000 0.000000 0.000000 0.000000 0.000000 0.000000 0.000000 0.000000 0.000000 0.000000 0.000000 0.000000 0.000000 0.000000 0.000000 0.000000 0.000000 0.000000 0.000000 0.000000 0.000000 0.000000 0.000000 0.000000 0.000000 0.000000 0.000000 0.000000 0.000000 0.000000 0.000000 0.000000 0.000000 0.000000 0.000000 0.000000 0.000000 0.000000 0.000000 0.000000 0.000000 0.000000 0.000000 0.000000 0.000000 0.000000 0.000000 0.000000 0.000000 0.000000 0.000000 0.000000 0.000000 0.000000 0.000000 0.000000 0.000000 0.000000 0.000000 0.000000 0.000000 0.000000 0.000000 0.000000 0.000000 0.000000 0.000000 0.000000 0.000000 0.000000 0.000000 0.000000 0.000000 0.000000 0.000000 0.000000 0.000000 0.000000 0.000000 0.000000 0.000000 0.000000 0.000000 0.000000 0.000000 0.000000 0.000000 0.000000 0.000000 0.000000 0.000000 0.000000 0.000000 0.000000 0.000000 0.000000 0.000000 0.000000 0.000000 0.000000 0.000000 0.000000 0.000000 0.000000 0.000000 0.000000 0.000000 0.000000 0.000000 0.000000 0.000000 0.000000 0.000000 0.000000 0.000000 0.000000 0.000000 0.000000 0.000000 0.000000 0.000000 0.000000 0.000000 0.000000 0.000000 0.000000 0.000000 0.000000 0.000000 0.000000 0.000000 0.000000 0.000000 0.000000 0.000000 0.000000 0.000000 0.000000 0.000000 0.000000 0.000000 0.000000 0.000000 0.000000 0.000000 0.000000 0.000000 0.000000 0.000000 0.000000 0.000000 0.000000 0.000000 0.000000 0.000000 0.000000 0.000000 0.000000 0.000000 0.000000 0.000000 0.000000 0.000000 0.000000 0.000000 0.000000 
scale_factor_in=0.500000 0.500000 0.500000 0.500000 0.500000 0.500000 0.500000 0.500000 0.500000 0.500000 0.500000 0.500000 0.500000 0.500000 0.500000 0.500000 0.500000 0.500000 0.500000 0.500000 0.500000 0.500000 0.500000 0.500000 0.500000 0.500000 0.500000 0.500000 0.500000 0.500000 0.500000 0.500000 0.500000 0.500000 0.500000 0.500000 0.500000 0.500000 0.500000 0.500000 0.500000 0.500000 0.500000 0.500000 0.500000 0.500000 0.500000 0.500000 0.500000 0.500000 0.500000 0.500000 0.500000 0.500000 0.500000 0.500000 0.500000 0.500000 0.500000 0.500000 0.500000 0.500000 0.500000 0.500000 0.500000 0.500000 0.500000 0.500000 0.500000 0.500000 0.500000 0.500000 0.500000 0.500000 0.500000 0.500000 0.500000 0.500000 0.500000 0.500000 0.500000 0.500000 0.500000 0.500000 0.500000 0.500000 0.500000 0.500000 0.500000 0.500000 0.500000 0.500000 0.500000 0.500000 0.500000 0.500000 0.500000 0.500000 0.500000 0.500000 0.500000 0.500000 0.500000 0.500000 0.500000 0.500000 0.500000 0.500000 0.500000 0.500000 0.500000 0.500000 0.500000 0.500000 0.500000 0.500000 0.500000 0.500000 0.500000 0.500000 0.500000 0.500000 0.500000 0.500000 0.500000 0.500000 0.500000 0.500000 0.500000 0.500000 0.500000 0.500000 0.500000 0.500000 0.500000 0.500000 0.500000 0.500000 0.500000 0.500000 0.500000 0.500000 0.500000 0.500000 0.500000 0.500000 0.500000 0.500000 0.500000 0.500000 0.500000 0.500000 0.500000 0.500000 0.500000 0.500000 0.500000 0.500000 0.500000 0.500000 0.500000 0.500000 0.500000 0.500000 0.500000 0.500000 0.500000 0.500000 0.500000 0.500000 0.500000 0.500000 0.500000 0.500000 0.500000 0.500000 0.500000 0.500000 0.500000 0.500000 0.500000 0.500000 0.500000 0.500000 0.500000 0.500000 0.500000 0.500000 0.500000 0.500000 0.500000 0.500000 0.500000 0.500000 0.500000 0.500000 0.500000 0.500000 0.500000 0.500000 0.500000 0.500000 0.500000 0.500000 0.500000 0.500000 0.500000 0.500000 0.500000 0.500000 0.500000 0.500000 0.500000 0.500000 0.500000 0.500000 0.500000 0.500000 0.500000 0.500000 0.500000 0.500000 0.500000 0.500000 0.500000 0.500000 0.500000 0.500000 0.500000 0.500000 0.500000 0.500000 0.500000 0.500000 0.500000 0.500000 0.500000 0.500000 0.500000 0.500000 0.500000 0.500000 0.500000 0.500000 0.500000 0.500000 0.500000 0.500000 0.500000 0.500000 0.500000 0.500000 0.500000 0.500000 0.500000 0.500000 0.500000 0.500000 0.500000 0.500000 0.500000 0.500000 0.500000 0.500000 0.500000 0.500000 0.500000 0.500000 0.500000 0.500000 0.500000 0.500000 0.500000 0.500000 0.500000 0.500000 0.500000 0.500000 0.500000 0.500000 0.500000 0.500000 0.500000 0.500000 0.500000 0.500000 0.500000 0.500000 0.500000 0.500000 0.500000 0.500000 0.500000 0.500000 0.500000 0.500000 0.500000 0.500000 0.500000 0.500000 0.500000 0.500000 0.500000 0.500000 0.500000 0.500000 0.500000 0.500000 0.500000 0.500000 0.500000 0.500000 0.500000 0.500000 0.500000 0.500000 0.500000 0.500000 0.500000 0.500000 0.500000 0.500000 0.500000 0.500000 0.500000 0.500000 0.500000 0.500000 0.500000 0.500000 0.500000 0.500000 0.500000 0.500000 0.500000 0.500000 0.500000 0.500000 0.500000 0.500000 0.500000 0.500000 0.500000 0.500000 0.500000 0.500000 0.500000 0.500000 0.500000 0.500000 0.500000 0.500000 0.500000 0.500000 0.500000 0.500000 0.500000 0.500000 0.500000 0.500000 0.500000 0.500000 0.500000 0.500000 0.500000 0.500000 0.500000 0.500000 0.500000 0.500000 0.500000 0.500000 0.500000 0.500000 0.500000 0.500000 0.500000 0.500000 0.500000 0.500000 0.500000 0.500000 0.500000 0.500000 0.500000 0.500000 0.500000 0.500000 0.500000 0.500000 0.500000 0.500000 0.500000 0.500000 0.500000 0.500000 0.500000 0.500000 0.500000 0.500000 0.500000 0.500000 0.500000 0.500000 0.500000 0.500000 0.500000 0.500000 0.500000 0.500000 0.500000 0.500000 0.500000 0.500000 0.500000 0.500000 0.500000 0.500000 0.500000 0.500000 0.500000 0.500000 0.500000 0.500000 0.500000 0.500000 0.500000 0.500000 0.500000 0.500000 0.500000 0.500000 0.500000 0.500000 0.500000 0.500000 0.500000 0.500000 0.500000 0.500000 0.500000 0.500000 0.500000 0.500000 0.500000 0.500000 0.500000 0.500000 0.500000 0.500000 0.500000 0.500000 0.500000 0.500000 0.500000 0.500000 0.500000 0.500000 0.500000 0.500000 0.500000 0.500000 0.500000 0.500000 0.500000 0.500000 0.500000 0.500000 0.500000 0.500000 0.500000 0.500000 0.500000 0.500000 0.500000 0.500000 0.500000 0.500000 0.500000 0.500000 0.500000 0.500000 0.500000 0.500000 0.500000 0.500000 0.500000 0.500000 0.500000 0.500000 0.500000 0.500000 0.500000 0.500000 0.500000 0.500000 0.500000 0.500000 0.500000 0.500000 0.500000 0.500000 0.500000 0.500000 0.500000 0.500000 0.500000 0.500000 0.500000 0.500000 0.500000 0.500000 0.500000 0.500000 0.500000 0.500000 0.500000 0.500000 0.500000 0.500000 0.500000 0.500000 0.500000 0.500000 0.500000 0.500000 0.500000 0.500000 0.500000 0.500000 0.500000 0.500000 0.500000 0.500000 0.500000 0.500000 0.500000 0.500000 0.500000 0.500000 0.500000 0.500000 0.500000 0.500000 0.500000 0.500000 0.500000 0.500000 0.500000 0.500000 0.500000 0.500000 0.500000 0.500000 0.500000 0.500000 0.500000 0.500000 0.500000 0.500000 0.500000 0.500000 0.500000 0.500000 0.500000 0.500000 0.500000 0.500000 0.500000 0.500000 0.500000 0.500000 0.500000 0.500000 0.500000 0.500000 0.500000 0.500000 0.500000 0.500000 0.500000 0.500000 0.500000 0.500000 0.500000 0.500000 0.500000 0.500000 0.500000 0.500000 0.500000 0.500000 0.500000 0.500000 0.500000 0.500000 0.500000 0.500000 0.500000 0.500000 0.500000 0.500000 0.500000 0.500000 0.500000 0.500000 0.500000 0.500000 0.500000 0.500000 0.500000 0.500000 0.500000 0.500000 0.500000 0.500000 0.500000 0.500000 0.500000 0.500000 0.500000 0.500000 0.500000 0.500000 0.500000 0.500000 0.500000 0.500000 0.500000 0.500000 0.500000 0.500000 0.500000 0.500000 0.500000 0.500000 0.500000 0.500000 0.500000 0.500000 0.500000 0.500000 0.500000 0.500000 0.500000 0.500000 0.500000 0.500000 0.500000 0.500000 0.500000 0.500000 0.500000 0.500000 0.500000 0.500000 0.500000 0.500000 0.500000 0.500000 0.500000 0.500000 0.500000 0.500000 0.500000 0.500000 0.500000 0.500000 0.500000 0.500000 0.500000 0.500000 0.500000 0.500000 0.500000 0.500000 0.500000 0.500000 0.500000 0.500000 0.500000 0.500000 0.500000 0.500000 0.500000 0.500000 0.500000 0.500000 0.500000 0.500000 0.500000 0.500000 0.500000 0.500000 0.500000 0.500000 0.500000 0.500000 0.500000 0.500000 0.500000 0.500000 0.500000 0.500000 0.500000 0.500000 0.500000 0.500000 0.500000 0.500000 0.500000 0.500000 0.500000 0.500000 0.500000 0.500000 0.500000 0.500000 0.500000 0.500000 0.500000 0.500000 0.500000 0.500000 0.500000 0.500000 0.500000 0.500000 0.500000 0.500000 0.500000 0.500000 0.500000 0.500000 0.500000 0.500000 0.500000 0.500000 0.500000 0.500000 0.500000 0.500000 0.500000 0.500000 0.500000 0.500000 0.500000 0.500000 0.500000 0.500000 0.500000 0.500000 0.500000 0.500000 0.500000 0.500000 0.500000 0.500000 0.500000 0.500000 0.500000 0.500000 0.500000 0.500000 0.500000 0.500000 0.500000 0.500000 0.500000 0.500000 0.500000 0.500000 0.500000 0.500000 0.500000 0.500000 0.500000 0.500000 0.500000 0.500000 0.500000 0.500000 0.500000 0.500000 
scale_mean_out=0.100378 0.111600 0.098378 0.101133 0.098178 0.090422 0.097333 0.105244 0.097978 0.099356 
scale_deviation_out=0.300474 0.314901 0.297883 0.301532 0.297467 0.286709 0.296454 0.306816 0.297245 0.299077 
scale_new_min_out=0.000000 0.000000 0.000000 0.000000 0.000000 0.000000 0.000000 0.000000 0.000000 0.000000 
scale_factor_out=0.500000 0.500000 0.500000 0.500000 0.500000 0.500000 0.500000 0.500000 0.500000 0.500000 
neurons (num_inputs, activation_function, activation_steepness)=(0, 0, 0.00000000000000000000e+000) (0, 0, 0.00000000000000000000e+000) (0, 0, 0.00000000000000000000e+000) (0, 0, 0.00000000000000000000e+000) (0, 0, 0.00000000000000000000e+000) (0, 0, 0.00000000000000000000e+000) (0, 0, 0.00000000000000000000e+000) (0, 0, 0.00000000000000000000e+000) (0, 0, 0.00000000000000000000e+000) (0, 0, 0.00000000000000000000e+000) (0, 0, 0.00000000000000000000e+000) (0, 0, 0.00000000000000000000e+000) (0, 0, 0.00000000000000000000e+000) (0, 0, 0.00000000000000000000e+000) (0, 0, 0.00000000000000000000e+000) (0, 0, 0.00000000000000000000e+000) (0, 0, 0.00000000000000000000e+000) (0, 0, 0.00000000000000000000e+000) (0, 0, 0.00000000000000000000e+000) (0, 0, 0.00000000000000000000e+000) (0, 0, 0.00000000000000000000e+000) (0, 0, 0.00000000000000000000e+000) (0, 0, 0.00000000000000000000e+000) (0, 0, 0.00000000000000000000e+000) (0, 0, 0.00000000000000000000e+000) (0, 0, 0.00000000000000000000e+000) (0, 0, 0.00000000000000000000e+000) (0, 0, 0.00000000000000000000e+000) (0, 0, 0.00000000000000000000e+000) (0, 0, 0.00000000000000000000e+000) (0, 0, 0.00000000000000000000e+000) (0, 0, 0.00000000000000000000e+000) (0, 0, 0.00000000000000000000e+000) (0, 0, 0.00000000000000000000e+000) (0, 0, 0.00000000000000000000e+000) (0, 0, 0.00000000000000000000e+000) (0, 0, 0.00000000000000000000e+000) (0, 0, 0.00000000000000000000e+000) (0, 0, 0.00000000000000000000e+000) (0, 0, 0.00000000000000000000e+000) (0, 0, 0.00000000000000000000e+000) (0, 0, 0.00000000000000000000e+000) (0, 0, 0.00000000000000000000e+000) (0, 0, 0.00000000000000000000e+000) (0, 0, 0.00000000000000000000e+000) (0, 0, 0.00000000000000000000e+000) (0, 0, 0.00000000000000000000e+000) (0, 0, 0.00000000000000000000e+000) (0, 0, 0.00000000000000000000e+000) (0, 0, 0.00000000000000000000e+000) (0, 0, 0.00000000000000000000e+000) (0, 0, 0.00000000000000000000e+000) (0, 0, 0.00000000000000000000e+000) (0, 0, 0.00000000000000000000e+000) (0, 0, 0.00000000000000000000e+000) (0, 0, 0.00000000000000000000e+000) (0, 0, 0.00000000000000000000e+000) (0, 0, 0.00000000000000000000e+000) (0, 0, 0.00000000000000000000e+000) (0, 0, 0.00000000000000000000e+000) (0, 0, 0.00000000000000000000e+000) (0, 0, 0.00000000000000000000e+000) (0, 0, 0.00000000000000000000e+000) (0, 0, 0.00000000000000000000e+000) (0, 0, 0.00000000000000000000e+000) (0, 0, 0.00000000000000000000e+000) (0, 0, 0.00000000000000000000e+000) (0, 0, 0.00000000000000000000e+000) (0, 0, 0.00000000000000000000e+000) (0, 0, 0.00000000000000000000e+000) (0, 0, 0.00000000000000000000e+000) (0, 0, 0.00000000000000000000e+000) (0, 0, 0.00000000000000000000e+000) (0, 0, 0.00000000000000000000e+000) (0, 0, 0.00000000000000000000e+000) (0, 0, 0.00000000000000000000e+000) (0, 0, 0.00000000000000000000e+000) (0, 0, 0.00000000000000000000e+000) (0, 0, 0.00000000000000000000e+000) (0, 0, 0.00000000000000000000e+000) (0, 0, 0.00000000000000000000e+000) (0, 0, 0.00000000000000000000e+000) (0, 0, 0.00000000000000000000e+000) (0, 0, 0.00000000000000000000e+000) (0, 0, 0.00000000000000000000e+000) (0, 0, 0.00000000000000000000e+000) (0, 0, 0.00000000000000000000e+000) (0, 0, 0.00000000000000000000e+000) (0, 0, 0.00000000000000000000e+000) (0, 0, 0.00000000000000000000e+000) (0, 0, 0.00000000000000000000e+000) (0, 0, 0.00000000000000000000e+000) (0, 0, 0.00000000000000000000e+000) (0, 0, 0.00000000000000000000e+000) (0, 0, 0.00000000000000000000e+000) (0, 0, 0.00000000000000000000e+000) (0, 0, 0.00000000000000000000e+000) (0, 0, 0.00000000000000000000e+000) (0, 0, 0.00000000000000000000e+000) (0, 0, 0.00000000000000000000e+000) (0, 0, 0.00000000000000000000e+000) (0, 0, 0.00000000000000000000e+000) (0, 0, 0.00000000000000000000e+000) (0, 0, 0.00000000000000000000e+000) (0, 0, 0.00000000000000000000e+000) (0, 0, 0.00000000000000000000e+000) (0, 0, 0.00000000000000000000e+000) (0, 0, 0.00000000000000000000e+000) (0, 0, 0.00000000000000000000e+000) (0, 0, 0.00000000000000000000e+000) (0, 0, 0.00000000000000000000e+000) (0, 0, 0.00000000000000000000e+000) (0, 0, 0.00000000000000000000e+000) (0, 0, 0.00000000000000000000e+000) (0, 0, 0.00000000000000000000e+000) (0, 0, 0.00000000000000000000e+000) (0, 0, 0.00000000000000000000e+000) (0, 0, 0.00000000000000000000e+000) (0, 0, 0.00000000000000000000e+000) (0, 0, 0.00000000000000000000e+000) (0, 0, 0.00000000000000000000e+000) (0, 0, 0.00000000000000000000e+000) (0, 0, 0.00000000000000000000e+000) (0, 0, 0.00000000000000000000e+000) (0, 0, 0.00000000000000000000e+000) (0, 0, 0.00000000000000000000e+000) (0, 0, 0.00000000000000000000e+000) (0, 0, 0.00000000000000000000e+000) (0, 0, 0.00000000000000000000e+000) (0, 0, 0.00000000000000000000e+000) (0, 0, 0.00000000000000000000e+000) (0, 0, 0.00000000000000000000e+000) (0, 0, 0.00000000000000000000e+000) (0, 0, 0.00000000000000000000e+000) (0, 0, 0.00000000000000000000e+000) (0, 0, 0.00000000000000000000e+000) (0, 0, 0.00000000000000000000e+000) (0, 0, 0.00000000000000000000e+000) (0, 0, 0.00000000000000000000e+000) (0, 0, 0.00000000000000000000e+000) (0, 0, 0.00000000000000000000e+000) (0, 0, 0.00000000000000000000e+000) (0, 0, 0.00000000000000000000e+000) (0, 0, 0.00000000000000000000e+000) (0, 0, 0.00000000000000000000e+000) (0, 0, 0.00000000000000000000e+000) (0, 0, 0.00000000000000000000e+000) (0, 0, 0.00000000000000000000e+000) (0, 0, 0.00000000000000000000e+000) (0, 0, 0.00000000000000000000e+000) (0, 0, 0.00000000000000000000e+000) (0, 0, 0.00000000000000000000e+000) (0, 0, 0.00000000000000000000e+000) (0, 0, 0.00000000000000000000e+000) (0, 0, 0.00000000000000000000e+000) (0, 0, 0.00000000000000000000e+000) (0, 0, 0.00000000000000000000e+000) (0, 0, 0.00000000000000000000e+000) (0, 0, 0.00000000000000000000e+000) (0, 0, 0.00000000000000000000e+000) (0, 0, 0.00000000000000000000e+000) (0, 0, 0.00000000000000000000e+000) (0, 0, 0.00000000000000000000e+000) (0, 0, 0.00000000000000000000e+000) (0, 0, 0.00000000000000000000e+000) (0, 0, 0.00000000000000000000e+000) (0, 0, 0.00000000000000000000e+000) (0, 0, 0.00000000000000000000e+000) (0, 0, 0.00000000000000000000e+000) (0, 0, 0.00000000000000000000e+000) (0, 0, 0.00000000000000000000e+000) (0, 0, 0.00000000000000000000e+000) (0, 0, 0.00000000000000000000e+000) (0, 0, 0.00000000000000000000e+000) (0, 0, 0.00000000000000000000e+000) (0, 0, 0.00000000000000000000e+000) (0, 0, 0.00000000000000000000e+000) (0, 0, 0.00000000000000000000e+000) (0, 0, 0.00000000000000000000e+000) (0, 0, 0.00000000000000000000e+000) (0, 0, 0.00000000000000000000e+000) (0, 0, 0.00000000000000000000e+000) (0, 0, 0.00000000000000000000e+000) (0, 0, 0.00000000000000000000e+000) (0, 0, 0.00000000000000000000e+000) (0, 0, 0.00000000000000000000e+000) (0, 0, 0.00000000000000000000e+000) (0, 0, 0.00000000000000000000e+000) (0, 0, 0.00000000000000000000e+000) (0, 0, 0.00000000000000000000e+000) (0, 0, 0.00000000000000000000e+000) (0, 0, 0.00000000000000000000e+000) (0, 0, 0.00000000000000000000e+000) (0, 0, 0.00000000000000000000e+000) (0, 0, 0.00000000000000000000e+000) (0, 0, 0.00000000000000000000e+000) (0, 0, 0.00000000000000000000e+000) (0, 0, 0.00000000000000000000e+000) (0, 0, 0.00000000000000000000e+000) (0, 0, 0.00000000000000000000e+000) (0, 0, 0.00000000000000000000e+000) (0, 0, 0.00000000000000000000e+000) (0, 0, 0.00000000000000000000e+000) (0, 0, 0.00000000000000000000e+000) (0, 0, 0.00000000000000000000e+000) (0, 0, 0.00000000000000000000e+000) (0, 0, 0.00000000000000000000e+000) (0, 0, 0.00000000000000000000e+000) (0, 0, 0.00000000000000000000e+000) (0, 0, 0.00000000000000000000e+000) (0, 0, 0.00000000000000000000e+000) (0, 0, 0.00000000000000000000e+000) (0, 0, 0.00000000000000000000e+000) (0, 0, 0.00000000000000000000e+000) (0, 0, 0.00000000000000000000e+000) (0, 0, 0.00000000000000000000e+000) (0, 0, 0.00000000000000000000e+000) (0, 0, 0.00000000000000000000e+000) (0, 0, 0.00000000000000000000e+000) (0, 0, 0.00000000000000000000e+000) (0, 0, 0.00000000000000000000e+000) (0, 0, 0.00000000000000000000e+000) (0, 0, 0.00000000000000000000e+000) (0, 0, 0.00000000000000000000e+000) (0, 0, 0.00000000000000000000e+000) (0, 0, 0.00000000000000000000e+000) (0, 0, 0.00000000000000000000e+000) (0, 0, 0.00000000000000000000e+000) (0, 0, 0.00000000000000000000e+000) (0, 0, 0.00000000000000000000e+000) (0, 0, 0.00000000000000000000e+000) (0, 0, 0.00000000000000000000e+000) (0, 0, 0.00000000000000000000e+000) (0, 0, 0.00000000000000000000e+000) (0, 0, 0.00000000000000000000e+000) (0, 0, 0.00000000000000000000e+000) (0, 0, 0.00000000000000000000e+000) (0, 0, 0.00000000000000000000e+000) (0, 0, 0.00000000000000000000e+000) (0, 0, 0.00000000000000000000e+000) (0, 0, 0.00000000000000000000e+000) (0, 0, 0.00000000000000000000e+000) (0, 0, 0.00000000000000000000e+000) (0, 0, 0.00000000000000000000e+000) (0, 0, 0.00000000000000000000e+000) (0, 0, 0.00000000000000000000e+000) (0, 0, 0.00000000000000000000e+000) (0, 0, 0.00000000000000000000e+000) (0, 0, 0.00000000000000000000e+000) (0, 0, 0.00000000000000000000e+000) (0, 0, 0.00000000000000000000e+000) (0, 0, 0.00000000000000000000e+000) (0, 0, 0.00000000000000000000e+000) (0, 0, 0.00000000000000000000e+000) (0, 0, 0.00000000000000000000e+000) (0, 0, 0.00000000000000000000e+000) (0, 0, 0.00000000000000000000e+000) (0, 0, 0.00000000000000000000e+000) (0, 0, 0.00000000000000000000e+000) (0, 0, 0.00000000000000000000e+000) (0, 0, 0.00000000000000000000e+000) (0, 0, 0.00000000000000000000e+000) (0, 0, 0.00000000000000000000e+000) (0, 0, 0.00000000000000000000e+000) (0, 0, 0.00000000000000000000e+000) (0, 0, 0.00000000000000000000e+000) (0, 0, 0.00000000000000000000e+000) (0, 0, 0.00000000000000000000e+000) (0, 0, 0.00000000000000000000e+000) (0, 0, 0.00000000000000000000e+000) (0, 0, 0.00000000000000000000e+000) (0, 0, 0.00000000000000000000e+000) (0, 0, 0.00000000000000000000e+000) (0, 0, 0.00000000000000000000e+000) (0, 0, 0.00000000000000000000e+000) (0, 0, 0.00000000000000000000e+000) (0, 0, 0.00000000000000000000e+000) (0, 0, 0.00000000000000000000e+000) (0, 0, 0.00000000000000000000e+000) (0, 0, 0.00000000000000000000e+000) (0, 0, 0.00000000000000000000e+000) (0, 0, 0.00000000000000000000e+000) (0, 0, 0.00000000000000000000e+000) (0, 0, 0.00000000000000000000e+000) (0, 0, 0.00000000000000000000e+000) (0, 0, 0.00000000000000000000e+000) (0, 0, 0.00000000000000000000e+000) (0, 0, 0.00000000000000000000e+000) (0, 0, 0.00000000000000000000e+000) (0, 0, 0.00000000000000000000e+000) (0, 0, 0.00000000000000000000e+000) (0, 0, 0.00000000000000000000e+000) (0, 0, 0.00000000000000000000e+000) (0, 0, 0.00000000000000000000e+000) (0, 0, 0.00000000000000000000e+000) (0, 0, 0.00000000000000000000e+000) (0, 0, 0.00000000000000000000e+000) (0, 0, 0.00000000000000000000e+000) (0, 0, 0.00000000000000000000e+000) (0, 0, 0.00000000000000000000e+000) (0, 0, 0.00000000000000000000e+000) (0, 0, 0.00000000000000000000e+000) (0, 0, 0.00000000000000000000e+000) (0, 0, 0.00000000000000000000e+000) (0, 0, 0.00000000000000000000e+000) (0, 0, 0.00000000000000000000e+000) (0, 0, 0.00000000000000000000e+000) (0, 0, 0.00000000000000000000e+000) (0, 0, 0.00000000000000000000e+000) (0, 0, 0.00000000000000000000e+000) (0, 0, 0.00000000000000000000e+000) (0, 0, 0.00000000000000000000e+000) (0, 0, 0.00000000000000000000e+000) (0, 0, 0.00000000000000000000e+000) (0, 0, 0.00000000000000000000e+000) (0, 0, 0.00000000000000000000e+000) (0, 0, 0.00000000000000000000e+000) (0, 0, 0.00000000000000000000e+000) (0, 0, 0.00000000000000000000e+000) (0, 0, 0.00000000000000000000e+000) (0, 0, 0.00000000000000000000e+000) (0, 0, 0.00000000000000000000e+000) (0, 0, 0.00000000000000000000e+000) (0, 0, 0.00000000000000000000e+000) (0, 0, 0.00000000000000000000e+000) (0, 0, 0.00000000000000000000e+000) (0, 0, 0.00000000000000000000e+000) (0, 0, 0.00000000000000000000e+000) (0, 0, 0.00000000000000000000e+000) (0, 0, 0.00000000000000000000e+000) (0, 0, 0.00000000000000000000e+000) (0, 0, 0.00000000000000000000e+000) (0, 0, 0.00000000000000000000e+000) (0, 0, 0.00000000000000000000e+000) (0, 0, 0.00000000000000000000e+000) (0, 0, 0.00000000000000000000e+000) (0, 0, 0.00000000000000000000e+000) (0, 0, 0.00000000000000000000e+000) (0, 0, 0.00000000000000000000e+000) (0, 0, 0.00000000000000000000e+000) (0, 0, 0.00000000000000000000e+000) (0, 0, 0.00000000000000000000e+000) (0, 0, 0.00000000000000000000e+000) (0, 0, 0.00000000000000000000e+000) (0, 0, 0.00000000000000000000e+000) (0, 0, 0.00000000000000000000e+000) (0, 0, 0.00000000000000000000e+000) (0, 0, 0.00000000000000000000e+000) (0, 0, 0.00000000000000000000e+000) (0, 0, 0.00000000000000000000e+000) (0, 0, 0.00000000000000000000e+000) (0, 0, 0.00000000000000000000e+000) (0, 0, 0.00000000000000000000e+000) (0, 0, 0.00000000000000000000e+000) (0, 0, 0.00000000000000000000e+000) (0, 0, 0.00000000000000000000e+000) (0, 0, 0.00000000000000000000e+000) (0, 0, 0.00000000000000000000e+000) (0, 0, 0.00000000000000000000e+000) (0, 0, 0.00000000000000000000e+000) (0, 0, 0.00000000000000000000e+000) (0, 0, 0.00000000000000000000e+000) (0, 0, 0.00000000000000000000e+000) (0, 0, 0.00000000000000000000e+000) (0, 0, 0.00000000000000000000e+000) (0, 0, 0.00000000000000000000e+000) (0, 0, 0.00000000000000000000e+000) (0, 0, 0.00000000000000000000e+000) (0, 0, 0.00000000000000000000e+000) (0, 0, 0.00000000000000000000e+000) (0, 0, 0.00000000000000000000e+000) (0, 0, 0.00000000000000000000e+000) (0, 0, 0.00000000000000000000e+000) (0, 0, 0.00000000000000000000e+000) (0, 0, 0.00000000000000000000e+000) (0, 0, 0.00000000000000000000e+000) (0, 0, 0.00000000000000000000e+000) (0, 0, 0.00000000000000000000e+000) (0, 0, 0.00000000000000000000e+000) (0, 0, 0.00000000000000000000e+000) (0, 0, 0.00000000000000000000e+000) (0, 0, 0.00000000000000000000e+000) (0, 0, 0.00000000000000000000e+000) (0, 0, 0.00000000000000000000e+000) (0, 0, 0.00000000000000000000e+000) (0, 0, 0.00000000000000000000e+000) (0, 0, 0.00000000000000000000e+000) (0, 0, 0.00000000000000000000e+000) (0, 0, 0.00000000000000000000e+000) (0, 0, 0.00000000000000000000e+000) (0, 0, 0.00000000000000000000e+000) (0, 0, 0.00000000000000000000e+000) (0, 0, 0.00000000000000000000e+000) (0, 0, 0.00000000000000000000e+000) (0, 0, 0.00000000000000000000e+000) (0, 0, 0.00000000000000000000e+000) (0, 0, 0.00000000000000000000e+000) (0, 0, 0.00000000000000000000e+000) (0, 0, 0.00000000000000000000e+000) (0, 0, 0.00000000000000000000e+000) (0, 0, 0.00000000000000000000e+000) (0, 0, 0.00000000000000000000e+000) (0, 0, 0.00000000000000000000e+000) (0, 0, 0.00000000000000000000e+000) (0, 0, 0.00000000000000000000e+000) (0, 0, 0.00000000000000000000e+000) (0, 0, 0.00000000000000000000e+000) (0, 0, 0.00000000000000000000e+000) (0, 0, 0.00000000000000000000e+000) (0, 0, 0.00000000000000000000e+000) (0, 0, 0.00000000000000000000e+000) (0, 0, 0.00000000000000000000e+000) (0, 0, 0.00000000000000000000e+000) (0, 0, 0.00000000000000000000e+000) (0, 0, 0.00000000000000000000e+000) (0, 0, 0.00000000000000000000e+000) (0, 0, 0.00000000000000000000e+000) (0, 0, 0.00000000000000000000e+000) (0, 0, 0.00000000000000000000e+000) (0, 0, 0.00000000000000000000e+000) (0, 0, 0.00000000000000000000e+000) (0, 0, 0.00000000000000000000e+000) (0, 0, 0.00000000000000000000e+000) (0, 0, 0.00000000000000000000e+000) (0, 0, 0.00000000000000000000e+000) (0, 0, 0.00000000000000000000e+000) (0, 0, 0.00000000000000000000e+000) (0, 0, 0.00000000000000000000e+000) (0, 0, 0.00000000000000000000e+000) (0, 0, 0.00000000000000000000e+000) (0, 0, 0.00000000000000000000e+000) (0, 0, 0.00000000000000000000e+000) (0, 0, 0.00000000000000000000e+000) (0, 0, 0.00000000000000000000e+000) (0, 0, 0.00000000000000000000e+000) (0, 0, 0.00000000000000000000e+000) (0, 0, 0.00000000000000000000e+000) (0, 0, 0.00000000000000000000e+000) (0, 0, 0.00000000000000000000e+000) (0, 0, 0.00000000000000000000e+000) (0, 0, 0.00000000000000000000e+000) (0, 0, 0.00000000000000000000e+000) (0, 0, 0.00000000000000000000e+000) (0, 0, 0.00000000000000000000e+000) (0, 0, 0.00000000000000000000e+000) (0, 0, 0.00000000000000000000e+000) (0, 0, 0.00000000000000000000e+000) (0, 0, 0.00000000000000000000e+000) (0, 0, 0.00000000000000000000e+000) (0, 0, 0.00000000000000000000e+000) (0, 0, 0.00000000000000000000e+000) (0, 0, 0.00000000000000000000e+000) (0, 0, 0.00000000000000000000e+000) (0, 0, 0.00000000000000000000e+000) (0, 0, 0.00000000000000000000e+000) (0, 0, 0.00000000000000000000e+000) (0, 0, 0.00000000000000000000e+000) (0, 0, 0.00000000000000000000e+000) (0, 0, 0.00000000000000000000e+000) (0, 0, 0.00000000000000000000e+000) (0, 0, 0.00000000000000000000e+000) (0, 0, 0.00000000000000000000e+000) (0, 0, 0.00000000000000000000e+000) (0, 0, 0.00000000000000000000e+000) (0, 0, 0.00000000000000000000e+000) (0, 0, 0.00000000000000000000e+000) (0, 0, 0.00000000000000000000e+000) (0, 0, 0.00000000000000000000e+000) (0, 0, 0.00000000000000000000e+000) (0, 0, 0.00000000000000000000e+000) (0, 0, 0.00000000000000000000e+000) (0, 0, 0.00000000000000000000e+000) (0, 0, 0.00000000000000000000e+000) (0, 0, 0.00000000000000000000e+000) (0, 0, 0.00000000000000000000e+000) (0, 0, 0.00000000000000000000e+000) (0, 0, 0.00000000000000000000e+000) (0, 0, 0.00000000000000000000e+000) (0, 0, 0.00000000000000000000e+000) (0, 0, 0.00000000000000000000e+000) (0, 0, 0.00000000000000000000e+000) (0, 0, 0.00000000000000000000e+000) (0, 0, 0.00000000000000000000e+000) (0, 0, 0.00000000000000000000e+000) (0, 0, 0.00000000000000000000e+000) (0, 0, 0.00000000000000000000e+000) (0, 0, 0.00000000000000000000e+000) (0, 0, 0.00000000000000000000e+000) (0, 0, 0.00000000000000000000e+000) (0, 0, 0.00000000000000000000e+000) (0, 0, 0.00000000000000000000e+000) (0, 0, 0.00000000000000000000e+000) (0, 0, 0.00000000000000000000e+000) (0, 0, 0.00000000000000000000e+000) (0, 0, 0.00000000000000000000e+000) (0, 0, 0.00000000000000000000e+000) (0, 0, 0.00000000000000000000e+000) (0, 0, 0.00000000000000000000e+000) (0, 0, 0.00000000000000000000e+000) (0, 0, 0.00000000000000000000e+000) (0, 0, 0.00000000000000000000e+000) (0, 0, 0.00000000000000000000e+000) (0, 0, 0.00000000000000000000e+000) (0, 0, 0.00000000000000000000e+000) (0, 0, 0.00000000000000000000e+000) (0, 0, 0.00000000000000000000e+000) (0, 0, 0.00000000000000000000e+000) (0, 0, 0.00000000000000000000e+000) (0, 0, 0.00000000000000000000e+000) (0, 0, 0.00000000000000000000e+000) (0, 0, 0.00000000000000000000e+000) (0, 0, 0.00000000000000000000e+000) (0, 0, 0.00000000000000000000e+000) (0, 0, 0.00000000000000000000e+000) (0, 0, 0.00000000000000000000e+000) (0, 0, 0.00000000000000000000e+000) (0, 0, 0.00000000000000000000e+000) (0, 0, 0.00000000000000000000e+000) (0, 0, 0.00000000000000000000e+000) (0, 0, 0.00000000000000000000e+000) (0, 0, 0.00000000000000000000e+000) (0, 0, 0.00000000000000000000e+000) (0, 0, 0.00000000000000000000e+000) (0, 0, 0.00000000000000000000e+000) (0, 0, 0.00000000000000000000e+000) (0, 0, 0.00000000000000000000e+000) (0, 0, 0.00000000000000000000e+000) (0, 0, 0.00000000000000000000e+000) (0, 0, 0.00000000000000000000e+000) (0, 0, 0.00000000000000000000e+000) (0, 0, 0.00000000000000000000e+000) (0, 0, 0.00000000000000000000e+000) (0, 0, 0.00000000000000000000e+000) (0, 0, 0.00000000000000000000e+000) (0, 0, 0.00000000000000000000e+000) (0, 0, 0.00000000000000000000e+000) (0, 0, 0.00000000000000000000e+000) (0, 0, 0.00000000000000000000e+000) (0, 0, 0.00000000000000000000e+000) (0, 0, 0.00000000000000000000e+000) (0, 0, 0.00000000000000000000e+000) (0, 0, 0.00000000000000000000e+000) (0, 0, 0.00000000000000000000e+000) (0, 0, 0.00000000000000000000e+000) (0, 0, 0.00000000000000000000e+000) (0, 0, 0.00000000000000000000e+000) (0, 0, 0.00000000000000000000e+000) (0, 0, 0.00000000000000000000e+000) (0, 0, 0.00000000000000000000e+000) (0, 0, 0.00000000000000000000e+000) (0, 0, 0.00000000000000000000e+000) (0, 0, 0.00000000000000000000e+000) (0, 0, 0.00000000000000000000e+000) (0, 0, 0.00000000000000000000e+000) (0, 0, 0.00000000000000000000e+000) (0, 0, 0.00000000000000000000e+000) (0, 0, 0.00000000000000000000e+000) (0, 0, 0.00000000000000000000e+000) (0, 0, 0.00000000000000000000e+000) (0, 0, 0.00000000000000000000e+000) (0, 0, 0.00000000000000000000e+000) (0, 0, 0.00000000000000000000e+000) (0, 0, 0.00000000000000000000e+000) (0, 0, 0.00000000000000000000e+000) (0, 0, 0.00000000000000000000e+000) (0, 0, 0.00000000000000000000e+000) (0, 0, 0.00000000000000000000e+000) (0, 0, 0.00000000000000000000e+000) (0, 0, 0.00000000000000000000e+000) (0, 0, 0.00000000000000000000e+000) (0, 0, 0.00000000000000000000e+000) (0, 0, 0.00000000000000000000e+000) (0, 0, 0.00000000000000000000e+000) (0, 0, 0.00000000000000000000e+000) (0, 0, 0.00000000000000000000e+000) (0, 0, 0.00000000000000000000e+000) (0, 0, 0.00000000000000000000e+000) (0, 0, 0.00000000000000000000e+000) (0, 0, 0.00000000000000000000e+000) (0, 0, 0.00000000000000000000e+000) (0, 0, 0.00000000000000000000e+000) (0, 0, 0.00000000000000000000e+000) (0, 0, 0.00000000000000000000e+000) (0, 0, 0.00000000000000000000e+000) (0, 0, 0.00000000000000000000e+000) (0, 0, 0.00000000000000000000e+000) (0, 0, 0.00000000000000000000e+000) (0, 0, 0.00000000000000000000e+000) (0, 0, 0.00000000000000000000e+000) (0, 0, 0.00000000000000000000e+000) (0, 0, 0.00000000000000000000e+000) (0, 0, 0.00000000000000000000e+000) (0, 0, 0.00000000000000000000e+000) (0, 0, 0.00000000000000000000e+000) (0, 0, 0.00000000000000000000e+000) (0, 0, 0.00000000000000000000e+000) (0, 0, 0.00000000000000000000e+000) (0, 0, 0.00000000000000000000e+000) (0, 0, 0.00000000000000000000e+000) (0, 0, 0.00000000000000000000e+000) (0, 0, 0.00000000000000000000e+000) (0, 0, 0.00000000000000000000e+000) (0, 0, 0.00000000000000000000e+000) (0, 0, 0.00000000000000000000e+000) (0, 0, 0.00000000000000000000e+000) (0, 0, 0.00000000000000000000e+000) (0, 0, 0.00000000000000000000e+000) (0, 0, 0.00000000000000000000e+000) (0, 0, 0.00000000000000000000e+000) (0, 0, 0.00000000000000000000e+000) (0, 0, 0.00000000000000000000e+000) (0, 0, 0.00000000000000000000e+000) (0, 0, 0.00000000000000000000e+000) (0, 0, 0.00000000000000000000e+000) (0, 0, 0.00000000000000000000e+000) (0, 0, 0.00000000000000000000e+000) (0, 0, 0.00000000000000000000e+000) (0, 0, 0.00000000000000000000e+000) (0, 0, 0.00000000000000000000e+000) (0, 0, 0.00000000000000000000e+000) (0, 0, 0.00000000000000000000e+000) (0, 0, 0.00000000000000000000e+000) (0, 0, 0.00000000000000000000e+000) (0, 0, 0.00000000000000000000e+000) (0, 0, 0.00000000000000000000e+000) (0, 0, 0.00000000000000000000e+000) (0, 0, 0.00000000000000000000e+000) (0, 0, 0.00000000000000000000e+000) (0, 0, 0.00000000000000000000e+000) (0, 0, 0.00000000000000000000e+000) (0, 0, 0.00000000000000000000e+000) (0, 0, 0.00000000000000000000e+000) (0, 0, 0.00000000000000000000e+000) (0, 0, 0.00000000000000000000e+000) (0, 0, 0.00000000000000000000e+000) (0, 0, 0.00000000000000000000e+000) (0, 0, 0.00000000000000000000e+000) (0, 0, 0.00000000000000000000e+000) (0, 0, 0.00000000000000000000e+000) (0, 0, 0.00000000000000000000e+000) (0, 0, 0.00000000000000000000e+000) (0, 0, 0.00000000000000000000e+000) (0, 0, 0.00000000000000000000e+000) (0, 0, 0.00000000000000000000e+000) (0, 0, 0.00000000000000000000e+000) (0, 0, 0.00000000000000000000e+000) (0, 0, 0.00000000000000000000e+000) (0, 0, 0.00000000000000000000e+000) (0, 0, 0.00000000000000000000e+000) (0, 0, 0.00000000000000000000e+000) (0, 0, 0.00000000000000000000e+000) (0, 0, 0.00000000000000000000e+000) (0, 0, 0.00000000000000000000e+000) (0, 0, 0.00000000000000000000e+000) (0, 0, 0.00000000000000000000e+000) (0, 0, 0.00000000000000000000e+000) (0, 0, 0.00000000000000000000e+000) (0, 0, 0.00000000000000000000e+000) (0, 0, 0.00000000000000000000e+000) (0, 0, 0.00000000000000000000e+000) (0, 0, 0.00000000000000000000e+000) (0, 0, 0.00000000000000000000e+000) (0, 0, 0.00000000000000000000e+000) (0, 0, 0.00000000000000000000e+000) (0, 0, 0.00000000000000000000e+000) (0, 0, 0.00000000000000000000e+000) (0, 0, 0.00000000000000000000e+000) (0, 0, 0.00000000000000000000e+000) (0, 0, 0.00000000000000000000e+000) (0, 0, 0.00000000000000000000e+000) (0, 0, 0.00000000000000000000e+000) (0, 0, 0.00000000000000000000e+000) (0, 0, 0.00000000000000000000e+000) (0, 0, 0.00000000000000000000e+000) (0, 0, 0.00000000000000000000e+000) (0, 0, 0.00000000000000000000e+000) (0, 0, 0.00000000000000000000e+000) (0, 0, 0.00000000000000000000e+000) (0, 0, 0.00000000000000000000e+000) (0, 0, 0.00000000000000000000e+000) (0, 0, 0.00000000000000000000e+000) (0, 0, 0.00000000000000000000e+000) (0, 0, 0.00000000000000000000e+000) (0, 0, 0.00000000000000000000e+000) (0, 0, 0.00000000000000000000e+000) (0, 0, 0.00000000000000000000e+000) (0, 0, 0.00000000000000000000e+000) (0, 0, 0.00000000000000000000e+000) (0, 0, 0.00000000000000000000e+000) (0, 0, 0.00000000000000000000e+000) (0, 0, 0.00000000000000000000e+000) (0, 0, 0.00000000000000000000e+000) (0, 0, 0.00000000000000000000e+000) (0, 0, 0.00000000000000000000e+000) (0, 0, 0.00000000000000000000e+000) (0, 0, 0.00000000000000000000e+000) (0, 0, 0.00000000000000000000e+000) (0, 0, 0.00000000000000000000e+000) (0, 0, 0.00000000000000000000e+000) (0, 0, 0.00000000000000000000e+000) (0, 0, 0.00000000000000000000e+000) (0, 0, 0.00000000000000000000e+000) (0, 0, 0.00000000000000000000e+000) (0, 0, 0.00000000000000000000e+000) (0, 0, 0.00000000000000000000e+000) (0, 0, 0.00000000000000000000e+000) (0, 0, 0.00000000000000000000e+000) (0, 0, 0.00000000000000000000e+000) (0, 0, 0.00000000000000000000e+000) (0, 0, 0.00000000000000000000e+000) (0, 0, 0.00000000000000000000e+000) (0, 0, 0.00000000000000000000e+000) (0, 0, 0.00000000000000000000e+000) (0, 0, 0.00000000000000000000e+000) (0, 0, 0.00000000000000000000e+000) (0, 0, 0.00000000000000000000e+000) (0, 0, 0.00000000000000000000e+000) (0, 0, 0.00000000000000000000e+000) (0, 0, 0.00000000000000000000e+000) (0, 0, 0.00000000000000000000e+000) (0, 0, 0.00000000000000000000e+000) (0, 0, 0.00000000000000000000e+000) (0, 0, 0.00000000000000000000e+000) (0, 0, 0.00000000000000000000e+000) (0, 0, 0.00000000000000000000e+000) (0, 0, 0.00000000000000000000e+000) (0, 0, 0.00000000000000000000e+000) (0, 0, 0.00000000000000000000e+000) (0, 0, 0.00000000000000000000e+000) (0, 0, 0.00000000000000000000e+000) (0, 0, 0.00000000000000000000e+000) (0, 0, 0.00000000000000000000e+000) (0, 0, 0.00000000000000000000e+000) (0, 0, 0.00000000000000000000e+000) (0, 0, 0.00000000000000000000e+000) (0, 0, 0.00000000000000000000e+000) (0, 0, 0.00000000000000000000e+000) (0, 0, 0.00000000000000000000e+000) (0, 0, 0.00000000000000000000e+000) (0, 0, 0.00000000000000000000e+000) (0, 0, 0.00000000000000000000e+000) (0, 0, 0.00000000000000000000e+000) (0, 0, 0.00000000000000000000e+000) (0, 0, 0.00000000000000000000e+000) (0, 0, 0.00000000000000000000e+000) (0, 0, 0.00000000000000000000e+000) (0, 0, 0.00000000000000000000e+000) (0, 0, 0.00000000000000000000e+000) (0, 0, 0.00000000000000000000e+000) (0, 0, 0.00000000000000000000e+000) (0, 0, 0.00000000000000000000e+000) (0, 0, 0.00000000000000000000e+000) (0, 0, 0.00000000000000000000e+000) (0, 0, 0.00000000000000000000e+000) (0, 0, 0.00000000000000000000e+000) (0, 0, 0.00000000000000000000e+000) (0, 0, 0.00000000000000000000e+000) (0, 0, 0.00000000000000000000e+000) (0, 0, 0.00000000000000000000e+000) (0, 0, 0.00000000000000000000e+000) (0, 0, 0.00000000000000000000e+000) (0, 0, 0.00000000000000000000e+000) (0, 0, 0.00000000000000000000e+000) (0, 0, 0.00000000000000000000e+000) (0, 0, 0.00000000000000000000e+000) (0, 0, 0.00000000000000000000e+000) (0, 0, 0.00000000000000000000e+000) (0, 0, 0.00000000000000000000e+000) (0, 0, 0.00000000000000000000e+000) (0, 0, 0.00000000000000000000e+000) (0, 0, 0.00000000000000000000e+000) (0, 0, 0.00000000000000000000e+000) (0, 0, 0.00000000000000000000e+000) (0, 0, 0.00000000000000000000e+000) (0, 0, 0.00000000000000000000e+000) (0, 0, 0.00000000000000000000e+000) (0, 0, 0.00000000000000000000e+000) (0, 0, 0.00000000000000000000e+000) (0, 0, 0.00000000000000000000e+000) (0, 0, 0.00000000000000000000e+000) (0, 0, 0.00000000000000000000e+000) (0, 0, 0.00000000000000000000e+000) (0, 0, 0.00000000000000000000e+000) (0, 0, 0.00000000000000000000e+000) (0, 0, 0.00000000000000000000e+000) (785, 3, 5.00000000000000000000e-001) (785, 3, 5.00000000000000000000e-001) (785, 3, 5.00000000000000000000e-001) (785, 3, 5.00000000000000000000e-001) (785, 3, 5.00000000000000000000e-001) (785, 3, 5.00000000000000000000e-001) (785, 3, 5.00000000000000000000e-001) (785, 3, 5.00000000000000000000e-001) (785, 3, 5.00000000000000000000e-001) (785, 3, 5.00000000000000000000e-001) (785, 3, 5.00000000000000000000e-001) (785, 3, 5.00000000000000000000e-001) (785, 3, 5.00000000000000000000e-001) (785, 3, 5.00000000000000000000e-001) (785, 3, 5.00000000000000000000e-001) (785, 3, 5.00000000000000000000e-001) (785, 3, 5.00000000000000000000e-001) (785, 3, 5.00000000000000000000e-001) (785, 3, 5.00000000000000000000e-001) (785, 3, 5.00000000000000000000e-001) (785, 3, 5.00000000000000000000e-001) (785, 3, 5.00000000000000000000e-001) (785, 3, 5.00000000000000000000e-001) (785, 3, 5.00000000000000000000e-001) (785, 3, 5.00000000000000000000e-001) (785, 3, 5.00000000000000000000e-001) (785, 3, 5.00000000000000000000e-001) (785, 3, 5.00000000000000000000e-001) (785, 3, 5.00000000000000000000e-001) (785, 3, 5.00000000000000000000e-001) (0, 3, 0.00000000000000000000e+000) (31, 3, 5.00000000000000000000e-001) (31, 3, 5.00000000000000000000e-001) (31, 3, 5.00000000000000000000e-001) (31, 3, 5.00000000000000000000e-001) (31, 3, 5.00000000000000000000e-001) (31, 3, 5.00000000000000000000e-001) (31, 3, 5.00000000000000000000e-001) (31, 3, 5.00000000000000000000e-001) (31, 3, 5.00000000000000000000e-001) (31, 3, 5.00000000000000000000e-001) (0, 3, 0.00000000000000000000e+000) 
connections (connected_to_neuron, weight)=(0, 3.10424809313190050000e-002) (1, 5.65124520139761440000e-002) (2, -6.77551279627550680000e-002) (3, -9.44396986728861520000e-002) (4, -8.67370618393579210000e-002) (5, 1.96289065424934960000e-002) (6, 7.49084483818478470000e-002) (7, -2.45361331781168700000e-003) (8, 2.93579105937169520000e-002) (9, 3.93310552735783860000e-002) (10, 7.94494640745142530000e-002) (11, 9.02648939231767140000e-002) (12, -5.96313485448263240000e-002) (13, 1.42211916181622660000e-002) (14, 4.81567389988413200000e-003) (15, 4.25537115715997060000e-002) (16, 6.28173837485519470000e-002) (17, 1.55456545285233010000e-002) (18, -2.51037601397001710000e-002) (19, -3.00720219324830400000e-002) (20, 8.85620130384268120000e-002) (21, -4.73937995343476360000e-002) (22, 7.19604502910442530000e-003) (23, 8.36425793713715390000e-002) (24, 9.25231947380780180000e-002) (25, -2.54577640512252400000e-002) (26, 3.24768071245671310000e-002) (27, -4.32617193946498450000e-002) (28, -4.04235845867333410000e-002) (29, -8.52661145518140980000e-002) (30, -1.33117677764857940000e-002) (31, -2.67028812572789320000e-002) (32, 6.18164071711362340000e-002) (33, -1.60644533643790060000e-002) (34, -4.36279303376068130000e-002) (35, 1.71081545518063650000e-002) (36, 1.74743654947633330000e-002) (37, 1.85852053550661370000e-002) (38, 5.88989266589123870000e-002) (39, -4.38964850291085900000e-002) (40, 6.27014169499489070000e-002) (41, 9.03808607217797540000e-002) (42, 3.86596685448239440000e-002) (43, -2.13073733643796000000e-002) (44, 6.75476084284127860000e-002) (45, -1.65649416530868620000e-002) (46, 6.05590829336506430000e-002) (47, -6.16943368568172450000e-002) (48, -7.27539073341176850000e-002) (49, -5.46752937834753540000e-002) (50, 8.19946301280651820000e-002) (51, -3.75610357159530390000e-002) (52, -3.97705084051267480000e-002) (53, 1.81274416763699260000e-002) (54, 8.46496594645032020000e-002) (55, 8.23181164610105040000e-002) (56, 4.39819342491318820000e-002) (57, -4.41650397206103660000e-002) (58, -5.27526863329512710000e-002) (59, -6.03881844936040580000e-002) (60, -7.99865734575178070000e-002) (61, 3.43566899650795680000e-002) (62, 4.06127935739277750000e-002) (63, -7.37304698486696000000e-002) (64, -6.83593760186340660000e-004) (65, -3.96789556693875060000e-002) (66, -7.38037120372609930000e-002) (67, 1.38366701280574490000e-002) (68, 9.93408217927935770000e-002) (69, -1.50329592083835450000e-002) (70, 3.94531255878973750000e-002) (71, 2.85095219091999750000e-002) (72, 4.39514166705521350000e-002) (73, 2.93640141094329010000e-002) (74, -6.08642587194481170000e-002) (75, 2.80944828405154110000e-002) (76, -4.24987799301561610000e-002) (77, -7.27844249126974320000e-002) (78, 3.93066412107145880000e-003) (79, -6.28173837485519470000e-002) (80, -1.57348635157177340000e-002) (81, -8.52661145518140980000e-003) (82, -4.24316412572807170000e-002) (83, 9.67956557392426480000e-002) (84, 6.45629892433134960000e-002) (85, 1.10595704773004400000e-002) (86, -9.62951674505347910000e-002) (87, 8.47167981373786460000e-002) (88, 9.87304702211986300000e-002) (89, 8.38806164842935690000e-002) (90, 5.18432624912748000000e-002) (91, 6.27868661699722000000e-002) (92, -6.97326670547226970000e-002) (93, -7.56225597206139350000e-003) (94, 1.54907228870797550000e-002) (95, 7.38525401629885890000e-003) (96, 7.93334972759112130000e-002) (97, -7.17041026309743760000e-002) (98, 6.38305673573995590000e-002) (99, 7.93884289173547590000e-002) (100, 5.79345711757923710000e-002) (101, 7.15576182537915880000e-002) (102, 8.20312512223608790000e-003) (103, 8.98132337601964540000e-002) (104, -2.04467776484307250000e-003) (105, 3.17321782072212950000e-002) (106, -9.54467787660178150000e-002) (107, -8.25744641210803820000e-002) (108, 2.33642581606545720000e-002) (109, 5.61584481024510750000e-002) (110, 5.31494148544879860000e-002) (111, 3.45397954365580520000e-002) (112, 9.77905288009424110000e-002) (113, 1.22436525261946370000e-002) (114, 7.68554698952357280000e-002) (115, -2.73437504074536260000e-003) (116, -2.12524417229360550000e-002) (117, 4.98107917578636260000e-002) (118, -4.08630377182817030000e-002) (119, 5.65063484982601950000e-002) (120, 9.75952162980320280000e-003) (121, -5.02624519208438870000e-002) (122, 2.30651858905730480000e-002) (123, -5.41687019790515480000e-002) (124, -1.84143069150195520000e-002) (125, 6.51977548777722400000e-002) (126, -6.73400888940705040000e-002) (127, 2.63061527357422160000e-003) (128, -6.09130868451757120000e-003) (129, 6.17370614668288910000e-002) (130, 9.76501479394755730000e-002) (131, 7.86560070314408220000e-002) (132, -5.14221199068742860000e-002) (133, -3.76159673573965850000e-002) (134, -3.69323735972102440000e-002) (135, -3.68041997671753050000e-003) (136, 5.81054696158389560000e-003) (137, -9.58374037718385810000e-002) (138, -3.51562505238689480000e-002) (139, 6.89697275902290130000e-003) (140, 3.45214848894102030000e-002) (141, -8.78967298253883200000e-002) (142, 3.26721196274775140000e-002) (143, 6.98852549476214340000e-003) (144, -1.20117189289885570000e-002) (145, 9.71374526193358180000e-002) (146, 2.13562014901071960000e-002) (147, -3.06274418626344410000e-002) (148, 3.62426763213079540000e-002) (149, -1.59606935972078650000e-002) (150, -4.80346686845223300000e-002) (151, -5.53894051222414420000e-002) (152, -1.37084962980225100000e-002) (153, -2.42736820023310430000e-002) (154, 4.39758307334159330000e-002) (155, 8.95874036787063230000e-002) (156, 2.14904788358580840000e-002) (157, 6.01074227706703820000e-002) (158, 1.97204592782327380000e-002) (159, 7.92480480558879210000e-002) (160, 9.13330091734678720000e-002) (161, -3.42346196507605780000e-002) (162, 6.22680673341164950000e-002) (163, -4.22119146915065360000e-002) (164, -1.71569826775339610000e-002) (165, 7.27355967869698360000e-002) (166, -9.18151869150278800000e-002) (167, -1.44287111525045470000e-002) (168, 4.88281257275957610000e-003) (169, 8.46008313387756060000e-002) (170, 5.61950691967467720000e-002) (171, -6.20422372526263640000e-002) (172, -8.33923352270176110000e-002) (173, -3.18481450058243350000e-002) (174, -2.67822269615862750000e-002) (175, 1.23901369033774240000e-002) (176, 3.12744145285250850000e-002) (177, -3.30993657275939770000e-002) (178, 7.88146984400555080000e-002) (179, -1.22070314318989400000e-004) (180, -7.32666026542574400000e-002) (181, -5.34667976717173590000e-003) (182, -1.05346681257287860000e-002) (183, 7.72094738067607980000e-002) (184, 9.37988295227114580000e-002) (185, 1.54113771827724120000e-002) (186, 3.88183599534386300000e-003) (187, 7.61352550407536910000e-002) (188, -4.62646491268969840000e-002) (189, -8.41125500814996490000e-002) (190, -8.95080579743989800000e-002) (191, -1.42822267753217600000e-002) (192, -2.38525394179305290000e-002) (193, 7.67639171594964860000e-002) (194, 9.85595717811520440000e-002) (195, -5.58288582537898040000e-002) (196, -7.14477549709044980000e-002) (197, -5.08544929452909860000e-002) (198, 5.39550789289933160000e-002) (199, 7.63671886379597710000e-002) (200, -1.12304689173470250000e-002) (201, 4.22363287543703340000e-002) (202, 2.10388186728778240000e-002) (203, 3.33190922933681580000e-002) (204, -4.84924323632185410000e-002) (205, 2.86499027706668130000e-002) (206, -8.82507337369133890000e-002) (207, -1.01379396041920700000e-002) (208, 6.03149423050126640000e-002) (209, -2.64587406286409530000e-002) (210, 4.32189947846381980000e-002) (211, -4.32006842374903500000e-002) (212, 9.61792006519317510000e-002) (213, -6.19506845168871220000e-003) (214, -1.48254396740412630000e-002) (215, -3.62792974156036510000e-002) (216, 5.40222176018687610000e-002) (217, -4.63928229569319230000e-002) (218, 9.83337416996619140000e-002) (219, -3.12072758556496410000e-002) (220, 3.83239751804467230000e-002) (221, -9.74975600465768370000e-002) (222, 4.50805670780027870000e-002) (223, 5.17822273341153050000e-002) (224, -9.08569349476238130000e-002) (225, 6.23596200698557370000e-002) (226, 5.36376961117639440000e-002) (227, -5.35461433760247020000e-002) (228, -9.02221693131650680000e-002) (229, 6.93969736903454760000e-002) (230, 1.70349123632149710000e-002) (231, 6.87622080558867310000e-002) (232, 7.32421885913936420000e-003) (233, 7.75085460768423220000e-002) (234, 8.05053722933735120000e-003) (235, 9.69238295692775860000e-002) (236, -2.26440433061725340000e-002) (237, 2.91931156693863160000e-002) (238, 9.14733900349347100000e-002) (239, 5.97595223748612630000e-002) (240, -3.59741216298061770000e-002) (241, -9.96887221886026960000e-002) (242, 1.48132326426093640000e-002) (243, -1.05895997671723310000e-002) (244, -5.32287605587953290000e-002) (245, 2.49084476367897880000e-002) (246, 5.88500985331847910000e-002) (247, 9.48181166472750190000e-002) (248, 4.49340827008199990000e-002) (249, -9.36218275669489230000e-002) (250, 2.91381840279427710000e-002) (251, -8.78479016996607240000e-002) (252, 9.15283216763782550000e-002) (253, 2.11791995343446620000e-002) (254, 6.98120127590300400000e-002) (255, -1.15844728288720940000e-002) (256, 7.36083995343506100000e-003) (257, 2.14294436786985900000e-002) (258, 8.08776867520464290000e-002) (259, -4.54833991152554520000e-002) (260, 6.84204111757935610000e-003) (261, 4.25231939930199590000e-002) (262, 2.03186038183957860000e-002) (263, -5.59570320838247430000e-002) (264, -3.33496098719479050000e-002) (265, -7.78930675669471380000e-002) (266, 7.21679698253865350000e-002) (267, 1.39892580209561860000e-002) (268, -1.14624025145531050000e-002) (269, 3.66271978114127710000e-002) (270, -3.81408697089682390000e-002) (271, -7.63000499650843270000e-002) (272, 8.75732434924429980000e-002) (273, -3.82873540861510260000e-002) (274, 9.76562514551915230000e-005) (275, -7.17834483352817190000e-002) (276, 3.69567876600740420000e-002) (277, 6.26220712456415640000e-002) (278, -6.34643564144425910000e-002) (279, -5.75744637485513520000e-002) (280, -9.92370620256224360000e-002) (281, 2.10327151571618740000e-002) (282, 4.35791022118792170000e-003) (283, -6.79626474970973500000e-002) (284, 8.58520520605452480000e-002) (285, 4.38842779976766910000e-003) (286, 3.72741704773034140000e-002) (287, 8.78723157625245220000e-002) (288, 4.40979010477349220000e-002) (289, 8.41003430500677500000e-002) (290, 3.98986822351616870000e-002) (291, 3.95202642607728190000e-002) (292, 5.63232430267817110000e-002) (293, 8.80126966239913600000e-003) (294, 9.29687513853423300000e-002) (295, 6.47705087776557780000e-002) (296, 2.91015629336470740000e-002) (297, -6.10351571594947020000e-002) (298, -2.54272464726454930000e-002) (299, -4.90295417462220940000e-002) (300, -6.43066415832436180000e-002) (301, 4.90417487776539930000e-002) (302, -2.13867190686869440000e-002) (303, 6.45324716647337480000e-002) (304, 3.23791508731119390000e-002) (305, 3.49121098952309690000e-003) (306, -8.81835950640379450000e-002) (307, 8.50036633760282710000e-002) (308, 8.14331066821978310000e-002) (309, 1.28540040977895840000e-002) (310, -4.95056159720661530000e-002) (311, -4.02771002095505540000e-002) (312, -8.80126966239913600000e-002) (313, 7.61413585564696400000e-002) (314, -6.17004403725331940000e-002) (315, -6.44653329918583040000e-002) (316, -4.99450691036145140000e-002) (317, -8.41491711757953450000e-002) (318, 6.31103525029175220000e-003) (319, 2.36206058207244500000e-002) (320, 4.88830573690393070000e-002) (321, 1.17431642374867810000e-002) (322, 9.65637221420365680000e-002) (323, -4.61608893597258430000e-002) (324, 5.10314949010535200000e-002) (325, 3.97766119208426970000e-002) (326, 7.03674326891814420000e-002) (327, -2.52563480325989080000e-002) (328, 1.32812501979060470000e-002) (329, -7.77221691269005530000e-002) (330, -1.73095705704326970000e-002) (331, -4.44335944121121430000e-002) (332, -7.43042003259688500000e-002) (333, -4.21142584400513440000e-003) (334, 3.70483403958132840000e-003) (335, -5.36193855646160960000e-002) (336, 5.60974129452915800000e-002) (337, -9.73388686379621500000e-002) (338, -3.10363774156030560000e-002) (339, 5.27709968800991190000e-002) (340, -4.88586433061755090000e-002) (341, -8.72375501280657770000e-002) (342, 3.92517095692710430000e-002) (343, -1.88720705937157620000e-002) (344, 2.53417972526222000000e-002) (345, 8.15246594179370730000e-002) (346, 5.15136726426135280000e-002) (347, -8.90319837485549210000e-002) (348, -3.08532719441245720000e-002) (349, -4.94628913620545060000e-002) (350, 4.20104986728802030000e-002) (351, 5.04089362980266740000e-002) (352, -9.24865736437823220000e-002) (353, -3.00292973224713930000e-003) (354, -7.70080577881344650000e-002) (355, -6.88720713387738210000e-002) (356, -5.99487313620556960000e-002) (357, -6.17797860768405370000e-002) (358, -5.81665047729984510000e-003) (359, -9.94873061699763640000e-004) (360, -5.95703133876668290000e-003) (361, 9.74853530151449380000e-002) (362, 7.02026377648508060000e-002) (363, -4.32678229103657940000e-002) (364, 2.16918948544844170000e-002) (365, -6.25366220256182710000e-002) (366, -9.46594252386603330000e-002) (367, 1.46057131082670820000e-002) (368, 7.26501475669465440000e-002) (369, -3.25378422817266260000e-002) (370, 9.67712416763788500000e-002) (371, -9.42016615599641230000e-002) (372, 7.32910167171212380000e-002) (373, -6.92504893131626890000e-002) (374, -5.24108894528581000000e-002) (375, 2.23205569732272120000e-002) (376, 4.37927252619374490000e-002) (377, 7.82287609313243590000e-002) (378, 7.08129893364457530000e-002) (379, -7.20825206053632430000e-002) (380, -1.56127932013987450000e-002) (381, 3.46618657508770410000e-002) (382, 1.57043459371379870000e-002) (383, 4.21752935972108390000e-003) (384, -3.79638677532057050000e-002) (385, 6.37268075902284180000e-002) (386, 9.75585952037363310000e-002) (387, 8.62731946449457610000e-002) (388, 2.86926273806784590000e-002) (389, 3.81713872875479860000e-002) (390, -8.77014173224779370000e-002) (391, 4.38537604190969430000e-002) (392, -9.75097670780087360000e-002) (393, -7.87231457043162660000e-002) (394, -8.29528820954692490000e-002) (395, -3.53271489639155330000e-002) (396, 4.30541998603075630000e-002) (397, 6.59118662165383280000e-002) (398, -4.20104986728802030000e-002) (399, 9.58068861932588330000e-002) (400, 5.22094734342317680000e-002) (401, -6.25976571827777660000e-002) (402, -7.32482921071095920000e-002) (403, -4.02832037252665030000e-004) (404, 3.13293461699686300000e-002) (405, -3.35144047962785410000e-002) (406, 2.65319828172323470000e-002) (407, 8.02124035390079370000e-002) (408, 2.65747074272439930000e-002) (409, -6.14135751338835690000e-002) (410, 2.92480473108298610000e-002) (411, -6.27868661699722000000e-002) (412, -6.71386728754441720000e-003) (413, 2.57019046798632190000e-002) (414, 4.98657233993071710000e-003) (415, -9.77172866123510180000e-002) (416, 1.07299806286391690000e-002) (417, 6.70654306868527780000e-002) (418, -9.51171889173565430000e-002) (419, 1.54174806984883620000e-002) (420, -2.14599612572783370000e-002) (421, 4.90722663562337400000e-003) (422, 7.88818371129309530000e-002) (423, -3.16162114086182560000e-003) (424, -7.40173350873192250000e-002) (425, 8.15917980908125170000e-002) (426, -9.05944837718379860000e-002) (427, 7.08496104307414500000e-002) (428, -3.45703130151377990000e-002) (429, -9.57702650989631370000e-002) (430, 4.23645025844052730000e-002) (431, -2.14233401629826400000e-003) (432, 2.11791995343446620000e-002) (433, -1.67663576717131950000e-002) (434, -3.36303715948815810000e-003) (435, -2.90588383236354280000e-002) (436, -3.50585942724137570000e-002) (437, 5.08666999767228840000e-002) (438, 3.33496098719479050000e-002) (439, -6.70104990454092330000e-002) (440, 8.91662610943058100000e-002) (441, -3.38439946449398120000e-002) (442, 6.61315927823125090000e-002) (443, -2.90588383236354280000e-002) (444, -5.03967292665947750000e-002) (445, -8.76220716181705940000e-002) (446, 9.36889662398243670000e-002) (447, -5.69030770197969100000e-002) (448, -9.18518080093235770000e-002) (449, 9.33837904540268940000e-002) (450, -6.41723642374927290000e-002) (451, -4.04663091967449870000e-003) (452, 7.40356456344670730000e-003) (453, 3.49731450523904640000e-002) (454, -4.56787116181658350000e-002) (455, -7.32360850756776930000e-002) (456, -9.18884291036192740000e-002) (457, 9.76135268451798770000e-002) (458, -6.02966317578648160000e-002) (459, 4.79553229802149870000e-002) (460, -7.93090832130474150000e-002) (461, -9.32434095925600560000e-002) (462, 4.54223639580959570000e-002) (463, -9.01306165774258260000e-002) (464, 6.22375497555367470000e-002) (465, -9.30480970896496730000e-002) (466, -4.95788581606575460000e-002) (467, -6.21643075669453540000e-002) (468, -2.99194340395843030000e-002) (469, -5.39428718975614170000e-002) (470, -6.84326182072254600000e-002) (471, -5.99243172991918980000e-002) (472, 3.30200200232866340000e-003) (473, 9.57458510360993390000e-002) (474, 2.70202640745083040000e-002) (475, -5.75744637485513520000e-002) (476, -3.66516118742765680000e-002) (477, 1.46606447497106270000e-002) (478, -2.80944828405154110000e-002) (479, -9.36096205355170240000e-002) (480, -3.49243169266628680000e-002) (481, 6.03210458207286140000e-002) (482, 8.75183118509994530000e-002) (483, -1.34704591851004810000e-002) (484, 8.93676771129321420000e-002) (485, 5.61401375553032270000e-002) (486, 5.26733406286439280000e-003) (487, 8.36730969499512870000e-002) (488, -5.12634284982596000000e-002) (489, -8.02124035390079370000e-002) (490, 6.62841806752112460000e-003) (491, -5.00366218393537570000e-002) (492, -3.01513676367903830000e-003) (493, 5.91003426775387200000e-002) (494, 6.03759774621721590000e-002) (495, 2.19116214202585980000e-003) (496, -8.57055676833624600000e-002) (497, -5.81787118044303500000e-002) (498, -6.16394052153736990000e-002) (499, 9.95605483585677580000e-002) (500, 9.89440932712568610000e-002) (501, -5.45410164377244660000e-002) (502, 9.09729017462268530000e-002) (503, 4.21325689871991930000e-002) (504, -3.05175785797473510000e-003) (505, 9.34265150640385400000e-002) (506, 6.37146005587965190000e-002) (507, 4.62524420954650850000e-002) (508, -9.92187514784745870000e-002) (509, -1.62292482887096410000e-002) (510, -6.40319833760258920000e-002) (511, -4.68505866356281330000e-002) (512, -5.14526374854540340000e-002) (513, -8.32580578812667230000e-002) (514, -3.66760259371403660000e-002) (515, 2.70385746216561530000e-002) (516, -4.52514655180493720000e-002) (517, -7.25524913154913520000e-002) (518, -9.53735365774264210000e-002) (519, 9.88647475669495180000e-002) (520, 3.96728521536715560000e-003) (521, -7.01965342491348570000e-002) (522, 1.51062013969749390000e-002) (523, -8.79394544353999660000e-002) (524, 3.86901861234036910000e-002) (525, 7.80944835855734710000e-002) (526, -1.33056642607698450000e-002) (527, 2.64465335972090540000e-002) (528, -2.74902347846364140000e-002) (529, -4.76684577415653620000e-002) (530, 1.69311525960438300000e-002) (531, -6.33667001629873990000e-002) (532, -4.00207525494806760000e-002) (533, 7.37426768801014990000e-002) (534, 8.75793470081589480000e-002) (535, -3.89038091734619230000e-002) (536, -4.56542975553020370000e-002) (537, -4.34875494761399750000e-002) (538, 3.42712407450562750000e-002) (539, -4.17602545285262750000e-002) (540, -1.55822756228189970000e-002) (541, 2.17285159487801140000e-003) (542, 8.84704603026875700000e-002) (543, 2.56103519441239770000e-002) (544, 8.18664562980302430000e-002) (545, 4.27795416530898360000e-002) (546, 7.28576671012888260000e-002) (547, 3.86108404190963480000e-002) (548, 9.01184095459939270000e-002) (549, 3.91784673806796490000e-002) (550, -6.84509287543733080000e-002) (551, -1.51062013969749390000e-002) (552, 8.61450208149108220000e-002) (553, -5.93994149476202440000e-002) (554, -2.36755374621679950000e-002) (555, -4.92858894062919720000e-002) (556, 4.64416510826595190000e-002) (557, 1.18408204889419720000e-002) (558, -6.99096690104852310000e-002) (559, -8.45092786030363640000e-002) (560, 8.83117688940728840000e-002) (561, 3.42407231664765280000e-002) (562, -5.11047370896449140000e-002) (563, 1.08154298486624610000e-002) (564, -8.21105969266682220000e-002) (565, 8.68042005122333650000e-002) (566, -9.63378920605464370000e-002) (567, 1.40380861466837810000e-004) (568, 1.59606935972078650000e-002) (569, -8.64318860535604470000e-002) (570, -9.69970717578689800000e-002) (571, 3.54797368568142700000e-002) (572, -6.99462901047809280000e-003) (573, -1.64001467287562260000e-002) (574, -6.17492684982607900000e-002) (575, 4.72656257043126970000e-002) (576, 4.45678717578630310000e-002) (577, 4.98107917578636260000e-002) (578, 3.19885258672911730000e-002) (579, 2.36511233993041970000e-002) (580, -6.17004403725331940000e-002) (581, -8.71337903608946360000e-002) (582, -2.85705570663594700000e-002) (583, -6.44470224447104560000e-002) (584, 6.38854989988431040000e-002) (585, -3.63159185098993480000e-003) (586, 7.70874034924418080000e-003) (587, -3.63769536670588420000e-002) (588, -2.28759769033786140000e-002) (589, 3.96789556693875060000e-002) (590, 2.52685550640308070000e-003) (591, -1.65588381373709130000e-002) (592, -3.06396488940663400000e-002) (593, -8.54492200232925820000e-002) (594, 3.22875981373726970000e-003) (595, -3.48754888009352730000e-002) (596, 9.36096205355170240000e-002) (597, 7.18139659138614660000e-002) (598, -7.22473155296938780000e-002) (599, 4.36767584633344090000e-002) (600, -2.14660647729942870000e-002) (601, 2.44079593480819310000e-002) (602, -5.95336922933711320000e-002) (603, -8.36975110128150850000e-002) (604, 6.15661630267823060000e-002) (605, -2.69897464959285570000e-002) (606, 3.90625005820766090000e-004) (607, -7.71545421653172530000e-002) (608, -2.75573734575118580000e-002) (609, -1.95373538067542540000e-002) (610, -3.71582036787003740000e-002) (611, 6.57958994179352890000e-002) (612, 9.83642592782416610000e-002) (613, 1.29394533178128770000e-003) (614, -8.40759289872039520000e-002) (615, -7.41088878230584670000e-002) (616, 6.20361337369104150000e-002) (617, -2.74597172060566660000e-002) (618, -6.70532236554208790000e-002) (619, -7.02514658905784020000e-002) (620, -5.61279305238713280000e-002) (621, 7.22167979511141310000e-002) (622, -7.77954113154919470000e-002) (623, -7.43469249359804960000e-002) (624, -2.04284671012828770000e-002) (625, -4.84863288475025910000e-002) (626, -4.48059088707850610000e-002) (627, -7.61718761350493880000e-002) (628, -3.56506352968608550000e-002) (629, 4.71618659371415560000e-002) (630, -4.53796393480843110000e-002) (631, -4.26086432130432510000e-002) (632, 9.50378432130492000000e-002) (633, -1.99096682654271720000e-002) (634, -7.65380870780063560000e-002) (635, -7.97241222817319790000e-002) (636, 8.13476574621745390000e-002) (637, -5.33691414202621670000e-002) (638, -3.77197271245677260000e-003) (639, -6.16577157625215480000e-002) (640, 5.75317391385397060000e-002) (641, -9.13879408149114170000e-002) (642, 9.37866224912795590000e-002) (643, -7.00561533876680190000e-002) (644, -7.43652354831283450000e-002) (645, 8.84887708498354190000e-002) (646, 6.29272470314390380000e-002) (647, -8.77868665425012300000e-002) (648, 6.16943368568172450000e-002) (649, -2.41821292665918010000e-002) (650, 8.19702160652013840000e-002) (651, -9.07104505704410260000e-002) (652, 1.60705568800949550000e-002) (653, -4.87121589289927210000e-002) (654, 1.36047365308513690000e-002) (655, 1.87377932479648730000e-002) (656, -6.08886727823119140000e-002) (657, -6.53747568335347750000e-002) (658, 8.62731946449457610000e-002) (659, 9.24499525494866250000e-002) (660, -3.64562993713661850000e-002) (661, -3.74755864959297470000e-002) (662, -1.47033693597222740000e-002) (663, -1.17919923632143760000e-002) (664, 7.46948253317896160000e-002) (665, -9.70642104307444240000e-002) (666, -6.49475107334183120000e-002) (667, 4.82421882188646120000e-002) (668, 9.98718276600811810000e-002) (669, 1.19323732246812140000e-002) (670, 5.33630379045462180000e-002) (671, -3.90136724563490130000e-002) (672, -5.18737800698545470000e-002) (673, -6.06201180908101380000e-002) (674, -4.05639654482001790000e-002) (675, 6.22253427241048480000e-002) (676, -6.83166514086224200000e-002) (677, 8.97399915716050600000e-002) (678, -8.34045422584495100000e-002) (679, 3.20617680558825670000e-002) (680, -9.97741714086259890000e-002) (681, -5.58715828638014500000e-002) (682, 9.09545911990790050000e-002) (683, 4.37011725261982060000e-002) (684, 1.93542483352757700000e-002) (685, 4.99938972293421100000e-002) (686, 7.42797862631050520000e-003) (687, -7.94433605587983040000e-002) (688, -7.56042491734660870000e-002) (689, 8.46496594645032020000e-002) (690, -1.57897951571612790000e-002) (691, -4.22485357858022330000e-002) (692, 8.09021008149102270000e-002) (693, 9.88037124097900230000e-002) (694, 2.70568851688040010000e-002) (695, -3.57116704540203500000e-002) (696, 8.29956067054808950000e-002) (697, -5.34912117345811570000e-002) (698, -3.54553227939504720000e-002) (699, -1.77185061234013120000e-002) (700, -7.91137707101370320000e-002) (701, 7.62939464493683770000e-003) (702, -9.43847670314426070000e-002) (703, 3.92639166007029420000e-002) (704, -5.12329109196798530000e-002) (705, 9.15527357392420530000e-003) (706, 6.65283213038492250000e-004) (707, -9.94873061699763640000e-003) (708, -1.56677248428422900000e-002) (709, 5.15808113154889720000e-002) (710, -1.26770021420270500000e-002) (711, 4.23583990686893230000e-003) (712, 7.12280284051303170000e-002) (713, 4.66674811641496490000e-002) (714, -9.76623549709074720000e-002) (715, -4.43115240977931530000e-002) (716, -6.43920908032669100000e-002) (717, 7.26806651455262910000e-002) (718, 4.06372076367915720000e-002) (719, 7.02270518277146040000e-002) (720, 6.80908213271322890000e-002) (721, 5.35766609546044490000e-002) (722, -5.69946297555361530000e-002) (723, 8.77502454482055330000e-002) (724, 6.23657235855716860000e-002) (725, 6.81518564842917840000e-002) (726, 9.34204115483225910000e-002) (727, 9.50683607916289470000e-002) (728, -5.83374032130450360000e-002) (729, 9.56237807217803490000e-002) (730, -9.25109877066461190000e-002) (731, 8.57116711990784100000e-002) (732, -9.55871596274846520000e-002) (733, -9.62951674505347910000e-002) (734, 9.30908216996613190000e-002) (735, 2.91137699650789730000e-003) (736, 2.02453616298043930000e-002) (737, 8.55529797904637230000e-002) (738, -3.54125981839388260000e-002) (739, -7.79541027241066330000e-002) (740, -9.23461927823154840000e-002) (741, -4.82055671245689150000e-002) (742, -8.23364270081583530000e-003) (743, -7.12158213736984180000e-002) (744, -7.54455577648514010000e-002) (745, 8.38684094528616700000e-002) (746, -3.52050786495965440000e-002) (747, -5.07873542724155410000e-002) (748, -9.70336928521646770000e-002) (749, 5.49438484749771310000e-002) (750, 5.64575203725325990000e-002) (751, 8.81042493597306020000e-002) (752, -4.08874517811455010000e-002) (753, -7.53356944819643100000e-002) (754, -3.70971685215408800000e-002) (755, -6.82861338300426720000e-002) (756, 1.01257325727601710000e-002) (757, 1.39892580209561860000e-002) (758, 4.16870123399348810000e-003) (759, -2.87841801164177010000e-002) (760, -7.13256846565855080000e-002) (761, -3.36547856577453790000e-002) (762, -3.43078618393519720000e-002) (763, 3.12500004656612870000e-003) (764, -3.32946782305043600000e-002) (765, 1.36718752037268130000e-003) (766, -3.78845220488983610000e-002) (767, 6.29211435157230880000e-002) (768, -2.03979495227031290000e-002) (769, -3.25500493131585240000e-002) (770, -9.54223647031540170000e-002) (771, -5.18859871012864460000e-002) (772, 8.19702160652013840000e-002) (773, 9.94140639813849700000e-002) (774, 5.28259285215426640000e-002) (775, 8.70117200465756470000e-002) (776, 6.63085947380750440000e-002) (777, 8.74328626309761600000e-002) (778, 3.32641606519246120000e-002) (779, 9.47265639115357770000e-003) (780, 1.58203127357410270000e-002) (781, -3.63708501513428930000e-002) (782, 4.33349615832412380000e-003) (783, -2.41943362980237000000e-002) (784, 4.26330572759070490000e-002) (0, 1.24145509662412220000e-002) (1, -4.96093757392372940000e-002) (2, 2.01660159254970490000e-002) (3, -1.73583986961602930000e-002) (4, 1.09619142258452480000e-002) (5, -1.46789552968584760000e-002) (6, -3.53393559953474320000e-002) (7, -2.17407229802120130000e-002) (8, 5.98144540163048080000e-003) (9, 4.72167975785851010000e-002) (10, 6.03454598835924120000e-002) (11, -1.97265627939486880000e-002) (12, -6.69067392782380920000e-002) (13, 6.52771005820795840000e-002) (14, 1.15234376717126000000e-002) (15, -9.98657241443652310000e-002) (16, 8.49853528288804230000e-002) (17, -1.97448733410965360000e-002) (18, 3.93920904307378810000e-002) (19, 4.38598639348128930000e-002) (20, -6.52832040977955330000e-002) (21, 9.96459975785910500000e-002) (22, -5.85388192316713680000e-002) (23, -4.11560064726472770000e-002) (24, -7.97119152503000810000e-002) (25, -3.10791020256147020000e-002) (26, 2.92358402793979620000e-003) (27, -7.52075206519293720000e-002) (28, 9.68261733178223950000e-002) (29, 3.99902349709009290000e-002) (30, -8.38195813271340740000e-002) (31, 2.00561526426099590000e-002) (32, 6.25732431199139680000e-002) (33, -8.17810070780069510000e-002) (34, -3.51318364610051500000e-002) (35, -5.39550789289933160000e-003) (36, 6.49841318277140090000e-002) (37, 6.91589365774234470000e-002) (38, 2.85705570663594700000e-002) (39, 8.08959972991942780000e-002) (40, 9.31091322468091680000e-002) (41, -3.36303715948815810000e-002) (42, 6.44592294761423550000e-002) (43, -2.61230472642637320000e-002) (44, 6.26037606984937160000e-002) (45, -3.85803228405166010000e-002) (46, 2.22106936903401220000e-002) (47, -8.86291517113022560000e-002) (48, 9.95300307799880100000e-002) (49, 5.74829110128121100000e-002) (50, 4.82727057974443600000e-002) (51, 8.61328137834789230000e-002) (52, 2.92480473108298610000e-002) (53, 6.76330576484360790000e-002) (54, -6.40625009546056390000e-002) (55, -7.92358410244560220000e-002) (56, 7.66357433294615480000e-002) (57, -6.07971200465726720000e-002) (58, 7.72766124796362420000e-002) (59, 3.67736821885955580000e-002) (60, 8.38867200000095180000e-002) (61, -7.46093761117663230000e-002) (62, 7.33581553899966820000e-002) (63, 4.90539558090858920000e-002) (64, 5.21545417927882230000e-002) (65, -1.46240236554149310000e-002) (66, 5.88439950174688420000e-002) (67, 1.69616701746235780000e-002) (68, -8.67919934808014660000e-002) (69, 9.42077650756800720000e-002) (70, 9.73693862165418980000e-002) (71, 8.33129895227102680000e-002) (72, -6.24694833527428270000e-002) (73, 4.37011725261982060000e-002) (74, -9.62097182305114980000e-002) (75, -6.74743662398213930000e-002) (76, 8.48632825145614330000e-002) (77, 1.56311037485465930000e-002) (78, 4.97070319906924850000e-002) (79, -8.91113294528622650000e-004) (80, -9.62951674505347910000e-002) (81, -9.16198744121174970000e-002) (82, -9.15954603492536990000e-002) (83, 5.78735360186328760000e-002) (84, 8.57788098719538540000e-002) (85, 9.84313979511171060000e-002) (86, 9.54833998603135110000e-002) (87, -7.30773936670630060000e-002) (88, 8.19030773923259400000e-002) (89, 1.77856447962767560000e-002) (90, 6.14807138067590130000e-002) (91, -8.50952161117675130000e-002) (92, 8.54064954132809360000e-002) (93, 2.87475590221220050000e-002) (94, -7.31811534342341470000e-003) (95, -5.64514168568166500000e-002) (96, -1.06018067986042300000e-002) (97, -2.28881839348105130000e-002) (98, 7.63549816065278720000e-002) (99, -2.30895999534368460000e-002) (100, 2.40539554365568620000e-002) (101, -9.47631850058314740000e-002) (102, 8.67309583236419710000e-002) (103, 8.84887708498354190000e-002) (104, 8.03161633061790780000e-002) (105, -9.39758314784739920000e-002) (106, -5.20812996041968290000e-002) (107, -2.52075199068713120000e-003) (108, 2.61047367171158840000e-002) (109, -7.56835948777734300000e-004) (110, 3.00109867753235450000e-002) (111, 5.39550789289933160000e-003) (112, 2.13928225844028930000e-002) (113, 1.13281251688022170000e-002) (114, 3.46740727823089400000e-002) (115, -3.56079106868492090000e-002) (116, -6.16577157625215480000e-002) (117, -6.00524911292268370000e-002) (118, 2.63977054714814590000e-002) (119, 8.42285168801026880000e-003) (120, 9.27795423981478960000e-002) (121, -1.53869631199086140000e-002) (122, 6.57409677764917430000e-002) (123, 7.85583507799856310000e-002) (124, -6.76879892898796240000e-003) (125, -7.54821788591470980000e-002) (126, 7.75146495925582710000e-004) (127, -2.63061527357422160000e-002) (128, -8.61877454249224680000e-002) (129, 2.49206546682216870000e-002) (130, 7.29187022584483200000e-002) (131, -4.21020514086194450000e-002) (132, -2.83203129220055420000e-003) (133, -4.67285163213091440000e-002) (134, 9.35852064726532260000e-002) (135, 5.56579598137432190000e-002) (136, 9.37744154598476600000e-002) (137, 8.63891614435488010000e-002) (138, 4.76745612572813120000e-002) (139, 6.62475595809155490000e-002) (140, 4.37866217462214990000e-002) (141, 8.98498548544921500000e-002) (142, 8.03588879161907240000e-002) (143, 2.85095219091999750000e-002) (144, 7.72094738067607980000e-003) (145, -4.90722663562337400000e-002) (146, -7.67761241909283850000e-002) (147, -3.27270512689210590000e-002) (148, -4.77661139930205540000e-002) (149, -5.36743172060596410000e-002) (150, -8.37707532014064780000e-002) (151, 5.26245125029163320000e-002) (152, 9.72167983236431610000e-002) (153, -7.41516124330701130000e-002) (154, 8.15185559022211240000e-002) (155, 3.38134770663600650000e-003) (156, 3.04565434225878560000e-002) (157, -6.58569345750947830000e-003) (158, 5.49316414435452320000e-003) (159, 6.59179697322542780000e-002) (160, 9.61486830733520040000e-002) (161, -3.34594731548349960000e-002) (162, -1.46972658440063240000e-002) (163, -3.78417974388867150000e-004) (164, -3.65356450756735280000e-002) (165, 9.55993666589165510000e-002) (166, -3.90014654249171140000e-003) (167, 2.86865238649625100000e-004) (168, -1.85180666821906930000e-002) (169, 2.41088870780004070000e-002) (170, -6.48559579976790700000e-002) (171, -7.40966807916265680000e-003) (172, 2.66357425844034880000e-002) (173, 7.12829600465738620000e-002) (174, 9.92248549941905370000e-002) (175, 2.30041507334135530000e-002) (176, 4.90661628405177910000e-002) (177, 1.80664065192104320000e-002) (178, -4.85473640046620860000e-002) (179, -1.56738283585582390000e-002) (180, 2.39807132479654680000e-002) (181, 7.79724132712544820000e-002) (182, -6.62170420023358020000e-002) (183, 3.11889653085017930000e-003) (184, -8.56079114319072690000e-002) (185, 3.39355473806790540000e-002) (186, -1.84875491036109450000e-002) (187, -7.87475597671800640000e-002) (188, -4.85778815832418330000e-002) (189, 2.24060061932505050000e-002) (190, 9.59472670547256710000e-002) (191, 2.87475590221220050000e-003) (192, 3.84033208847540660000e-002) (193, -5.40344246333006590000e-002) (194, 3.15307621885949630000e-002) (195, 9.80285659138644410000e-002) (196, -1.48986818626326570000e-002) (197, -4.27246100116462910000e-003) (198, 5.36987312689234390000e-002) (199, -5.88989266589123870000e-003) (200, -2.17590335273598610000e-002) (201, 6.47399911990760300000e-002) (202, 2.36511233993041970000e-002) (203, -1.34826662165323800000e-002) (204, -5.37719734575148320000e-003) (205, -6.63635263795185890000e-002) (206, -3.36425786263134800000e-002) (207, -3.35693364377220860000e-004) (208, -3.69506841443580920000e-002) (209, 9.84497084982649540000e-003) (210, -2.20031741559978400000e-002) (211, 8.96362318044339190000e-002) (212, -1.86401369965096820000e-002) (213, -9.84680190454128020000e-002) (214, 2.91015629336470740000e-002) (215, 5.97717294062931610000e-002) (216, -5.24292000000059490000e-003) (217, 7.55615245634544410000e-003) (218, -8.03222668218950280000e-002) (219, 2.03063967869638870000e-002) (220, 4.17358404656624770000e-002) (221, 4.70581061699704150000e-003) (222, -5.75012215599599590000e-002) (223, 2.34924319906895110000e-002) (224, 7.38403331315566900000e-002) (225, 1.34460451222366830000e-002) (226, -8.91357435157260620000e-002) (227, 5.32226570430793800000e-003) (228, 5.54870613736966330000e-002) (229, -7.65502941094382550000e-002) (230, -9.29382338067625820000e-002) (231, -3.48876958323671720000e-002) (232, -4.98779304307390700000e-002) (233, 6.00830087078065840000e-002) (234, 7.78198253783557450000e-003) (235, 1.42883302910377100000e-002) (236, 9.89685073341206590000e-002) (237, 7.32421885913936420000e-002) (238, -5.72631844470379290000e-002) (239, 2.55249027241006840000e-002) (240, -1.44042970896407500000e-003) (241, 2.96508793480825260000e-002) (242, -5.72509774156060300000e-002) (243, -8.64807141792880430000e-002) (244, -1.65893557159506600000e-002) (245, -1.00830079627485250000e-002) (246, -6.65161142724173260000e-002) (247, 7.86743175785886710000e-002) (248, 1.99890139697345150000e-002) (249, 5.16357429569325180000e-002) (250, -6.87744150873186300000e-002) (251, 4.49218756693881010000e-002) (252, -8.17688000465750520000e-002) (253, -6.02294930849893720000e-002) (254, -3.23486332945321920000e-003) (255, 2.29309085448221590000e-002) (256, -3.30505376018663810000e-002) (257, -7.45239268917430310000e-002) (258, 3.82690435390031780000e-003) (259, 2.99377445867321510000e-002) (260, 9.92736831199181320000e-002) (261, -4.52270514551855740000e-002) (262, -2.18933108731107500000e-002) (263, 9.75097670780087360000e-002) (264, -5.56030281722996730000e-003) (265, -3.18054203958126890000e-002) (266, 6.33605966472714500000e-002) (267, -1.58081057043091280000e-003) (268, 2.21374515017487280000e-002) (269, 9.26940931781246040000e-002) (270, 7.06054698021034710000e-002) (271, 2.38891605122262260000e-002) (272, 3.57116704540203500000e-002) (273, 8.70910657508829900000e-002) (274, 6.68518076367945470000e-002) (275, 4.25476080558837570000e-002) (276, -7.95837414202651420000e-002) (277, -7.77404796740484020000e-002) (278, -4.05151373224725830000e-002) (279, -2.78076176018657860000e-002) (280, -9.69665541792892330000e-002) (281, 7.73620616996595340000e-002) (282, -6.73950205355140500000e-002) (283, 9.57458510360993390000e-002) (284, -7.09899912922082880000e-002) (285, 3.33190922933681580000e-002) (286, 9.16076673806855980000e-002) (287, -4.73937995343476360000e-002) (288, -8.65112317578677900000e-002) (289, -5.52062996507629580000e-002) (290, -2.78259281490136350000e-002) (291, 3.65783696856851750000e-002) (292, -2.76184086146713530000e-002) (293, -2.80090336204921190000e-002) (294, 7.00073252619404230000e-002) (295, 3.17932133643807900000e-002) (296, 3.97583013736948490000e-002) (297, 5.33874519674100160000e-002) (298, 4.74670417229390300000e-002) (299, 1.76574709662418170000e-002) (300, -2.21435550174646780000e-002) (301, 8.30078137369127940000e-004) (302, -2.65563968800961450000e-002) (303, -2.57080081955791680000e-002) (304, -1.41113283352751750000e-002) (305, 9.80346694295803900000e-002) (306, 5.27038582072236750000e-002) (307, 1.95434573224702040000e-002) (308, 1.39099123166488430000e-002) (309, 8.39721692200328110000e-002) (310, 8.97216810244572120000e-004) (311, -9.10827650291139430000e-002) (312, -1.19262697089652650000e-002) (313, -9.78332534109540570000e-002) (314, -7.84790050756782880000e-002) (315, 2.96569828637984760000e-002) (316, -4.65881354598423060000e-002) (317, 9.73083510593824030000e-002) (318, 4.11254888940675300000e-002) (319, 2.01843264726448980000e-002) (320, -5.95397958090870820000e-002) (321, 4.03991705238695430000e-002) (322, -4.10644537369080350000e-002) (323, 4.61975104540215400000e-002) (324, 6.19567880326030720000e-002) (325, 6.36169443073413280000e-002) (326, -3.28063969732284020000e-002) (327, 6.46850595576324850000e-002) (328, 4.58923346682240660000e-002) (329, 8.62182630035022160000e-002) (330, 9.84313979511171060000e-002) (331, -9.29809584167742290000e-002) (332, -8.88977064028040330000e-002) (333, 1.27319337834705950000e-002) (334, 5.59875496624044900000e-002) (335, -8.74755872409878070000e-002) (336, -8.28247082654343100000e-003) (337, 8.46069348544915560000e-002) (338, 8.39477551571690130000e-002) (339, -5.64208992782369020000e-002) (340, 1.66748049359739530000e-002) (341, 6.67053232596117600000e-002) (342, -6.72302256111834140000e-002) (343, -8.62854016763776600000e-002) (344, 5.05615241909254110000e-002) (345, 4.97253425378403340000e-002) (346, -2.30712894062889970000e-002) (347, 5.97900399534410100000e-002) (348, 2.04467776484307250000e-003) (349, -5.00427253550697060000e-002) (350, 4.06921392782351180000e-002) (351, 8.95751966472744240000e-002) (352, -9.38842787427347500000e-002) (353, 8.75366223981473010000e-002) 