FANN_FLO_2.1
num_layers=3
learning_rate=1.000000
connection_rate=1.000000
network_type=0
learning_momentum=0.000000
training_algorithm=0
train_error_function=1
train_stop_function=0
cascade_output_change_fraction=0.010000
quickprop_decay=-0.000100
quickprop_mu=1.750000
rprop_increase_factor=1.200000
rprop_decrease_factor=0.500000
rprop_delta_min=0.000000
rprop_delta_max=50.000000
rprop_delta_zero=0.100000
cascade_output_stagnation_epochs=12
cascade_candidate_change_fraction=0.010000
cascade_candidate_stagnation_epochs=12
cascade_max_out_epochs=150
cascade_min_out_epochs=50
cascade_max_cand_epochs=150
cascade_min_cand_epochs=50
cascade_num_candidate_groups=2
bit_fail_limit=3.49999999999999980000e-001
cascade_candidate_limit=1.00000000000000000000e+003
cascade_weight_multiplier=4.00000000000000020000e-001
cascade_activation_functions_count=10
cascade_activation_functions=3 5 7 8 10 11 14 15 16 17 
cascade_activation_steepnesses_count=4
cascade_activation_steepnesses=2.50000000000000000000e-001 5.00000000000000000000e-001 7.50000000000000000000e-001 1.00000000000000000000e+000 
layer_sizes=785 31 11 
scale_included=1
scale_mean_in=0.000000 0.000000 0.000000 0.000000 0.000000 0.000000 0.000000 0.000000 0.000000 0.000000 0.000000 0.000000 0.000001 0.000019 0.000019 0.000001 0.000000 0.000000 0.000000 0.000000 0.000000 0.000000 0.000000 0.000000 0.000000 0.000000 0.000000 0.000000 0.000000 0.000000 0.000000 0.000000 0.000000 0.000001 0.000048 0.000104 0.000162 0.000246 0.000510 0.000675 0.000654 0.000671 0.000695 0.000618 0.000722 0.000632 0.000430 0.000301 0.000213 0.000085 0.000043 0.000018 0.000000 0.000000 0.000000 0.000000 0.000000 0.000000 0.000000 0.000004 0.000033 0.000019 0.000176 0.000596 0.001097 0.002053 0.003294 0.005000 0.007191 0.009624 0.012523 0.014257 0.014644 0.013237 0.010768 0.007929 0.004588 0.002283 0.001022 0.000333 0.000122 0.000020 0.000000 0.000000 0.000000 0.000000 0.000005 0.000030 0.000053 0.000312 0.000927 0.002340 0.004614 0.008576 0.013975 0.020909 0.028576 0.037525 0.046453 0.052236 0.052135 0.046646 0.037310 0.026463 0.015823 0.008433 0.003778 0.001382 0.000519 0.000102 0.000015 0.000000 0.000000 0.000003 0.000020 0.000059 0.000334 0.001652 0.004179 0.009490 0.018407 0.032428 0.051290 0.074996 0.104864 0.137183 0.163131 0.176820 0.174413 0.154148 0.122332 0.089402 0.057457 0.033036 0.017303 0.008168 0.003368 0.000795 0.000125 0.000011 0.000000 0.000000 0.000040 0.000222 0.001469 0.005536 0.013645 0.027877 0.050247 0.082173 0.122071 0.172386 0.230018 0.288523 0.332639 0.355028 0.349013 0.314619 0.258774 0.195919 0.134640 0.083930 0.048409 0.025933 0.011688 0.003139 0.000495 0.000013 0.000000 0.000000 0.000122 0.000785 0.004112 0.012307 0.028241 0.054925 0.093708 0.145165 0.207709 0.278168 0.349957 0.415706 0.463603 0.485396 0.476840 0.439387 0.377318 0.296411 0.212959 0.139256 0.082833 0.044892 0.020930 0.006911 0.001302 0.000092 0.000004 0.000088 0.000424 0.002278 0.008769 0.022772 0.048113 0.087266 0.142070 0.210863 0.289624 0.369974 0.438287 0.489985 0.519536 0.529521 0.522372 0.497398 0.446187 0.369660 0.275128 0.184571 0.111318 0.059803 0.027498 0.009908 0.002003 0.000107 0.000021 0.000215 0.001273 0.005000 0.014227 0.032691 0.065466 0.115884 0.184813 0.268013 0.355555 0.427237 0.470294 0.484329 0.481970 0.478537 0.480007 0.479867 0.457586 0.397156 0.305344 0.208163 0.125795 0.064679 0.027900 0.010083 0.001882 0.000073 0.000009 0.000293 0.001974 0.006480 0.017113 0.038217 0.075988 0.135244 0.215091 0.306582 0.389028 0.435558 0.436491 0.410303 0.386470 0.387398 0.407747 0.435272 0.436850 0.390347 0.303764 0.208047 0.124015 0.061020 0.023293 0.007415 0.001318 0.000086 0.000016 0.000410 0.002188 0.006487 0.016693 0.038493 0.080198 0.146271 0.234189 0.327384 0.394381 0.406131 0.369221 0.324436 0.308361 0.328858 0.366796 0.410439 0.418031 0.371210 0.283605 0.190849 0.112828 0.054079 0.018528 0.004664 0.000867 0.000077 0.000029 0.000320 0.001789 0.005154 0.014364 0.037499 0.083008 0.156731 0.251855 0.343633 0.389865 0.373925 0.320173 0.286325 0.296478 0.333939 0.381572 0.423132 0.416140 0.351320 0.256109 0.167555 0.100182 0.050296 0.016095 0.002380 0.000451 0.000031 0.000014 0.000170 0.000986 0.003449 0.012027 0.037369 0.089720 0.171931 0.272526 0.356277 0.385862 0.357161 0.312188 0.310667 0.349553 0.398183 0.443642 0.462004 0.422993 0.332765 0.231268 0.150895 0.093923 0.050479 0.016990 0.001637 0.000272 0.000038 0.000003 0.000085 0.000490 0.002261 0.011405 0.041768 0.100787 0.188136 0.287822 0.362198 0.380746 0.356600 0.340317 0.379833 0.435728 0.485830 0.509523 0.497103 0.427293 0.318879 0.217439 0.146543 0.095133 0.054161 0.020267 0.002256 0.000312 0.000032 0.000000 0.000043 0.000211 0.001735 0.011933 0.048816 0.112645 0.199419 0.291812 0.356468 0.373624 0.365451 0.383178 0.451786 0.509895 0.547302 0.538364 0.502434 0.418232 0.311327 0.220212 0.153665 0.101279 0.058160 0.022691 0.003197 0.000324 0.000007 0.000001 0.000020 0.000179 0.001934 0.013805 0.057009 0.122344 0.201583 0.281232 0.337018 0.358540 0.368536 0.410501 0.482095 0.531512 0.545031 0.517164 0.475229 0.395948 0.307298 0.228556 0.162436 0.106564 0.058562 0.022811 0.004103 0.000510 0.000040 0.000003 0.000021 0.000302 0.002467 0.017313 0.065258 0.128244 0.196635 0.260634 0.305014 0.326829 0.348589 0.394467 0.452764 0.494297 0.498272 0.473958 0.434655 0.373268 0.303221 0.233157 0.164564 0.104621 0.055552 0.021587 0.004729 0.000657 0.000060 0.000000 0.000032 0.000423 0.003755 0.023343 0.073094 0.131672 0.189524 0.236940 0.270696 0.290571 0.314132 0.349282 0.397834 0.440018 0.450889 0.439492 0.408926 0.362621 0.302938 0.231695 0.159200 0.097168 0.049957 0.019851 0.005261 0.000746 0.000037 0.000010 0.000022 0.000588 0.005777 0.030109 0.081130 0.137543 0.188729 0.227460 0.257772 0.279548 0.298212 0.322998 0.370519 0.416189 0.438936 0.437368 0.411990 0.366371 0.299318 0.221025 0.146730 0.087863 0.044199 0.017717 0.005082 0.000651 0.000039 0.000000 0.000027 0.001040 0.007857 0.034706 0.086485 0.145394 0.200007 0.243977 0.278882 0.304416 0.322260 0.350754 0.395622 0.439872 0.461993 0.455879 0.422348 0.362275 0.281095 0.198349 0.126579 0.072600 0.035288 0.014087 0.003994 0.000557 0.000014 0.000000 0.000046 0.001340 0.008717 0.033566 0.082040 0.147435 0.212422 0.270359 0.318942 0.354541 0.383256 0.417468 0.459146 0.490244 0.493049 0.464339 0.408152 0.329403 0.239508 0.159822 0.096803 0.052894 0.025383 0.010684 0.002783 0.000401 0.000004 0.000003 0.000045 0.001132 0.006912 0.025787 0.066721 0.130195 0.203761 0.277366 0.343002 0.396461 0.440316 0.480534 0.511689 0.517997 0.490006 0.431426 0.350801 0.261301 0.178415 0.111720 0.063566 0.033446 0.016247 0.006768 0.001742 0.000241 0.000003 0.000003 0.000001 0.000644 0.004128 0.015045 0.042687 0.092133 0.160586 0.240288 0.318622 0.388846 0.442902 0.480599 0.491838 0.473095 0.419854 0.343631 0.258812 0.178864 0.113071 0.065899 0.035651 0.018499 0.008803 0.003298 0.000759 0.000074 0.000006 0.000000 0.000000 0.000201 0.001606 0.006574 0.019254 0.046766 0.094011 0.158188 0.231699 0.303692 0.360772 0.391566 0.389569 0.355648 0.296358 0.225743 0.158266 0.101018 0.059987 0.032972 0.017196 0.008675 0.003802 0.001192 0.000232 0.000024 0.000000 0.000000 0.000000 0.000038 0.000458 0.002139 0.006251 0.016319 0.035927 0.066183 0.106521 0.150080 0.185950 0.204075 0.201051 0.179052 0.144095 0.107592 0.075622 0.047964 0.028342 0.015287 0.007659 0.003691 0.001484 0.000359 0.000092 0.000010 0.000000 0.000000 0.000000 0.000001 0.000047 0.000462 0.001696 0.005264 0.012119 0.023705 0.038298 0.054596 0.066281 0.071949 0.070316 0.063224 0.051834 0.041388 0.031065 0.020856 0.012464 0.006574 0.003140 0.001450 0.000506 0.000094 0.000008 0.000009 0.000000 0.000000 0.000000 0.000000 0.000000 0.000124 0.000527 0.001998 0.004597 0.008881 0.013561 0.019349 0.024102 0.025736 0.024715 0.022098 0.017580 0.013687 0.010295 0.006919 0.004098 0.002138 0.000912 0.000308 0.000067 0.000000 0.000005 0.000000 0.000000 0.000000 0.000000 0.000000 0.000000 0.000008 0.000048 0.000172 0.000315 0.000421 0.000809 0.001396 0.001773 0.002195 0.002523 0.002807 0.002275 0.001845 0.001401 0.000818 0.000329 0.000110 0.000038 0.000051 0.000010 0.000000 0.000000 0.000000 0.000000 
scale_deviation_in=0.000000 0.000000 0.000000 0.000000 0.000000 0.000000 0.000000 0.000000 0.000000 0.000000 0.000000 0.000000 0.000185 0.003993 0.003993 0.000166 0.000000 0.000000 0.000000 0.000000 0.000000 0.000000 0.000000 0.000000 0.000000 0.000000 0.000000 0.000000 0.000000 0.000000 0.000000 0.000000 0.000000 0.000148 0.004777 0.009108 0.011301 0.012477 0.020205 0.022476 0.021920 0.021909 0.022617 0.021470 0.023365 0.021941 0.017523 0.015185 0.012706 0.007391 0.005040 0.003652 0.000000 0.000000 0.000000 0.000000 0.000000 0.000000 0.000000 0.000587 0.003657 0.001685 0.010039 0.020631 0.028604 0.038961 0.049733 0.060575 0.073324 0.084209 0.096807 0.102876 0.105516 0.100628 0.090424 0.078508 0.059093 0.041557 0.027176 0.015118 0.009270 0.003219 0.000000 0.000000 0.000000 0.000000 0.000803 0.002983 0.003643 0.013532 0.024730 0.040859 0.058302 0.080501 0.102823 0.126478 0.146839 0.168046 0.187323 0.198668 0.197374 0.187722 0.168325 0.142668 0.108725 0.080172 0.051309 0.031389 0.019059 0.006688 0.002400 0.000000 0.000000 0.000702 0.002832 0.003770 0.014066 0.033140 0.052787 0.082128 0.115424 0.154244 0.194170 0.232855 0.270512 0.304807 0.328028 0.338656 0.336397 0.319820 0.289618 0.251315 0.203309 0.154161 0.110655 0.076073 0.047970 0.020875 0.008622 0.001596 0.000000 0.000000 0.003455 0.010825 0.028777 0.062515 0.099121 0.142884 0.191586 0.242618 0.290294 0.334922 0.374002 0.403867 0.420096 0.425537 0.423106 0.412116 0.388175 0.351703 0.300728 0.241850 0.185790 0.136576 0.089004 0.042983 0.016226 0.001915 0.000000 0.000074 0.007664 0.022606 0.053378 0.094162 0.143715 0.200807 0.259114 0.314283 0.361773 0.397991 0.422801 0.435839 0.440034 0.440612 0.440552 0.439810 0.431088 0.407590 0.365436 0.307024 0.242983 0.180303 0.121626 0.067783 0.028254 0.006686 0.000869 0.006189 0.016092 0.039103 0.078744 0.129095 0.187699 0.249649 0.309734 0.361013 0.398971 0.421685 0.431154 0.433015 0.433234 0.431662 0.432621 0.434075 0.435054 0.426488 0.396776 0.345327 0.278890 0.207143 0.139636 0.082563 0.035388 0.006854 0.003664 0.011849 0.029511 0.060255 0.103662 0.156220 0.219043 0.284461 0.346278 0.392930 0.421151 0.433124 0.435362 0.436324 0.436021 0.434255 0.434364 0.435231 0.436629 0.432871 0.410860 0.363529 0.295656 0.215726 0.141511 0.083994 0.034742 0.006220 0.001534 0.014511 0.037650 0.070651 0.114580 0.169599 0.235628 0.305842 0.368191 0.409197 0.431265 0.436840 0.436471 0.432246 0.426752 0.425472 0.428257 0.433331 0.435668 0.431800 0.410434 0.365090 0.294082 0.209217 0.128875 0.070863 0.028421 0.007248 0.003420 0.017702 0.040334 0.071113 0.113726 0.169943 0.241561 0.315548 0.378665 0.416952 0.432725 0.434717 0.423460 0.408035 0.402408 0.411391 0.421225 0.430489 0.433322 0.428078 0.402617 0.353564 0.282691 0.197793 0.115025 0.056558 0.023602 0.006312 0.003784 0.014613 0.036261 0.062160 0.104366 0.166350 0.244784 0.324160 0.387727 0.422665 0.432341 0.427271 0.408079 0.392023 0.402084 0.417290 0.423467 0.431193 0.433008 0.423773 0.389006 0.334009 0.269910 0.192913 0.106086 0.038621 0.016512 0.003249 0.003013 0.010464 0.026713 0.050316 0.094509 0.165521 0.253872 0.337566 0.398895 0.427937 0.432224 0.424103 0.407271 0.404105 0.426792 0.434729 0.430243 0.435661 0.436565 0.417660 0.373415 0.319493 0.263395 0.196055 0.109845 0.032035 0.013327 0.003658 0.000592 0.007413 0.019169 0.039577 0.091998 0.174780 0.268879 0.350744 0.407267 0.430191 0.431720 0.423970 0.416867 0.426723 0.446174 0.437354 0.431371 0.439526 0.437395 0.411232 0.365162 0.316929 0.266026 0.204139 0.122384 0.037699 0.013326 0.004769 0.000000 0.004676 0.011638 0.034470 0.092704 0.188827 0.284116 0.360505 0.409983 0.429403 0.430137 0.424916 0.424097 0.437055 0.445790 0.429633 0.430613 0.440338 0.434970 0.408638 0.368615 0.324414 0.273312 0.210945 0.130312 0.046460 0.013526 0.001083 0.000129 0.004179 0.009552 0.036246 0.098767 0.204733 0.295758 0.362993 0.405256 0.424381 0.425750 0.424752 0.429542 0.441466 0.441683 0.428741 0.436574 0.441929 0.430592 0.408256 0.374727 0.333061 0.278836 0.209848 0.130339 0.054076 0.017971 0.004081 0.000739 0.002678 0.013711 0.040710 0.110901 0.219202 0.302736 0.359428 0.394790 0.411873 0.415572 0.419756 0.430996 0.442740 0.441852 0.436150 0.439950 0.436107 0.425458 0.407536 0.379366 0.334128 0.275587 0.203569 0.124956 0.057744 0.020197 0.006180 0.000000 0.003451 0.016600 0.051065 0.131479 0.232916 0.306058 0.353545 0.381981 0.397380 0.404059 0.412392 0.425682 0.434723 0.439052 0.438110 0.435431 0.430109 0.424464 0.409124 0.378730 0.329393 0.264995 0.192462 0.118540 0.061163 0.021869 0.003247 0.001456 0.003730 0.018887 0.063868 0.150424 0.246012 0.312348 0.353156 0.376484 0.392100 0.402497 0.410362 0.416336 0.427071 0.435484 0.435076 0.431743 0.432358 0.427228 0.409722 0.373033 0.318499 0.253265 0.180674 0.112890 0.059829 0.020498 0.004284 0.000000 0.003682 0.027055 0.076153 0.162626 0.254648 0.320698 0.362038 0.386246 0.402892 0.413406 0.420057 0.425194 0.432118 0.436592 0.435502 0.433514 0.435744 0.427848 0.401785 0.358180 0.298535 0.230638 0.161406 0.101031 0.052531 0.019530 0.002065 0.000000 0.004944 0.030198 0.080808 0.160050 0.247286 0.321626 0.371902 0.401290 0.418612 0.428175 0.432977 0.435695 0.437530 0.436611 0.435978 0.436039 0.433543 0.418013 0.382601 0.328419 0.263885 0.197134 0.136271 0.087928 0.042888 0.015946 0.000943 0.000592 0.004691 0.028010 0.070356 0.137427 0.221839 0.302614 0.365844 0.405696 0.427184 0.436072 0.437139 0.435728 0.432758 0.433433 0.434984 0.433343 0.421391 0.391872 0.341638 0.280068 0.214975 0.157188 0.108893 0.069506 0.034584 0.011372 0.000721 0.000573 0.000226 0.019914 0.052951 0.102760 0.174778 0.254898 0.328747 0.384914 0.420081 0.437371 0.442184 0.441089 0.439967 0.440065 0.436419 0.420161 0.389456 0.340750 0.280622 0.217653 0.161542 0.116071 0.079332 0.046742 0.020205 0.006164 0.001331 0.000000 0.000000 0.009776 0.031389 0.066693 0.115294 0.179970 0.253811 0.322330 0.375687 0.411137 0.428337 0.433584 0.432342 0.422892 0.403073 0.368396 0.321011 0.264443 0.207296 0.155469 0.112609 0.078901 0.051355 0.027508 0.012129 0.002454 0.000000 0.000000 0.000000 0.004397 0.016147 0.037183 0.065945 0.106674 0.160614 0.217740 0.273633 0.318375 0.347517 0.358226 0.355449 0.338401 0.307522 0.271756 0.232092 0.186593 0.145626 0.106374 0.076072 0.051936 0.031514 0.014631 0.007592 0.001842 0.000000 0.000000 0.000000 0.000296 0.004640 0.017723 0.033822 0.061923 0.095844 0.136001 0.172049 0.204397 0.223432 0.232305 0.229091 0.216523 0.196037 0.176500 0.153511 0.126639 0.097635 0.070186 0.048303 0.031465 0.018230 0.006817 0.001608 0.001923 0.000000 0.000000 0.000000 0.000000 0.000000 0.008215 0.018378 0.038235 0.058929 0.082678 0.101656 0.122079 0.136198 0.139412 0.136333 0.129512 0.114367 0.101357 0.088339 0.072509 0.055381 0.040375 0.025604 0.014288 0.005119 0.000000 0.001091 0.000000 0.000000 0.000000 0.000000 0.000000 0.000000 0.001738 0.005752 0.010700 0.015166 0.016312 0.025017 0.031326 0.036568 0.040099 0.042779 0.045534 0.040778 0.036345 0.032061 0.023998 0.015060 0.008065 0.003938 0.006630 0.001569 0.000000 0.000000 0.000000 0.000000 
scale_new_min_in=0.000000 0.000000 0.000000 0.000000 0.000000 0.000000 0.000000 0.000000 0.000000 0.000000 0.000000 0.000000 0.000000 0.000000 0.000000 0.000000 0.000000 0.000000 0.000000 0.000000 0.000000 0.000000 0.000000 0.000000 0.000000 0.000000 0.000000 0.000000 0.000000 0.000000 0.000000 0.000000 0.000000 0.000000 0.000000 0.000000 0.000000 0.000000 0.000000 0.000000 0.000000 0.000000 0.000000 0.000000 0.000000 0.000000 0.000000 0.000000 0.000000 0.000000 0.000000 0.000000 0.000000 0.000000 0.000000 0.000000 0.000000 0.000000 0.000000 0.000000 0.000000 0.000000 0.000000 0.000000 0.000000 0.000000 0.000000 0.000000 0.000000 0.000000 0.000000 0.000000 0.000000 0.000000 0.000000 0.000000 0.000000 0.000000 0.000000 0.000000 0.000000 0.000000 0.000000 0.000000 0.000000 0.000000 0.000000 0.000000 0.000000 0.000000 0.000000 0.000000 0.000000 0.000000 0.000000 0.000000 0.000000 0.000000 0.000000 0.000000 0.000000 0.000000 0.000000 0.000000 0.000000 0.000000 0.000000 0.000000 0.000000 0.000000 0.000000 0.000000 0.000000 0.000000 0.000000 0.000000 0.000000 0.000000 0.000000 0.000000 0.000000 0.000000 0.000000 0.000000 0.000000 0.000000 0.000000 0.000000 0.000000 0.000000 0.000000 0.000000 0.000000 0.000000 0.000000 0.000000 0.000000 0.000000 0.000000 0.000000 0.000000 0.000000 0.000000 0.000000 0.000000 0.000000 0.000000 0.000000 0.000000 0.000000 0.000000 0.000000 0.000000 0.000000 0.000000 0.000000 0.000000 0.000000 0.000000 0.000000 0.000000 0.000000 0.000000 0.000000 0.000000 0.000000 0.000000 0.000000 0.000000 0.000000 0.000000 0.000000 0.000000 0.000000 0.000000 0.000000 0.000000 0.000000 0.000000 0.000000 0.000000 0.000000 0.000000 0.000000 0.000000 0.000000 0.000000 0.000000 0.000000 0.000000 0.000000 0.000000 0.000000 0.000000 0.000000 0.000000 0.000000 0.000000 0.000000 0.000000 0.000000 0.000000 0.000000 0.000000 0.000000 0.000000 0.000000 0.000000 0.000000 0.000000 0.000000 0.000000 0.000000 0.000000 0.000000 0.000000 0.000000 0.000000 0.000000 0.000000 0.000000 0.000000 0.000000 0.000000 0.000000 0.000000 0.000000 0.000000 0.000000 0.000000 0.000000 0.000000 0.000000 0.000000 0.000000 0.000000 0.000000 0.000000 0.000000 0.000000 0.000000 0.000000 0.000000 0.000000 0.000000 0.000000 0.000000 0.000000 0.000000 0.000000 0.000000 0.000000 0.000000 0.000000 0.000000 0.000000 0.000000 0.000000 0.000000 0.000000 0.000000 0.000000 0.000000 0.000000 0.000000 0.000000 0.000000 0.000000 0.000000 0.000000 0.000000 0.000000 0.000000 0.000000 0.000000 0.000000 0.000000 0.000000 0.000000 0.000000 0.000000 0.000000 0.000000 0.000000 0.000000 0.000000 0.000000 0.000000 0.000000 0.000000 0.000000 0.000000 0.000000 0.000000 0.000000 0.000000 0.000000 0.000000 0.000000 0.000000 0.000000 0.000000 0.000000 0.000000 0.000000 0.000000 0.000000 0.000000 0.000000 0.000000 0.000000 0.000000 0.000000 0.000000 0.000000 0.000000 0.000000 0.000000 0.000000 0.000000 0.000000 0.000000 0.000000 0.000000 0.000000 0.000000 0.000000 0.000000 0.000000 0.000000 0.000000 0.000000 0.000000 0.000000 0.000000 0.000000 0.000000 0.000000 0.000000 0.000000 0.000000 0.000000 0.000000 0.000000 0.000000 0.000000 0.000000 0.000000 0.000000 0.000000 0.000000 0.000000 0.000000 0.000000 0.000000 0.000000 0.000000 0.000000 0.000000 0.000000 0.000000 0.000000 0.000000 0.000000 0.000000 0.000000 0.000000 0.000000 0.000000 0.000000 0.000000 0.000000 0.000000 0.000000 0.000000 0.000000 0.000000 0.000000 0.000000 0.000000 0.000000 0.000000 0.000000 0.000000 0.000000 0.000000 0.000000 0.000000 0.000000 0.000000 0.000000 0.000000 0.000000 0.000000 0.000000 0.000000 0.000000 0.000000 0.000000 0.000000 0.000000 0.000000 0.000000 0.000000 0.000000 0.000000 0.000000 0.000000 0.000000 0.000000 0.000000 0.000000 0.000000 0.000000 0.000000 0.000000 0.000000 0.000000 0.000000 0.000000 0.000000 0.000000 0.000000 0.000000 0.000000 0.000000 0.000000 0.000000 0.000000 0.000000 0.000000 0.000000 0.000000 0.000000 0.000000 0.000000 0.000000 0.000000 0.000000 0.000000 0.000000 0.000000 0.000000 0.000000 0.000000 0.000000 0.000000 0.000000 0.000000 0.000000 0.000000 0.000000 0.000000 0.000000 0.000000 0.000000 0.000000 0.000000 0.000000 0.000000 0.000000 0.000000 0.000000 0.000000 0.000000 0.000000 0.000000 0.000000 0.000000 0.000000 0.000000 0.000000 0.000000 0.000000 0.000000 0.000000 0.000000 0.000000 0.000000 0.000000 0.000000 0.000000 0.000000 0.000000 0.000000 0.000000 0.000000 0.000000 0.000000 0.000000 0.000000 0.000000 0.000000 0.000000 0.000000 0.000000 0.000000 0.000000 0.000000 0.000000 0.000000 0.000000 0.000000 0.000000 0.000000 0.000000 0.000000 0.000000 0.000000 0.000000 0.000000 0.000000 0.000000 0.000000 0.000000 0.000000 0.000000 0.000000 0.000000 0.000000 0.000000 0.000000 0.000000 0.000000 0.000000 0.000000 0.000000 0.000000 0.000000 0.000000 0.000000 0.000000 0.000000 0.000000 0.000000 0.000000 0.000000 0.000000 0.000000 0.000000 0.000000 0.000000 0.000000 0.000000 0.000000 0.000000 0.000000 0.000000 0.000000 0.000000 0.000000 0.000000 0.000000 0.000000 0.000000 0.000000 0.000000 0.000000 0.000000 0.000000 0.000000 0.000000 0.000000 0.000000 0.000000 0.000000 0.000000 0.000000 0.000000 0.000000 0.000000 0.000000 0.000000 0.000000 0.000000 0.000000 0.000000 0.000000 0.000000 0.000000 0.000000 0.000000 0.000000 0.000000 0.000000 0.000000 0.000000 0.000000 0.000000 0.000000 0.000000 0.000000 0.000000 0.000000 0.000000 0.000000 0.000000 0.000000 0.000000 0.000000 0.000000 0.000000 0.000000 0.000000 0.000000 0.000000 0.000000 0.000000 0.000000 0.000000 0.000000 0.000000 0.000000 0.000000 0.000000 0.000000 0.000000 0.000000 0.000000 0.000000 0.000000 0.000000 0.000000 0.000000 0.000000 0.000000 0.000000 0.000000 0.000000 0.000000 0.000000 0.000000 0.000000 0.000000 0.000000 0.000000 0.000000 0.000000 0.000000 0.000000 0.000000 0.000000 0.000000 0.000000 0.000000 0.000000 0.000000 0.000000 0.000000 0.000000 0.000000 0.000000 0.000000 0.000000 0.000000 0.000000 0.000000 0.000000 0.000000 0.000000 0.000000 0.000000 0.000000 0.000000 0.000000 0.000000 0.000000 0.000000 0.000000 0.000000 0.000000 0.000000 0.000000 0.000000 0.000000 0.000000 0.000000 0.000000 0.000000 0.000000 0.000000 0.000000 0.000000 0.000000 0.000000 0.000000 0.000000 0.000000 0.000000 0.000000 0.000000 0.000000 0.000000 0.000000 0.000000 0.000000 0.000000 0.000000 0.000000 0.000000 0.000000 0.000000 0.000000 0.000000 0.000000 0.000000 0.000000 0.000000 0.000000 0.000000 0.000000 0.000000 0.000000 0.000000 0.000000 0.000000 0.000000 0.000000 0.000000 0.000000 0.000000 0.000000 0.000000 0.000000 0.000000 0.000000 0.000000 0.000000 0.000000 0.000000 0.000000 0.000000 0.000000 0.000000 0.000000 0.000000 0.000000 0.000000 0.000000 0.000000 0.000000 0.000000 0.000000 0.000000 0.000000 0.000000 0.000000 0.000000 0.000000 0.000000 0.000000 0.000000 0.000000 0.000000 0.000000 0.000000 0.000000 0.000000 0.000000 0.000000 0.000000 0.000000 0.000000 0.000000 0.000000 0.000000 0.000000 0.000000 0.000000 0.000000 0.000000 0.000000 0.000000 0.000000 0.000000 0.000000 0.000000 0.000000 0.000000 0.000000 0.000000 0.000000 0.000000 0.000000 
scale_factor_in=0.500000 0.500000 0.500000 0.500000 0.500000 0.500000 0.500000 0.500000 0.500000 0.500000 0.500000 0.500000 0.500000 0.500000 0.500000 0.500000 0.500000 0.500000 0.500000 0.500000 0.500000 0.500000 0.500000 0.500000 0.500000 0.500000 0.500000 0.500000 0.500000 0.500000 0.500000 0.500000 0.500000 0.500000 0.500000 0.500000 0.500000 0.500000 0.500000 0.500000 0.500000 0.500000 0.500000 0.500000 0.500000 0.500000 0.500000 0.500000 0.500000 0.500000 0.500000 0.500000 0.500000 0.500000 0.500000 0.500000 0.500000 0.500000 0.500000 0.500000 0.500000 0.500000 0.500000 0.500000 0.500000 0.500000 0.500000 0.500000 0.500000 0.500000 0.500000 0.500000 0.500000 0.500000 0.500000 0.500000 0.500000 0.500000 0.500000 0.500000 0.500000 0.500000 0.500000 0.500000 0.500000 0.500000 0.500000 0.500000 0.500000 0.500000 0.500000 0.500000 0.500000 0.500000 0.500000 0.500000 0.500000 0.500000 0.500000 0.500000 0.500000 0.500000 0.500000 0.500000 0.500000 0.500000 0.500000 0.500000 0.500000 0.500000 0.500000 0.500000 0.500000 0.500000 0.500000 0.500000 0.500000 0.500000 0.500000 0.500000 0.500000 0.500000 0.500000 0.500000 0.500000 0.500000 0.500000 0.500000 0.500000 0.500000 0.500000 0.500000 0.500000 0.500000 0.500000 0.500000 0.500000 0.500000 0.500000 0.500000 0.500000 0.500000 0.500000 0.500000 0.500000 0.500000 0.500000 0.500000 0.500000 0.500000 0.500000 0.500000 0.500000 0.500000 0.500000 0.500000 0.500000 0.500000 0.500000 0.500000 0.500000 0.500000 0.500000 0.500000 0.500000 0.500000 0.500000 0.500000 0.500000 0.500000 0.500000 0.500000 0.500000 0.500000 0.500000 0.500000 0.500000 0.500000 0.500000 0.500000 0.500000 0.500000 0.500000 0.500000 0.500000 0.500000 0.500000 0.500000 0.500000 0.500000 0.500000 0.500000 0.500000 0.500000 0.500000 0.500000 0.500000 0.500000 0.500000 0.500000 0.500000 0.500000 0.500000 0.500000 0.500000 0.500000 0.500000 0.500000 0.500000 0.500000 0.500000 0.500000 0.500000 0.500000 0.500000 0.500000 0.500000 0.500000 0.500000 0.500000 0.500000 0.500000 0.500000 0.500000 0.500000 0.500000 0.500000 0.500000 0.500000 0.500000 0.500000 0.500000 0.500000 0.500000 0.500000 0.500000 0.500000 0.500000 0.500000 0.500000 0.500000 0.500000 0.500000 0.500000 0.500000 0.500000 0.500000 0.500000 0.500000 0.500000 0.500000 0.500000 0.500000 0.500000 0.500000 0.500000 0.500000 0.500000 0.500000 0.500000 0.500000 0.500000 0.500000 0.500000 0.500000 0.500000 0.500000 0.500000 0.500000 0.500000 0.500000 0.500000 0.500000 0.500000 0.500000 0.500000 0.500000 0.500000 0.500000 0.500000 0.500000 0.500000 0.500000 0.500000 0.500000 0.500000 0.500000 0.500000 0.500000 0.500000 0.500000 0.500000 0.500000 0.500000 0.500000 0.500000 0.500000 0.500000 0.500000 0.500000 0.500000 0.500000 0.500000 0.500000 0.500000 0.500000 0.500000 0.500000 0.500000 0.500000 0.500000 0.500000 0.500000 0.500000 0.500000 0.500000 0.500000 0.500000 0.500000 0.500000 0.500000 0.500000 0.500000 0.500000 0.500000 0.500000 0.500000 0.500000 0.500000 0.500000 0.500000 0.500000 0.500000 0.500000 0.500000 0.500000 0.500000 0.500000 0.500000 0.500000 0.500000 0.500000 0.500000 0.500000 0.500000 0.500000 0.500000 0.500000 0.500000 0.500000 0.500000 0.500000 0.500000 0.500000 0.500000 0.500000 0.500000 0.500000 0.500000 0.500000 0.500000 0.500000 0.500000 0.500000 0.500000 0.500000 0.500000 0.500000 0.500000 0.500000 0.500000 0.500000 0.500000 0.500000 0.500000 0.500000 0.500000 0.500000 0.500000 0.500000 0.500000 0.500000 0.500000 0.500000 0.500000 0.500000 0.500000 0.500000 0.500000 0.500000 0.500000 0.500000 0.500000 0.500000 0.500000 0.500000 0.500000 0.500000 0.500000 0.500000 0.500000 0.500000 0.500000 0.500000 0.500000 0.500000 0.500000 0.500000 0.500000 0.500000 0.500000 0.500000 0.500000 0.500000 0.500000 0.500000 0.500000 0.500000 0.500000 0.500000 0.500000 0.500000 0.500000 0.500000 0.500000 0.500000 0.500000 0.500000 0.500000 0.500000 0.500000 0.500000 0.500000 0.500000 0.500000 0.500000 0.500000 0.500000 0.500000 0.500000 0.500000 0.500000 0.500000 0.500000 0.500000 0.500000 0.500000 0.500000 0.500000 0.500000 0.500000 0.500000 0.500000 0.500000 0.500000 0.500000 0.500000 0.500000 0.500000 0.500000 0.500000 0.500000 0.500000 0.500000 0.500000 0.500000 0.500000 0.500000 0.500000 0.500000 0.500000 0.500000 0.500000 0.500000 0.500000 0.500000 0.500000 0.500000 0.500000 0.500000 0.500000 0.500000 0.500000 0.500000 0.500000 0.500000 0.500000 0.500000 0.500000 0.500000 0.500000 0.500000 0.500000 0.500000 0.500000 0.500000 0.500000 0.500000 0.500000 0.500000 0.500000 0.500000 0.500000 0.500000 0.500000 0.500000 0.500000 0.500000 0.500000 0.500000 0.500000 0.500000 0.500000 0.500000 0.500000 0.500000 0.500000 0.500000 0.500000 0.500000 0.500000 0.500000 0.500000 0.500000 0.500000 0.500000 0.500000 0.500000 0.500000 0.500000 0.500000 0.500000 0.500000 0.500000 0.500000 0.500000 0.500000 0.500000 0.500000 0.500000 0.500000 0.500000 0.500000 0.500000 0.500000 0.500000 0.500000 0.500000 0.500000 0.500000 0.500000 0.500000 0.500000 0.500000 0.500000 0.500000 0.500000 0.500000 0.500000 0.500000 0.500000 0.500000 0.500000 0.500000 0.500000 0.500000 0.500000 0.500000 0.500000 0.500000 0.500000 0.500000 0.500000 0.500000 0.500000 0.500000 0.500000 0.500000 0.500000 0.500000 0.500000 0.500000 0.500000 0.500000 0.500000 0.500000 0.500000 0.500000 0.500000 0.500000 0.500000 0.500000 0.500000 0.500000 0.500000 0.500000 0.500000 0.500000 0.500000 0.500000 0.500000 0.500000 0.500000 0.500000 0.500000 0.500000 0.500000 0.500000 0.500000 0.500000 0.500000 0.500000 0.500000 0.500000 0.500000 0.500000 0.500000 0.500000 0.500000 0.500000 0.500000 0.500000 0.500000 0.500000 0.500000 0.500000 0.500000 0.500000 0.500000 0.500000 0.500000 0.500000 0.500000 0.500000 0.500000 0.500000 0.500000 0.500000 0.500000 0.500000 0.500000 0.500000 0.500000 0.500000 0.500000 0.500000 0.500000 0.500000 0.500000 0.500000 0.500000 0.500000 0.500000 0.500000 0.500000 0.500000 0.500000 0.500000 0.500000 0.500000 0.500000 0.500000 0.500000 0.500000 0.500000 0.500000 0.500000 0.500000 0.500000 0.500000 0.500000 0.500000 0.500000 0.500000 0.500000 0.500000 0.500000 0.500000 0.500000 0.500000 0.500000 0.500000 0.500000 0.500000 0.500000 0.500000 0.500000 0.500000 0.500000 0.500000 0.500000 0.500000 0.500000 0.500000 0.500000 0.500000 0.500000 0.500000 0.500000 0.500000 0.500000 0.500000 0.500000 0.500000 0.500000 0.500000 0.500000 0.500000 0.500000 0.500000 0.500000 0.500000 0.500000 0.500000 0.500000 0.500000 0.500000 0.500000 0.500000 0.500000 0.500000 0.500000 0.500000 0.500000 0.500000 0.500000 0.500000 0.500000 0.500000 0.500000 0.500000 0.500000 0.500000 0.500000 0.500000 0.500000 0.500000 0.500000 0.500000 0.500000 0.500000 0.500000 0.500000 0.500000 0.500000 0.500000 0.500000 0.500000 0.500000 0.500000 0.500000 0.500000 0.500000 0.500000 0.500000 0.500000 0.500000 0.500000 0.500000 0.500000 0.500000 0.500000 0.500000 0.500000 0.500000 0.500000 0.500000 0.500000 0.500000 0.500000 0.500000 0.500000 0.500000 0.500000 0.500000 0.500000 0.500000 0.500000 0.500000 0.500000 0.500000 0.500000 0.500000 0.500000 
scale_mean_out=0.100378 0.111600 0.098378 0.101133 0.098178 0.090422 0.097333 0.105244 0.097978 0.099356 
scale_deviation_out=0.300474 0.314901 0.297883 0.301532 0.297467 0.286709 0.296454 0.306816 0.297245 0.299077 
scale_new_min_out=0.000000 0.000000 0.000000 0.000000 0.000000 0.000000 0.000000 0.000000 0.000000 0.000000 
scale_factor_out=0.500000 0.500000 0.500000 0.500000 0.500000 0.500000 0.500000 0.500000 0.500000 0.500000 
neurons (num_inputs, activation_function, activation_steepness)=(0, 0, 0.00000000000000000000e+000) (0, 0, 0.00000000000000000000e+000) (0, 0, 0.00000000000000000000e+000) (0, 0, 0.00000000000000000000e+000) (0, 0, 0.00000000000000000000e+000) (0, 0, 0.00000000000000000000e+000) (0, 0, 0.00000000000000000000e+000) (0, 0, 0.00000000000000000000e+000) (0, 0, 0.00000000000000000000e+000) (0, 0, 0.00000000000000000000e+000) (0, 0, 0.00000000000000000000e+000) (0, 0, 0.00000000000000000000e+000) (0, 0, 0.00000000000000000000e+000) (0, 0, 0.00000000000000000000e+000) (0, 0, 0.00000000000000000000e+000) (0, 0, 0.00000000000000000000e+000) (0, 0, 0.00000000000000000000e+000) (0, 0, 0.00000000000000000000e+000) (0, 0, 0.00000000000000000000e+000) (0, 0, 0.00000000000000000000e+000) (0, 0, 0.00000000000000000000e+000) (0, 0, 0.00000000000000000000e+000) (0, 0, 0.00000000000000000000e+000) (0, 0, 0.00000000000000000000e+000) (0, 0, 0.00000000000000000000e+000) (0, 0, 0.00000000000000000000e+000) (0, 0, 0.00000000000000000000e+000) (0, 0, 0.00000000000000000000e+000) (0, 0, 0.00000000000000000000e+000) (0, 0, 0.00000000000000000000e+000) (0, 0, 0.00000000000000000000e+000) (0, 0, 0.00000000000000000000e+000) (0, 0, 0.00000000000000000000e+000) (0, 0, 0.00000000000000000000e+000) (0, 0, 0.00000000000000000000e+000) (0, 0, 0.00000000000000000000e+000) (0, 0, 0.00000000000000000000e+000) (0, 0, 0.00000000000000000000e+000) (0, 0, 0.00000000000000000000e+000) (0, 0, 0.00000000000000000000e+000) (0, 0, 0.00000000000000000000e+000) (0, 0, 0.00000000000000000000e+000) (0, 0, 0.00000000000000000000e+000) (0, 0, 0.00000000000000000000e+000) (0, 0, 0.00000000000000000000e+000) (0, 0, 0.00000000000000000000e+000) (0, 0, 0.00000000000000000000e+000) (0, 0, 0.00000000000000000000e+000) (0, 0, 0.00000000000000000000e+000) (0, 0, 0.00000000000000000000e+000) (0, 0, 0.00000000000000000000e+000) (0, 0, 0.00000000000000000000e+000) (0, 0, 0.00000000000000000000e+000) (0, 0, 0.00000000000000000000e+000) (0, 0, 0.00000000000000000000e+000) (0, 0, 0.00000000000000000000e+000) (0, 0, 0.00000000000000000000e+000) (0, 0, 0.00000000000000000000e+000) (0, 0, 0.00000000000000000000e+000) (0, 0, 0.00000000000000000000e+000) (0, 0, 0.00000000000000000000e+000) (0, 0, 0.00000000000000000000e+000) (0, 0, 0.00000000000000000000e+000) (0, 0, 0.00000000000000000000e+000) (0, 0, 0.00000000000000000000e+000) (0, 0, 0.00000000000000000000e+000) (0, 0, 0.00000000000000000000e+000) (0, 0, 0.00000000000000000000e+000) (0, 0, 0.00000000000000000000e+000) (0, 0, 0.00000000000000000000e+000) (0, 0, 0.00000000000000000000e+000) (0, 0, 0.00000000000000000000e+000) (0, 0, 0.00000000000000000000e+000) (0, 0, 0.00000000000000000000e+000) (0, 0, 0.00000000000000000000e+000) (0, 0, 0.00000000000000000000e+000) (0, 0, 0.00000000000000000000e+000) (0, 0, 0.00000000000000000000e+000) (0, 0, 0.00000000000000000000e+000) (0, 0, 0.00000000000000000000e+000) (0, 0, 0.00000000000000000000e+000) (0, 0, 0.00000000000000000000e+000) (0, 0, 0.00000000000000000000e+000) (0, 0, 0.00000000000000000000e+000) (0, 0, 0.00000000000000000000e+000) (0, 0, 0.00000000000000000000e+000) (0, 0, 0.00000000000000000000e+000) (0, 0, 0.00000000000000000000e+000) (0, 0, 0.00000000000000000000e+000) (0, 0, 0.00000000000000000000e+000) (0, 0, 0.00000000000000000000e+000) (0, 0, 0.00000000000000000000e+000) (0, 0, 0.00000000000000000000e+000) (0, 0, 0.00000000000000000000e+000) (0, 0, 0.00000000000000000000e+000) (0, 0, 0.00000000000000000000e+000) (0, 0, 0.00000000000000000000e+000) (0, 0, 0.00000000000000000000e+000) (0, 0, 0.00000000000000000000e+000) (0, 0, 0.00000000000000000000e+000) (0, 0, 0.00000000000000000000e+000) (0, 0, 0.00000000000000000000e+000) (0, 0, 0.00000000000000000000e+000) (0, 0, 0.00000000000000000000e+000) (0, 0, 0.00000000000000000000e+000) (0, 0, 0.00000000000000000000e+000) (0, 0, 0.00000000000000000000e+000) (0, 0, 0.00000000000000000000e+000) (0, 0, 0.00000000000000000000e+000) (0, 0, 0.00000000000000000000e+000) (0, 0, 0.00000000000000000000e+000) (0, 0, 0.00000000000000000000e+000) (0, 0, 0.00000000000000000000e+000) (0, 0, 0.00000000000000000000e+000) (0, 0, 0.00000000000000000000e+000) (0, 0, 0.00000000000000000000e+000) (0, 0, 0.00000000000000000000e+000) (0, 0, 0.00000000000000000000e+000) (0, 0, 0.00000000000000000000e+000) (0, 0, 0.00000000000000000000e+000) (0, 0, 0.00000000000000000000e+000) (0, 0, 0.00000000000000000000e+000) (0, 0, 0.00000000000000000000e+000) (0, 0, 0.00000000000000000000e+000) (0, 0, 0.00000000000000000000e+000) (0, 0, 0.00000000000000000000e+000) (0, 0, 0.00000000000000000000e+000) (0, 0, 0.00000000000000000000e+000) (0, 0, 0.00000000000000000000e+000) (0, 0, 0.00000000000000000000e+000) (0, 0, 0.00000000000000000000e+000) (0, 0, 0.00000000000000000000e+000) (0, 0, 0.00000000000000000000e+000) (0, 0, 0.00000000000000000000e+000) (0, 0, 0.00000000000000000000e+000) (0, 0, 0.00000000000000000000e+000) (0, 0, 0.00000000000000000000e+000) (0, 0, 0.00000000000000000000e+000) (0, 0, 0.00000000000000000000e+000) (0, 0, 0.00000000000000000000e+000) (0, 0, 0.00000000000000000000e+000) (0, 0, 0.00000000000000000000e+000) (0, 0, 0.00000000000000000000e+000) (0, 0, 0.00000000000000000000e+000) (0, 0, 0.00000000000000000000e+000) (0, 0, 0.00000000000000000000e+000) (0, 0, 0.00000000000000000000e+000) (0, 0, 0.00000000000000000000e+000) (0, 0, 0.00000000000000000000e+000) (0, 0, 0.00000000000000000000e+000) (0, 0, 0.00000000000000000000e+000) (0, 0, 0.00000000000000000000e+000) (0, 0, 0.00000000000000000000e+000) (0, 0, 0.00000000000000000000e+000) (0, 0, 0.00000000000000000000e+000) (0, 0, 0.00000000000000000000e+000) (0, 0, 0.00000000000000000000e+000) (0, 0, 0.00000000000000000000e+000) (0, 0, 0.00000000000000000000e+000) (0, 0, 0.00000000000000000000e+000) (0, 0, 0.00000000000000000000e+000) (0, 0, 0.00000000000000000000e+000) (0, 0, 0.00000000000000000000e+000) (0, 0, 0.00000000000000000000e+000) (0, 0, 0.00000000000000000000e+000) (0, 0, 0.00000000000000000000e+000) (0, 0, 0.00000000000000000000e+000) (0, 0, 0.00000000000000000000e+000) (0, 0, 0.00000000000000000000e+000) (0, 0, 0.00000000000000000000e+000) (0, 0, 0.00000000000000000000e+000) (0, 0, 0.00000000000000000000e+000) (0, 0, 0.00000000000000000000e+000) (0, 0, 0.00000000000000000000e+000) (0, 0, 0.00000000000000000000e+000) (0, 0, 0.00000000000000000000e+000) (0, 0, 0.00000000000000000000e+000) (0, 0, 0.00000000000000000000e+000) (0, 0, 0.00000000000000000000e+000) (0, 0, 0.00000000000000000000e+000) (0, 0, 0.00000000000000000000e+000) (0, 0, 0.00000000000000000000e+000) (0, 0, 0.00000000000000000000e+000) (0, 0, 0.00000000000000000000e+000) (0, 0, 0.00000000000000000000e+000) (0, 0, 0.00000000000000000000e+000) (0, 0, 0.00000000000000000000e+000) (0, 0, 0.00000000000000000000e+000) (0, 0, 0.00000000000000000000e+000) (0, 0, 0.00000000000000000000e+000) (0, 0, 0.00000000000000000000e+000) (0, 0, 0.00000000000000000000e+000) (0, 0, 0.00000000000000000000e+000) (0, 0, 0.00000000000000000000e+000) (0, 0, 0.00000000000000000000e+000) (0, 0, 0.00000000000000000000e+000) (0, 0, 0.00000000000000000000e+000) (0, 0, 0.00000000000000000000e+000) (0, 0, 0.00000000000000000000e+000) (0, 0, 0.00000000000000000000e+000) (0, 0, 0.00000000000000000000e+000) (0, 0, 0.00000000000000000000e+000) (0, 0, 0.00000000000000000000e+000) (0, 0, 0.00000000000000000000e+000) (0, 0, 0.00000000000000000000e+000) (0, 0, 0.00000000000000000000e+000) (0, 0, 0.00000000000000000000e+000) (0, 0, 0.00000000000000000000e+000) (0, 0, 0.00000000000000000000e+000) (0, 0, 0.00000000000000000000e+000) (0, 0, 0.00000000000000000000e+000) (0, 0, 0.00000000000000000000e+000) (0, 0, 0.00000000000000000000e+000) (0, 0, 0.00000000000000000000e+000) (0, 0, 0.00000000000000000000e+000) (0, 0, 0.00000000000000000000e+000) (0, 0, 0.00000000000000000000e+000) (0, 0, 0.00000000000000000000e+000) (0, 0, 0.00000000000000000000e+000) (0, 0, 0.00000000000000000000e+000) (0, 0, 0.00000000000000000000e+000) (0, 0, 0.00000000000000000000e+000) (0, 0, 0.00000000000000000000e+000) (0, 0, 0.00000000000000000000e+000) (0, 0, 0.00000000000000000000e+000) (0, 0, 0.00000000000000000000e+000) (0, 0, 0.00000000000000000000e+000) (0, 0, 0.00000000000000000000e+000) (0, 0, 0.00000000000000000000e+000) (0, 0, 0.00000000000000000000e+000) (0, 0, 0.00000000000000000000e+000) (0, 0, 0.00000000000000000000e+000) (0, 0, 0.00000000000000000000e+000) (0, 0, 0.00000000000000000000e+000) (0, 0, 0.00000000000000000000e+000) (0, 0, 0.00000000000000000000e+000) (0, 0, 0.00000000000000000000e+000) (0, 0, 0.00000000000000000000e+000) (0, 0, 0.00000000000000000000e+000) (0, 0, 0.00000000000000000000e+000) (0, 0, 0.00000000000000000000e+000) (0, 0, 0.00000000000000000000e+000) (0, 0, 0.00000000000000000000e+000) (0, 0, 0.00000000000000000000e+000) (0, 0, 0.00000000000000000000e+000) (0, 0, 0.00000000000000000000e+000) (0, 0, 0.00000000000000000000e+000) (0, 0, 0.00000000000000000000e+000) (0, 0, 0.00000000000000000000e+000) (0, 0, 0.00000000000000000000e+000) (0, 0, 0.00000000000000000000e+000) (0, 0, 0.00000000000000000000e+000) (0, 0, 0.00000000000000000000e+000) (0, 0, 0.00000000000000000000e+000) (0, 0, 0.00000000000000000000e+000) (0, 0, 0.00000000000000000000e+000) (0, 0, 0.00000000000000000000e+000) (0, 0, 0.00000000000000000000e+000) (0, 0, 0.00000000000000000000e+000) (0, 0, 0.00000000000000000000e+000) (0, 0, 0.00000000000000000000e+000) (0, 0, 0.00000000000000000000e+000) (0, 0, 0.00000000000000000000e+000) (0, 0, 0.00000000000000000000e+000) (0, 0, 0.00000000000000000000e+000) (0, 0, 0.00000000000000000000e+000) (0, 0, 0.00000000000000000000e+000) (0, 0, 0.00000000000000000000e+000) (0, 0, 0.00000000000000000000e+000) (0, 0, 0.00000000000000000000e+000) (0, 0, 0.00000000000000000000e+000) (0, 0, 0.00000000000000000000e+000) (0, 0, 0.00000000000000000000e+000) (0, 0, 0.00000000000000000000e+000) (0, 0, 0.00000000000000000000e+000) (0, 0, 0.00000000000000000000e+000) (0, 0, 0.00000000000000000000e+000) (0, 0, 0.00000000000000000000e+000) (0, 0, 0.00000000000000000000e+000) (0, 0, 0.00000000000000000000e+000) (0, 0, 0.00000000000000000000e+000) (0, 0, 0.00000000000000000000e+000) (0, 0, 0.00000000000000000000e+000) (0, 0, 0.00000000000000000000e+000) (0, 0, 0.00000000000000000000e+000) (0, 0, 0.00000000000000000000e+000) (0, 0, 0.00000000000000000000e+000) (0, 0, 0.00000000000000000000e+000) (0, 0, 0.00000000000000000000e+000) (0, 0, 0.00000000000000000000e+000) (0, 0, 0.00000000000000000000e+000) (0, 0, 0.00000000000000000000e+000) (0, 0, 0.00000000000000000000e+000) (0, 0, 0.00000000000000000000e+000) (0, 0, 0.00000000000000000000e+000) (0, 0, 0.00000000000000000000e+000) (0, 0, 0.00000000000000000000e+000) (0, 0, 0.00000000000000000000e+000) (0, 0, 0.00000000000000000000e+000) (0, 0, 0.00000000000000000000e+000) (0, 0, 0.00000000000000000000e+000) (0, 0, 0.00000000000000000000e+000) (0, 0, 0.00000000000000000000e+000) (0, 0, 0.00000000000000000000e+000) (0, 0, 0.00000000000000000000e+000) (0, 0, 0.00000000000000000000e+000) (0, 0, 0.00000000000000000000e+000) (0, 0, 0.00000000000000000000e+000) (0, 0, 0.00000000000000000000e+000) (0, 0, 0.00000000000000000000e+000) (0, 0, 0.00000000000000000000e+000) (0, 0, 0.00000000000000000000e+000) (0, 0, 0.00000000000000000000e+000) (0, 0, 0.00000000000000000000e+000) (0, 0, 0.00000000000000000000e+000) (0, 0, 0.00000000000000000000e+000) (0, 0, 0.00000000000000000000e+000) (0, 0, 0.00000000000000000000e+000) (0, 0, 0.00000000000000000000e+000) (0, 0, 0.00000000000000000000e+000) (0, 0, 0.00000000000000000000e+000) (0, 0, 0.00000000000000000000e+000) (0, 0, 0.00000000000000000000e+000) (0, 0, 0.00000000000000000000e+000) (0, 0, 0.00000000000000000000e+000) (0, 0, 0.00000000000000000000e+000) (0, 0, 0.00000000000000000000e+000) (0, 0, 0.00000000000000000000e+000) (0, 0, 0.00000000000000000000e+000) (0, 0, 0.00000000000000000000e+000) (0, 0, 0.00000000000000000000e+000) (0, 0, 0.00000000000000000000e+000) (0, 0, 0.00000000000000000000e+000) (0, 0, 0.00000000000000000000e+000) (0, 0, 0.00000000000000000000e+000) (0, 0, 0.00000000000000000000e+000) (0, 0, 0.00000000000000000000e+000) (0, 0, 0.00000000000000000000e+000) (0, 0, 0.00000000000000000000e+000) (0, 0, 0.00000000000000000000e+000) (0, 0, 0.00000000000000000000e+000) (0, 0, 0.00000000000000000000e+000) (0, 0, 0.00000000000000000000e+000) (0, 0, 0.00000000000000000000e+000) (0, 0, 0.00000000000000000000e+000) (0, 0, 0.00000000000000000000e+000) (0, 0, 0.00000000000000000000e+000) (0, 0, 0.00000000000000000000e+000) (0, 0, 0.00000000000000000000e+000) (0, 0, 0.00000000000000000000e+000) (0, 0, 0.00000000000000000000e+000) (0, 0, 0.00000000000000000000e+000) (0, 0, 0.00000000000000000000e+000) (0, 0, 0.00000000000000000000e+000) (0, 0, 0.00000000000000000000e+000) (0, 0, 0.00000000000000000000e+000) (0, 0, 0.00000000000000000000e+000) (0, 0, 0.00000000000000000000e+000) (0, 0, 0.00000000000000000000e+000) (0, 0, 0.00000000000000000000e+000) (0, 0, 0.00000000000000000000e+000) (0, 0, 0.00000000000000000000e+000) (0, 0, 0.00000000000000000000e+000) (0, 0, 0.00000000000000000000e+000) (0, 0, 0.00000000000000000000e+000) (0, 0, 0.00000000000000000000e+000) (0, 0, 0.00000000000000000000e+000) (0, 0, 0.00000000000000000000e+000) (0, 0, 0.00000000000000000000e+000) (0, 0, 0.00000000000000000000e+000) (0, 0, 0.00000000000000000000e+000) (0, 0, 0.00000000000000000000e+000) (0, 0, 0.00000000000000000000e+000) (0, 0, 0.00000000000000000000e+000) (0, 0, 0.00000000000000000000e+000) (0, 0, 0.00000000000000000000e+000) (0, 0, 0.00000000000000000000e+000) (0, 0, 0.00000000000000000000e+000) (0, 0, 0.00000000000000000000e+000) (0, 0, 0.00000000000000000000e+000) (0, 0, 0.00000000000000000000e+000) (0, 0, 0.00000000000000000000e+000) (0, 0, 0.00000000000000000000e+000) (0, 0, 0.00000000000000000000e+000) (0, 0, 0.00000000000000000000e+000) (0, 0, 0.00000000000000000000e+000) (0, 0, 0.00000000000000000000e+000) (0, 0, 0.00000000000000000000e+000) (0, 0, 0.00000000000000000000e+000) (0, 0, 0.00000000000000000000e+000) (0, 0, 0.00000000000000000000e+000) (0, 0, 0.00000000000000000000e+000) (0, 0, 0.00000000000000000000e+000) (0, 0, 0.00000000000000000000e+000) (0, 0, 0.00000000000000000000e+000) (0, 0, 0.00000000000000000000e+000) (0, 0, 0.00000000000000000000e+000) (0, 0, 0.00000000000000000000e+000) (0, 0, 0.00000000000000000000e+000) (0, 0, 0.00000000000000000000e+000) (0, 0, 0.00000000000000000000e+000) (0, 0, 0.00000000000000000000e+000) (0, 0, 0.00000000000000000000e+000) (0, 0, 0.00000000000000000000e+000) (0, 0, 0.00000000000000000000e+000) (0, 0, 0.00000000000000000000e+000) (0, 0, 0.00000000000000000000e+000) (0, 0, 0.00000000000000000000e+000) (0, 0, 0.00000000000000000000e+000) (0, 0, 0.00000000000000000000e+000) (0, 0, 0.00000000000000000000e+000) (0, 0, 0.00000000000000000000e+000) (0, 0, 0.00000000000000000000e+000) (0, 0, 0.00000000000000000000e+000) (0, 0, 0.00000000000000000000e+000) (0, 0, 0.00000000000000000000e+000) (0, 0, 0.00000000000000000000e+000) (0, 0, 0.00000000000000000000e+000) (0, 0, 0.00000000000000000000e+000) (0, 0, 0.00000000000000000000e+000) (0, 0, 0.00000000000000000000e+000) (0, 0, 0.00000000000000000000e+000) (0, 0, 0.00000000000000000000e+000) (0, 0, 0.00000000000000000000e+000) (0, 0, 0.00000000000000000000e+000) (0, 0, 0.00000000000000000000e+000) (0, 0, 0.00000000000000000000e+000) (0, 0, 0.00000000000000000000e+000) (0, 0, 0.00000000000000000000e+000) (0, 0, 0.00000000000000000000e+000) (0, 0, 0.00000000000000000000e+000) (0, 0, 0.00000000000000000000e+000) (0, 0, 0.00000000000000000000e+000) (0, 0, 0.00000000000000000000e+000) (0, 0, 0.00000000000000000000e+000) (0, 0, 0.00000000000000000000e+000) (0, 0, 0.00000000000000000000e+000) (0, 0, 0.00000000000000000000e+000) (0, 0, 0.00000000000000000000e+000) (0, 0, 0.00000000000000000000e+000) (0, 0, 0.00000000000000000000e+000) (0, 0, 0.00000000000000000000e+000) (0, 0, 0.00000000000000000000e+000) (0, 0, 0.00000000000000000000e+000) (0, 0, 0.00000000000000000000e+000) (0, 0, 0.00000000000000000000e+000) (0, 0, 0.00000000000000000000e+000) (0, 0, 0.00000000000000000000e+000) (0, 0, 0.00000000000000000000e+000) (0, 0, 0.00000000000000000000e+000) (0, 0, 0.00000000000000000000e+000) (0, 0, 0.00000000000000000000e+000) (0, 0, 0.00000000000000000000e+000) (0, 0, 0.00000000000000000000e+000) (0, 0, 0.00000000000000000000e+000) (0, 0, 0.00000000000000000000e+000) (0, 0, 0.00000000000000000000e+000) (0, 0, 0.00000000000000000000e+000) (0, 0, 0.00000000000000000000e+000) (0, 0, 0.00000000000000000000e+000) (0, 0, 0.00000000000000000000e+000) (0, 0, 0.00000000000000000000e+000) (0, 0, 0.00000000000000000000e+000) (0, 0, 0.00000000000000000000e+000) (0, 0, 0.00000000000000000000e+000) (0, 0, 0.00000000000000000000e+000) (0, 0, 0.00000000000000000000e+000) (0, 0, 0.00000000000000000000e+000) (0, 0, 0.00000000000000000000e+000) (0, 0, 0.00000000000000000000e+000) (0, 0, 0.00000000000000000000e+000) (0, 0, 0.00000000000000000000e+000) (0, 0, 0.00000000000000000000e+000) (0, 0, 0.00000000000000000000e+000) (0, 0, 0.00000000000000000000e+000) (0, 0, 0.00000000000000000000e+000) (0, 0, 0.00000000000000000000e+000) (0, 0, 0.00000000000000000000e+000) (0, 0, 0.00000000000000000000e+000) (0, 0, 0.00000000000000000000e+000) (0, 0, 0.00000000000000000000e+000) (0, 0, 0.00000000000000000000e+000) (0, 0, 0.00000000000000000000e+000) (0, 0, 0.00000000000000000000e+000) (0, 0, 0.00000000000000000000e+000) (0, 0, 0.00000000000000000000e+000) (0, 0, 0.00000000000000000000e+000) (0, 0, 0.00000000000000000000e+000) (0, 0, 0.00000000000000000000e+000) (0, 0, 0.00000000000000000000e+000) (0, 0, 0.00000000000000000000e+000) (0, 0, 0.00000000000000000000e+000) (0, 0, 0.00000000000000000000e+000) (0, 0, 0.00000000000000000000e+000) (0, 0, 0.00000000000000000000e+000) (0, 0, 0.00000000000000000000e+000) (0, 0, 0.00000000000000000000e+000) (0, 0, 0.00000000000000000000e+000) (0, 0, 0.00000000000000000000e+000) (0, 0, 0.00000000000000000000e+000) (0, 0, 0.00000000000000000000e+000) (0, 0, 0.00000000000000000000e+000) (0, 0, 0.00000000000000000000e+000) (0, 0, 0.00000000000000000000e+000) (0, 0, 0.00000000000000000000e+000) (0, 0, 0.00000000000000000000e+000) (0, 0, 0.00000000000000000000e+000) (0, 0, 0.00000000000000000000e+000) (0, 0, 0.00000000000000000000e+000) (0, 0, 0.00000000000000000000e+000) (0, 0, 0.00000000000000000000e+000) (0, 0, 0.00000000000000000000e+000) (0, 0, 0.00000000000000000000e+000) (0, 0, 0.00000000000000000000e+000) (0, 0, 0.00000000000000000000e+000) (0, 0, 0.00000000000000000000e+000) (0, 0, 0.00000000000000000000e+000) (0, 0, 0.00000000000000000000e+000) (0, 0, 0.00000000000000000000e+000) (0, 0, 0.00000000000000000000e+000) (0, 0, 0.00000000000000000000e+000) (0, 0, 0.00000000000000000000e+000) (0, 0, 0.00000000000000000000e+000) (0, 0, 0.00000000000000000000e+000) (0, 0, 0.00000000000000000000e+000) (0, 0, 0.00000000000000000000e+000) (0, 0, 0.00000000000000000000e+000) (0, 0, 0.00000000000000000000e+000) (0, 0, 0.00000000000000000000e+000) (0, 0, 0.00000000000000000000e+000) (0, 0, 0.00000000000000000000e+000) (0, 0, 0.00000000000000000000e+000) (0, 0, 0.00000000000000000000e+000) (0, 0, 0.00000000000000000000e+000) (0, 0, 0.00000000000000000000e+000) (0, 0, 0.00000000000000000000e+000) (0, 0, 0.00000000000000000000e+000) (0, 0, 0.00000000000000000000e+000) (0, 0, 0.00000000000000000000e+000) (0, 0, 0.00000000000000000000e+000) (0, 0, 0.00000000000000000000e+000) (0, 0, 0.00000000000000000000e+000) (0, 0, 0.00000000000000000000e+000) (0, 0, 0.00000000000000000000e+000) (0, 0, 0.00000000000000000000e+000) (0, 0, 0.00000000000000000000e+000) (0, 0, 0.00000000000000000000e+000) (0, 0, 0.00000000000000000000e+000) (0, 0, 0.00000000000000000000e+000) (0, 0, 0.00000000000000000000e+000) (0, 0, 0.00000000000000000000e+000) (0, 0, 0.00000000000000000000e+000) (0, 0, 0.00000000000000000000e+000) (0, 0, 0.00000000000000000000e+000) (0, 0, 0.00000000000000000000e+000) (0, 0, 0.00000000000000000000e+000) (0, 0, 0.00000000000000000000e+000) (0, 0, 0.00000000000000000000e+000) (0, 0, 0.00000000000000000000e+000) (0, 0, 0.00000000000000000000e+000) (0, 0, 0.00000000000000000000e+000) (0, 0, 0.00000000000000000000e+000) (0, 0, 0.00000000000000000000e+000) (0, 0, 0.00000000000000000000e+000) (0, 0, 0.00000000000000000000e+000) (0, 0, 0.00000000000000000000e+000) (0, 0, 0.00000000000000000000e+000) (0, 0, 0.00000000000000000000e+000) (0, 0, 0.00000000000000000000e+000) (0, 0, 0.00000000000000000000e+000) (0, 0, 0.00000000000000000000e+000) (0, 0, 0.00000000000000000000e+000) (0, 0, 0.00000000000000000000e+000) (0, 0, 0.00000000000000000000e+000) (0, 0, 0.00000000000000000000e+000) (0, 0, 0.00000000000000000000e+000) (0, 0, 0.00000000000000000000e+000) (0, 0, 0.00000000000000000000e+000) (0, 0, 0.00000000000000000000e+000) (0, 0, 0.00000000000000000000e+000) (0, 0, 0.00000000000000000000e+000) (0, 0, 0.00000000000000000000e+000) (0, 0, 0.00000000000000000000e+000) (0, 0, 0.00000000000000000000e+000) (0, 0, 0.00000000000000000000e+000) (0, 0, 0.00000000000000000000e+000) (0, 0, 0.00000000000000000000e+000) (0, 0, 0.00000000000000000000e+000) (0, 0, 0.00000000000000000000e+000) (0, 0, 0.00000000000000000000e+000) (0, 0, 0.00000000000000000000e+000) (0, 0, 0.00000000000000000000e+000) (0, 0, 0.00000000000000000000e+000) (0, 0, 0.00000000000000000000e+000) (0, 0, 0.00000000000000000000e+000) (0, 0, 0.00000000000000000000e+000) (0, 0, 0.00000000000000000000e+000) (0, 0, 0.00000000000000000000e+000) (0, 0, 0.00000000000000000000e+000) (0, 0, 0.00000000000000000000e+000) (0, 0, 0.00000000000000000000e+000) (0, 0, 0.00000000000000000000e+000) (0, 0, 0.00000000000000000000e+000) (0, 0, 0.00000000000000000000e+000) (0, 0, 0.00000000000000000000e+000) (0, 0, 0.00000000000000000000e+000) (0, 0, 0.00000000000000000000e+000) (0, 0, 0.00000000000000000000e+000) (0, 0, 0.00000000000000000000e+000) (0, 0, 0.00000000000000000000e+000) (0, 0, 0.00000000000000000000e+000) (0, 0, 0.00000000000000000000e+000) (0, 0, 0.00000000000000000000e+000) (0, 0, 0.00000000000000000000e+000) (0, 0, 0.00000000000000000000e+000) (0, 0, 0.00000000000000000000e+000) (0, 0, 0.00000000000000000000e+000) (0, 0, 0.00000000000000000000e+000) (0, 0, 0.00000000000000000000e+000) (0, 0, 0.00000000000000000000e+000) (0, 0, 0.00000000000000000000e+000) (0, 0, 0.00000000000000000000e+000) (0, 0, 0.00000000000000000000e+000) (0, 0, 0.00000000000000000000e+000) (0, 0, 0.00000000000000000000e+000) (0, 0, 0.00000000000000000000e+000) (0, 0, 0.00000000000000000000e+000) (0, 0, 0.00000000000000000000e+000) (0, 0, 0.00000000000000000000e+000) (0, 0, 0.00000000000000000000e+000) (0, 0, 0.00000000000000000000e+000) (0, 0, 0.00000000000000000000e+000) (0, 0, 0.00000000000000000000e+000) (0, 0, 0.00000000000000000000e+000) (0, 0, 0.00000000000000000000e+000) (0, 0, 0.00000000000000000000e+000) (0, 0, 0.00000000000000000000e+000) (0, 0, 0.00000000000000000000e+000) (0, 0, 0.00000000000000000000e+000) (0, 0, 0.00000000000000000000e+000) (0, 0, 0.00000000000000000000e+000) (0, 0, 0.00000000000000000000e+000) (0, 0, 0.00000000000000000000e+000) (0, 0, 0.00000000000000000000e+000) (0, 0, 0.00000000000000000000e+000) (0, 0, 0.00000000000000000000e+000) (0, 0, 0.00000000000000000000e+000) (0, 0, 0.00000000000000000000e+000) (0, 0, 0.00000000000000000000e+000) (0, 0, 0.00000000000000000000e+000) (0, 0, 0.00000000000000000000e+000) (0, 0, 0.00000000000000000000e+000) (0, 0, 0.00000000000000000000e+000) (0, 0, 0.00000000000000000000e+000) (0, 0, 0.00000000000000000000e+000) (0, 0, 0.00000000000000000000e+000) (0, 0, 0.00000000000000000000e+000) (0, 0, 0.00000000000000000000e+000) (0, 0, 0.00000000000000000000e+000) (0, 0, 0.00000000000000000000e+000) (0, 0, 0.00000000000000000000e+000) (0, 0, 0.00000000000000000000e+000) (0, 0, 0.00000000000000000000e+000) (0, 0, 0.00000000000000000000e+000) (0, 0, 0.00000000000000000000e+000) (0, 0, 0.00000000000000000000e+000) (0, 0, 0.00000000000000000000e+000) (0, 0, 0.00000000000000000000e+000) (0, 0, 0.00000000000000000000e+000) (0, 0, 0.00000000000000000000e+000) (0, 0, 0.00000000000000000000e+000) (0, 0, 0.00000000000000000000e+000) (0, 0, 0.00000000000000000000e+000) (0, 0, 0.00000000000000000000e+000) (0, 0, 0.00000000000000000000e+000) (0, 0, 0.00000000000000000000e+000) (0, 0, 0.00000000000000000000e+000) (0, 0, 0.00000000000000000000e+000) (0, 0, 0.00000000000000000000e+000) (0, 0, 0.00000000000000000000e+000) (0, 0, 0.00000000000000000000e+000) (0, 0, 0.00000000000000000000e+000) (0, 0, 0.00000000000000000000e+000) (0, 0, 0.00000000000000000000e+000) (0, 0, 0.00000000000000000000e+000) (0, 0, 0.00000000000000000000e+000) (0, 0, 0.00000000000000000000e+000) (0, 0, 0.00000000000000000000e+000) (0, 0, 0.00000000000000000000e+000) (0, 0, 0.00000000000000000000e+000) (0, 0, 0.00000000000000000000e+000) (0, 0, 0.00000000000000000000e+000) (0, 0, 0.00000000000000000000e+000) (0, 0, 0.00000000000000000000e+000) (0, 0, 0.00000000000000000000e+000) (0, 0, 0.00000000000000000000e+000) (0, 0, 0.00000000000000000000e+000) (0, 0, 0.00000000000000000000e+000) (0, 0, 0.00000000000000000000e+000) (0, 0, 0.00000000000000000000e+000) (0, 0, 0.00000000000000000000e+000) (0, 0, 0.00000000000000000000e+000) (0, 0, 0.00000000000000000000e+000) (0, 0, 0.00000000000000000000e+000) (0, 0, 0.00000000000000000000e+000) (0, 0, 0.00000000000000000000e+000) (0, 0, 0.00000000000000000000e+000) (0, 0, 0.00000000000000000000e+000) (0, 0, 0.00000000000000000000e+000) (0, 0, 0.00000000000000000000e+000) (0, 0, 0.00000000000000000000e+000) (0, 0, 0.00000000000000000000e+000) (0, 0, 0.00000000000000000000e+000) (0, 0, 0.00000000000000000000e+000) (0, 0, 0.00000000000000000000e+000) (0, 0, 0.00000000000000000000e+000) (0, 0, 0.00000000000000000000e+000) (0, 0, 0.00000000000000000000e+000) (0, 0, 0.00000000000000000000e+000) (0, 0, 0.00000000000000000000e+000) (0, 0, 0.00000000000000000000e+000) (0, 0, 0.00000000000000000000e+000) (0, 0, 0.00000000000000000000e+000) (0, 0, 0.00000000000000000000e+000) (0, 0, 0.00000000000000000000e+000) (0, 0, 0.00000000000000000000e+000) (0, 0, 0.00000000000000000000e+000) (0, 0, 0.00000000000000000000e+000) (0, 0, 0.00000000000000000000e+000) (0, 0, 0.00000000000000000000e+000) (0, 0, 0.00000000000000000000e+000) (0, 0, 0.00000000000000000000e+000) (0, 0, 0.00000000000000000000e+000) (0, 0, 0.00000000000000000000e+000) (0, 0, 0.00000000000000000000e+000) (0, 0, 0.00000000000000000000e+000) (0, 0, 0.00000000000000000000e+000) (0, 0, 0.00000000000000000000e+000) (0, 0, 0.00000000000000000000e+000) (0, 0, 0.00000000000000000000e+000) (0, 0, 0.00000000000000000000e+000) (0, 0, 0.00000000000000000000e+000) (0, 0, 0.00000000000000000000e+000) (0, 0, 0.00000000000000000000e+000) (0, 0, 0.00000000000000000000e+000) (0, 0, 0.00000000000000000000e+000) (0, 0, 0.00000000000000000000e+000) (0, 0, 0.00000000000000000000e+000) (0, 0, 0.00000000000000000000e+000) (0, 0, 0.00000000000000000000e+000) (0, 0, 0.00000000000000000000e+000) (0, 0, 0.00000000000000000000e+000) (0, 0, 0.00000000000000000000e+000) (0, 0, 0.00000000000000000000e+000) (0, 0, 0.00000000000000000000e+000) (0, 0, 0.00000000000000000000e+000) (0, 0, 0.00000000000000000000e+000) (0, 0, 0.00000000000000000000e+000) (0, 0, 0.00000000000000000000e+000) (0, 0, 0.00000000000000000000e+000) (0, 0, 0.00000000000000000000e+000) (0, 0, 0.00000000000000000000e+000) (0, 0, 0.00000000000000000000e+000) (0, 0, 0.00000000000000000000e+000) (0, 0, 0.00000000000000000000e+000) (0, 0, 0.00000000000000000000e+000) (0, 0, 0.00000000000000000000e+000) (0, 0, 0.00000000000000000000e+000) (0, 0, 0.00000000000000000000e+000) (0, 0, 0.00000000000000000000e+000) (0, 0, 0.00000000000000000000e+000) (0, 0, 0.00000000000000000000e+000) (0, 0, 0.00000000000000000000e+000) (0, 0, 0.00000000000000000000e+000) (0, 0, 0.00000000000000000000e+000) (0, 0, 0.00000000000000000000e+000) (0, 0, 0.00000000000000000000e+000) (0, 0, 0.00000000000000000000e+000) (0, 0, 0.00000000000000000000e+000) (0, 0, 0.00000000000000000000e+000) (0, 0, 0.00000000000000000000e+000) (0, 0, 0.00000000000000000000e+000) (0, 0, 0.00000000000000000000e+000) (0, 0, 0.00000000000000000000e+000) (0, 0, 0.00000000000000000000e+000) (785, 3, 5.00000000000000000000e-001) (785, 3, 5.00000000000000000000e-001) (785, 3, 5.00000000000000000000e-001) (785, 3, 5.00000000000000000000e-001) (785, 3, 5.00000000000000000000e-001) (785, 3, 5.00000000000000000000e-001) (785, 3, 5.00000000000000000000e-001) (785, 3, 5.00000000000000000000e-001) (785, 3, 5.00000000000000000000e-001) (785, 3, 5.00000000000000000000e-001) (785, 3, 5.00000000000000000000e-001) (785, 3, 5.00000000000000000000e-001) (785, 3, 5.00000000000000000000e-001) (785, 3, 5.00000000000000000000e-001) (785, 3, 5.00000000000000000000e-001) (785, 3, 5.00000000000000000000e-001) (785, 3, 5.00000000000000000000e-001) (785, 3, 5.00000000000000000000e-001) (785, 3, 5.00000000000000000000e-001) (785, 3, 5.00000000000000000000e-001) (785, 3, 5.00000000000000000000e-001) (785, 3, 5.00000000000000000000e-001) (785, 3, 5.00000000000000000000e-001) (785, 3, 5.00000000000000000000e-001) (785, 3, 5.00000000000000000000e-001) (785, 3, 5.00000000000000000000e-001) (785, 3, 5.00000000000000000000e-001) (785, 3, 5.00000000000000000000e-001) (785, 3, 5.00000000000000000000e-001) (785, 3, 5.00000000000000000000e-001) (0, 3, 0.00000000000000000000e+000) (31, 3, 5.00000000000000000000e-001) (31, 3, 5.00000000000000000000e-001) (31, 3, 5.00000000000000000000e-001) (31, 3, 5.00000000000000000000e-001) (31, 3, 5.00000000000000000000e-001) (31, 3, 5.00000000000000000000e-001) (31, 3, 5.00000000000000000000e-001) (31, 3, 5.00000000000000000000e-001) (31, 3, 5.00000000000000000000e-001) (31, 3, 5.00000000000000000000e-001) (0, 3, 0.00000000000000000000e+000) 
connections (connected_to_neuron, weight)=(0, -1.66748049359739530000e-002) (1, 8.00170910360975540000e-002) (2, -4.32434088475019960000e-002) (3, 3.88610845634502770000e-002) (4, -8.28002942025705120000e-002) (5, 2.33764651920864710000e-002) (6, 3.58703618626350360000e-002) (7, 4.15283209313201950000e-002) (8, 8.64501966007082960000e-002) (9, 9.20715345750977580000e-002) (10, -2.41943362980237000000e-002) (11, -4.24926764144402110000e-002) (12, 9.17613942820622900000e-003) (13, 6.31081740892856650000e-002) (14, 7.48879594210681430000e-002) (15, -5.20735066636317040000e-002) (16, 3.93676763678740830000e-002) (17, 9.82421889639226720000e-002) (18, -9.29626478696263800000e-002) (19, 8.09387219092059240000e-002) (20, -1.12426759487789240000e-002) (21, -1.43859865424929010000e-002) (22, -9.25292982537939680000e-002) (23, 8.46069348544915560000e-002) (24, -1.48864748312007580000e-002) (25, -9.23034681723038370000e-002) (26, 8.14819348079254270000e-003) (27, -1.94030764610033660000e-002) (28, -9.34021010011747420000e-002) (29, -9.56787123632238940000e-002) (30, -3.33435063562319560000e-002) (31, -3.50158696624021100000e-002) (32, 5.84533700116480760000e-002) (33, 7.46700021541236440000e-002) (34, -4.34168414608549050000e-001) (35, -6.09884057268316290000e-001) (36, -2.38695814555490410000e-001) (37, -2.43524134110384510000e-001) (38, -9.04931487209831850000e-001) (39, -9.48413244400275630000e-001) (40, -7.99926406907093600000e-001) (41, -1.02697086705905980000e+000) (42, -7.89701786526895040000e-001) (43, -5.98518748668511400000e-001) (44, -9.51280191985061530000e-001) (45, -9.94061268352066430000e-001) (46, -8.34507784148596830000e-001) (47, -1.24720116348523490000e+000) (48, -7.56116434593861020000e-001) (49, -4.71836547181189950000e-001) (50, -3.26644741863572340000e-001) (51, -1.63964229353707660000e-001) (52, -1.77001955762534640000e-004) (53, 6.08398446565843190000e-002) (54, 3.46374516880132430000e-002) (55, 1.01989747613515650000e-002) (56, -9.78393569266700070000e-003) (57, 3.73901372759064540000e-002) (58, -8.78051770896490780000e-002) (59, -1.58450301302597500000e-002) (60, -3.89685673432444770000e-002) (61, -6.91607037340879890000e-002) (62, -6.99055103451357680000e-001) (63, -1.51953523910910700000e+000) (64, -2.43513374095640730000e+000) (65, -3.27695813318007370000e+000) (66, -4.61633899336832250000e+000) (67, -5.27301956815998720000e+000) (68, -7.82834731040804940000e+000) (69, -8.80355966439546120000e+000) (70, -6.66728397983179910000e+000) (71, -5.01202488732670930000e+000) (72, -5.32069722507188290000e+000) (73, -4.57223446068869870000e+000) (74, -4.00731920647881520000e+000) (75, -4.64712748336847970000e+000) (76, -4.41256759746160740000e+000) (77, -3.91518699889144890000e+000) (78, -2.24666022315335790000e+000) (79, -1.00163738239993870000e+000) (80, -1.90569847598576310000e-001) (81, 1.11213624635829930000e-001) (82, -2.63061527357422160000e-002) (83, 9.97253432828983930000e-002) (84, -1.76147463562301710000e-002) (85, -6.39587411874344980000e-002) (86, 2.38982534713833400000e-002) (87, -1.52720483617205280000e-001) (88, -1.24188189476888460000e-001) (89, -2.79080335803424840000e-001) (90, -9.94577055271237850000e-001) (91, -2.07105641413804740000e+000) (92, -3.73330573977467010000e+000) (93, -4.12692783716806040000e+000) (94, -5.27372556867050600000e+000) (95, -8.11038767373343990000e+000) (96, -9.36012530475315070000e+000) (97, -8.71362371151902870000e+000) (98, -1.03380629762767950000e+001) (99, -1.12689943778391020000e+001) (100, -1.02521066044175680000e+001) (101, -8.49305614785398790000e+000) (102, -7.77872604524641530000e+000) (103, -1.00307802666303500000e+001) (104, -1.13043935608792390000e+001) (105, -1.02824829930823100000e+001) (106, -5.26422294862926950000e+000) (107, -1.90596481082377080000e+000) (108, -5.33415995618738650000e-001) (109, 1.23321748075641030000e-001) (110, 8.32038610025060830000e-002) (111, -8.67980969965174150000e-002) (112, -7.86743175785886710000e-003) (113, 6.99396494708588860000e-002) (114, 4.49046810837514750000e-003) (115, -3.71038964409923790000e-002) (116, 1.18349761953589830000e-002) (117, -3.48995988417404420000e-001) (118, -9.64783073904741380000e-002) (119, -1.38119191860324240000e+000) (120, -3.63372114605369930000e+000) (121, -5.79868920690644090000e+000) (122, -6.99446591283685310000e+000) (123, -6.71828042263061760000e+000) (124, -1.24740898892691800000e+001) (125, -1.96244496664550430000e+001) (126, -2.50703778937827830000e+001) (127, -2.70183640403717290000e+001) (128, -2.53849733071814400000e+001) (129, -2.60559511463371360000e+001) (130, -2.38082744105883530000e+001) (131, -1.96299269165390910000e+001) (132, -1.37004863758679660000e+001) (133, -6.81896523811481180000e+000) (134, -7.21564686725809980000e-001) (135, 2.11119807524478540000e+000) (136, 2.02353117260208040000e+000) (137, 3.77276281342207700000e-001) (138, 9.59714861900352320000e-002) (139, 6.29186385257012180000e-002) (140, 3.43811040279433660000e-002) (141, 6.14990243539068620000e-002) (142, 2.74660820850751480000e-002) (143, 2.49925202868569950000e-001) (144, -1.92350685971776460000e-001) (145, 2.41067997980178080000e-001) (146, 4.83285825940623250000e-001) (147, 4.00971788171525620000e-001) (148, -3.68953848617969940000e+000) (149, -6.33561558388175430000e+000) (150, -8.17357513234340520000e+000) (151, -1.53660089861942100000e+001) (152, -3.37811454100907010000e+001) (153, -4.51107992626667950000e+001) (154, -5.76672723487210420000e+001) (155, -6.18794656203683080000e+001) (156, -6.65827607191062190000e+001) (157, -6.63323587853684840000e+001) (158, -5.30636662082844950000e+001) (159, -4.08975322216647680000e+001) (160, -2.15788025724347500000e+001) (161, -6.35247298523394390000e+000) (162, 6.37414944470874630000e+000) (163, 1.00526341239034680000e+001) (164, 7.11193214775065920000e+000) (165, 1.93500663622835890000e+000) (166, -6.90703548413453270000e-002) (167, 1.00106818306391500000e-001) (168, 9.57763686146790860000e-002) (169, 6.31073999305877260000e-002) (170, -1.37995387725507870000e-001) (171, -3.57469789548246150000e-001) (172, -1.55372076880291730000e+000) (173, -1.12516576992090170000e+000) (174, -1.03637501756946280000e+000) (175, -3.28864750542591900000e+000) (176, -9.50548256303748570000e+000) (177, -1.29030597757876250000e+001) (178, -2.14307367433390180000e+001) (179, -3.92667532229379150000e+001) (180, -4.84760009884152940000e+001) (181, -5.01370061364756980000e+001) (182, -4.91545460429169980000e+001) (183, -4.82180736930876250000e+001) (184, -5.15731266830648000000e+001) (185, -5.66140697763041420000e+001) (186, -4.88847815063473160000e+001) (187, -4.05636582431643760000e+001) (188, -2.39872668347289920000e+001) (189, -7.93298816426211230000e+000) (190, 5.03333539646238480000e+000) (191, 1.23676192281097070000e+001) (192, 9.77261985388503800000e+000) (193, 2.83466452988437510000e+000) (194, 4.00223233995250230000e-001) (195, -7.72202521844507750000e-003) (196, 1.47398464640114480000e-002) (197, 9.77348599116601570000e-002) (198, -2.85610272196754390000e-001) (199, -1.21586987409969670000e+000) (200, -3.66353621884170270000e+000) (201, -4.15095195878959270000e+000) (202, -6.65058115376504770000e+000) (203, -1.45224804907311070000e+001) (204, -2.30801114912362840000e+001) (205, -2.86013834296634070000e+001) (206, -3.44788205124957870000e+001) (207, -3.79178248317964730000e+001) (208, -3.58944107686896320000e+001) (209, -2.20838479061587130000e+001) (210, -4.27455954800729730000e+000) (211, -3.17978004199736920000e+000) (212, -5.15779590693483140000e+000) (213, -1.98301816641263540000e+001) (214, -2.74217603256303130000e+001) (215, -2.88366432718894680000e+001) (216, -2.44826784091857130000e+001) (217, -7.63612323129265210000e+000) (218, 3.01811251210233780000e+000) (219, 6.73267570442122490000e+000) (220, 7.29312349038787390000e+000) (221, 4.77290798874890140000e+000) (222, 6.67195035587849320000e-001) (223, 7.20600595483755490000e-002) (224, -1.47438940317167010000e-002) (225, -6.20152615965616110000e-001) (226, -1.56782680185529140000e+000) (227, -3.07194820219342770000e+000) (228, -6.50481623156224490000e+000) (229, -7.04266638132819890000e+000) (230, -1.11883238033364560000e+001) (231, -2.28236880009664310000e+001) (232, -2.92902687198516140000e+001) (233, -3.51985592163196440000e+001) (234, -3.04719073096296710000e+001) (235, -2.03902142756000800000e+001) (236, -1.47616168758241280000e+001) (237, 6.84979110040792790000e+000) (238, 1.90788509270374150000e+001) (239, 2.10455821196517940000e+001) (240, 1.79436152650104470000e+001) (241, 1.13565246452262270000e+001) (242, -4.19232730926394040000e+000) (243, -1.96847192368709930000e+001) (244, -2.42225970819573710000e+001) (245, -1.67261606272526930000e+001) (246, -7.84618814094436610000e+000) (247, 8.39886856829527910000e-001) (248, 5.03151516310550570000e+000) (249, 3.51483293378705100000e+000) (250, 4.57788245010851250000e-001) (251, -1.22250132767604670000e-001) (252, 7.08828504387814110000e-002) (253, -9.17927250620355070000e-001) (254, -2.16991911625889240000e+000) (255, -5.27069552624141830000e+000) (256, -8.03901956627207600000e+000) (257, -7.97616710085765490000e+000) (258, -1.21618105355180330000e+001) (259, -1.87046337655699770000e+001) (260, -3.26696454618301710000e+001) (261, -3.14147121694081580000e+001) (262, -1.57388196687908040000e+001) (263, -5.42346602171891230000e+000) (264, -7.85380438441014020000e-001) (265, 1.26305489927450920000e+001) (266, 9.42443534515423310000e+000) (267, 1.75812613749724560000e+001) (268, 2.55100091786526590000e+001) (269, 1.62703429394159120000e+001) (270, -4.62277857099481350000e+000) (271, -2.71124999558569790000e+001) (272, -3.55761370087061270000e+001) (273, -3.12191119679761860000e+001) (274, -1.89150160883130990000e+001) (275, -6.73110160567942280000e+000) (276, 3.08889311039749570000e+000) (277, 3.94697041816361380000e+000) (278, 5.27486582382688530000e-001) (279, -1.29648711900393320000e-001) (280, 4.36612908549530720000e-002) (281, -6.72072209993810010000e-001) (282, -2.52165985071877600000e+000) (283, -5.96410039252502240000e+000) (284, -8.67704981320789770000e+000) (285, -6.28583231119210330000e+000) (286, -6.78892449260482330000e+000) (287, -1.38394274506540660000e+001) (288, -2.22241138987887080000e+001) (289, -1.35351646239190110000e+001) (290, -1.44608821548280750000e+001) (291, -1.71587007684285670000e+001) (292, -1.88562434821357100000e+001) (293, -1.98943417848282960000e+001) (294, -1.46485838838058770000e+001) (295, 7.79581693969390520000e+000) (296, 1.47056992617131450000e+001) (297, 2.90592400341045610000e+000) (298, -2.19191831911175040000e+001) (299, -3.82428228167681250000e+001) (300, -4.43879722413481090000e+001) (301, -3.77730667235695560000e+001) (302, -2.54165472329231290000e+001) (303, -1.18361067438465200000e+001) (304, 3.04757494936480080000e-001) (305, 2.86137364255848730000e+000) (306, 7.31762015270014830000e-001) (307, -1.54779098776218450000e-001) (308, -8.71339513389276090000e-002) (309, -5.74054094317898560000e-001) (310, -3.38378364781921230000e+000) (311, -6.36110882213869640000e+000) (312, -5.00610531853041870000e+000) (313, -5.00869605949378350000e-001) (314, 6.70788832387340770000e-001) (315, -6.74879362919154870000e+000) (316, -1.05289934896309440000e+001) (317, -1.58344677605270370000e+001) (318, -2.21905935501849110000e+001) (319, -4.27916953474290550000e+001) (320, -5.85614150525063690000e+001) (321, -5.93380677505952790000e+001) (322, -3.60124512455554320000e+001) (323, -5.30571684892585790000e+000) (324, 1.90254053100685240000e+000) (325, -1.48225638762627700000e+001) (326, -3.61730352319823400000e+001) (327, -4.26161715900787640000e+001) (328, -4.24243015614225030000e+001) (329, -3.50128751574305500000e+001) (330, -2.64511743216298210000e+001) (331, -1.75292922696974710000e+001) (332, -7.79715710766123580000e+000) (333, -1.62154374369183720000e+000) (334, 7.14095482825590430000e-001) (335, 2.34739982896224540000e-002) (336, 4.46714702401056760000e-002) (337, -7.83906370552835410000e-001) (338, -3.17846854389235830000e+000) (339, -5.88020738682552580000e+000) (340, -3.96893461032561290000e-001) (341, 5.75062029384768710000e+000) (342, 5.57445449851832460000e+000) (343, 4.99502116225742810000e-001) (344, -2.47998440781163540000e-001) (345, -8.34556846244299600000e+000) (346, -2.56163063724955400000e+001) (347, -5.61168319288527470000e+001) (348, -7.24755705120972490000e+001) (349, -6.72813073390826730000e+001) (350, -4.26660644979534210000e+001) (351, -2.11856631434134680000e+001) (352, -2.54219859718749920000e+001) (353, -3.46622587581173460000e+001) (354, -3.23244509927478840000e+001) (355, -2.91507228743270940000e+001) (356, -2.93182757095549390000e+001) (357, -2.35499156766890680000e+001) (358, -2.21336985862219360000e+001) (359, -2.06672950525974710000e+001) (360, -1.19527365477747270000e+001) (361, -2.41810504888161760000e+000) (362, 4.94180769756436430000e-001) (363, -8.41315115506078150000e-002) (364, 9.72242460311110030000e-002) (365, -3.34382105770940910000e-001) (366, -2.46710306851042030000e+000) (367, -2.39241374100655510000e+000) (368, 3.77453117977584540000e+000) (369, 1.10897523319126120000e+001) (370, 1.39340637605105560000e+001) (371, 1.82431698023063650000e+001) (372, 2.06955739932778760000e+001) (373, 9.44225828479142490000e+000) (374, -4.89787599766565500000e+000) (375, -3.08579509283371750000e+001) (376, -5.29413443990831350000e+001) (377, -5.64885395576563170000e+001) (378, -3.82566978639552250000e+001) (379, -4.14301416397546870000e+001) (380, -3.76275599264006570000e+001) (381, -1.59382623488372930000e+001) (382, -1.12528344226562660000e+001) (383, -1.07881120815114520000e+001) (384, -1.06051205748453510000e+001) (385, -1.32512421894112610000e+001) (386, -1.84852538769732360000e+001) (387, -2.10232167347888460000e+001) (388, -1.17563791288911030000e+001) (389, -1.29732838611289660000e+000) (390, 7.84386277433310240000e-001) (391, 9.36568637667231500000e-002) (392, 1.90002444237507010000e-002) (393, -1.19846459908546410000e-001) (394, -1.13669952482036820000e+000) (395, -5.44809477193848650000e-001) (396, 7.74505774766486250000e+000) (397, 1.71436722888261240000e+001) (398, 2.53712590834580850000e+001) (399, 3.49468333047758080000e+001) (400, 4.02044372121740420000e+001) (401, 3.42617935668556160000e+001) (402, 2.17491375681031300000e+001) (403, -8.27878467947192000000e-001) (404, -2.78518905060233240000e+001) (405, -4.12566997090624310000e+001) (406, -4.87589914094484270000e+001) (407, -4.75146774040495150000e+001) (408, -1.73116839779654940000e+001) (409, 6.78366716343487930000e+000) (410, 1.01987107283692070000e+001) (411, 1.57433384327736260000e+000) (412, -2.96465109447628050000e+000) (413, -1.31546352203055900000e+001) (414, -2.01359094543521200000e+001) (415, -1.85044459407869830000e+001) (416, -7.66911306841948190000e+000) (417, -2.02079834502764730000e-001) (418, 1.69968304052191850000e+000) (419, 9.30484079691128870000e-002) (420, 2.53385763857460580000e-002) (421, -4.19912296505971640000e-002) (422, -4.45471805398515660000e-001) (423, 6.45098814738533810000e-001) (424, 9.67004546323549440000e+000) (425, 2.04335326101978620000e+001) (426, 3.02359446039125710000e+001) (427, 4.23634989339876140000e+001) (428, 4.95661299192999890000e+001) (429, 3.98928757639336100000e+001) (430, 2.59239888108575730000e+001) (431, 4.23504669058148590000e+000) (432, -2.73998841485057620000e+001) (433, -3.76370814556749880000e+001) (434, -4.03694170965815720000e+001) (435, -2.52491642555206790000e+001) (436, 9.46847850627684370000e+000) (437, 1.99997532811012850000e+001) (438, 1.44665163463692450000e+001) (439, 5.80196006799507740000e+000) (440, -6.02142793340986240000e+000) (441, -1.29813076491039150000e+001) (442, -1.66396626433974610000e+001) (443, -1.36266917144094530000e+001) (444, -3.59341135357075810000e+000) (445, 1.58768058979806790000e+000) (446, 2.52767191348081300000e+000) (447, 1.49427495327395910000e-001) (448, -7.82741957402161150000e-002) (449, 3.94301238235332620000e-003) (450, -1.46086578255097740000e-001) (451, 1.05477483661443540000e+000) (452, 9.65671138963950780000e+000) (453, 2.23323080043426780000e+001) (454, 3.40646217653558450000e+001) (455, 3.81288212858041500000e+001) (456, 3.70910914192583970000e+001) (457, 1.57517413271385390000e+001) (458, -6.85248177548900730000e+000) (459, -2.80532008902078860000e+001) (460, -3.05650662107559370000e+001) (461, -2.32707220271848140000e+001) (462, -3.01259554280669750000e+000) (463, 1.12533666443035770000e+001) (464, 2.41381009695424280000e+001) (465, 2.34667486720876010000e+001) (466, 3.35241428760815910000e+000) (467, -4.54220610772925060000e+000) (468, -6.67212926654608120000e+000) (469, -8.93088906847131270000e+000) (470, -5.31094669985106730000e+000) (471, -4.71088706105095060000e+000) (472, 7.41332047668155750000e-001) (473, 4.86527499475117860000e+000) (474, 2.28678503041040000000e+000) (475, 5.59224571824492030000e-001) (476, -9.32128920139803090000e-002) (477, -4.63709354382048560000e-002) (478, -2.57561764055122930000e-001) (479, 1.11149029294229520000e+000) (480, 1.08473038082379300000e+001) (481, 2.77086375238969220000e+001) (482, 3.55444998811367510000e+001) (483, 2.71731306178262990000e+001) (484, 3.91348263850636170000e+000) (485, -2.86010588506994380000e+001) (486, -5.82255681369760080000e+001) (487, -5.99809072470178750000e+001) (488, -3.26123838190593600000e+001) (489, 1.52143049765388930000e+000) (490, 2.59284439795392460000e+001) (491, 3.20559425676249460000e+001) (492, 1.75511684472029370000e+001) (493, 4.82019402720459310000e+000) (494, -1.32573258181837300000e+001) (495, -1.94401806507305250000e+001) (496, -1.23880251383245670000e+001) (497, -6.84690745760137620000e+000) (498, -2.57316080465543000000e+000) (499, 1.72408859963128620000e+000) (500, 6.66241685204940910000e+000) (501, 6.32838819530315800000e+000) (502, 2.17706560058694930000e+000) (503, 2.01615302194058680000e-001) (504, -5.22988900462813890000e-002) (505, -2.81718984670511310000e-002) (506, -5.71363842180851790000e-001) (507, 1.13855982931980400000e+000) (508, 1.11525669137380420000e+001) (509, 3.02603748908444810000e+001) (510, 3.24055745112224050000e+001) (511, 1.02572977687847930000e+001) (512, -2.71483353397439230000e+001) (513, -6.68000920542269800000e+001) (514, -9.22301314719271370000e+001) (515, -7.37155043310493600000e+001) (516, -2.77922091873494710000e+001) (517, 1.56550663802187380000e+001) (518, 3.60165897459311990000e+001) (519, 2.07978598538809190000e+001) (520, -1.26891648252953160000e+000) (521, -1.66083567663041690000e+001) (522, -3.09684466296506890000e+001) (523, -2.54277343436799620000e+001) (524, -9.83688200191957840000e+000) (525, -3.96768874085202320000e+000) (526, 1.75727762407640430000e+000) (527, 6.92024426526675730000e+000) (528, 1.13566150363994790000e+001) (529, 5.94943894355320780000e+000) (530, 1.55971414457175390000e+000) (531, 1.65534061609207470000e-001) (532, -2.75268558789321100000e-003) (533, -1.24891940968656630000e-001) (534, -5.53976918010220200000e-001) (535, 9.55934625681134410000e-001) (536, 9.57093092032951280000e+000) (537, 2.40542089769021490000e+001) (538, 2.56094980113509610000e+001) (539, -6.18177598044380990000e-002) (540, -4.28103789213376440000e+001) (541, -8.24545380268494910000e+001) (542, -9.86915748804061650000e+001) (543, -6.79916767017949720000e+001) (544, -2.18947715635014540000e+001) (545, 1.81508228833253720000e+001) (546, 1.90878486908106310000e+001) (547, 5.37435881164734720000e-002) (548, -1.78905865902258050000e+001) (549, -3.08857171273805840000e+001) (550, -3.60371165264287470000e+001) (551, -2.59373977718149470000e+001) (552, -8.94101173350961710000e+000) (553, 1.65776711756553370000e-001) (554, 5.19356445452130090000e+000) (555, 8.32133303778426910000e+000) (556, 1.04758933669039770000e+001) (557, 4.97622905547700260000e+000) (558, 1.45705089851161820000e+000) (559, 5.63791192593901470000e-002) (560, 7.78930675669471380000e-002) (561, 4.43439275567289290000e-003) (562, -1.80992268834088120000e-001) (563, 1.09554114168421460000e-002) (564, 5.86875737193580440000e+000) (565, 1.36483832823979690000e+001) (566, 1.46258190418514360000e+001) (567, -7.20164403161050880000e+000) (568, -4.06249266016256810000e+001) (569, -7.10460336507545240000e+001) (570, -8.27817240445627500000e+001) (571, -5.85673486426873780000e+001) (572, -2.91920328506579980000e+001) (573, -1.09861267347110640000e+001) (574, -1.29954122225049070000e+001) (575, -2.95714445081262660000e+001) (576, -4.09097378119323880000e+001) (577, -4.28825659678505670000e+001) (578, -3.29006721351110020000e+001) (579, -1.81293406328654290000e+001) (580, -9.42681263792779940000e-001) (581, 9.14090691878497630000e+000) (582, 1.16916377595566310000e+001) (583, 1.17844032096142610000e+001) (584, 8.79699326088281450000e+000) (585, 2.69826973914810740000e+000) (586, 6.42948843041454500000e-001) (587, -1.60056527857262950000e-002) (588, -1.23296209365160380000e-003) (589, 3.29902984511596730000e-002) (590, 1.30491270750744590000e-002) (591, -3.35222548725505750000e-002) (592, 2.95951692958006030000e+000) (593, 4.70080266442181750000e+000) (594, 1.08537026998960710000e+000) (595, -1.48242056070625510000e+001) (596, -3.88217035857460790000e+001) (597, -6.03852324955383320000e+001) (598, -6.98062076638978230000e+001) (599, -6.25036244119695330000e+001) (600, -5.31355685506945360000e+001) (601, -5.54803424437352250000e+001) (602, -5.69622810992577580000e+001) (603, -6.22411807031074180000e+001) (604, -5.86996013706783300000e+001) (605, -4.31059963947496880000e+001) (606, -2.60926843455187480000e+001) (607, -6.47504474046178920000e+000) (608, 1.10192135183087720000e+001) (609, 1.59376529637674570000e+001) (610, 1.42178501354676690000e+001) (611, 1.08500318174924080000e+001) (612, 5.88017786650618120000e+000) (613, 1.44777527537621140000e+000) (614, 1.34937062593600170000e-001) (615, -5.30301839208445410000e-002) (616, -8.92010251365004530000e-002) (617, -7.64684568790144900000e-002) (618, -1.97865547777788110000e-002) (619, 1.43924302273577750000e-001) (620, 1.54033258480934520000e+000) (621, -1.21294182736840670000e+000) (622, -6.47930131859790760000e+000) (623, -1.90672250393531290000e+001) (624, -3.59995108681955500000e+001) (625, -4.85325297118366950000e+001) (626, -6.59279307010021110000e+001) (627, -7.63753208456627140000e+001) (628, -8.60002099549508900000e+001) (629, -8.95559197108663340000e+001) (630, -8.88853533526149700000e+001) (631, -8.27522587741312920000e+001) (632, -5.59352631897658770000e+001) (633, -2.98918127960529990000e+001) (634, -7.26890885603460380000e+000) (635, 9.72080958057594380000e+000) (636, 1.79931145158283950000e+001) (637, 1.81027672841684330000e+001) (638, 1.34761611027271930000e+001) (639, 8.25574589762657320000e+000) (640, 3.21273005748916420000e+000) (641, 8.52794227612242330000e-001) (642, 5.17253463923335110000e-002) (643, -8.56577559803093910000e-002) (644, -3.36486821420294290000e-002) (645, 7.09960948079242370000e-002) (646, 1.11831237106076450000e-002) (647, 5.13152104513570700000e-002) (648, 4.06267732525058270000e-001) (649, -6.18163347466652470000e-001) (650, -5.42018428963311120000e+000) (651, -1.75274704392562450000e+001) (652, -3.06660782037458470000e+001) (653, -4.38119632699501480000e+001) (654, -5.60141641348563720000e+001) (655, -7.56295744144425020000e+001) (656, -8.86544628418691470000e+001) (657, -8.89280209385561020000e+001) (658, -8.03564085649560980000e+001) (659, -6.63184615222689620000e+001) (660, -3.67107769158511910000e+001) (661, -1.19189219370238480000e+001) (662, 4.58967354569289480000e+000) (663, 1.66418204569843870000e+001) (664, 2.05496325739844040000e+001) (665, 1.63746019155103570000e+001) (666, 1.12684559329880490000e+001) (667, 6.23749953072849280000e+000) (668, 1.90692558288917140000e+000) (669, 5.09593600040086690000e-001) (670, -2.51454420620226310000e-002) (671, 4.17480474970943760000e-003) (672, 8.89465345285316290000e-002) (673, -4.37377936204939030000e-002) (674, -2.36884008079743660000e-002) (675, 4.48035472220677800000e-002) (676, 2.41173595222251120000e-001) (677, 3.15417755588410680000e-001) (678, -2.86535162956255720000e+000) (679, -8.06262677891318450000e+000) (680, -1.53581368054623420000e+001) (681, -2.52084969264433840000e+001) (682, -3.60886806913972720000e+001) (683, -4.60427368440096670000e+001) (684, -4.80148330153880070000e+001) (685, -4.06636549300709190000e+001) (686, -3.60915185234671010000e+001) (687, -2.49165647563949760000e+001) (688, -9.44308500826277350000e+000) (689, 5.17984924983291070000e+000) (690, 9.20529893226188280000e+000) (691, 1.19651440773025130000e+001) (692, 1.35819122787283890000e+001) (693, 1.04135975933966220000e+001) (694, 6.80067069164458720000e+000) (695, 4.42506242287299490000e+000) (696, 1.31575249686363470000e+000) (697, 4.58817198272978620000e-001) (698, -1.44113797465913120000e-002) (699, -8.35327160884844490000e-002) (700, -5.48217781606581410000e-002) (701, 3.12500004656612870000e-003) (702, -2.95761546808258200000e-002) (703, -2.29855791377616870000e-002) (704, -3.81186711623447830000e-002) (705, 5.72434491335772950000e-001) (706, -6.43128616146384500000e-001) (707, -3.06219132116038530000e+000) (708, -2.26232723525402730000e+000) (709, -2.12688181157170140000e+000) (710, -3.02188236900965010000e+000) (711, -5.69227561498936120000e+000) (712, -6.93418130583203500000e+000) (713, -5.60023434951999910000e+000) (714, -1.10466938974761780000e+001) (715, -9.69044951683987850000e+000) (716, -2.57322013925801010000e+000) (717, 1.99347862542278900000e-001) (718, 1.45793395128332430000e+000) (719, 3.22159006059818060000e+000) (720, 6.00945695216680240000e+000) (721, 3.49058432558941870000e+000) (722, 2.28157520848130210000e+000) (723, 1.82494978212419330000e+000) (724, 1.46396592795632110000e-001) (725, 1.35069663059120360000e-002) (726, -3.40513698020348390000e-002) (727, 9.47265639115357770000e-002) (728, -8.81225599068784500000e-002) (729, 4.97802741792838790000e-002) (730, 3.35083012805625910000e-002) (731, 9.34448256111863880000e-002) (732, -2.97373392318427580000e-001) (733, -1.86510821243935670000e-001) (734, 2.12798883901084120000e-001) (735, 2.30317614893450310000e-002) (736, -4.84776849022201810000e-001) (737, 1.58111020150986210000e-001) (738, 1.19699288691602050000e+000) (739, -1.91561081594978620000e-001) (740, 1.82585623114091430000e-001) (741, -1.95247264536748430000e+000) (742, -3.53619386861334120000e+000) (743, -5.63212698590540130000e+000) (744, -4.02765802799521300000e+000) (745, -4.07046792536796430000e+000) (746, -3.19834444848900200000e+000) (747, -6.16752000101943200000e-001) (748, 2.25571235990724080000e+000) (749, 8.55455202425632780000e-001) (750, 3.36124788241239040000e-001) (751, 2.20639976214691950000e-001) (752, 6.93725596274816780000e-002) (753, -8.32334324751757980000e-003) (754, -7.70263683352823140000e-002) (755, 3.31420903376056230000e-003) (756, -6.70471201397049300000e-002) (757, -4.65271003026828110000e-002) (758, -5.43212898719502850000e-004) (759, 3.13293461699686300000e-002) (760, 4.79520703684648070000e-002) (761, 8.34328095087542020000e-002) (762, 6.04775028212021160000e-002) (763, -1.52673709624127100000e-001) (764, -2.92939330005144160000e-001) (765, -2.32404953643000510000e-001) (766, -4.00744083173242450000e-001) (767, -3.49089843660475570000e-001) (768, -6.12437232988375930000e-001) (769, -1.50738450012031230000e+000) (770, -1.32393574525584730000e+000) (771, -1.14450522330565470000e+000) (772, -1.38944693959353560000e+000) (773, -1.84997982222721880000e+000) (774, -1.28557404909422960000e+000) (775, -1.96632614681823970000e-001) (776, 1.66168458507736900000e-001) (777, -1.08471038131120860000e-001) (778, -2.22101275591236990000e-001) (779, -8.98829613059672350000e-002) (780, 7.03063975320219470000e-002) (781, -6.64306650523940330000e-002) (782, 5.37536629103669840000e-002) (783, -2.85766605820754190000e-002) (784, 3.63470642281661240000e+000) (0, -5.45349129220085160000e-002) (1, -8.15185559022211240000e-002) (2, -3.76953130617039280000e-002) (3, 7.25708018626392000000e-002) (4, -7.45361339231749300000e-002) (5, -1.09313966472655010000e-002) (6, -8.86291517113022560000e-002) (7, -3.48510747380714750000e-002) (8, -3.83911138533221670000e-002) (9, -6.06384286379579860000e-002) (10, 8.31237805355158340000e-002) (11, -1.44836427939480930000e-002) (12, 8.84085388486179490000e-002) (13, 1.73954247251019630000e-001) (14, 9.29117655746425770000e-002) (15, 3.11008873665444900000e-002) (16, -6.84082041443616620000e-002) (17, -3.63952642142066910000e-002) (18, 2.42614749708991440000e-002) (19, 7.13134776251536100000e-002) (20, 4.56909186495977340000e-002) (21, 6.80358896856887440000e-002) (22, -1.16882325960432350000e-002) (23, 9.43542494528628590000e-002) (24, -1.07788087543667640000e-002) (25, -7.50793468218944330000e-002) (26, -2.09167483585588340000e-002) (27, -3.37097172991889240000e-002) (28, 5.51269539464556150000e-002) (29, 3.87023931548355900000e-002) (30, 3.33251958090841070000e-002) (31, 2.65686039115280440000e-002) (32, -2.40539554365568620000e-002) (33, 5.85652298303471070000e-002) (34, -7.42201157280939770000e-002) (35, 2.69337210203734020000e-002) (36, 1.52050384335061540000e-001) (37, -4.31235293274498800000e-002) (38, -2.90004064209086030000e-002) (39, -9.73249472961795620000e-002) (40, -2.35896533401682260000e-002) (41, -5.72065990316038230000e-004) (42, -8.04047258667573840000e-002) (43, 5.90647440619526160000e-003) (44, 4.61741495169886270000e-001) (45, 2.24075946033322450000e-001) (46, -1.77864696618380000000e-001) (47, -1.41882705102980430000e-001) (48, -8.24416816758782170000e-002) (49, -2.87117542846452910000e-001) (50, -1.32059391559006200000e-001) (51, 5.26026021832530570000e-002) (52, -5.93383797904607490000e-002) (53, 4.24194342258488180000e-002) (54, 5.29113777415659570000e-002) (55, 4.04418951338811890000e-002) (56, 2.19238284516904970000e-002) (57, -5.79895028172359160000e-002) (58, -2.16674807916206190000e-003) (59, 9.76100051122303640000e-002) (60, -7.23480923244273210000e-002) (61, -1.16966459444986760000e-001) (62, -1.49908372168871730000e-001) (63, -4.81677646008693990000e-003) (64, 2.56526104768762250000e-001) (65, -5.92530247352924810000e-001) (66, -4.59807436200241340000e-001) (67, -1.19696180459241530000e-001) (68, -1.12440092552115530000e+000) (69, -1.73594383280779470000e+000) (70, -2.62781446963448360000e+000) (71, -4.49357271393078060000e+000) (72, -5.54829054945535560000e+000) (73, -5.99630940696355720000e+000) (74, -5.03153741201724980000e+000) (75, -5.15831934343159390000e+000) (76, -2.31186689119712650000e+000) (77, -1.00968695783280230000e+000) (78, -4.58915271429523370000e-001) (79, -2.43043291091965570000e-001) (80, 1.10608204608794710000e-001) (81, 2.23786996192622200000e-002) (82, 4.04357916181652400000e-002) (83, -6.74682627241054430000e-002) (84, 1.40502931781156800000e-002) (85, 6.31896982072248650000e-002) (86, 2.04793241321195690000e-002) (87, 1.53489075146970990000e-001) (88, -9.82167311228988040000e-002) (89, -1.62450854001825880000e-001) (90, 4.82456847682376440000e-002) (91, 2.00326020389600410000e+000) (92, 3.01676937061444940000e+000) (93, 3.64096489781364690000e+000) (94, 4.85819547168868130000e+000) (95, 5.26255172658016420000e+000) (96, 4.16648807644689700000e+000) (97, 1.00991997141859670000e+000) (98, -4.93650069596528860000e+000) (99, -5.68130918572859760000e+000) (100, -8.81797236652003140000e+000) (101, -1.17533387745117590000e+001) (102, -1.22838364867769450000e+001) (103, -9.40490282754501190000e+000) (104, -5.31190106759202420000e+000) (105, -3.47994556129604590000e+000) (106, -3.34205789171535410000e+000) (107, -5.93986068461203500000e-001) (108, 6.91319097214308400000e-001) (109, -3.49996879175777990000e-001) (110, -5.40401053870895040000e-002) (111, -3.25805668917382720000e-002) (112, -2.75634769732278070000e-002) (113, -6.68129500926950000000e-002) (114, -5.58211965768682860000e-002) (115, -7.44037364256102950000e-002) (116, 3.18223002767443970000e-001) (117, 1.63708349850979640000e+000) (118, 5.34427582792531640000e+000) (119, 9.24823823367250060000e+000) (120, 1.54690340534550900000e+001) (121, 1.93223586522600930000e+001) (122, 2.05227538818687800000e+001) (123, 2.17139955969876580000e+001) (124, 2.53448536381278410000e+001) (125, 2.93775910632335450000e+001) (126, 2.72567087070776210000e+001) (127, 2.25882131908972140000e+001) (128, 1.23346903541318070000e+001) (129, 3.28420360144706800000e-002) (130, -6.58538333772174060000e+000) (131, -1.30093206318200170000e+001) (132, -1.14134172098961780000e+001) (133, -1.44572587860094770000e+001) (134, -1.32602878772051230000e+001) (135, -1.26840249994066610000e+001) (136, -8.43206967794829330000e+000) (137, -3.23999359869923120000e+000) (138, -1.23600034147141290000e+000) (139, 9.78102274974766360000e-003) (140, 9.89318862398249620000e-002) (141, -1.20422365075683050000e-002) (142, -7.81332797042435380000e-002) (143, 5.23264285563236010000e-001) (144, 1.95678870093419180000e+000) (145, 5.97256234481634780000e+000) (146, 1.32132484008146670000e+001) (147, 1.89588167557697890000e+001) (148, 2.37949728735123750000e+001) (149, 2.86822841372048350000e+001) (150, 2.66032485333383090000e+001) (151, 2.42439543572217030000e+001) (152, 2.78015193621347300000e+001) (153, 3.43099129268305630000e+001) (154, 3.73139822253621390000e+001) (155, 4.30245073738880850000e+001) (156, 3.36103586684642930000e+001) (157, 2.26447851633271390000e+001) (158, 2.99537719206057100000e+000) (159, -1.05866144470680350000e+001) (160, -2.48129505763201370000e+001) (161, -2.85895460270047860000e+001) (162, -3.46313465998868960000e+001) (163, -3.44332672757531600000e+001) (164, -2.36473437294799140000e+001) (165, -8.16584642800722980000e+000) (166, -2.10678526534147710000e+000) (167, 1.51831979395423730000e-001) (168, -9.26879896624086540000e-002) (169, 9.36920925271491620000e-002) (170, -1.31921952090293980000e-001) (171, 9.88249893400129360000e-001) (172, 4.25048186777473800000e+000) (173, 9.84670911428004560000e+000) (174, 1.98129935957300630000e+001) (175, 2.60165393378191890000e+001) (176, 2.23136448654434040000e+001) (177, 2.13446763264097970000e+001) (178, 1.70958327663955140000e+001) (179, 1.15041943296696340000e+001) (180, 1.19329273758408760000e+001) (181, 2.21372007020663480000e+001) (182, 2.94651414061271950000e+001) (183, 3.32359578950295930000e+001) (184, 3.41166100782770560000e+001) (185, 3.09684145956044040000e+001) (186, 9.27700256663131210000e+000) (187, -8.79258540160341620000e+000) (188, -2.17809662219060840000e+001) (189, -2.67846406357492340000e+001) (190, -3.08444372960995070000e+001) (191, -4.71498637032691970000e+001) (192, -4.50301239140178710000e+001) (193, -2.14825365845752360000e+001) (194, -6.82608719793746220000e+000) (195, -3.99742944349000100000e-001) (196, -4.40048629001897760000e-002) (197, 2.38744372121077910000e-002) (198, 9.37867681254787870000e-002) (199, 1.13636235770531170000e+000) (200, 6.29812421554940190000e+000) (201, 1.43324309518535850000e+001) (202, 2.12059362802652100000e+001) (203, 1.86740917124296570000e+001) (204, 5.50390593825272220000e+000) (205, 6.72872075961166340000e+000) (206, 5.97736262503729150000e+000) (207, 2.32026138117109150000e+000) (208, 4.94387068527685790000e+000) (209, 1.20441920126594740000e+001) (210, 1.47663223923491320000e+001) (211, 2.40523480256959630000e+001) (212, 3.12667321907222800000e+001) (213, 2.77720371919563330000e+001) (214, 9.70025208880471190000e+000) (215, -5.85507864261633060000e+000) (216, -1.45189919453461160000e+001) (217, -2.28409563472941170000e+001) (218, -3.08930564356913920000e+001) (219, -5.26910344182211860000e+001) (220, -6.24844672085056130000e+001) (221, -3.68737414806867250000e+001) (222, -9.42578974303030390000e+000) (223, -3.99667386143281340000e-001) (224, 1.31112323989055590000e-001) (225, 1.45505584093080620000e-001) (226, 1.84174624225846100000e-001) (227, 1.47958214759617790000e+000) (228, 7.34250222681506060000e+000) (229, 1.44134370095218160000e+001) (230, 1.37367074967261170000e+001) (231, 9.15521871538194890000e+000) (232, -5.13448866695376370000e-001) (233, -3.09048865702747030000e+000) (234, -3.41098219783242440000e+000) (235, -1.07937414736993670000e+001) (236, -7.23970966774811230000e+000) (237, -3.11525646353421280000e+000) (238, 1.56033109812898200000e+001) (239, 3.02586693586662960000e+001) (240, 3.50821973941243290000e+001) (241, 3.63152282645906720000e+001) (242, 2.60837556575002300000e+001) (243, 4.45218166853495310000e+000) (244, -3.17512302315172470000e+000) (245, -1.78120425436079300000e+001) (246, -2.23065421019584240000e+001) (247, -4.30079007353773260000e+001) (248, -6.28260907871115610000e+001) (249, -3.86411344951232460000e+001) (250, -9.00307630966700320000e+000) (251, -2.42519130415255520000e-001) (252, 4.65673018446208160000e-002) (253, -2.92472666472275430000e-002) (254, 2.74973663514011650000e-001) (255, 1.96347315418810300000e+000) (256, 6.64044964106794570000e+000) (257, 1.13343234504402090000e+001) (258, 4.02527292253600330000e+000) (259, -6.74515741281388070000e+000) (260, -1.94132558510045070000e+001) (261, -2.28348017649883700000e+001) (262, -2.57555954899949420000e+001) (263, -3.51028926395036220000e+001) (264, -3.39754565676285130000e+001) (265, -1.46021712246451100000e+001) (266, 3.75674741122789910000e+000) (267, 1.65231775010852930000e+001) (268, 3.95253465668889850000e+001) (269, 4.92752065471052130000e+001) (270, 4.85573038934371230000e+001) (271, 3.65947866723376260000e+001) (272, 2.26163571993548730000e+001) (273, 7.17065170025224850000e-001) (274, -5.42214198850634070000e+000) (275, -2.26636568816826090000e+001) (276, -4.54183944915575710000e+001) (277, -3.41648703366647200000e+001) (278, -7.00057252718293470000e+000) (279, -1.86971586217858750000e-001) (280, 3.97373354436898270000e-002) (281, 1.41481174384638570000e-002) (282, 2.12411859857763700000e-001) (283, 1.17374185629682870000e+000) (284, 1.51548589905829360000e+000) (285, 2.69378095006584490000e+000) (286, -8.96545462663169520000e+000) (287, -2.82748745721208860000e+001) (288, -4.01185196724369460000e+001) (289, -4.65315503529885750000e+001) (290, -4.86214899370519480000e+001) (291, -4.96399500720305300000e+001) (292, -4.87226197408321160000e+001) (293, -3.89521506600481470000e+001) (294, -3.41381798140952240000e+001) (295, -1.61902353478024390000e+001) (296, 1.96175218561095190000e+001) (297, 5.35882425081797180000e+001) (298, 6.98770371533327360000e+001) (299, 6.67766625696515210000e+001) (300, 5.34659567175559540000e+001) (301, 3.46137874412001660000e+001) (302, 2.53438931932816340000e+001) (303, 6.62138733303154760000e+000) (304, -1.82117232585063820000e+001) (305, -2.28028049956014200000e+001) (306, -6.14293748140580490000e+000) (307, -4.99942008469528410000e-001) (308, -7.82070998162600480000e-002) (309, -4.29207811587073300000e-002) (310, -1.99718862773130310000e-001) (311, 3.61884137275045760000e-001) (312, -3.05889071692119430000e+000) (313, -7.35205987570208120000e+000) (314, -2.51651016100807360000e+001) (315, -4.00123016722589920000e+001) (316, -4.93783402631278750000e+001) (317, -5.08276529356586340000e+001) (318, -5.70362962258085910000e+001) (319, -5.80764599147711780000e+001) (320, -6.54238039101542770000e+001) (321, -6.60179857786042700000e+001) (322, -6.32999459299375570000e+001) (323, -4.05150343130238260000e+001) (324, 2.10123191943516920000e+000) (325, 3.36306212339872630000e+001) (326, 4.95669203685130670000e+001) (327, 6.00738781257987500000e+001) (328, 5.85787047603394200000e+001) (329, 5.32896780441869710000e+001) (330, 4.64599675035019570000e+001) (331, 3.24520626292316830000e+001) (332, 5.20159783679308950000e+000) (333, -1.08671579996608560000e+001) (334, -3.34054455611583380000e+000) (335, -4.59720793813754190000e-001) (336, 2.53167368782936770000e-002) (337, 5.74655144603925110000e-002) (338, -3.27713938429598780000e-002) (339, -7.40658763171589740000e-001) (340, -5.40446425869258730000e+000) (341, -9.55386830939582410000e+000) (342, -2.60811384576109230000e+001) (343, -4.22865956762039800000e+001) (344, -5.11807712315813250000e+001) (345, -4.81278470148871660000e+001) (346, -5.21746291923345570000e+001) (347, -5.36792555070075180000e+001) (348, -5.82014379652742310000e+001) (349, -7.78127965555541860000e+001) (350,