FANN_FLO_2.1
num_layers=3
learning_rate=0.500000
connection_rate=1.000000
network_type=0
learning_momentum=0.800000
training_algorithm=0
train_error_function=1
train_stop_function=0
cascade_output_change_fraction=0.010000
quickprop_decay=-0.000100
quickprop_mu=1.750000
rprop_increase_factor=1.200000
rprop_decrease_factor=0.500000
rprop_delta_min=0.000000
rprop_delta_max=50.000000
rprop_delta_zero=0.100000
cascade_output_stagnation_epochs=12
cascade_candidate_change_fraction=0.010000
cascade_candidate_stagnation_epochs=12
cascade_max_out_epochs=150
cascade_min_out_epochs=50
cascade_max_cand_epochs=150
cascade_min_cand_epochs=50
cascade_num_candidate_groups=2
bit_fail_limit=3.49999999999999980000e-001
cascade_candidate_limit=1.00000000000000000000e+003
cascade_weight_multiplier=4.00000000000000020000e-001
cascade_activation_functions_count=10
cascade_activation_functions=3 5 7 8 10 11 14 15 16 17 
cascade_activation_steepnesses_count=4
cascade_activation_steepnesses=2.50000000000000000000e-001 5.00000000000000000000e-001 7.50000000000000000000e-001 1.00000000000000000000e+000 
layer_sizes=785 31 11 
scale_included=1
scale_mean_in=0.000000 0.000000 0.000000 0.000000 0.000000 0.000000 0.000000 0.000000 0.000000 0.000000 0.000000 0.000000 0.000001 0.000019 0.000019 0.000001 0.000000 0.000000 0.000000 0.000000 0.000000 0.000000 0.000000 0.000000 0.000000 0.000000 0.000000 0.000000 0.000000 0.000000 0.000000 0.000000 0.000000 0.000001 0.000048 0.000104 0.000162 0.000246 0.000510 0.000675 0.000654 0.000671 0.000695 0.000618 0.000722 0.000632 0.000430 0.000301 0.000213 0.000085 0.000043 0.000018 0.000000 0.000000 0.000000 0.000000 0.000000 0.000000 0.000000 0.000004 0.000033 0.000019 0.000176 0.000596 0.001097 0.002053 0.003294 0.005000 0.007191 0.009624 0.012523 0.014257 0.014644 0.013237 0.010768 0.007929 0.004588 0.002283 0.001022 0.000333 0.000122 0.000020 0.000000 0.000000 0.000000 0.000000 0.000005 0.000030 0.000053 0.000312 0.000927 0.002340 0.004614 0.008576 0.013975 0.020909 0.028576 0.037525 0.046453 0.052236 0.052135 0.046646 0.037310 0.026463 0.015823 0.008433 0.003778 0.001382 0.000519 0.000102 0.000015 0.000000 0.000000 0.000003 0.000020 0.000059 0.000334 0.001652 0.004179 0.009490 0.018407 0.032428 0.051290 0.074996 0.104864 0.137183 0.163131 0.176820 0.174413 0.154148 0.122332 0.089402 0.057457 0.033036 0.017303 0.008168 0.003368 0.000795 0.000125 0.000011 0.000000 0.000000 0.000040 0.000222 0.001469 0.005536 0.013645 0.027877 0.050247 0.082173 0.122071 0.172386 0.230018 0.288523 0.332639 0.355028 0.349013 0.314619 0.258774 0.195919 0.134640 0.083930 0.048409 0.025933 0.011688 0.003139 0.000495 0.000013 0.000000 0.000000 0.000122 0.000785 0.004112 0.012307 0.028241 0.054925 0.093708 0.145165 0.207709 0.278168 0.349957 0.415706 0.463603 0.485396 0.476840 0.439387 0.377318 0.296411 0.212959 0.139256 0.082833 0.044892 0.020930 0.006911 0.001302 0.000092 0.000004 0.000088 0.000424 0.002278 0.008769 0.022772 0.048113 0.087266 0.142070 0.210863 0.289624 0.369974 0.438287 0.489985 0.519536 0.529521 0.522372 0.497398 0.446187 0.369660 0.275128 0.184571 0.111318 0.059803 0.027498 0.009908 0.002003 0.000107 0.000021 0.000215 0.001273 0.005000 0.014227 0.032691 0.065466 0.115884 0.184813 0.268013 0.355555 0.427237 0.470294 0.484329 0.481970 0.478537 0.480007 0.479867 0.457586 0.397156 0.305344 0.208163 0.125795 0.064679 0.027900 0.010083 0.001882 0.000073 0.000009 0.000293 0.001974 0.006480 0.017113 0.038217 0.075988 0.135244 0.215091 0.306582 0.389028 0.435558 0.436491 0.410303 0.386470 0.387398 0.407747 0.435272 0.436850 0.390347 0.303764 0.208047 0.124015 0.061020 0.023293 0.007415 0.001318 0.000086 0.000016 0.000410 0.002188 0.006487 0.016693 0.038493 0.080198 0.146271 0.234189 0.327384 0.394381 0.406131 0.369221 0.324436 0.308361 0.328858 0.366796 0.410439 0.418031 0.371210 0.283605 0.190849 0.112828 0.054079 0.018528 0.004664 0.000867 0.000077 0.000029 0.000320 0.001789 0.005154 0.014364 0.037499 0.083008 0.156731 0.251855 0.343633 0.389865 0.373925 0.320173 0.286325 0.296478 0.333939 0.381572 0.423132 0.416140 0.351320 0.256109 0.167555 0.100182 0.050296 0.016095 0.002380 0.000451 0.000031 0.000014 0.000170 0.000986 0.003449 0.012027 0.037369 0.089720 0.171931 0.272526 0.356277 0.385862 0.357161 0.312188 0.310667 0.349553 0.398183 0.443642 0.462004 0.422993 0.332765 0.231268 0.150895 0.093923 0.050479 0.016990 0.001637 0.000272 0.000038 0.000003 0.000085 0.000490 0.002261 0.011405 0.041768 0.100787 0.188136 0.287822 0.362198 0.380746 0.356600 0.340317 0.379833 0.435728 0.485830 0.509523 0.497103 0.427293 0.318879 0.217439 0.146543 0.095133 0.054161 0.020267 0.002256 0.000312 0.000032 0.000000 0.000043 0.000211 0.001735 0.011933 0.048816 0.112645 0.199419 0.291812 0.356468 0.373624 0.365451 0.383178 0.451786 0.509895 0.547302 0.538364 0.502434 0.418232 0.311327 0.220212 0.153665 0.101279 0.058160 0.022691 0.003197 0.000324 0.000007 0.000001 0.000020 0.000179 0.001934 0.013805 0.057009 0.122344 0.201583 0.281232 0.337018 0.358540 0.368536 0.410501 0.482095 0.531512 0.545031 0.517164 0.475229 0.395948 0.307298 0.228556 0.162436 0.106564 0.058562 0.022811 0.004103 0.000510 0.000040 0.000003 0.000021 0.000302 0.002467 0.017313 0.065258 0.128244 0.196635 0.260634 0.305014 0.326829 0.348589 0.394467 0.452764 0.494297 0.498272 0.473958 0.434655 0.373268 0.303221 0.233157 0.164564 0.104621 0.055552 0.021587 0.004729 0.000657 0.000060 0.000000 0.000032 0.000423 0.003755 0.023343 0.073094 0.131672 0.189524 0.236940 0.270696 0.290571 0.314132 0.349282 0.397834 0.440018 0.450889 0.439492 0.408926 0.362621 0.302938 0.231695 0.159200 0.097168 0.049957 0.019851 0.005261 0.000746 0.000037 0.000010 0.000022 0.000588 0.005777 0.030109 0.081130 0.137543 0.188729 0.227460 0.257772 0.279548 0.298212 0.322998 0.370519 0.416189 0.438936 0.437368 0.411990 0.366371 0.299318 0.221025 0.146730 0.087863 0.044199 0.017717 0.005082 0.000651 0.000039 0.000000 0.000027 0.001040 0.007857 0.034706 0.086485 0.145394 0.200007 0.243977 0.278882 0.304416 0.322260 0.350754 0.395622 0.439872 0.461993 0.455879 0.422348 0.362275 0.281095 0.198349 0.126579 0.072600 0.035288 0.014087 0.003994 0.000557 0.000014 0.000000 0.000046 0.001340 0.008717 0.033566 0.082040 0.147435 0.212422 0.270359 0.318942 0.354541 0.383256 0.417468 0.459146 0.490244 0.493049 0.464339 0.408152 0.329403 0.239508 0.159822 0.096803 0.052894 0.025383 0.010684 0.002783 0.000401 0.000004 0.000003 0.000045 0.001132 0.006912 0.025787 0.066721 0.130195 0.203761 0.277366 0.343002 0.396461 0.440316 0.480534 0.511689 0.517997 0.490006 0.431426 0.350801 0.261301 0.178415 0.111720 0.063566 0.033446 0.016247 0.006768 0.001742 0.000241 0.000003 0.000003 0.000001 0.000644 0.004128 0.015045 0.042687 0.092133 0.160586 0.240288 0.318622 0.388846 0.442902 0.480599 0.491838 0.473095 0.419854 0.343631 0.258812 0.178864 0.113071 0.065899 0.035651 0.018499 0.008803 0.003298 0.000759 0.000074 0.000006 0.000000 0.000000 0.000201 0.001606 0.006574 0.019254 0.046766 0.094011 0.158188 0.231699 0.303692 0.360772 0.391566 0.389569 0.355648 0.296358 0.225743 0.158266 0.101018 0.059987 0.032972 0.017196 0.008675 0.003802 0.001192 0.000232 0.000024 0.000000 0.000000 0.000000 0.000038 0.000458 0.002139 0.006251 0.016319 0.035927 0.066183 0.106521 0.150080 0.185950 0.204075 0.201051 0.179052 0.144095 0.107592 0.075622 0.047964 0.028342 0.015287 0.007659 0.003691 0.001484 0.000359 0.000092 0.000010 0.000000 0.000000 0.000000 0.000001 0.000047 0.000462 0.001696 0.005264 0.012119 0.023705 0.038298 0.054596 0.066281 0.071949 0.070316 0.063224 0.051834 0.041388 0.031065 0.020856 0.012464 0.006574 0.003140 0.001450 0.000506 0.000094 0.000008 0.000009 0.000000 0.000000 0.000000 0.000000 0.000000 0.000124 0.000527 0.001998 0.004597 0.008881 0.013561 0.019349 0.024102 0.025736 0.024715 0.022098 0.017580 0.013687 0.010295 0.006919 0.004098 0.002138 0.000912 0.000308 0.000067 0.000000 0.000005 0.000000 0.000000 0.000000 0.000000 0.000000 0.000000 0.000008 0.000048 0.000172 0.000315 0.000421 0.000809 0.001396 0.001773 0.002195 0.002523 0.002807 0.002275 0.001845 0.001401 0.000818 0.000329 0.000110 0.000038 0.000051 0.000010 0.000000 0.000000 0.000000 0.000000 
scale_deviation_in=0.000000 0.000000 0.000000 0.000000 0.000000 0.000000 0.000000 0.000000 0.000000 0.000000 0.000000 0.000000 0.000185 0.003993 0.003993 0.000166 0.000000 0.000000 0.000000 0.000000 0.000000 0.000000 0.000000 0.000000 0.000000 0.000000 0.000000 0.000000 0.000000 0.000000 0.000000 0.000000 0.000000 0.000148 0.004777 0.009108 0.011301 0.012477 0.020205 0.022476 0.021920 0.021909 0.022617 0.021470 0.023365 0.021941 0.017523 0.015185 0.012706 0.007391 0.005040 0.003652 0.000000 0.000000 0.000000 0.000000 0.000000 0.000000 0.000000 0.000587 0.003657 0.001685 0.010039 0.020631 0.028604 0.038961 0.049733 0.060575 0.073324 0.084209 0.096807 0.102876 0.105516 0.100628 0.090424 0.078508 0.059093 0.041557 0.027176 0.015118 0.009270 0.003219 0.000000 0.000000 0.000000 0.000000 0.000803 0.002983 0.003643 0.013532 0.024730 0.040859 0.058302 0.080501 0.102823 0.126478 0.146839 0.168046 0.187323 0.198668 0.197374 0.187722 0.168325 0.142668 0.108725 0.080172 0.051309 0.031389 0.019059 0.006688 0.002400 0.000000 0.000000 0.000702 0.002832 0.003770 0.014066 0.033140 0.052787 0.082128 0.115424 0.154244 0.194170 0.232855 0.270512 0.304807 0.328028 0.338656 0.336397 0.319820 0.289618 0.251315 0.203309 0.154161 0.110655 0.076073 0.047970 0.020875 0.008622 0.001596 0.000000 0.000000 0.003455 0.010825 0.028777 0.062515 0.099121 0.142884 0.191586 0.242618 0.290294 0.334922 0.374002 0.403867 0.420096 0.425537 0.423106 0.412116 0.388175 0.351703 0.300728 0.241850 0.185790 0.136576 0.089004 0.042983 0.016226 0.001915 0.000000 0.000074 0.007664 0.022606 0.053378 0.094162 0.143715 0.200807 0.259114 0.314283 0.361773 0.397991 0.422801 0.435839 0.440034 0.440612 0.440552 0.439810 0.431088 0.407590 0.365436 0.307024 0.242983 0.180303 0.121626 0.067783 0.028254 0.006686 0.000869 0.006189 0.016092 0.039103 0.078744 0.129095 0.187699 0.249649 0.309734 0.361013 0.398971 0.421685 0.431154 0.433015 0.433234 0.431662 0.432621 0.434075 0.435054 0.426488 0.396776 0.345327 0.278890 0.207143 0.139636 0.082563 0.035388 0.006854 0.003664 0.011849 0.029511 0.060255 0.103662 0.156220 0.219043 0.284461 0.346278 0.392930 0.421151 0.433124 0.435362 0.436324 0.436021 0.434255 0.434364 0.435231 0.436629 0.432871 0.410860 0.363529 0.295656 0.215726 0.141511 0.083994 0.034742 0.006220 0.001534 0.014511 0.037650 0.070651 0.114580 0.169599 0.235628 0.305842 0.368191 0.409197 0.431265 0.436840 0.436471 0.432246 0.426752 0.425472 0.428257 0.433331 0.435668 0.431800 0.410434 0.365090 0.294082 0.209217 0.128875 0.070863 0.028421 0.007248 0.003420 0.017702 0.040334 0.071113 0.113726 0.169943 0.241561 0.315548 0.378665 0.416952 0.432725 0.434717 0.423460 0.408035 0.402408 0.411391 0.421225 0.430489 0.433322 0.428078 0.402617 0.353564 0.282691 0.197793 0.115025 0.056558 0.023602 0.006312 0.003784 0.014613 0.036261 0.062160 0.104366 0.166350 0.244784 0.324160 0.387727 0.422665 0.432341 0.427271 0.408079 0.392023 0.402084 0.417290 0.423467 0.431193 0.433008 0.423773 0.389006 0.334009 0.269910 0.192913 0.106086 0.038621 0.016512 0.003249 0.003013 0.010464 0.026713 0.050316 0.094509 0.165521 0.253872 0.337566 0.398895 0.427937 0.432224 0.424103 0.407271 0.404105 0.426792 0.434729 0.430243 0.435661 0.436565 0.417660 0.373415 0.319493 0.263395 0.196055 0.109845 0.032035 0.013327 0.003658 0.000592 0.007413 0.019169 0.039577 0.091998 0.174780 0.268879 0.350744 0.407267 0.430191 0.431720 0.423970 0.416867 0.426723 0.446174 0.437354 0.431371 0.439526 0.437395 0.411232 0.365162 0.316929 0.266026 0.204139 0.122384 0.037699 0.013326 0.004769 0.000000 0.004676 0.011638 0.034470 0.092704 0.188827 0.284116 0.360505 0.409983 0.429403 0.430137 0.424916 0.424097 0.437055 0.445790 0.429633 0.430613 0.440338 0.434970 0.408638 0.368615 0.324414 0.273312 0.210945 0.130312 0.046460 0.013526 0.001083 0.000129 0.004179 0.009552 0.036246 0.098767 0.204733 0.295758 0.362993 0.405256 0.424381 0.425750 0.424752 0.429542 0.441466 0.441683 0.428741 0.436574 0.441929 0.430592 0.408256 0.374727 0.333061 0.278836 0.209848 0.130339 0.054076 0.017971 0.004081 0.000739 0.002678 0.013711 0.040710 0.110901 0.219202 0.302736 0.359428 0.394790 0.411873 0.415572 0.419756 0.430996 0.442740 0.441852 0.436150 0.439950 0.436107 0.425458 0.407536 0.379366 0.334128 0.275587 0.203569 0.124956 0.057744 0.020197 0.006180 0.000000 0.003451 0.016600 0.051065 0.131479 0.232916 0.306058 0.353545 0.381981 0.397380 0.404059 0.412392 0.425682 0.434723 0.439052 0.438110 0.435431 0.430109 0.424464 0.409124 0.378730 0.329393 0.264995 0.192462 0.118540 0.061163 0.021869 0.003247 0.001456 0.003730 0.018887 0.063868 0.150424 0.246012 0.312348 0.353156 0.376484 0.392100 0.402497 0.410362 0.416336 0.427071 0.435484 0.435076 0.431743 0.432358 0.427228 0.409722 0.373033 0.318499 0.253265 0.180674 0.112890 0.059829 0.020498 0.004284 0.000000 0.003682 0.027055 0.076153 0.162626 0.254648 0.320698 0.362038 0.386246 0.402892 0.413406 0.420057 0.425194 0.432118 0.436592 0.435502 0.433514 0.435744 0.427848 0.401785 0.358180 0.298535 0.230638 0.161406 0.101031 0.052531 0.019530 0.002065 0.000000 0.004944 0.030198 0.080808 0.160050 0.247286 0.321626 0.371902 0.401290 0.418612 0.428175 0.432977 0.435695 0.437530 0.436611 0.435978 0.436039 0.433543 0.418013 0.382601 0.328419 0.263885 0.197134 0.136271 0.087928 0.042888 0.015946 0.000943 0.000592 0.004691 0.028010 0.070356 0.137427 0.221839 0.302614 0.365844 0.405696 0.427184 0.436072 0.437139 0.435728 0.432758 0.433433 0.434984 0.433343 0.421391 0.391872 0.341638 0.280068 0.214975 0.157188 0.108893 0.069506 0.034584 0.011372 0.000721 0.000573 0.000226 0.019914 0.052951 0.102760 0.174778 0.254898 0.328747 0.384914 0.420081 0.437371 0.442184 0.441089 0.439967 0.440065 0.436419 0.420161 0.389456 0.340750 0.280622 0.217653 0.161542 0.116071 0.079332 0.046742 0.020205 0.006164 0.001331 0.000000 0.000000 0.009776 0.031389 0.066693 0.115294 0.179970 0.253811 0.322330 0.375687 0.411137 0.428337 0.433584 0.432342 0.422892 0.403073 0.368396 0.321011 0.264443 0.207296 0.155469 0.112609 0.078901 0.051355 0.027508 0.012129 0.002454 0.000000 0.000000 0.000000 0.004397 0.016147 0.037183 0.065945 0.106674 0.160614 0.217740 0.273633 0.318375 0.347517 0.358226 0.355449 0.338401 0.307522 0.271756 0.232092 0.186593 0.145626 0.106374 0.076072 0.051936 0.031514 0.014631 0.007592 0.001842 0.000000 0.000000 0.000000 0.000296 0.004640 0.017723 0.033822 0.061923 0.095844 0.136001 0.172049 0.204397 0.223432 0.232305 0.229091 0.216523 0.196037 0.176500 0.153511 0.126639 0.097635 0.070186 0.048303 0.031465 0.018230 0.006817 0.001608 0.001923 0.000000 0.000000 0.000000 0.000000 0.000000 0.008215 0.018378 0.038235 0.058929 0.082678 0.101656 0.122079 0.136198 0.139412 0.136333 0.129512 0.114367 0.101357 0.088339 0.072509 0.055381 0.040375 0.025604 0.014288 0.005119 0.000000 0.001091 0.000000 0.000000 0.000000 0.000000 0.000000 0.000000 0.001738 0.005752 0.010700 0.015166 0.016312 0.025017 0.031326 0.036568 0.040099 0.042779 0.045534 0.040778 0.036345 0.032061 0.023998 0.015060 0.008065 0.003938 0.006630 0.001569 0.000000 0.000000 0.000000 0.000000 
scale_new_min_in=0.000000 0.000000 0.000000 0.000000 0.000000 0.000000 0.000000 0.000000 0.000000 0.000000 0.000000 0.000000 0.000000 0.000000 0.000000 0.000000 0.000000 0.000000 0.000000 0.000000 0.000000 0.000000 0.000000 0.000000 0.000000 0.000000 0.000000 0.000000 0.000000 0.000000 0.000000 0.000000 0.000000 0.000000 0.000000 0.000000 0.000000 0.000000 0.000000 0.000000 0.000000 0.000000 0.000000 0.000000 0.000000 0.000000 0.000000 0.000000 0.000000 0.000000 0.000000 0.000000 0.000000 0.000000 0.000000 0.000000 0.000000 0.000000 0.000000 0.000000 0.000000 0.000000 0.000000 0.000000 0.000000 0.000000 0.000000 0.000000 0.000000 0.000000 0.000000 0.000000 0.000000 0.000000 0.000000 0.000000 0.000000 0.000000 0.000000 0.000000 0.000000 0.000000 0.000000 0.000000 0.000000 0.000000 0.000000 0.000000 0.000000 0.000000 0.000000 0.000000 0.000000 0.000000 0.000000 0.000000 0.000000 0.000000 0.000000 0.000000 0.000000 0.000000 0.000000 0.000000 0.000000 0.000000 0.000000 0.000000 0.000000 0.000000 0.000000 0.000000 0.000000 0.000000 0.000000 0.000000 0.000000 0.000000 0.000000 0.000000 0.000000 0.000000 0.000000 0.000000 0.000000 0.000000 0.000000 0.000000 0.000000 0.000000 0.000000 0.000000 0.000000 0.000000 0.000000 0.000000 0.000000 0.000000 0.000000 0.000000 0.000000 0.000000 0.000000 0.000000 0.000000 0.000000 0.000000 0.000000 0.000000 0.000000 0.000000 0.000000 0.000000 0.000000 0.000000 0.000000 0.000000 0.000000 0.000000 0.000000 0.000000 0.000000 0.000000 0.000000 0.000000 0.000000 0.000000 0.000000 0.000000 0.000000 0.000000 0.000000 0.000000 0.000000 0.000000 0.000000 0.000000 0.000000 0.000000 0.000000 0.000000 0.000000 0.000000 0.000000 0.000000 0.000000 0.000000 0.000000 0.000000 0.000000 0.000000 0.000000 0.000000 0.000000 0.000000 0.000000 0.000000 0.000000 0.000000 0.000000 0.000000 0.000000 0.000000 0.000000 0.000000 0.000000 0.000000 0.000000 0.000000 0.000000 0.000000 0.000000 0.000000 0.000000 0.000000 0.000000 0.000000 0.000000 0.000000 0.000000 0.000000 0.000000 0.000000 0.000000 0.000000 0.000000 0.000000 0.000000 0.000000 0.000000 0.000000 0.000000 0.000000 0.000000 0.000000 0.000000 0.000000 0.000000 0.000000 0.000000 0.000000 0.000000 0.000000 0.000000 0.000000 0.000000 0.000000 0.000000 0.000000 0.000000 0.000000 0.000000 0.000000 0.000000 0.000000 0.000000 0.000000 0.000000 0.000000 0.000000 0.000000 0.000000 0.000000 0.000000 0.000000 0.000000 0.000000 0.000000 0.000000 0.000000 0.000000 0.000000 0.000000 0.000000 0.000000 0.000000 0.000000 0.000000 0.000000 0.000000 0.000000 0.000000 0.000000 0.000000 0.000000 0.000000 0.000000 0.000000 0.000000 0.000000 0.000000 0.000000 0.000000 0.000000 0.000000 0.000000 0.000000 0.000000 0.000000 0.000000 0.000000 0.000000 0.000000 0.000000 0.000000 0.000000 0.000000 0.000000 0.000000 0.000000 0.000000 0.000000 0.000000 0.000000 0.000000 0.000000 0.000000 0.000000 0.000000 0.000000 0.000000 0.000000 0.000000 0.000000 0.000000 0.000000 0.000000 0.000000 0.000000 0.000000 0.000000 0.000000 0.000000 0.000000 0.000000 0.000000 0.000000 0.000000 0.000000 0.000000 0.000000 0.000000 0.000000 0.000000 0.000000 0.000000 0.000000 0.000000 0.000000 0.000000 0.000000 0.000000 0.000000 0.000000 0.000000 0.000000 0.000000 0.000000 0.000000 0.000000 0.000000 0.000000 0.000000 0.000000 0.000000 0.000000 0.000000 0.000000 0.000000 0.000000 0.000000 0.000000 0.000000 0.000000 0.000000 0.000000 0.000000 0.000000 0.000000 0.000000 0.000000 0.000000 0.000000 0.000000 0.000000 0.000000 0.000000 0.000000 0.000000 0.000000 0.000000 0.000000 0.000000 0.000000 0.000000 0.000000 0.000000 0.000000 0.000000 0.000000 0.000000 0.000000 0.000000 0.000000 0.000000 0.000000 0.000000 0.000000 0.000000 0.000000 0.000000 0.000000 0.000000 0.000000 0.000000 0.000000 0.000000 0.000000 0.000000 0.000000 0.000000 0.000000 0.000000 0.000000 0.000000 0.000000 0.000000 0.000000 0.000000 0.000000 0.000000 0.000000 0.000000 0.000000 0.000000 0.000000 0.000000 0.000000 0.000000 0.000000 0.000000 0.000000 0.000000 0.000000 0.000000 0.000000 0.000000 0.000000 0.000000 0.000000 0.000000 0.000000 0.000000 0.000000 0.000000 0.000000 0.000000 0.000000 0.000000 0.000000 0.000000 0.000000 0.000000 0.000000 0.000000 0.000000 0.000000 0.000000 0.000000 0.000000 0.000000 0.000000 0.000000 0.000000 0.000000 0.000000 0.000000 0.000000 0.000000 0.000000 0.000000 0.000000 0.000000 0.000000 0.000000 0.000000 0.000000 0.000000 0.000000 0.000000 0.000000 0.000000 0.000000 0.000000 0.000000 0.000000 0.000000 0.000000 0.000000 0.000000 0.000000 0.000000 0.000000 0.000000 0.000000 0.000000 0.000000 0.000000 0.000000 0.000000 0.000000 0.000000 0.000000 0.000000 0.000000 0.000000 0.000000 0.000000 0.000000 0.000000 0.000000 0.000000 0.000000 0.000000 0.000000 0.000000 0.000000 0.000000 0.000000 0.000000 0.000000 0.000000 0.000000 0.000000 0.000000 0.000000 0.000000 0.000000 0.000000 0.000000 0.000000 0.000000 0.000000 0.000000 0.000000 0.000000 0.000000 0.000000 0.000000 0.000000 0.000000 0.000000 0.000000 0.000000 0.000000 0.000000 0.000000 0.000000 0.000000 0.000000 0.000000 0.000000 0.000000 0.000000 0.000000 0.000000 0.000000 0.000000 0.000000 0.000000 0.000000 0.000000 0.000000 0.000000 0.000000 0.000000 0.000000 0.000000 0.000000 0.000000 0.000000 0.000000 0.000000 0.000000 0.000000 0.000000 0.000000 0.000000 0.000000 0.000000 0.000000 0.000000 0.000000 0.000000 0.000000 0.000000 0.000000 0.000000 0.000000 0.000000 0.000000 0.000000 0.000000 0.000000 0.000000 0.000000 0.000000 0.000000 0.000000 0.000000 0.000000 0.000000 0.000000 0.000000 0.000000 0.000000 0.000000 0.000000 0.000000 0.000000 0.000000 0.000000 0.000000 0.000000 0.000000 0.000000 0.000000 0.000000 0.000000 0.000000 0.000000 0.000000 0.000000 0.000000 0.000000 0.000000 0.000000 0.000000 0.000000 0.000000 0.000000 0.000000 0.000000 0.000000 0.000000 0.000000 0.000000 0.000000 0.000000 0.000000 0.000000 0.000000 0.000000 0.000000 0.000000 0.000000 0.000000 0.000000 0.000000 0.000000 0.000000 0.000000 0.000000 0.000000 0.000000 0.000000 0.000000 0.000000 0.000000 0.000000 0.000000 0.000000 0.000000 0.000000 0.000000 0.000000 0.000000 0.000000 0.000000 0.000000 0.000000 0.000000 0.000000 0.000000 0.000000 0.000000 0.000000 0.000000 0.000000 0.000000 0.000000 0.000000 0.000000 0.000000 0.000000 0.000000 0.000000 0.000000 0.000000 0.000000 0.000000 0.000000 0.000000 0.000000 0.000000 0.000000 0.000000 0.000000 0.000000 0.000000 0.000000 0.000000 0.000000 0.000000 0.000000 0.000000 0.000000 0.000000 0.000000 0.000000 0.000000 0.000000 0.000000 0.000000 0.000000 0.000000 0.000000 0.000000 0.000000 0.000000 0.000000 0.000000 0.000000 0.000000 0.000000 0.000000 0.000000 0.000000 0.000000 0.000000 0.000000 0.000000 0.000000 0.000000 0.000000 0.000000 0.000000 0.000000 0.000000 0.000000 0.000000 0.000000 0.000000 0.000000 0.000000 0.000000 0.000000 0.000000 0.000000 0.000000 0.000000 0.000000 0.000000 0.000000 0.000000 0.000000 0.000000 0.000000 0.000000 0.000000 0.000000 0.000000 0.000000 0.000000 0.000000 0.000000 0.000000 0.000000 0.000000 0.000000 0.000000 0.000000 0.000000 0.000000 
scale_factor_in=0.500000 0.500000 0.500000 0.500000 0.500000 0.500000 0.500000 0.500000 0.500000 0.500000 0.500000 0.500000 0.500000 0.500000 0.500000 0.500000 0.500000 0.500000 0.500000 0.500000 0.500000 0.500000 0.500000 0.500000 0.500000 0.500000 0.500000 0.500000 0.500000 0.500000 0.500000 0.500000 0.500000 0.500000 0.500000 0.500000 0.500000 0.500000 0.500000 0.500000 0.500000 0.500000 0.500000 0.500000 0.500000 0.500000 0.500000 0.500000 0.500000 0.500000 0.500000 0.500000 0.500000 0.500000 0.500000 0.500000 0.500000 0.500000 0.500000 0.500000 0.500000 0.500000 0.500000 0.500000 0.500000 0.500000 0.500000 0.500000 0.500000 0.500000 0.500000 0.500000 0.500000 0.500000 0.500000 0.500000 0.500000 0.500000 0.500000 0.500000 0.500000 0.500000 0.500000 0.500000 0.500000 0.500000 0.500000 0.500000 0.500000 0.500000 0.500000 0.500000 0.500000 0.500000 0.500000 0.500000 0.500000 0.500000 0.500000 0.500000 0.500000 0.500000 0.500000 0.500000 0.500000 0.500000 0.500000 0.500000 0.500000 0.500000 0.500000 0.500000 0.500000 0.500000 0.500000 0.500000 0.500000 0.500000 0.500000 0.500000 0.500000 0.500000 0.500000 0.500000 0.500000 0.500000 0.500000 0.500000 0.500000 0.500000 0.500000 0.500000 0.500000 0.500000 0.500000 0.500000 0.500000 0.500000 0.500000 0.500000 0.500000 0.500000 0.500000 0.500000 0.500000 0.500000 0.500000 0.500000 0.500000 0.500000 0.500000 0.500000 0.500000 0.500000 0.500000 0.500000 0.500000 0.500000 0.500000 0.500000 0.500000 0.500000 0.500000 0.500000 0.500000 0.500000 0.500000 0.500000 0.500000 0.500000 0.500000 0.500000 0.500000 0.500000 0.500000 0.500000 0.500000 0.500000 0.500000 0.500000 0.500000 0.500000 0.500000 0.500000 0.500000 0.500000 0.500000 0.500000 0.500000 0.500000 0.500000 0.500000 0.500000 0.500000 0.500000 0.500000 0.500000 0.500000 0.500000 0.500000 0.500000 0.500000 0.500000 0.500000 0.500000 0.500000 0.500000 0.500000 0.500000 0.500000 0.500000 0.500000 0.500000 0.500000 0.500000 0.500000 0.500000 0.500000 0.500000 0.500000 0.500000 0.500000 0.500000 0.500000 0.500000 0.500000 0.500000 0.500000 0.500000 0.500000 0.500000 0.500000 0.500000 0.500000 0.500000 0.500000 0.500000 0.500000 0.500000 0.500000 0.500000 0.500000 0.500000 0.500000 0.500000 0.500000 0.500000 0.500000 0.500000 0.500000 0.500000 0.500000 0.500000 0.500000 0.500000 0.500000 0.500000 0.500000 0.500000 0.500000 0.500000 0.500000 0.500000 0.500000 0.500000 0.500000 0.500000 0.500000 0.500000 0.500000 0.500000 0.500000 0.500000 0.500000 0.500000 0.500000 0.500000 0.500000 0.500000 0.500000 0.500000 0.500000 0.500000 0.500000 0.500000 0.500000 0.500000 0.500000 0.500000 0.500000 0.500000 0.500000 0.500000 0.500000 0.500000 0.500000 0.500000 0.500000 0.500000 0.500000 0.500000 0.500000 0.500000 0.500000 0.500000 0.500000 0.500000 0.500000 0.500000 0.500000 0.500000 0.500000 0.500000 0.500000 0.500000 0.500000 0.500000 0.500000 0.500000 0.500000 0.500000 0.500000 0.500000 0.500000 0.500000 0.500000 0.500000 0.500000 0.500000 0.500000 0.500000 0.500000 0.500000 0.500000 0.500000 0.500000 0.500000 0.500000 0.500000 0.500000 0.500000 0.500000 0.500000 0.500000 0.500000 0.500000 0.500000 0.500000 0.500000 0.500000 0.500000 0.500000 0.500000 0.500000 0.500000 0.500000 0.500000 0.500000 0.500000 0.500000 0.500000 0.500000 0.500000 0.500000 0.500000 0.500000 0.500000 0.500000 0.500000 0.500000 0.500000 0.500000 0.500000 0.500000 0.500000 0.500000 0.500000 0.500000 0.500000 0.500000 0.500000 0.500000 0.500000 0.500000 0.500000 0.500000 0.500000 0.500000 0.500000 0.500000 0.500000 0.500000 0.500000 0.500000 0.500000 0.500000 0.500000 0.500000 0.500000 0.500000 0.500000 0.500000 0.500000 0.500000 0.500000 0.500000 0.500000 0.500000 0.500000 0.500000 0.500000 0.500000 0.500000 0.500000 0.500000 0.500000 0.500000 0.500000 0.500000 0.500000 0.500000 0.500000 0.500000 0.500000 0.500000 0.500000 0.500000 0.500000 0.500000 0.500000 0.500000 0.500000 0.500000 0.500000 0.500000 0.500000 0.500000 0.500000 0.500000 0.500000 0.500000 0.500000 0.500000 0.500000 0.500000 0.500000 0.500000 0.500000 0.500000 0.500000 0.500000 0.500000 0.500000 0.500000 0.500000 0.500000 0.500000 0.500000 0.500000 0.500000 0.500000 0.500000 0.500000 0.500000 0.500000 0.500000 0.500000 0.500000 0.500000 0.500000 0.500000 0.500000 0.500000 0.500000 0.500000 0.500000 0.500000 0.500000 0.500000 0.500000 0.500000 0.500000 0.500000 0.500000 0.500000 0.500000 0.500000 0.500000 0.500000 0.500000 0.500000 0.500000 0.500000 0.500000 0.500000 0.500000 0.500000 0.500000 0.500000 0.500000 0.500000 0.500000 0.500000 0.500000 0.500000 0.500000 0.500000 0.500000 0.500000 0.500000 0.500000 0.500000 0.500000 0.500000 0.500000 0.500000 0.500000 0.500000 0.500000 0.500000 0.500000 0.500000 0.500000 0.500000 0.500000 0.500000 0.500000 0.500000 0.500000 0.500000 0.500000 0.500000 0.500000 0.500000 0.500000 0.500000 0.500000 0.500000 0.500000 0.500000 0.500000 0.500000 0.500000 0.500000 0.500000 0.500000 0.500000 0.500000 0.500000 0.500000 0.500000 0.500000 0.500000 0.500000 0.500000 0.500000 0.500000 0.500000 0.500000 0.500000 0.500000 0.500000 0.500000 0.500000 0.500000 0.500000 0.500000 0.500000 0.500000 0.500000 0.500000 0.500000 0.500000 0.500000 0.500000 0.500000 0.500000 0.500000 0.500000 0.500000 0.500000 0.500000 0.500000 0.500000 0.500000 0.500000 0.500000 0.500000 0.500000 0.500000 0.500000 0.500000 0.500000 0.500000 0.500000 0.500000 0.500000 0.500000 0.500000 0.500000 0.500000 0.500000 0.500000 0.500000 0.500000 0.500000 0.500000 0.500000 0.500000 0.500000 0.500000 0.500000 0.500000 0.500000 0.500000 0.500000 0.500000 0.500000 0.500000 0.500000 0.500000 0.500000 0.500000 0.500000 0.500000 0.500000 0.500000 0.500000 0.500000 0.500000 0.500000 0.500000 0.500000 0.500000 0.500000 0.500000 0.500000 0.500000 0.500000 0.500000 0.500000 0.500000 0.500000 0.500000 0.500000 0.500000 0.500000 0.500000 0.500000 0.500000 0.500000 0.500000 0.500000 0.500000 0.500000 0.500000 0.500000 0.500000 0.500000 0.500000 0.500000 0.500000 0.500000 0.500000 0.500000 0.500000 0.500000 0.500000 0.500000 0.500000 0.500000 0.500000 0.500000 0.500000 0.500000 0.500000 0.500000 0.500000 0.500000 0.500000 0.500000 0.500000 0.500000 0.500000 0.500000 0.500000 0.500000 0.500000 0.500000 0.500000 0.500000 0.500000 0.500000 0.500000 0.500000 0.500000 0.500000 0.500000 0.500000 0.500000 0.500000 0.500000 0.500000 0.500000 0.500000 0.500000 0.500000 0.500000 0.500000 0.500000 0.500000 0.500000 0.500000 0.500000 0.500000 0.500000 0.500000 0.500000 0.500000 0.500000 0.500000 0.500000 0.500000 0.500000 0.500000 0.500000 0.500000 0.500000 0.500000 0.500000 0.500000 0.500000 0.500000 0.500000 0.500000 0.500000 0.500000 0.500000 0.500000 0.500000 0.500000 0.500000 0.500000 0.500000 0.500000 0.500000 0.500000 0.500000 0.500000 0.500000 0.500000 0.500000 0.500000 0.500000 0.500000 0.500000 0.500000 0.500000 0.500000 0.500000 0.500000 0.500000 0.500000 0.500000 0.500000 0.500000 0.500000 0.500000 0.500000 0.500000 0.500000 0.500000 0.500000 0.500000 0.500000 0.500000 0.500000 0.500000 0.500000 0.500000 0.500000 0.500000 0.500000 0.500000 
scale_mean_out=0.100378 0.111600 0.098378 0.101133 0.098178 0.090422 0.097333 0.105244 0.097978 0.099356 
scale_deviation_out=0.300474 0.314901 0.297883 0.301532 0.297467 0.286709 0.296454 0.306816 0.297245 0.299077 
scale_new_min_out=0.000000 0.000000 0.000000 0.000000 0.000000 0.000000 0.000000 0.000000 0.000000 0.000000 
scale_factor_out=0.500000 0.500000 0.500000 0.500000 0.500000 0.500000 0.500000 0.500000 0.500000 0.500000 
neurons (num_inputs, activation_function, activation_steepness)=(0, 0, 0.00000000000000000000e+000) (0, 0, 0.00000000000000000000e+000) (0, 0, 0.00000000000000000000e+000) (0, 0, 0.00000000000000000000e+000) (0, 0, 0.00000000000000000000e+000) (0, 0, 0.00000000000000000000e+000) (0, 0, 0.00000000000000000000e+000) (0, 0, 0.00000000000000000000e+000) (0, 0, 0.00000000000000000000e+000) (0, 0, 0.00000000000000000000e+000) (0, 0, 0.00000000000000000000e+000) (0, 0, 0.00000000000000000000e+000) (0, 0, 0.00000000000000000000e+000) (0, 0, 0.00000000000000000000e+000) (0, 0, 0.00000000000000000000e+000) (0, 0, 0.00000000000000000000e+000) (0, 0, 0.00000000000000000000e+000) (0, 0, 0.00000000000000000000e+000) (0, 0, 0.00000000000000000000e+000) (0, 0, 0.00000000000000000000e+000) (0, 0, 0.00000000000000000000e+000) (0, 0, 0.00000000000000000000e+000) (0, 0, 0.00000000000000000000e+000) (0, 0, 0.00000000000000000000e+000) (0, 0, 0.00000000000000000000e+000) (0, 0, 0.00000000000000000000e+000) (0, 0, 0.00000000000000000000e+000) (0, 0, 0.00000000000000000000e+000) (0, 0, 0.00000000000000000000e+000) (0, 0, 0.00000000000000000000e+000) (0, 0, 0.00000000000000000000e+000) (0, 0, 0.00000000000000000000e+000) (0, 0, 0.00000000000000000000e+000) (0, 0, 0.00000000000000000000e+000) (0, 0, 0.00000000000000000000e+000) (0, 0, 0.00000000000000000000e+000) (0, 0, 0.00000000000000000000e+000) (0, 0, 0.00000000000000000000e+000) (0, 0, 0.00000000000000000000e+000) (0, 0, 0.00000000000000000000e+000) (0, 0, 0.00000000000000000000e+000) (0, 0, 0.00000000000000000000e+000) (0, 0, 0.00000000000000000000e+000) (0, 0, 0.00000000000000000000e+000) (0, 0, 0.00000000000000000000e+000) (0, 0, 0.00000000000000000000e+000) (0, 0, 0.00000000000000000000e+000) (0, 0, 0.00000000000000000000e+000) (0, 0, 0.00000000000000000000e+000) (0, 0, 0.00000000000000000000e+000) (0, 0, 0.00000000000000000000e+000) (0, 0, 0.00000000000000000000e+000) (0, 0, 0.00000000000000000000e+000) (0, 0, 0.00000000000000000000e+000) (0, 0, 0.00000000000000000000e+000) (0, 0, 0.00000000000000000000e+000) (0, 0, 0.00000000000000000000e+000) (0, 0, 0.00000000000000000000e+000) (0, 0, 0.00000000000000000000e+000) (0, 0, 0.00000000000000000000e+000) (0, 0, 0.00000000000000000000e+000) (0, 0, 0.00000000000000000000e+000) (0, 0, 0.00000000000000000000e+000) (0, 0, 0.00000000000000000000e+000) (0, 0, 0.00000000000000000000e+000) (0, 0, 0.00000000000000000000e+000) (0, 0, 0.00000000000000000000e+000) (0, 0, 0.00000000000000000000e+000) (0, 0, 0.00000000000000000000e+000) (0, 0, 0.00000000000000000000e+000) (0, 0, 0.00000000000000000000e+000) (0, 0, 0.00000000000000000000e+000) (0, 0, 0.00000000000000000000e+000) (0, 0, 0.00000000000000000000e+000) (0, 0, 0.00000000000000000000e+000) (0, 0, 0.00000000000000000000e+000) (0, 0, 0.00000000000000000000e+000) (0, 0, 0.00000000000000000000e+000) (0, 0, 0.00000000000000000000e+000) (0, 0, 0.00000000000000000000e+000) (0, 0, 0.00000000000000000000e+000) (0, 0, 0.00000000000000000000e+000) (0, 0, 0.00000000000000000000e+000) (0, 0, 0.00000000000000000000e+000) (0, 0, 0.00000000000000000000e+000) (0, 0, 0.00000000000000000000e+000) (0, 0, 0.00000000000000000000e+000) (0, 0, 0.00000000000000000000e+000) (0, 0, 0.00000000000000000000e+000) (0, 0, 0.00000000000000000000e+000) (0, 0, 0.00000000000000000000e+000) (0, 0, 0.00000000000000000000e+000) (0, 0, 0.00000000000000000000e+000) (0, 0, 0.00000000000000000000e+000) (0, 0, 0.00000000000000000000e+000) (0, 0, 0.00000000000000000000e+000) (0, 0, 0.00000000000000000000e+000) (0, 0, 0.00000000000000000000e+000) (0, 0, 0.00000000000000000000e+000) (0, 0, 0.00000000000000000000e+000) (0, 0, 0.00000000000000000000e+000) (0, 0, 0.00000000000000000000e+000) (0, 0, 0.00000000000000000000e+000) (0, 0, 0.00000000000000000000e+000) (0, 0, 0.00000000000000000000e+000) (0, 0, 0.00000000000000000000e+000) (0, 0, 0.00000000000000000000e+000) (0, 0, 0.00000000000000000000e+000) (0, 0, 0.00000000000000000000e+000) (0, 0, 0.00000000000000000000e+000) (0, 0, 0.00000000000000000000e+000) (0, 0, 0.00000000000000000000e+000) (0, 0, 0.00000000000000000000e+000) (0, 0, 0.00000000000000000000e+000) (0, 0, 0.00000000000000000000e+000) (0, 0, 0.00000000000000000000e+000) (0, 0, 0.00000000000000000000e+000) (0, 0, 0.00000000000000000000e+000) (0, 0, 0.00000000000000000000e+000) (0, 0, 0.00000000000000000000e+000) (0, 0, 0.00000000000000000000e+000) (0, 0, 0.00000000000000000000e+000) (0, 0, 0.00000000000000000000e+000) (0, 0, 0.00000000000000000000e+000) (0, 0, 0.00000000000000000000e+000) (0, 0, 0.00000000000000000000e+000) (0, 0, 0.00000000000000000000e+000) (0, 0, 0.00000000000000000000e+000) (0, 0, 0.00000000000000000000e+000) (0, 0, 0.00000000000000000000e+000) (0, 0, 0.00000000000000000000e+000) (0, 0, 0.00000000000000000000e+000) (0, 0, 0.00000000000000000000e+000) (0, 0, 0.00000000000000000000e+000) (0, 0, 0.00000000000000000000e+000) (0, 0, 0.00000000000000000000e+000) (0, 0, 0.00000000000000000000e+000) (0, 0, 0.00000000000000000000e+000) (0, 0, 0.00000000000000000000e+000) (0, 0, 0.00000000000000000000e+000) (0, 0, 0.00000000000000000000e+000) (0, 0, 0.00000000000000000000e+000) (0, 0, 0.00000000000000000000e+000) (0, 0, 0.00000000000000000000e+000) (0, 0, 0.00000000000000000000e+000) (0, 0, 0.00000000000000000000e+000) (0, 0, 0.00000000000000000000e+000) (0, 0, 0.00000000000000000000e+000) (0, 0, 0.00000000000000000000e+000) (0, 0, 0.00000000000000000000e+000) (0, 0, 0.00000000000000000000e+000) (0, 0, 0.00000000000000000000e+000) (0, 0, 0.00000000000000000000e+000) (0, 0, 0.00000000000000000000e+000) (0, 0, 0.00000000000000000000e+000) (0, 0, 0.00000000000000000000e+000) (0, 0, 0.00000000000000000000e+000) (0, 0, 0.00000000000000000000e+000) (0, 0, 0.00000000000000000000e+000) (0, 0, 0.00000000000000000000e+000) (0, 0, 0.00000000000000000000e+000) (0, 0, 0.00000000000000000000e+000) (0, 0, 0.00000000000000000000e+000) (0, 0, 0.00000000000000000000e+000) (0, 0, 0.00000000000000000000e+000) (0, 0, 0.00000000000000000000e+000) (0, 0, 0.00000000000000000000e+000) (0, 0, 0.00000000000000000000e+000) (0, 0, 0.00000000000000000000e+000) (0, 0, 0.00000000000000000000e+000) (0, 0, 0.00000000000000000000e+000) (0, 0, 0.00000000000000000000e+000) (0, 0, 0.00000000000000000000e+000) (0, 0, 0.00000000000000000000e+000) (0, 0, 0.00000000000000000000e+000) (0, 0, 0.00000000000000000000e+000) (0, 0, 0.00000000000000000000e+000) (0, 0, 0.00000000000000000000e+000) (0, 0, 0.00000000000000000000e+000) (0, 0, 0.00000000000000000000e+000) (0, 0, 0.00000000000000000000e+000) (0, 0, 0.00000000000000000000e+000) (0, 0, 0.00000000000000000000e+000) (0, 0, 0.00000000000000000000e+000) (0, 0, 0.00000000000000000000e+000) (0, 0, 0.00000000000000000000e+000) (0, 0, 0.00000000000000000000e+000) (0, 0, 0.00000000000000000000e+000) (0, 0, 0.00000000000000000000e+000) (0, 0, 0.00000000000000000000e+000) (0, 0, 0.00000000000000000000e+000) (0, 0, 0.00000000000000000000e+000) (0, 0, 0.00000000000000000000e+000) (0, 0, 0.00000000000000000000e+000) (0, 0, 0.00000000000000000000e+000) (0, 0, 0.00000000000000000000e+000) (0, 0, 0.00000000000000000000e+000) (0, 0, 0.00000000000000000000e+000) (0, 0, 0.00000000000000000000e+000) (0, 0, 0.00000000000000000000e+000) (0, 0, 0.00000000000000000000e+000) (0, 0, 0.00000000000000000000e+000) (0, 0, 0.00000000000000000000e+000) (0, 0, 0.00000000000000000000e+000) (0, 0, 0.00000000000000000000e+000) (0, 0, 0.00000000000000000000e+000) (0, 0, 0.00000000000000000000e+000) (0, 0, 0.00000000000000000000e+000) (0, 0, 0.00000000000000000000e+000) (0, 0, 0.00000000000000000000e+000) (0, 0, 0.00000000000000000000e+000) (0, 0, 0.00000000000000000000e+000) (0, 0, 0.00000000000000000000e+000) (0, 0, 0.00000000000000000000e+000) (0, 0, 0.00000000000000000000e+000) (0, 0, 0.00000000000000000000e+000) (0, 0, 0.00000000000000000000e+000) (0, 0, 0.00000000000000000000e+000) (0, 0, 0.00000000000000000000e+000) (0, 0, 0.00000000000000000000e+000) (0, 0, 0.00000000000000000000e+000) (0, 0, 0.00000000000000000000e+000) (0, 0, 0.00000000000000000000e+000) (0, 0, 0.00000000000000000000e+000) (0, 0, 0.00000000000000000000e+000) (0, 0, 0.00000000000000000000e+000) (0, 0, 0.00000000000000000000e+000) (0, 0, 0.00000000000000000000e+000) (0, 0, 0.00000000000000000000e+000) (0, 0, 0.00000000000000000000e+000) (0, 0, 0.00000000000000000000e+000) (0, 0, 0.00000000000000000000e+000) (0, 0, 0.00000000000000000000e+000) (0, 0, 0.00000000000000000000e+000) (0, 0, 0.00000000000000000000e+000) (0, 0, 0.00000000000000000000e+000) (0, 0, 0.00000000000000000000e+000) (0, 0, 0.00000000000000000000e+000) (0, 0, 0.00000000000000000000e+000) (0, 0, 0.00000000000000000000e+000) (0, 0, 0.00000000000000000000e+000) (0, 0, 0.00000000000000000000e+000) (0, 0, 0.00000000000000000000e+000) (0, 0, 0.00000000000000000000e+000) (0, 0, 0.00000000000000000000e+000) (0, 0, 0.00000000000000000000e+000) (0, 0, 0.00000000000000000000e+000) (0, 0, 0.00000000000000000000e+000) (0, 0, 0.00000000000000000000e+000) (0, 0, 0.00000000000000000000e+000) (0, 0, 0.00000000000000000000e+000) (0, 0, 0.00000000000000000000e+000) (0, 0, 0.00000000000000000000e+000) (0, 0, 0.00000000000000000000e+000) (0, 0, 0.00000000000000000000e+000) (0, 0, 0.00000000000000000000e+000) (0, 0, 0.00000000000000000000e+000) (0, 0, 0.00000000000000000000e+000) (0, 0, 0.00000000000000000000e+000) (0, 0, 0.00000000000000000000e+000) (0, 0, 0.00000000000000000000e+000) (0, 0, 0.00000000000000000000e+000) (0, 0, 0.00000000000000000000e+000) (0, 0, 0.00000000000000000000e+000) (0, 0, 0.00000000000000000000e+000) (0, 0, 0.00000000000000000000e+000) (0, 0, 0.00000000000000000000e+000) (0, 0, 0.00000000000000000000e+000) (0, 0, 0.00000000000000000000e+000) (0, 0, 0.00000000000000000000e+000) (0, 0, 0.00000000000000000000e+000) (0, 0, 0.00000000000000000000e+000) (0, 0, 0.00000000000000000000e+000) (0, 0, 0.00000000000000000000e+000) (0, 0, 0.00000000000000000000e+000) (0, 0, 0.00000000000000000000e+000) (0, 0, 0.00000000000000000000e+000) (0, 0, 0.00000000000000000000e+000) (0, 0, 0.00000000000000000000e+000) (0, 0, 0.00000000000000000000e+000) (0, 0, 0.00000000000000000000e+000) (0, 0, 0.00000000000000000000e+000) (0, 0, 0.00000000000000000000e+000) (0, 0, 0.00000000000000000000e+000) (0, 0, 0.00000000000000000000e+000) (0, 0, 0.00000000000000000000e+000) (0, 0, 0.00000000000000000000e+000) (0, 0, 0.00000000000000000000e+000) (0, 0, 0.00000000000000000000e+000) (0, 0, 0.00000000000000000000e+000) (0, 0, 0.00000000000000000000e+000) (0, 0, 0.00000000000000000000e+000) (0, 0, 0.00000000000000000000e+000) (0, 0, 0.00000000000000000000e+000) (0, 0, 0.00000000000000000000e+000) (0, 0, 0.00000000000000000000e+000) (0, 0, 0.00000000000000000000e+000) (0, 0, 0.00000000000000000000e+000) (0, 0, 0.00000000000000000000e+000) (0, 0, 0.00000000000000000000e+000) (0, 0, 0.00000000000000000000e+000) (0, 0, 0.00000000000000000000e+000) (0, 0, 0.00000000000000000000e+000) (0, 0, 0.00000000000000000000e+000) (0, 0, 0.00000000000000000000e+000) (0, 0, 0.00000000000000000000e+000) (0, 0, 0.00000000000000000000e+000) (0, 0, 0.00000000000000000000e+000) (0, 0, 0.00000000000000000000e+000) (0, 0, 0.00000000000000000000e+000) (0, 0, 0.00000000000000000000e+000) (0, 0, 0.00000000000000000000e+000) (0, 0, 0.00000000000000000000e+000) (0, 0, 0.00000000000000000000e+000) (0, 0, 0.00000000000000000000e+000) (0, 0, 0.00000000000000000000e+000) (0, 0, 0.00000000000000000000e+000) (0, 0, 0.00000000000000000000e+000) (0, 0, 0.00000000000000000000e+000) (0, 0, 0.00000000000000000000e+000) (0, 0, 0.00000000000000000000e+000) (0, 0, 0.00000000000000000000e+000) (0, 0, 0.00000000000000000000e+000) (0, 0, 0.00000000000000000000e+000) (0, 0, 0.00000000000000000000e+000) (0, 0, 0.00000000000000000000e+000) (0, 0, 0.00000000000000000000e+000) (0, 0, 0.00000000000000000000e+000) (0, 0, 0.00000000000000000000e+000) (0, 0, 0.00000000000000000000e+000) (0, 0, 0.00000000000000000000e+000) (0, 0, 0.00000000000000000000e+000) (0, 0, 0.00000000000000000000e+000) (0, 0, 0.00000000000000000000e+000) (0, 0, 0.00000000000000000000e+000) (0, 0, 0.00000000000000000000e+000) (0, 0, 0.00000000000000000000e+000) (0, 0, 0.00000000000000000000e+000) (0, 0, 0.00000000000000000000e+000) (0, 0, 0.00000000000000000000e+000) (0, 0, 0.00000000000000000000e+000) (0, 0, 0.00000000000000000000e+000) (0, 0, 0.00000000000000000000e+000) (0, 0, 0.00000000000000000000e+000) (0, 0, 0.00000000000000000000e+000) (0, 0, 0.00000000000000000000e+000) (0, 0, 0.00000000000000000000e+000) (0, 0, 0.00000000000000000000e+000) (0, 0, 0.00000000000000000000e+000) (0, 0, 0.00000000000000000000e+000) (0, 0, 0.00000000000000000000e+000) (0, 0, 0.00000000000000000000e+000) (0, 0, 0.00000000000000000000e+000) (0, 0, 0.00000000000000000000e+000) (0, 0, 0.00000000000000000000e+000) (0, 0, 0.00000000000000000000e+000) (0, 0, 0.00000000000000000000e+000) (0, 0, 0.00000000000000000000e+000) (0, 0, 0.00000000000000000000e+000) (0, 0, 0.00000000000000000000e+000) (0, 0, 0.00000000000000000000e+000) (0, 0, 0.00000000000000000000e+000) (0, 0, 0.00000000000000000000e+000) (0, 0, 0.00000000000000000000e+000) (0, 0, 0.00000000000000000000e+000) (0, 0, 0.00000000000000000000e+000) (0, 0, 0.00000000000000000000e+000) (0, 0, 0.00000000000000000000e+000) (0, 0, 0.00000000000000000000e+000) (0, 0, 0.00000000000000000000e+000) (0, 0, 0.00000000000000000000e+000) (0, 0, 0.00000000000000000000e+000) (0, 0, 0.00000000000000000000e+000) (0, 0, 0.00000000000000000000e+000) (0, 0, 0.00000000000000000000e+000) (0, 0, 0.00000000000000000000e+000) (0, 0, 0.00000000000000000000e+000) (0, 0, 0.00000000000000000000e+000) (0, 0, 0.00000000000000000000e+000) (0, 0, 0.00000000000000000000e+000) (0, 0, 0.00000000000000000000e+000) (0, 0, 0.00000000000000000000e+000) (0, 0, 0.00000000000000000000e+000) (0, 0, 0.00000000000000000000e+000) (0, 0, 0.00000000000000000000e+000) (0, 0, 0.00000000000000000000e+000) (0, 0, 0.00000000000000000000e+000) (0, 0, 0.00000000000000000000e+000) (0, 0, 0.00000000000000000000e+000) (0, 0, 0.00000000000000000000e+000) (0, 0, 0.00000000000000000000e+000) (0, 0, 0.00000000000000000000e+000) (0, 0, 0.00000000000000000000e+000) (0, 0, 0.00000000000000000000e+000) (0, 0, 0.00000000000000000000e+000) (0, 0, 0.00000000000000000000e+000) (0, 0, 0.00000000000000000000e+000) (0, 0, 0.00000000000000000000e+000) (0, 0, 0.00000000000000000000e+000) (0, 0, 0.00000000000000000000e+000) (0, 0, 0.00000000000000000000e+000) (0, 0, 0.00000000000000000000e+000) (0, 0, 0.00000000000000000000e+000) (0, 0, 0.00000000000000000000e+000) (0, 0, 0.00000000000000000000e+000) (0, 0, 0.00000000000000000000e+000) (0, 0, 0.00000000000000000000e+000) (0, 0, 0.00000000000000000000e+000) (0, 0, 0.00000000000000000000e+000) (0, 0, 0.00000000000000000000e+000) (0, 0, 0.00000000000000000000e+000) (0, 0, 0.00000000000000000000e+000) (0, 0, 0.00000000000000000000e+000) (0, 0, 0.00000000000000000000e+000) (0, 0, 0.00000000000000000000e+000) (0, 0, 0.00000000000000000000e+000) (0, 0, 0.00000000000000000000e+000) (0, 0, 0.00000000000000000000e+000) (0, 0, 0.00000000000000000000e+000) (0, 0, 0.00000000000000000000e+000) (0, 0, 0.00000000000000000000e+000) (0, 0, 0.00000000000000000000e+000) (0, 0, 0.00000000000000000000e+000) (0, 0, 0.00000000000000000000e+000) (0, 0, 0.00000000000000000000e+000) (0, 0, 0.00000000000000000000e+000) (0, 0, 0.00000000000000000000e+000) (0, 0, 0.00000000000000000000e+000) (0, 0, 0.00000000000000000000e+000) (0, 0, 0.00000000000000000000e+000) (0, 0, 0.00000000000000000000e+000) (0, 0, 0.00000000000000000000e+000) (0, 0, 0.00000000000000000000e+000) (0, 0, 0.00000000000000000000e+000) (0, 0, 0.00000000000000000000e+000) (0, 0, 0.00000000000000000000e+000) (0, 0, 0.00000000000000000000e+000) (0, 0, 0.00000000000000000000e+000) (0, 0, 0.00000000000000000000e+000) (0, 0, 0.00000000000000000000e+000) (0, 0, 0.00000000000000000000e+000) (0, 0, 0.00000000000000000000e+000) (0, 0, 0.00000000000000000000e+000) (0, 0, 0.00000000000000000000e+000) (0, 0, 0.00000000000000000000e+000) (0, 0, 0.00000000000000000000e+000) (0, 0, 0.00000000000000000000e+000) (0, 0, 0.00000000000000000000e+000) (0, 0, 0.00000000000000000000e+000) (0, 0, 0.00000000000000000000e+000) (0, 0, 0.00000000000000000000e+000) (0, 0, 0.00000000000000000000e+000) (0, 0, 0.00000000000000000000e+000) (0, 0, 0.00000000000000000000e+000) (0, 0, 0.00000000000000000000e+000) (0, 0, 0.00000000000000000000e+000) (0, 0, 0.00000000000000000000e+000) (0, 0, 0.00000000000000000000e+000) (0, 0, 0.00000000000000000000e+000) (0, 0, 0.00000000000000000000e+000) (0, 0, 0.00000000000000000000e+000) (0, 0, 0.00000000000000000000e+000) (0, 0, 0.00000000000000000000e+000) (0, 0, 0.00000000000000000000e+000) (0, 0, 0.00000000000000000000e+000) (0, 0, 0.00000000000000000000e+000) (0, 0, 0.00000000000000000000e+000) (0, 0, 0.00000000000000000000e+000) (0, 0, 0.00000000000000000000e+000) (0, 0, 0.00000000000000000000e+000) (0, 0, 0.00000000000000000000e+000) (0, 0, 0.00000000000000000000e+000) (0, 0, 0.00000000000000000000e+000) (0, 0, 0.00000000000000000000e+000) (0, 0, 0.00000000000000000000e+000) (0, 0, 0.00000000000000000000e+000) (0, 0, 0.00000000000000000000e+000) (0, 0, 0.00000000000000000000e+000) (0, 0, 0.00000000000000000000e+000) (0, 0, 0.00000000000000000000e+000) (0, 0, 0.00000000000000000000e+000) (0, 0, 0.00000000000000000000e+000) (0, 0, 0.00000000000000000000e+000) (0, 0, 0.00000000000000000000e+000) (0, 0, 0.00000000000000000000e+000) (0, 0, 0.00000000000000000000e+000) (0, 0, 0.00000000000000000000e+000) (0, 0, 0.00000000000000000000e+000) (0, 0, 0.00000000000000000000e+000) (0, 0, 0.00000000000000000000e+000) (0, 0, 0.00000000000000000000e+000) (0, 0, 0.00000000000000000000e+000) (0, 0, 0.00000000000000000000e+000) (0, 0, 0.00000000000000000000e+000) (0, 0, 0.00000000000000000000e+000) (0, 0, 0.00000000000000000000e+000) (0, 0, 0.00000000000000000000e+000) (0, 0, 0.00000000000000000000e+000) (0, 0, 0.00000000000000000000e+000) (0, 0, 0.00000000000000000000e+000) (0, 0, 0.00000000000000000000e+000) (0, 0, 0.00000000000000000000e+000) (0, 0, 0.00000000000000000000e+000) (0, 0, 0.00000000000000000000e+000) (0, 0, 0.00000000000000000000e+000) (0, 0, 0.00000000000000000000e+000) (0, 0, 0.00000000000000000000e+000) (0, 0, 0.00000000000000000000e+000) (0, 0, 0.00000000000000000000e+000) (0, 0, 0.00000000000000000000e+000) (0, 0, 0.00000000000000000000e+000) (0, 0, 0.00000000000000000000e+000) (0, 0, 0.00000000000000000000e+000) (0, 0, 0.00000000000000000000e+000) (0, 0, 0.00000000000000000000e+000) (0, 0, 0.00000000000000000000e+000) (0, 0, 0.00000000000000000000e+000) (0, 0, 0.00000000000000000000e+000) (0, 0, 0.00000000000000000000e+000) (0, 0, 0.00000000000000000000e+000) (0, 0, 0.00000000000000000000e+000) (0, 0, 0.00000000000000000000e+000) (0, 0, 0.00000000000000000000e+000) (0, 0, 0.00000000000000000000e+000) (0, 0, 0.00000000000000000000e+000) (0, 0, 0.00000000000000000000e+000) (0, 0, 0.00000000000000000000e+000) (0, 0, 0.00000000000000000000e+000) (0, 0, 0.00000000000000000000e+000) (0, 0, 0.00000000000000000000e+000) (0, 0, 0.00000000000000000000e+000) (0, 0, 0.00000000000000000000e+000) (0, 0, 0.00000000000000000000e+000) (0, 0, 0.00000000000000000000e+000) (0, 0, 0.00000000000000000000e+000) (0, 0, 0.00000000000000000000e+000) (0, 0, 0.00000000000000000000e+000) (0, 0, 0.00000000000000000000e+000) (0, 0, 0.00000000000000000000e+000) (0, 0, 0.00000000000000000000e+000) (0, 0, 0.00000000000000000000e+000) (0, 0, 0.00000000000000000000e+000) (0, 0, 0.00000000000000000000e+000) (0, 0, 0.00000000000000000000e+000) (0, 0, 0.00000000000000000000e+000) (0, 0, 0.00000000000000000000e+000) (0, 0, 0.00000000000000000000e+000) (0, 0, 0.00000000000000000000e+000) (0, 0, 0.00000000000000000000e+000) (0, 0, 0.00000000000000000000e+000) (0, 0, 0.00000000000000000000e+000) (0, 0, 0.00000000000000000000e+000) (0, 0, 0.00000000000000000000e+000) (0, 0, 0.00000000000000000000e+000) (0, 0, 0.00000000000000000000e+000) (0, 0, 0.00000000000000000000e+000) (0, 0, 0.00000000000000000000e+000) (0, 0, 0.00000000000000000000e+000) (0, 0, 0.00000000000000000000e+000) (0, 0, 0.00000000000000000000e+000) (0, 0, 0.00000000000000000000e+000) (0, 0, 0.00000000000000000000e+000) (0, 0, 0.00000000000000000000e+000) (0, 0, 0.00000000000000000000e+000) (0, 0, 0.00000000000000000000e+000) (0, 0, 0.00000000000000000000e+000) (0, 0, 0.00000000000000000000e+000) (0, 0, 0.00000000000000000000e+000) (0, 0, 0.00000000000000000000e+000) (0, 0, 0.00000000000000000000e+000) (0, 0, 0.00000000000000000000e+000) (0, 0, 0.00000000000000000000e+000) (0, 0, 0.00000000000000000000e+000) (0, 0, 0.00000000000000000000e+000) (0, 0, 0.00000000000000000000e+000) (0, 0, 0.00000000000000000000e+000) (0, 0, 0.00000000000000000000e+000) (0, 0, 0.00000000000000000000e+000) (0, 0, 0.00000000000000000000e+000) (0, 0, 0.00000000000000000000e+000) (0, 0, 0.00000000000000000000e+000) (0, 0, 0.00000000000000000000e+000) (0, 0, 0.00000000000000000000e+000) (0, 0, 0.00000000000000000000e+000) (0, 0, 0.00000000000000000000e+000) (0, 0, 0.00000000000000000000e+000) (0, 0, 0.00000000000000000000e+000) (0, 0, 0.00000000000000000000e+000) (0, 0, 0.00000000000000000000e+000) (0, 0, 0.00000000000000000000e+000) (0, 0, 0.00000000000000000000e+000) (0, 0, 0.00000000000000000000e+000) (0, 0, 0.00000000000000000000e+000) (0, 0, 0.00000000000000000000e+000) (0, 0, 0.00000000000000000000e+000) (0, 0, 0.00000000000000000000e+000) (0, 0, 0.00000000000000000000e+000) (0, 0, 0.00000000000000000000e+000) (0, 0, 0.00000000000000000000e+000) (0, 0, 0.00000000000000000000e+000) (0, 0, 0.00000000000000000000e+000) (0, 0, 0.00000000000000000000e+000) (0, 0, 0.00000000000000000000e+000) (0, 0, 0.00000000000000000000e+000) (0, 0, 0.00000000000000000000e+000) (0, 0, 0.00000000000000000000e+000) (0, 0, 0.00000000000000000000e+000) (0, 0, 0.00000000000000000000e+000) (0, 0, 0.00000000000000000000e+000) (0, 0, 0.00000000000000000000e+000) (0, 0, 0.00000000000000000000e+000) (0, 0, 0.00000000000000000000e+000) (0, 0, 0.00000000000000000000e+000) (0, 0, 0.00000000000000000000e+000) (0, 0, 0.00000000000000000000e+000) (0, 0, 0.00000000000000000000e+000) (0, 0, 0.00000000000000000000e+000) (0, 0, 0.00000000000000000000e+000) (0, 0, 0.00000000000000000000e+000) (0, 0, 0.00000000000000000000e+000) (0, 0, 0.00000000000000000000e+000) (0, 0, 0.00000000000000000000e+000) (0, 0, 0.00000000000000000000e+000) (0, 0, 0.00000000000000000000e+000) (0, 0, 0.00000000000000000000e+000) (0, 0, 0.00000000000000000000e+000) (0, 0, 0.00000000000000000000e+000) (0, 0, 0.00000000000000000000e+000) (0, 0, 0.00000000000000000000e+000) (0, 0, 0.00000000000000000000e+000) (0, 0, 0.00000000000000000000e+000) (0, 0, 0.00000000000000000000e+000) (0, 0, 0.00000000000000000000e+000) (0, 0, 0.00000000000000000000e+000) (0, 0, 0.00000000000000000000e+000) (0, 0, 0.00000000000000000000e+000) (0, 0, 0.00000000000000000000e+000) (0, 0, 0.00000000000000000000e+000) (0, 0, 0.00000000000000000000e+000) (0, 0, 0.00000000000000000000e+000) (0, 0, 0.00000000000000000000e+000) (0, 0, 0.00000000000000000000e+000) (0, 0, 0.00000000000000000000e+000) (0, 0, 0.00000000000000000000e+000) (0, 0, 0.00000000000000000000e+000) (0, 0, 0.00000000000000000000e+000) (0, 0, 0.00000000000000000000e+000) (0, 0, 0.00000000000000000000e+000) (0, 0, 0.00000000000000000000e+000) (0, 0, 0.00000000000000000000e+000) (0, 0, 0.00000000000000000000e+000) (0, 0, 0.00000000000000000000e+000) (0, 0, 0.00000000000000000000e+000) (0, 0, 0.00000000000000000000e+000) (0, 0, 0.00000000000000000000e+000) (0, 0, 0.00000000000000000000e+000) (0, 0, 0.00000000000000000000e+000) (0, 0, 0.00000000000000000000e+000) (0, 0, 0.00000000000000000000e+000) (0, 0, 0.00000000000000000000e+000) (0, 0, 0.00000000000000000000e+000) (0, 0, 0.00000000000000000000e+000) (0, 0, 0.00000000000000000000e+000) (0, 0, 0.00000000000000000000e+000) (0, 0, 0.00000000000000000000e+000) (0, 0, 0.00000000000000000000e+000) (0, 0, 0.00000000000000000000e+000) (0, 0, 0.00000000000000000000e+000) (0, 0, 0.00000000000000000000e+000) (0, 0, 0.00000000000000000000e+000) (0, 0, 0.00000000000000000000e+000) (0, 0, 0.00000000000000000000e+000) (0, 0, 0.00000000000000000000e+000) (0, 0, 0.00000000000000000000e+000) (0, 0, 0.00000000000000000000e+000) (0, 0, 0.00000000000000000000e+000) (0, 0, 0.00000000000000000000e+000) (0, 0, 0.00000000000000000000e+000) (0, 0, 0.00000000000000000000e+000) (0, 0, 0.00000000000000000000e+000) (0, 0, 0.00000000000000000000e+000) (0, 0, 0.00000000000000000000e+000) (0, 0, 0.00000000000000000000e+000) (0, 0, 0.00000000000000000000e+000) (0, 0, 0.00000000000000000000e+000) (0, 0, 0.00000000000000000000e+000) (0, 0, 0.00000000000000000000e+000) (0, 0, 0.00000000000000000000e+000) (0, 0, 0.00000000000000000000e+000) (0, 0, 0.00000000000000000000e+000) (0, 0, 0.00000000000000000000e+000) (0, 0, 0.00000000000000000000e+000) (0, 0, 0.00000000000000000000e+000) (0, 0, 0.00000000000000000000e+000) (0, 0, 0.00000000000000000000e+000) (0, 0, 0.00000000000000000000e+000) (0, 0, 0.00000000000000000000e+000) (0, 0, 0.00000000000000000000e+000) (0, 0, 0.00000000000000000000e+000) (0, 0, 0.00000000000000000000e+000) (0, 0, 0.00000000000000000000e+000) (0, 0, 0.00000000000000000000e+000) (0, 0, 0.00000000000000000000e+000) (0, 0, 0.00000000000000000000e+000) (0, 0, 0.00000000000000000000e+000) (0, 0, 0.00000000000000000000e+000) (0, 0, 0.00000000000000000000e+000) (0, 0, 0.00000000000000000000e+000) (0, 0, 0.00000000000000000000e+000) (0, 0, 0.00000000000000000000e+000) (0, 0, 0.00000000000000000000e+000) (0, 0, 0.00000000000000000000e+000) (0, 0, 0.00000000000000000000e+000) (0, 0, 0.00000000000000000000e+000) (0, 0, 0.00000000000000000000e+000) (0, 0, 0.00000000000000000000e+000) (0, 0, 0.00000000000000000000e+000) (0, 0, 0.00000000000000000000e+000) (0, 0, 0.00000000000000000000e+000) (0, 0, 0.00000000000000000000e+000) (0, 0, 0.00000000000000000000e+000) (0, 0, 0.00000000000000000000e+000) (0, 0, 0.00000000000000000000e+000) (0, 0, 0.00000000000000000000e+000) (0, 0, 0.00000000000000000000e+000) (0, 0, 0.00000000000000000000e+000) (0, 0, 0.00000000000000000000e+000) (0, 0, 0.00000000000000000000e+000) (0, 0, 0.00000000000000000000e+000) (0, 0, 0.00000000000000000000e+000) (0, 0, 0.00000000000000000000e+000) (0, 0, 0.00000000000000000000e+000) (0, 0, 0.00000000000000000000e+000) (0, 0, 0.00000000000000000000e+000) (0, 0, 0.00000000000000000000e+000) (0, 0, 0.00000000000000000000e+000) (0, 0, 0.00000000000000000000e+000) (0, 0, 0.00000000000000000000e+000) (0, 0, 0.00000000000000000000e+000) (0, 0, 0.00000000000000000000e+000) (0, 0, 0.00000000000000000000e+000) (0, 0, 0.00000000000000000000e+000) (0, 0, 0.00000000000000000000e+000) (0, 0, 0.00000000000000000000e+000) (0, 0, 0.00000000000000000000e+000) (0, 0, 0.00000000000000000000e+000) (0, 0, 0.00000000000000000000e+000) (0, 0, 0.00000000000000000000e+000) (0, 0, 0.00000000000000000000e+000) (0, 0, 0.00000000000000000000e+000) (0, 0, 0.00000000000000000000e+000) (0, 0, 0.00000000000000000000e+000) (0, 0, 0.00000000000000000000e+000) (0, 0, 0.00000000000000000000e+000) (0, 0, 0.00000000000000000000e+000) (0, 0, 0.00000000000000000000e+000) (0, 0, 0.00000000000000000000e+000) (0, 0, 0.00000000000000000000e+000) (0, 0, 0.00000000000000000000e+000) (0, 0, 0.00000000000000000000e+000) (0, 0, 0.00000000000000000000e+000) (0, 0, 0.00000000000000000000e+000) (0, 0, 0.00000000000000000000e+000) (0, 0, 0.00000000000000000000e+000) (0, 0, 0.00000000000000000000e+000) (0, 0, 0.00000000000000000000e+000) (0, 0, 0.00000000000000000000e+000) (0, 0, 0.00000000000000000000e+000) (0, 0, 0.00000000000000000000e+000) (0, 0, 0.00000000000000000000e+000) (0, 0, 0.00000000000000000000e+000) (0, 0, 0.00000000000000000000e+000) (0, 0, 0.00000000000000000000e+000) (0, 0, 0.00000000000000000000e+000) (0, 0, 0.00000000000000000000e+000) (0, 0, 0.00000000000000000000e+000) (0, 0, 0.00000000000000000000e+000) (0, 0, 0.00000000000000000000e+000) (0, 0, 0.00000000000000000000e+000) (0, 0, 0.00000000000000000000e+000) (0, 0, 0.00000000000000000000e+000) (0, 0, 0.00000000000000000000e+000) (0, 0, 0.00000000000000000000e+000) (0, 0, 0.00000000000000000000e+000) (0, 0, 0.00000000000000000000e+000) (785, 3, 5.00000000000000000000e-001) (785, 3, 5.00000000000000000000e-001) (785, 3, 5.00000000000000000000e-001) (785, 3, 5.00000000000000000000e-001) (785, 3, 5.00000000000000000000e-001) (785, 3, 5.00000000000000000000e-001) (785, 3, 5.00000000000000000000e-001) (785, 3, 5.00000000000000000000e-001) (785, 3, 5.00000000000000000000e-001) (785, 3, 5.00000000000000000000e-001) (785, 3, 5.00000000000000000000e-001) (785, 3, 5.00000000000000000000e-001) (785, 3, 5.00000000000000000000e-001) (785, 3, 5.00000000000000000000e-001) (785, 3, 5.00000000000000000000e-001) (785, 3, 5.00000000000000000000e-001) (785, 3, 5.00000000000000000000e-001) (785, 3, 5.00000000000000000000e-001) (785, 3, 5.00000000000000000000e-001) (785, 3, 5.00000000000000000000e-001) (785, 3, 5.00000000000000000000e-001) (785, 3, 5.00000000000000000000e-001) (785, 3, 5.00000000000000000000e-001) (785, 3, 5.00000000000000000000e-001) (785, 3, 5.00000000000000000000e-001) (785, 3, 5.00000000000000000000e-001) (785, 3, 5.00000000000000000000e-001) (785, 3, 5.00000000000000000000e-001) (785, 3, 5.00000000000000000000e-001) (785, 3, 5.00000000000000000000e-001) (0, 3, 0.00000000000000000000e+000) (31, 3, 5.00000000000000000000e-001) (31, 3, 5.00000000000000000000e-001) (31, 3, 5.00000000000000000000e-001) (31, 3, 5.00000000000000000000e-001) (31, 3, 5.00000000000000000000e-001) (31, 3, 5.00000000000000000000e-001) (31, 3, 5.00000000000000000000e-001) (31, 3, 5.00000000000000000000e-001) (31, 3, 5.00000000000000000000e-001) (31, 3, 5.00000000000000000000e-001) (0, 3, 0.00000000000000000000e+000) 
connections (connected_to_neuron, weight)=(0, 4.42016608149060630000e-002) (1, 4.48608405122286060000e-002) (2, 6.91162119674118000000e-002) (3, 3.31787114319013200000e-002) (4, -1.60888674272428030000e-002) (5, 4.27062994644984430000e-002) (6, -8.59008801862728430000e-002) (7, -8.57055676833624600000e-002) (8, 9.74426284051332910000e-002) (9, 1.62048342258458430000e-002) (10, 9.70031752735849300000e-002) (11, -8.17260754365634060000e-002) (12, 4.86674861368316460000e-002) (13, 3.12420082124750200000e-001) (14, 2.47283362404137510000e-001) (15, 6.26123833112762070000e-002) (16, -8.34045422584495100000e-002) (17, 5.99792489406354430000e-002) (18, 2.21862796274763240000e-002) (19, 9.27551283352840980000e-002) (20, -9.33532728754471460000e-002) (21, -3.33862309662436020000e-003) (22, 6.06689462165377340000e-003) (23, 1.59912111757876120000e-002) (24, -5.76171883585629980000e-002) (25, -1.71325686146701630000e-002) (26, 3.78784185331824120000e-002) (27, -6.28601083585635930000e-002) (28, -3.44848637951145070000e-002) (29, 4.47387701979096160000e-002) (30, -1.45996095925511330000e-002) (31, -8.57177747147943590000e-002) (32, -8.24646008381932920000e-002) (33, -9.30046380410247950000e-002) (34, -3.47507641165581860000e-001) (35, -5.89904449104293290000e-001) (36, -9.32919346740665010000e-001) (37, -1.48710717360159460000e+000) (38, -2.10141656281960200000e+000) (39, -1.95373539711746360000e+000) (40, -1.66404569938792400000e+000) (41, -1.21326721407611580000e+000) (42, -4.14661403278186850000e-001) (43, -2.29765040636145610000e-001) (44, 8.97631532448008310000e-002) (45, -2.71196738379217390000e-002) (46, -8.39698665425551940000e-001) (47, -8.43440831081982870000e-001) (48, -3.84754357109676760000e-001) (49, 5.76424674675908230000e-002) (50, 7.27676469045732690000e-002) (51, 9.35937376000663540000e-002) (52, 6.28051767171200480000e-003) (53, -7.71484386496013030000e-002) (54, 9.28466810710233400000e-002) (55, -6.23046884284121920000e-002) (56, 9.67651381606629000000e-002) (57, -3.55957036554173100000e-002) (58, -5.01159675436611000000e-002) (59, -8.59825173766181300000e-003) (60, 9.08359181999906190000e-003) (61, -6.77968512299359780000e-002) (62, -1.97076623738756670000e-001) (63, -9.92206172699510840000e-001) (64, -3.56566875459123310000e+000) (65, -4.73958833415883160000e+000) (66, -5.87894296433278200000e+000) (67, -7.47143140325644680000e+000) (68, -1.15390816032677160000e+001) (69, -1.74652955184003640000e+001) (70, -1.32090013231298630000e+001) (71, -7.81038203654033760000e+000) (72, -7.95300420477252330000e+000) (73, -7.46950575049814440000e+000) (74, -8.30779878429082610000e+000) (75, -8.77908239171690670000e+000) (76, -8.81987299928165850000e+000) (77, -4.98855962414669380000e+000) (78, -1.43018950485883840000e+000) (79, 1.12520010625515670000e-001) (80, 7.68025414375201890000e-001) (81, 4.29556338187873920000e-001) (82, -1.64550783701997720000e-002) (83, 3.52172856810284430000e-003) (84, 2.10327151571618740000e-002) (85, 1.96960452153689400000e-002) (86, -4.14196243076471880000e-002) (87, -1.74668344782990060000e-001) (88, 2.67511630685473910000e-002) (89, 5.74939503595355840000e-001) (90, 1.89715007912461080000e+000) (91, 4.70479096996950390000e+000) (92, 5.69128231795026810000e+000) (93, 1.00380836016699850000e+001) (94, 1.74960629290713920000e+001) (95, 1.86339272861617820000e+001) (96, 2.18970179260003480000e+001) (97, 2.67122124567958640000e+001) (98, 2.53880434127139800000e+001) (99, 2.56507117601018000000e+001) (100, 2.30847645742276550000e+001) (101, 1.49516100439991780000e+001) (102, 5.93661485366470300000e+000) (103, 3.27272970818409670000e+000) (104, 5.94555912072103790000e+000) (105, 1.24783651524040860000e+001) (106, 1.03915686339113300000e+001) (107, 3.13847672411825450000e+000) (108, 3.11024129914861860000e+000) (109, 9.54457804842625880000e-001) (110, -2.11291270558087780000e-003) (111, -9.71862807450634140000e-002) (112, -7.18078623981455170000e-002) (113, 4.89306955913028090000e-002) (114, 1.29866456182622850000e-001) (115, -1.53304598936401050000e-001) (116, -6.69872851437367740000e-001) (117, 1.58210115230783050000e+000) (118, 1.13718068504674970000e+001) (119, 2.48972969376080040000e+001) (120, 3.50308964350255540000e+001) (121, 6.19523837069365510000e+001) (122, 9.99437279300203020000e+001) (123, 1.43945298883181690000e+002) (124, 1.68554283141630950000e+002) (125, 1.03601806300498250000e+002) (126, 1.79142306584762280000e+001) (127, -5.53361785196292640000e+001) (128, -7.12518703743234030000e+001) (129, -3.60669107959651850000e+001) (130, 6.16890498498145940000e+001) (131, 1.89147795281899110000e+002) (132, 2.55019608815144840000e+002) (133, 2.41321952111531000000e+002) (134, 1.59537319435717960000e+002) (135, 9.49583194002396880000e+001) (136, 3.88196334634249990000e+001) (137, 5.92338704529020270000e+000) (138, -9.57786554608712430000e-001) (139, -2.57461056172164250000e-001) (140, 7.66540538766093960000e-002) (141, 4.65087897555349630000e-002) (142, -9.85054159519965080000e-002) (143, 5.15050374868156190000e-002) (144, -1.14982062980422530000e+000) (145, 3.65061821015620720000e+000) (146, 1.32062707597794410000e+001) (147, 3.85335705797378910000e+001) (148, 5.70995490972088360000e+001) (149, 5.73095852667067690000e+001) (150, 6.16418139929985860000e+001) (151, -6.91688328236942600000e+000) (152, -2.02400078419916330000e+002) (153, -5.18661625848562150000e+002) (154, -8.62871128565578720000e+002) (155, -1.10160133075348560000e+003) (156, -1.17568081481061680000e+003) (157, -9.70522456408206950000e+002) (158, -5.20444111118448290000e+002) (159, -7.68747788783241080000e+001) (160, 2.54325143114883080000e+002) (161, 3.50878705858722470000e+002) (162, 3.00961160079806060000e+002) (163, 2.17816846228896220000e+002) (164, 1.21103988938914010000e+002) (165, 3.40740984612709070000e+001) (166, 5.06477445229276580000e+000) (167, 2.49223267612805190000e-001) (168, -9.75463881723044320000e-002) (169, 2.23408318746294850000e-002) (170, -7.81250023136175310000e-001) (171, -1.11634623747975260000e+000) (172, -7.03086543002510830000e+000) (173, 4.47596780749400480000e+000) (174, 1.96270199641902040000e+001) (175, 2.34982998163693250000e+001) (176, -2.03326198385953060000e+001) (177, -1.16471683960851810000e+002) (178, -2.73653141189210600000e+002) (179, -5.32999345038529210000e+002) (180, -8.15979380728899970000e+002) (181, -1.13159865216585580000e+003) (182, -1.40535462128192170000e+003) (183, -1.61456243293599980000e+003) (184, -1.58016216732641760000e+003) (185, -1.31859990992490610000e+003) (186, -8.21215314843334910000e+002) (187, -3.59337222602701100000e+002) (188, -1.48648516092411960000e+001) (189, 1.70675859245799070000e+002) (190, 2.29800636684087150000e+002) (191, 2.51967783809099130000e+002) (192, 1.99752373194716340000e+002) (193, 7.94643288271867620000e+001) (194, 1.28933799567774990000e+001) (195, 7.30561131327674080000e-001) (196, -5.10891666978698640000e-002) (197, 7.85239156800877360000e-002) (198, -9.82745292614079720000e-001) (199, -4.26870981455318080000e+000) (200, -1.29859804693190220000e+001) (201, -4.17191613651736940000e+000) (202, 2.27804860708774190000e+000) (203, -4.98706952249460760000e+001) (204, -1.77783527969431960000e+002) (205, -4.03038730405581870000e+002) (206, -7.02674837009998670000e+002) (207, -9.78305432915321150000e+002) (208, -1.09301733979292890000e+003) (209, -1.08966226604000490000e+003) (210, -1.03342833043482550000e+003) (211, -1.04689761120816770000e+003) (212, -8.96431299993424770000e+002) (213, -6.93790165103200250000e+002) (214, -5.42862916738426410000e+002) (215, -4.37500737273874170000e+002) (216, -3.54307752297883720000e+002) (217, -1.76754180635220370000e+002) (218, -2.94259339188651770000e-001) (219, 1.77689829862492220000e+002) (220, 2.27031599169709580000e+002) (221, 1.36264678579707610000e+002) (222, 2.46238882981722080000e+001) (223, 6.28931686410917460000e-001) (224, -7.92935474583765510000e-003) (225, 2.45722517644238910000e-001) (226, -1.58525115018796180000e+000) (227, -1.03814989819130420000e+001) (228, -2.59889166452539650000e+001) (229, -2.83115622675578000000e+001) (230, -4.65025043779980010000e+001) (231, -1.49285986846042760000e+002) (232, -3.44818034781700310000e+002) (233, -6.85637641591504230000e+002) (234, -1.03764417550176740000e+003) (235, -1.13201210218076240000e+003) (236, -9.50253540657157710000e+002) (237, -5.36612751442526470000e+002) (238, -1.43952220562153200000e+002) (239, 8.41305824524378490000e+001) (240, 1.90992457378756000000e+002) (241, 1.46671413559841650000e+002) (242, -1.88697058634271490000e+002) (243, -6.01131797404660350000e+002) (244, -7.66454066572420170000e+002) (245, -6.24699715323734490000e+002) (246, -3.53817990225147470000e+002) (247, -5.15096098001909920000e+000) (248, 1.68057273869744250000e+002) (249, 1.37233697326103140000e+002) (250, 2.19303356644747930000e+001) (251, -4.95573290002458810000e-001) (252, 5.51157811911687570000e-002) (253, 5.18230088973716030000e-001) (254, -2.31980489972083470000e+000) (255, -1.39891424191107830000e+001) (256, -2.86785299333754370000e+001) (257, -3.50831066813514100000e+001) (258, -9.34150899635721430000e+001) (259, -2.27420633165347060000e+002) (260, -5.13516757828329450000e+002) (261, -9.03249937361894350000e+002) (262, -1.16758199596430810000e+003) (263, -1.04668677421929780000e+003) (264, -5.73159393514116000000e+002) (265, 9.57856944696931550000e+001) (266, 5.91936484125163470000e+002) (267, 8.08273953621313470000e+002) (268, 7.42231894548903480000e+002) (269, 3.10200135506981100000e+002) (270, -3.62090467451439680000e+002) (271, -1.03359723111737480000e+003) (272, -1.28837260163217320000e+003) (273, -1.06319897883143380000e+003) (274, -6.60782355137727340000e+002) (275, -2.41116629678409370000e+002) (276, 3.16826491914248510000e+001) (277, 7.82901673093939650000e+001) (278, 1.21236138862022780000e+001) (279, -1.27244922283051000000e+000) (280, -6.82106247991408200000e-002) (281, -2.03188389443631050000e-001) (282, -2.65752282202582580000e+000) (283, -1.08160922986567840000e+001) (284, -2.52236723236593540000e+001) (285, -4.37073067851552540000e+001) (286, -1.25446782125932170000e+002) (287, -3.07127649992302680000e+002) (288, -5.91517490903396150000e+002) (289, -8.98020722272539960000e+002) (290, -1.08380978991774260000e+003) (291, -9.07173299802834090000e+002) (292, -3.25695171022212550000e+002) (293, 3.63724135715398800000e+002) (294, 8.29942396763615310000e+002) (295, 9.41475317952738460000e+002) (296, 5.84123423986770940000e+002) (297, -1.75513683800621950000e+002) (298, -1.02694575889297990000e+003) (299, -1.65601238559313420000e+003) (300, -1.66760610426071460000e+003) (301, -1.27498588014361850000e+003) (302, -8.15279691722180590000e+002) (303, -3.71266072270931320000e+002) (304, -7.81004754766919400000e+001) (305, 1.64668399232268850000e+001) (306, 6.09503938910244790000e+000) (307, -9.09969894144389450000e-001) (308, 5.96731948602465330000e-002) (309, -8.64687375100868100000e-002) (310, -1.74229825792512540000e+000) (311, -5.24318574561117230000e+000) (312, -1.36094734516794400000e+001) (313, -4.68974678466335670000e+001) (314, -1.36484471419115660000e+002) (315, -3.11961626931799630000e+002) (316, -5.41514877806672640000e+002) (317, -7.53616858269382650000e+002) (318, -8.75614649473394140000e+002) (319, -8.03873104982560330000e+002) (320, -3.84969214684923370000e+002) (321, 2.24607571260108870000e+002) (322, 6.88562702509937250000e+002) (323, 6.82327170800184150000e+002) (324, 3.29137099791388080000e+001) (325, -8.36432299963438940000e+002) (326, -1.61721817798167100000e+003) (327, -1.88012635780352820000e+003) (328, -1.60690151853156570000e+003) (329, -1.10835460478804910000e+003) (330, -6.97327799733772620000e+002) (331, -3.65638714766350570000e+002) (332, -1.22278231532311950000e+002) (333, -8.92089073761454190000e+000) (334, 1.03332093151163560000e+000) (335, 5.05965481393122470000e-001) (336, 7.59053918718300830000e-002) (337, -4.66624622245396080000e-001) (338, -1.39546203682970260000e+000) (339, -3.03322680432914280000e+000) (340, -6.70878328184307460000e+000) (341, -3.57546933106186270000e+001) (342, -1.18404633111821550000e+002) (343, -2.21714478742399540000e+002) (344, -3.16933578384864120000e+002) (345, -4.38053272784581220000e+002) (346, -5.30844993319915600000e+002) (347, -6.86673652221303540000e+002) (348, -6.00477460923102170000e+002) (349, -9.98098497189038770000e+001) (350, 3.46151591730101470000e+002) (351, 1.74989796364784470000e+002) (352, -5.21690492438161410000e+002) (353, -1.20309505367302720000e+003) (354, -1.58549521228129720000e+003) (355, -1.44964565654296940000e+003) (356, -1.11651460873150240000e+003) (357, -7.48451917002973800000e+002) (358, -5.00447368529266610000e+002) (359, -3.05961949736280990000e+002) (360, -1.16765740578255160000e+002) (361, -1.11274666158483470000e+001) (362, -4.56172372232098670000e-001) (363, -9.36329595898718060000e-002) (364, -9.27641215482470920000e-002) (365, -6.31049758150984740000e-001) (366, -1.27732279300633910000e+000) (367, -2.64369023019484930000e+000) (368, -6.45252747631528220000e+000) (369, -4.07500054758333330000e+001) (370, -1.01287479930848410000e+002) (371, -1.33218698878580060000e+002) (372, -1.11756236459183920000e+002) (373, -8.76929556741034730000e+001) (374, -1.71819168871710420000e+002) (375, -5.74893247438037520000e+002) (376, -8.09781700967576630000e+002) (377, -4.24762297970693060000e+002) (378, -8.78670307617010590000e+001) (379, -3.33486569757241850000e+002) (380, -7.94343880244463430000e+002) (381, -1.10078906743289120000e+003) (382, -1.01603171453912070000e+003) (383, -7.48035520899993800000e+002) (384, -5.48423460243915320000e+002) (385, -4.25975636209768310000e+002) (386, -3.50570554642875780000e+002) (387, -2.37835646453990360000e+002) (388, -8.82613205926451200000e+001) (389, -6.71955412271626520000e+000) (390, 2.91524898448445670000e+000) (391, 7.49075703811813210000e-001) (392, -3.92517095692710430000e-002) (393, -3.29570486534759120000e-001) (394, -1.17048323020380420000e+000) (395, -1.41025972720917350000e+000) (396, -1.57333827578840120000e+001) (397, -7.13005169951283190000e+001) (398, -1.26339575709321590000e+002) (399, -1.19798554472084060000e+002) (400, -6.45340930743857830000e+000) (401, 1.01240369975409150000e+002) (402, -3.47065771706710960000e+001) (403, -5.51606601088061890000e+002) (404, -8.26701702761114920000e+002) (405, -6.12710018354866070000e+002) (406, -4.61890360043847070000e+002) (407, -5.16858647005046460000e+002) (408, -7.41722245998225160000e+002) (409, -7.34933450932679080000e+002) (410, -3.83906555562057750000e+002) (411, -2.25906334440617680000e+002) (412, -2.02205196676581890000e+002) (413, -2.32884841700284800000e+002) (414, -2.34074737882881440000e+002) (415, -1.65207000104831960000e+002) (416, -5.84809163183894040000e+001) (417, 3.55928650442548510000e-001) (418, 5.18191246873045230000e+000) (419, 1.19716846279846990000e-001) (420, -2.74157386827528420000e-002) (421, 5.42302915996438210000e-002) (422, -4.12358238686641730000e-001) (423, 3.94669378366097410000e+000) (424, -1.44493582439220150000e+001) (425, -9.23656929913060910000e+001) (426, -1.54669044996401650000e+002) (427, -1.68460890501324800000e+002) (428, -9.99525994095160830000e+001) (429, -1.17084583766165440000e+002) (430, -3.30198247664819920000e+002) (431, -7.30931263919676890000e+002) (432, -9.49667888529573250000e+002) (433, -7.64234951757974390000e+002) (434, -5.07001495743144570000e+002) (435, -4.48271897441487060000e+002) (436, -5.39970005017357150000e+002) (437, -3.88879058707662580000e+002) (438, -1.07329876251744570000e+002) (439, -3.67697601997602350000e+001) (440, -8.22315751796496950000e+001) (441, -1.26056027706701830000e+002) (442, -1.39642224311632080000e+002) (443, -1.00773487533695900000e+002) (444, -2.60526182748241770000e+001) (445, 1.18240163312149400000e+001) (446, 7.47092284667696840000e+000) (447, 5.10825273200120940000e-001) (448, -1.15019691963971260000e-001) (449, 1.12565797589227860000e-001) (450, 4.22958799737687350000e-001) (451, 1.19054060349383040000e+001) (452, 2.78956552051697850000e+000) (453, -6.54095842970403820000e+001) (454, -1.30597451967580550000e+002) (455, -2.39036705374012570000e+002) (456, -3.53553958252832500000e+002) (457, -5.47195150030724680000e+002) (458, -8.69029704660462360000e+002) (459, -1.14155191161725040000e+003) (460, -1.10688293212572760000e+003) (461, -6.55634646790944770000e+002) (462, -2.48250645409967400000e+002) (463, -2.36163926488158950000e+002) (464, -3.91825043600375860000e+002) (465, -3.31847670680298850000e+002) (466, -1.46075760914805560000e+002) (467, -8.39429230089430260000e+001) (468, -7.75536625684345470000e+001) (469, -7.61586085017714680000e+001) (470, -5.20115490719543630000e+001) (471, -2.60512617264166870000e+001) (472, 2.10807071259969230000e+001) (473, 3.02004730433403880000e+001) (474, 9.65828735098855520000e+000) (475, 1.50907185420045240000e+000) (476, 4.00695806752082720000e-002) (477, 2.21554325363860110000e-001) (478, 1.02329348781844760000e+000) (479, 1.73226357647688050000e+001) (480, 3.08022094758564330000e+001) (481, 1.13505837318889250000e+001) (482, -3.76597648209403180000e+001) (483, -2.53322092958290340000e+002) (484, -5.79650515310209700000e+002) (485, -1.02572964261315310000e+003) (486, -1.34138980145121510000e+003) (487, -1.37611921547377460000e+003) (488, -1.00429056696357510000e+003) (489, -3.17335009036592510000e+002) (490, 2.42450984644425670000e+001) (491, -9.10413657942882390000e+001) (492, -3.62889970836681240000e+002) (493, -4.43395895037109600000e+002) (494, -3.44035867444324080000e+002) (495, -2.19195612831414880000e+002) (496, -1.12617306857744440000e+002) (497, -3.03893652147011760000e+001) (498, 8.53719166890480000000e+000) (499, 5.68662791077672690000e+001) (500, 7.01801186181838260000e+001) (501, 3.84995771258744030000e+001) (502, 1.06190495087388170000e+001) (503, 7.16934593968580610000e-001) (504, 9.54039477379823860000e-002) (505, 6.25092042284874220000e-002) (506, -1.03400878557790340000e+000) (507, 1.44426632657827110000e+001) (508, 6.05498412208202690000e+001) (509, 9.20160257095224950000e+001) (510, 7.59310644653247240000e+001) (511, -1.95026458883730920000e+002) (512, -6.87644501563058270000e+002) (513, -1.17446630062528990000e+003) (514, -1.35566040314951190000e+003) (515, -1.11810971611055580000e+003) (516, -4.52135375605294310000e+002) (517, 1.67878285718218280000e+002) (518, 3.15473967682031570000e+002) (519, -1.24436635096324570000e+000) (520, -3.83883625687137000000e+002) (521, -5.75694508425654020000e+002) (522, -5.31609585132009330000e+002) (523, -3.44191795710471810000e+002) (524, -1.30399054513470190000e+002) (525, 3.73118844721250060000e-001) (526, 7.58079905569206150000e+001) (527, 1.25437172904105470000e+002) (528, 1.05907554906918420000e+002) (529, 3.85014076027507240000e+001) (530, 7.72845217788229370000e+000) (531, 8.47953840058550230000e-001) (532, -1.04003907799778970000e-002) (533, 7.64203076563406830000e-002) (534, -2.75179995398938890000e+000) (535, 9.82884807651324440000e+000) (536, 6.99665688991140370000e+001) (537, 1.27151412148318170000e+002) (538, 1.54423064485456850000e+002) (539, -9.73067759259016470000e+001) (540, -5.44630042824995140000e+002) (541, -9.19898264566253490000e+002) (542, -9.18778868315900240000e+002) (543, -4.67732644207404520000e+002) (544, 8.91491825537708850000e+001) (545, 4.62907857150140330000e+002) (546, 3.95815172818540990000e+002) (547, -1.01592036024190580000e+001) (548, -4.47974480071534340000e+002) (549, -6.81645960519294250000e+002) (550, -6.07759556519329290000e+002) (551, -3.45457203343691670000e+002) (552, -8.98806597173560680000e+001) (553, 6.94386129566498340000e+001) (554, 1.28906195398974320000e+002) (555, 1.47013329698936900000e+002) (556, 9.83467100699644020000e+001) (557, 3.20837661297300730000e+001) (558, 5.78370342261778880000e+000) (559, 2.73606592405260030000e-001) (560, -8.23974621653178470000e-004) (561, -3.18024641444166810000e-001) (562, -3.07720434691510380000e+000) (563, 7.17586321223071890000e+000) (564, 4.96011620270531140000e+001) (565, 8.69271566210375110000e+001) (566, 1.49185397984349780000e+002) (567, 7.14447290938781250000e+000) (568, -2.22037274383327120000e+002) (569, -3.95428009411254490000e+002) (570, -3.42852880442535820000e+002) (571, 9.55121007896228850000e+000) (572, 2.84156452935433150000e+002) (573, 4.00844297636777810000e+002) (574, 2.14175905795282150000e+002) (575, -1.81431597589023200000e+002) (576, -5.00817760143468430000e+002) (577, -6.56316109866751160000e+002) (578, -5.41477597353047710000e+002) (579, -2.59242685741554960000e+002) (580, -7.14793685907084250000e+000) (581, 1.26540960246304860000e+002) (582, 1.50730587217566010000e+002) (583, 1.34637505619000420000e+002) (584, 7.60476862463172550000e+001) (585, 1.99627089123860060000e+001) (586, 3.00210440889287120000e+000) (587, 2.39178184509930470000e-003) (588, -3.70256552472095070000e-002) (589, -1.51194945995799610000e-002) (590, -3.24864967828104540000e+000) (591, 5.08535426090869700000e+000) (592, 3.48213151905213320000e+001) (593, 3.86036224249672770000e+001) (594, 6.22426139991378730000e+001) (595, 2.97959488872298370000e+001) (596, -3.15722711876505140000e+001) (597, -1.16445985362249030000e+002) (598, -1.68309089545790700000e+002) (599, -1.14875867523060950000e+002) (600, -8.34712966221686230000e+001) (601, -1.41546663299287620000e+002) (602, -2.91333717065381450000e+002) (603, -4.37845703977790440000e+002) (604, -5.54160878970232030000e+002) (605, -5.52583809941047090000e+002) (606, -4.44691767997605550000e+002) (607, -1.62448271635504540000e+002) (608, 2.91493087502462910000e+001) (609, 1.46769701730074250000e+002) (610, 1.33016438039285480000e+002) (611, 9.27930683648713880000e+001) (612, 4.45885680599134700000e+001) (613, 1.32855825130409360000e+001) (614, 1.81444810419286840000e+000) (615, 6.42241322769013110000e-002) (616, 2.27369729140805000000e-002) (617, 2.14845800822701140000e-002) (618, -1.95086653650464110000e+000) (619, -2.31305606119612820000e+000) (620, 2.45331884289277300000e+001) (621, 1.85345067699450820000e+001) (622, -2.49089564479841740000e+001) (623, -7.07260132860341460000e+001) (624, -1.05374724381219760000e+002) (625, -2.54316700732917550000e+002) (626, -5.69435014852090490000e+002) (627, -8.46637915221157980000e+002) (628, -1.02639696000348570000e+003) (629, -1.07352000226195880000e+003) (630, -9.79889173714472350000e+002) (631, -7.93860423851046330000e+002) (632, -5.97235196670657500000e+002) (633, -4.80516566753258130000e+002) (634, -3.17563388495116950000e+002) (635, -1.10672416533573080000e+002) (636, 3.98611852274903880000e+001) (637, 9.14528259869480990000e+001) (638, 6.82899516621184120000e+001) (639, 4.50410750538369840000e+001) (640, 2.02101667723583490000e+001) (641, 7.11009728635370840000e+000) (642, 4.09030089651462430000e-001) (643, -3.52287601915996090000e-002) (644, -8.55773938533275210000e-002) (645, -3.92456060535550930000e-002) (646, -8.33912459388465480000e-001) (647, -2.07425265838445850000e+000) (648, 9.84581299856227330000e+000) (649, 1.48038065312094410000e+001) (650, -4.08547445297365730000e+000) (651, -7.99849783655191970000e+001) (652, -2.32804748569744020000e+002) (653, -5.03904082989585790000e+002) (654, -9.14743747591561260000e+002) (655, -1.36108395122992240000e+003) (656, -1.65541810994884800000e+003) (657, -1.63076595131622980000e+003) (658, -1.28360222973802120000e+003) (659, -8.80805436161755100000e+002) (660, -5.65251193443242300000e+002) (661, -4.04031797027681420000e+002) (662, -2.65828297560229090000e+002) (663, -1.09005275115001870000e+002) (664, -7.83614281956716940000e+000) (665, 1.44926017272306800000e+001) (666, 1.74433822523011240000e+001) (667, 9.54514930799691540000e+000) (668, 3.82693785173962060000e+000) (669, 3.46337239953753380000e+000) (670, 2.54664050084443870000e-001) (671, -7.44812022817313850000e-002) (672, 8.25073254482049380000e-002) (673, 8.21350109895320200000e-002) (674, 1.00012548054446160000e-001) (675, -1.69548225463502540000e+000) (676, 1.08104352276612460000e+000) (677, 6.74092636063210810000e+000) (678, -1.06118319078712610000e+001) (679, -6.60553346006420410000e+001) (680, -1.91631016838780620000e+002) (681, -3.82763852643934400000e+002) (682, -6.64411821783873960000e+002) (683, -9.05251525604572750000e+002) (684, -1.05299957928655090000e+003) (685, -1.01282136689680210000e+003) (686, -7.98985865839162780000e+002) (687, -5.61805253255070970000e+002) (688, -3.92241186485355850000e+002) (689, -2.45543473735369930000e+002) (690, -1.51355796841686010000e+002) (691, -8.01187004863602250000e+001) (692, -4.15187055172958070000e+001) (693, -1.81235927395003740000e+001) (694, -5.52049558028168970000e+000) (695, -1.42906929752397850000e+000) (696, 1.46376659372887370000e+000) (697, 1.58667024821915730000e+000) (698, 1.80176229008144890000e-001) (699, 7.18505870081571630000e-002) (700, -7.74108898253871300000e-002) (701, 5.56640633294591680000e-003) (702, 8.36855710039359210000e-002) (703, 9.81787901878589660000e-002) (704, 1.29575278300173460000e+000) (705, 5.56240363617003820000e+000) (706, 1.36465215818003130000e+001) (707, 1.18065527283290770000e+001) (708, 4.47450964577848960000e+000) (709, 8.48220108668942530000e+000) (710, -1.57513597873132950000e+000) (711, -2.12000098806542030000e+001) (712, -4.60503409117773830000e+001) (713, -5.72239304144301360000e+001) (714, -5.55191354687010230000e+001) (715, -4.44324173918292690000e+001) (716, -5.16039883511197600000e+001) (717, -5.68270448568163000000e+001) (718, -5.58327137648710800000e+001) (719, -4.41674186463607010000e+001) (720, -2.68015779685583090000e+001) (721, -1.00008764120849030000e+001) (722, -1.97141305482188620000e+000) (723, -7.99193482595735080000e-001) (724, -1.85162832901907520000e-001) (725, 6.37019268466641750000e-002) (726, 4.43983096411667900000e-002) (727, 4.47387701979096160000e-002) (728, 9.53796400931423700000e-002) (729, 7.49572765075754430000e-002) (730, -9.78454604423859560000e-002) (731, -5.85815438416830150000e-002) (732, 1.89611874658369650000e-001) (733, 1.85516690631531980000e+000) (734, 5.19783403575659800000e+000) (735, -8.24949059862291610000e-001) (736, -2.88007814634083340000e+000) (737, -4.98278318393514220000e+000) (738, -2.68550334201673510000e+000) (739, -8.21954078394476980000e-001) (740, 3.20688778915398210000e-001) (741, -2.85766353645554890000e+000) (742, -4.62321026608510710000e+000) (743, -4.61818130610729940000e+000) (744, -1.89083463979790990000e+000) (745, -7.78228340850470520000e+000) (746, -1.10790444703938440000e+001) (747, -9.92243135184480350000e+000) (748, -5.52587788096596370000e+000) (749, -1.15479626680012370000e+000) (750, -7.20310425085205150000e-001) (751, -3.70111868115089890000e-001) (752, -9.49707045401737560000e-002) (753, -9.33647487597271810000e-002) (754, -7.09838877764923380000e-002) (755, -2.38342288707826810000e-002) (756, 4.03442388824259980000e-003) (757, -1.65222170430752160000e-002) (758, 4.30114752502959160000e-002) (759, 9.79614272409889960000e-003) (760, 7.59003907855332620000e-002) (761, 3.38477752682763810000e-001) (762, 3.19408021916047110000e-001) (763, 2.54910368426680130000e-001) (764, 4.39474749216083370000e-001) (765, 8.11975951460648940000e-001) (766, 1.14015056020800070000e+000) (767, 8.90385234903088740000e-001) (768, 1.58764719147130350000e+000) (769, 1.04031047434063370000e-001) (770, -1.80656589773324860000e+000) (771, -4.58553619766666250000e-001) (772, 1.19481267679017140000e-002) (773, -1.75926376494656280000e+000) (774, -2.17677137351396420000e+000) (775, -9.79520846359284380000e-001) (776, -1.67949164784522150000e-001) (777, -1.54854409410755790000e-001) (778, -3.57970270943330340000e-001) (779, -6.24019580779970400000e-002) (780, -1.22802736204903340000e-002) (781, 6.54724130849899670000e-002) (782, 6.58813486379585810000e-002) (783, 3.07128910826577340000e-002) (784, 3.83198320328864210000e+000) (0, 2.06237796041932600000e-002) (1, 5.14587410011699830000e-002) (2, -5.36865242374915400000e-002) (3, 9.68322768335383440000e-002) (4, 4.85412604889461360000e-002) (5, -4.18884283585612140000e-002) (6, -8.82141126426176920000e-002) (7, -2.57751468684546130000e-002) (8, 4.71801764842894040000e-003) (9, -4.74853522700868780000e-003) (10, 7.12341319208462660000e-002) (11, -8.04321301047821180000e-002) (12, 7.34272054562883430000e-003) (13, 3.14995588381641660000e-001) (14, 3.47136702141831680000e-001) (15, 1.10310559788429210000e-002) (16, 6.91467295459915480000e-002) (17, 3.91723638649637000000e-002) (18, -2.63061527357422160000e-003) (19, 5.88989266589123870000e-002) (20, -5.68115242840576680000e-002) (21, -4.80834968102499260000e-002) (22, 3.61877446798644090000e-002) (23, 6.63757334109504880000e-002) (24, -1.62597658672893890000e-002) (25, -6.29760751571666330000e-002) (26, 7.34497081257359240000e-002) (27, 3.81591802561160880000e-002) (28, 3.36791997206091760000e-002) (29, 4.33349615832412380000e-002) (30, -6.96899424447110500000e-002) (31, -9.22119154365645950000e-002) (32, 1.45263674039597390000e-003) (33, -1.08421524053737880000e-001) (34, -1.29986408352027370000e+000) (35, -2.91752386914796480000e+000) (36, -3.13998904635663530000e+000) (37, -4.91630554765512610000e+000) (38, -8.15715752117218610000e+000) (39, -8.68624172266568810000e+000) (40, -7.07647916343073110000e+000) (41, -6.64871819934768560000e+000) (42, -4.32767563092563370000e+000) (43, -1.68570968169385330000e+000) (44, -6.05843686017934810000e-001) (45, -2.19755393125671980000e+000) (46, -2.78247732044921660000e+000) (47, -3.01831467772366490000e+000) (48, -2.16984379601819110000e+000) (49, -1.10537928810244250000e+000) (50, -3.05893731238840170000e-001) (51, -1.35246240413813170000e-002) (52, -6.98120127590300400000e-002) (53, -7.71118175553056060000e-002) (54, -9.44824232828977980000e-002) (55, -2.27172854947639280000e-002) (56, 9.74487319208492410000e-002) (57, 4.72473151571648490000e-002) (58, 1.68518068917364870000e-002) (59, -1.06644828581077960000e-001) (60, -6.92625103922451390000e-002) (61, -2.13543720854686040000e-001) (62, -2.39562822931168770000e+000) (63, -7.10463787808017510000e+000) (64, -1.55578185111339630000e+001) (65, -2.39540780157783540000e+001) (66, -3.43196001175008760000e+001) (67, -4.73134638789072210000e+001) (68, -7.19884674671745590000e+001) (69, -9.95233108439855840000e+001) (70, -1.01378303614787630000e+002) (71, -8.25797943099827450000e+001) (72, -7.01037515862094690000e+001) (73, -5.68170005536283110000e+001) (74, -4.82937646930324720000e+001) (75, -4.21850204457756350000e+001) (76, -3.43655525426289330000e+001) (77, -2.30569203746701420000e+001) (78, -1.02415875228831260000e+001) (79, -2.66276430910490450000e+000) (80, 1.21033409158590070000e+000) (81, 1.12764915112212270000e+000) (82, 1.09252931315495520000e-002) (83, 8.24829113853411400000e-002) (84, -1.40991213038432760000e-002) (85, -3.53515630267793310000e-002) (86, -3.51335213752777960000e-002) (87, -4.64284288651165110000e-001) (88, -1.57728500103849260000e-001) (89, -1.15320216118202220000e+000) (90, -2.41664664872780440000e+000) (91, -4.97704953265748620000e+000) (92, -9.36692058931406630000e+000) (93, -1.57706341178804850000e+001) (94, -2.00981543287311620000e+001) (95, -3.87647464462134010000e+001) (96, -6.81423213141911500000e+001) (97, -1.04318253573856810000e+002) (98, -1.44881851951922580000e+002) (99, -1.52543142944449870000e+002) (100, -1.54074067099466160000e+002) (101, -1.47971888940328260000e+002) (102, -1.35438036944544420000e+002) (103, -1.19292948936300390000e+002) (104, -9.11585638738733480000e+001) (105, -5.59208704193666360000e+001) (106, -2.71671371462314930000e+001) (107, -1.01445804628711930000e+001) (108, -6.24863643354885530000e-001) (109, 1.99163276611154180000e+000) (110, 4.73689105080708490000e-001) (111, 1.04064942956938470000e-002) (112, 3.95324712922047180000e-002) (113, -6.94997466052876410000e-002) (114, 1.25819064011746030000e-001) (115, -2.79142180181959800000e-001) (116, -1.26760674601206610000e+000) (117, -2.85713162813570910000e+000) (118, 2.26944914570659730000e+000) (119, 2.86027021035188960000e+000) (120, -3.04636259883476200000e+000) (121, -4.86175792894179450000e+000) (122, -1.02351552551075750000e+001) (123, -3.04005699430350090000e+001) (124, -9.87732494868244690000e+001) (125, -1.87506726101918330000e+002) (126, -2.17789297207972110000e+002) (127, -2.31115479767951770000e+002) (128, -2.24863265122809220000e+002) (129, -2.14660500596813420000e+002) (130, -1.89142340325162050000e+002) (131, -1.36486598000714000000e+002) (132, -6.31908127284116790000e+001) (133, 1.73631680258022630000e+001) (134, 5.26230746627324560000e+001) (135, 5.64358407060881860000e+001) (136, 3.40740403601287270000e+001) (137, 8.49603610102979620000e+000) (138, -4.15991507326257610000e-001) (139, -1.61526914320148870000e-001) (140, -7.78320324097876440000e-002) (141, 7.88818371129309530000e-002) (142, -2.67050607418920540000e-002) (143, -2.80673298371506950000e-001) (144, -6.09354701879410770000e+000) (145, -8.67667008953545430000e+000) (146, -1.35382990235586540000e+001) (147, -1.16633754516357210000e+001) (148, -1.50312601045893150000e+001) (149, -3.22075692862684090000e+001) (150, -4.60147413259240850000e+001) (151, -1.33502474922711540000e+002) (152, -3.47302973201774360000e+002) (153, -5.40664272055744280000e+002) (154, -6.78386178236345700000e+002) (155, -7.38777620077687400000e+002) (156, -7.48860770772767180000e+002) (157, -6.43867540586052540000e+002) (158, -4.70472896861159200000e+002) (159, -2.60627840945180370000e+002) (160, -2.06632572650834730000e+001) (161, 1.43677706349329380000e+002) (162, 2.09280913030396450000e+002) (163, 1.82118499449933950000e+002) (164, 1.15864892322252230000e+002) (165, 3.73807558714951750000e+001) (166, 4.01434411777719100000e+000) (167, 4.62958816212814610000e-002) (168, 6.09863290337671060000e-002) (169, 7.52922624860953990000e-002) (170, 8.86972473987191260000e-001) (171, -1.58096672280669950000e+000) (172, -1.53965750558211680000e+001) (173, -1.34249919326417530000e+001) (174, -1.02312219189790630000e+001) (175, -1.14343655517094070000e+001) (176, -2.26581134945959480000e+001) (177, -5.68909569316757530000e+001) (178, -8.33017869472988930000e+001) (179, -2.31827908807953830000e+002) (180, -4.40278618034892990000e+002) (181, -5.77568712025814990000e+002) (182, -6.20117307591081610000e+002) (183, -6.39915217470875970000e+002) (184, -6.22815980941152590000e+002) (185, -5.44991995029007060000e+002) (186, -3.92636537322927100000e+002) (187, -2.17206201516971110000e+002) (188, 3.78666280432391520000e+000) (189, 2.14663484777140950000e+002) (190, 3.09200883453358020000e+002) (191, 2.87372930138373420000e+002) (192, 2.03593218978699440000e+002) (193, 8.32371246835300840000e+001) (194, 1.37259183838111180000e+001) (195, 6.21771187248091990000e-001) (196, 6.66172522636580280000e-002) (197, -7.18307395641332030000e-002) (198, 2.33092391210825100000e+000) (199, 5.57464886272112330000e-001) (200, -1.09897853102795530000e+001) (201, -5.52885482644956610000e-002) (202, 2.32081996651598250000e+001) (203, 2.98942958570969600000e+001) (204, 2.43766852472497600000e+001) (205, 4.19254400100070160000e+000) (206, -3.03296925773263840000e+001) (207, -1.41143686687771440000e+002) (208, -2.45722186609474790000e+002) (209, -2.47069866207759420000e+002) (210, -1.70104696210056770000e+002) (211, -1.27777358906764530000e+002) (212, -6.65463437598060640000e+001) (213, -6.78249396213903000000e+001) (214, -8.49425302872988940000e+001) (215, -7.59825023795133630000e+001) (216, 4.36406742536028390000e+001) (217, 2.12817399733383780000e+002) (218, 3.06366534072197400000e+002) (219, 3.28944369956029560000e+002) (220, 2.51708204585908280000e+002) (221, 1.28335898859958920000e+002) (222, 2.27807587922886550000e+001) (223, 7.05713215262072980000e-001) (224, -7.55237785064513110000e-002) (225, 1.08521806443657100000e+000) (226, 7.43277144331046190000e+000) (227, 9.50664972944985110000e+000) (228, 1.56566635396213120000e+000) (229, 2.40150862487337310000e+001) (230, 6.38457802499442480000e+001) (231, 9.04491257598228490000e+001) (232, 1.11740087301726430000e+002) (233, 7.71879860229950050000e+001) (234, 4.69987673453742470000e+001) (235, 2.42117798532367700000e+001) (236, 2.98263043319312700000e+000) (237, 1.12514122350848920000e+002) (238, 2.76605435259712690000e+002) (239, 3.88975711407451400000e+002) (240, 3.96819500821661680000e+002) (241, 2.77573019326383130000e+002) (242, 9.55637386954537500000e+001) (243, -5.07422308292984430000e+001) (244, 5.78091470360732810000e+000) (245, 1.22298513039488370000e+002) (246, 2.12353083031787090000e+002) (247, 2.96908937618006010000e+002) (248, 2.64588060733613700000e+002) (249, 1.50378415279617120000e+002) (250, 2.91142213966884850000e+001) (251, 1.21930842911013880000e+000) (252, -7.80261294991285970000e-003) (253, 1.72250190348756990000e+000) (254, 1.12343085255525230000e+001) (255, 2.16740113030639070000e+001) (256, 2.66561092713768350000e+001) (257, 6.00085804897536330000e+001) (258, 9.97970166101265330000e+001) (259, 1.26387182359797270000e+002) (260, 1.39608862238019840000e+002) (261, 1.08744259497604660000e+002) (262, 1.00024544460126780000e+002) (263, 1.57990914099441370000e+002) (264, 1.67347262930925840000e+002) (265, 2.89546603558868530000e+002) (266, 4.16491857561023490000e+002) (267, 4.77586253285002160000e+002) (268, 3.88825090979623040000e+002) (269, 1.76359117201570770000e+002) (270, -6.21539280862026260000e+001) (271, -1.81225790271767180000e+002) (272, -1.53707597711604790000e+002) (273, -5.42348196854496290000e+001) (274, 6.25939542396618760000e+001) (275, 1.58289017948650550000e+002) (276, 1.86105853686390760000e+002) (277, 1.15826810356248710000e+002) (278, 2.43553566989796590000e+001) (279, 4.98758577714103480000e-001) (280, 3.93706833051761030000e-002) (281, 2.71985605952997390000e+000) (282, 1.44668795085341340000e+001) (283, 2.88186522102766600000e+001) (284, 4.31057747445155210000e+001) (285, 8.38600498783487040000e+001) (286, 1.16171541422641350000e+002) (287, 1.30656042135590350000e+002) (288, 1.37445220927057360000e+002) (289, 1.41062541538486440000e+002) (290, 1.44245291744655250000e+002) (291, 1.87302103772236360000e+002) (292, 1.82781689767652130000e+002) (293, 2.28364387719970550000e+002) (294, 2.67251395454464670000e+002) (295, 2.08093497467905110000e+002) (296, 2.32696596679377410000e+001) (297, -2.36682080817801730000e+002) (298, -4.17753037531624270000e+002) (299, -4.33420181223742590000e+002) (300, -3.62461549838666710000e+002) (301, -2.50533624547306120000e+002) (302, -1.24321642675472450000e+002) (303, -8.44982893217810020000e+000) (304, 6.11875289610436820000e+001) (305, 5.55396600006878810000e+001) (306, 1.41736508687917730000e+001) (307, 6.92000119693305550000e-001) (308, 3.57254581580193490000e-002) (309, 1.86248273192716680000e+000) (310, 1.24714655950379660000e+001) (311, 2.62624014049402060000e+001) (312, 4.75844805778576190000e+001) (313, 8.01950588663525110000e+001) (314, 1.02798176002727570000e+002) (315, 1.23945213466446190000e+002) (316, 1.31694765454081220000e+002) (317, 1.57544782373389950000e+002) (318, 1.86938717412583690000e+002) (319, 1.58383982230726390000e+002) (320, 4.59806085759037590000e+001) (321, -1.61893742616160840000e+001) (322, -8.26679556050525830000e+001) (323, -2.28376820556484600000e+002) (324, -4.36402638539111080000e+002) (325, -6.21264945067225770000e+002) (326, -6.39911548190346820000e+002) (327, -5.64545863340306370000e+002) (328, -4.56947046330473430000e+002) (329, -3.28360467068162390000e+002) (330, -2.12235123667848430000e+002) (331, -1.15271171727510900000e+002) (332, -2.16648771750944180000e+001) (333, 1.28721947445982230000e+001) (334, 5.03526697513910020000e+000) (335, 4.82477014448965680000e-001) (336, 1.53927239101787180000e-001) (337, 8.97765467549534460000e-001) (338, 7.64823403835522610000e+000) (339, 1.90033415336005010000e+001) (340, 4.53380526112210230000e+001) (341, 7.53382636372948720000e+001) (342, 8.49517139159091390000e+001) (343, 1.06846504965332680000e+002) (344, 1.53313862594382930000e+002) (345, 2.07997293984337260000e+002) (346, 2.54664078605972090000e+002) (347, 9.37958195301674640000e+001) (348, -1.81973838348185010000e+002) (349, -3.51868365390879430000e+002) (350, 