FANN_FLO_2.1
num_layers=3
learning_rate=0.500000
connection_rate=1.000000
network_type=0
learning_momentum=0.100000
training_algorithm=0
train_error_function=1
train_stop_function=0
cascade_output_change_fraction=0.010000
quickprop_decay=-0.000100
quickprop_mu=1.750000
rprop_increase_factor=1.200000
rprop_decrease_factor=0.500000
rprop_delta_min=0.000000
rprop_delta_max=50.000000
rprop_delta_zero=0.100000
cascade_output_stagnation_epochs=12
cascade_candidate_change_fraction=0.010000
cascade_candidate_stagnation_epochs=12
cascade_max_out_epochs=150
cascade_min_out_epochs=50
cascade_max_cand_epochs=150
cascade_min_cand_epochs=50
cascade_num_candidate_groups=2
bit_fail_limit=3.49999999999999980000e-001
cascade_candidate_limit=1.00000000000000000000e+003
cascade_weight_multiplier=4.00000000000000020000e-001
cascade_activation_functions_count=10
cascade_activation_functions=3 5 7 8 10 11 14 15 16 17 
cascade_activation_steepnesses_count=4
cascade_activation_steepnesses=2.50000000000000000000e-001 5.00000000000000000000e-001 7.50000000000000000000e-001 1.00000000000000000000e+000 
layer_sizes=785 31 11 
scale_included=1
scale_mean_in=0.000000 0.000000 0.000000 0.000000 0.000000 0.000000 0.000000 0.000000 0.000000 0.000000 0.000000 0.000000 0.000001 0.000019 0.000019 0.000001 0.000000 0.000000 0.000000 0.000000 0.000000 0.000000 0.000000 0.000000 0.000000 0.000000 0.000000 0.000000 0.000000 0.000000 0.000000 0.000000 0.000000 0.000001 0.000048 0.000104 0.000162 0.000246 0.000510 0.000675 0.000654 0.000671 0.000695 0.000618 0.000722 0.000632 0.000430 0.000301 0.000213 0.000085 0.000043 0.000018 0.000000 0.000000 0.000000 0.000000 0.000000 0.000000 0.000000 0.000004 0.000033 0.000019 0.000176 0.000596 0.001097 0.002053 0.003294 0.005000 0.007191 0.009624 0.012523 0.014257 0.014644 0.013237 0.010768 0.007929 0.004588 0.002283 0.001022 0.000333 0.000122 0.000020 0.000000 0.000000 0.000000 0.000000 0.000005 0.000030 0.000053 0.000312 0.000927 0.002340 0.004614 0.008576 0.013975 0.020909 0.028576 0.037525 0.046453 0.052236 0.052135 0.046646 0.037310 0.026463 0.015823 0.008433 0.003778 0.001382 0.000519 0.000102 0.000015 0.000000 0.000000 0.000003 0.000020 0.000059 0.000334 0.001652 0.004179 0.009490 0.018407 0.032428 0.051290 0.074996 0.104864 0.137183 0.163131 0.176820 0.174413 0.154148 0.122332 0.089402 0.057457 0.033036 0.017303 0.008168 0.003368 0.000795 0.000125 0.000011 0.000000 0.000000 0.000040 0.000222 0.001469 0.005536 0.013645 0.027877 0.050247 0.082173 0.122071 0.172386 0.230018 0.288523 0.332639 0.355028 0.349013 0.314619 0.258774 0.195919 0.134640 0.083930 0.048409 0.025933 0.011688 0.003139 0.000495 0.000013 0.000000 0.000000 0.000122 0.000785 0.004112 0.012307 0.028241 0.054925 0.093708 0.145165 0.207709 0.278168 0.349957 0.415706 0.463603 0.485396 0.476840 0.439387 0.377318 0.296411 0.212959 0.139256 0.082833 0.044892 0.020930 0.006911 0.001302 0.000092 0.000004 0.000088 0.000424 0.002278 0.008769 0.022772 0.048113 0.087266 0.142070 0.210863 0.289624 0.369974 0.438287 0.489985 0.519536 0.529521 0.522372 0.497398 0.446187 0.369660 0.275128 0.184571 0.111318 0.059803 0.027498 0.009908 0.002003 0.000107 0.000021 0.000215 0.001273 0.005000 0.014227 0.032691 0.065466 0.115884 0.184813 0.268013 0.355555 0.427237 0.470294 0.484329 0.481970 0.478537 0.480007 0.479867 0.457586 0.397156 0.305344 0.208163 0.125795 0.064679 0.027900 0.010083 0.001882 0.000073 0.000009 0.000293 0.001974 0.006480 0.017113 0.038217 0.075988 0.135244 0.215091 0.306582 0.389028 0.435558 0.436491 0.410303 0.386470 0.387398 0.407747 0.435272 0.436850 0.390347 0.303764 0.208047 0.124015 0.061020 0.023293 0.007415 0.001318 0.000086 0.000016 0.000410 0.002188 0.006487 0.016693 0.038493 0.080198 0.146271 0.234189 0.327384 0.394381 0.406131 0.369221 0.324436 0.308361 0.328858 0.366796 0.410439 0.418031 0.371210 0.283605 0.190849 0.112828 0.054079 0.018528 0.004664 0.000867 0.000077 0.000029 0.000320 0.001789 0.005154 0.014364 0.037499 0.083008 0.156731 0.251855 0.343633 0.389865 0.373925 0.320173 0.286325 0.296478 0.333939 0.381572 0.423132 0.416140 0.351320 0.256109 0.167555 0.100182 0.050296 0.016095 0.002380 0.000451 0.000031 0.000014 0.000170 0.000986 0.003449 0.012027 0.037369 0.089720 0.171931 0.272526 0.356277 0.385862 0.357161 0.312188 0.310667 0.349553 0.398183 0.443642 0.462004 0.422993 0.332765 0.231268 0.150895 0.093923 0.050479 0.016990 0.001637 0.000272 0.000038 0.000003 0.000085 0.000490 0.002261 0.011405 0.041768 0.100787 0.188136 0.287822 0.362198 0.380746 0.356600 0.340317 0.379833 0.435728 0.485830 0.509523 0.497103 0.427293 0.318879 0.217439 0.146543 0.095133 0.054161 0.020267 0.002256 0.000312 0.000032 0.000000 0.000043 0.000211 0.001735 0.011933 0.048816 0.112645 0.199419 0.291812 0.356468 0.373624 0.365451 0.383178 0.451786 0.509895 0.547302 0.538364 0.502434 0.418232 0.311327 0.220212 0.153665 0.101279 0.058160 0.022691 0.003197 0.000324 0.000007 0.000001 0.000020 0.000179 0.001934 0.013805 0.057009 0.122344 0.201583 0.281232 0.337018 0.358540 0.368536 0.410501 0.482095 0.531512 0.545031 0.517164 0.475229 0.395948 0.307298 0.228556 0.162436 0.106564 0.058562 0.022811 0.004103 0.000510 0.000040 0.000003 0.000021 0.000302 0.002467 0.017313 0.065258 0.128244 0.196635 0.260634 0.305014 0.326829 0.348589 0.394467 0.452764 0.494297 0.498272 0.473958 0.434655 0.373268 0.303221 0.233157 0.164564 0.104621 0.055552 0.021587 0.004729 0.000657 0.000060 0.000000 0.000032 0.000423 0.003755 0.023343 0.073094 0.131672 0.189524 0.236940 0.270696 0.290571 0.314132 0.349282 0.397834 0.440018 0.450889 0.439492 0.408926 0.362621 0.302938 0.231695 0.159200 0.097168 0.049957 0.019851 0.005261 0.000746 0.000037 0.000010 0.000022 0.000588 0.005777 0.030109 0.081130 0.137543 0.188729 0.227460 0.257772 0.279548 0.298212 0.322998 0.370519 0.416189 0.438936 0.437368 0.411990 0.366371 0.299318 0.221025 0.146730 0.087863 0.044199 0.017717 0.005082 0.000651 0.000039 0.000000 0.000027 0.001040 0.007857 0.034706 0.086485 0.145394 0.200007 0.243977 0.278882 0.304416 0.322260 0.350754 0.395622 0.439872 0.461993 0.455879 0.422348 0.362275 0.281095 0.198349 0.126579 0.072600 0.035288 0.014087 0.003994 0.000557 0.000014 0.000000 0.000046 0.001340 0.008717 0.033566 0.082040 0.147435 0.212422 0.270359 0.318942 0.354541 0.383256 0.417468 0.459146 0.490244 0.493049 0.464339 0.408152 0.329403 0.239508 0.159822 0.096803 0.052894 0.025383 0.010684 0.002783 0.000401 0.000004 0.000003 0.000045 0.001132 0.006912 0.025787 0.066721 0.130195 0.203761 0.277366 0.343002 0.396461 0.440316 0.480534 0.511689 0.517997 0.490006 0.431426 0.350801 0.261301 0.178415 0.111720 0.063566 0.033446 0.016247 0.006768 0.001742 0.000241 0.000003 0.000003 0.000001 0.000644 0.004128 0.015045 0.042687 0.092133 0.160586 0.240288 0.318622 0.388846 0.442902 0.480599 0.491838 0.473095 0.419854 0.343631 0.258812 0.178864 0.113071 0.065899 0.035651 0.018499 0.008803 0.003298 0.000759 0.000074 0.000006 0.000000 0.000000 0.000201 0.001606 0.006574 0.019254 0.046766 0.094011 0.158188 0.231699 0.303692 0.360772 0.391566 0.389569 0.355648 0.296358 0.225743 0.158266 0.101018 0.059987 0.032972 0.017196 0.008675 0.003802 0.001192 0.000232 0.000024 0.000000 0.000000 0.000000 0.000038 0.000458 0.002139 0.006251 0.016319 0.035927 0.066183 0.106521 0.150080 0.185950 0.204075 0.201051 0.179052 0.144095 0.107592 0.075622 0.047964 0.028342 0.015287 0.007659 0.003691 0.001484 0.000359 0.000092 0.000010 0.000000 0.000000 0.000000 0.000001 0.000047 0.000462 0.001696 0.005264 0.012119 0.023705 0.038298 0.054596 0.066281 0.071949 0.070316 0.063224 0.051834 0.041388 0.031065 0.020856 0.012464 0.006574 0.003140 0.001450 0.000506 0.000094 0.000008 0.000009 0.000000 0.000000 0.000000 0.000000 0.000000 0.000124 0.000527 0.001998 0.004597 0.008881 0.013561 0.019349 0.024102 0.025736 0.024715 0.022098 0.017580 0.013687 0.010295 0.006919 0.004098 0.002138 0.000912 0.000308 0.000067 0.000000 0.000005 0.000000 0.000000 0.000000 0.000000 0.000000 0.000000 0.000008 0.000048 0.000172 0.000315 0.000421 0.000809 0.001396 0.001773 0.002195 0.002523 0.002807 0.002275 0.001845 0.001401 0.000818 0.000329 0.000110 0.000038 0.000051 0.000010 0.000000 0.000000 0.000000 0.000000 
scale_deviation_in=0.000000 0.000000 0.000000 0.000000 0.000000 0.000000 0.000000 0.000000 0.000000 0.000000 0.000000 0.000000 0.000185 0.003993 0.003993 0.000166 0.000000 0.000000 0.000000 0.000000 0.000000 0.000000 0.000000 0.000000 0.000000 0.000000 0.000000 0.000000 0.000000 0.000000 0.000000 0.000000 0.000000 0.000148 0.004777 0.009108 0.011301 0.012477 0.020205 0.022476 0.021920 0.021909 0.022617 0.021470 0.023365 0.021941 0.017523 0.015185 0.012706 0.007391 0.005040 0.003652 0.000000 0.000000 0.000000 0.000000 0.000000 0.000000 0.000000 0.000587 0.003657 0.001685 0.010039 0.020631 0.028604 0.038961 0.049733 0.060575 0.073324 0.084209 0.096807 0.102876 0.105516 0.100628 0.090424 0.078508 0.059093 0.041557 0.027176 0.015118 0.009270 0.003219 0.000000 0.000000 0.000000 0.000000 0.000803 0.002983 0.003643 0.013532 0.024730 0.040859 0.058302 0.080501 0.102823 0.126478 0.146839 0.168046 0.187323 0.198668 0.197374 0.187722 0.168325 0.142668 0.108725 0.080172 0.051309 0.031389 0.019059 0.006688 0.002400 0.000000 0.000000 0.000702 0.002832 0.003770 0.014066 0.033140 0.052787 0.082128 0.115424 0.154244 0.194170 0.232855 0.270512 0.304807 0.328028 0.338656 0.336397 0.319820 0.289618 0.251315 0.203309 0.154161 0.110655 0.076073 0.047970 0.020875 0.008622 0.001596 0.000000 0.000000 0.003455 0.010825 0.028777 0.062515 0.099121 0.142884 0.191586 0.242618 0.290294 0.334922 0.374002 0.403867 0.420096 0.425537 0.423106 0.412116 0.388175 0.351703 0.300728 0.241850 0.185790 0.136576 0.089004 0.042983 0.016226 0.001915 0.000000 0.000074 0.007664 0.022606 0.053378 0.094162 0.143715 0.200807 0.259114 0.314283 0.361773 0.397991 0.422801 0.435839 0.440034 0.440612 0.440552 0.439810 0.431088 0.407590 0.365436 0.307024 0.242983 0.180303 0.121626 0.067783 0.028254 0.006686 0.000869 0.006189 0.016092 0.039103 0.078744 0.129095 0.187699 0.249649 0.309734 0.361013 0.398971 0.421685 0.431154 0.433015 0.433234 0.431662 0.432621 0.434075 0.435054 0.426488 0.396776 0.345327 0.278890 0.207143 0.139636 0.082563 0.035388 0.006854 0.003664 0.011849 0.029511 0.060255 0.103662 0.156220 0.219043 0.284461 0.346278 0.392930 0.421151 0.433124 0.435362 0.436324 0.436021 0.434255 0.434364 0.435231 0.436629 0.432871 0.410860 0.363529 0.295656 0.215726 0.141511 0.083994 0.034742 0.006220 0.001534 0.014511 0.037650 0.070651 0.114580 0.169599 0.235628 0.305842 0.368191 0.409197 0.431265 0.436840 0.436471 0.432246 0.426752 0.425472 0.428257 0.433331 0.435668 0.431800 0.410434 0.365090 0.294082 0.209217 0.128875 0.070863 0.028421 0.007248 0.003420 0.017702 0.040334 0.071113 0.113726 0.169943 0.241561 0.315548 0.378665 0.416952 0.432725 0.434717 0.423460 0.408035 0.402408 0.411391 0.421225 0.430489 0.433322 0.428078 0.402617 0.353564 0.282691 0.197793 0.115025 0.056558 0.023602 0.006312 0.003784 0.014613 0.036261 0.062160 0.104366 0.166350 0.244784 0.324160 0.387727 0.422665 0.432341 0.427271 0.408079 0.392023 0.402084 0.417290 0.423467 0.431193 0.433008 0.423773 0.389006 0.334009 0.269910 0.192913 0.106086 0.038621 0.016512 0.003249 0.003013 0.010464 0.026713 0.050316 0.094509 0.165521 0.253872 0.337566 0.398895 0.427937 0.432224 0.424103 0.407271 0.404105 0.426792 0.434729 0.430243 0.435661 0.436565 0.417660 0.373415 0.319493 0.263395 0.196055 0.109845 0.032035 0.013327 0.003658 0.000592 0.007413 0.019169 0.039577 0.091998 0.174780 0.268879 0.350744 0.407267 0.430191 0.431720 0.423970 0.416867 0.426723 0.446174 0.437354 0.431371 0.439526 0.437395 0.411232 0.365162 0.316929 0.266026 0.204139 0.122384 0.037699 0.013326 0.004769 0.000000 0.004676 0.011638 0.034470 0.092704 0.188827 0.284116 0.360505 0.409983 0.429403 0.430137 0.424916 0.424097 0.437055 0.445790 0.429633 0.430613 0.440338 0.434970 0.408638 0.368615 0.324414 0.273312 0.210945 0.130312 0.046460 0.013526 0.001083 0.000129 0.004179 0.009552 0.036246 0.098767 0.204733 0.295758 0.362993 0.405256 0.424381 0.425750 0.424752 0.429542 0.441466 0.441683 0.428741 0.436574 0.441929 0.430592 0.408256 0.374727 0.333061 0.278836 0.209848 0.130339 0.054076 0.017971 0.004081 0.000739 0.002678 0.013711 0.040710 0.110901 0.219202 0.302736 0.359428 0.394790 0.411873 0.415572 0.419756 0.430996 0.442740 0.441852 0.436150 0.439950 0.436107 0.425458 0.407536 0.379366 0.334128 0.275587 0.203569 0.124956 0.057744 0.020197 0.006180 0.000000 0.003451 0.016600 0.051065 0.131479 0.232916 0.306058 0.353545 0.381981 0.397380 0.404059 0.412392 0.425682 0.434723 0.439052 0.438110 0.435431 0.430109 0.424464 0.409124 0.378730 0.329393 0.264995 0.192462 0.118540 0.061163 0.021869 0.003247 0.001456 0.003730 0.018887 0.063868 0.150424 0.246012 0.312348 0.353156 0.376484 0.392100 0.402497 0.410362 0.416336 0.427071 0.435484 0.435076 0.431743 0.432358 0.427228 0.409722 0.373033 0.318499 0.253265 0.180674 0.112890 0.059829 0.020498 0.004284 0.000000 0.003682 0.027055 0.076153 0.162626 0.254648 0.320698 0.362038 0.386246 0.402892 0.413406 0.420057 0.425194 0.432118 0.436592 0.435502 0.433514 0.435744 0.427848 0.401785 0.358180 0.298535 0.230638 0.161406 0.101031 0.052531 0.019530 0.002065 0.000000 0.004944 0.030198 0.080808 0.160050 0.247286 0.321626 0.371902 0.401290 0.418612 0.428175 0.432977 0.435695 0.437530 0.436611 0.435978 0.436039 0.433543 0.418013 0.382601 0.328419 0.263885 0.197134 0.136271 0.087928 0.042888 0.015946 0.000943 0.000592 0.004691 0.028010 0.070356 0.137427 0.221839 0.302614 0.365844 0.405696 0.427184 0.436072 0.437139 0.435728 0.432758 0.433433 0.434984 0.433343 0.421391 0.391872 0.341638 0.280068 0.214975 0.157188 0.108893 0.069506 0.034584 0.011372 0.000721 0.000573 0.000226 0.019914 0.052951 0.102760 0.174778 0.254898 0.328747 0.384914 0.420081 0.437371 0.442184 0.441089 0.439967 0.440065 0.436419 0.420161 0.389456 0.340750 0.280622 0.217653 0.161542 0.116071 0.079332 0.046742 0.020205 0.006164 0.001331 0.000000 0.000000 0.009776 0.031389 0.066693 0.115294 0.179970 0.253811 0.322330 0.375687 0.411137 0.428337 0.433584 0.432342 0.422892 0.403073 0.368396 0.321011 0.264443 0.207296 0.155469 0.112609 0.078901 0.051355 0.027508 0.012129 0.002454 0.000000 0.000000 0.000000 0.004397 0.016147 0.037183 0.065945 0.106674 0.160614 0.217740 0.273633 0.318375 0.347517 0.358226 0.355449 0.338401 0.307522 0.271756 0.232092 0.186593 0.145626 0.106374 0.076072 0.051936 0.031514 0.014631 0.007592 0.001842 0.000000 0.000000 0.000000 0.000296 0.004640 0.017723 0.033822 0.061923 0.095844 0.136001 0.172049 0.204397 0.223432 0.232305 0.229091 0.216523 0.196037 0.176500 0.153511 0.126639 0.097635 0.070186 0.048303 0.031465 0.018230 0.006817 0.001608 0.001923 0.000000 0.000000 0.000000 0.000000 0.000000 0.008215 0.018378 0.038235 0.058929 0.082678 0.101656 0.122079 0.136198 0.139412 0.136333 0.129512 0.114367 0.101357 0.088339 0.072509 0.055381 0.040375 0.025604 0.014288 0.005119 0.000000 0.001091 0.000000 0.000000 0.000000 0.000000 0.000000 0.000000 0.001738 0.005752 0.010700 0.015166 0.016312 0.025017 0.031326 0.036568 0.040099 0.042779 0.045534 0.040778 0.036345 0.032061 0.023998 0.015060 0.008065 0.003938 0.006630 0.001569 0.000000 0.000000 0.000000 0.000000 
scale_new_min_in=0.000000 0.000000 0.000000 0.000000 0.000000 0.000000 0.000000 0.000000 0.000000 0.000000 0.000000 0.000000 0.000000 0.000000 0.000000 0.000000 0.000000 0.000000 0.000000 0.000000 0.000000 0.000000 0.000000 0.000000 0.000000 0.000000 0.000000 0.000000 0.000000 0.000000 0.000000 0.000000 0.000000 0.000000 0.000000 0.000000 0.000000 0.000000 0.000000 0.000000 0.000000 0.000000 0.000000 0.000000 0.000000 0.000000 0.000000 0.000000 0.000000 0.000000 0.000000 0.000000 0.000000 0.000000 0.000000 0.000000 0.000000 0.000000 0.000000 0.000000 0.000000 0.000000 0.000000 0.000000 0.000000 0.000000 0.000000 0.000000 0.000000 0.000000 0.000000 0.000000 0.000000 0.000000 0.000000 0.000000 0.000000 0.000000 0.000000 0.000000 0.000000 0.000000 0.000000 0.000000 0.000000 0.000000 0.000000 0.000000 0.000000 0.000000 0.000000 0.000000 0.000000 0.000000 0.000000 0.000000 0.000000 0.000000 0.000000 0.000000 0.000000 0.000000 0.000000 0.000000 0.000000 0.000000 0.000000 0.000000 0.000000 0.000000 0.000000 0.000000 0.000000 0.000000 0.000000 0.000000 0.000000 0.000000 0.000000 0.000000 0.000000 0.000000 0.000000 0.000000 0.000000 0.000000 0.000000 0.000000 0.000000 0.000000 0.000000 0.000000 0.000000 0.000000 0.000000 0.000000 0.000000 0.000000 0.000000 0.000000 0.000000 0.000000 0.000000 0.000000 0.000000 0.000000 0.000000 0.000000 0.000000 0.000000 0.000000 0.000000 0.000000 0.000000 0.000000 0.000000 0.000000 0.000000 0.000000 0.000000 0.000000 0.000000 0.000000 0.000000 0.000000 0.000000 0.000000 0.000000 0.000000 0.000000 0.000000 0.000000 0.000000 0.000000 0.000000 0.000000 0.000000 0.000000 0.000000 0.000000 0.000000 0.000000 0.000000 0.000000 0.000000 0.000000 0.000000 0.000000 0.000000 0.000000 0.000000 0.000000 0.000000 0.000000 0.000000 0.000000 0.000000 0.000000 0.000000 0.000000 0.000000 0.000000 0.000000 0.000000 0.000000 0.000000 0.000000 0.000000 0.000000 0.000000 0.000000 0.000000 0.000000 0.000000 0.000000 0.000000 0.000000 0.000000 0.000000 0.000000 0.000000 0.000000 0.000000 0.000000 0.000000 0.000000 0.000000 0.000000 0.000000 0.000000 0.000000 0.000000 0.000000 0.000000 0.000000 0.000000 0.000000 0.000000 0.000000 0.000000 0.000000 0.000000 0.000000 0.000000 0.000000 0.000000 0.000000 0.000000 0.000000 0.000000 0.000000 0.000000 0.000000 0.000000 0.000000 0.000000 0.000000 0.000000 0.000000 0.000000 0.000000 0.000000 0.000000 0.000000 0.000000 0.000000 0.000000 0.000000 0.000000 0.000000 0.000000 0.000000 0.000000 0.000000 0.000000 0.000000 0.000000 0.000000 0.000000 0.000000 0.000000 0.000000 0.000000 0.000000 0.000000 0.000000 0.000000 0.000000 0.000000 0.000000 0.000000 0.000000 0.000000 0.000000 0.000000 0.000000 0.000000 0.000000 0.000000 0.000000 0.000000 0.000000 0.000000 0.000000 0.000000 0.000000 0.000000 0.000000 0.000000 0.000000 0.000000 0.000000 0.000000 0.000000 0.000000 0.000000 0.000000 0.000000 0.000000 0.000000 0.000000 0.000000 0.000000 0.000000 0.000000 0.000000 0.000000 0.000000 0.000000 0.000000 0.000000 0.000000 0.000000 0.000000 0.000000 0.000000 0.000000 0.000000 0.000000 0.000000 0.000000 0.000000 0.000000 0.000000 0.000000 0.000000 0.000000 0.000000 0.000000 0.000000 0.000000 0.000000 0.000000 0.000000 0.000000 0.000000 0.000000 0.000000 0.000000 0.000000 0.000000 0.000000 0.000000 0.000000 0.000000 0.000000 0.000000 0.000000 0.000000 0.000000 0.000000 0.000000 0.000000 0.000000 0.000000 0.000000 0.000000 0.000000 0.000000 0.000000 0.000000 0.000000 0.000000 0.000000 0.000000 0.000000 0.000000 0.000000 0.000000 0.000000 0.000000 0.000000 0.000000 0.000000 0.000000 0.000000 0.000000 0.000000 0.000000 0.000000 0.000000 0.000000 0.000000 0.000000 0.000000 0.000000 0.000000 0.000000 0.000000 0.000000 0.000000 0.000000 0.000000 0.000000 0.000000 0.000000 0.000000 0.000000 0.000000 0.000000 0.000000 0.000000 0.000000 0.000000 0.000000 0.000000 0.000000 0.000000 0.000000 0.000000 0.000000 0.000000 0.000000 0.000000 0.000000 0.000000 0.000000 0.000000 0.000000 0.000000 0.000000 0.000000 0.000000 0.000000 0.000000 0.000000 0.000000 0.000000 0.000000 0.000000 0.000000 0.000000 0.000000 0.000000 0.000000 0.000000 0.000000 0.000000 0.000000 0.000000 0.000000 0.000000 0.000000 0.000000 0.000000 0.000000 0.000000 0.000000 0.000000 0.000000 0.000000 0.000000 0.000000 0.000000 0.000000 0.000000 0.000000 0.000000 0.000000 0.000000 0.000000 0.000000 0.000000 0.000000 0.000000 0.000000 0.000000 0.000000 0.000000 0.000000 0.000000 0.000000 0.000000 0.000000 0.000000 0.000000 0.000000 0.000000 0.000000 0.000000 0.000000 0.000000 0.000000 0.000000 0.000000 0.000000 0.000000 0.000000 0.000000 0.000000 0.000000 0.000000 0.000000 0.000000 0.000000 0.000000 0.000000 0.000000 0.000000 0.000000 0.000000 0.000000 0.000000 0.000000 0.000000 0.000000 0.000000 0.000000 0.000000 0.000000 0.000000 0.000000 0.000000 0.000000 0.000000 0.000000 0.000000 0.000000 0.000000 0.000000 0.000000 0.000000 0.000000 0.000000 0.000000 0.000000 0.000000 0.000000 0.000000 0.000000 0.000000 0.000000 0.000000 0.000000 0.000000 0.000000 0.000000 0.000000 0.000000 0.000000 0.000000 0.000000 0.000000 0.000000 0.000000 0.000000 0.000000 0.000000 0.000000 0.000000 0.000000 0.000000 0.000000 0.000000 0.000000 0.000000 0.000000 0.000000 0.000000 0.000000 0.000000 0.000000 0.000000 0.000000 0.000000 0.000000 0.000000 0.000000 0.000000 0.000000 0.000000 0.000000 0.000000 0.000000 0.000000 0.000000 0.000000 0.000000 0.000000 0.000000 0.000000 0.000000 0.000000 0.000000 0.000000 0.000000 0.000000 0.000000 0.000000 0.000000 0.000000 0.000000 0.000000 0.000000 0.000000 0.000000 0.000000 0.000000 0.000000 0.000000 0.000000 0.000000 0.000000 0.000000 0.000000 0.000000 0.000000 0.000000 0.000000 0.000000 0.000000 0.000000 0.000000 0.000000 0.000000 0.000000 0.000000 0.000000 0.000000 0.000000 0.000000 0.000000 0.000000 0.000000 0.000000 0.000000 0.000000 0.000000 0.000000 0.000000 0.000000 0.000000 0.000000 0.000000 0.000000 0.000000 0.000000 0.000000 0.000000 0.000000 0.000000 0.000000 0.000000 0.000000 0.000000 0.000000 0.000000 0.000000 0.000000 0.000000 0.000000 0.000000 0.000000 0.000000 0.000000 0.000000 0.000000 0.000000 0.000000 0.000000 0.000000 0.000000 0.000000 0.000000 0.000000 0.000000 0.000000 0.000000 0.000000 0.000000 0.000000 0.000000 0.000000 0.000000 0.000000 0.000000 0.000000 0.000000 0.000000 0.000000 0.000000 0.000000 0.000000 0.000000 0.000000 0.000000 0.000000 0.000000 0.000000 0.000000 0.000000 0.000000 0.000000 0.000000 0.000000 0.000000 0.000000 0.000000 0.000000 0.000000 0.000000 0.000000 0.000000 0.000000 0.000000 0.000000 0.000000 0.000000 0.000000 0.000000 0.000000 0.000000 0.000000 0.000000 0.000000 0.000000 0.000000 0.000000 0.000000 0.000000 0.000000 0.000000 0.000000 0.000000 0.000000 0.000000 0.000000 0.000000 0.000000 0.000000 0.000000 0.000000 0.000000 0.000000 0.000000 0.000000 0.000000 0.000000 0.000000 0.000000 0.000000 0.000000 0.000000 0.000000 0.000000 0.000000 0.000000 0.000000 0.000000 0.000000 0.000000 0.000000 0.000000 0.000000 0.000000 0.000000 0.000000 0.000000 0.000000 0.000000 0.000000 0.000000 0.000000 0.000000 
scale_factor_in=0.500000 0.500000 0.500000 0.500000 0.500000 0.500000 0.500000 0.500000 0.500000 0.500000 0.500000 0.500000 0.500000 0.500000 0.500000 0.500000 0.500000 0.500000 0.500000 0.500000 0.500000 0.500000 0.500000 0.500000 0.500000 0.500000 0.500000 0.500000 0.500000 0.500000 0.500000 0.500000 0.500000 0.500000 0.500000 0.500000 0.500000 0.500000 0.500000 0.500000 0.500000 0.500000 0.500000 0.500000 0.500000 0.500000 0.500000 0.500000 0.500000 0.500000 0.500000 0.500000 0.500000 0.500000 0.500000 0.500000 0.500000 0.500000 0.500000 0.500000 0.500000 0.500000 0.500000 0.500000 0.500000 0.500000 0.500000 0.500000 0.500000 0.500000 0.500000 0.500000 0.500000 0.500000 0.500000 0.500000 0.500000 0.500000 0.500000 0.500000 0.500000 0.500000 0.500000 0.500000 0.500000 0.500000 0.500000 0.500000 0.500000 0.500000 0.500000 0.500000 0.500000 0.500000 0.500000 0.500000 0.500000 0.500000 0.500000 0.500000 0.500000 0.500000 0.500000 0.500000 0.500000 0.500000 0.500000 0.500000 0.500000 0.500000 0.500000 0.500000 0.500000 0.500000 0.500000 0.500000 0.500000 0.500000 0.500000 0.500000 0.500000 0.500000 0.500000 0.500000 0.500000 0.500000 0.500000 0.500000 0.500000 0.500000 0.500000 0.500000 0.500000 0.500000 0.500000 0.500000 0.500000 0.500000 0.500000 0.500000 0.500000 0.500000 0.500000 0.500000 0.500000 0.500000 0.500000 0.500000 0.500000 0.500000 0.500000 0.500000 0.500000 0.500000 0.500000 0.500000 0.500000 0.500000 0.500000 0.500000 0.500000 0.500000 0.500000 0.500000 0.500000 0.500000 0.500000 0.500000 0.500000 0.500000 0.500000 0.500000 0.500000 0.500000 0.500000 0.500000 0.500000 0.500000 0.500000 0.500000 0.500000 0.500000 0.500000 0.500000 0.500000 0.500000 0.500000 0.500000 0.500000 0.500000 0.500000 0.500000 0.500000 0.500000 0.500000 0.500000 0.500000 0.500000 0.500000 0.500000 0.500000 0.500000 0.500000 0.500000 0.500000 0.500000 0.500000 0.500000 0.500000 0.500000 0.500000 0.500000 0.500000 0.500000 0.500000 0.500000 0.500000 0.500000 0.500000 0.500000 0.500000 0.500000 0.500000 0.500000 0.500000 0.500000 0.500000 0.500000 0.500000 0.500000 0.500000 0.500000 0.500000 0.500000 0.500000 0.500000 0.500000 0.500000 0.500000 0.500000 0.500000 0.500000 0.500000 0.500000 0.500000 0.500000 0.500000 0.500000 0.500000 0.500000 0.500000 0.500000 0.500000 0.500000 0.500000 0.500000 0.500000 0.500000 0.500000 0.500000 0.500000 0.500000 0.500000 0.500000 0.500000 0.500000 0.500000 0.500000 0.500000 0.500000 0.500000 0.500000 0.500000 0.500000 0.500000 0.500000 0.500000 0.500000 0.500000 0.500000 0.500000 0.500000 0.500000 0.500000 0.500000 0.500000 0.500000 0.500000 0.500000 0.500000 0.500000 0.500000 0.500000 0.500000 0.500000 0.500000 0.500000 0.500000 0.500000 0.500000 0.500000 0.500000 0.500000 0.500000 0.500000 0.500000 0.500000 0.500000 0.500000 0.500000 0.500000 0.500000 0.500000 0.500000 0.500000 0.500000 0.500000 0.500000 0.500000 0.500000 0.500000 0.500000 0.500000 0.500000 0.500000 0.500000 0.500000 0.500000 0.500000 0.500000 0.500000 0.500000 0.500000 0.500000 0.500000 0.500000 0.500000 0.500000 0.500000 0.500000 0.500000 0.500000 0.500000 0.500000 0.500000 0.500000 0.500000 0.500000 0.500000 0.500000 0.500000 0.500000 0.500000 0.500000 0.500000 0.500000 0.500000 0.500000 0.500000 0.500000 0.500000 0.500000 0.500000 0.500000 0.500000 0.500000 0.500000 0.500000 0.500000 0.500000 0.500000 0.500000 0.500000 0.500000 0.500000 0.500000 0.500000 0.500000 0.500000 0.500000 0.500000 0.500000 0.500000 0.500000 0.500000 0.500000 0.500000 0.500000 0.500000 0.500000 0.500000 0.500000 0.500000 0.500000 0.500000 0.500000 0.500000 0.500000 0.500000 0.500000 0.500000 0.500000 0.500000 0.500000 0.500000 0.500000 0.500000 0.500000 0.500000 0.500000 0.500000 0.500000 0.500000 0.500000 0.500000 0.500000 0.500000 0.500000 0.500000 0.500000 0.500000 0.500000 0.500000 0.500000 0.500000 0.500000 0.500000 0.500000 0.500000 0.500000 0.500000 0.500000 0.500000 0.500000 0.500000 0.500000 0.500000 0.500000 0.500000 0.500000 0.500000 0.500000 0.500000 0.500000 0.500000 0.500000 0.500000 0.500000 0.500000 0.500000 0.500000 0.500000 0.500000 0.500000 0.500000 0.500000 0.500000 0.500000 0.500000 0.500000 0.500000 0.500000 0.500000 0.500000 0.500000 0.500000 0.500000 0.500000 0.500000 0.500000 0.500000 0.500000 0.500000 0.500000 0.500000 0.500000 0.500000 0.500000 0.500000 0.500000 0.500000 0.500000 0.500000 0.500000 0.500000 0.500000 0.500000 0.500000 0.500000 0.500000 0.500000 0.500000 0.500000 0.500000 0.500000 0.500000 0.500000 0.500000 0.500000 0.500000 0.500000 0.500000 0.500000 0.500000 0.500000 0.500000 0.500000 0.500000 0.500000 0.500000 0.500000 0.500000 0.500000 0.500000 0.500000 0.500000 0.500000 0.500000 0.500000 0.500000 0.500000 0.500000 0.500000 0.500000 0.500000 0.500000 0.500000 0.500000 0.500000 0.500000 0.500000 0.500000 0.500000 0.500000 0.500000 0.500000 0.500000 0.500000 0.500000 0.500000 0.500000 0.500000 0.500000 0.500000 0.500000 0.500000 0.500000 0.500000 0.500000 0.500000 0.500000 0.500000 0.500000 0.500000 0.500000 0.500000 0.500000 0.500000 0.500000 0.500000 0.500000 0.500000 0.500000 0.500000 0.500000 0.500000 0.500000 0.500000 0.500000 0.500000 0.500000 0.500000 0.500000 0.500000 0.500000 0.500000 0.500000 0.500000 0.500000 0.500000 0.500000 0.500000 0.500000 0.500000 0.500000 0.500000 0.500000 0.500000 0.500000 0.500000 0.500000 0.500000 0.500000 0.500000 0.500000 0.500000 0.500000 0.500000 0.500000 0.500000 0.500000 0.500000 0.500000 0.500000 0.500000 0.500000 0.500000 0.500000 0.500000 0.500000 0.500000 0.500000 0.500000 0.500000 0.500000 0.500000 0.500000 0.500000 0.500000 0.500000 0.500000 0.500000 0.500000 0.500000 0.500000 0.500000 0.500000 0.500000 0.500000 0.500000 0.500000 0.500000 0.500000 0.500000 0.500000 0.500000 0.500000 0.500000 0.500000 0.500000 0.500000 0.500000 0.500000 0.500000 0.500000 0.500000 0.500000 0.500000 0.500000 0.500000 0.500000 0.500000 0.500000 0.500000 0.500000 0.500000 0.500000 0.500000 0.500000 0.500000 0.500000 0.500000 0.500000 0.500000 0.500000 0.500000 0.500000 0.500000 0.500000 0.500000 0.500000 0.500000 0.500000 0.500000 0.500000 0.500000 0.500000 0.500000 0.500000 0.500000 0.500000 0.500000 0.500000 0.500000 0.500000 0.500000 0.500000 0.500000 0.500000 0.500000 0.500000 0.500000 0.500000 0.500000 0.500000 0.500000 0.500000 0.500000 0.500000 0.500000 0.500000 0.500000 0.500000 0.500000 0.500000 0.500000 0.500000 0.500000 0.500000 0.500000 0.500000 0.500000 0.500000 0.500000 0.500000 0.500000 0.500000 0.500000 0.500000 0.500000 0.500000 0.500000 0.500000 0.500000 0.500000 0.500000 0.500000 0.500000 0.500000 0.500000 0.500000 0.500000 0.500000 0.500000 0.500000 0.500000 0.500000 0.500000 0.500000 0.500000 0.500000 0.500000 0.500000 0.500000 0.500000 0.500000 0.500000 0.500000 0.500000 0.500000 0.500000 0.500000 0.500000 0.500000 0.500000 0.500000 0.500000 0.500000 0.500000 0.500000 0.500000 0.500000 0.500000 0.500000 0.500000 0.500000 0.500000 0.500000 0.500000 0.500000 0.500000 0.500000 0.500000 0.500000 0.500000 0.500000 0.500000 0.500000 0.500000 0.500000 0.500000 0.500000 0.500000 0.500000 
scale_mean_out=0.100378 0.111600 0.098378 0.101133 0.098178 0.090422 0.097333 0.105244 0.097978 0.099356 
scale_deviation_out=0.300474 0.314901 0.297883 0.301532 0.297467 0.286709 0.296454 0.306816 0.297245 0.299077 
scale_new_min_out=0.000000 0.000000 0.000000 0.000000 0.000000 0.000000 0.000000 0.000000 0.000000 0.000000 
scale_factor_out=0.500000 0.500000 0.500000 0.500000 0.500000 0.500000 0.500000 0.500000 0.500000 0.500000 
neurons (num_inputs, activation_function, activation_steepness)=(0, 0, 0.00000000000000000000e+000) (0, 0, 0.00000000000000000000e+000) (0, 0, 0.00000000000000000000e+000) (0, 0, 0.00000000000000000000e+000) (0, 0, 0.00000000000000000000e+000) (0, 0, 0.00000000000000000000e+000) (0, 0, 0.00000000000000000000e+000) (0, 0, 0.00000000000000000000e+000) (0, 0, 0.00000000000000000000e+000) (0, 0, 0.00000000000000000000e+000) (0, 0, 0.00000000000000000000e+000) (0, 0, 0.00000000000000000000e+000) (0, 0, 0.00000000000000000000e+000) (0, 0, 0.00000000000000000000e+000) (0, 0, 0.00000000000000000000e+000) (0, 0, 0.00000000000000000000e+000) (0, 0, 0.00000000000000000000e+000) (0, 0, 0.00000000000000000000e+000) (0, 0, 0.00000000000000000000e+000) (0, 0, 0.00000000000000000000e+000) (0, 0, 0.00000000000000000000e+000) (0, 0, 0.00000000000000000000e+000) (0, 0, 0.00000000000000000000e+000) (0, 0, 0.00000000000000000000e+000) (0, 0, 0.00000000000000000000e+000) (0, 0, 0.00000000000000000000e+000) (0, 0, 0.00000000000000000000e+000) (0, 0, 0.00000000000000000000e+000) (0, 0, 0.00000000000000000000e+000) (0, 0, 0.00000000000000000000e+000) (0, 0, 0.00000000000000000000e+000) (0, 0, 0.00000000000000000000e+000) (0, 0, 0.00000000000000000000e+000) (0, 0, 0.00000000000000000000e+000) (0, 0, 0.00000000000000000000e+000) (0, 0, 0.00000000000000000000e+000) (0, 0, 0.00000000000000000000e+000) (0, 0, 0.00000000000000000000e+000) (0, 0, 0.00000000000000000000e+000) (0, 0, 0.00000000000000000000e+000) (0, 0, 0.00000000000000000000e+000) (0, 0, 0.00000000000000000000e+000) (0, 0, 0.00000000000000000000e+000) (0, 0, 0.00000000000000000000e+000) (0, 0, 0.00000000000000000000e+000) (0, 0, 0.00000000000000000000e+000) (0, 0, 0.00000000000000000000e+000) (0, 0, 0.00000000000000000000e+000) (0, 0, 0.00000000000000000000e+000) (0, 0, 0.00000000000000000000e+000) (0, 0, 0.00000000000000000000e+000) (0, 0, 0.00000000000000000000e+000) (0, 0, 0.00000000000000000000e+000) (0, 0, 0.00000000000000000000e+000) (0, 0, 0.00000000000000000000e+000) (0, 0, 0.00000000000000000000e+000) (0, 0, 0.00000000000000000000e+000) (0, 0, 0.00000000000000000000e+000) (0, 0, 0.00000000000000000000e+000) (0, 0, 0.00000000000000000000e+000) (0, 0, 0.00000000000000000000e+000) (0, 0, 0.00000000000000000000e+000) (0, 0, 0.00000000000000000000e+000) (0, 0, 0.00000000000000000000e+000) (0, 0, 0.00000000000000000000e+000) (0, 0, 0.00000000000000000000e+000) (0, 0, 0.00000000000000000000e+000) (0, 0, 0.00000000000000000000e+000) (0, 0, 0.00000000000000000000e+000) (0, 0, 0.00000000000000000000e+000) (0, 0, 0.00000000000000000000e+000) (0, 0, 0.00000000000000000000e+000) (0, 0, 0.00000000000000000000e+000) (0, 0, 0.00000000000000000000e+000) (0, 0, 0.00000000000000000000e+000) (0, 0, 0.00000000000000000000e+000) (0, 0, 0.00000000000000000000e+000) (0, 0, 0.00000000000000000000e+000) (0, 0, 0.00000000000000000000e+000) (0, 0, 0.00000000000000000000e+000) (0, 0, 0.00000000000000000000e+000) (0, 0, 0.00000000000000000000e+000) (0, 0, 0.00000000000000000000e+000) (0, 0, 0.00000000000000000000e+000) (0, 0, 0.00000000000000000000e+000) (0, 0, 0.00000000000000000000e+000) (0, 0, 0.00000000000000000000e+000) (0, 0, 0.00000000000000000000e+000) (0, 0, 0.00000000000000000000e+000) (0, 0, 0.00000000000000000000e+000) (0, 0, 0.00000000000000000000e+000) (0, 0, 0.00000000000000000000e+000) (0, 0, 0.00000000000000000000e+000) (0, 0, 0.00000000000000000000e+000) (0, 0, 0.00000000000000000000e+000) (0, 0, 0.00000000000000000000e+000) (0, 0, 0.00000000000000000000e+000) (0, 0, 0.00000000000000000000e+000) (0, 0, 0.00000000000000000000e+000) (0, 0, 0.00000000000000000000e+000) (0, 0, 0.00000000000000000000e+000) (0, 0, 0.00000000000000000000e+000) (0, 0, 0.00000000000000000000e+000) (0, 0, 0.00000000000000000000e+000) (0, 0, 0.00000000000000000000e+000) (0, 0, 0.00000000000000000000e+000) (0, 0, 0.00000000000000000000e+000) (0, 0, 0.00000000000000000000e+000) (0, 0, 0.00000000000000000000e+000) (0, 0, 0.00000000000000000000e+000) (0, 0, 0.00000000000000000000e+000) (0, 0, 0.00000000000000000000e+000) (0, 0, 0.00000000000000000000e+000) (0, 0, 0.00000000000000000000e+000) (0, 0, 0.00000000000000000000e+000) (0, 0, 0.00000000000000000000e+000) (0, 0, 0.00000000000000000000e+000) (0, 0, 0.00000000000000000000e+000) (0, 0, 0.00000000000000000000e+000) (0, 0, 0.00000000000000000000e+000) (0, 0, 0.00000000000000000000e+000) (0, 0, 0.00000000000000000000e+000) (0, 0, 0.00000000000000000000e+000) (0, 0, 0.00000000000000000000e+000) (0, 0, 0.00000000000000000000e+000) (0, 0, 0.00000000000000000000e+000) (0, 0, 0.00000000000000000000e+000) (0, 0, 0.00000000000000000000e+000) (0, 0, 0.00000000000000000000e+000) (0, 0, 0.00000000000000000000e+000) (0, 0, 0.00000000000000000000e+000) (0, 0, 0.00000000000000000000e+000) (0, 0, 0.00000000000000000000e+000) (0, 0, 0.00000000000000000000e+000) (0, 0, 0.00000000000000000000e+000) (0, 0, 0.00000000000000000000e+000) (0, 0, 0.00000000000000000000e+000) (0, 0, 0.00000000000000000000e+000) (0, 0, 0.00000000000000000000e+000) (0, 0, 0.00000000000000000000e+000) (0, 0, 0.00000000000000000000e+000) (0, 0, 0.00000000000000000000e+000) (0, 0, 0.00000000000000000000e+000) (0, 0, 0.00000000000000000000e+000) (0, 0, 0.00000000000000000000e+000) (0, 0, 0.00000000000000000000e+000) (0, 0, 0.00000000000000000000e+000) (0, 0, 0.00000000000000000000e+000) (0, 0, 0.00000000000000000000e+000) (0, 0, 0.00000000000000000000e+000) (0, 0, 0.00000000000000000000e+000) (0, 0, 0.00000000000000000000e+000) (0, 0, 0.00000000000000000000e+000) (0, 0, 0.00000000000000000000e+000) (0, 0, 0.00000000000000000000e+000) (0, 0, 0.00000000000000000000e+000) (0, 0, 0.00000000000000000000e+000) (0, 0, 0.00000000000000000000e+000) (0, 0, 0.00000000000000000000e+000) (0, 0, 0.00000000000000000000e+000) (0, 0, 0.00000000000000000000e+000) (0, 0, 0.00000000000000000000e+000) (0, 0, 0.00000000000000000000e+000) (0, 0, 0.00000000000000000000e+000) (0, 0, 0.00000000000000000000e+000) (0, 0, 0.00000000000000000000e+000) (0, 0, 0.00000000000000000000e+000) (0, 0, 0.00000000000000000000e+000) (0, 0, 0.00000000000000000000e+000) (0, 0, 0.00000000000000000000e+000) (0, 0, 0.00000000000000000000e+000) (0, 0, 0.00000000000000000000e+000) (0, 0, 0.00000000000000000000e+000) (0, 0, 0.00000000000000000000e+000) (0, 0, 0.00000000000000000000e+000) (0, 0, 0.00000000000000000000e+000) (0, 0, 0.00000000000000000000e+000) (0, 0, 0.00000000000000000000e+000) (0, 0, 0.00000000000000000000e+000) (0, 0, 0.00000000000000000000e+000) (0, 0, 0.00000000000000000000e+000) (0, 0, 0.00000000000000000000e+000) (0, 0, 0.00000000000000000000e+000) (0, 0, 0.00000000000000000000e+000) (0, 0, 0.00000000000000000000e+000) (0, 0, 0.00000000000000000000e+000) (0, 0, 0.00000000000000000000e+000) (0, 0, 0.00000000000000000000e+000) (0, 0, 0.00000000000000000000e+000) (0, 0, 0.00000000000000000000e+000) (0, 0, 0.00000000000000000000e+000) (0, 0, 0.00000000000000000000e+000) (0, 0, 0.00000000000000000000e+000) (0, 0, 0.00000000000000000000e+000) (0, 0, 0.00000000000000000000e+000) (0, 0, 0.00000000000000000000e+000) (0, 0, 0.00000000000000000000e+000) (0, 0, 0.00000000000000000000e+000) (0, 0, 0.00000000000000000000e+000) (0, 0, 0.00000000000000000000e+000) (0, 0, 0.00000000000000000000e+000) (0, 0, 0.00000000000000000000e+000) (0, 0, 0.00000000000000000000e+000) (0, 0, 0.00000000000000000000e+000) (0, 0, 0.00000000000000000000e+000) (0, 0, 0.00000000000000000000e+000) (0, 0, 0.00000000000000000000e+000) (0, 0, 0.00000000000000000000e+000) (0, 0, 0.00000000000000000000e+000) (0, 0, 0.00000000000000000000e+000) (0, 0, 0.00000000000000000000e+000) (0, 0, 0.00000000000000000000e+000) (0, 0, 0.00000000000000000000e+000) (0, 0, 0.00000000000000000000e+000) (0, 0, 0.00000000000000000000e+000) (0, 0, 0.00000000000000000000e+000) (0, 0, 0.00000000000000000000e+000) (0, 0, 0.00000000000000000000e+000) (0, 0, 0.00000000000000000000e+000) (0, 0, 0.00000000000000000000e+000) (0, 0, 0.00000000000000000000e+000) (0, 0, 0.00000000000000000000e+000) (0, 0, 0.00000000000000000000e+000) (0, 0, 0.00000000000000000000e+000) (0, 0, 0.00000000000000000000e+000) (0, 0, 0.00000000000000000000e+000) (0, 0, 0.00000000000000000000e+000) (0, 0, 0.00000000000000000000e+000) (0, 0, 0.00000000000000000000e+000) (0, 0, 0.00000000000000000000e+000) (0, 0, 0.00000000000000000000e+000) (0, 0, 0.00000000000000000000e+000) (0, 0, 0.00000000000000000000e+000) (0, 0, 0.00000000000000000000e+000) (0, 0, 0.00000000000000000000e+000) (0, 0, 0.00000000000000000000e+000) (0, 0, 0.00000000000000000000e+000) (0, 0, 0.00000000000000000000e+000) (0, 0, 0.00000000000000000000e+000) (0, 0, 0.00000000000000000000e+000) (0, 0, 0.00000000000000000000e+000) (0, 0, 0.00000000000000000000e+000) (0, 0, 0.00000000000000000000e+000) (0, 0, 0.00000000000000000000e+000) (0, 0, 0.00000000000000000000e+000) (0, 0, 0.00000000000000000000e+000) (0, 0, 0.00000000000000000000e+000) (0, 0, 0.00000000000000000000e+000) (0, 0, 0.00000000000000000000e+000) (0, 0, 0.00000000000000000000e+000) (0, 0, 0.00000000000000000000e+000) (0, 0, 0.00000000000000000000e+000) (0, 0, 0.00000000000000000000e+000) (0, 0, 0.00000000000000000000e+000) (0, 0, 0.00000000000000000000e+000) (0, 0, 0.00000000000000000000e+000) (0, 0, 0.00000000000000000000e+000) (0, 0, 0.00000000000000000000e+000) (0, 0, 0.00000000000000000000e+000) (0, 0, 0.00000000000000000000e+000) (0, 0, 0.00000000000000000000e+000) (0, 0, 0.00000000000000000000e+000) (0, 0, 0.00000000000000000000e+000) (0, 0, 0.00000000000000000000e+000) (0, 0, 0.00000000000000000000e+000) (0, 0, 0.00000000000000000000e+000) (0, 0, 0.00000000000000000000e+000) (0, 0, 0.00000000000000000000e+000) (0, 0, 0.00000000000000000000e+000) (0, 0, 0.00000000000000000000e+000) (0, 0, 0.00000000000000000000e+000) (0, 0, 0.00000000000000000000e+000) (0, 0, 0.00000000000000000000e+000) (0, 0, 0.00000000000000000000e+000) (0, 0, 0.00000000000000000000e+000) (0, 0, 0.00000000000000000000e+000) (0, 0, 0.00000000000000000000e+000) (0, 0, 0.00000000000000000000e+000) (0, 0, 0.00000000000000000000e+000) (0, 0, 0.00000000000000000000e+000) (0, 0, 0.00000000000000000000e+000) (0, 0, 0.00000000000000000000e+000) (0, 0, 0.00000000000000000000e+000) (0, 0, 0.00000000000000000000e+000) (0, 0, 0.00000000000000000000e+000) (0, 0, 0.00000000000000000000e+000) (0, 0, 0.00000000000000000000e+000) (0, 0, 0.00000000000000000000e+000) (0, 0, 0.00000000000000000000e+000) (0, 0, 0.00000000000000000000e+000) (0, 0, 0.00000000000000000000e+000) (0, 0, 0.00000000000000000000e+000) (0, 0, 0.00000000000000000000e+000) (0, 0, 0.00000000000000000000e+000) (0, 0, 0.00000000000000000000e+000) (0, 0, 0.00000000000000000000e+000) (0, 0, 0.00000000000000000000e+000) (0, 0, 0.00000000000000000000e+000) (0, 0, 0.00000000000000000000e+000) (0, 0, 0.00000000000000000000e+000) (0, 0, 0.00000000000000000000e+000) (0, 0, 0.00000000000000000000e+000) (0, 0, 0.00000000000000000000e+000) (0, 0, 0.00000000000000000000e+000) (0, 0, 0.00000000000000000000e+000) (0, 0, 0.00000000000000000000e+000) (0, 0, 0.00000000000000000000e+000) (0, 0, 0.00000000000000000000e+000) (0, 0, 0.00000000000000000000e+000) (0, 0, 0.00000000000000000000e+000) (0, 0, 0.00000000000000000000e+000) (0, 0, 0.00000000000000000000e+000) (0, 0, 0.00000000000000000000e+000) (0, 0, 0.00000000000000000000e+000) (0, 0, 0.00000000000000000000e+000) (0, 0, 0.00000000000000000000e+000) (0, 0, 0.00000000000000000000e+000) (0, 0, 0.00000000000000000000e+000) (0, 0, 0.00000000000000000000e+000) (0, 0, 0.00000000000000000000e+000) (0, 0, 0.00000000000000000000e+000) (0, 0, 0.00000000000000000000e+000) (0, 0, 0.00000000000000000000e+000) (0, 0, 0.00000000000000000000e+000) (0, 0, 0.00000000000000000000e+000) (0, 0, 0.00000000000000000000e+000) (0, 0, 0.00000000000000000000e+000) (0, 0, 0.00000000000000000000e+000) (0, 0, 0.00000000000000000000e+000) (0, 0, 0.00000000000000000000e+000) (0, 0, 0.00000000000000000000e+000) (0, 0, 0.00000000000000000000e+000) (0, 0, 0.00000000000000000000e+000) (0, 0, 0.00000000000000000000e+000) (0, 0, 0.00000000000000000000e+000) (0, 0, 0.00000000000000000000e+000) (0, 0, 0.00000000000000000000e+000) (0, 0, 0.00000000000000000000e+000) (0, 0, 0.00000000000000000000e+000) (0, 0, 0.00000000000000000000e+000) (0, 0, 0.00000000000000000000e+000) (0, 0, 0.00000000000000000000e+000) (0, 0, 0.00000000000000000000e+000) (0, 0, 0.00000000000000000000e+000) (0, 0, 0.00000000000000000000e+000) (0, 0, 0.00000000000000000000e+000) (0, 0, 0.00000000000000000000e+000) (0, 0, 0.00000000000000000000e+000) (0, 0, 0.00000000000000000000e+000) (0, 0, 0.00000000000000000000e+000) (0, 0, 0.00000000000000000000e+000) (0, 0, 0.00000000000000000000e+000) (0, 0, 0.00000000000000000000e+000) (0, 0, 0.00000000000000000000e+000) (0, 0, 0.00000000000000000000e+000) (0, 0, 0.00000000000000000000e+000) (0, 0, 0.00000000000000000000e+000) (0, 0, 0.00000000000000000000e+000) (0, 0, 0.00000000000000000000e+000) (0, 0, 0.00000000000000000000e+000) (0, 0, 0.00000000000000000000e+000) (0, 0, 0.00000000000000000000e+000) (0, 0, 0.00000000000000000000e+000) (0, 0, 0.00000000000000000000e+000) (0, 0, 0.00000000000000000000e+000) (0, 0, 0.00000000000000000000e+000) (0, 0, 0.00000000000000000000e+000) (0, 0, 0.00000000000000000000e+000) (0, 0, 0.00000000000000000000e+000) (0, 0, 0.00000000000000000000e+000) (0, 0, 0.00000000000000000000e+000) (0, 0, 0.00000000000000000000e+000) (0, 0, 0.00000000000000000000e+000) (0, 0, 0.00000000000000000000e+000) (0, 0, 0.00000000000000000000e+000) (0, 0, 0.00000000000000000000e+000) (0, 0, 0.00000000000000000000e+000) (0, 0, 0.00000000000000000000e+000) (0, 0, 0.00000000000000000000e+000) (0, 0, 0.00000000000000000000e+000) (0, 0, 0.00000000000000000000e+000) (0, 0, 0.00000000000000000000e+000) (0, 0, 0.00000000000000000000e+000) (0, 0, 0.00000000000000000000e+000) (0, 0, 0.00000000000000000000e+000) (0, 0, 0.00000000000000000000e+000) (0, 0, 0.00000000000000000000e+000) (0, 0, 0.00000000000000000000e+000) (0, 0, 0.00000000000000000000e+000) (0, 0, 0.00000000000000000000e+000) (0, 0, 0.00000000000000000000e+000) (0, 0, 0.00000000000000000000e+000) (0, 0, 0.00000000000000000000e+000) (0, 0, 0.00000000000000000000e+000) (0, 0, 0.00000000000000000000e+000) (0, 0, 0.00000000000000000000e+000) (0, 0, 0.00000000000000000000e+000) (0, 0, 0.00000000000000000000e+000) (0, 0, 0.00000000000000000000e+000) (0, 0, 0.00000000000000000000e+000) (0, 0, 0.00000000000000000000e+000) (0, 0, 0.00000000000000000000e+000) (0, 0, 0.00000000000000000000e+000) (0, 0, 0.00000000000000000000e+000) (0, 0, 0.00000000000000000000e+000) (0, 0, 0.00000000000000000000e+000) (0, 0, 0.00000000000000000000e+000) (0, 0, 0.00000000000000000000e+000) (0, 0, 0.00000000000000000000e+000) (0, 0, 0.00000000000000000000e+000) (0, 0, 0.00000000000000000000e+000) (0, 0, 0.00000000000000000000e+000) (0, 0, 0.00000000000000000000e+000) (0, 0, 0.00000000000000000000e+000) (0, 0, 0.00000000000000000000e+000) (0, 0, 0.00000000000000000000e+000) (0, 0, 0.00000000000000000000e+000) (0, 0, 0.00000000000000000000e+000) (0, 0, 0.00000000000000000000e+000) (0, 0, 0.00000000000000000000e+000) (0, 0, 0.00000000000000000000e+000) (0, 0, 0.00000000000000000000e+000) (0, 0, 0.00000000000000000000e+000) (0, 0, 0.00000000000000000000e+000) (0, 0, 0.00000000000000000000e+000) (0, 0, 0.00000000000000000000e+000) (0, 0, 0.00000000000000000000e+000) (0, 0, 0.00000000000000000000e+000) (0, 0, 0.00000000000000000000e+000) (0, 0, 0.00000000000000000000e+000) (0, 0, 0.00000000000000000000e+000) (0, 0, 0.00000000000000000000e+000) (0, 0, 0.00000000000000000000e+000) (0, 0, 0.00000000000000000000e+000) (0, 0, 0.00000000000000000000e+000) (0, 0, 0.00000000000000000000e+000) (0, 0, 0.00000000000000000000e+000) (0, 0, 0.00000000000000000000e+000) (0, 0, 0.00000000000000000000e+000) (0, 0, 0.00000000000000000000e+000) (0, 0, 0.00000000000000000000e+000) (0, 0, 0.00000000000000000000e+000) (0, 0, 0.00000000000000000000e+000) (0, 0, 0.00000000000000000000e+000) (0, 0, 0.00000000000000000000e+000) (0, 0, 0.00000000000000000000e+000) (0, 0, 0.00000000000000000000e+000) (0, 0, 0.00000000000000000000e+000) (0, 0, 0.00000000000000000000e+000) (0, 0, 0.00000000000000000000e+000) (0, 0, 0.00000000000000000000e+000) (0, 0, 0.00000000000000000000e+000) (0, 0, 0.00000000000000000000e+000) (0, 0, 0.00000000000000000000e+000) (0, 0, 0.00000000000000000000e+000) (0, 0, 0.00000000000000000000e+000) (0, 0, 0.00000000000000000000e+000) (0, 0, 0.00000000000000000000e+000) (0, 0, 0.00000000000000000000e+000) (0, 0, 0.00000000000000000000e+000) (0, 0, 0.00000000000000000000e+000) (0, 0, 0.00000000000000000000e+000) (0, 0, 0.00000000000000000000e+000) (0, 0, 0.00000000000000000000e+000) (0, 0, 0.00000000000000000000e+000) (0, 0, 0.00000000000000000000e+000) (0, 0, 0.00000000000000000000e+000) (0, 0, 0.00000000000000000000e+000) (0, 0, 0.00000000000000000000e+000) (0, 0, 0.00000000000000000000e+000) (0, 0, 0.00000000000000000000e+000) (0, 0, 0.00000000000000000000e+000) (0, 0, 0.00000000000000000000e+000) (0, 0, 0.00000000000000000000e+000) (0, 0, 0.00000000000000000000e+000) (0, 0, 0.00000000000000000000e+000) (0, 0, 0.00000000000000000000e+000) (0, 0, 0.00000000000000000000e+000) (0, 0, 0.00000000000000000000e+000) (0, 0, 0.00000000000000000000e+000) (0, 0, 0.00000000000000000000e+000) (0, 0, 0.00000000000000000000e+000) (0, 0, 0.00000000000000000000e+000) (0, 0, 0.00000000000000000000e+000) (0, 0, 0.00000000000000000000e+000) (0, 0, 0.00000000000000000000e+000) (0, 0, 0.00000000000000000000e+000) (0, 0, 0.00000000000000000000e+000) (0, 0, 0.00000000000000000000e+000) (0, 0, 0.00000000000000000000e+000) (0, 0, 0.00000000000000000000e+000) (0, 0, 0.00000000000000000000e+000) (0, 0, 0.00000000000000000000e+000) (0, 0, 0.00000000000000000000e+000) (0, 0, 0.00000000000000000000e+000) (0, 0, 0.00000000000000000000e+000) (0, 0, 0.00000000000000000000e+000) (0, 0, 0.00000000000000000000e+000) (0, 0, 0.00000000000000000000e+000) (0, 0, 0.00000000000000000000e+000) (0, 0, 0.00000000000000000000e+000) (0, 0, 0.00000000000000000000e+000) (0, 0, 0.00000000000000000000e+000) (0, 0, 0.00000000000000000000e+000) (0, 0, 0.00000000000000000000e+000) (0, 0, 0.00000000000000000000e+000) (0, 0, 0.00000000000000000000e+000) (0, 0, 0.00000000000000000000e+000) (0, 0, 0.00000000000000000000e+000) (0, 0, 0.00000000000000000000e+000) (0, 0, 0.00000000000000000000e+000) (0, 0, 0.00000000000000000000e+000) (0, 0, 0.00000000000000000000e+000) (0, 0, 0.00000000000000000000e+000) (0, 0, 0.00000000000000000000e+000) (0, 0, 0.00000000000000000000e+000) (0, 0, 0.00000000000000000000e+000) (0, 0, 0.00000000000000000000e+000) (0, 0, 0.00000000000000000000e+000) (0, 0, 0.00000000000000000000e+000) (0, 0, 0.00000000000000000000e+000) (0, 0, 0.00000000000000000000e+000) (0, 0, 0.00000000000000000000e+000) (0, 0, 0.00000000000000000000e+000) (0, 0, 0.00000000000000000000e+000) (0, 0, 0.00000000000000000000e+000) (0, 0, 0.00000000000000000000e+000) (0, 0, 0.00000000000000000000e+000) (0, 0, 0.00000000000000000000e+000) (0, 0, 0.00000000000000000000e+000) (0, 0, 0.00000000000000000000e+000) (0, 0, 0.00000000000000000000e+000) (0, 0, 0.00000000000000000000e+000) (0, 0, 0.00000000000000000000e+000) (0, 0, 0.00000000000000000000e+000) (0, 0, 0.00000000000000000000e+000) (0, 0, 0.00000000000000000000e+000) (0, 0, 0.00000000000000000000e+000) (0, 0, 0.00000000000000000000e+000) (0, 0, 0.00000000000000000000e+000) (0, 0, 0.00000000000000000000e+000) (0, 0, 0.00000000000000000000e+000) (0, 0, 0.00000000000000000000e+000) (0, 0, 0.00000000000000000000e+000) (0, 0, 0.00000000000000000000e+000) (0, 0, 0.00000000000000000000e+000) (0, 0, 0.00000000000000000000e+000) (0, 0, 0.00000000000000000000e+000) (0, 0, 0.00000000000000000000e+000) (0, 0, 0.00000000000000000000e+000) (0, 0, 0.00000000000000000000e+000) (0, 0, 0.00000000000000000000e+000) (0, 0, 0.00000000000000000000e+000) (0, 0, 0.00000000000000000000e+000) (0, 0, 0.00000000000000000000e+000) (0, 0, 0.00000000000000000000e+000) (0, 0, 0.00000000000000000000e+000) (0, 0, 0.00000000000000000000e+000) (0, 0, 0.00000000000000000000e+000) (0, 0, 0.00000000000000000000e+000) (0, 0, 0.00000000000000000000e+000) (0, 0, 0.00000000000000000000e+000) (0, 0, 0.00000000000000000000e+000) (0, 0, 0.00000000000000000000e+000) (0, 0, 0.00000000000000000000e+000) (0, 0, 0.00000000000000000000e+000) (0, 0, 0.00000000000000000000e+000) (0, 0, 0.00000000000000000000e+000) (0, 0, 0.00000000000000000000e+000) (0, 0, 0.00000000000000000000e+000) (0, 0, 0.00000000000000000000e+000) (0, 0, 0.00000000000000000000e+000) (0, 0, 0.00000000000000000000e+000) (0, 0, 0.00000000000000000000e+000) (0, 0, 0.00000000000000000000e+000) (0, 0, 0.00000000000000000000e+000) (0, 0, 0.00000000000000000000e+000) (0, 0, 0.00000000000000000000e+000) (0, 0, 0.00000000000000000000e+000) (0, 0, 0.00000000000000000000e+000) (0, 0, 0.00000000000000000000e+000) (0, 0, 0.00000000000000000000e+000) (0, 0, 0.00000000000000000000e+000) (0, 0, 0.00000000000000000000e+000) (0, 0, 0.00000000000000000000e+000) (0, 0, 0.00000000000000000000e+000) (0, 0, 0.00000000000000000000e+000) (0, 0, 0.00000000000000000000e+000) (0, 0, 0.00000000000000000000e+000) (0, 0, 0.00000000000000000000e+000) (0, 0, 0.00000000000000000000e+000) (0, 0, 0.00000000000000000000e+000) (0, 0, 0.00000000000000000000e+000) (0, 0, 0.00000000000000000000e+000) (0, 0, 0.00000000000000000000e+000) (0, 0, 0.00000000000000000000e+000) (0, 0, 0.00000000000000000000e+000) (0, 0, 0.00000000000000000000e+000) (0, 0, 0.00000000000000000000e+000) (0, 0, 0.00000000000000000000e+000) (0, 0, 0.00000000000000000000e+000) (0, 0, 0.00000000000000000000e+000) (0, 0, 0.00000000000000000000e+000) (0, 0, 0.00000000000000000000e+000) (0, 0, 0.00000000000000000000e+000) (0, 0, 0.00000000000000000000e+000) (0, 0, 0.00000000000000000000e+000) (0, 0, 0.00000000000000000000e+000) (0, 0, 0.00000000000000000000e+000) (0, 0, 0.00000000000000000000e+000) (0, 0, 0.00000000000000000000e+000) (0, 0, 0.00000000000000000000e+000) (0, 0, 0.00000000000000000000e+000) (0, 0, 0.00000000000000000000e+000) (0, 0, 0.00000000000000000000e+000) (0, 0, 0.00000000000000000000e+000) (0, 0, 0.00000000000000000000e+000) (0, 0, 0.00000000000000000000e+000) (0, 0, 0.00000000000000000000e+000) (0, 0, 0.00000000000000000000e+000) (0, 0, 0.00000000000000000000e+000) (0, 0, 0.00000000000000000000e+000) (0, 0, 0.00000000000000000000e+000) (0, 0, 0.00000000000000000000e+000) (0, 0, 0.00000000000000000000e+000) (0, 0, 0.00000000000000000000e+000) (0, 0, 0.00000000000000000000e+000) (0, 0, 0.00000000000000000000e+000) (0, 0, 0.00000000000000000000e+000) (0, 0, 0.00000000000000000000e+000) (0, 0, 0.00000000000000000000e+000) (0, 0, 0.00000000000000000000e+000) (0, 0, 0.00000000000000000000e+000) (0, 0, 0.00000000000000000000e+000) (0, 0, 0.00000000000000000000e+000) (0, 0, 0.00000000000000000000e+000) (0, 0, 0.00000000000000000000e+000) (0, 0, 0.00000000000000000000e+000) (0, 0, 0.00000000000000000000e+000) (0, 0, 0.00000000000000000000e+000) (0, 0, 0.00000000000000000000e+000) (0, 0, 0.00000000000000000000e+000) (0, 0, 0.00000000000000000000e+000) (0, 0, 0.00000000000000000000e+000) (0, 0, 0.00000000000000000000e+000) (0, 0, 0.00000000000000000000e+000) (0, 0, 0.00000000000000000000e+000) (0, 0, 0.00000000000000000000e+000) (0, 0, 0.00000000000000000000e+000) (0, 0, 0.00000000000000000000e+000) (0, 0, 0.00000000000000000000e+000) (0, 0, 0.00000000000000000000e+000) (0, 0, 0.00000000000000000000e+000) (0, 0, 0.00000000000000000000e+000) (0, 0, 0.00000000000000000000e+000) (0, 0, 0.00000000000000000000e+000) (0, 0, 0.00000000000000000000e+000) (0, 0, 0.00000000000000000000e+000) (0, 0, 0.00000000000000000000e+000) (0, 0, 0.00000000000000000000e+000) (0, 0, 0.00000000000000000000e+000) (0, 0, 0.00000000000000000000e+000) (0, 0, 0.00000000000000000000e+000) (0, 0, 0.00000000000000000000e+000) (0, 0, 0.00000000000000000000e+000) (0, 0, 0.00000000000000000000e+000) (0, 0, 0.00000000000000000000e+000) (0, 0, 0.00000000000000000000e+000) (0, 0, 0.00000000000000000000e+000) (0, 0, 0.00000000000000000000e+000) (0, 0, 0.00000000000000000000e+000) (0, 0, 0.00000000000000000000e+000) (0, 0, 0.00000000000000000000e+000) (0, 0, 0.00000000000000000000e+000) (0, 0, 0.00000000000000000000e+000) (0, 0, 0.00000000000000000000e+000) (0, 0, 0.00000000000000000000e+000) (0, 0, 0.00000000000000000000e+000) (0, 0, 0.00000000000000000000e+000) (0, 0, 0.00000000000000000000e+000) (0, 0, 0.00000000000000000000e+000) (0, 0, 0.00000000000000000000e+000) (0, 0, 0.00000000000000000000e+000) (0, 0, 0.00000000000000000000e+000) (0, 0, 0.00000000000000000000e+000) (0, 0, 0.00000000000000000000e+000) (0, 0, 0.00000000000000000000e+000) (0, 0, 0.00000000000000000000e+000) (0, 0, 0.00000000000000000000e+000) (0, 0, 0.00000000000000000000e+000) (0, 0, 0.00000000000000000000e+000) (0, 0, 0.00000000000000000000e+000) (0, 0, 0.00000000000000000000e+000) (0, 0, 0.00000000000000000000e+000) (0, 0, 0.00000000000000000000e+000) (0, 0, 0.00000000000000000000e+000) (0, 0, 0.00000000000000000000e+000) (0, 0, 0.00000000000000000000e+000) (0, 0, 0.00000000000000000000e+000) (0, 0, 0.00000000000000000000e+000) (0, 0, 0.00000000000000000000e+000) (0, 0, 0.00000000000000000000e+000) (0, 0, 0.00000000000000000000e+000) (0, 0, 0.00000000000000000000e+000) (0, 0, 0.00000000000000000000e+000) (0, 0, 0.00000000000000000000e+000) (0, 0, 0.00000000000000000000e+000) (0, 0, 0.00000000000000000000e+000) (0, 0, 0.00000000000000000000e+000) (0, 0, 0.00000000000000000000e+000) (0, 0, 0.00000000000000000000e+000) (0, 0, 0.00000000000000000000e+000) (0, 0, 0.00000000000000000000e+000) (0, 0, 0.00000000000000000000e+000) (0, 0, 0.00000000000000000000e+000) (0, 0, 0.00000000000000000000e+000) (0, 0, 0.00000000000000000000e+000) (0, 0, 0.00000000000000000000e+000) (0, 0, 0.00000000000000000000e+000) (0, 0, 0.00000000000000000000e+000) (0, 0, 0.00000000000000000000e+000) (0, 0, 0.00000000000000000000e+000) (0, 0, 0.00000000000000000000e+000) (0, 0, 0.00000000000000000000e+000) (0, 0, 0.00000000000000000000e+000) (0, 0, 0.00000000000000000000e+000) (0, 0, 0.00000000000000000000e+000) (0, 0, 0.00000000000000000000e+000) (0, 0, 0.00000000000000000000e+000) (0, 0, 0.00000000000000000000e+000) (0, 0, 0.00000000000000000000e+000) (0, 0, 0.00000000000000000000e+000) (0, 0, 0.00000000000000000000e+000) (0, 0, 0.00000000000000000000e+000) (0, 0, 0.00000000000000000000e+000) (0, 0, 0.00000000000000000000e+000) (0, 0, 0.00000000000000000000e+000) (0, 0, 0.00000000000000000000e+000) (0, 0, 0.00000000000000000000e+000) (0, 0, 0.00000000000000000000e+000) (0, 0, 0.00000000000000000000e+000) (0, 0, 0.00000000000000000000e+000) (0, 0, 0.00000000000000000000e+000) (0, 0, 0.00000000000000000000e+000) (0, 0, 0.00000000000000000000e+000) (0, 0, 0.00000000000000000000e+000) (0, 0, 0.00000000000000000000e+000) (0, 0, 0.00000000000000000000e+000) (0, 0, 0.00000000000000000000e+000) (0, 0, 0.00000000000000000000e+000) (0, 0, 0.00000000000000000000e+000) (0, 0, 0.00000000000000000000e+000) (0, 0, 0.00000000000000000000e+000) (0, 0, 0.00000000000000000000e+000) (0, 0, 0.00000000000000000000e+000) (0, 0, 0.00000000000000000000e+000) (0, 0, 0.00000000000000000000e+000) (0, 0, 0.00000000000000000000e+000) (0, 0, 0.00000000000000000000e+000) (0, 0, 0.00000000000000000000e+000) (0, 0, 0.00000000000000000000e+000) (0, 0, 0.00000000000000000000e+000) (0, 0, 0.00000000000000000000e+000) (0, 0, 0.00000000000000000000e+000) (0, 0, 0.00000000000000000000e+000) (0, 0, 0.00000000000000000000e+000) (0, 0, 0.00000000000000000000e+000) (0, 0, 0.00000000000000000000e+000) (0, 0, 0.00000000000000000000e+000) (0, 0, 0.00000000000000000000e+000) (0, 0, 0.00000000000000000000e+000) (0, 0, 0.00000000000000000000e+000) (0, 0, 0.00000000000000000000e+000) (0, 0, 0.00000000000000000000e+000) (0, 0, 0.00000000000000000000e+000) (0, 0, 0.00000000000000000000e+000) (0, 0, 0.00000000000000000000e+000) (0, 0, 0.00000000000000000000e+000) (0, 0, 0.00000000000000000000e+000) (0, 0, 0.00000000000000000000e+000) (0, 0, 0.00000000000000000000e+000) (0, 0, 0.00000000000000000000e+000) (0, 0, 0.00000000000000000000e+000) (0, 0, 0.00000000000000000000e+000) (0, 0, 0.00000000000000000000e+000) (785, 3, 5.00000000000000000000e-001) (785, 3, 5.00000000000000000000e-001) (785, 3, 5.00000000000000000000e-001) (785, 3, 5.00000000000000000000e-001) (785, 3, 5.00000000000000000000e-001) (785, 3, 5.00000000000000000000e-001) (785, 3, 5.00000000000000000000e-001) (785, 3, 5.00000000000000000000e-001) (785, 3, 5.00000000000000000000e-001) (785, 3, 5.00000000000000000000e-001) (785, 3, 5.00000000000000000000e-001) (785, 3, 5.00000000000000000000e-001) (785, 3, 5.00000000000000000000e-001) (785, 3, 5.00000000000000000000e-001) (785, 3, 5.00000000000000000000e-001) (785, 3, 5.00000000000000000000e-001) (785, 3, 5.00000000000000000000e-001) (785, 3, 5.00000000000000000000e-001) (785, 3, 5.00000000000000000000e-001) (785, 3, 5.00000000000000000000e-001) (785, 3, 5.00000000000000000000e-001) (785, 3, 5.00000000000000000000e-001) (785, 3, 5.00000000000000000000e-001) (785, 3, 5.00000000000000000000e-001) (785, 3, 5.00000000000000000000e-001) (785, 3, 5.00000000000000000000e-001) (785, 3, 5.00000000000000000000e-001) (785, 3, 5.00000000000000000000e-001) (785, 3, 5.00000000000000000000e-001) (785, 3, 5.00000000000000000000e-001) (0, 3, 0.00000000000000000000e+000) (31, 3, 5.00000000000000000000e-001) (31, 3, 5.00000000000000000000e-001) (31, 3, 5.00000000000000000000e-001) (31, 3, 5.00000000000000000000e-001) (31, 3, 5.00000000000000000000e-001) (31, 3, 5.00000000000000000000e-001) (31, 3, 5.00000000000000000000e-001) (31, 3, 5.00000000000000000000e-001) (31, 3, 5.00000000000000000000e-001) (31, 3, 5.00000000000000000000e-001) (0, 3, 0.00000000000000000000e+000) 
connections (connected_to_neuron, weight)=(0, 5.71899422584465360000e-002) (1, 7.99804699418018570000e-002) (2, -8.59130872177047420000e-002) (3, 2.96142582537868290000e-002) (4, -4.64050299883638220000e-002) (5, 9.76074233294639270000e-002) (6, 3.47839360651960310000e-002) (7, 6.43127450989595670000e-002) (8, -9.36157240512329740000e-002) (9, -7.32299815599617430000e-002) (10, -8.99414075902313930000e-002) (11, 7.40295421187511240000e-002) (12, -8.90598412660908090000e-004) (13, -2.58897624665184370000e-003) (14, -9.15904424166272130000e-002) (15, 7.84123297964838680000e-002) (16, 9.75585952037363310000e-002) (17, 3.80126958789333000000e-002) (18, -3.33740239348117030000e-002) (19, -1.22070314318989400000e-004) (20, -6.42822275203798200000e-002) (21, 4.28039557159536340000e-002) (22, 1.35742189522716220000e-002) (23, 1.76635744819577670000e-002) (24, -2.12829593015158030000e-002) (25, -9.20898451222456060000e-002) (26, -1.36901857508746620000e-002) (27, -5.58837898952333490000e-002) (28, 1.89208987194433580000e-002) (29, 6.80664072642684910000e-002) (30, 4.51843268451739280000e-002) (31, 4.49829108265475950000e-003) (32, -3.85009771362092580000e-002) (33, -3.49239292368422740000e-002) (34, 1.18884456756529820000e-001) (35, -4.56733943044605320000e-002) (36, -6.91805352906484880000e-003) (37, 6.70673599165330230000e-002) (38, -6.35404505524542460000e-003) (39, -3.42412121208358210000e-002) (40, -1.48061021753249050000e-002) (41, 1.11778237544136040000e-001) (42, 3.16581873060216730000e-001) (43, 4.12003142928733020000e-001) (44, 2.05714844517559560000e-001) (45, -3.96023272596289640000e-002) (46, -4.60884881191430120000e-002) (47, -4.94846092981253980000e-002) (48, -4.14982260621498330000e-002) (49, -7.23035817863457580000e-002) (50, 1.04633453623869730000e-001) (51, 1.63181515267588170000e-002) (52, 1.76818850291056150000e-002) (53, 9.71374526193358180000e-002) (54, 2.80273441676399670000e-002) (55, 7.56835948777734300000e-003) (56, 1.23779298719455260000e-002) (57, 8.74816907567037560000e-002) (58, -6.59179697322542780000e-002) (59, 5.75138280679629440000e-002) (60, -3.85417236422348970000e-002) (61, -8.29783820765472860000e-002) (62, 3.99489276563058240000e-002) (63, 6.59366859098288180000e-002) (64, 1.37154318475080920000e-001) (65, 1.29060102112629780000e-002) (66, -5.27327924175352010000e-002) (67, 1.18945636042788210000e-001) (68, 1.95551946978765180000e-001) (69, 3.28954586036883770000e-001) (70, 5.45500571027604300000e-001) (71, 8.16639047525838820000e-001) (72, 4.85684619057995930000e-001) (73, 1.96248875853345330000e-001) (74, -1.71528577554878630000e-001) (75, -3.01969085853610540000e-001) (76, -1.44490740256655120000e-001) (77, -2.04749806384419470000e-001) (78, -9.10584583799112920000e-003) (79, -5.00961551475710980000e-002) (80, 4.94824789003665620000e-002) (81, 7.15134203305353290000e-002) (82, 1.37329103608863080000e-003) (83, -7.07702647264341070000e-002) (84, -4.68811042142078800000e-002) (85, 5.54992684051285320000e-002) (86, -5.58732083108599700000e-002) (87, 1.07808457508309770000e-001) (88, 3.02479899569897330000e-002) (89, -2.15189249751394330000e-001) (90, 6.84829356728700460000e-002) (91, -4.54428456358035370000e-002) (92, 1.29557126307969170000e-001) (93, -3.16916938711723220000e-001) (94, -6.52100716769241420000e-001) (95, -1.32821032157164920000e+000) (96, -6.49430665361275580000e-001) (97, -1.13263317372598450000e-001) (98, -1.25386642474197660000e+000) (99, -1.22495758546780030000e+000) (100, -1.82033106883100750000e+000) (101, -2.01470343256511390000e+000) (102, -1.72309642722729640000e+000) (103, -1.80774781618559600000e+000) (104, -1.73874177369441240000e+000) (105, -9.68709872588938040000e-001) (106, -5.33037319332094400000e-002) (107, -2.04212128334335330000e-001) (108, -2.91388648132642420000e-001) (109, -2.58938044561190660000e-002) (110, 2.08666637767176730000e-002) (111, 7.50732433061784830000e-003) (112, 5.95092782305073340000e-002) (113, 7.63039252501702400000e-002) (114, -1.18815690826857820000e-002) (115, 2.01155026381744860000e-002) (116, -6.10144445143908710000e-002) (117, -3.55832452871018000000e-002) (118, -2.21255278563382170000e-001) (119, -2.77493406128167640000e-001) (120, -6.51791249647392430000e-001) (121, 2.20547091488115720000e-001) (122, -5.72964757431409620000e-001) (123, 5.90353958133879700000e-001) (124, 1.18322660961235980000e+000) (125, -5.91207857991136840000e-001) (126, -4.11991670122002160000e-001) (127, 1.24339612251376170000e+000) (128, 1.58146950794890410000e+000) (129, 5.35896391368605450000e-002) (130, -1.78244049831111170000e+000) (131, -5.96512874703915230000e-001) (132, -1.02213755596564340000e+000) (133, -1.00409215364766750000e+000) (134, -3.57084998053849630000e-001) (135, -5.20503478830742880000e-001) (136, -6.87630047939457150000e-001) (137, -9.12342467004362800000e-003) (138, 2.02271063266658720000e-001) (139, 9.88657511937588440000e-002) (140, 6.34338388358628440000e-002) (141, -1.61560061001182480000e-002) (142, -7.51096974921691280000e-002) (143, -7.38482053103834550000e-002) (144, -4.62814002931768280000e-001) (145, -4.84591466479143970000e-001) (146, -1.18369929149258790000e+000) (147, -1.76772121846252790000e+000) (148, -2.12469946205737070000e+000) (149, -1.59548667418524850000e+000) (150, -2.48430925837238230000e+000) (151, -1.13197949741040000000e+000) (152, -9.62745844945383620000e-001) (153, -8.02643474111336410000e-001) (154, 1.63791328549568420000e+000) (155, 1.58830142632470620000e+000) (156, 1.30065924267618180000e+000) (157, 4.44391363550252290000e-002) (158, 4.97939976710852720000e-001) (159, 1.17314585511191780000e+000) (160, 1.95716659905826780000e+000) (161, 2.75221943605369290000e+000) (162, 3.84490550559875020000e-001) (163, -1.47979103828986200000e+000) (164, -1.07986752655951750000e+000) (165, -2.57521129130111830000e-001) (166, 5.12575962667584650000e-002) (167, 4.46959836434168280000e-002) (168, 9.17175306635726880000e-002) (169, 7.25275692772426040000e-002) (170, -3.11041939002926550000e-002) (171, -3.56148463160278540000e-001) (172, -1.35153416400279850000e+000) (173, -1.63083220994638860000e+000) (174, -1.74949791291696370000e+000) (175, -1.60570607183946730000e+000) (176, -2.00124156088059290000e+000) (177, -1.83071056300711320000e+000) (178, -1.80288214514111140000e+000) (179, -2.49678052689282030000e+000) (180, -1.79738398392218390000e-001) (181, 1.61726174076894460000e-001) (182, -2.14791642515561400000e-001) (183, -9.24343837343414300000e-001) (184, -5.11881598512554440000e-001) (185, -2.35846607541997240000e+000) (186, -1.42881712677610120000e+000) (187, 1.53367877867950230000e+000) (188, 5.10558470431868100000e-002) (189, 1.60723551924174600000e+000) (190, 6.77646428426264210000e-001) (191, 3.42199011248342460000e-001) (192, 3.70664765579267700000e-001) (193, 1.21396816526498460000e-001) (194, -7.98237675229159640000e-002) (195, -8.16421632666625150000e-002) (196, -8.79949680677979270000e-002) (197, -1.05937218790966610000e-001) (198, 4.59574992203464210000e-002) (199, -5.57370026929302490000e-001) (200, -1.77149791771789890000e+000) (201, -2.33168629986218210000e+000) (202, -1.63774303688595470000e+000) (203, -3.46055494822521850000e-001) (204, -5.55913146298587790000e-001) (205, -2.76795003733957890000e+000) (206, -1.61074544443519450000e+000) (207, -5.73755461496876170000e-001) (208, -1.97610865468630160000e-001) (209, -9.17325800371523780000e-001) (210, -1.29599934889273550000e+000) (211, -6.02984571127436200000e-001) (212, -8.90842926630844470000e-003) (213, 2.75764372774160880000e-001) (214, 1.53609947469524830000e-001) (215, 1.22087785686429610000e-002) (216, 3.30727868067289200000e-002) (217, 7.38611730300759220000e-001) (218, -1.53643673758931980000e-001) (219, 1.38121145371282040000e+000) (220, 1.49643496887824880000e+000) (221, 7.16417805812307630000e-001) (222, 3.65323039261179930000e-001) (223, 2.58589864970590440000e-002) (224, -5.78332690538442340000e-002) (225, -5.63641437755941980000e-002) (226, -1.08668448655560400000e-001) (227, -4.23434183460109690000e-001) (228, -1.57525067809074340000e+000) (229, -1.95983930167402920000e+000) (230, 3.04818764914541460000e-001) (231, 7.15238609315500430000e-001) (232, -6.00908613897490060000e-001) (233, -1.42956182561289840000e+000) (234, -3.46362562936325110000e-001) (235, -1.69958605776979360000e-002) (236, -5.70115371913829380000e-002) (237, 3.84646320473534980000e-001) (238, -1.13869629526107110000e+000) (239, -6.03221076377409850000e-001) (240, 1.36551212617441760000e+000) (241, 1.82974365721674200000e+000) (242, -1.20397803559255960000e+000) (243, 6.54832356074662500000e-001) (244, 1.23406838207454950000e+000) (245, 3.80883143745027520000e-001) (246, -7.77629691632643390000e-001) (247, 2.09822680575550270000e+000) (248, 2.20518457879117990000e+000) (249, 9.54104002859609610000e-001) (250, 1.05946348183677120000e+000) (251, 1.77155920855792400000e-001) (252, 7.96483246710821130000e-002) (253, -1.06215098744993110000e-002) (254, -1.34303456019781440000e-001) (255, -8.00791588462820170000e-001) (256, -1.23439388676577070000e+000) (257, -7.12440434803481180000e-001) (258, 1.37913729562745610000e+000) (259, 2.77755706217297330000e+000) (260, 2.33345723131550380000e+000) (261, 1.68310366089311710000e-001) (262, 2.10174502701082220000e+000) (263, 1.58526454548581580000e-001) (264, -1.34700200617030410000e+000) (265, -1.55758663821779990000e+000) (266, -2.37753447138770870000e+000) (267, -4.74832352009926590000e+000) (268, -1.43905296667399550000e+000) (269, 4.11569620874505100000e-001) (270, -2.29636908701684030000e-003) (271, -1.24033563326536880000e+000) (272, 1.41064359069177870000e+000) (273, 8.28982052851552580000e-001) (274, 1.21286289510607380000e+000) (275, 3.81101628944155380000e+000) (276, 3.94587345180346640000e+000) (277, 2.70837443826195610000e+000) (278, 1.25578484604352100000e+000) (279, -4.51155159178295300000e-002) (280, 5.65743866040593000000e-002) (281, 5.91431704130491520000e-002) (282, -1.34587506505459560000e-001) (283, -5.26938646548436700000e-001) (284, -7.34878446534808050000e-001) (285, -7.30003415007860150000e-001) (286, 1.83197837669980280000e+000) (287, 4.36488320083531360000e+000) (288, 3.56698522627607590000e+000) (289, 8.09003199665168760000e-001) (290, 2.33862483056952900000e+000) (291, 2.07385616808119870000e-001) (292, 1.33674265789453290000e-001) (293, 2.04551787482628100000e+000) (294, 2.15073110715143880000e+000) (295, -1.01418597420103040000e+000) (296, -3.06615917041873100000e+000) (297, -1.66258486428279270000e+000) (298, 1.76080722737595360000e+000) (299, -2.56482090149535270000e-001) (300, 8.45194572767012150000e-001) (301, -1.34872834487738600000e-001) (302, 1.16442204965453710000e-001) (303, 4.35710808206874490000e+000) (304, 4.07271947827261370000e+000) (305, 1.45434118217154950000e+000) (306, 9.88739966952934310000e-001) (307, 5.29848996891198740000e-002) (308, 2.55839872722770260000e-002) (309, -3.25997955113968980000e-002) (310, -8.34275163648560830000e-002) (311, -3.80411395314617480000e-001) (312, -1.15327585552320260000e+000) (313, 4.12455176718441730000e-001) (314, 1.17867118851630770000e+000) (315, 4.64272532267950310000e+000) (316, 2.46514481691083850000e+000) (317, 2.50955974672865300000e+000) (318, -3.79806627270746040000e-001) (319, -1.00530493471568460000e+000) (320, -1.60569118838966700000e+000) (321, 2.44569336072251530000e+000) (322, 2.50372639486243200000e+000) (323, -1.05506866620876740000e+000) (324, -5.65181349777813400000e+000) (325, -4.38643386805581500000e+000) (326, -2.26909121604988510000e+000) (327, -1.59972641746441830000e+000) (328, -1.08148825477469310000e+000) (329, -1.21544073865091100000e+000) (330, -1.47607002996044460000e-001) (331, 2.21783928661196720000e+000) (332, 2.65671502618150250000e+000) (333, 1.54924951839294530000e+000) (334, 7.47820434100464390000e-001) (335, 1.98582398079975580000e-001) (336, -3.13331752397712280000e-002) (337, 4.24300079311604790000e-003) (338, -1.60041214671701350000e-001) (339, -2.78372732133640060000e-001) (340, -1.28300547376095550000e+000) (341, 5.35525159132435370000e-001) (342, -4.74895478073493750000e-001) (343, 1.34063642030714100000e+000) (344, 1.02920944563605500000e+000) (345, 3.08156375446049550000e+000) (346, -1.64732205101264980000e+000) (347, -1.21461150867585950000e+000) (348, -2.89592228201546620000e-001) (349, -2.90408744537474230000e-001) (350, -7.90792630348199130000e-001) (351, -7.46307685860618570000e-001) (352, -5.31819338151627630000e+000) (353, -4.07557915695982410000e+000) (354, -4.48929435343019810000e+000) (355, -1.49755889676714740000e+000) (356, 5.68603904277427460000e-001) (357, -3.70395398990750020000e-001) (358, -1.23662191169254590000e+000) (359, 7.99315239081091700000e-001) (360, 1.86752290350859960000e+000) (361, 1.50233452958920230000e+000) (362, 3.20612533831658110000e-001) (363, 2.11808852033355780000e-002) (364, 8.41307599931913480000e-002) (365, 7.30053254575114970000e-002) (366, -4.90805877725175800000e-002) (367, -3.37453674437928060000e-001) (368, -1.73072860349561440000e+000) (369, -4.59717237280161230000e-001) (370, -2.30048492592330960000e+000) (371, -6.87068091066472150000e-001) (372, -1.14880233044779480000e+000) (373, 9.50622557952929960000e-002) (374, -3.59548663958066240000e+000) (375, -7.21794468096817910000e-001) (376, -1.65017498768378970000e+000) (377, -2.30995459023562920000e-001) (378, 2.75837329745835190000e-001) (379, -1.43251176575926340000e-001) (380, -2.50760785475711630000e+000) (381, -2.28902471446375700000e+000) (382, -2.57492567687566700000e+000) (383, -9.95193841832967220000e-001) (384, 1.99233406298282410000e+000) (385, -1.85166205878992130000e+000) (386, -5.48212098407120600000e-001) (387, 2.27373794827544220000e-001) (388, 1.51371613863520360000e+000) (389, 1.55491692451924690000e+000) (390, 7.37744583083021930000e-001) (391, 1.21312011656852070000e-001) (392, 6.80542002328365920000e-003) (393, -1.45787986514971550000e-002) (394, 5.36023289458060350000e-002) (395, -3.55682257024772690000e-001) (396, -2.49495976912274740000e+000) (397, -2.77110231154723860000e+000) (398, -2.99276301808899480000e+000) (399, -3.59992008749389700000e+000) (400, -9.45502408040375440000e-001) (401, -5.02136098467220380000e+000) (402, -5.73013815748109500000e+000) (403, -1.75241829253910140000e+000) (404, 2.51426479770768250000e-003) (405, 2.29685544198654460000e+000) (406, 3.88843222400974260000e+000) (407, 7.65532369260164550000e-001) (408, -2.05816051627824280000e+000) (409, -3.47620408537751890000e+000) (410, -3.64771014775076500000e+000) (411, -1.00354472164222490000e+000) (412, -1.78111055409954180000e+000) (413, -2.74618740154121400000e+000) (414, -1.55192929199660430000e+000) (415, -9.62778700417870840000e-001) (416, 5.38672677955561400000e-001) (417, 8.48707344626432270000e-001) (418, 4.92586298733161680000e-001) (419, 7.10266974115427860000e-002) (420, -4.35859054502353220000e-002) (421, 5.32287982235716270000e-002) (422, 4.28506583255617860000e-002) (423, -1.83446025017133640000e-001) (424, -1.97027401468308260000e+000) (425, -3.00404378850138350000e+000) (426, -3.25040707159105670000e+000) (427, -3.76771123534197550000e+000) (428, -4.28115597503043780000e+000) (429, -3.21580771150796880000e+000) (430, -3.45016466948303170000e+000) (431, 8.21286207145116910000e-001) (432, 2.50463827235127170000e+000) (433, 1.54875246694416150000e+000) (434, 4.57138615099035220000e+000) (435, -2.02881727033441790000e-001) (436, 1.00701047713531920000e-001) (437, -2.79656484491305650000e+000) (438, -3.98505249142449170000e-001) (439, -4.05769474097288900000e+000) (440, -6.66967893540995500000e+000) (441, -4.48399210860962590000e+000) (442, -4.41452748604629890000e+000) (443, -2.37800966847521030000e+000) (444, 6.47341594727222770000e-002) (445, 5.13268533787254340000e-001) (446, 4.31632260372004810000e-001) (447, -5.77809128361841950000e-002) (448, -2.67251902195132820000e-002) (449, -4.77179570572707070000e-002) (450, -1.76996807325700360000e-001) (451, 2.53209077041140370000e-001) (452, -2.01709727506496610000e+000) (453, -3.28534405833476400000e+000) (454, -3.90973594534275250000e+000) (455, -5.32014825523875600000e+000) (456, -3.23383255134283720000e+000) (457, -7.93973897867864430000e-001) (458, 7.62761217403550850000e-001) (459, 5.70193322900678370000e-001) (460, 1.78831560074654370000e+000) (461, 2.98258823091731000000e+000) (462, 1.24626332045612380000e+000) (463, 6.06269417361136490000e-001) (464, 1.07606875549760870000e+000) (465, -1.88144168911506960000e+000) (466, -3.28775175605176480000e+000) (467, -5.55200692970893250000e+000) (468, -7.43425441921388330000e+000) (469, -5.52008636976968340000e+000) (470, -4.47496681373690830000e+000) (471, -8.77030137780267170000e-001) (472, 4.43116871520982450000e-001) (473, 7.63123906681202780000e-001) (474, 5.57218372133689850000e-001) (475, 9.59997609630155040000e-002) (476, -3.28002934575124530000e-002) (477, 3.12707866830271020000e-002) (478, -4.39445440855488130000e-002) (479, -1.41401850321098390000e-001) (480, -1.05587597848910050000e+000) (481, -3.19650135403906970000e+000) (482, -2.20809756955073500000e+000) (483, -3.67992418700195810000e+000) (484, -1.09787948899505740000e+000) (485, 2.59894300898165480000e+000) (486, 2.55321811032046500000e+000) (487, 2.45235438995036810000e+000) (488, 2.58623803952330040000e+000) (489, 3.02279577494691720000e+000) (490, 2.81089974296671130000e+000) (491, -2.17219583559350670000e+000) (492, 1.05430523087280560000e+000) (493, -2.44194379541786950000e+000) (494, -3.36145074981054970000e+000) (495, -4.60865906866670900000e+000) (496, -4.64058103636457720000e+000) (497, -3.83029952528714460000e+000) (498, -2.08350899032797620000e+000) (499, 8.75704505003020550000e-001) (500, 1.84083237981551020000e+000) (501, 4.59912306541847890000e-001) (502, 2.62688603519960260000e-001) (503, 6.51164945451114670000e-002) (504, -4.24715557932656830000e-002) (505, 9.50842167205561830000e-002) (506, -7.92445802658966890000e-002) (507, -6.75002244650705020000e-001) (508, -1.22345781584965340000e+000) (509, -3.11279165553637860000e+000) (510, -4.23854833651935440000e-001) (511, 2.02565899280202470000e-001) (512, 3.92960097935814410000e+000) (513, 4.18591172984789140000e+000) (514, 2.53933793600893050000e+000) (515, 2.16746450754522210000e+000) (516, 3.33081786882125200000e+000) (517, 2.29535509356890090000e+000) (518, -1.94500276441073510000e+000) (519, -2.82104927040467190000e+000) (520, -2.68194537779528950000e+000) (521, -2.26668016593187490000e+000) (522, -2.06345256873508550000e+000) (523, -2.23330068454422600000e+000) (524, -2.71183985978179680000e+000) (525, -3.59400576120954000000e+000) (526, -1.43368274250954110000e+000) (527, 2.66657894694336180000e+000) (528, 2.49503312681287200000e+000) (529, 3.15008654463951210000e-001) (530, 1.19083147639538960000e-002) (531, -8.74471925236161020000e-002) (532, 1.64367678230519230000e-002) (533, -6.79151887967426180000e-002) (534, 7.51276617919108180000e-003) (535, -8.94334115268229920000e-001) (536, -1.72411954174002970000e+000) (537, -1.87795986311012330000e+000) (538, 1.59649472468987550000e+000) (539, 1.88876271808901120000e+000) (540, 4.79527704447104420000e+000) (541, 4.28549251290813160000e+000) (542, 3.35637519412139350000e+000) (543, 8.39907565318832150000e-001) (544, 2.90661123270141040000e-001) (545, 2.30305742034930860000e+000) (546, -1.07704062743789590000e+000) (547, 6.83576220401208860000e-002) (548, -5.04533374542535330000e-001) (549, -1.35368874153001760000e+000) (550, -6.15077890184517420000e-001) (551, 2.51681641562724600000e-001) (552, -1.68966065387724700000e+000) (553, -1.92961931760600950000e-001) (554, 2.55265810588734920000e+000) (555, 3.32223077517112660000e+000) (556, 1.51368470179242350000e+000) (557, 2.04265888469500200000e-001) (558, 5.23772879054487240000e-002) (559, 8.08641136745609220000e-002) (560, 6.10046395809149540000e-002) (561, 6.21913539092981620000e-002) (562, -1.18068565748538040000e-001) (563, -1.10439495725919020000e+000) (564, -2.00646758288730530000e+000) (565, -1.69910671965456060000e-001) (566, 7.98049191170610130000e-001) (567, 1.85366279777266320000e+000) (568, 1.70263917694997270000e+000) (569, 2.72428034085577720000e+000) (570, 1.38361448253035980000e+000) (571, 1.19958644410679630000e+000) (572, 2.97577597467491950000e+000) (573, 3.59166978355114530000e+000) (574, 7.02541807616645860000e-001) (575, 1.80398169513137590000e+000) (576, 8.66867460413293660000e-001) (577, 2.18741756015842890000e+000) (578, 4.24292504075321650000e-001) (579, 4.60867694918581790000e+000) (580, 3.14381926537723850000e+000) (581, 3.11798430457147590000e+000) (582, 3.62767569515503880000e+000) (583, 2.55190687122074420000e+000) (584, 3.04731625058375750000e-001) (585, -2.60015579208974670000e-002) (586, -6.98353040950434050000e-002) (587, 4.85608706560198620000e-002) (588, 6.81002037806196780000e-002) (589, -5.53739966658319050000e-002) (590, -2.17829913989725200000e-001) (591, -9.67532048545289510000e-001) (592, -1.14146642744534590000e+000) (593, -3.63816601505751600000e-003) (594, 1.12022055606844840000e+000) (595, 1.04578571082333500000e+000) (596, 5.16465519381826690000e-002) (597, 9.17330503587566070000e-001) (598, 6.96441991641279960000e-001) (599, 2.09111129444355640000e-001) (600, 8.77407219112253610000e-001) (601, 7.86620116289343360000e-001) (602, 2.26470611401396930000e+000) (603, 2.02615420130031730000e+000) (604, -1.68033619100826440000e+000) (605, 4.80347934659096780000e+000) (606, 3.46986167348402840000e+000) (607, 4.31840864371489630000e+000) (608, 4.88394729505526200000e+000) (609, 3.26263667391434750000e+000) (610, 2.83872511447443810000e+000) (611, 1.55686387659378140000e+000) (612, 2.46411152442338740000e-001) (613, 1.33749733166835360000e-001) (614, -1.36718081111517060000e-002) (615, 1.54219603246326940000e-002) (616, 2.56261169162542120000e-002) (617, -2.57963660900854680000e-002) (618, -2.32380228727630120000e-001) (619, -1.69955048275707680000e-001) (620, -3.46804684443556500000e-001) (621, 1.36260372314866920000e+000) (622, 9.86575919669514410000e-001) (623, -3.68670818344033870000e-001) (624, -2.15159452135222300000e+000) (625, 5.91411913864489770000e-001) (626, -2.97353045772551370000e+000) (627, 5.36744052447797470000e-002) (628, 6.87196393744161970000e-001) (629, 5.64806463079531310000e-001) (630, 2.38992256903837720000e+000) (631, 2.98955726569454500000e-004) (632, 1.50970200103560300000e+000) (633, 3.26673132895212160000e+000) (634, 1.95888130559554830000e+000) (635, 2.96587424035630940000e+000) (636, 3.51078927165457210000e+000) (637, 1.91028786664113430000e+000) (638, 1.84339215064152980000e+000) (639, 8.04398099458479180000e-001) (640, 3.08334642245165880000e-001) (641, 1.26590875694500620000e-001) (642, 3.39482346188053480000e-002) (643, 2.78067471770350070000e-003) (644, -3.81103521303884920000e-002) (645, -9.62585463562390940000e-002) (646, 6.97947846264159730000e-002) (647, -2.38795563763875150000e-001) (648, 8.82648371698424140000e-001) (649, -2.48500998023168660000e-001) (650, -1.19782004976640780000e+000) (651, -2.87261719194075880000e+000) (652, -6.73349690028901550000e-001) (653, -3.63679572092872720000e-001) (654, -6.28806445075128950000e-001) (655, 6.77105135781913000000e-001) (656, 2.23581356737776150000e+000) (657, 2.74201952207586610000e+000) (658, 2.63248171129848400000e+000) (659, 3.43361739387582340000e+000) (660, 4.59200930208915100000e+000) (661, -3.73322256374659770000e-001) (662, 1.13725760942144660000e+000) (663, 2.26322484592247840000e+000) (664, 3.90320639536229660000e+000) (665, 1.90053575017264300000e+000) (666, 1.00806025621890890000e+000) (667, 2.00046353761477340000e-001) (668, -2.68358787072163870000e-001) (669, 1.58223393971038180000e-001) (670, 3.20583674788962950000e-002) (671, 5.72692879627538790000e-002) (672, 3.09387211641478640000e-002) (673, 8.58154309662495510000e-002) (674, -1.03786403506272400000e-001) (675, -4.77073143763850400000e-001) (676, -1.33119827174018850000e+000) (677, -2.25149110992622470000e+000) (678, -1.82712113446956570000e+000) (679, -1.97461735847569390000e+000) (680, 4.35045629069436110000e-001) (681, 1.37655770889605880000e+000) (682, -3.68457659618334140000e-002) (683, 7.00772933448489010000e-001) (684, 2.36999347517177750000e+000) (685, 9.03712509390061420000e-001) (686, 1.81910650247797490000e+000) (687, 2.14814362047134690000e+000) (688, -8.59203679311305870000e-002) (689, -1.17295467644645310000e+000) (690, 9.23372146850032880000e-001) (691, 2.44212535891824120000e+000) (692, 4.74364606813555860000e-001) (693, -9.25164483301151860000e-001) (694, -1.55974219882368080000e+000) (695, -1.11177280334869550000e+000) (696, -8.49447851012239130000e-002) (697, 3.68356210802915250000e-001) (698, 1.00654434231725970000e-001) (699, 6.41723642374927290000e-002) (700, -5.01220710593770490000e-002) (701, -4.50317389522751910000e-002) (702, 8.51582824301320290000e-002) (703, -1.17437641317597350000e-001) (704, -9.90023261978415840000e-001) (705, -1.69727115581575090000e+000) (706, -1.10462985970588700000e+000) (707, -5.42784737447207680000e-001) (708, -1.51180177233554550000e+000) (709, -1.57257283946418270000e+000) (710, 6.88477066262447420000e-001) (711, -1.76910135881443730000e+000) (712, 3.44738875814912110000e-002) (713, -1.64590871305450670000e+000) (714, -1.54051680833248960000e+000) (715, -6.59564578431716670000e-001) (716, -6.40195409298348840000e-001) (717, 1.40430642831411200000e+000) (718, 5.65177105383690810000e-001) (719, -1.37997063689685180000e+000) (720, -1.70534922768800760000e+000) (721, -1.52331218170190090000e+000) (722, -1.28151073384860670000e+000) (723, -4.74994048230697240000e-001) (724, 6.53156935724868850000e-002) (725, 1.04402002834448030000e-001) (726, 1.07047266975206430000e-001) (727, 4.32250983003541480000e-002) (728, -1.81762698020975220000e-002) (729, 5.30090339930211480000e-002) (730, -9.34814467054820850000e-002) (731, 6.06994637951174810000e-002) (732, -1.67498135049691380000e-001) (733, -4.06028349403133870000e-001) (734, -7.82913099058344610000e-001) (735, -6.39190477766587000000e-001) (736, -6.47541970093324260000e-001) (737, -7.52845996259309590000e-001) (738, -1.34427360989686990000e+000) (739, -5.20915965304042830000e-001) (740, -1.30190291242300150000e+000) (741, -2.46625924908782280000e+000) (742, -2.90621482456953470000e+000) (743, -2.14551999215337390000e+000) (744, -1.65890576263814430000e+000) (745, -1.33301620781493350000e+000) (746, -1.55265793995453440000e+000) (747, -1.19780876714430430000e+000) (748, -9.05152770094531880000e-001) (749, -7.25070916659849350000e-001) (750, -1.84277178404646300000e-001) (751, -6.52712335276130810000e-003) (752, 9.82604995110705200000e-002) (753, -2.55303848558420810000e-002) (754, -1.15844728288720940000e-002) (755, -9.95910659371475050000e-002) (756, -4.16687017927870330000e-002) (757, -6.32812509429641070000e-002) (758, 4.33959967404007330000e-002) (759, 2.82592777648460470000e-003) (760, -2.89408608515774770000e-002) (761, -2.73460086491339490000e-002) (762, 2.51092997071638740000e-002) (763, -7.66738279938197760000e-002) (764, -9.98152647117249260000e-003) (765, 4.15158977932095830000e-003) (766, 4.14671764513422010000e-002) (767, 2.96562068114286230000e-002) (768, -1.47378876897625490000e-001) (769, -1.83122972551713280000e-001) (770, -1.73998097763241430000e-001) (771, -6.00777679304708430000e-002) (772, -3.58179508041432460000e-002) (773, -2.01657283188765930000e-002) (774, -1.04301443128003850000e-001) (775, -4.66719148058866650000e-002) (776, -5.35832092441474100000e-002) (777, 4.79032055846739040000e-002) (778, -3.44469115769230340000e-002) (779, 3.22034011500955740000e-002) (780, -5.18981941327183450000e-002) (781, 9.56298842374962990000e-002) (782, 5.31494148544879860000e-002) (783, -9.91394057741672440000e-002) (784, -1.12922344712092430000e+001) (0, -1.40930177881273270000e-002) (1, 1.66748049359739530000e-002) (2, -5.64392098253847510000e-002) (3, 9.81933608381950760000e-002) (4, -5.02197273108322410000e-002) (5, -1.55883791385349470000e-002) (6, 4.84619147846387930000e-003) (7, -6.86645518044315390000e-003) (8, -8.81896985797538950000e-002) (9, -9.18273939464597790000e-002) (10, -4.71862800000053540000e-002) (11, -5.50415047264323220000e-002) (12, 8.57772381281315420000e-003) (13, -5.73273704302254340000e-002) (14, -7.06513452381430650000e-002) (15, 8.74290066552496810000e-003) (16, -6.80053721071089970000e-002) (17, -5.89111336903442860000e-002) (18, 9.00878919674141800000e-002) (19, 7.58544933178200150000e-002) (20, 3.54248052153707250000e-002) (21, 6.06872567636855820000e-002) (22, 9.18579115250395260000e-003) (23, -1.78710940163000490000e-002) (24, 3.40698247264299430000e-002) (25, -1.22802736204903340000e-002) (26, 3.30200200232866340000e-002) (27, -2.56347660069877750000e-002) (28, 3.06335453783503910000e-002) (29, -1.51245119441227870000e-002) (30, -3.88854986263140740000e-002) (31, -8.83789075669483280000e-003) (32, 9.76745620023393710000e-002) (33, 6.96372887906540480000e-002) (34, 8.75284111406363780000e-002) (35, 1.75503680356850910000e-001) (36, 2.95525036997858930000e-001) (37, 2.42771602847507230000e-001) (38, 5.84395844979248460000e-001) (39, 7.51720912278594060000e-001) (40, 2.29888601329880430000e-001) (41, 1.15669718574165350000e+000) (42, 7.47400572252639120000e-001) (43, 3.84581881362316080000e-001) (44, 5.12937276984165360000e-001) (45, 3.40854539411899640000e-001) (46, 8.42129494325885020000e-001) (47, 1.12041826161132920000e+000) (48, 5.98295111710670400000e-001) (49, 6.52185175703754560000e-001) (50, 4.02758699364640150000e-001) (51, 4.49970444364846750000e-002) (52, 3.32641606519246120000e-003) (53, -8.41125500814996490000e-002) (54, -6.74987803026851910000e-002) (55, 4.85473640046620860000e-002) (56, 1.63330080558807820000e-002) (57, 2.44873050523892740000e-002) (58, -1.23413087776498290000e-002) (59, 6.88201504612839940000e-002) (60, 1.57728522704049050000e-001) (61, 4.55549018403307100000e-002) (62, 2.96707182572990060000e-001) (63, 6.83977670037835490000e-001) (64, 7.21526842632766340000e-001) (65, -8.85754809758494300000e-001) (66, 5.48343509283742650000e-001) (67, 1.93982908142154130000e+000) (68, 2.78338570503299600000e+000) (69, 2.62336803558532680000e+000) (70, 1.26324619719997000000e+000) (71, 1.32850653831884100000e+000) (72, 3.02186146583909300000e+000) (73, 2.38654431819320130000e+000) (74, 2.46866316737020730000e+000) (75, 2.78755406779139480000e+000) (76, 1.61277338362721890000e+000) (77, 2.85282971788984070000e+000) (78, 2.42791501813181030000e+000) (79, 6.68181611953424400000e-001) (80, -1.46101440009099160000e-001) (81, -1.89959540198326530000e-001) (82, -6.54479990221261690000e-002) (83, -4.23278814901095760000e-002) (84, 2.55737308498282800000e-002) (85, -6.03088387892967150000e-002) (86, -9.49194938286075650000e-002) (87, 1.17090731507686670000e-001) (88, 3.62153272107544890000e-002) (89, 1.21938199519652790000e-001) (90, 6.52612862621727460000e-001) (91, 1.75185222322465230000e+000) (92, 8.43046115642633990000e-001) (93, -1.27810616719085400000e+000) (94, -1.43688082148180520000e+000) (95, -5.82437407036457300000e-001) (96, 5.73443756687194720000e-001) (97, 1.47287988970887200000e+000) (98, 1.65549846215060080000e-001) (99, 1.61361756556886870000e+000) (100, 1.86116431873488190000e+000) (101, 3.45758500051205160000e+000) (102, 3.28756696505632460000e+000) (103, 2.45670372859467400000e+000) (104, 3.77836617790537010000e+000) (105, 5.41654932532221970000e+000) (106, 2.85551494668975000000e+000) (107, 1.19599343599101910000e+000) (108, -2.09709584396931690000e-001) (109, -4.12870666599425060000e-001) (110, 9.03125860505944040000e-003) (111, 5.54626473108328360000e-002) (112, 7.51708995576336750000e-002) (113, -5.40785589269361310000e-002) (114, -2.51880427261679470000e-001) (115, 9.22708425442061580000e-002) (116, -4.15648817180708370000e-002) (117, -4.97894665287079760000e-001) (118, -2.36524392489457740000e+000) (119, -2.56110614302650360000e+000) (120, -2.12170795326045300000e+000) (121, -1.77698849969407100000e+000) (122, -8.38365804700984430000e-001) (123, -1.83828326209172070000e+000) (124, -3.03362736610585640000e+000) (125, -3.68695307443524280000e+000) (126, -1.64125073545005830000e+000) (127, -3.57571188888202610000e-001) (128, -1.46277446243831610000e+000) (129, 8.70733130569160240000e-001) (130, 4.67105164550106480000e-001) (131, 3.71725808408463630000e+000) (132, 3.78066242789776740000e+000) (133, 5.66532132219103350000e+000) (134, 3.88042030848783840000e+000) (135, 3.81140107452177900000e+000) (136, 1.46741465263257730000e+000) (137, 1.21162307372844740000e-001) (138, -3.73585407470690200000e-002) (139, 8.55196307102746160000e-002) (140, 7.51342784633379780000e-003) (141, 7.10327159022199340000e-002) (142, 6.41221263698560880000e-003) (143, -2.02830549557878020000e-001) (144, -1.17412157544922650000e+000) (145, -2.13218532012102810000e+000) (146, -2.88226576239186820000e+000) (147, -3.03261974364830380000e+000) (148, -6.77763740001171680000e-001) (149, -7.21979955780938650000e-001) (150, -4.72237369547849170000e-001) (151, -2.73343160205393860000e+000) (152, -5.66038740505625080000e-001) (153, 1.80139855001227490000e+000) (154, 5.75113003771266060000e-001) (155, 7.56099732417663370000e-001) (156, 2.53773449373572270000e-001) (157, 1.32901980261657980000e+000) (158, 1.44143377354213360000e+000) (159, 4.54960171872544540000e+000) (160, 5.56665208411059890000e+000) (161, 2.14735482257230360000e+000) (162, 2.86604215404362960000e+000) (163, 3.45196054690161570000e+000) (164, 2.23718929202215830000e+000) (165, 1.15462655769637380000e-001) (166, 2.14978246367173140000e-001) (167, 8.65072188684822270000e-002) (168, 9.46960463329560300000e-002) (169, 1.77625069194534340000e-002) (170, 3.48380877792910590000e-002) (171, -2.75195716621209730000e-001) (172, -1.67399587312356580000e+000) (173, -1.80532076124501880000e+000) (174, -1.88873309838231360000e+000) (175, -3.67512508976901130000e-001) (176, 6.17530989203882420000e-003) (177, -2.48060922443609530000e+000) (178, -1.53243091874240590000e+000) (179, -1.46540397860580840000e+000) (180, 2.04027904815610620000e+000) (181, -4.38718258074100790000e-002) (182, 9.65367768371063080000e-001) (183, 1.42958864961421070000e+000) (184, 3.47903944667062600000e+000) (185, 5.16241786001622490000e+000) (186, 5.22347451490615280000e+000) (187, 3.68014737232669420000e+000) (188, 2.73239417999909010000e+000) (189, -2.68672102578195740000e-001) (190, -5.62028745654995830000e-001) (191, 7.60658969073732540000e-001) (192, 1.75379707894960890000e+000) (193, 4.91204492608719070000e-001) (194, 3.72914415436255750000e-001) (195, 2.04308708023737880000e-001) (196, 7.43683960077904660000e-002) (197, -6.79924640914712220000e-002) (198, 1.48917374630712860000e-001) (199, -5.79548579299662410000e-001) (200, -2.08306392321194970000e+000) (201, -2.41470164976988370000e+000) (202, -1.17770399555185290000e+000) (203, -2.95928248691669000000e-001) (204, -1.15827975654374640000e+000) (205, 7.38140525770872410000e-001) (206, 1.03334916871355700000e+000) (207, 4.98738602691020660000e-001) (208, -1.08052931864769080000e+000) (209, -2.17658642621474070000e+000) (210, 2.82398432176964230000e+000) (211, 7.42738353440763220000e-001) (212, -3.70244529481376370000e-001) (213, 3.01677399107943560000e+000) (214, 8.20922488063879690000e-001) (215, -8.46438639157828580000e-001) (216, -2.78424381514113990000e+000) (217, -4.05279766323238190000e+000) (218, -5.19320020521613660000e+000) (219, -2.85590228783826340000e+000) (220, 2.31909059971470360000e-002) (221, 7.39554309466815660000e-001) (222, 2.89979571514077770000e-001) (223, 1.19971128083062540000e-001) (224, 2.35075929435950640000e-002) (225, 5.72894821912754150000e-002) (226, 2.29447522241632920000e-001) (227, -2.91271369596077630000e-001) (228, -1.82384398884677100000e+000) (229, -2.27587074106628280000e+000) (230, -1.56300390351937610000e+000) (231, -2.95157528258913130000e+000) (232, 2.13987796511158570000e-001) (233, 9.11834167603063570000e-001) (234, -2.30306826260587980000e+000) (235, -3.78109279033980170000e-001) (236, -3.66909544982317430000e+000) (237, -1.96043315559221360000e+000) (238, -3.52124992375773440000e+000) (239, -5.56493902389520030000e+000) (240, -7.07564623480361290000e+000) (241, -5.63634879605305720000e+000) (242, -1.14645205019039730000e+001) (243, -1.40393583311836710000e+001) (244, -1.13964802866430310000e+001) (245, -8.57416576479927170000e+000) (246, -7.40431812906936320000e+000) (247, -5.03630495573601420000e+000) (248, -8.83063689793421540000e-001) (249, 3.12579658937480850000e-001) (250, -1.26489895154909440000e-001) (251, 3.11496083871600100000e-005) (252, 7.58330033032555420000e-002) (253, 1.09695156926703230000e-001) (254, 3.01987651838572290000e-001) (255, 6.68044169771863790000e-002) (256, -1.31909319571830390000e+000) (257, -2.20375056300460900000e+000) (258, -7.81539814038098360000e-001) (259, -8.47310038080750560000e-001) (260, 1.98246990257712150000e+000) (261, -1.69761867245975860000e+000) (262, -2.17661459183870050000e+000) (263, 2.49409052167062970000e-001) (264, 4.51597304339290300000e-001) (265, -5.48222668502562360000e+000) (266, -5.64030277068536370000e+000) (267, -8.89065995739067820000e+000) (268, -1.03271284796128530000e+001) (269, -1.30472403480055340000e+001) (270, -1.58147836943615920000e+001) (271, -1.52819082312196830000e+001) (272, -1.02971804289848930000e+001) (273, -8.60219783725121620000e+000) (274, -9.41206777617538040000e+000) (275, -5.99472418125078830000e+000) (276, -1.28787072851476280000e+000) (277, 3.40546238648657520000e-001) (278, -2.03940618279079420000e-001) (279, 5.55156992690021630000e-002) (280, -5.90607525548481620000e-002) (281, 1.62465641871021000000e-001) (282, -4.02303131725669300000e-002) (283, -5.01622467089172020000e-001) (284, -9.79029127209059210000e-001) (285, -1.53727232872320400000e+000) (286, -1.78275440892673780000e+000) (287, -1.06520234315385600000e+000) (288, 1.47000274552393550000e+000) (289, 9.77877621396903710000e-001) (290, -1.18540031362885300000e-001) (291, -1.55751482227182910000e+000) (292, -3.19812017666254440000e+000) (293, -3.73081378125461290000e+000) (294, -2.55696776617691190000e+000) (295, -3.33432116702782190000e+000) (296, -1.58777802119247720000e+000) (297, -4.91069867119381790000e+000) (298, -5.06393736332012790000e+000) (299, -5.46341261814833870000e+000) (300, -3.20717766354657070000e+000) (301, -4.41544098221481020000e+000) (302, -6.84088488248403600000e+000) (303, -1.71016762247605470000e+000) (304, 4.23758042687282230000e-001) (305, 7.78510137229478260000e-001) (306, -7.30526102952929610000e-002) (307, -1.76877456660590490000e-001) (308, -9.08189838412489650000e-003) (309, 4.63734206473778580000e-002) (310, 1.77629088694430170000e-001) (311, -4.07323879096291310000e-001) (312, -6.79207249052936280000e-001) (313, -1.44327116913757840000e+000) (314, 6.51767808251239030000e-001) (315, 1.46090343915486960000e+000) (316, -6.30505379468644040000e-001) (317, 3.82335278537249250000e-001) (318, 5.36563323617580150000e+000) (319, -4.72664809939622790000e-001) (320, 1.62806227060103080000e+000) (321, 3.00200745861550370000e+000) (322, 2.71720255829194280000e+000) (323, -2.26918446079811980000e+000) (324, 6.01726372170556250000e-001) (325, 4.22230049464255690000e+000) (326, 3.06523198900358240000e+000) (327, 9.32112872179628900000e-001) (328, 6.86059509975127210000e-001) (329, 1.59381825799887380000e+000) (330, -2.57459591461460140000e+000) (331, 6.99254571533495680000e-001) (332, 6.55684584630704450000e-001) (333, -4.91353593048996780000e-001) (334, -3.14587599511121810000e-001) (335, 3.36221847073219500000e-002) (336, 2.40397038797046140000e-002) (337, 7.93214833432375620000e-002) (338, 2.66019365396061360000e-001) (339, -1.12507277826703420000e-001) (340, -5.77437645815394030000e-001) (341, 3.94306616306886020000e-001) (342, 3.73281114278867680000e+000) (343, 2.46920413282004110000e+000) (344, -6.87705586412278860000e-001) (345, 1.51817215135836280000e+000) (346, 1.82821629185921400000e+000) (347, 3.00976785107169500000e+000) (348, 1.46720878780450840000e+000) (349, 3.04350041146544290000e-001) (350, 1.68482511933201920000e+000) (351, -9.69908703051804320000e-001) (352, -1.32610310532975010000e-001) 