FANN_FLO_2.1
num_layers=3
learning_rate=0.500000
connection_rate=1.000000
network_type=0
learning_momentum=0.000000
training_algorithm=0
train_error_function=1
train_stop_function=0
cascade_output_change_fraction=0.010000
quickprop_decay=-0.000100
quickprop_mu=1.750000
rprop_increase_factor=1.200000
rprop_decrease_factor=0.500000
rprop_delta_min=0.000000
rprop_delta_max=50.000000
rprop_delta_zero=0.100000
cascade_output_stagnation_epochs=12
cascade_candidate_change_fraction=0.010000
cascade_candidate_stagnation_epochs=12
cascade_max_out_epochs=150
cascade_min_out_epochs=50
cascade_max_cand_epochs=150
cascade_min_cand_epochs=50
cascade_num_candidate_groups=2
bit_fail_limit=3.49999999999999980000e-001
cascade_candidate_limit=1.00000000000000000000e+003
cascade_weight_multiplier=4.00000000000000020000e-001
cascade_activation_functions_count=10
cascade_activation_functions=3 5 7 8 10 11 14 15 16 17 
cascade_activation_steepnesses_count=4
cascade_activation_steepnesses=2.50000000000000000000e-001 5.00000000000000000000e-001 7.50000000000000000000e-001 1.00000000000000000000e+000 
layer_sizes=785 31 11 
scale_included=1
scale_mean_in=0.000000 0.000000 0.000000 0.000000 0.000000 0.000000 0.000000 0.000000 0.000000 0.000000 0.000000 0.000000 0.000001 0.000019 0.000019 0.000001 0.000000 0.000000 0.000000 0.000000 0.000000 0.000000 0.000000 0.000000 0.000000 0.000000 0.000000 0.000000 0.000000 0.000000 0.000000 0.000000 0.000000 0.000001 0.000048 0.000104 0.000162 0.000246 0.000510 0.000675 0.000654 0.000671 0.000695 0.000618 0.000722 0.000632 0.000430 0.000301 0.000213 0.000085 0.000043 0.000018 0.000000 0.000000 0.000000 0.000000 0.000000 0.000000 0.000000 0.000004 0.000033 0.000019 0.000176 0.000596 0.001097 0.002053 0.003294 0.005000 0.007191 0.009624 0.012523 0.014257 0.014644 0.013237 0.010768 0.007929 0.004588 0.002283 0.001022 0.000333 0.000122 0.000020 0.000000 0.000000 0.000000 0.000000 0.000005 0.000030 0.000053 0.000312 0.000927 0.002340 0.004614 0.008576 0.013975 0.020909 0.028576 0.037525 0.046453 0.052236 0.052135 0.046646 0.037310 0.026463 0.015823 0.008433 0.003778 0.001382 0.000519 0.000102 0.000015 0.000000 0.000000 0.000003 0.000020 0.000059 0.000334 0.001652 0.004179 0.009490 0.018407 0.032428 0.051290 0.074996 0.104864 0.137183 0.163131 0.176820 0.174413 0.154148 0.122332 0.089402 0.057457 0.033036 0.017303 0.008168 0.003368 0.000795 0.000125 0.000011 0.000000 0.000000 0.000040 0.000222 0.001469 0.005536 0.013645 0.027877 0.050247 0.082173 0.122071 0.172386 0.230018 0.288523 0.332639 0.355028 0.349013 0.314619 0.258774 0.195919 0.134640 0.083930 0.048409 0.025933 0.011688 0.003139 0.000495 0.000013 0.000000 0.000000 0.000122 0.000785 0.004112 0.012307 0.028241 0.054925 0.093708 0.145165 0.207709 0.278168 0.349957 0.415706 0.463603 0.485396 0.476840 0.439387 0.377318 0.296411 0.212959 0.139256 0.082833 0.044892 0.020930 0.006911 0.001302 0.000092 0.000004 0.000088 0.000424 0.002278 0.008769 0.022772 0.048113 0.087266 0.142070 0.210863 0.289624 0.369974 0.438287 0.489985 0.519536 0.529521 0.522372 0.497398 0.446187 0.369660 0.275128 0.184571 0.111318 0.059803 0.027498 0.009908 0.002003 0.000107 0.000021 0.000215 0.001273 0.005000 0.014227 0.032691 0.065466 0.115884 0.184813 0.268013 0.355555 0.427237 0.470294 0.484329 0.481970 0.478537 0.480007 0.479867 0.457586 0.397156 0.305344 0.208163 0.125795 0.064679 0.027900 0.010083 0.001882 0.000073 0.000009 0.000293 0.001974 0.006480 0.017113 0.038217 0.075988 0.135244 0.215091 0.306582 0.389028 0.435558 0.436491 0.410303 0.386470 0.387398 0.407747 0.435272 0.436850 0.390347 0.303764 0.208047 0.124015 0.061020 0.023293 0.007415 0.001318 0.000086 0.000016 0.000410 0.002188 0.006487 0.016693 0.038493 0.080198 0.146271 0.234189 0.327384 0.394381 0.406131 0.369221 0.324436 0.308361 0.328858 0.366796 0.410439 0.418031 0.371210 0.283605 0.190849 0.112828 0.054079 0.018528 0.004664 0.000867 0.000077 0.000029 0.000320 0.001789 0.005154 0.014364 0.037499 0.083008 0.156731 0.251855 0.343633 0.389865 0.373925 0.320173 0.286325 0.296478 0.333939 0.381572 0.423132 0.416140 0.351320 0.256109 0.167555 0.100182 0.050296 0.016095 0.002380 0.000451 0.000031 0.000014 0.000170 0.000986 0.003449 0.012027 0.037369 0.089720 0.171931 0.272526 0.356277 0.385862 0.357161 0.312188 0.310667 0.349553 0.398183 0.443642 0.462004 0.422993 0.332765 0.231268 0.150895 0.093923 0.050479 0.016990 0.001637 0.000272 0.000038 0.000003 0.000085 0.000490 0.002261 0.011405 0.041768 0.100787 0.188136 0.287822 0.362198 0.380746 0.356600 0.340317 0.379833 0.435728 0.485830 0.509523 0.497103 0.427293 0.318879 0.217439 0.146543 0.095133 0.054161 0.020267 0.002256 0.000312 0.000032 0.000000 0.000043 0.000211 0.001735 0.011933 0.048816 0.112645 0.199419 0.291812 0.356468 0.373624 0.365451 0.383178 0.451786 0.509895 0.547302 0.538364 0.502434 0.418232 0.311327 0.220212 0.153665 0.101279 0.058160 0.022691 0.003197 0.000324 0.000007 0.000001 0.000020 0.000179 0.001934 0.013805 0.057009 0.122344 0.201583 0.281232 0.337018 0.358540 0.368536 0.410501 0.482095 0.531512 0.545031 0.517164 0.475229 0.395948 0.307298 0.228556 0.162436 0.106564 0.058562 0.022811 0.004103 0.000510 0.000040 0.000003 0.000021 0.000302 0.002467 0.017313 0.065258 0.128244 0.196635 0.260634 0.305014 0.326829 0.348589 0.394467 0.452764 0.494297 0.498272 0.473958 0.434655 0.373268 0.303221 0.233157 0.164564 0.104621 0.055552 0.021587 0.004729 0.000657 0.000060 0.000000 0.000032 0.000423 0.003755 0.023343 0.073094 0.131672 0.189524 0.236940 0.270696 0.290571 0.314132 0.349282 0.397834 0.440018 0.450889 0.439492 0.408926 0.362621 0.302938 0.231695 0.159200 0.097168 0.049957 0.019851 0.005261 0.000746 0.000037 0.000010 0.000022 0.000588 0.005777 0.030109 0.081130 0.137543 0.188729 0.227460 0.257772 0.279548 0.298212 0.322998 0.370519 0.416189 0.438936 0.437368 0.411990 0.366371 0.299318 0.221025 0.146730 0.087863 0.044199 0.017717 0.005082 0.000651 0.000039 0.000000 0.000027 0.001040 0.007857 0.034706 0.086485 0.145394 0.200007 0.243977 0.278882 0.304416 0.322260 0.350754 0.395622 0.439872 0.461993 0.455879 0.422348 0.362275 0.281095 0.198349 0.126579 0.072600 0.035288 0.014087 0.003994 0.000557 0.000014 0.000000 0.000046 0.001340 0.008717 0.033566 0.082040 0.147435 0.212422 0.270359 0.318942 0.354541 0.383256 0.417468 0.459146 0.490244 0.493049 0.464339 0.408152 0.329403 0.239508 0.159822 0.096803 0.052894 0.025383 0.010684 0.002783 0.000401 0.000004 0.000003 0.000045 0.001132 0.006912 0.025787 0.066721 0.130195 0.203761 0.277366 0.343002 0.396461 0.440316 0.480534 0.511689 0.517997 0.490006 0.431426 0.350801 0.261301 0.178415 0.111720 0.063566 0.033446 0.016247 0.006768 0.001742 0.000241 0.000003 0.000003 0.000001 0.000644 0.004128 0.015045 0.042687 0.092133 0.160586 0.240288 0.318622 0.388846 0.442902 0.480599 0.491838 0.473095 0.419854 0.343631 0.258812 0.178864 0.113071 0.065899 0.035651 0.018499 0.008803 0.003298 0.000759 0.000074 0.000006 0.000000 0.000000 0.000201 0.001606 0.006574 0.019254 0.046766 0.094011 0.158188 0.231699 0.303692 0.360772 0.391566 0.389569 0.355648 0.296358 0.225743 0.158266 0.101018 0.059987 0.032972 0.017196 0.008675 0.003802 0.001192 0.000232 0.000024 0.000000 0.000000 0.000000 0.000038 0.000458 0.002139 0.006251 0.016319 0.035927 0.066183 0.106521 0.150080 0.185950 0.204075 0.201051 0.179052 0.144095 0.107592 0.075622 0.047964 0.028342 0.015287 0.007659 0.003691 0.001484 0.000359 0.000092 0.000010 0.000000 0.000000 0.000000 0.000001 0.000047 0.000462 0.001696 0.005264 0.012119 0.023705 0.038298 0.054596 0.066281 0.071949 0.070316 0.063224 0.051834 0.041388 0.031065 0.020856 0.012464 0.006574 0.003140 0.001450 0.000506 0.000094 0.000008 0.000009 0.000000 0.000000 0.000000 0.000000 0.000000 0.000124 0.000527 0.001998 0.004597 0.008881 0.013561 0.019349 0.024102 0.025736 0.024715 0.022098 0.017580 0.013687 0.010295 0.006919 0.004098 0.002138 0.000912 0.000308 0.000067 0.000000 0.000005 0.000000 0.000000 0.000000 0.000000 0.000000 0.000000 0.000008 0.000048 0.000172 0.000315 0.000421 0.000809 0.001396 0.001773 0.002195 0.002523 0.002807 0.002275 0.001845 0.001401 0.000818 0.000329 0.000110 0.000038 0.000051 0.000010 0.000000 0.000000 0.000000 0.000000 
scale_deviation_in=0.000000 0.000000 0.000000 0.000000 0.000000 0.000000 0.000000 0.000000 0.000000 0.000000 0.000000 0.000000 0.000185 0.003993 0.003993 0.000166 0.000000 0.000000 0.000000 0.000000 0.000000 0.000000 0.000000 0.000000 0.000000 0.000000 0.000000 0.000000 0.000000 0.000000 0.000000 0.000000 0.000000 0.000148 0.004777 0.009108 0.011301 0.012477 0.020205 0.022476 0.021920 0.021909 0.022617 0.021470 0.023365 0.021941 0.017523 0.015185 0.012706 0.007391 0.005040 0.003652 0.000000 0.000000 0.000000 0.000000 0.000000 0.000000 0.000000 0.000587 0.003657 0.001685 0.010039 0.020631 0.028604 0.038961 0.049733 0.060575 0.073324 0.084209 0.096807 0.102876 0.105516 0.100628 0.090424 0.078508 0.059093 0.041557 0.027176 0.015118 0.009270 0.003219 0.000000 0.000000 0.000000 0.000000 0.000803 0.002983 0.003643 0.013532 0.024730 0.040859 0.058302 0.080501 0.102823 0.126478 0.146839 0.168046 0.187323 0.198668 0.197374 0.187722 0.168325 0.142668 0.108725 0.080172 0.051309 0.031389 0.019059 0.006688 0.002400 0.000000 0.000000 0.000702 0.002832 0.003770 0.014066 0.033140 0.052787 0.082128 0.115424 0.154244 0.194170 0.232855 0.270512 0.304807 0.328028 0.338656 0.336397 0.319820 0.289618 0.251315 0.203309 0.154161 0.110655 0.076073 0.047970 0.020875 0.008622 0.001596 0.000000 0.000000 0.003455 0.010825 0.028777 0.062515 0.099121 0.142884 0.191586 0.242618 0.290294 0.334922 0.374002 0.403867 0.420096 0.425537 0.423106 0.412116 0.388175 0.351703 0.300728 0.241850 0.185790 0.136576 0.089004 0.042983 0.016226 0.001915 0.000000 0.000074 0.007664 0.022606 0.053378 0.094162 0.143715 0.200807 0.259114 0.314283 0.361773 0.397991 0.422801 0.435839 0.440034 0.440612 0.440552 0.439810 0.431088 0.407590 0.365436 0.307024 0.242983 0.180303 0.121626 0.067783 0.028254 0.006686 0.000869 0.006189 0.016092 0.039103 0.078744 0.129095 0.187699 0.249649 0.309734 0.361013 0.398971 0.421685 0.431154 0.433015 0.433234 0.431662 0.432621 0.434075 0.435054 0.426488 0.396776 0.345327 0.278890 0.207143 0.139636 0.082563 0.035388 0.006854 0.003664 0.011849 0.029511 0.060255 0.103662 0.156220 0.219043 0.284461 0.346278 0.392930 0.421151 0.433124 0.435362 0.436324 0.436021 0.434255 0.434364 0.435231 0.436629 0.432871 0.410860 0.363529 0.295656 0.215726 0.141511 0.083994 0.034742 0.006220 0.001534 0.014511 0.037650 0.070651 0.114580 0.169599 0.235628 0.305842 0.368191 0.409197 0.431265 0.436840 0.436471 0.432246 0.426752 0.425472 0.428257 0.433331 0.435668 0.431800 0.410434 0.365090 0.294082 0.209217 0.128875 0.070863 0.028421 0.007248 0.003420 0.017702 0.040334 0.071113 0.113726 0.169943 0.241561 0.315548 0.378665 0.416952 0.432725 0.434717 0.423460 0.408035 0.402408 0.411391 0.421225 0.430489 0.433322 0.428078 0.402617 0.353564 0.282691 0.197793 0.115025 0.056558 0.023602 0.006312 0.003784 0.014613 0.036261 0.062160 0.104366 0.166350 0.244784 0.324160 0.387727 0.422665 0.432341 0.427271 0.408079 0.392023 0.402084 0.417290 0.423467 0.431193 0.433008 0.423773 0.389006 0.334009 0.269910 0.192913 0.106086 0.038621 0.016512 0.003249 0.003013 0.010464 0.026713 0.050316 0.094509 0.165521 0.253872 0.337566 0.398895 0.427937 0.432224 0.424103 0.407271 0.404105 0.426792 0.434729 0.430243 0.435661 0.436565 0.417660 0.373415 0.319493 0.263395 0.196055 0.109845 0.032035 0.013327 0.003658 0.000592 0.007413 0.019169 0.039577 0.091998 0.174780 0.268879 0.350744 0.407267 0.430191 0.431720 0.423970 0.416867 0.426723 0.446174 0.437354 0.431371 0.439526 0.437395 0.411232 0.365162 0.316929 0.266026 0.204139 0.122384 0.037699 0.013326 0.004769 0.000000 0.004676 0.011638 0.034470 0.092704 0.188827 0.284116 0.360505 0.409983 0.429403 0.430137 0.424916 0.424097 0.437055 0.445790 0.429633 0.430613 0.440338 0.434970 0.408638 0.368615 0.324414 0.273312 0.210945 0.130312 0.046460 0.013526 0.001083 0.000129 0.004179 0.009552 0.036246 0.098767 0.204733 0.295758 0.362993 0.405256 0.424381 0.425750 0.424752 0.429542 0.441466 0.441683 0.428741 0.436574 0.441929 0.430592 0.408256 0.374727 0.333061 0.278836 0.209848 0.130339 0.054076 0.017971 0.004081 0.000739 0.002678 0.013711 0.040710 0.110901 0.219202 0.302736 0.359428 0.394790 0.411873 0.415572 0.419756 0.430996 0.442740 0.441852 0.436150 0.439950 0.436107 0.425458 0.407536 0.379366 0.334128 0.275587 0.203569 0.124956 0.057744 0.020197 0.006180 0.000000 0.003451 0.016600 0.051065 0.131479 0.232916 0.306058 0.353545 0.381981 0.397380 0.404059 0.412392 0.425682 0.434723 0.439052 0.438110 0.435431 0.430109 0.424464 0.409124 0.378730 0.329393 0.264995 0.192462 0.118540 0.061163 0.021869 0.003247 0.001456 0.003730 0.018887 0.063868 0.150424 0.246012 0.312348 0.353156 0.376484 0.392100 0.402497 0.410362 0.416336 0.427071 0.435484 0.435076 0.431743 0.432358 0.427228 0.409722 0.373033 0.318499 0.253265 0.180674 0.112890 0.059829 0.020498 0.004284 0.000000 0.003682 0.027055 0.076153 0.162626 0.254648 0.320698 0.362038 0.386246 0.402892 0.413406 0.420057 0.425194 0.432118 0.436592 0.435502 0.433514 0.435744 0.427848 0.401785 0.358180 0.298535 0.230638 0.161406 0.101031 0.052531 0.019530 0.002065 0.000000 0.004944 0.030198 0.080808 0.160050 0.247286 0.321626 0.371902 0.401290 0.418612 0.428175 0.432977 0.435695 0.437530 0.436611 0.435978 0.436039 0.433543 0.418013 0.382601 0.328419 0.263885 0.197134 0.136271 0.087928 0.042888 0.015946 0.000943 0.000592 0.004691 0.028010 0.070356 0.137427 0.221839 0.302614 0.365844 0.405696 0.427184 0.436072 0.437139 0.435728 0.432758 0.433433 0.434984 0.433343 0.421391 0.391872 0.341638 0.280068 0.214975 0.157188 0.108893 0.069506 0.034584 0.011372 0.000721 0.000573 0.000226 0.019914 0.052951 0.102760 0.174778 0.254898 0.328747 0.384914 0.420081 0.437371 0.442184 0.441089 0.439967 0.440065 0.436419 0.420161 0.389456 0.340750 0.280622 0.217653 0.161542 0.116071 0.079332 0.046742 0.020205 0.006164 0.001331 0.000000 0.000000 0.009776 0.031389 0.066693 0.115294 0.179970 0.253811 0.322330 0.375687 0.411137 0.428337 0.433584 0.432342 0.422892 0.403073 0.368396 0.321011 0.264443 0.207296 0.155469 0.112609 0.078901 0.051355 0.027508 0.012129 0.002454 0.000000 0.000000 0.000000 0.004397 0.016147 0.037183 0.065945 0.106674 0.160614 0.217740 0.273633 0.318375 0.347517 0.358226 0.355449 0.338401 0.307522 0.271756 0.232092 0.186593 0.145626 0.106374 0.076072 0.051936 0.031514 0.014631 0.007592 0.001842 0.000000 0.000000 0.000000 0.000296 0.004640 0.017723 0.033822 0.061923 0.095844 0.136001 0.172049 0.204397 0.223432 0.232305 0.229091 0.216523 0.196037 0.176500 0.153511 0.126639 0.097635 0.070186 0.048303 0.031465 0.018230 0.006817 0.001608 0.001923 0.000000 0.000000 0.000000 0.000000 0.000000 0.008215 0.018378 0.038235 0.058929 0.082678 0.101656 0.122079 0.136198 0.139412 0.136333 0.129512 0.114367 0.101357 0.088339 0.072509 0.055381 0.040375 0.025604 0.014288 0.005119 0.000000 0.001091 0.000000 0.000000 0.000000 0.000000 0.000000 0.000000 0.001738 0.005752 0.010700 0.015166 0.016312 0.025017 0.031326 0.036568 0.040099 0.042779 0.045534 0.040778 0.036345 0.032061 0.023998 0.015060 0.008065 0.003938 0.006630 0.001569 0.000000 0.000000 0.000000 0.000000 
scale_new_min_in=0.000000 0.000000 0.000000 0.000000 0.000000 0.000000 0.000000 0.000000 0.000000 0.000000 0.000000 0.000000 0.000000 0.000000 0.000000 0.000000 0.000000 0.000000 0.000000 0.000000 0.000000 0.000000 0.000000 0.000000 0.000000 0.000000 0.000000 0.000000 0.000000 0.000000 0.000000 0.000000 0.000000 0.000000 0.000000 0.000000 0.000000 0.000000 0.000000 0.000000 0.000000 0.000000 0.000000 0.000000 0.000000 0.000000 0.000000 0.000000 0.000000 0.000000 0.000000 0.000000 0.000000 0.000000 0.000000 0.000000 0.000000 0.000000 0.000000 0.000000 0.000000 0.000000 0.000000 0.000000 0.000000 0.000000 0.000000 0.000000 0.000000 0.000000 0.000000 0.000000 0.000000 0.000000 0.000000 0.000000 0.000000 0.000000 0.000000 0.000000 0.000000 0.000000 0.000000 0.000000 0.000000 0.000000 0.000000 0.000000 0.000000 0.000000 0.000000 0.000000 0.000000 0.000000 0.000000 0.000000 0.000000 0.000000 0.000000 0.000000 0.000000 0.000000 0.000000 0.000000 0.000000 0.000000 0.000000 0.000000 0.000000 0.000000 0.000000 0.000000 0.000000 0.000000 0.000000 0.000000 0.000000 0.000000 0.000000 0.000000 0.000000 0.000000 0.000000 0.000000 0.000000 0.000000 0.000000 0.000000 0.000000 0.000000 0.000000 0.000000 0.000000 0.000000 0.000000 0.000000 0.000000 0.000000 0.000000 0.000000 0.000000 0.000000 0.000000 0.000000 0.000000 0.000000 0.000000 0.000000 0.000000 0.000000 0.000000 0.000000 0.000000 0.000000 0.000000 0.000000 0.000000 0.000000 0.000000 0.000000 0.000000 0.000000 0.000000 0.000000 0.000000 0.000000 0.000000 0.000000 0.000000 0.000000 0.000000 0.000000 0.000000 0.000000 0.000000 0.000000 0.000000 0.000000 0.000000 0.000000 0.000000 0.000000 0.000000 0.000000 0.000000 0.000000 0.000000 0.000000 0.000000 0.000000 0.000000 0.000000 0.000000 0.000000 0.000000 0.000000 0.000000 0.000000 0.000000 0.000000 0.000000 0.000000 0.000000 0.000000 0.000000 0.000000 0.000000 0.000000 0.000000 0.000000 0.000000 0.000000 0.000000 0.000000 0.000000 0.000000 0.000000 0.000000 0.000000 0.000000 0.000000 0.000000 0.000000 0.000000 0.000000 0.000000 0.000000 0.000000 0.000000 0.000000 0.000000 0.000000 0.000000 0.000000 0.000000 0.000000 0.000000 0.000000 0.000000 0.000000 0.000000 0.000000 0.000000 0.000000 0.000000 0.000000 0.000000 0.000000 0.000000 0.000000 0.000000 0.000000 0.000000 0.000000 0.000000 0.000000 0.000000 0.000000 0.000000 0.000000 0.000000 0.000000 0.000000 0.000000 0.000000 0.000000 0.000000 0.000000 0.000000 0.000000 0.000000 0.000000 0.000000 0.000000 0.000000 0.000000 0.000000 0.000000 0.000000 0.000000 0.000000 0.000000 0.000000 0.000000 0.000000 0.000000 0.000000 0.000000 0.000000 0.000000 0.000000 0.000000 0.000000 0.000000 0.000000 0.000000 0.000000 0.000000 0.000000 0.000000 0.000000 0.000000 0.000000 0.000000 0.000000 0.000000 0.000000 0.000000 0.000000 0.000000 0.000000 0.000000 0.000000 0.000000 0.000000 0.000000 0.000000 0.000000 0.000000 0.000000 0.000000 0.000000 0.000000 0.000000 0.000000 0.000000 0.000000 0.000000 0.000000 0.000000 0.000000 0.000000 0.000000 0.000000 0.000000 0.000000 0.000000 0.000000 0.000000 0.000000 0.000000 0.000000 0.000000 0.000000 0.000000 0.000000 0.000000 0.000000 0.000000 0.000000 0.000000 0.000000 0.000000 0.000000 0.000000 0.000000 0.000000 0.000000 0.000000 0.000000 0.000000 0.000000 0.000000 0.000000 0.000000 0.000000 0.000000 0.000000 0.000000 0.000000 0.000000 0.000000 0.000000 0.000000 0.000000 0.000000 0.000000 0.000000 0.000000 0.000000 0.000000 0.000000 0.000000 0.000000 0.000000 0.000000 0.000000 0.000000 0.000000 0.000000 0.000000 0.000000 0.000000 0.000000 0.000000 0.000000 0.000000 0.000000 0.000000 0.000000 0.000000 0.000000 0.000000 0.000000 0.000000 0.000000 0.000000 0.000000 0.000000 0.000000 0.000000 0.000000 0.000000 0.000000 0.000000 0.000000 0.000000 0.000000 0.000000 0.000000 0.000000 0.000000 0.000000 0.000000 0.000000 0.000000 0.000000 0.000000 0.000000 0.000000 0.000000 0.000000 0.000000 0.000000 0.000000 0.000000 0.000000 0.000000 0.000000 0.000000 0.000000 0.000000 0.000000 0.000000 0.000000 0.000000 0.000000 0.000000 0.000000 0.000000 0.000000 0.000000 0.000000 0.000000 0.000000 0.000000 0.000000 0.000000 0.000000 0.000000 0.000000 0.000000 0.000000 0.000000 0.000000 0.000000 0.000000 0.000000 0.000000 0.000000 0.000000 0.000000 0.000000 0.000000 0.000000 0.000000 0.000000 0.000000 0.000000 0.000000 0.000000 0.000000 0.000000 0.000000 0.000000 0.000000 0.000000 0.000000 0.000000 0.000000 0.000000 0.000000 0.000000 0.000000 0.000000 0.000000 0.000000 0.000000 0.000000 0.000000 0.000000 0.000000 0.000000 0.000000 0.000000 0.000000 0.000000 0.000000 0.000000 0.000000 0.000000 0.000000 0.000000 0.000000 0.000000 0.000000 0.000000 0.000000 0.000000 0.000000 0.000000 0.000000 0.000000 0.000000 0.000000 0.000000 0.000000 0.000000 0.000000 0.000000 0.000000 0.000000 0.000000 0.000000 0.000000 0.000000 0.000000 0.000000 0.000000 0.000000 0.000000 0.000000 0.000000 0.000000 0.000000 0.000000 0.000000 0.000000 0.000000 0.000000 0.000000 0.000000 0.000000 0.000000 0.000000 0.000000 0.000000 0.000000 0.000000 0.000000 0.000000 0.000000 0.000000 0.000000 0.000000 0.000000 0.000000 0.000000 0.000000 0.000000 0.000000 0.000000 0.000000 0.000000 0.000000 0.000000 0.000000 0.000000 0.000000 0.000000 0.000000 0.000000 0.000000 0.000000 0.000000 0.000000 0.000000 0.000000 0.000000 0.000000 0.000000 0.000000 0.000000 0.000000 0.000000 0.000000 0.000000 0.000000 0.000000 0.000000 0.000000 0.000000 0.000000 0.000000 0.000000 0.000000 0.000000 0.000000 0.000000 0.000000 0.000000 0.000000 0.000000 0.000000 0.000000 0.000000 0.000000 0.000000 0.000000 0.000000 0.000000 0.000000 0.000000 0.000000 0.000000 0.000000 0.000000 0.000000 0.000000 0.000000 0.000000 0.000000 0.000000 0.000000 0.000000 0.000000 0.000000 0.000000 0.000000 0.000000 0.000000 0.000000 0.000000 0.000000 0.000000 0.000000 0.000000 0.000000 0.000000 0.000000 0.000000 0.000000 0.000000 0.000000 0.000000 0.000000 0.000000 0.000000 0.000000 0.000000 0.000000 0.000000 0.000000 0.000000 0.000000 0.000000 0.000000 0.000000 0.000000 0.000000 0.000000 0.000000 0.000000 0.000000 0.000000 0.000000 0.000000 0.000000 0.000000 0.000000 0.000000 0.000000 0.000000 0.000000 0.000000 0.000000 0.000000 0.000000 0.000000 0.000000 0.000000 0.000000 0.000000 0.000000 0.000000 0.000000 0.000000 0.000000 0.000000 0.000000 0.000000 0.000000 0.000000 0.000000 0.000000 0.000000 0.000000 0.000000 0.000000 0.000000 0.000000 0.000000 0.000000 0.000000 0.000000 0.000000 0.000000 0.000000 0.000000 0.000000 0.000000 0.000000 0.000000 0.000000 0.000000 0.000000 0.000000 0.000000 0.000000 0.000000 0.000000 0.000000 0.000000 0.000000 0.000000 0.000000 0.000000 0.000000 0.000000 0.000000 0.000000 0.000000 0.000000 0.000000 0.000000 0.000000 0.000000 0.000000 0.000000 0.000000 0.000000 0.000000 0.000000 0.000000 0.000000 0.000000 0.000000 0.000000 0.000000 0.000000 0.000000 0.000000 0.000000 0.000000 0.000000 0.000000 0.000000 0.000000 0.000000 0.000000 0.000000 0.000000 0.000000 0.000000 0.000000 0.000000 0.000000 0.000000 0.000000 0.000000 0.000000 0.000000 0.000000 0.000000 
scale_factor_in=0.500000 0.500000 0.500000 0.500000 0.500000 0.500000 0.500000 0.500000 0.500000 0.500000 0.500000 0.500000 0.500000 0.500000 0.500000 0.500000 0.500000 0.500000 0.500000 0.500000 0.500000 0.500000 0.500000 0.500000 0.500000 0.500000 0.500000 0.500000 0.500000 0.500000 0.500000 0.500000 0.500000 0.500000 0.500000 0.500000 0.500000 0.500000 0.500000 0.500000 0.500000 0.500000 0.500000 0.500000 0.500000 0.500000 0.500000 0.500000 0.500000 0.500000 0.500000 0.500000 0.500000 0.500000 0.500000 0.500000 0.500000 0.500000 0.500000 0.500000 0.500000 0.500000 0.500000 0.500000 0.500000 0.500000 0.500000 0.500000 0.500000 0.500000 0.500000 0.500000 0.500000 0.500000 0.500000 0.500000 0.500000 0.500000 0.500000 0.500000 0.500000 0.500000 0.500000 0.500000 0.500000 0.500000 0.500000 0.500000 0.500000 0.500000 0.500000 0.500000 0.500000 0.500000 0.500000 0.500000 0.500000 0.500000 0.500000 0.500000 0.500000 0.500000 0.500000 0.500000 0.500000 0.500000 0.500000 0.500000 0.500000 0.500000 0.500000 0.500000 0.500000 0.500000 0.500000 0.500000 0.500000 0.500000 0.500000 0.500000 0.500000 0.500000 0.500000 0.500000 0.500000 0.500000 0.500000 0.500000 0.500000 0.500000 0.500000 0.500000 0.500000 0.500000 0.500000 0.500000 0.500000 0.500000 0.500000 0.500000 0.500000 0.500000 0.500000 0.500000 0.500000 0.500000 0.500000 0.500000 0.500000 0.500000 0.500000 0.500000 0.500000 0.500000 0.500000 0.500000 0.500000 0.500000 0.500000 0.500000 0.500000 0.500000 0.500000 0.500000 0.500000 0.500000 0.500000 0.500000 0.500000 0.500000 0.500000 0.500000 0.500000 0.500000 0.500000 0.500000 0.500000 0.500000 0.500000 0.500000 0.500000 0.500000 0.500000 0.500000 0.500000 0.500000 0.500000 0.500000 0.500000 0.500000 0.500000 0.500000 0.500000 0.500000 0.500000 0.500000 0.500000 0.500000 0.500000 0.500000 0.500000 0.500000 0.500000 0.500000 0.500000 0.500000 0.500000 0.500000 0.500000 0.500000 0.500000 0.500000 0.500000 0.500000 0.500000 0.500000 0.500000 0.500000 0.500000 0.500000 0.500000 0.500000 0.500000 0.500000 0.500000 0.500000 0.500000 0.500000 0.500000 0.500000 0.500000 0.500000 0.500000 0.500000 0.500000 0.500000 0.500000 0.500000 0.500000 0.500000 0.500000 0.500000 0.500000 0.500000 0.500000 0.500000 0.500000 0.500000 0.500000 0.500000 0.500000 0.500000 0.500000 0.500000 0.500000 0.500000 0.500000 0.500000 0.500000 0.500000 0.500000 0.500000 0.500000 0.500000 0.500000 0.500000 0.500000 0.500000 0.500000 0.500000 0.500000 0.500000 0.500000 0.500000 0.500000 0.500000 0.500000 0.500000 0.500000 0.500000 0.500000 0.500000 0.500000 0.500000 0.500000 0.500000 0.500000 0.500000 0.500000 0.500000 0.500000 0.500000 0.500000 0.500000 0.500000 0.500000 0.500000 0.500000 0.500000 0.500000 0.500000 0.500000 0.500000 0.500000 0.500000 0.500000 0.500000 0.500000 0.500000 0.500000 0.500000 0.500000 0.500000 0.500000 0.500000 0.500000 0.500000 0.500000 0.500000 0.500000 0.500000 0.500000 0.500000 0.500000 0.500000 0.500000 0.500000 0.500000 0.500000 0.500000 0.500000 0.500000 0.500000 0.500000 0.500000 0.500000 0.500000 0.500000 0.500000 0.500000 0.500000 0.500000 0.500000 0.500000 0.500000 0.500000 0.500000 0.500000 0.500000 0.500000 0.500000 0.500000 0.500000 0.500000 0.500000 0.500000 0.500000 0.500000 0.500000 0.500000 0.500000 0.500000 0.500000 0.500000 0.500000 0.500000 0.500000 0.500000 0.500000 0.500000 0.500000 0.500000 0.500000 0.500000 0.500000 0.500000 0.500000 0.500000 0.500000 0.500000 0.500000 0.500000 0.500000 0.500000 0.500000 0.500000 0.500000 0.500000 0.500000 0.500000 0.500000 0.500000 0.500000 0.500000 0.500000 0.500000 0.500000 0.500000 0.500000 0.500000 0.500000 0.500000 0.500000 0.500000 0.500000 0.500000 0.500000 0.500000 0.500000 0.500000 0.500000 0.500000 0.500000 0.500000 0.500000 0.500000 0.500000 0.500000 0.500000 0.500000 0.500000 0.500000 0.500000 0.500000 0.500000 0.500000 0.500000 0.500000 0.500000 0.500000 0.500000 0.500000 0.500000 0.500000 0.500000 0.500000 0.500000 0.500000 0.500000 0.500000 0.500000 0.500000 0.500000 0.500000 0.500000 0.500000 0.500000 0.500000 0.500000 0.500000 0.500000 0.500000 0.500000 0.500000 0.500000 0.500000 0.500000 0.500000 0.500000 0.500000 0.500000 0.500000 0.500000 0.500000 0.500000 0.500000 0.500000 0.500000 0.500000 0.500000 0.500000 0.500000 0.500000 0.500000 0.500000 0.500000 0.500000 0.500000 0.500000 0.500000 0.500000 0.500000 0.500000 0.500000 0.500000 0.500000 0.500000 0.500000 0.500000 0.500000 0.500000 0.500000 0.500000 0.500000 0.500000 0.500000 0.500000 0.500000 0.500000 0.500000 0.500000 0.500000 0.500000 0.500000 0.500000 0.500000 0.500000 0.500000 0.500000 0.500000 0.500000 0.500000 0.500000 0.500000 0.500000 0.500000 0.500000 0.500000 0.500000 0.500000 0.500000 0.500000 0.500000 0.500000 0.500000 0.500000 0.500000 0.500000 0.500000 0.500000 0.500000 0.500000 0.500000 0.500000 0.500000 0.500000 0.500000 0.500000 0.500000 0.500000 0.500000 0.500000 0.500000 0.500000 0.500000 0.500000 0.500000 0.500000 0.500000 0.500000 0.500000 0.500000 0.500000 0.500000 0.500000 0.500000 0.500000 0.500000 0.500000 0.500000 0.500000 0.500000 0.500000 0.500000 0.500000 0.500000 0.500000 0.500000 0.500000 0.500000 0.500000 0.500000 0.500000 0.500000 0.500000 0.500000 0.500000 0.500000 0.500000 0.500000 0.500000 0.500000 0.500000 0.500000 0.500000 0.500000 0.500000 0.500000 0.500000 0.500000 0.500000 0.500000 0.500000 0.500000 0.500000 0.500000 0.500000 0.500000 0.500000 0.500000 0.500000 0.500000 0.500000 0.500000 0.500000 0.500000 0.500000 0.500000 0.500000 0.500000 0.500000 0.500000 0.500000 0.500000 0.500000 0.500000 0.500000 0.500000 0.500000 0.500000 0.500000 0.500000 0.500000 0.500000 0.500000 0.500000 0.500000 0.500000 0.500000 0.500000 0.500000 0.500000 0.500000 0.500000 0.500000 0.500000 0.500000 0.500000 0.500000 0.500000 0.500000 0.500000 0.500000 0.500000 0.500000 0.500000 0.500000 0.500000 0.500000 0.500000 0.500000 0.500000 0.500000 0.500000 0.500000 0.500000 0.500000 0.500000 0.500000 0.500000 0.500000 0.500000 0.500000 0.500000 0.500000 0.500000 0.500000 0.500000 0.500000 0.500000 0.500000 0.500000 0.500000 0.500000 0.500000 0.500000 0.500000 0.500000 0.500000 0.500000 0.500000 0.500000 0.500000 0.500000 0.500000 0.500000 0.500000 0.500000 0.500000 0.500000 0.500000 0.500000 0.500000 0.500000 0.500000 0.500000 0.500000 0.500000 0.500000 0.500000 0.500000 0.500000 0.500000 0.500000 0.500000 0.500000 0.500000 0.500000 0.500000 0.500000 0.500000 0.500000 0.500000 0.500000 0.500000 0.500000 0.500000 0.500000 0.500000 0.500000 0.500000 0.500000 0.500000 0.500000 0.500000 0.500000 0.500000 0.500000 0.500000 0.500000 0.500000 0.500000 0.500000 0.500000 0.500000 0.500000 0.500000 0.500000 0.500000 0.500000 0.500000 0.500000 0.500000 0.500000 0.500000 0.500000 0.500000 0.500000 0.500000 0.500000 0.500000 0.500000 0.500000 0.500000 0.500000 0.500000 0.500000 0.500000 0.500000 0.500000 0.500000 0.500000 0.500000 0.500000 0.500000 0.500000 0.500000 0.500000 0.500000 0.500000 0.500000 0.500000 0.500000 0.500000 0.500000 0.500000 0.500000 0.500000 0.500000 0.500000 0.500000 0.500000 0.500000 0.500000 
scale_mean_out=0.100378 0.111600 0.098378 0.101133 0.098178 0.090422 0.097333 0.105244 0.097978 0.099356 
scale_deviation_out=0.300474 0.314901 0.297883 0.301532 0.297467 0.286709 0.296454 0.306816 0.297245 0.299077 
scale_new_min_out=0.000000 0.000000 0.000000 0.000000 0.000000 0.000000 0.000000 0.000000 0.000000 0.000000 
scale_factor_out=0.500000 0.500000 0.500000 0.500000 0.500000 0.500000 0.500000 0.500000 0.500000 0.500000 
neurons (num_inputs, activation_function, activation_steepness)=(0, 0, 0.00000000000000000000e+000) (0, 0, 0.00000000000000000000e+000) (0, 0, 0.00000000000000000000e+000) (0, 0, 0.00000000000000000000e+000) (0, 0, 0.00000000000000000000e+000) (0, 0, 0.00000000000000000000e+000) (0, 0, 0.00000000000000000000e+000) (0, 0, 0.00000000000000000000e+000) (0, 0, 0.00000000000000000000e+000) (0, 0, 0.00000000000000000000e+000) (0, 0, 0.00000000000000000000e+000) (0, 0, 0.00000000000000000000e+000) (0, 0, 0.00000000000000000000e+000) (0, 0, 0.00000000000000000000e+000) (0, 0, 0.00000000000000000000e+000) (0, 0, 0.00000000000000000000e+000) (0, 0, 0.00000000000000000000e+000) (0, 0, 0.00000000000000000000e+000) (0, 0, 0.00000000000000000000e+000) (0, 0, 0.00000000000000000000e+000) (0, 0, 0.00000000000000000000e+000) (0, 0, 0.00000000000000000000e+000) (0, 0, 0.00000000000000000000e+000) (0, 0, 0.00000000000000000000e+000) (0, 0, 0.00000000000000000000e+000) (0, 0, 0.00000000000000000000e+000) (0, 0, 0.00000000000000000000e+000) (0, 0, 0.00000000000000000000e+000) (0, 0, 0.00000000000000000000e+000) (0, 0, 0.00000000000000000000e+000) (0, 0, 0.00000000000000000000e+000) (0, 0, 0.00000000000000000000e+000) (0, 0, 0.00000000000000000000e+000) (0, 0, 0.00000000000000000000e+000) (0, 0, 0.00000000000000000000e+000) (0, 0, 0.00000000000000000000e+000) (0, 0, 0.00000000000000000000e+000) (0, 0, 0.00000000000000000000e+000) (0, 0, 0.00000000000000000000e+000) (0, 0, 0.00000000000000000000e+000) (0, 0, 0.00000000000000000000e+000) (0, 0, 0.00000000000000000000e+000) (0, 0, 0.00000000000000000000e+000) (0, 0, 0.00000000000000000000e+000) (0, 0, 0.00000000000000000000e+000) (0, 0, 0.00000000000000000000e+000) (0, 0, 0.00000000000000000000e+000) (0, 0, 0.00000000000000000000e+000) (0, 0, 0.00000000000000000000e+000) (0, 0, 0.00000000000000000000e+000) (0, 0, 0.00000000000000000000e+000) (0, 0, 0.00000000000000000000e+000) (0, 0, 0.00000000000000000000e+000) (0, 0, 0.00000000000000000000e+000) (0, 0, 0.00000000000000000000e+000) (0, 0, 0.00000000000000000000e+000) (0, 0, 0.00000000000000000000e+000) (0, 0, 0.00000000000000000000e+000) (0, 0, 0.00000000000000000000e+000) (0, 0, 0.00000000000000000000e+000) (0, 0, 0.00000000000000000000e+000) (0, 0, 0.00000000000000000000e+000) (0, 0, 0.00000000000000000000e+000) (0, 0, 0.00000000000000000000e+000) (0, 0, 0.00000000000000000000e+000) (0, 0, 0.00000000000000000000e+000) (0, 0, 0.00000000000000000000e+000) (0, 0, 0.00000000000000000000e+000) (0, 0, 0.00000000000000000000e+000) (0, 0, 0.00000000000000000000e+000) (0, 0, 0.00000000000000000000e+000) (0, 0, 0.00000000000000000000e+000) (0, 0, 0.00000000000000000000e+000) (0, 0, 0.00000000000000000000e+000) (0, 0, 0.00000000000000000000e+000) (0, 0, 0.00000000000000000000e+000) (0, 0, 0.00000000000000000000e+000) (0, 0, 0.00000000000000000000e+000) (0, 0, 0.00000000000000000000e+000) (0, 0, 0.00000000000000000000e+000) (0, 0, 0.00000000000000000000e+000) (0, 0, 0.00000000000000000000e+000) (0, 0, 0.00000000000000000000e+000) (0, 0, 0.00000000000000000000e+000) (0, 0, 0.00000000000000000000e+000) (0, 0, 0.00000000000000000000e+000) (0, 0, 0.00000000000000000000e+000) (0, 0, 0.00000000000000000000e+000) (0, 0, 0.00000000000000000000e+000) (0, 0, 0.00000000000000000000e+000) (0, 0, 0.00000000000000000000e+000) (0, 0, 0.00000000000000000000e+000) (0, 0, 0.00000000000000000000e+000) (0, 0, 0.00000000000000000000e+000) (0, 0, 0.00000000000000000000e+000) (0, 0, 0.00000000000000000000e+000) (0, 0, 0.00000000000000000000e+000) (0, 0, 0.00000000000000000000e+000) (0, 0, 0.00000000000000000000e+000) (0, 0, 0.00000000000000000000e+000) (0, 0, 0.00000000000000000000e+000) (0, 0, 0.00000000000000000000e+000) (0, 0, 0.00000000000000000000e+000) (0, 0, 0.00000000000000000000e+000) (0, 0, 0.00000000000000000000e+000) (0, 0, 0.00000000000000000000e+000) (0, 0, 0.00000000000000000000e+000) (0, 0, 0.00000000000000000000e+000) (0, 0, 0.00000000000000000000e+000) (0, 0, 0.00000000000000000000e+000) (0, 0, 0.00000000000000000000e+000) (0, 0, 0.00000000000000000000e+000) (0, 0, 0.00000000000000000000e+000) (0, 0, 0.00000000000000000000e+000) (0, 0, 0.00000000000000000000e+000) (0, 0, 0.00000000000000000000e+000) (0, 0, 0.00000000000000000000e+000) (0, 0, 0.00000000000000000000e+000) (0, 0, 0.00000000000000000000e+000) (0, 0, 0.00000000000000000000e+000) (0, 0, 0.00000000000000000000e+000) (0, 0, 0.00000000000000000000e+000) (0, 0, 0.00000000000000000000e+000) (0, 0, 0.00000000000000000000e+000) (0, 0, 0.00000000000000000000e+000) (0, 0, 0.00000000000000000000e+000) (0, 0, 0.00000000000000000000e+000) (0, 0, 0.00000000000000000000e+000) (0, 0, 0.00000000000000000000e+000) (0, 0, 0.00000000000000000000e+000) (0, 0, 0.00000000000000000000e+000) (0, 0, 0.00000000000000000000e+000) (0, 0, 0.00000000000000000000e+000) (0, 0, 0.00000000000000000000e+000) (0, 0, 0.00000000000000000000e+000) (0, 0, 0.00000000000000000000e+000) (0, 0, 0.00000000000000000000e+000) (0, 0, 0.00000000000000000000e+000) (0, 0, 0.00000000000000000000e+000) (0, 0, 0.00000000000000000000e+000) (0, 0, 0.00000000000000000000e+000) (0, 0, 0.00000000000000000000e+000) (0, 0, 0.00000000000000000000e+000) (0, 0, 0.00000000000000000000e+000) (0, 0, 0.00000000000000000000e+000) (0, 0, 0.00000000000000000000e+000) (0, 0, 0.00000000000000000000e+000) (0, 0, 0.00000000000000000000e+000) (0, 0, 0.00000000000000000000e+000) (0, 0, 0.00000000000000000000e+000) (0, 0, 0.00000000000000000000e+000) (0, 0, 0.00000000000000000000e+000) (0, 0, 0.00000000000000000000e+000) (0, 0, 0.00000000000000000000e+000) (0, 0, 0.00000000000000000000e+000) (0, 0, 0.00000000000000000000e+000) (0, 0, 0.00000000000000000000e+000) (0, 0, 0.00000000000000000000e+000) (0, 0, 0.00000000000000000000e+000) (0, 0, 0.00000000000000000000e+000) (0, 0, 0.00000000000000000000e+000) (0, 0, 0.00000000000000000000e+000) (0, 0, 0.00000000000000000000e+000) (0, 0, 0.00000000000000000000e+000) (0, 0, 0.00000000000000000000e+000) (0, 0, 0.00000000000000000000e+000) (0, 0, 0.00000000000000000000e+000) (0, 0, 0.00000000000000000000e+000) (0, 0, 0.00000000000000000000e+000) (0, 0, 0.00000000000000000000e+000) (0, 0, 0.00000000000000000000e+000) (0, 0, 0.00000000000000000000e+000) (0, 0, 0.00000000000000000000e+000) (0, 0, 0.00000000000000000000e+000) (0, 0, 0.00000000000000000000e+000) (0, 0, 0.00000000000000000000e+000) (0, 0, 0.00000000000000000000e+000) (0, 0, 0.00000000000000000000e+000) (0, 0, 0.00000000000000000000e+000) (0, 0, 0.00000000000000000000e+000) (0, 0, 0.00000000000000000000e+000) (0, 0, 0.00000000000000000000e+000) (0, 0, 0.00000000000000000000e+000) (0, 0, 0.00000000000000000000e+000) (0, 0, 0.00000000000000000000e+000) (0, 0, 0.00000000000000000000e+000) (0, 0, 0.00000000000000000000e+000) (0, 0, 0.00000000000000000000e+000) (0, 0, 0.00000000000000000000e+000) (0, 0, 0.00000000000000000000e+000) (0, 0, 0.00000000000000000000e+000) (0, 0, 0.00000000000000000000e+000) (0, 0, 0.00000000000000000000e+000) (0, 0, 0.00000000000000000000e+000) (0, 0, 0.00000000000000000000e+000) (0, 0, 0.00000000000000000000e+000) (0, 0, 0.00000000000000000000e+000) (0, 0, 0.00000000000000000000e+000) (0, 0, 0.00000000000000000000e+000) (0, 0, 0.00000000000000000000e+000) (0, 0, 0.00000000000000000000e+000) (0, 0, 0.00000000000000000000e+000) (0, 0, 0.00000000000000000000e+000) (0, 0, 0.00000000000000000000e+000) (0, 0, 0.00000000000000000000e+000) (0, 0, 0.00000000000000000000e+000) (0, 0, 0.00000000000000000000e+000) (0, 0, 0.00000000000000000000e+000) (0, 0, 0.00000000000000000000e+000) (0, 0, 0.00000000000000000000e+000) (0, 0, 0.00000000000000000000e+000) (0, 0, 0.00000000000000000000e+000) (0, 0, 0.00000000000000000000e+000) (0, 0, 0.00000000000000000000e+000) (0, 0, 0.00000000000000000000e+000) (0, 0, 0.00000000000000000000e+000) (0, 0, 0.00000000000000000000e+000) (0, 0, 0.00000000000000000000e+000) (0, 0, 0.00000000000000000000e+000) (0, 0, 0.00000000000000000000e+000) (0, 0, 0.00000000000000000000e+000) (0, 0, 0.00000000000000000000e+000) (0, 0, 0.00000000000000000000e+000) (0, 0, 0.00000000000000000000e+000) (0, 0, 0.00000000000000000000e+000) (0, 0, 0.00000000000000000000e+000) (0, 0, 0.00000000000000000000e+000) (0, 0, 0.00000000000000000000e+000) (0, 0, 0.00000000000000000000e+000) (0, 0, 0.00000000000000000000e+000) (0, 0, 0.00000000000000000000e+000) (0, 0, 0.00000000000000000000e+000) (0, 0, 0.00000000000000000000e+000) (0, 0, 0.00000000000000000000e+000) (0, 0, 0.00000000000000000000e+000) (0, 0, 0.00000000000000000000e+000) (0, 0, 0.00000000000000000000e+000) (0, 0, 0.00000000000000000000e+000) (0, 0, 0.00000000000000000000e+000) (0, 0, 0.00000000000000000000e+000) (0, 0, 0.00000000000000000000e+000) (0, 0, 0.00000000000000000000e+000) (0, 0, 0.00000000000000000000e+000) (0, 0, 0.00000000000000000000e+000) (0, 0, 0.00000000000000000000e+000) (0, 0, 0.00000000000000000000e+000) (0, 0, 0.00000000000000000000e+000) (0, 0, 0.00000000000000000000e+000) (0, 0, 0.00000000000000000000e+000) (0, 0, 0.00000000000000000000e+000) (0, 0, 0.00000000000000000000e+000) (0, 0, 0.00000000000000000000e+000) (0, 0, 0.00000000000000000000e+000) (0, 0, 0.00000000000000000000e+000) (0, 0, 0.00000000000000000000e+000) (0, 0, 0.00000000000000000000e+000) (0, 0, 0.00000000000000000000e+000) (0, 0, 0.00000000000000000000e+000) (0, 0, 0.00000000000000000000e+000) (0, 0, 0.00000000000000000000e+000) (0, 0, 0.00000000000000000000e+000) (0, 0, 0.00000000000000000000e+000) (0, 0, 0.00000000000000000000e+000) (0, 0, 0.00000000000000000000e+000) (0, 0, 0.00000000000000000000e+000) (0, 0, 0.00000000000000000000e+000) (0, 0, 0.00000000000000000000e+000) (0, 0, 0.00000000000000000000e+000) (0, 0, 0.00000000000000000000e+000) (0, 0, 0.00000000000000000000e+000) (0, 0, 0.00000000000000000000e+000) (0, 0, 0.00000000000000000000e+000) (0, 0, 0.00000000000000000000e+000) (0, 0, 0.00000000000000000000e+000) (0, 0, 0.00000000000000000000e+000) (0, 0, 0.00000000000000000000e+000) (0, 0, 0.00000000000000000000e+000) (0, 0, 0.00000000000000000000e+000) (0, 0, 0.00000000000000000000e+000) (0, 0, 0.00000000000000000000e+000) (0, 0, 0.00000000000000000000e+000) (0, 0, 0.00000000000000000000e+000) (0, 0, 0.00000000000000000000e+000) (0, 0, 0.00000000000000000000e+000) (0, 0, 0.00000000000000000000e+000) (0, 0, 0.00000000000000000000e+000) (0, 0, 0.00000000000000000000e+000) (0, 0, 0.00000000000000000000e+000) (0, 0, 0.00000000000000000000e+000) (0, 0, 0.00000000000000000000e+000) (0, 0, 0.00000000000000000000e+000) (0, 0, 0.00000000000000000000e+000) (0, 0, 0.00000000000000000000e+000) (0, 0, 0.00000000000000000000e+000) (0, 0, 0.00000000000000000000e+000) (0, 0, 0.00000000000000000000e+000) (0, 0, 0.00000000000000000000e+000) (0, 0, 0.00000000000000000000e+000) (0, 0, 0.00000000000000000000e+000) (0, 0, 0.00000000000000000000e+000) (0, 0, 0.00000000000000000000e+000) (0, 0, 0.00000000000000000000e+000) (0, 0, 0.00000000000000000000e+000) (0, 0, 0.00000000000000000000e+000) (0, 0, 0.00000000000000000000e+000) (0, 0, 0.00000000000000000000e+000) (0, 0, 0.00000000000000000000e+000) (0, 0, 0.00000000000000000000e+000) (0, 0, 0.00000000000000000000e+000) (0, 0, 0.00000000000000000000e+000) (0, 0, 0.00000000000000000000e+000) (0, 0, 0.00000000000000000000e+000) (0, 0, 0.00000000000000000000e+000) (0, 0, 0.00000000000000000000e+000) (0, 0, 0.00000000000000000000e+000) (0, 0, 0.00000000000000000000e+000) (0, 0, 0.00000000000000000000e+000) (0, 0, 0.00000000000000000000e+000) (0, 0, 0.00000000000000000000e+000) (0, 0, 0.00000000000000000000e+000) (0, 0, 0.00000000000000000000e+000) (0, 0, 0.00000000000000000000e+000) (0, 0, 0.00000000000000000000e+000) (0, 0, 0.00000000000000000000e+000) (0, 0, 0.00000000000000000000e+000) (0, 0, 0.00000000000000000000e+000) (0, 0, 0.00000000000000000000e+000) (0, 0, 0.00000000000000000000e+000) (0, 0, 0.00000000000000000000e+000) (0, 0, 0.00000000000000000000e+000) (0, 0, 0.00000000000000000000e+000) (0, 0, 0.00000000000000000000e+000) (0, 0, 0.00000000000000000000e+000) (0, 0, 0.00000000000000000000e+000) (0, 0, 0.00000000000000000000e+000) (0, 0, 0.00000000000000000000e+000) (0, 0, 0.00000000000000000000e+000) (0, 0, 0.00000000000000000000e+000) (0, 0, 0.00000000000000000000e+000) (0, 0, 0.00000000000000000000e+000) (0, 0, 0.00000000000000000000e+000) (0, 0, 0.00000000000000000000e+000) (0, 0, 0.00000000000000000000e+000) (0, 0, 0.00000000000000000000e+000) (0, 0, 0.00000000000000000000e+000) (0, 0, 0.00000000000000000000e+000) (0, 0, 0.00000000000000000000e+000) (0, 0, 0.00000000000000000000e+000) (0, 0, 0.00000000000000000000e+000) (0, 0, 0.00000000000000000000e+000) (0, 0, 0.00000000000000000000e+000) (0, 0, 0.00000000000000000000e+000) (0, 0, 0.00000000000000000000e+000) (0, 0, 0.00000000000000000000e+000) (0, 0, 0.00000000000000000000e+000) (0, 0, 0.00000000000000000000e+000) (0, 0, 0.00000000000000000000e+000) (0, 0, 0.00000000000000000000e+000) (0, 0, 0.00000000000000000000e+000) (0, 0, 0.00000000000000000000e+000) (0, 0, 0.00000000000000000000e+000) (0, 0, 0.00000000000000000000e+000) (0, 0, 0.00000000000000000000e+000) (0, 0, 0.00000000000000000000e+000) (0, 0, 0.00000000000000000000e+000) (0, 0, 0.00000000000000000000e+000) (0, 0, 0.00000000000000000000e+000) (0, 0, 0.00000000000000000000e+000) (0, 0, 0.00000000000000000000e+000) (0, 0, 0.00000000000000000000e+000) (0, 0, 0.00000000000000000000e+000) (0, 0, 0.00000000000000000000e+000) (0, 0, 0.00000000000000000000e+000) (0, 0, 0.00000000000000000000e+000) (0, 0, 0.00000000000000000000e+000) (0, 0, 0.00000000000000000000e+000) (0, 0, 0.00000000000000000000e+000) (0, 0, 0.00000000000000000000e+000) (0, 0, 0.00000000000000000000e+000) (0, 0, 0.00000000000000000000e+000) (0, 0, 0.00000000000000000000e+000) (0, 0, 0.00000000000000000000e+000) (0, 0, 0.00000000000000000000e+000) (0, 0, 0.00000000000000000000e+000) (0, 0, 0.00000000000000000000e+000) (0, 0, 0.00000000000000000000e+000) (0, 0, 0.00000000000000000000e+000) (0, 0, 0.00000000000000000000e+000) (0, 0, 0.00000000000000000000e+000) (0, 0, 0.00000000000000000000e+000) (0, 0, 0.00000000000000000000e+000) (0, 0, 0.00000000000000000000e+000) (0, 0, 0.00000000000000000000e+000) (0, 0, 0.00000000000000000000e+000) (0, 0, 0.00000000000000000000e+000) (0, 0, 0.00000000000000000000e+000) (0, 0, 0.00000000000000000000e+000) (0, 0, 0.00000000000000000000e+000) (0, 0, 0.00000000000000000000e+000) (0, 0, 0.00000000000000000000e+000) (0, 0, 0.00000000000000000000e+000) (0, 0, 0.00000000000000000000e+000) (0, 0, 0.00000000000000000000e+000) (0, 0, 0.00000000000000000000e+000) (0, 0, 0.00000000000000000000e+000) (0, 0, 0.00000000000000000000e+000) (0, 0, 0.00000000000000000000e+000) (0, 0, 0.00000000000000000000e+000) (0, 0, 0.00000000000000000000e+000) (0, 0, 0.00000000000000000000e+000) (0, 0, 0.00000000000000000000e+000) (0, 0, 0.00000000000000000000e+000) (0, 0, 0.00000000000000000000e+000) (0, 0, 0.00000000000000000000e+000) (0, 0, 0.00000000000000000000e+000) (0, 0, 0.00000000000000000000e+000) (0, 0, 0.00000000000000000000e+000) (0, 0, 0.00000000000000000000e+000) (0, 0, 0.00000000000000000000e+000) (0, 0, 0.00000000000000000000e+000) (0, 0, 0.00000000000000000000e+000) (0, 0, 0.00000000000000000000e+000) (0, 0, 0.00000000000000000000e+000) (0, 0, 0.00000000000000000000e+000) (0, 0, 0.00000000000000000000e+000) (0, 0, 0.00000000000000000000e+000) (0, 0, 0.00000000000000000000e+000) (0, 0, 0.00000000000000000000e+000) (0, 0, 0.00000000000000000000e+000) (0, 0, 0.00000000000000000000e+000) (0, 0, 0.00000000000000000000e+000) (0, 0, 0.00000000000000000000e+000) (0, 0, 0.00000000000000000000e+000) (0, 0, 0.00000000000000000000e+000) (0, 0, 0.00000000000000000000e+000) (0, 0, 0.00000000000000000000e+000) (0, 0, 0.00000000000000000000e+000) (0, 0, 0.00000000000000000000e+000) (0, 0, 0.00000000000000000000e+000) (0, 0, 0.00000000000000000000e+000) (0, 0, 0.00000000000000000000e+000) (0, 0, 0.00000000000000000000e+000) (0, 0, 0.00000000000000000000e+000) (0, 0, 0.00000000000000000000e+000) (0, 0, 0.00000000000000000000e+000) (0, 0, 0.00000000000000000000e+000) (0, 0, 0.00000000000000000000e+000) (0, 0, 0.00000000000000000000e+000) (0, 0, 0.00000000000000000000e+000) (0, 0, 0.00000000000000000000e+000) (0, 0, 0.00000000000000000000e+000) (0, 0, 0.00000000000000000000e+000) (0, 0, 0.00000000000000000000e+000) (0, 0, 0.00000000000000000000e+000) (0, 0, 0.00000000000000000000e+000) (0, 0, 0.00000000000000000000e+000) (0, 0, 0.00000000000000000000e+000) (0, 0, 0.00000000000000000000e+000) (0, 0, 0.00000000000000000000e+000) (0, 0, 0.00000000000000000000e+000) (0, 0, 0.00000000000000000000e+000) (0, 0, 0.00000000000000000000e+000) (0, 0, 0.00000000000000000000e+000) (0, 0, 0.00000000000000000000e+000) (0, 0, 0.00000000000000000000e+000) (0, 0, 0.00000000000000000000e+000) (0, 0, 0.00000000000000000000e+000) (0, 0, 0.00000000000000000000e+000) (0, 0, 0.00000000000000000000e+000) (0, 0, 0.00000000000000000000e+000) (0, 0, 0.00000000000000000000e+000) (0, 0, 0.00000000000000000000e+000) (0, 0, 0.00000000000000000000e+000) (0, 0, 0.00000000000000000000e+000) (0, 0, 0.00000000000000000000e+000) (0, 0, 0.00000000000000000000e+000) (0, 0, 0.00000000000000000000e+000) (0, 0, 0.00000000000000000000e+000) (0, 0, 0.00000000000000000000e+000) (0, 0, 0.00000000000000000000e+000) (0, 0, 0.00000000000000000000e+000) (0, 0, 0.00000000000000000000e+000) (0, 0, 0.00000000000000000000e+000) (0, 0, 0.00000000000000000000e+000) (0, 0, 0.00000000000000000000e+000) (0, 0, 0.00000000000000000000e+000) (0, 0, 0.00000000000000000000e+000) (0, 0, 0.00000000000000000000e+000) (0, 0, 0.00000000000000000000e+000) (0, 0, 0.00000000000000000000e+000) (0, 0, 0.00000000000000000000e+000) (0, 0, 0.00000000000000000000e+000) (0, 0, 0.00000000000000000000e+000) (0, 0, 0.00000000000000000000e+000) (0, 0, 0.00000000000000000000e+000) (0, 0, 0.00000000000000000000e+000) (0, 0, 0.00000000000000000000e+000) (0, 0, 0.00000000000000000000e+000) (0, 0, 0.00000000000000000000e+000) (0, 0, 0.00000000000000000000e+000) (0, 0, 0.00000000000000000000e+000) (0, 0, 0.00000000000000000000e+000) (0, 0, 0.00000000000000000000e+000) (0, 0, 0.00000000000000000000e+000) (0, 0, 0.00000000000000000000e+000) (0, 0, 0.00000000000000000000e+000) (0, 0, 0.00000000000000000000e+000) (0, 0, 0.00000000000000000000e+000) (0, 0, 0.00000000000000000000e+000) (0, 0, 0.00000000000000000000e+000) (0, 0, 0.00000000000000000000e+000) (0, 0, 0.00000000000000000000e+000) (0, 0, 0.00000000000000000000e+000) (0, 0, 0.00000000000000000000e+000) (0, 0, 0.00000000000000000000e+000) (0, 0, 0.00000000000000000000e+000) (0, 0, 0.00000000000000000000e+000) (0, 0, 0.00000000000000000000e+000) (0, 0, 0.00000000000000000000e+000) (0, 0, 0.00000000000000000000e+000) (0, 0, 0.00000000000000000000e+000) (0, 0, 0.00000000000000000000e+000) (0, 0, 0.00000000000000000000e+000) (0, 0, 0.00000000000000000000e+000) (0, 0, 0.00000000000000000000e+000) (0, 0, 0.00000000000000000000e+000) (0, 0, 0.00000000000000000000e+000) (0, 0, 0.00000000000000000000e+000) (0, 0, 0.00000000000000000000e+000) (0, 0, 0.00000000000000000000e+000) (0, 0, 0.00000000000000000000e+000) (0, 0, 0.00000000000000000000e+000) (0, 0, 0.00000000000000000000e+000) (0, 0, 0.00000000000000000000e+000) (0, 0, 0.00000000000000000000e+000) (0, 0, 0.00000000000000000000e+000) (0, 0, 0.00000000000000000000e+000) (0, 0, 0.00000000000000000000e+000) (0, 0, 0.00000000000000000000e+000) (0, 0, 0.00000000000000000000e+000) (0, 0, 0.00000000000000000000e+000) (0, 0, 0.00000000000000000000e+000) (0, 0, 0.00000000000000000000e+000) (0, 0, 0.00000000000000000000e+000) (0, 0, 0.00000000000000000000e+000) (0, 0, 0.00000000000000000000e+000) (0, 0, 0.00000000000000000000e+000) (0, 0, 0.00000000000000000000e+000) (0, 0, 0.00000000000000000000e+000) (0, 0, 0.00000000000000000000e+000) (0, 0, 0.00000000000000000000e+000) (0, 0, 0.00000000000000000000e+000) (0, 0, 0.00000000000000000000e+000) (0, 0, 0.00000000000000000000e+000) (0, 0, 0.00000000000000000000e+000) (0, 0, 0.00000000000000000000e+000) (0, 0, 0.00000000000000000000e+000) (0, 0, 0.00000000000000000000e+000) (0, 0, 0.00000000000000000000e+000) (0, 0, 0.00000000000000000000e+000) (0, 0, 0.00000000000000000000e+000) (0, 0, 0.00000000000000000000e+000) (0, 0, 0.00000000000000000000e+000) (0, 0, 0.00000000000000000000e+000) (0, 0, 0.00000000000000000000e+000) (0, 0, 0.00000000000000000000e+000) (0, 0, 0.00000000000000000000e+000) (0, 0, 0.00000000000000000000e+000) (0, 0, 0.00000000000000000000e+000) (0, 0, 0.00000000000000000000e+000) (0, 0, 0.00000000000000000000e+000) (0, 0, 0.00000000000000000000e+000) (0, 0, 0.00000000000000000000e+000) (0, 0, 0.00000000000000000000e+000) (0, 0, 0.00000000000000000000e+000) (0, 0, 0.00000000000000000000e+000) (0, 0, 0.00000000000000000000e+000) (0, 0, 0.00000000000000000000e+000) (0, 0, 0.00000000000000000000e+000) (0, 0, 0.00000000000000000000e+000) (0, 0, 0.00000000000000000000e+000) (0, 0, 0.00000000000000000000e+000) (0, 0, 0.00000000000000000000e+000) (0, 0, 0.00000000000000000000e+000) (0, 0, 0.00000000000000000000e+000) (0, 0, 0.00000000000000000000e+000) (0, 0, 0.00000000000000000000e+000) (0, 0, 0.00000000000000000000e+000) (0, 0, 0.00000000000000000000e+000) (0, 0, 0.00000000000000000000e+000) (0, 0, 0.00000000000000000000e+000) (0, 0, 0.00000000000000000000e+000) (0, 0, 0.00000000000000000000e+000) (0, 0, 0.00000000000000000000e+000) (0, 0, 0.00000000000000000000e+000) (0, 0, 0.00000000000000000000e+000) (0, 0, 0.00000000000000000000e+000) (0, 0, 0.00000000000000000000e+000) (0, 0, 0.00000000000000000000e+000) (0, 0, 0.00000000000000000000e+000) (0, 0, 0.00000000000000000000e+000) (0, 0, 0.00000000000000000000e+000) (0, 0, 0.00000000000000000000e+000) (0, 0, 0.00000000000000000000e+000) (0, 0, 0.00000000000000000000e+000) (0, 0, 0.00000000000000000000e+000) (0, 0, 0.00000000000000000000e+000) (0, 0, 0.00000000000000000000e+000) (0, 0, 0.00000000000000000000e+000) (0, 0, 0.00000000000000000000e+000) (0, 0, 0.00000000000000000000e+000) (0, 0, 0.00000000000000000000e+000) (0, 0, 0.00000000000000000000e+000) (0, 0, 0.00000000000000000000e+000) (0, 0, 0.00000000000000000000e+000) (0, 0, 0.00000000000000000000e+000) (0, 0, 0.00000000000000000000e+000) (0, 0, 0.00000000000000000000e+000) (0, 0, 0.00000000000000000000e+000) (0, 0, 0.00000000000000000000e+000) (0, 0, 0.00000000000000000000e+000) (0, 0, 0.00000000000000000000e+000) (0, 0, 0.00000000000000000000e+000) (0, 0, 0.00000000000000000000e+000) (0, 0, 0.00000000000000000000e+000) (0, 0, 0.00000000000000000000e+000) (0, 0, 0.00000000000000000000e+000) (0, 0, 0.00000000000000000000e+000) (0, 0, 0.00000000000000000000e+000) (0, 0, 0.00000000000000000000e+000) (0, 0, 0.00000000000000000000e+000) (0, 0, 0.00000000000000000000e+000) (0, 0, 0.00000000000000000000e+000) (0, 0, 0.00000000000000000000e+000) (0, 0, 0.00000000000000000000e+000) (0, 0, 0.00000000000000000000e+000) (0, 0, 0.00000000000000000000e+000) (0, 0, 0.00000000000000000000e+000) (0, 0, 0.00000000000000000000e+000) (0, 0, 0.00000000000000000000e+000) (0, 0, 0.00000000000000000000e+000) (0, 0, 0.00000000000000000000e+000) (0, 0, 0.00000000000000000000e+000) (0, 0, 0.00000000000000000000e+000) (0, 0, 0.00000000000000000000e+000) (0, 0, 0.00000000000000000000e+000) (0, 0, 0.00000000000000000000e+000) (0, 0, 0.00000000000000000000e+000) (0, 0, 0.00000000000000000000e+000) (0, 0, 0.00000000000000000000e+000) (0, 0, 0.00000000000000000000e+000) (0, 0, 0.00000000000000000000e+000) (0, 0, 0.00000000000000000000e+000) (0, 0, 0.00000000000000000000e+000) (0, 0, 0.00000000000000000000e+000) (0, 0, 0.00000000000000000000e+000) (0, 0, 0.00000000000000000000e+000) (0, 0, 0.00000000000000000000e+000) (0, 0, 0.00000000000000000000e+000) (0, 0, 0.00000000000000000000e+000) (0, 0, 0.00000000000000000000e+000) (0, 0, 0.00000000000000000000e+000) (0, 0, 0.00000000000000000000e+000) (0, 0, 0.00000000000000000000e+000) (0, 0, 0.00000000000000000000e+000) (0, 0, 0.00000000000000000000e+000) (0, 0, 0.00000000000000000000e+000) (0, 0, 0.00000000000000000000e+000) (0, 0, 0.00000000000000000000e+000) (0, 0, 0.00000000000000000000e+000) (0, 0, 0.00000000000000000000e+000) (0, 0, 0.00000000000000000000e+000) (0, 0, 0.00000000000000000000e+000) (0, 0, 0.00000000000000000000e+000) (0, 0, 0.00000000000000000000e+000) (0, 0, 0.00000000000000000000e+000) (0, 0, 0.00000000000000000000e+000) (0, 0, 0.00000000000000000000e+000) (0, 0, 0.00000000000000000000e+000) (0, 0, 0.00000000000000000000e+000) (0, 0, 0.00000000000000000000e+000) (0, 0, 0.00000000000000000000e+000) (0, 0, 0.00000000000000000000e+000) (0, 0, 0.00000000000000000000e+000) (0, 0, 0.00000000000000000000e+000) (0, 0, 0.00000000000000000000e+000) (0, 0, 0.00000000000000000000e+000) (0, 0, 0.00000000000000000000e+000) (0, 0, 0.00000000000000000000e+000) (0, 0, 0.00000000000000000000e+000) (0, 0, 0.00000000000000000000e+000) (0, 0, 0.00000000000000000000e+000) (0, 0, 0.00000000000000000000e+000) (0, 0, 0.00000000000000000000e+000) (0, 0, 0.00000000000000000000e+000) (0, 0, 0.00000000000000000000e+000) (0, 0, 0.00000000000000000000e+000) (0, 0, 0.00000000000000000000e+000) (0, 0, 0.00000000000000000000e+000) (0, 0, 0.00000000000000000000e+000) (0, 0, 0.00000000000000000000e+000) (0, 0, 0.00000000000000000000e+000) (0, 0, 0.00000000000000000000e+000) (0, 0, 0.00000000000000000000e+000) (0, 0, 0.00000000000000000000e+000) (0, 0, 0.00000000000000000000e+000) (0, 0, 0.00000000000000000000e+000) (0, 0, 0.00000000000000000000e+000) (0, 0, 0.00000000000000000000e+000) (0, 0, 0.00000000000000000000e+000) (0, 0, 0.00000000000000000000e+000) (0, 0, 0.00000000000000000000e+000) (0, 0, 0.00000000000000000000e+000) (0, 0, 0.00000000000000000000e+000) (0, 0, 0.00000000000000000000e+000) (0, 0, 0.00000000000000000000e+000) (0, 0, 0.00000000000000000000e+000) (0, 0, 0.00000000000000000000e+000) (0, 0, 0.00000000000000000000e+000) (0, 0, 0.00000000000000000000e+000) (0, 0, 0.00000000000000000000e+000) (0, 0, 0.00000000000000000000e+000) (0, 0, 0.00000000000000000000e+000) (0, 0, 0.00000000000000000000e+000) (0, 0, 0.00000000000000000000e+000) (0, 0, 0.00000000000000000000e+000) (0, 0, 0.00000000000000000000e+000) (0, 0, 0.00000000000000000000e+000) (0, 0, 0.00000000000000000000e+000) (0, 0, 0.00000000000000000000e+000) (0, 0, 0.00000000000000000000e+000) (0, 0, 0.00000000000000000000e+000) (0, 0, 0.00000000000000000000e+000) (0, 0, 0.00000000000000000000e+000) (0, 0, 0.00000000000000000000e+000) (0, 0, 0.00000000000000000000e+000) (0, 0, 0.00000000000000000000e+000) (0, 0, 0.00000000000000000000e+000) (0, 0, 0.00000000000000000000e+000) (0, 0, 0.00000000000000000000e+000) (0, 0, 0.00000000000000000000e+000) (0, 0, 0.00000000000000000000e+000) (0, 0, 0.00000000000000000000e+000) (0, 0, 0.00000000000000000000e+000) (0, 0, 0.00000000000000000000e+000) (0, 0, 0.00000000000000000000e+000) (0, 0, 0.00000000000000000000e+000) (0, 0, 0.00000000000000000000e+000) (0, 0, 0.00000000000000000000e+000) (0, 0, 0.00000000000000000000e+000) (0, 0, 0.00000000000000000000e+000) (0, 0, 0.00000000000000000000e+000) (0, 0, 0.00000000000000000000e+000) (0, 0, 0.00000000000000000000e+000) (0, 0, 0.00000000000000000000e+000) (0, 0, 0.00000000000000000000e+000) (0, 0, 0.00000000000000000000e+000) (0, 0, 0.00000000000000000000e+000) (0, 0, 0.00000000000000000000e+000) (0, 0, 0.00000000000000000000e+000) (0, 0, 0.00000000000000000000e+000) (0, 0, 0.00000000000000000000e+000) (0, 0, 0.00000000000000000000e+000) (0, 0, 0.00000000000000000000e+000) (0, 0, 0.00000000000000000000e+000) (0, 0, 0.00000000000000000000e+000) (0, 0, 0.00000000000000000000e+000) (0, 0, 0.00000000000000000000e+000) (0, 0, 0.00000000000000000000e+000) (0, 0, 0.00000000000000000000e+000) (0, 0, 0.00000000000000000000e+000) (0, 0, 0.00000000000000000000e+000) (0, 0, 0.00000000000000000000e+000) (0, 0, 0.00000000000000000000e+000) (0, 0, 0.00000000000000000000e+000) (0, 0, 0.00000000000000000000e+000) (0, 0, 0.00000000000000000000e+000) (0, 0, 0.00000000000000000000e+000) (0, 0, 0.00000000000000000000e+000) (0, 0, 0.00000000000000000000e+000) (0, 0, 0.00000000000000000000e+000) (0, 0, 0.00000000000000000000e+000) (0, 0, 0.00000000000000000000e+000) (0, 0, 0.00000000000000000000e+000) (0, 0, 0.00000000000000000000e+000) (785, 3, 5.00000000000000000000e-001) (785, 3, 5.00000000000000000000e-001) (785, 3, 5.00000000000000000000e-001) (785, 3, 5.00000000000000000000e-001) (785, 3, 5.00000000000000000000e-001) (785, 3, 5.00000000000000000000e-001) (785, 3, 5.00000000000000000000e-001) (785, 3, 5.00000000000000000000e-001) (785, 3, 5.00000000000000000000e-001) (785, 3, 5.00000000000000000000e-001) (785, 3, 5.00000000000000000000e-001) (785, 3, 5.00000000000000000000e-001) (785, 3, 5.00000000000000000000e-001) (785, 3, 5.00000000000000000000e-001) (785, 3, 5.00000000000000000000e-001) (785, 3, 5.00000000000000000000e-001) (785, 3, 5.00000000000000000000e-001) (785, 3, 5.00000000000000000000e-001) (785, 3, 5.00000000000000000000e-001) (785, 3, 5.00000000000000000000e-001) (785, 3, 5.00000000000000000000e-001) (785, 3, 5.00000000000000000000e-001) (785, 3, 5.00000000000000000000e-001) (785, 3, 5.00000000000000000000e-001) (785, 3, 5.00000000000000000000e-001) (785, 3, 5.00000000000000000000e-001) (785, 3, 5.00000000000000000000e-001) (785, 3, 5.00000000000000000000e-001) (785, 3, 5.00000000000000000000e-001) (785, 3, 5.00000000000000000000e-001) (0, 3, 0.00000000000000000000e+000) (31, 3, 5.00000000000000000000e-001) (31, 3, 5.00000000000000000000e-001) (31, 3, 5.00000000000000000000e-001) (31, 3, 5.00000000000000000000e-001) (31, 3, 5.00000000000000000000e-001) (31, 3, 5.00000000000000000000e-001) (31, 3, 5.00000000000000000000e-001) (31, 3, 5.00000000000000000000e-001) (31, 3, 5.00000000000000000000e-001) (31, 3, 5.00000000000000000000e-001) (0, 3, 0.00000000000000000000e+000) 
connections (connected_to_neuron, weight)=(0, 8.34716809313249540000e-002) (1, 6.38244638416836100000e-002) (2, -6.64428720838259320000e-002) (3, 8.09143078463421260000e-002) (4, -9.77417006752148150000e-002) (5, -5.13122566239871960000e-002) (6, 7.59948741792868530000e-002) (7, 4.15039068684563970000e-004) (8, 8.96728528987296160000e-002) (9, -1.02783204656589080000e-002) (10, 1.99645999068707170000e-002) (11, -6.35925302444775300000e-002) (12, 7.05998023624331980000e-002) (13, 3.70326695387941100000e-003) (14, -5.21133842684785020000e-002) (15, -4.25209704698640420000e-002) (16, -9.97009292200345950000e-002) (17, -6.14685067753271140000e-002) (18, -4.58251959953486220000e-002) (19, 2.39135745750900240000e-002) (20, 4.15466314784680430000e-002) (21, 7.75085460768423220000e-002) (22, 9.47387709429676760000e-002) (23, -7.39746104773075790000e-003) (24, -2.43347171594905380000e-002) (25, -7.93334972759112130000e-002) (26, -6.92810068917424360000e-002) (27, 8.24768078696251910000e-002) (28, 3.01696781839382310000e-002) (29, 3.20129399301549710000e-002) (30, 3.03161625611210180000e-002) (31, -9.18273939464597790000e-002) (32, -9.65209975320249210000e-002) (33, -1.03908968607206100000e-002) (34, -6.77131922881154050000e-003) (35, 2.22656703272115790000e-001) (36, 3.87920713278646580000e-001) (37, 1.95432833774947270000e-001) (38, 1.83742421210197460000e-001) (39, 1.34858265470388950000e-001) (40, 2.18672636033336780000e-001) (41, 2.50569022502307780000e-001) (42, 5.26030943656685750000e-002) (43, 1.59185913259303980000e-001) (44, 2.57332172666400460000e-001) (45, 2.33459635813101140000e-001) (46, 1.28435793861926650000e-002) (47, -8.62708985518948340000e-002) (48, -4.33925379728229700000e-002) (49, -8.43646371636266740000e-002) (50, -5.93889594007882200000e-002) (51, 4.65837201438453060000e-002) (52, 1.43676759953450530000e-002) (53, 5.03906257508788260000e-002) (54, 9.26757826309767550000e-002) (55, 7.71789562281810500000e-002) (56, 2.39257816065219230000e-003) (57, 5.21972664027998690000e-002) (58, -5.83801278230566820000e-002) (59, -9.31741053543229110000e-002) (60, -8.17515951917274080000e-002) (61, -8.15637672458870280000e-002) (62, 1.05586784710006000000e-001) (63, 2.55675815813162010000e-001) (64, 8.44680871403267750000e-001) (65, 1.41488465490624930000e+000) (66, 1.58176010469975310000e+000) (67, 1.47953501935644690000e+000) (68, 1.92520733042614190000e+000) (69, 1.87343595221566540000e+000) (70, 1.41331443297872590000e+000) (71, 1.59381784349676670000e+000) (72, 1.28307810676501320000e+000) (73, 1.17239319748608930000e+000) (74, 7.92841216565453260000e-001) (75, 2.25243209932284670000e-001) (76, 6.61131107551292900000e-001) (77, 6.29374022111484740000e-001) (78, 1.59257951275015800000e-001) (79, 1.80073673497119860000e-001) (80, 1.51648444838099690000e-001) (81, 8.99377099649114610000e-002) (82, -9.62951674505347910000e-002) (83, -1.99584963911547670000e-002) (84, 9.02587904074607650000e-002) (85, -1.36596681722949140000e-002) (86, -4.41848884796110720000e-002) (87, 1.13654839720465250000e-001) (88, -9.89475241980615660000e-003) (89, -5.22758042036281510000e-002) (90, 3.64148213619120030000e-001) (91, 1.16591360218074920000e+000) (92, 2.10058973368690130000e+000) (93, 2.98902807849112630000e+000) (94, 2.39834770417858060000e+000) (95, 1.75358091975715440000e+000) (96, 1.38286943192733380000e+000) (97, 2.61645552264935200000e+000) (98, 4.10999668637889610000e-001) (99, -3.21901581042272680000e-001) (100, -6.83165360574141340000e-001) (101, -6.92127202930455380000e-001) (102, -3.12432416129969640000e-001) (103, 5.86354612176225640000e-001) (104, 9.11406778313029050000e-002) (105, 1.06191220416471000000e+000) (106, 1.02298421085862130000e+000) (107, 3.58691847409673830000e-002) (108, -4.77022112871884340000e-001) (109, -2.73815986392790090000e-001) (110, -6.03416371548769690000e-002) (111, 7.04467783934887850000e-002) (112, 8.59985364377280350000e-002) (113, 6.65657948759786210000e-002) (114, -1.62768988234322870000e-001) (115, 9.34584988130939820000e-002) (116, -1.82970336184164610000e-002) (117, 1.44096040057640270000e+000) (118, 2.17780775572817300000e+000) (119, 3.11180453844983470000e+000) (120, 2.95422113363511980000e+000) (121, 4.16215539163325140000e+000) (122, 2.51239373044896740000e+000) (123, 1.71944739362348890000e+000) (124, 2.85048408878925530000e+000) (125, 2.70332187123894310000e+000) (126, 4.09413758293687200000e+000) (127, 9.39561770087150140000e-001) (128, -1.54162081607514080000e+000) (129, -2.37680868770504720000e+000) (130, -4.61310789906993590000e-001) (131, 3.99483431480230130000e-001) (132, 5.17648423553816240000e-001) (133, -6.13281597908691410000e-001) (134, -1.09021774381642820000e+000) (135, -6.15383615779699240000e-001) (136, -1.43033837039853110000e+000) (137, -3.06386971784936960000e-001) (138, -8.43980438349028750000e-002) (139, -6.66019455279203990000e-003) (140, 1.56372072642625430000e-002) (141, -2.45056155995371230000e-002) (142, -4.26609206725891840000e-002) (143, 1.02661606320885760000e-001) (144, 2.35836200380208750000e-001) (145, 6.48117820725827800000e-001) (146, 9.51316477607275220000e-001) (147, 1.77103229893828450000e+000) (148, 2.74151651153941780000e+000) (149, 8.47346033073831160000e-001) (150, 1.15817608664690530000e+000) (151, 2.62023934593910200000e+000) (152, 2.81871018736778070000e+000) (153, 3.31463780232769740000e+000) (154, 2.35852784066876400000e+000) (155, 1.16532543286424660000e+000) (156, 1.33762472101978140000e+000) (157, -4.48410350421602100000e-001) (158, 4.38876085788527210000e-001) (159, -4.12491426269680050000e-001) (160, 1.06607408063387090000e+000) (161, 6.69327540170628620000e-002) (162, -1.91860397473539960000e+000) (163, -2.89519839289632940000e+000) (164, -1.70816109246417950000e+000) (165, -3.17903910288249880000e-001) (166, 1.69603096866521950000e-001) (167, 2.26778327113150710000e-002) (168, -2.57324222584429660000e-002) (169, 1.46057512090534270000e-002) (170, -3.14204278109296020000e-001) (171, -5.46144739200212670000e-001) (172, -5.14853007683190870000e-001) (173, -1.71515520982577140000e+000) (174, -8.34135828778183930000e-001) (175, 5.07990168312835440000e-002) (176, -8.96914587424238020000e-001) (177, -1.20002207698994150000e+000) (178, -2.57904599869339360000e+000) (179, -9.47259271089992970000e-001) (180, -6.33453435258434670000e-001) (181, -1.42190782880846260000e+000) (182, -3.05029752821729170000e+000) (183, 2.32885569678220110000e-001) (184, 9.98662661093462360000e-002) (185, -1.45081945184303350000e+000) (186, 2.12827319457041670000e+000) (187, -2.94129585722653800000e+000) (188, -4.72899474149433810000e+000) (189, -3.72574181042176540000e+000) (190, -4.59251447565654750000e+000) (191, -4.86064784709731330000e+000) (192, -2.15061226561499730000e+000) (193, 4.18905557892882970000e-002) (194, -1.42540393564940390000e-001) (195, -1.72727113478557880000e-001) (196, -6.64987220660884920000e-002) (197, -6.07136823653356070000e-002) (198, -7.44279400929685490000e-003) (199, -6.43263357972670090000e-001) (200, -1.95892719787145330000e+000) (201, -1.78405671702819270000e+000) (202, 2.24098731579815360000e-001) (203, -2.91178026949877420000e+000) (204, -1.63083697348510600000e+000) (205, -2.19461946561925500000e+000) (206, -1.34831349774248580000e+000) (207, 3.73328294574243440000e-001) (208, -8.47545684459867780000e-001) (209, -2.77455560943892900000e+000) (210, -2.76328053276483350000e+000) (211, -2.15453866525909630000e+000) (212, -1.60113831503736130000e+000) (213, -1.87119140125304930000e+000) (214, -3.81915832155495540000e+000) (215, -5.21834950190254080000e+000) (216, -5.51139128810171730000e+000) (217, -5.39263697016772080000e+000) (218, -5.87623218402638600000e+000) (219, -5.43154059808990740000e+000) (220, -2.01120019122312990000e+000) (221, -8.91672893347921770000e-002) (222, -3.23772705357275650000e-001) (223, 2.41612849902964230000e-002) (224, 8.80436278204650420000e-002) (225, 3.41187471239604860000e-002) (226, -1.73313624956230480000e-001) (227, -1.03969504221677900000e+000) (228, -3.90144286136317490000e+000) (229, -2.88196859470682170000e+000) (230, -8.74643531541541730000e-001) (231, -2.00489085732919700000e+000) (232, -4.70192241023705440000e-001) (233, 2.79122240572172050000e-001) (234, 2.34327112736150230000e+000) (235, 1.01645201373118000000e-001) (236, -1.60801646597311440000e+000) (237, -8.56010552424876780000e-001) (238, -6.52838672305468220000e-001) (239, 8.64949443464011040000e-001) (240, -1.81586966900243850000e+000) (241, -1.88336360929568420000e+000) (242, -6.88283375075624980000e+000) (243, -3.92254617344162120000e+000) (244, -2.00262556172864730000e+000) (245, -4.60105094173334810000e+000) (246, -7.00874620381190190000e+000) (247, -5.59514863531820520000e+000) (248, -3.82102879298024960000e+000) (249, -1.11911028017822960000e+000) (250, -5.58571647205644230000e-001) (251, -9.51410005359643600000e-002) (252, 2.38177853447514120000e-002) (253, -1.68614207979344570000e-001) (254, -5.09831205763747740000e-001) (255, -1.49801862205460570000e+000) (256, -3.35843551099346630000e+000) (257, -4.54362801895386250000e+000) (258, -4.09942376775305740000e+000) (259, -1.94870129200696170000e+000) (260, -1.86311640465184420000e+000) (261, -7.97683713778626900000e-001) (262, 1.14327066969147360000e+000) (263, 5.18008249846790170000e-001) (264, -4.77599075640639190000e-001) (265, -3.22861680078952950000e+000) (266, -1.66547596525221640000e+000) (267, -1.12406815000573520000e+000) (268, -3.73340631828643540000e+000) (269, -4.21644258774530200000e+000) (270, -5.69908708475190020000e+000) (271, -4.26065576191696320000e+000) (272, -2.79002665299789720000e+000) (273, -5.48495877813761630000e+000) (274, -5.57741102799595990000e+000) (275, -4.02666993243597740000e+000) (276, -1.77080783428554960000e+000) (277, -1.33897080539670870000e+000) (278, -4.38088362907322390000e-001) (279, -1.67773562733845640000e-001) (280, 3.50097615654384330000e-002) (281, -1.97710969266699340000e-001) (282, -5.99152201397482710000e-001) (283, -1.53671746828772430000e+000) (284, -3.75449752919259130000e+000) (285, -2.83361569585993590000e+000) (286, -2.92517109762399800000e+000) (287, -1.54925998494959850000e+000) (288, -1.14304382534625830000e-001) (289, -1.26859263500426180000e+000) (290, -2.12078885704396950000e-001) (291, -7.42429360039936310000e-001) (292, -5.80404323768455650000e+000) (293, -7.33185169938731820000e+000) (294, -2.95799736881736090000e+000) (295, -6.34689220782430220000e+000) (296, -5.41019983985186050000e+000) (297, -1.53341415235385110000e+000) (298, -3.79826482228141950000e+000) (299, -3.95074455046338000000e+000) (300, -1.52059584467022750000e+000) (301, -2.61097068488155770000e+000) (302, -3.75782230223373490000e+000) (303, -1.19816862821884770000e+000) (304, 2.02322586779076900000e-003) (305, -1.47234715727212690000e+000) (306, -1.99388432047855580000e-001) (307, -1.01387668509804240000e-001) (308, -7.20984548836253460000e-002) (309, -6.82282984282872320000e-002) (310, -7.07392269397561950000e-001) (311, -2.00856367468789990000e+000) (312, -3.67527748121163310000e+000) (313, -2.67686612431466340000e+000) (314, -4.59209948840445130000e+000) (315, -4.09138213786672630000e+000) (316, -2.82156754404886500000e+000) (317, -1.48506787211424580000e+000) (318, -2.71298666570359660000e+000) (319, -4.62445560725583960000e+000) (320, -8.99704796098948380000e+000) (321, -8.38852523610404250000e+000) (322, -5.82472559553404780000e+000) (323, -8.63769467445392360000e+000) (324, -1.35880854937771050000e+000) (325, -3.12890310898408770000e+000) (326, -2.77782194642023630000e+000) (327, 1.12860139761987460000e-001) (328, -6.93491929542219720000e-001) (329, 2.78280971358716080000e+000) (330, -1.10282934472639150000e+000) (331, 1.58140809045324100000e+000) (332, 1.20374757814040080000e+000) (333, -6.49713759767227670000e-001) (334, -5.24848348444012850000e-001) (335, -1.05549751083422310000e-001) (336, 1.09849192568701680000e-002) (337, -6.09852637883896430000e-002) (338, -7.00345097243061600000e-001) (339, -1.74878822421224460000e+000) (340, -3.14959445127695890000e+000) (341, -2.56715606721382140000e+000) (342, -3.82864924902540520000e+000) (343, -5.90510258281794090000e+000) (344, -3.79509106030666390000e+000) (345, -3.19740578286820740000e+000) (346, -4.69162122295606920000e+000) (347, -5.20730783688495080000e+000) (348, -8.44286134075938750000e+000) (349, -5.30029684702199240000e+000) (350, -3.79658900654853860000e+000) (351, -4.95138680204475800000e+000) (352, 9.86842672579408280000e-001) (353, -2.47283388451815080000e+000) (354, -3.36778680335648020000e+000) (355, -1.62707865630384040000e+000) (356, -2.08273250943473620000e+000) (357, 5.23660265873869050000e-001) (358, -1.30765198586038210000e+000) (359, 1.30959625280224790000e-002) (360, 1.18403359183776200000e+000) (361, 1.43395642000013060000e-001) (362, 1.14382937398448780000e+000) (363, 1.65874657200597300000e-001) (364, -1.80449812958201690000e-002) (365, -8.48651517959496120000e-002) (366, -1.86333305874258750000e-001) (367, -9.98302661146644900000e-001) (368, -3.08871620120414910000e+000) (369, -2.63466707216181200000e+000) (370, -3.96801784372054960000e+000) (371, -4.62015617116447160000e+000) (372, -2.91725946275842580000e+000) (373, -2.84482920260857370000e+000) (374, -3.61298357167388230000e+000) (375, -1.36210492554728970000e+000) (376, -1.31757253634627620000e-001) (377, 7.78793695872071630000e+000) (378, 6.02050412319421800000e-001) (379, -1.04848613247294400000e+000) (380, -1.06949604325138000000e+000) (381, -1.32036259488639570000e+000) (382, -2.36127576550221980000e+000) (383, -2.56621309885458880000e+000) (384, -1.55280173186072720000e+000) (385, -1.89265915458386160000e+000) (386, -2.92729065396085410000e+000) (387, -5.85866177527833880000e-001) (388, 3.95948023285243120000e+000) (389, 1.58108869976441670000e+000) (390, 1.96308580078366020000e+000) (391, 5.16834741395373890000e-001) (392, 6.58691416065266820000e-002) (393, 3.72536388837228920000e-002) (394, -2.16311249823767430000e-001) (395, -1.52012109058307620000e-001) (396, -1.95841506828074090000e+000) (397, -2.75335136593215200000e+000) (398, -1.82683620962618760000e+000) (399, -1.03025420888694510000e+000) (400, -9.62801539489380740000e-001) (401, 2.76302684697314230000e-001) (402, -9.89305359751056930000e-001) (403, 1.25454264793509010000e+000) (404, 3.75537894240563870000e+000) (405, 6.44082157257572610000e+000) (406, 1.43677153900287660000e+000) (407, 4.35146374320660550000e+000) (408, 7.09779465133671520000e-001) (409, -2.21072978730429700000e+000) (410, -7.10952955872693470000e-001) (411, -1.85833608882533970000e+000) (412, -1.20321291669959900000e-001) (413, -2.32176373830666140000e+000) (414, -2.02161825752300480000e+000) (415, 2.08109097814084750000e+000) (416, 2.80016224796925740000e+000) (417, 1.14252747027049000000e+000) (418, 1.46558275897033120000e+000) (419, 7.41258418346198850000e-002) (420, 7.58396273584833470000e-002) (421, 3.38263025406096290000e-002) (422, -7.01122260818368840000e-002) (423, 4.53913865459376950000e-001) (424, 2.54273701358168290000e-001) (425, 6.40748728309740610000e-001) (426, 1.26854419845632150000e+000) (427, -1.06371162783884680000e+000) (428, 2.65474400904681770000e-001) (429, 2.36240452402825470000e+000) (430, 1.84210486390792470000e+000) (431, 4.45554458107501810000e+000) (432, 2.68233755057619570000e+000) (433, 3.44311848212080380000e+000) (434, 3.94435699161603550000e+000) (435, 3.57751197253323250000e+000) (436, 1.32972460460491050000e+000) (437, 1.12351933591499040000e+000) (438, -6.32506411446273060000e-002) (439, 1.89946203470374900000e+000) (440, -6.98235069867594870000e-001) (441, -6.74731692905593430000e-001) (442, -2.78861436913834030000e+000) (443, 2.35565837623966690000e-002) (444, 2.25687878975543740000e+000) (445, 4.41590236076516880000e+000) (446, 2.10412681582902740000e+000) (447, 6.03428772634219570000e-001) (448, -3.53100813974440920000e-002) (449, 2.37010221159220550000e-002) (450, -9.88765201940713520000e-002) (451, 1.91239322947504140000e+000) (452, 2.01271616739672640000e+000) (453, 4.51587819935915850000e-001) (454, 1.04339908591019290000e+000) (455, -2.33694528720831010000e+000) (456, -1.71931631128139690000e+000) (457, 1.12053577644182020000e+000) (458, 1.38564550004494790000e+000) (459, 3.85519997218084630000e+000) (460, 4.11735049458762270000e-001) (461, 4.52356773222212550000e+000) (462, 4.86104369283900170000e+000) (463, 1.77904317646792580000e+000) (464, 3.28449905989177720000e+000) (465, 2.14825602038748140000e+000) (466, -1.13585861096114750000e+000) (467, 7.72031337029157050000e-001) (468, 5.22325106257805260000e-001) (469, 2.26586672125932420000e+000) (470, 8.08197288946318480000e-001) (471, 1.42857549843998970000e+000) (472, 4.69549517721607670000e+000) (473, 6.04608654940571190000e+000) (474, 2.96876258079020830000e+000) (475, 3.78330095050709140000e-001) (476, -6.35192880558861360000e-002) (477, 2.33557553024319120000e-002) (478, 2.56032247460198040000e-001) (479, 2.10133455310228620000e+000) (480, 3.07772155601329440000e+000) (481, 7.43583307422087670000e-001) (482, 4.67606859551775230000e+000) (483, 7.21666821521084190000e-002) (484, 4.48382033471996080000e+000) (485, 3.90893919529646140000e+000) (486, 4.98701447191161410000e+000) (487, 2.31798773231040740000e+000) (488, -4.79909671448580770000e-001) (489, 4.49621335565050520000e-001) (490, 8.92113173829566450000e-001) (491, 4.43490110565013040000e+000) (492, 2.21901497205366070000e+000) (493, 1.40780297517429710000e+000) (494, 2.72481241347668980000e+000) (495, 6.56330145279351520000e-001) (496, 2.22493896281326940000e+000) (497, 2.24017519595747200000e-001) (498, 8.24680218896258090000e-001) (499, 1.11593481989885210000e+000) (500, 3.46424607607519700000e+000) (501, 3.79282145671893820000e+000) (502, 3.74994780576935030000e-001) (503, -4.45139428889495260000e-002) (504, 8.08075501773277280000e-002) (505, -7.26849052432326090000e-002) (506, 3.62622166226187150000e-001) (507, 1.57472169567242410000e+000) (508, 4.03886899670095460000e+000) (509, 1.91128539539327090000e+000) (510, 2.72241659819518040000e+000) (511, 4.07972217909081270000e+000) (512, 2.83470512252648370000e+000) (513, 1.34121880632467280000e+000) (514, 2.69791499639905960000e+000) (515, 1.78005399690286920000e-001) (516, 1.78314963317574710000e-001) (517, 1.23053957453450250000e+000) (518, 7.95587581687147380000e-001) (519, 2.80136575028050940000e+000) (520, 5.74186633712328740000e+000) (521, 6.29952769209922630000e+000) (522, 5.47993357031319750000e+000) (523, 3.19641434789753330000e+000) (524, 1.64702055513173900000e+000) (525, 5.22676633692318200000e-001) (526, 3.53616734936697030000e+000) (527, 7.47884077643821940000e+000) (528, 6.84597162793020160000e+000) (529, 2.38194119521571550000e+000) (530, -1.30606193980786790000e-001) (531, 2.98356506429933790000e-002) (532, 3.65051274970937810000e-002) (533, -3.80577917770068480000e-002) (534, 3.56874914113587520000e-001) (535, -9.03797792672527240000e-001) (536, 1.73083246912499100000e+000) (537, 6.75762870701014150000e-001) (538, 2.23383024956627850000e+000) (539, 4.17271156813635090000e+000) (540, 1.22381448791213550000e+000) (541, 8.64594821471245560000e-001) (542, 4.56362858887215150000e+000) (543, 5.22009175335131110000e+000) (544, 2.94251462621499190000e+000) (545, 2.81515280088458560000e+000) (546, 1.60653082297495150000e+000) (547, 5.30574996223963420000e+000) (548, 6.30920296250110190000e+000) (549, 3.34861966637611190000e+000) (550, 4.66613860738607220000e+000) (551, 2.05902693031334260000e+000) (552, 2.52119839513890120000e+000) (553, 2.46578387010387830000e+000) (554, 5.74416980246884550000e+000) (555, 6.23746181661186490000e+000) (556, 4.15132763784970660000e+000) (557, 1.67487216097056750000e+000) (558, 2.11238659489729000000e-001) (559, -3.96906885082327770000e-002) (560, -5.74951180442440090000e-002) (561, -8.06852931449007080000e-002) (562, -1.98162686801872020000e-001) (563, -1.79618166043049390000e+000) (564, 4.49445449422184400000e-001) (565, 1.86866110269607780000e-001) (566, 2.64092435700770260000e+000) (567, 3.46981479030647400000e+000) (568, 7.98383348829871050000e-001) (569, 2.74041372933917500000e+000) (570, 1.32493142494331820000e+000) (571, 1.57984892928077560000e+000) (572, 1.44094666309393920000e+000) (573, 2.19628812149153370000e+000) (574, 3.67093040210063500000e-001) (575, 8.21263828334551920000e-001) (576, 5.97553460616463420000e-001) (577, -1.03880029013140680000e+000) (578, 3.28665195856990120000e+000) (579, 2.56613498399132390000e+000) (580, 1.17608137438902750000e+000) (581, 1.94985627530635370000e+000) (582, 1.76829448506154430000e+000) (583, 3.76473136423296810000e+000) (584, 2.63269971626841940000e+000) (585, 1.39433926606185390000e+000) (586, 2.36015653273349060000e-001) (587, -8.38009530605940690000e-002) (588, -7.21016772137480640000e-002) (589, 1.00364138729022140000e-001) (590, -1.71567011724775740000e-002) (591, -5.30993785897390320000e-001) (592, -5.45238624702984900000e-001) (593, 2.15486701520774900000e-001) (594, 1.80811262769492980000e+000) (595, 4.22872955100990300000e+000) (596, 1.72783844222285120000e+000) (597, 1.39534939325935190000e+000) (598, 2.21197809993922250000e+000) (599, 9.07945030095237300000e-001) (600, 1.36543656617969390000e+000) (601, 3.34957146083584070000e+000) (602, 7.02457165766682050000e-001) (603, -1.39252105063382760000e-001) (604, -4.13951340852492320000e+000) (605, -2.95852688220006680000e+000) (606, 3.61694393871078710000e-001) (607, 1.13685303520290450000e+000) (608, 4.26895473977435550000e-001) (609, 1.09966797093766220000e+000) (610, 7.97475186342568090000e-001) (611, 2.27088382491159410000e+000) (612, 1.91376765725135560000e+000) (613, 1.39053354354322560000e+000) (614, 7.35493246032386670000e-002) (615, -1.35445393569232890000e-002) (616, -7.25161176384205990000e-002) (617, 9.76711096196678920000e-002) (618, 1.05616567688944560000e-001) (619, 2.79024181960984610000e-001) (620, 5.46281412767780420000e-001) (621, 1.04644306496495120000e+000) (622, 3.06417011290497980000e-001) (623, 1.69301209908955960000e+000) (624, -5.65381768221435930000e-001) (625, 2.77644513691951980000e-001) (626, -1.89090114003651100000e+000) (627, -3.87526257856787510000e+000) (628, -3.56821540382403900000e+000) (629, -3.07110024693657070000e+000) (630, -7.98002842776601630000e+000) (631, -6.11433251926124210000e+000) (632, -5.81797059120235630000e+000) (633, -4.80578768537193660000e+000) (634, -3.03987485616645920000e+000) (635, -2.28673754482406230000e+000) (636, 1.20705346077453110000e+000) (637, -6.41463015101759510000e-001) (638, -1.13480972860300880000e+000) (639, -2.88090649295023320000e-001) (640, 1.30247534195069780000e+000) (641, 7.58422955200640070000e-001) (642, -5.21367787912310960000e-002) (643, -7.11824637076276940000e-003) (644, 5.98144540163048080000e-004) (645, 1.34338380908047840000e-002) (646, 1.39484820708157180000e-001) (647, -3.08531087939613800000e-002) (648, -4.53192167239653890000e-001) (649, -1.19797960856532350000e-002) (650, -1.22665450048410210000e+000) (651, -1.92030804318348110000e+000) (652, -5.86155902789386230000e-001) (653, -2.25264894686788650000e+000) (654, -1.53038095803581300000e+000) (655, -8.42774182672205020000e-002) (656, -2.43771238137980010000e+000) (657, -5.18134150684598000000e+000) (658, -7.03774102636825830000e+000) (659, -9.33638521237918440000e+000) (660, -8.63835952530772920000e+000) (661, -7.75223968578571920000e+000) (662, -4.56489066681918220000e+000) (663, -3.24188764994268390000e+000) (664, -1.50743382274472700000e+000) (665, -2.09498042163176630000e-001) (666, -5.67052595534280670000e-001) (667, -3.62471107061390350000e-001) (668, 8.10064794133213750000e-001) (669, 5.37447510098827070000e-001) (670, -1.09256730892241010000e-001) (671, -6.52465830034998360000e-002) (672, 8.59008801862728430000e-002) (673, -8.18420422351664460000e-002) (674, 4.34693318465206170000e-002) (675, -3.02354714215167520000e-001) (676, -7.60422796317199890000e-001) (677, -1.40192884779386210000e+000) (678, -2.62778841714781340000e+000) (679, -2.67039392728155890000e+000) (680, -2.82850543581036100000e+000) (681, -5.28561612876137140000e+000) (682, -5.52455686592146300000e+000) (683, -6.84916429996422500000e+000) (684, -5.50864473761318420000e+000) (685, -6.19796425073630890000e+000) (686, -5.75969288774250110000e+000) (687, -3.43095057600817380000e+000) (688, -9.17858359021918810000e-001) (689, -2.34674834289880480000e-001) (690, 3.47321225713159430000e-001) (691, -1.41403198635816520000e+000) (692, -1.22726332600853130000e+000) (693, -3.99231549815127100000e-001) (694, -9.62807602203036520000e-001) (695, -4.33976676564204740000e-001) (696, 7.04170443079756070000e-001) (697, 7.07959521311946840000e-001) (698, -6.48351446326540510000e-002) (699, 9.10278333876703980000e-002) (700, 6.59606943422659240000e-002) (701, -9.40673842142132340000e-002) (702, -2.44766932740349170000e-002) (703, -8.51339738610190490000e-002) (704, -1.84520241859192720000e-001) (705, -5.40731927523260940000e-001) (706, -6.99296643226130830000e-001) (707, -1.48171046978786650000e+000) (708, -1.95625133561969640000e+000) (709, -2.72257346820045990000e+000) (710, -1.26083868405669960000e+000) (711, -1.32621011055943350000e+000) (712, -9.12678598643711810000e-001) (713, -3.91658132335373550000e-001) (714, 1.34975053613771850000e-001) (715, -7.33875355329340010000e-001) (716, 6.90319120607694070000e-001) (717, 1.08963739870657390000e+000) (718, -4.72596448598823990000e-001) (719, -1.62976248525828460000e+000) (720, -8.28028877901291650000e-001) (721, -9.05247769011503940000e-001) (722, -5.65107489476069150000e-001) (723, -1.34855868352830780000e-001) (724, -4.37488797327513220000e-002) (725, 1.00849741184775840000e-001) (726, 9.93905060578586730000e-003) (727, 9.76257338766117750000e-002) (728, -8.97399915716050600000e-002) (729, -6.34094247729990460000e-002) (730, -8.24646008381932920000e-002) (731, -6.29760751571666330000e-002) (732, 7.38864617532671020000e-002) (733, -2.10850921986639010000e-002) (734, -2.14521346915985570000e-001) (735, -3.27436827002584250000e-001) (736, 1.63312985911715250000e-001) (737, 7.81178862837574430000e-001) (738, 7.17082006855604190000e-001) (739, -2.24407482510972870000e-001) (740, 1.53384086546569790000e+000) (741, 1.56876940074062770000e+000) (742, 1.41097629191136820000e+000) (743, 2.26515960455764610000e-001) (744, 8.68248806725341550000e-001) (745, 6.52319580082688420000e-001) (746, 8.18848535941671810000e-002) (747, -3.38765967821181730000e-001) (748, -4.25566184821071500000e-001) (749, -7.96265899609437060000e-001) (750, -3.02273709841060390000e-001) (751, -9.09530186507701980000e-002) (752, 4.18212896856857700000e-002) (753, 9.54716988850138580000e-004) (754, -5.97290047962815150000e-002) (755, 4.23339850058255250000e-002) (756, -3.44970708265464050000e-002) (757, 3.98498541094340910000e-002) (758, -1.05468751571606840000e-002) (759, 1.01257325727601710000e-002) (760, 7.74324657427895720000e-002) (761, -2.56826938046677690000e-002) (762, 4.16012598499988090000e-002) (763, 8.35864993540603730000e-002) (764, 4.94244314581438260000e-002) (765, -7.30336701887990820000e-002) (766, 1.62807672065936290000e-002) (767, 1.19063627904192090000e-001) (768, 1.15626014407195480000e-001) (769, 1.00513981833457940000e-001) (770, 8.75408197786094190000e-002) (771, 1.29574395192968760000e-001) (772, 1.33442582468805050000e-001) (773, -1.59671294302439560000e-001) (774, -2.44628144633279890000e-001) (775, -3.47018529194379060000e-002) (776, 8.83802675440361060000e-002) (777, -7.25682197211170720000e-002) (778, -8.67020905489923190000e-002) (779, 2.69963112982213350000e-002) (780, -2.25830081490130400000e-003) (781, 1.27929689406300890000e-002) (782, -8.28430188125821590000e-002) (783, -7.89672863329542450000e-002) (784, -8.23995499207289050000e+000) (0, -2.86376957392349140000e-002) (1, -2.25585940861492420000e-002) (2, 6.38488779045474080000e-002) (3, -3.24768071245671310000e-002) (4, 3.72619634458715150000e-002) (5, -2.25341800232854440000e-002) (6, -6.65466318509970730000e-002) (7, -3.90197759720649630000e-002) (8, 1.60522463329471070000e-002) (9, 6.55273447264335120000e-002) (10, 9.01428236088577250000e-002) (11, -5.40832527590282550000e-002) (12, -5.64875664365257420000e-002) (13, 9.42350396347554910000e-002) (14, -5.72834076106491000000e-003) (15, -1.72468903470020670000e-002) (16, 1.15173341559966500000e-002) (17, 6.93969736903454760000e-002) (18, -1.01989747613515650000e-002) (19, 6.70349131082730310000e-002) (20, 5.81787118044303500000e-002) (21, -9.83337416996619140000e-002) (22, -3.59313970197945310000e-002) (23, -3.26538090803296650000e-002) (24, -2.10510257043097230000e-002) (25, 1.22070314318989400000e-003) (26, 9.89807143655525580000e-002) (27, 4.43725592549526480000e-003) (28, -8.55773938533275210000e-002) (29, -6.22619638184005450000e-002) (30, 1.10046388358568950000e-002) (31, 5.24719246100175950000e-002) (32, -2.84851078463361770000e-002) (33, -9.77298574715112920000e-002) (34, 8.62166243696806110000e-002) (35, -6.76769517667970420000e-002) (36, -9.37308956186763410000e-002) (37, -1.62692110187393460000e-002) (38, -7.19207518988370100000e-002) (39, -8.32900652537731380000e-002) (40, -1.24039473781496770000e-001) (41, -9.42436313652238590000e-002) (42, 1.36427041598540380000e-001) (43, 1.16534416724959610000e-001) (44, -3.27812322187238660000e-001) (45, -1.71946253937893730000e-001) (46, 3.80219364902363990000e-002) (47, 6.01773784108567340000e-002) (48, 5.85483636214601500000e-003) (49, -4.26581270285433110000e-002) (50, 4.94385570370293040000e-002) (51, -5.60624569760024280000e-002) (52, -3.94165044936016780000e-002) (53, -6.73217783469226560000e-003) (54, -7.90222179743977900000e-002) (55, -8.28674328754459570000e-002) (56, -7.88208019557714580000e-002) (57, 4.03747564610057450000e-002) (58, 6.21032724097858590000e-002) (59, 3.59991830335304670000e-002) (60, -5.41867350722813750000e-002) (61, -4.98419910210995480000e-002) (62, 9.75418567269820120000e-003) (63, -3.97135789584679500000e-002) (64, -2.12367378488706520000e-001) (65, -3.58523515367817510000e-001) (66, -1.77155204259506340000e-001) (67, -1.13637019701531350000e-001) (68, 4.34305881318618470000e-002) (69, 1.32934927386706560000e-001) (70, 6.40211946125330280000e-001) (71, -1.30659089741006510000e-001) (72, -2.58871171370955070000e-003) (73, 3.77131286692640790000e-001) (74, 3.82111062118711150000e-001) (75, 3.94048800465718440000e-001) (76, 5.88611315553931760000e-003) (77, 1.44734857394735290000e-002) (78, 1.46339385182832680000e-001) (79, 4.84533518483569810000e-002) (80, -1.02131999936426760000e-001) (81, 7.47674801949360300000e-003) (82, -8.59619153434323380000e-002) (83, 1.02478028870791600000e-002) (84, 8.70117200465756470000e-002) (85, 2.09899905471502280000e-002) (86, 9.87333168624120180000e-002) (87, 4.36342001561981010000e-002) (88, -7.11249806175194290000e-002) (89, -2.71662167810295600000e-002) (90, 1.14727369894184240000e-001) (91, 6.25324331836263620000e-002) (92, -1.54321959608747140000e-001) (93, -6.86499505277745280000e-001) (94, -1.08460079666716400000e+000) (95, -1.69877295506485450000e+000) (96, -2.15871667531587220000e+000) (97, -1.81275206942916120000e+000) (98, -1.58485342296171220000e+000) (99, -1.93377733652747370000e+000) (100, -1.15980257124733680000e+000) (101, -6.33685905281701770000e-001) (102, -1.51886204009169900000e+000) (103, -1.80411400107780360000e+000) (104, -1.18171397222175440000e+000) (105, 3.71478465448557420000e-002) (106, 1.09742951830190230000e+000) (107, -5.19188664100729170000e-001) (108, -3.92199240037414300000e-001) (109, -3.22895060328382210000e-002) (110, -1.63057884295861180000e-001) (111, 3.80187993946492500000e-002) (112, -4.81262214202615720000e-002) (113, -4.81909124695022240000e-002) (114, 1.51028921814218290000e-001) (115, 1.17718253955792680000e-001) (116, -4.09980343310757740000e-002) (117, 2.71011448835928650000e-001) (118, 2.20225517118116700000e-002) (119, -3.29789429247329070000e-001) (120, -2.95303006989678930000e-001) (121, -1.56668265423673070000e+000) (122, -2.94961977256218420000e+000) (123, -4.15177161466723630000e+000) (124, -5.54704557258676360000e+000) (125, -4.20196272763646660000e+000) (126, -2.34385813596023510000e+000) (127, -5.64865757105732610000e-001) (128, 7.22977581037717370000e-001) (129, 5.98801700939029290000e-001) (130, -1.92096073827448180000e+000) (131, -8.71741926935983620000e-001) (132, 1.29081241765901540000e+000) (133, 1.32022390297655120000e+000) (134, 9.18204133432199420000e-001) (135, 5.22096544785683460000e-001) (136, -5.49089411835523960000e-001) (137, -1.07987569006664310000e+000) (138, -3.88627074537835790000e-001) (139, -7.02668181382823660000e-002) (140, -7.76611339697410590000e-002) (141, -4.94628913620545060000e-002) (142, -1.19354820218164090000e-002) (143, -2.11224345728668430000e-002) (144, -2.62386265920721780000e-001) (145, 7.11731624786974690000e-002) (146, 5.72745574686046870000e-002) (147, -5.94258308426291240000e-001) (148, -2.53146164531436570000e+000) (149, -3.18477910738283580000e+000) (150, -4.85087405206919530000e+000) (151, -6.66716561163829270000e+000) (152, -8.26277825148933860000e+000) (153, -5.79689792997398800000e+000) (154, -2.26209247107320100000e-001) (155, 3.36990103532320260000e+000) (156, 9.89511556020625460000e-001) (157, 6.83261922191232830000e-001) (158, -6.92200144117691820000e-001) (159, -2.30222548371853190000e+000) (160, -1.05965557070953190000e+000) (161, 2.32103379925307430000e+000) (162, 2.85672721062020150000e+000) (163, 1.28895175044956360000e+000) (164, -1.85276083052957540000e-001) (165, -1.04968853825208040000e+000) (166, -1.71753753994741740000e-001) (167, 1.52711675316330020000e-002) (168, 8.09936535506494690000e-003) (169, -5.42310237047320050000e-002) (170, 8.93856357448607200000e-002) (171, -1.54068120291936810000e-001) (172, -6.40552035843759530000e-001) (173, -6.70589578210522420000e-002) (174, -2.94070829955733800000e-001) (175, -1.69135374521582050000e+000) (176, -2.85977768756673400000e+000) (177, -4.38400394390234820000e+000) (178, -5.73249430997059050000e+000) (179, -6.85971611536690420000e+000) (180, -9.00390901499838850000e+000) (181, -7.55620335754045590000e+000) (182, -2.68268655846837180000e-001) (183, 6.95489462861769940000e-001) (184, -7.96982227166191380000e-001) (185, -6.90265337395434500000e-001) (186, 2.11869607186456180000e+000) (187, -1.26066424071948900000e+000) (188, -1.16332620764104360000e+000) (189, 6.50311665229948320000e-001) (190, 5.87630600777741870000e-001) (191, -4.46203554834553600000e-001) (192, 1.53477417942584020000e-002) (193, -7.78395094179735930000e-004) (194, 1.48734231219104940000e-002) (195, -2.04920190106612300000e-001) (196, 6.66815984222781650000e-002) (197, -8.97541065533141860000e-002) (198, 3.47804814159308400000e-002) (199, -3.51258624069713700000e-001) (200, -8.15410225267405250000e-001) (201, -2.20015116926719820000e-001) (202, -2.02881238039498370000e-001) (203, -1.31067759423155250000e+000) (204, -4.12682294033717230000e+000) (205, -4.32360553653177160000e+000) (206, -5.50763010815743210000e+000) (207, -6.11641365926391510000e+000) (208, -6.19477172596222920000e+000) (209, -4.90010664089345840000e+000) (210, -1.73966943830814260000e-001) (211, -1.37168446163652290000e+000) (212, 5.87795706801115880000e-002) (213, -3.63236265596549870000e-001) (214, -1.55167783918335720000e+000) (215, 1.81354593106662270000e+000) (216, 1.73121610770207200000e+000) (217, 3.32614207108592020000e-001) (218, 5.96624963162270320000e-001) (219, 2.93845016373012640000e-001) (220, -8.85689706892433310000e-001) (221, -8.80323020035252700000e-002) (222, -2.33004121034472240000e-001) (223, -1.47202207082011820000e-001) (224, 5.60759904722162170000e-002) (225, -1.41383900458070120000e-001) (226, 6.63724610757035070000e-002) (227, -3.93451854820968890000e-001) (228, -8.79013682128203190000e-001) (229, -6.57040942992662360000e-001) (230, -1.84071070691683940000e+000) (231, -3.47075442989502790000e+000) (232, -4.51637728586208810000e+000) (233, -5.26036198233670760000e+000) (234, -4.11432601209017880000e+000) (235, -3.97380745049994650000e+000) (236, -4.66172547034291900000e+000) (237, -3.94409860047252050000e+000) (238, -1.53767404453967930000e+000) (239, 2.59911104305210210000e+000) (240, 1.78181530599526680000e+000) (241, 1.81905259701763390000e+000) (242, -1.37883262986315990000e+000) (243, 2.07932372685487050000e+000) (244, 2.49590448743449930000e+000) (245, 6.61625124247463000000e-001) (246, -8.62918054167604590000e-001) (247, -1.32402048107285540000e-001) (248, -7.89491617193555430000e-001) (249, -2.99600333526251480000e-001) (250, -2.00680603568173660000e-001) (251, -3.94737313734165320000e-002) (252, 4.71127538834830860000e-002) (253, -7.98629147878480860000e-002) (254, -2.08351986877218700000e-001) (255, -7.58702711029810020000e-001) (256, -2.01162598829696120000e+000) (257, -2.97368041715930520000e+000) (258, -3.59702603359151140000e+000) (259, -4.08306899831242200000e+000) (260, -4.92960015342296740000e+000) (261, -4.65858613219736830000e+000) (262, -1.70595621514947760000e+000) (263, -2.71458689749697960000e+000) (264, -2.53033728377271270000e+000) (265, -2.80211677290491950000e+000) (266, -2.08968060808332720000e+000) (267, 2.29922295555153420000e+000) (268, 4.63921575094496760000e+000) (269, -5.01256072036081580000e-001) (270, 2.41022522966751670000e-001) (271, -1.10320609486956720000e+000) (272, -8.42812204081530900000e-001) (273, -6.16523223275411200000e-001) (274, -2.41483492895939110000e+000) (275, -2.10870995902770280000e+000) (276, -2.22782475267165910000e-001) (277, -5.36951926910130830000e-001) (278, -4.80666509690331370000e-001) (279, 5.72898158282291740000e-002) (280, 1.52840497325228510000e-002) (281, -5.84035687755139550000e-002) (282, -2.55146792992419600000e-001) (283, -6.93253309581291830000e-001) (284, -2.34467547560927510000e+000) (285, -3.97153678846909350000e+000) (286, -5.00260972985773210000e+000) (287, -4.04827159664766080000e+000) (288, -3.76628325950620550000e+000) (289, -2.63843608754173650000e+000) (290, -2.21242334907118420000e+000) (291, -3.57728771886172050000e+000) (292, -3.16031597874754410000e+000) (293, -3.23187081304553910000e+000) (294, -2.07329727332429540000e+000) (295, 3.77457109612630680000e+000) (296, 5.52176721715336430000e+000) (297, 2.25770749715165440000e+000) (298, -1.00557163223345250000e+000) (299, -5.58347562872406820000e-002) (300, -1.99072470760586890000e+000) (301, -2.36030184457468590000e+000) (302, -3.55359666496723170000e+000) (303, -3.01970867281422880000e+000) (304, -1.06093120741574930000e+000) (305, -6.67407118349491290000e-001) (306, -2.84433616062350290000e-001) (307, -1.50350287034278860000e-001) (308, -4.27768858123984180000e-003) (309, -9.07996477885575500000e-002) (310, -4.27795511062397720000e-001) (311, -7.50331957199764090000e-001) (312, -1.60858190859958360000e+000) (313, -3.86225137002298520000e+000) (314, -3.89595680561089530000e+000) (315, -3.31089632576837010000e+000) (316, -1.60595745719534080000e+000) (317, -1.49368832844199150000e+000) (318, -2.20317201049270000000e+000) (319, -3.30160542458995070000e+000) (320, -2.81105798138862810000e+000) (321, -1.61168740784668720000e+000) (322, -2.73691272064492890000e+000) (323, 3.86900967572928600000e+000) (324, 6.03615129068716170000e+000) (325, 2.06154060534096130000e+000) (326, 8.16403411566238630000e-001) (327, -5.95966305752533070000e-001) (328, 7.60909668199635570000e-001) (329, 5.21385895982721450000e-001) (330, -2.21753496482265700000e+000) (331, -1.55384238228590840000e+000) (332, -8.24315247786508000000e-001) (333, -7.77508873402999570000e-001) (334, -2.65290255827719420000e-001) (335, 1.41354731448484000000e-002) (336, -9.48419542096711200000e-002) (337, -1.02395054542023610000e-002) (338, -2.76791229491594850000e-001) (339, -8.78135188205948050000e-001) (340, -1.28801411956418410000e+000) (341, -2.42496569257522900000e+000) (342, -7.15759671178270880000e-001) (343, -2.09003971923057560000e-001) (344, 5.86442020478818220000e-001) (345, -1.32494859405126260000e+000) (346, -1.73676673958288560000e+000) (347, -4.63733398638849610000e+000) (348, -7.44806842164134290000e-001) (349, -7.39866003708504750000e-001) (350, 1.37133594558312730000e+000) (351, 