FANN_FLO_2.1
num_layers=3
learning_rate=0.100000
connection_rate=1.000000
network_type=0
learning_momentum=1.000000
training_algorithm=0
train_error_function=1
train_stop_function=0
cascade_output_change_fraction=0.010000
quickprop_decay=-0.000100
quickprop_mu=1.750000
rprop_increase_factor=1.200000
rprop_decrease_factor=0.500000
rprop_delta_min=0.000000
rprop_delta_max=50.000000
rprop_delta_zero=0.100000
cascade_output_stagnation_epochs=12
cascade_candidate_change_fraction=0.010000
cascade_candidate_stagnation_epochs=12
cascade_max_out_epochs=150
cascade_min_out_epochs=50
cascade_max_cand_epochs=150
cascade_min_cand_epochs=50
cascade_num_candidate_groups=2
bit_fail_limit=3.49999999999999980000e-001
cascade_candidate_limit=1.00000000000000000000e+003
cascade_weight_multiplier=4.00000000000000020000e-001
cascade_activation_functions_count=10
cascade_activation_functions=3 5 7 8 10 11 14 15 16 17 
cascade_activation_steepnesses_count=4
cascade_activation_steepnesses=2.50000000000000000000e-001 5.00000000000000000000e-001 7.50000000000000000000e-001 1.00000000000000000000e+000 
layer_sizes=785 31 11 
scale_included=1
scale_mean_in=0.000000 0.000000 0.000000 0.000000 0.000000 0.000000 0.000000 0.000000 0.000000 0.000000 0.000000 0.000000 0.000001 0.000019 0.000019 0.000001 0.000000 0.000000 0.000000 0.000000 0.000000 0.000000 0.000000 0.000000 0.000000 0.000000 0.000000 0.000000 0.000000 0.000000 0.000000 0.000000 0.000000 0.000001 0.000048 0.000104 0.000162 0.000246 0.000510 0.000675 0.000654 0.000671 0.000695 0.000618 0.000722 0.000632 0.000430 0.000301 0.000213 0.000085 0.000043 0.000018 0.000000 0.000000 0.000000 0.000000 0.000000 0.000000 0.000000 0.000004 0.000033 0.000019 0.000176 0.000596 0.001097 0.002053 0.003294 0.005000 0.007191 0.009624 0.012523 0.014257 0.014644 0.013237 0.010768 0.007929 0.004588 0.002283 0.001022 0.000333 0.000122 0.000020 0.000000 0.000000 0.000000 0.000000 0.000005 0.000030 0.000053 0.000312 0.000927 0.002340 0.004614 0.008576 0.013975 0.020909 0.028576 0.037525 0.046453 0.052236 0.052135 0.046646 0.037310 0.026463 0.015823 0.008433 0.003778 0.001382 0.000519 0.000102 0.000015 0.000000 0.000000 0.000003 0.000020 0.000059 0.000334 0.001652 0.004179 0.009490 0.018407 0.032428 0.051290 0.074996 0.104864 0.137183 0.163131 0.176820 0.174413 0.154148 0.122332 0.089402 0.057457 0.033036 0.017303 0.008168 0.003368 0.000795 0.000125 0.000011 0.000000 0.000000 0.000040 0.000222 0.001469 0.005536 0.013645 0.027877 0.050247 0.082173 0.122071 0.172386 0.230018 0.288523 0.332639 0.355028 0.349013 0.314619 0.258774 0.195919 0.134640 0.083930 0.048409 0.025933 0.011688 0.003139 0.000495 0.000013 0.000000 0.000000 0.000122 0.000785 0.004112 0.012307 0.028241 0.054925 0.093708 0.145165 0.207709 0.278168 0.349957 0.415706 0.463603 0.485396 0.476840 0.439387 0.377318 0.296411 0.212959 0.139256 0.082833 0.044892 0.020930 0.006911 0.001302 0.000092 0.000004 0.000088 0.000424 0.002278 0.008769 0.022772 0.048113 0.087266 0.142070 0.210863 0.289624 0.369974 0.438287 0.489985 0.519536 0.529521 0.522372 0.497398 0.446187 0.369660 0.275128 0.184571 0.111318 0.059803 0.027498 0.009908 0.002003 0.000107 0.000021 0.000215 0.001273 0.005000 0.014227 0.032691 0.065466 0.115884 0.184813 0.268013 0.355555 0.427237 0.470294 0.484329 0.481970 0.478537 0.480007 0.479867 0.457586 0.397156 0.305344 0.208163 0.125795 0.064679 0.027900 0.010083 0.001882 0.000073 0.000009 0.000293 0.001974 0.006480 0.017113 0.038217 0.075988 0.135244 0.215091 0.306582 0.389028 0.435558 0.436491 0.410303 0.386470 0.387398 0.407747 0.435272 0.436850 0.390347 0.303764 0.208047 0.124015 0.061020 0.023293 0.007415 0.001318 0.000086 0.000016 0.000410 0.002188 0.006487 0.016693 0.038493 0.080198 0.146271 0.234189 0.327384 0.394381 0.406131 0.369221 0.324436 0.308361 0.328858 0.366796 0.410439 0.418031 0.371210 0.283605 0.190849 0.112828 0.054079 0.018528 0.004664 0.000867 0.000077 0.000029 0.000320 0.001789 0.005154 0.014364 0.037499 0.083008 0.156731 0.251855 0.343633 0.389865 0.373925 0.320173 0.286325 0.296478 0.333939 0.381572 0.423132 0.416140 0.351320 0.256109 0.167555 0.100182 0.050296 0.016095 0.002380 0.000451 0.000031 0.000014 0.000170 0.000986 0.003449 0.012027 0.037369 0.089720 0.171931 0.272526 0.356277 0.385862 0.357161 0.312188 0.310667 0.349553 0.398183 0.443642 0.462004 0.422993 0.332765 0.231268 0.150895 0.093923 0.050479 0.016990 0.001637 0.000272 0.000038 0.000003 0.000085 0.000490 0.002261 0.011405 0.041768 0.100787 0.188136 0.287822 0.362198 0.380746 0.356600 0.340317 0.379833 0.435728 0.485830 0.509523 0.497103 0.427293 0.318879 0.217439 0.146543 0.095133 0.054161 0.020267 0.002256 0.000312 0.000032 0.000000 0.000043 0.000211 0.001735 0.011933 0.048816 0.112645 0.199419 0.291812 0.356468 0.373624 0.365451 0.383178 0.451786 0.509895 0.547302 0.538364 0.502434 0.418232 0.311327 0.220212 0.153665 0.101279 0.058160 0.022691 0.003197 0.000324 0.000007 0.000001 0.000020 0.000179 0.001934 0.013805 0.057009 0.122344 0.201583 0.281232 0.337018 0.358540 0.368536 0.410501 0.482095 0.531512 0.545031 0.517164 0.475229 0.395948 0.307298 0.228556 0.162436 0.106564 0.058562 0.022811 0.004103 0.000510 0.000040 0.000003 0.000021 0.000302 0.002467 0.017313 0.065258 0.128244 0.196635 0.260634 0.305014 0.326829 0.348589 0.394467 0.452764 0.494297 0.498272 0.473958 0.434655 0.373268 0.303221 0.233157 0.164564 0.104621 0.055552 0.021587 0.004729 0.000657 0.000060 0.000000 0.000032 0.000423 0.003755 0.023343 0.073094 0.131672 0.189524 0.236940 0.270696 0.290571 0.314132 0.349282 0.397834 0.440018 0.450889 0.439492 0.408926 0.362621 0.302938 0.231695 0.159200 0.097168 0.049957 0.019851 0.005261 0.000746 0.000037 0.000010 0.000022 0.000588 0.005777 0.030109 0.081130 0.137543 0.188729 0.227460 0.257772 0.279548 0.298212 0.322998 0.370519 0.416189 0.438936 0.437368 0.411990 0.366371 0.299318 0.221025 0.146730 0.087863 0.044199 0.017717 0.005082 0.000651 0.000039 0.000000 0.000027 0.001040 0.007857 0.034706 0.086485 0.145394 0.200007 0.243977 0.278882 0.304416 0.322260 0.350754 0.395622 0.439872 0.461993 0.455879 0.422348 0.362275 0.281095 0.198349 0.126579 0.072600 0.035288 0.014087 0.003994 0.000557 0.000014 0.000000 0.000046 0.001340 0.008717 0.033566 0.082040 0.147435 0.212422 0.270359 0.318942 0.354541 0.383256 0.417468 0.459146 0.490244 0.493049 0.464339 0.408152 0.329403 0.239508 0.159822 0.096803 0.052894 0.025383 0.010684 0.002783 0.000401 0.000004 0.000003 0.000045 0.001132 0.006912 0.025787 0.066721 0.130195 0.203761 0.277366 0.343002 0.396461 0.440316 0.480534 0.511689 0.517997 0.490006 0.431426 0.350801 0.261301 0.178415 0.111720 0.063566 0.033446 0.016247 0.006768 0.001742 0.000241 0.000003 0.000003 0.000001 0.000644 0.004128 0.015045 0.042687 0.092133 0.160586 0.240288 0.318622 0.388846 0.442902 0.480599 0.491838 0.473095 0.419854 0.343631 0.258812 0.178864 0.113071 0.065899 0.035651 0.018499 0.008803 0.003298 0.000759 0.000074 0.000006 0.000000 0.000000 0.000201 0.001606 0.006574 0.019254 0.046766 0.094011 0.158188 0.231699 0.303692 0.360772 0.391566 0.389569 0.355648 0.296358 0.225743 0.158266 0.101018 0.059987 0.032972 0.017196 0.008675 0.003802 0.001192 0.000232 0.000024 0.000000 0.000000 0.000000 0.000038 0.000458 0.002139 0.006251 0.016319 0.035927 0.066183 0.106521 0.150080 0.185950 0.204075 0.201051 0.179052 0.144095 0.107592 0.075622 0.047964 0.028342 0.015287 0.007659 0.003691 0.001484 0.000359 0.000092 0.000010 0.000000 0.000000 0.000000 0.000001 0.000047 0.000462 0.001696 0.005264 0.012119 0.023705 0.038298 0.054596 0.066281 0.071949 0.070316 0.063224 0.051834 0.041388 0.031065 0.020856 0.012464 0.006574 0.003140 0.001450 0.000506 0.000094 0.000008 0.000009 0.000000 0.000000 0.000000 0.000000 0.000000 0.000124 0.000527 0.001998 0.004597 0.008881 0.013561 0.019349 0.024102 0.025736 0.024715 0.022098 0.017580 0.013687 0.010295 0.006919 0.004098 0.002138 0.000912 0.000308 0.000067 0.000000 0.000005 0.000000 0.000000 0.000000 0.000000 0.000000 0.000000 0.000008 0.000048 0.000172 0.000315 0.000421 0.000809 0.001396 0.001773 0.002195 0.002523 0.002807 0.002275 0.001845 0.001401 0.000818 0.000329 0.000110 0.000038 0.000051 0.000010 0.000000 0.000000 0.000000 0.000000 
scale_deviation_in=0.000000 0.000000 0.000000 0.000000 0.000000 0.000000 0.000000 0.000000 0.000000 0.000000 0.000000 0.000000 0.000185 0.003993 0.003993 0.000166 0.000000 0.000000 0.000000 0.000000 0.000000 0.000000 0.000000 0.000000 0.000000 0.000000 0.000000 0.000000 0.000000 0.000000 0.000000 0.000000 0.000000 0.000148 0.004777 0.009108 0.011301 0.012477 0.020205 0.022476 0.021920 0.021909 0.022617 0.021470 0.023365 0.021941 0.017523 0.015185 0.012706 0.007391 0.005040 0.003652 0.000000 0.000000 0.000000 0.000000 0.000000 0.000000 0.000000 0.000587 0.003657 0.001685 0.010039 0.020631 0.028604 0.038961 0.049733 0.060575 0.073324 0.084209 0.096807 0.102876 0.105516 0.100628 0.090424 0.078508 0.059093 0.041557 0.027176 0.015118 0.009270 0.003219 0.000000 0.000000 0.000000 0.000000 0.000803 0.002983 0.003643 0.013532 0.024730 0.040859 0.058302 0.080501 0.102823 0.126478 0.146839 0.168046 0.187323 0.198668 0.197374 0.187722 0.168325 0.142668 0.108725 0.080172 0.051309 0.031389 0.019059 0.006688 0.002400 0.000000 0.000000 0.000702 0.002832 0.003770 0.014066 0.033140 0.052787 0.082128 0.115424 0.154244 0.194170 0.232855 0.270512 0.304807 0.328028 0.338656 0.336397 0.319820 0.289618 0.251315 0.203309 0.154161 0.110655 0.076073 0.047970 0.020875 0.008622 0.001596 0.000000 0.000000 0.003455 0.010825 0.028777 0.062515 0.099121 0.142884 0.191586 0.242618 0.290294 0.334922 0.374002 0.403867 0.420096 0.425537 0.423106 0.412116 0.388175 0.351703 0.300728 0.241850 0.185790 0.136576 0.089004 0.042983 0.016226 0.001915 0.000000 0.000074 0.007664 0.022606 0.053378 0.094162 0.143715 0.200807 0.259114 0.314283 0.361773 0.397991 0.422801 0.435839 0.440034 0.440612 0.440552 0.439810 0.431088 0.407590 0.365436 0.307024 0.242983 0.180303 0.121626 0.067783 0.028254 0.006686 0.000869 0.006189 0.016092 0.039103 0.078744 0.129095 0.187699 0.249649 0.309734 0.361013 0.398971 0.421685 0.431154 0.433015 0.433234 0.431662 0.432621 0.434075 0.435054 0.426488 0.396776 0.345327 0.278890 0.207143 0.139636 0.082563 0.035388 0.006854 0.003664 0.011849 0.029511 0.060255 0.103662 0.156220 0.219043 0.284461 0.346278 0.392930 0.421151 0.433124 0.435362 0.436324 0.436021 0.434255 0.434364 0.435231 0.436629 0.432871 0.410860 0.363529 0.295656 0.215726 0.141511 0.083994 0.034742 0.006220 0.001534 0.014511 0.037650 0.070651 0.114580 0.169599 0.235628 0.305842 0.368191 0.409197 0.431265 0.436840 0.436471 0.432246 0.426752 0.425472 0.428257 0.433331 0.435668 0.431800 0.410434 0.365090 0.294082 0.209217 0.128875 0.070863 0.028421 0.007248 0.003420 0.017702 0.040334 0.071113 0.113726 0.169943 0.241561 0.315548 0.378665 0.416952 0.432725 0.434717 0.423460 0.408035 0.402408 0.411391 0.421225 0.430489 0.433322 0.428078 0.402617 0.353564 0.282691 0.197793 0.115025 0.056558 0.023602 0.006312 0.003784 0.014613 0.036261 0.062160 0.104366 0.166350 0.244784 0.324160 0.387727 0.422665 0.432341 0.427271 0.408079 0.392023 0.402084 0.417290 0.423467 0.431193 0.433008 0.423773 0.389006 0.334009 0.269910 0.192913 0.106086 0.038621 0.016512 0.003249 0.003013 0.010464 0.026713 0.050316 0.094509 0.165521 0.253872 0.337566 0.398895 0.427937 0.432224 0.424103 0.407271 0.404105 0.426792 0.434729 0.430243 0.435661 0.436565 0.417660 0.373415 0.319493 0.263395 0.196055 0.109845 0.032035 0.013327 0.003658 0.000592 0.007413 0.019169 0.039577 0.091998 0.174780 0.268879 0.350744 0.407267 0.430191 0.431720 0.423970 0.416867 0.426723 0.446174 0.437354 0.431371 0.439526 0.437395 0.411232 0.365162 0.316929 0.266026 0.204139 0.122384 0.037699 0.013326 0.004769 0.000000 0.004676 0.011638 0.034470 0.092704 0.188827 0.284116 0.360505 0.409983 0.429403 0.430137 0.424916 0.424097 0.437055 0.445790 0.429633 0.430613 0.440338 0.434970 0.408638 0.368615 0.324414 0.273312 0.210945 0.130312 0.046460 0.013526 0.001083 0.000129 0.004179 0.009552 0.036246 0.098767 0.204733 0.295758 0.362993 0.405256 0.424381 0.425750 0.424752 0.429542 0.441466 0.441683 0.428741 0.436574 0.441929 0.430592 0.408256 0.374727 0.333061 0.278836 0.209848 0.130339 0.054076 0.017971 0.004081 0.000739 0.002678 0.013711 0.040710 0.110901 0.219202 0.302736 0.359428 0.394790 0.411873 0.415572 0.419756 0.430996 0.442740 0.441852 0.436150 0.439950 0.436107 0.425458 0.407536 0.379366 0.334128 0.275587 0.203569 0.124956 0.057744 0.020197 0.006180 0.000000 0.003451 0.016600 0.051065 0.131479 0.232916 0.306058 0.353545 0.381981 0.397380 0.404059 0.412392 0.425682 0.434723 0.439052 0.438110 0.435431 0.430109 0.424464 0.409124 0.378730 0.329393 0.264995 0.192462 0.118540 0.061163 0.021869 0.003247 0.001456 0.003730 0.018887 0.063868 0.150424 0.246012 0.312348 0.353156 0.376484 0.392100 0.402497 0.410362 0.416336 0.427071 0.435484 0.435076 0.431743 0.432358 0.427228 0.409722 0.373033 0.318499 0.253265 0.180674 0.112890 0.059829 0.020498 0.004284 0.000000 0.003682 0.027055 0.076153 0.162626 0.254648 0.320698 0.362038 0.386246 0.402892 0.413406 0.420057 0.425194 0.432118 0.436592 0.435502 0.433514 0.435744 0.427848 0.401785 0.358180 0.298535 0.230638 0.161406 0.101031 0.052531 0.019530 0.002065 0.000000 0.004944 0.030198 0.080808 0.160050 0.247286 0.321626 0.371902 0.401290 0.418612 0.428175 0.432977 0.435695 0.437530 0.436611 0.435978 0.436039 0.433543 0.418013 0.382601 0.328419 0.263885 0.197134 0.136271 0.087928 0.042888 0.015946 0.000943 0.000592 0.004691 0.028010 0.070356 0.137427 0.221839 0.302614 0.365844 0.405696 0.427184 0.436072 0.437139 0.435728 0.432758 0.433433 0.434984 0.433343 0.421391 0.391872 0.341638 0.280068 0.214975 0.157188 0.108893 0.069506 0.034584 0.011372 0.000721 0.000573 0.000226 0.019914 0.052951 0.102760 0.174778 0.254898 0.328747 0.384914 0.420081 0.437371 0.442184 0.441089 0.439967 0.440065 0.436419 0.420161 0.389456 0.340750 0.280622 0.217653 0.161542 0.116071 0.079332 0.046742 0.020205 0.006164 0.001331 0.000000 0.000000 0.009776 0.031389 0.066693 0.115294 0.179970 0.253811 0.322330 0.375687 0.411137 0.428337 0.433584 0.432342 0.422892 0.403073 0.368396 0.321011 0.264443 0.207296 0.155469 0.112609 0.078901 0.051355 0.027508 0.012129 0.002454 0.000000 0.000000 0.000000 0.004397 0.016147 0.037183 0.065945 0.106674 0.160614 0.217740 0.273633 0.318375 0.347517 0.358226 0.355449 0.338401 0.307522 0.271756 0.232092 0.186593 0.145626 0.106374 0.076072 0.051936 0.031514 0.014631 0.007592 0.001842 0.000000 0.000000 0.000000 0.000296 0.004640 0.017723 0.033822 0.061923 0.095844 0.136001 0.172049 0.204397 0.223432 0.232305 0.229091 0.216523 0.196037 0.176500 0.153511 0.126639 0.097635 0.070186 0.048303 0.031465 0.018230 0.006817 0.001608 0.001923 0.000000 0.000000 0.000000 0.000000 0.000000 0.008215 0.018378 0.038235 0.058929 0.082678 0.101656 0.122079 0.136198 0.139412 0.136333 0.129512 0.114367 0.101357 0.088339 0.072509 0.055381 0.040375 0.025604 0.014288 0.005119 0.000000 0.001091 0.000000 0.000000 0.000000 0.000000 0.000000 0.000000 0.001738 0.005752 0.010700 0.015166 0.016312 0.025017 0.031326 0.036568 0.040099 0.042779 0.045534 0.040778 0.036345 0.032061 0.023998 0.015060 0.008065 0.003938 0.006630 0.001569 0.000000 0.000000 0.000000 0.000000 
scale_new_min_in=0.000000 0.000000 0.000000 0.000000 0.000000 0.000000 0.000000 0.000000 0.000000 0.000000 0.000000 0.000000 0.000000 0.000000 0.000000 0.000000 0.000000 0.000000 0.000000 0.000000 0.000000 0.000000 0.000000 0.000000 0.000000 0.000000 0.000000 0.000000 0.000000 0.000000 0.000000 0.000000 0.000000 0.000000 0.000000 0.000000 0.000000 0.000000 0.000000 0.000000 0.000000 0.000000 0.000000 0.000000 0.000000 0.000000 0.000000 0.000000 0.000000 0.000000 0.000000 0.000000 0.000000 0.000000 0.000000 0.000000 0.000000 0.000000 0.000000 0.000000 0.000000 0.000000 0.000000 0.000000 0.000000 0.000000 0.000000 0.000000 0.000000 0.000000 0.000000 0.000000 0.000000 0.000000 0.000000 0.000000 0.000000 0.000000 0.000000 0.000000 0.000000 0.000000 0.000000 0.000000 0.000000 0.000000 0.000000 0.000000 0.000000 0.000000 0.000000 0.000000 0.000000 0.000000 0.000000 0.000000 0.000000 0.000000 0.000000 0.000000 0.000000 0.000000 0.000000 0.000000 0.000000 0.000000 0.000000 0.000000 0.000000 0.000000 0.000000 0.000000 0.000000 0.000000 0.000000 0.000000 0.000000 0.000000 0.000000 0.000000 0.000000 0.000000 0.000000 0.000000 0.000000 0.000000 0.000000 0.000000 0.000000 0.000000 0.000000 0.000000 0.000000 0.000000 0.000000 0.000000 0.000000 0.000000 0.000000 0.000000 0.000000 0.000000 0.000000 0.000000 0.000000 0.000000 0.000000 0.000000 0.000000 0.000000 0.000000 0.000000 0.000000 0.000000 0.000000 0.000000 0.000000 0.000000 0.000000 0.000000 0.000000 0.000000 0.000000 0.000000 0.000000 0.000000 0.000000 0.000000 0.000000 0.000000 0.000000 0.000000 0.000000 0.000000 0.000000 0.000000 0.000000 0.000000 0.000000 0.000000 0.000000 0.000000 0.000000 0.000000 0.000000 0.000000 0.000000 0.000000 0.000000 0.000000 0.000000 0.000000 0.000000 0.000000 0.000000 0.000000 0.000000 0.000000 0.000000 0.000000 0.000000 0.000000 0.000000 0.000000 0.000000 0.000000 0.000000 0.000000 0.000000 0.000000 0.000000 0.000000 0.000000 0.000000 0.000000 0.000000 0.000000 0.000000 0.000000 0.000000 0.000000 0.000000 0.000000 0.000000 0.000000 0.000000 0.000000 0.000000 0.000000 0.000000 0.000000 0.000000 0.000000 0.000000 0.000000 0.000000 0.000000 0.000000 0.000000 0.000000 0.000000 0.000000 0.000000 0.000000 0.000000 0.000000 0.000000 0.000000 0.000000 0.000000 0.000000 0.000000 0.000000 0.000000 0.000000 0.000000 0.000000 0.000000 0.000000 0.000000 0.000000 0.000000 0.000000 0.000000 0.000000 0.000000 0.000000 0.000000 0.000000 0.000000 0.000000 0.000000 0.000000 0.000000 0.000000 0.000000 0.000000 0.000000 0.000000 0.000000 0.000000 0.000000 0.000000 0.000000 0.000000 0.000000 0.000000 0.000000 0.000000 0.000000 0.000000 0.000000 0.000000 0.000000 0.000000 0.000000 0.000000 0.000000 0.000000 0.000000 0.000000 0.000000 0.000000 0.000000 0.000000 0.000000 0.000000 0.000000 0.000000 0.000000 0.000000 0.000000 0.000000 0.000000 0.000000 0.000000 0.000000 0.000000 0.000000 0.000000 0.000000 0.000000 0.000000 0.000000 0.000000 0.000000 0.000000 0.000000 0.000000 0.000000 0.000000 0.000000 0.000000 0.000000 0.000000 0.000000 0.000000 0.000000 0.000000 0.000000 0.000000 0.000000 0.000000 0.000000 0.000000 0.000000 0.000000 0.000000 0.000000 0.000000 0.000000 0.000000 0.000000 0.000000 0.000000 0.000000 0.000000 0.000000 0.000000 0.000000 0.000000 0.000000 0.000000 0.000000 0.000000 0.000000 0.000000 0.000000 0.000000 0.000000 0.000000 0.000000 0.000000 0.000000 0.000000 0.000000 0.000000 0.000000 0.000000 0.000000 0.000000 0.000000 0.000000 0.000000 0.000000 0.000000 0.000000 0.000000 0.000000 0.000000 0.000000 0.000000 0.000000 0.000000 0.000000 0.000000 0.000000 0.000000 0.000000 0.000000 0.000000 0.000000 0.000000 0.000000 0.000000 0.000000 0.000000 0.000000 0.000000 0.000000 0.000000 0.000000 0.000000 0.000000 0.000000 0.000000 0.000000 0.000000 0.000000 0.000000 0.000000 0.000000 0.000000 0.000000 0.000000 0.000000 0.000000 0.000000 0.000000 0.000000 0.000000 0.000000 0.000000 0.000000 0.000000 0.000000 0.000000 0.000000 0.000000 0.000000 0.000000 0.000000 0.000000 0.000000 0.000000 0.000000 0.000000 0.000000 0.000000 0.000000 0.000000 0.000000 0.000000 0.000000 0.000000 0.000000 0.000000 0.000000 0.000000 0.000000 0.000000 0.000000 0.000000 0.000000 0.000000 0.000000 0.000000 0.000000 0.000000 0.000000 0.000000 0.000000 0.000000 0.000000 0.000000 0.000000 0.000000 0.000000 0.000000 0.000000 0.000000 0.000000 0.000000 0.000000 0.000000 0.000000 0.000000 0.000000 0.000000 0.000000 0.000000 0.000000 0.000000 0.000000 0.000000 0.000000 0.000000 0.000000 0.000000 0.000000 0.000000 0.000000 0.000000 0.000000 0.000000 0.000000 0.000000 0.000000 0.000000 0.000000 0.000000 0.000000 0.000000 0.000000 0.000000 0.000000 0.000000 0.000000 0.000000 0.000000 0.000000 0.000000 0.000000 0.000000 0.000000 0.000000 0.000000 0.000000 0.000000 0.000000 0.000000 0.000000 0.000000 0.000000 0.000000 0.000000 0.000000 0.000000 0.000000 0.000000 0.000000 0.000000 0.000000 0.000000 0.000000 0.000000 0.000000 0.000000 0.000000 0.000000 0.000000 0.000000 0.000000 0.000000 0.000000 0.000000 0.000000 0.000000 0.000000 0.000000 0.000000 0.000000 0.000000 0.000000 0.000000 0.000000 0.000000 0.000000 0.000000 0.000000 0.000000 0.000000 0.000000 0.000000 0.000000 0.000000 0.000000 0.000000 0.000000 0.000000 0.000000 0.000000 0.000000 0.000000 0.000000 0.000000 0.000000 0.000000 0.000000 0.000000 0.000000 0.000000 0.000000 0.000000 0.000000 0.000000 0.000000 0.000000 0.000000 0.000000 0.000000 0.000000 0.000000 0.000000 0.000000 0.000000 0.000000 0.000000 0.000000 0.000000 0.000000 0.000000 0.000000 0.000000 0.000000 0.000000 0.000000 0.000000 0.000000 0.000000 0.000000 0.000000 0.000000 0.000000 0.000000 0.000000 0.000000 0.000000 0.000000 0.000000 0.000000 0.000000 0.000000 0.000000 0.000000 0.000000 0.000000 0.000000 0.000000 0.000000 0.000000 0.000000 0.000000 0.000000 0.000000 0.000000 0.000000 0.000000 0.000000 0.000000 0.000000 0.000000 0.000000 0.000000 0.000000 0.000000 0.000000 0.000000 0.000000 0.000000 0.000000 0.000000 0.000000 0.000000 0.000000 0.000000 0.000000 0.000000 0.000000 0.000000 0.000000 0.000000 0.000000 0.000000 0.000000 0.000000 0.000000 0.000000 0.000000 0.000000 0.000000 0.000000 0.000000 0.000000 0.000000 0.000000 0.000000 0.000000 0.000000 0.000000 0.000000 0.000000 0.000000 0.000000 0.000000 0.000000 0.000000 0.000000 0.000000 0.000000 0.000000 0.000000 0.000000 0.000000 0.000000 0.000000 0.000000 0.000000 0.000000 0.000000 0.000000 0.000000 0.000000 0.000000 0.000000 0.000000 0.000000 0.000000 0.000000 0.000000 0.000000 0.000000 0.000000 0.000000 0.000000 0.000000 0.000000 0.000000 0.000000 0.000000 0.000000 0.000000 0.000000 0.000000 0.000000 0.000000 0.000000 0.000000 0.000000 0.000000 0.000000 0.000000 0.000000 0.000000 0.000000 0.000000 0.000000 0.000000 0.000000 0.000000 0.000000 0.000000 0.000000 0.000000 0.000000 0.000000 0.000000 0.000000 0.000000 0.000000 0.000000 0.000000 0.000000 0.000000 0.000000 0.000000 0.000000 0.000000 0.000000 0.000000 0.000000 0.000000 0.000000 0.000000 0.000000 0.000000 0.000000 0.000000 0.000000 0.000000 0.000000 0.000000 0.000000 0.000000 
scale_factor_in=0.500000 0.500000 0.500000 0.500000 0.500000 0.500000 0.500000 0.500000 0.500000 0.500000 0.500000 0.500000 0.500000 0.500000 0.500000 0.500000 0.500000 0.500000 0.500000 0.500000 0.500000 0.500000 0.500000 0.500000 0.500000 0.500000 0.500000 0.500000 0.500000 0.500000 0.500000 0.500000 0.500000 0.500000 0.500000 0.500000 0.500000 0.500000 0.500000 0.500000 0.500000 0.500000 0.500000 0.500000 0.500000 0.500000 0.500000 0.500000 0.500000 0.500000 0.500000 0.500000 0.500000 0.500000 0.500000 0.500000 0.500000 0.500000 0.500000 0.500000 0.500000 0.500000 0.500000 0.500000 0.500000 0.500000 0.500000 0.500000 0.500000 0.500000 0.500000 0.500000 0.500000 0.500000 0.500000 0.500000 0.500000 0.500000 0.500000 0.500000 0.500000 0.500000 0.500000 0.500000 0.500000 0.500000 0.500000 0.500000 0.500000 0.500000 0.500000 0.500000 0.500000 0.500000 0.500000 0.500000 0.500000 0.500000 0.500000 0.500000 0.500000 0.500000 0.500000 0.500000 0.500000 0.500000 0.500000 0.500000 0.500000 0.500000 0.500000 0.500000 0.500000 0.500000 0.500000 0.500000 0.500000 0.500000 0.500000 0.500000 0.500000 0.500000 0.500000 0.500000 0.500000 0.500000 0.500000 0.500000 0.500000 0.500000 0.500000 0.500000 0.500000 0.500000 0.500000 0.500000 0.500000 0.500000 0.500000 0.500000 0.500000 0.500000 0.500000 0.500000 0.500000 0.500000 0.500000 0.500000 0.500000 0.500000 0.500000 0.500000 0.500000 0.500000 0.500000 0.500000 0.500000 0.500000 0.500000 0.500000 0.500000 0.500000 0.500000 0.500000 0.500000 0.500000 0.500000 0.500000 0.500000 0.500000 0.500000 0.500000 0.500000 0.500000 0.500000 0.500000 0.500000 0.500000 0.500000 0.500000 0.500000 0.500000 0.500000 0.500000 0.500000 0.500000 0.500000 0.500000 0.500000 0.500000 0.500000 0.500000 0.500000 0.500000 0.500000 0.500000 0.500000 0.500000 0.500000 0.500000 0.500000 0.500000 0.500000 0.500000 0.500000 0.500000 0.500000 0.500000 0.500000 0.500000 0.500000 0.500000 0.500000 0.500000 0.500000 0.500000 0.500000 0.500000 0.500000 0.500000 0.500000 0.500000 0.500000 0.500000 0.500000 0.500000 0.500000 0.500000 0.500000 0.500000 0.500000 0.500000 0.500000 0.500000 0.500000 0.500000 0.500000 0.500000 0.500000 0.500000 0.500000 0.500000 0.500000 0.500000 0.500000 0.500000 0.500000 0.500000 0.500000 0.500000 0.500000 0.500000 0.500000 0.500000 0.500000 0.500000 0.500000 0.500000 0.500000 0.500000 0.500000 0.500000 0.500000 0.500000 0.500000 0.500000 0.500000 0.500000 0.500000 0.500000 0.500000 0.500000 0.500000 0.500000 0.500000 0.500000 0.500000 0.500000 0.500000 0.500000 0.500000 0.500000 0.500000 0.500000 0.500000 0.500000 0.500000 0.500000 0.500000 0.500000 0.500000 0.500000 0.500000 0.500000 0.500000 0.500000 0.500000 0.500000 0.500000 0.500000 0.500000 0.500000 0.500000 0.500000 0.500000 0.500000 0.500000 0.500000 0.500000 0.500000 0.500000 0.500000 0.500000 0.500000 0.500000 0.500000 0.500000 0.500000 0.500000 0.500000 0.500000 0.500000 0.500000 0.500000 0.500000 0.500000 0.500000 0.500000 0.500000 0.500000 0.500000 0.500000 0.500000 0.500000 0.500000 0.500000 0.500000 0.500000 0.500000 0.500000 0.500000 0.500000 0.500000 0.500000 0.500000 0.500000 0.500000 0.500000 0.500000 0.500000 0.500000 0.500000 0.500000 0.500000 0.500000 0.500000 0.500000 0.500000 0.500000 0.500000 0.500000 0.500000 0.500000 0.500000 0.500000 0.500000 0.500000 0.500000 0.500000 0.500000 0.500000 0.500000 0.500000 0.500000 0.500000 0.500000 0.500000 0.500000 0.500000 0.500000 0.500000 0.500000 0.500000 0.500000 0.500000 0.500000 0.500000 0.500000 0.500000 0.500000 0.500000 0.500000 0.500000 0.500000 0.500000 0.500000 0.500000 0.500000 0.500000 0.500000 0.500000 0.500000 0.500000 0.500000 0.500000 0.500000 0.500000 0.500000 0.500000 0.500000 0.500000 0.500000 0.500000 0.500000 0.500000 0.500000 0.500000 0.500000 0.500000 0.500000 0.500000 0.500000 0.500000 0.500000 0.500000 0.500000 0.500000 0.500000 0.500000 0.500000 0.500000 0.500000 0.500000 0.500000 0.500000 0.500000 0.500000 0.500000 0.500000 0.500000 0.500000 0.500000 0.500000 0.500000 0.500000 0.500000 0.500000 0.500000 0.500000 0.500000 0.500000 0.500000 0.500000 0.500000 0.500000 0.500000 0.500000 0.500000 0.500000 0.500000 0.500000 0.500000 0.500000 0.500000 0.500000 0.500000 0.500000 0.500000 0.500000 0.500000 0.500000 0.500000 0.500000 0.500000 0.500000 0.500000 0.500000 0.500000 0.500000 0.500000 0.500000 0.500000 0.500000 0.500000 0.500000 0.500000 0.500000 0.500000 0.500000 0.500000 0.500000 0.500000 0.500000 0.500000 0.500000 0.500000 0.500000 0.500000 0.500000 0.500000 0.500000 0.500000 0.500000 0.500000 0.500000 0.500000 0.500000 0.500000 0.500000 0.500000 0.500000 0.500000 0.500000 0.500000 0.500000 0.500000 0.500000 0.500000 0.500000 0.500000 0.500000 0.500000 0.500000 0.500000 0.500000 0.500000 0.500000 0.500000 0.500000 0.500000 0.500000 0.500000 0.500000 0.500000 0.500000 0.500000 0.500000 0.500000 0.500000 0.500000 0.500000 0.500000 0.500000 0.500000 0.500000 0.500000 0.500000 0.500000 0.500000 0.500000 0.500000 0.500000 0.500000 0.500000 0.500000 0.500000 0.500000 0.500000 0.500000 0.500000 0.500000 0.500000 0.500000 0.500000 0.500000 0.500000 0.500000 0.500000 0.500000 0.500000 0.500000 0.500000 0.500000 0.500000 0.500000 0.500000 0.500000 0.500000 0.500000 0.500000 0.500000 0.500000 0.500000 0.500000 0.500000 0.500000 0.500000 0.500000 0.500000 0.500000 0.500000 0.500000 0.500000 0.500000 0.500000 0.500000 0.500000 0.500000 0.500000 0.500000 0.500000 0.500000 0.500000 0.500000 0.500000 0.500000 0.500000 0.500000 0.500000 0.500000 0.500000 0.500000 0.500000 0.500000 0.500000 0.500000 0.500000 0.500000 0.500000 0.500000 0.500000 0.500000 0.500000 0.500000 0.500000 0.500000 0.500000 0.500000 0.500000 0.500000 0.500000 0.500000 0.500000 0.500000 0.500000 0.500000 0.500000 0.500000 0.500000 0.500000 0.500000 0.500000 0.500000 0.500000 0.500000 0.500000 0.500000 0.500000 0.500000 0.500000 0.500000 0.500000 0.500000 0.500000 0.500000 0.500000 0.500000 0.500000 0.500000 0.500000 0.500000 0.500000 0.500000 0.500000 0.500000 0.500000 0.500000 0.500000 0.500000 0.500000 0.500000 0.500000 0.500000 0.500000 0.500000 0.500000 0.500000 0.500000 0.500000 0.500000 0.500000 0.500000 0.500000 0.500000 0.500000 0.500000 0.500000 0.500000 0.500000 0.500000 0.500000 0.500000 0.500000 0.500000 0.500000 0.500000 0.500000 0.500000 0.500000 0.500000 0.500000 0.500000 0.500000 0.500000 0.500000 0.500000 0.500000 0.500000 0.500000 0.500000 0.500000 0.500000 0.500000 0.500000 0.500000 0.500000 0.500000 0.500000 0.500000 0.500000 0.500000 0.500000 0.500000 0.500000 0.500000 0.500000 0.500000 0.500000 0.500000 0.500000 0.500000 0.500000 0.500000 0.500000 0.500000 0.500000 0.500000 0.500000 0.500000 0.500000 0.500000 0.500000 0.500000 0.500000 0.500000 0.500000 0.500000 0.500000 0.500000 0.500000 0.500000 0.500000 0.500000 0.500000 0.500000 0.500000 0.500000 0.500000 0.500000 0.500000 0.500000 0.500000 0.500000 0.500000 0.500000 0.500000 0.500000 0.500000 0.500000 0.500000 0.500000 0.500000 0.500000 0.500000 0.500000 0.500000 0.500000 0.500000 0.500000 0.500000 0.500000 0.500000 0.500000 0.500000 
scale_mean_out=0.100378 0.111600 0.098378 0.101133 0.098178 0.090422 0.097333 0.105244 0.097978 0.099356 
scale_deviation_out=0.300474 0.314901 0.297883 0.301532 0.297467 0.286709 0.296454 0.306816 0.297245 0.299077 
scale_new_min_out=0.000000 0.000000 0.000000 0.000000 0.000000 0.000000 0.000000 0.000000 0.000000 0.000000 
scale_factor_out=0.500000 0.500000 0.500000 0.500000 0.500000 0.500000 0.500000 0.500000 0.500000 0.500000 
neurons (num_inputs, activation_function, activation_steepness)=(0, 0, 0.00000000000000000000e+000) (0, 0, 0.00000000000000000000e+000) (0, 0, 0.00000000000000000000e+000) (0, 0, 0.00000000000000000000e+000) (0, 0, 0.00000000000000000000e+000) (0, 0, 0.00000000000000000000e+000) (0, 0, 0.00000000000000000000e+000) (0, 0, 0.00000000000000000000e+000) (0, 0, 0.00000000000000000000e+000) (0, 0, 0.00000000000000000000e+000) (0, 0, 0.00000000000000000000e+000) (0, 0, 0.00000000000000000000e+000) (0, 0, 0.00000000000000000000e+000) (0, 0, 0.00000000000000000000e+000) (0, 0, 0.00000000000000000000e+000) (0, 0, 0.00000000000000000000e+000) (0, 0, 0.00000000000000000000e+000) (0, 0, 0.00000000000000000000e+000) (0, 0, 0.00000000000000000000e+000) (0, 0, 0.00000000000000000000e+000) (0, 0, 0.00000000000000000000e+000) (0, 0, 0.00000000000000000000e+000) (0, 0, 0.00000000000000000000e+000) (0, 0, 0.00000000000000000000e+000) (0, 0, 0.00000000000000000000e+000) (0, 0, 0.00000000000000000000e+000) (0, 0, 0.00000000000000000000e+000) (0, 0, 0.00000000000000000000e+000) (0, 0, 0.00000000000000000000e+000) (0, 0, 0.00000000000000000000e+000) (0, 0, 0.00000000000000000000e+000) (0, 0, 0.00000000000000000000e+000) (0, 0, 0.00000000000000000000e+000) (0, 0, 0.00000000000000000000e+000) (0, 0, 0.00000000000000000000e+000) (0, 0, 0.00000000000000000000e+000) (0, 0, 0.00000000000000000000e+000) (0, 0, 0.00000000000000000000e+000) (0, 0, 0.00000000000000000000e+000) (0, 0, 0.00000000000000000000e+000) (0, 0, 0.00000000000000000000e+000) (0, 0, 0.00000000000000000000e+000) (0, 0, 0.00000000000000000000e+000) (0, 0, 0.00000000000000000000e+000) (0, 0, 0.00000000000000000000e+000) (0, 0, 0.00000000000000000000e+000) (0, 0, 0.00000000000000000000e+000) (0, 0, 0.00000000000000000000e+000) (0, 0, 0.00000000000000000000e+000) (0, 0, 0.00000000000000000000e+000) (0, 0, 0.00000000000000000000e+000) (0, 0, 0.00000000000000000000e+000) (0, 0, 0.00000000000000000000e+000) (0, 0, 0.00000000000000000000e+000) (0, 0, 0.00000000000000000000e+000) (0, 0, 0.00000000000000000000e+000) (0, 0, 0.00000000000000000000e+000) (0, 0, 0.00000000000000000000e+000) (0, 0, 0.00000000000000000000e+000) (0, 0, 0.00000000000000000000e+000) (0, 0, 0.00000000000000000000e+000) (0, 0, 0.00000000000000000000e+000) (0, 0, 0.00000000000000000000e+000) (0, 0, 0.00000000000000000000e+000) (0, 0, 0.00000000000000000000e+000) (0, 0, 0.00000000000000000000e+000) (0, 0, 0.00000000000000000000e+000) (0, 0, 0.00000000000000000000e+000) (0, 0, 0.00000000000000000000e+000) (0, 0, 0.00000000000000000000e+000) (0, 0, 0.00000000000000000000e+000) (0, 0, 0.00000000000000000000e+000) (0, 0, 0.00000000000000000000e+000) (0, 0, 0.00000000000000000000e+000) (0, 0, 0.00000000000000000000e+000) (0, 0, 0.00000000000000000000e+000) (0, 0, 0.00000000000000000000e+000) (0, 0, 0.00000000000000000000e+000) (0, 0, 0.00000000000000000000e+000) (0, 0, 0.00000000000000000000e+000) (0, 0, 0.00000000000000000000e+000) (0, 0, 0.00000000000000000000e+000) (0, 0, 0.00000000000000000000e+000) (0, 0, 0.00000000000000000000e+000) (0, 0, 0.00000000000000000000e+000) (0, 0, 0.00000000000000000000e+000) (0, 0, 0.00000000000000000000e+000) (0, 0, 0.00000000000000000000e+000) (0, 0, 0.00000000000000000000e+000) (0, 0, 0.00000000000000000000e+000) (0, 0, 0.00000000000000000000e+000) (0, 0, 0.00000000000000000000e+000) (0, 0, 0.00000000000000000000e+000) (0, 0, 0.00000000000000000000e+000) (0, 0, 0.00000000000000000000e+000) (0, 0, 0.00000000000000000000e+000) (0, 0, 0.00000000000000000000e+000) (0, 0, 0.00000000000000000000e+000) (0, 0, 0.00000000000000000000e+000) (0, 0, 0.00000000000000000000e+000) (0, 0, 0.00000000000000000000e+000) (0, 0, 0.00000000000000000000e+000) (0, 0, 0.00000000000000000000e+000) (0, 0, 0.00000000000000000000e+000) (0, 0, 0.00000000000000000000e+000) (0, 0, 0.00000000000000000000e+000) (0, 0, 0.00000000000000000000e+000) (0, 0, 0.00000000000000000000e+000) (0, 0, 0.00000000000000000000e+000) (0, 0, 0.00000000000000000000e+000) (0, 0, 0.00000000000000000000e+000) (0, 0, 0.00000000000000000000e+000) (0, 0, 0.00000000000000000000e+000) (0, 0, 0.00000000000000000000e+000) (0, 0, 0.00000000000000000000e+000) (0, 0, 0.00000000000000000000e+000) (0, 0, 0.00000000000000000000e+000) (0, 0, 0.00000000000000000000e+000) (0, 0, 0.00000000000000000000e+000) (0, 0, 0.00000000000000000000e+000) (0, 0, 0.00000000000000000000e+000) (0, 0, 0.00000000000000000000e+000) (0, 0, 0.00000000000000000000e+000) (0, 0, 0.00000000000000000000e+000) (0, 0, 0.00000000000000000000e+000) (0, 0, 0.00000000000000000000e+000) (0, 0, 0.00000000000000000000e+000) (0, 0, 0.00000000000000000000e+000) (0, 0, 0.00000000000000000000e+000) (0, 0, 0.00000000000000000000e+000) (0, 0, 0.00000000000000000000e+000) (0, 0, 0.00000000000000000000e+000) (0, 0, 0.00000000000000000000e+000) (0, 0, 0.00000000000000000000e+000) (0, 0, 0.00000000000000000000e+000) (0, 0, 0.00000000000000000000e+000) (0, 0, 0.00000000000000000000e+000) (0, 0, 0.00000000000000000000e+000) (0, 0, 0.00000000000000000000e+000) (0, 0, 0.00000000000000000000e+000) (0, 0, 0.00000000000000000000e+000) (0, 0, 0.00000000000000000000e+000) (0, 0, 0.00000000000000000000e+000) (0, 0, 0.00000000000000000000e+000) (0, 0, 0.00000000000000000000e+000) (0, 0, 0.00000000000000000000e+000) (0, 0, 0.00000000000000000000e+000) (0, 0, 0.00000000000000000000e+000) (0, 0, 0.00000000000000000000e+000) (0, 0, 0.00000000000000000000e+000) (0, 0, 0.00000000000000000000e+000) (0, 0, 0.00000000000000000000e+000) (0, 0, 0.00000000000000000000e+000) (0, 0, 0.00000000000000000000e+000) (0, 0, 0.00000000000000000000e+000) (0, 0, 0.00000000000000000000e+000) (0, 0, 0.00000000000000000000e+000) (0, 0, 0.00000000000000000000e+000) (0, 0, 0.00000000000000000000e+000) (0, 0, 0.00000000000000000000e+000) (0, 0, 0.00000000000000000000e+000) (0, 0, 0.00000000000000000000e+000) (0, 0, 0.00000000000000000000e+000) (0, 0, 0.00000000000000000000e+000) (0, 0, 0.00000000000000000000e+000) (0, 0, 0.00000000000000000000e+000) (0, 0, 0.00000000000000000000e+000) (0, 0, 0.00000000000000000000e+000) (0, 0, 0.00000000000000000000e+000) (0, 0, 0.00000000000000000000e+000) (0, 0, 0.00000000000000000000e+000) (0, 0, 0.00000000000000000000e+000) (0, 0, 0.00000000000000000000e+000) (0, 0, 0.00000000000000000000e+000) (0, 0, 0.00000000000000000000e+000) (0, 0, 0.00000000000000000000e+000) (0, 0, 0.00000000000000000000e+000) (0, 0, 0.00000000000000000000e+000) (0, 0, 0.00000000000000000000e+000) (0, 0, 0.00000000000000000000e+000) (0, 0, 0.00000000000000000000e+000) (0, 0, 0.00000000000000000000e+000) (0, 0, 0.00000000000000000000e+000) (0, 0, 0.00000000000000000000e+000) (0, 0, 0.00000000000000000000e+000) (0, 0, 0.00000000000000000000e+000) (0, 0, 0.00000000000000000000e+000) (0, 0, 0.00000000000000000000e+000) (0, 0, 0.00000000000000000000e+000) (0, 0, 0.00000000000000000000e+000) (0, 0, 0.00000000000000000000e+000) (0, 0, 0.00000000000000000000e+000) (0, 0, 0.00000000000000000000e+000) (0, 0, 0.00000000000000000000e+000) (0, 0, 0.00000000000000000000e+000) (0, 0, 0.00000000000000000000e+000) (0, 0, 0.00000000000000000000e+000) (0, 0, 0.00000000000000000000e+000) (0, 0, 0.00000000000000000000e+000) (0, 0, 0.00000000000000000000e+000) (0, 0, 0.00000000000000000000e+000) (0, 0, 0.00000000000000000000e+000) (0, 0, 0.00000000000000000000e+000) (0, 0, 0.00000000000000000000e+000) (0, 0, 0.00000000000000000000e+000) (0, 0, 0.00000000000000000000e+000) (0, 0, 0.00000000000000000000e+000) (0, 0, 0.00000000000000000000e+000) (0, 0, 0.00000000000000000000e+000) (0, 0, 0.00000000000000000000e+000) (0, 0, 0.00000000000000000000e+000) (0, 0, 0.00000000000000000000e+000) (0, 0, 0.00000000000000000000e+000) (0, 0, 0.00000000000000000000e+000) (0, 0, 0.00000000000000000000e+000) (0, 0, 0.00000000000000000000e+000) (0, 0, 0.00000000000000000000e+000) (0, 0, 0.00000000000000000000e+000) (0, 0, 0.00000000000000000000e+000) (0, 0, 0.00000000000000000000e+000) (0, 0, 0.00000000000000000000e+000) (0, 0, 0.00000000000000000000e+000) (0, 0, 0.00000000000000000000e+000) (0, 0, 0.00000000000000000000e+000) (0, 0, 0.00000000000000000000e+000) (0, 0, 0.00000000000000000000e+000) (0, 0, 0.00000000000000000000e+000) (0, 0, 0.00000000000000000000e+000) (0, 0, 0.00000000000000000000e+000) (0, 0, 0.00000000000000000000e+000) (0, 0, 0.00000000000000000000e+000) (0, 0, 0.00000000000000000000e+000) (0, 0, 0.00000000000000000000e+000) (0, 0, 0.00000000000000000000e+000) (0, 0, 0.00000000000000000000e+000) (0, 0, 0.00000000000000000000e+000) (0, 0, 0.00000000000000000000e+000) (0, 0, 0.00000000000000000000e+000) (0, 0, 0.00000000000000000000e+000) (0, 0, 0.00000000000000000000e+000) (0, 0, 0.00000000000000000000e+000) (0, 0, 0.00000000000000000000e+000) (0, 0, 0.00000000000000000000e+000) (0, 0, 0.00000000000000000000e+000) (0, 0, 0.00000000000000000000e+000) (0, 0, 0.00000000000000000000e+000) (0, 0, 0.00000000000000000000e+000) (0, 0, 0.00000000000000000000e+000) (0, 0, 0.00000000000000000000e+000) (0, 0, 0.00000000000000000000e+000) (0, 0, 0.00000000000000000000e+000) (0, 0, 0.00000000000000000000e+000) (0, 0, 0.00000000000000000000e+000) (0, 0, 0.00000000000000000000e+000) (0, 0, 0.00000000000000000000e+000) (0, 0, 0.00000000000000000000e+000) (0, 0, 0.00000000000000000000e+000) (0, 0, 0.00000000000000000000e+000) (0, 0, 0.00000000000000000000e+000) (0, 0, 0.00000000000000000000e+000) (0, 0, 0.00000000000000000000e+000) (0, 0, 0.00000000000000000000e+000) (0, 0, 0.00000000000000000000e+000) (0, 0, 0.00000000000000000000e+000) (0, 0, 0.00000000000000000000e+000) (0, 0, 0.00000000000000000000e+000) (0, 0, 0.00000000000000000000e+000) (0, 0, 0.00000000000000000000e+000) (0, 0, 0.00000000000000000000e+000) (0, 0, 0.00000000000000000000e+000) (0, 0, 0.00000000000000000000e+000) (0, 0, 0.00000000000000000000e+000) (0, 0, 0.00000000000000000000e+000) (0, 0, 0.00000000000000000000e+000) (0, 0, 0.00000000000000000000e+000) (0, 0, 0.00000000000000000000e+000) (0, 0, 0.00000000000000000000e+000) (0, 0, 0.00000000000000000000e+000) (0, 0, 0.00000000000000000000e+000) (0, 0, 0.00000000000000000000e+000) (0, 0, 0.00000000000000000000e+000) (0, 0, 0.00000000000000000000e+000) (0, 0, 0.00000000000000000000e+000) (0, 0, 0.00000000000000000000e+000) (0, 0, 0.00000000000000000000e+000) (0, 0, 0.00000000000000000000e+000) (0, 0, 0.00000000000000000000e+000) (0, 0, 0.00000000000000000000e+000) (0, 0, 0.00000000000000000000e+000) (0, 0, 0.00000000000000000000e+000) (0, 0, 0.00000000000000000000e+000) (0, 0, 0.00000000000000000000e+000) (0, 0, 0.00000000000000000000e+000) (0, 0, 0.00000000000000000000e+000) (0, 0, 0.00000000000000000000e+000) (0, 0, 0.00000000000000000000e+000) (0, 0, 0.00000000000000000000e+000) (0, 0, 0.00000000000000000000e+000) (0, 0, 0.00000000000000000000e+000) (0, 0, 0.00000000000000000000e+000) (0, 0, 0.00000000000000000000e+000) (0, 0, 0.00000000000000000000e+000) (0, 0, 0.00000000000000000000e+000) (0, 0, 0.00000000000000000000e+000) (0, 0, 0.00000000000000000000e+000) (0, 0, 0.00000000000000000000e+000) (0, 0, 0.00000000000000000000e+000) (0, 0, 0.00000000000000000000e+000) (0, 0, 0.00000000000000000000e+000) (0, 0, 0.00000000000000000000e+000) (0, 0, 0.00000000000000000000e+000) (0, 0, 0.00000000000000000000e+000) (0, 0, 0.00000000000000000000e+000) (0, 0, 0.00000000000000000000e+000) (0, 0, 0.00000000000000000000e+000) (0, 0, 0.00000000000000000000e+000) (0, 0, 0.00000000000000000000e+000) (0, 0, 0.00000000000000000000e+000) (0, 0, 0.00000000000000000000e+000) (0, 0, 0.00000000000000000000e+000) (0, 0, 0.00000000000000000000e+000) (0, 0, 0.00000000000000000000e+000) (0, 0, 0.00000000000000000000e+000) (0, 0, 0.00000000000000000000e+000) (0, 0, 0.00000000000000000000e+000) (0, 0, 0.00000000000000000000e+000) (0, 0, 0.00000000000000000000e+000) (0, 0, 0.00000000000000000000e+000) (0, 0, 0.00000000000000000000e+000) (0, 0, 0.00000000000000000000e+000) (0, 0, 0.00000000000000000000e+000) (0, 0, 0.00000000000000000000e+000) (0, 0, 0.00000000000000000000e+000) (0, 0, 0.00000000000000000000e+000) (0, 0, 0.00000000000000000000e+000) (0, 0, 0.00000000000000000000e+000) (0, 0, 0.00000000000000000000e+000) (0, 0, 0.00000000000000000000e+000) (0, 0, 0.00000000000000000000e+000) (0, 0, 0.00000000000000000000e+000) (0, 0, 0.00000000000000000000e+000) (0, 0, 0.00000000000000000000e+000) (0, 0, 0.00000000000000000000e+000) (0, 0, 0.00000000000000000000e+000) (0, 0, 0.00000000000000000000e+000) (0, 0, 0.00000000000000000000e+000) (0, 0, 0.00000000000000000000e+000) (0, 0, 0.00000000000000000000e+000) (0, 0, 0.00000000000000000000e+000) (0, 0, 0.00000000000000000000e+000) (0, 0, 0.00000000000000000000e+000) (0, 0, 0.00000000000000000000e+000) (0, 0, 0.00000000000000000000e+000) (0, 0, 0.00000000000000000000e+000) (0, 0, 0.00000000000000000000e+000) (0, 0, 0.00000000000000000000e+000) (0, 0, 0.00000000000000000000e+000) (0, 0, 0.00000000000000000000e+000) (0, 0, 0.00000000000000000000e+000) (0, 0, 0.00000000000000000000e+000) (0, 0, 0.00000000000000000000e+000) (0, 0, 0.00000000000000000000e+000) (0, 0, 0.00000000000000000000e+000) (0, 0, 0.00000000000000000000e+000) (0, 0, 0.00000000000000000000e+000) (0, 0, 0.00000000000000000000e+000) (0, 0, 0.00000000000000000000e+000) (0, 0, 0.00000000000000000000e+000) (0, 0, 0.00000000000000000000e+000) (0, 0, 0.00000000000000000000e+000) (0, 0, 0.00000000000000000000e+000) (0, 0, 0.00000000000000000000e+000) (0, 0, 0.00000000000000000000e+000) (0, 0, 0.00000000000000000000e+000) (0, 0, 0.00000000000000000000e+000) (0, 0, 0.00000000000000000000e+000) (0, 0, 0.00000000000000000000e+000) (0, 0, 0.00000000000000000000e+000) (0, 0, 0.00000000000000000000e+000) (0, 0, 0.00000000000000000000e+000) (0, 0, 0.00000000000000000000e+000) (0, 0, 0.00000000000000000000e+000) (0, 0, 0.00000000000000000000e+000) (0, 0, 0.00000000000000000000e+000) (0, 0, 0.00000000000000000000e+000) (0, 0, 0.00000000000000000000e+000) (0, 0, 0.00000000000000000000e+000) (0, 0, 0.00000000000000000000e+000) (0, 0, 0.00000000000000000000e+000) (0, 0, 0.00000000000000000000e+000) (0, 0, 0.00000000000000000000e+000) (0, 0, 0.00000000000000000000e+000) (0, 0, 0.00000000000000000000e+000) (0, 0, 0.00000000000000000000e+000) (0, 0, 0.00000000000000000000e+000) (0, 0, 0.00000000000000000000e+000) (0, 0, 0.00000000000000000000e+000) (0, 0, 0.00000000000000000000e+000) (0, 0, 0.00000000000000000000e+000) (0, 0, 0.00000000000000000000e+000) (0, 0, 0.00000000000000000000e+000) (0, 0, 0.00000000000000000000e+000) (0, 0, 0.00000000000000000000e+000) (0, 0, 0.00000000000000000000e+000) (0, 0, 0.00000000000000000000e+000) (0, 0, 0.00000000000000000000e+000) (0, 0, 0.00000000000000000000e+000) (0, 0, 0.00000000000000000000e+000) (0, 0, 0.00000000000000000000e+000) (0, 0, 0.00000000000000000000e+000) (0, 0, 0.00000000000000000000e+000) (0, 0, 0.00000000000000000000e+000) (0, 0, 0.00000000000000000000e+000) (0, 0, 0.00000000000000000000e+000) (0, 0, 0.00000000000000000000e+000) (0, 0, 0.00000000000000000000e+000) (0, 0, 0.00000000000000000000e+000) (0, 0, 0.00000000000000000000e+000) (0, 0, 0.00000000000000000000e+000) (0, 0, 0.00000000000000000000e+000) (0, 0, 0.00000000000000000000e+000) (0, 0, 0.00000000000000000000e+000) (0, 0, 0.00000000000000000000e+000) (0, 0, 0.00000000000000000000e+000) (0, 0, 0.00000000000000000000e+000) (0, 0, 0.00000000000000000000e+000) (0, 0, 0.00000000000000000000e+000) (0, 0, 0.00000000000000000000e+000) (0, 0, 0.00000000000000000000e+000) (0, 0, 0.00000000000000000000e+000) (0, 0, 0.00000000000000000000e+000) (0, 0, 0.00000000000000000000e+000) (0, 0, 0.00000000000000000000e+000) (0, 0, 0.00000000000000000000e+000) (0, 0, 0.00000000000000000000e+000) (0, 0, 0.00000000000000000000e+000) (0, 0, 0.00000000000000000000e+000) (0, 0, 0.00000000000000000000e+000) (0, 0, 0.00000000000000000000e+000) (0, 0, 0.00000000000000000000e+000) (0, 0, 0.00000000000000000000e+000) (0, 0, 0.00000000000000000000e+000) (0, 0, 0.00000000000000000000e+000) (0, 0, 0.00000000000000000000e+000) (0, 0, 0.00000000000000000000e+000) (0, 0, 0.00000000000000000000e+000) (0, 0, 0.00000000000000000000e+000) (0, 0, 0.00000000000000000000e+000) (0, 0, 0.00000000000000000000e+000) (0, 0, 0.00000000000000000000e+000) (0, 0, 0.00000000000000000000e+000) (0, 0, 0.00000000000000000000e+000) (0, 0, 0.00000000000000000000e+000) (0, 0, 0.00000000000000000000e+000) (0, 0, 0.00000000000000000000e+000) (0, 0, 0.00000000000000000000e+000) (0, 0, 0.00000000000000000000e+000) (0, 0, 0.00000000000000000000e+000) (0, 0, 0.00000000000000000000e+000) (0, 0, 0.00000000000000000000e+000) (0, 0, 0.00000000000000000000e+000) (0, 0, 0.00000000000000000000e+000) (0, 0, 0.00000000000000000000e+000) (0, 0, 0.00000000000000000000e+000) (0, 0, 0.00000000000000000000e+000) (0, 0, 0.00000000000000000000e+000) (0, 0, 0.00000000000000000000e+000) (0, 0, 0.00000000000000000000e+000) (0, 0, 0.00000000000000000000e+000) (0, 0, 0.00000000000000000000e+000) (0, 0, 0.00000000000000000000e+000) (0, 0, 0.00000000000000000000e+000) (0, 0, 0.00000000000000000000e+000) (0, 0, 0.00000000000000000000e+000) (0, 0, 0.00000000000000000000e+000) (0, 0, 0.00000000000000000000e+000) (0, 0, 0.00000000000000000000e+000) (0, 0, 0.00000000000000000000e+000) (0, 0, 0.00000000000000000000e+000) (0, 0, 0.00000000000000000000e+000) (0, 0, 0.00000000000000000000e+000) (0, 0, 0.00000000000000000000e+000) (0, 0, 0.00000000000000000000e+000) (0, 0, 0.00000000000000000000e+000) (0, 0, 0.00000000000000000000e+000) (0, 0, 0.00000000000000000000e+000) (0, 0, 0.00000000000000000000e+000) (0, 0, 0.00000000000000000000e+000) (0, 0, 0.00000000000000000000e+000) (0, 0, 0.00000000000000000000e+000) (0, 0, 0.00000000000000000000e+000) (0, 0, 0.00000000000000000000e+000) (0, 0, 0.00000000000000000000e+000) (0, 0, 0.00000000000000000000e+000) (0, 0, 0.00000000000000000000e+000) (0, 0, 0.00000000000000000000e+000) (0, 0, 0.00000000000000000000e+000) (0, 0, 0.00000000000000000000e+000) (0, 0, 0.00000000000000000000e+000) (0, 0, 0.00000000000000000000e+000) (0, 0, 0.00000000000000000000e+000) (0, 0, 0.00000000000000000000e+000) (0, 0, 0.00000000000000000000e+000) (0, 0, 0.00000000000000000000e+000) (0, 0, 0.00000000000000000000e+000) (0, 0, 0.00000000000000000000e+000) (0, 0, 0.00000000000000000000e+000) (0, 0, 0.00000000000000000000e+000) (0, 0, 0.00000000000000000000e+000) (0, 0, 0.00000000000000000000e+000) (0, 0, 0.00000000000000000000e+000) (0, 0, 0.00000000000000000000e+000) (0, 0, 0.00000000000000000000e+000) (0, 0, 0.00000000000000000000e+000) (0, 0, 0.00000000000000000000e+000) (0, 0, 0.00000000000000000000e+000) (0, 0, 0.00000000000000000000e+000) (0, 0, 0.00000000000000000000e+000) (0, 0, 0.00000000000000000000e+000) (0, 0, 0.00000000000000000000e+000) (0, 0, 0.00000000000000000000e+000) (0, 0, 0.00000000000000000000e+000) (0, 0, 0.00000000000000000000e+000) (0, 0, 0.00000000000000000000e+000) (0, 0, 0.00000000000000000000e+000) (0, 0, 0.00000000000000000000e+000) (0, 0, 0.00000000000000000000e+000) (0, 0, 0.00000000000000000000e+000) (0, 0, 0.00000000000000000000e+000) (0, 0, 0.00000000000000000000e+000) (0, 0, 0.00000000000000000000e+000) (0, 0, 0.00000000000000000000e+000) (0, 0, 0.00000000000000000000e+000) (0, 0, 0.00000000000000000000e+000) (0, 0, 0.00000000000000000000e+000) (0, 0, 0.00000000000000000000e+000) (0, 0, 0.00000000000000000000e+000) (0, 0, 0.00000000000000000000e+000) (0, 0, 0.00000000000000000000e+000) (0, 0, 0.00000000000000000000e+000) (0, 0, 0.00000000000000000000e+000) (0, 0, 0.00000000000000000000e+000) (0, 0, 0.00000000000000000000e+000) (0, 0, 0.00000000000000000000e+000) (0, 0, 0.00000000000000000000e+000) (0, 0, 0.00000000000000000000e+000) (0, 0, 0.00000000000000000000e+000) (0, 0, 0.00000000000000000000e+000) (0, 0, 0.00000000000000000000e+000) (0, 0, 0.00000000000000000000e+000) (0, 0, 0.00000000000000000000e+000) (0, 0, 0.00000000000000000000e+000) (0, 0, 0.00000000000000000000e+000) (0, 0, 0.00000000000000000000e+000) (0, 0, 0.00000000000000000000e+000) (0, 0, 0.00000000000000000000e+000) (0, 0, 0.00000000000000000000e+000) (0, 0, 0.00000000000000000000e+000) (0, 0, 0.00000000000000000000e+000) (0, 0, 0.00000000000000000000e+000) (0, 0, 0.00000000000000000000e+000) (0, 0, 0.00000000000000000000e+000) (0, 0, 0.00000000000000000000e+000) (0, 0, 0.00000000000000000000e+000) (0, 0, 0.00000000000000000000e+000) (0, 0, 0.00000000000000000000e+000) (0, 0, 0.00000000000000000000e+000) (0, 0, 0.00000000000000000000e+000) (0, 0, 0.00000000000000000000e+000) (0, 0, 0.00000000000000000000e+000) (0, 0, 0.00000000000000000000e+000) (0, 0, 0.00000000000000000000e+000) (0, 0, 0.00000000000000000000e+000) (0, 0, 0.00000000000000000000e+000) (0, 0, 0.00000000000000000000e+000) (0, 0, 0.00000000000000000000e+000) (0, 0, 0.00000000000000000000e+000) (0, 0, 0.00000000000000000000e+000) (0, 0, 0.00000000000000000000e+000) (0, 0, 0.00000000000000000000e+000) (0, 0, 0.00000000000000000000e+000) (0, 0, 0.00000000000000000000e+000) (0, 0, 0.00000000000000000000e+000) (0, 0, 0.00000000000000000000e+000) (0, 0, 0.00000000000000000000e+000) (0, 0, 0.00000000000000000000e+000) (0, 0, 0.00000000000000000000e+000) (0, 0, 0.00000000000000000000e+000) (0, 0, 0.00000000000000000000e+000) (0, 0, 0.00000000000000000000e+000) (0, 0, 0.00000000000000000000e+000) (0, 0, 0.00000000000000000000e+000) (0, 0, 0.00000000000000000000e+000) (0, 0, 0.00000000000000000000e+000) (0, 0, 0.00000000000000000000e+000) (0, 0, 0.00000000000000000000e+000) (0, 0, 0.00000000000000000000e+000) (0, 0, 0.00000000000000000000e+000) (0, 0, 0.00000000000000000000e+000) (0, 0, 0.00000000000000000000e+000) (0, 0, 0.00000000000000000000e+000) (0, 0, 0.00000000000000000000e+000) (0, 0, 0.00000000000000000000e+000) (0, 0, 0.00000000000000000000e+000) (0, 0, 0.00000000000000000000e+000) (0, 0, 0.00000000000000000000e+000) (0, 0, 0.00000000000000000000e+000) (0, 0, 0.00000000000000000000e+000) (0, 0, 0.00000000000000000000e+000) (0, 0, 0.00000000000000000000e+000) (0, 0, 0.00000000000000000000e+000) (0, 0, 0.00000000000000000000e+000) (0, 0, 0.00000000000000000000e+000) (0, 0, 0.00000000000000000000e+000) (0, 0, 0.00000000000000000000e+000) (0, 0, 0.00000000000000000000e+000) (0, 0, 0.00000000000000000000e+000) (0, 0, 0.00000000000000000000e+000) (0, 0, 0.00000000000000000000e+000) (0, 0, 0.00000000000000000000e+000) (0, 0, 0.00000000000000000000e+000) (0, 0, 0.00000000000000000000e+000) (0, 0, 0.00000000000000000000e+000) (0, 0, 0.00000000000000000000e+000) (0, 0, 0.00000000000000000000e+000) (0, 0, 0.00000000000000000000e+000) (0, 0, 0.00000000000000000000e+000) (0, 0, 0.00000000000000000000e+000) (0, 0, 0.00000000000000000000e+000) (0, 0, 0.00000000000000000000e+000) (0, 0, 0.00000000000000000000e+000) (0, 0, 0.00000000000000000000e+000) (0, 0, 0.00000000000000000000e+000) (0, 0, 0.00000000000000000000e+000) (0, 0, 0.00000000000000000000e+000) (0, 0, 0.00000000000000000000e+000) (0, 0, 0.00000000000000000000e+000) (0, 0, 0.00000000000000000000e+000) (0, 0, 0.00000000000000000000e+000) (0, 0, 0.00000000000000000000e+000) (0, 0, 0.00000000000000000000e+000) (0, 0, 0.00000000000000000000e+000) (0, 0, 0.00000000000000000000e+000) (0, 0, 0.00000000000000000000e+000) (0, 0, 0.00000000000000000000e+000) (0, 0, 0.00000000000000000000e+000) (0, 0, 0.00000000000000000000e+000) (0, 0, 0.00000000000000000000e+000) (0, 0, 0.00000000000000000000e+000) (0, 0, 0.00000000000000000000e+000) (0, 0, 0.00000000000000000000e+000) (0, 0, 0.00000000000000000000e+000) (0, 0, 0.00000000000000000000e+000) (0, 0, 0.00000000000000000000e+000) (0, 0, 0.00000000000000000000e+000) (0, 0, 0.00000000000000000000e+000) (0, 0, 0.00000000000000000000e+000) (0, 0, 0.00000000000000000000e+000) (0, 0, 0.00000000000000000000e+000) (0, 0, 0.00000000000000000000e+000) (0, 0, 0.00000000000000000000e+000) (0, 0, 0.00000000000000000000e+000) (0, 0, 0.00000000000000000000e+000) (0, 0, 0.00000000000000000000e+000) (0, 0, 0.00000000000000000000e+000) (0, 0, 0.00000000000000000000e+000) (0, 0, 0.00000000000000000000e+000) (0, 0, 0.00000000000000000000e+000) (0, 0, 0.00000000000000000000e+000) (0, 0, 0.00000000000000000000e+000) (0, 0, 0.00000000000000000000e+000) (0, 0, 0.00000000000000000000e+000) (0, 0, 0.00000000000000000000e+000) (0, 0, 0.00000000000000000000e+000) (0, 0, 0.00000000000000000000e+000) (0, 0, 0.00000000000000000000e+000) (0, 0, 0.00000000000000000000e+000) (0, 0, 0.00000000000000000000e+000) (0, 0, 0.00000000000000000000e+000) (0, 0, 0.00000000000000000000e+000) (0, 0, 0.00000000000000000000e+000) (0, 0, 0.00000000000000000000e+000) (0, 0, 0.00000000000000000000e+000) (0, 0, 0.00000000000000000000e+000) (0, 0, 0.00000000000000000000e+000) (0, 0, 0.00000000000000000000e+000) (0, 0, 0.00000000000000000000e+000) (0, 0, 0.00000000000000000000e+000) (0, 0, 0.00000000000000000000e+000) (0, 0, 0.00000000000000000000e+000) (0, 0, 0.00000000000000000000e+000) (0, 0, 0.00000000000000000000e+000) (0, 0, 0.00000000000000000000e+000) (0, 0, 0.00000000000000000000e+000) (0, 0, 0.00000000000000000000e+000) (0, 0, 0.00000000000000000000e+000) (0, 0, 0.00000000000000000000e+000) (0, 0, 0.00000000000000000000e+000) (0, 0, 0.00000000000000000000e+000) (0, 0, 0.00000000000000000000e+000) (0, 0, 0.00000000000000000000e+000) (0, 0, 0.00000000000000000000e+000) (0, 0, 0.00000000000000000000e+000) (0, 0, 0.00000000000000000000e+000) (0, 0, 0.00000000000000000000e+000) (0, 0, 0.00000000000000000000e+000) (0, 0, 0.00000000000000000000e+000) (0, 0, 0.00000000000000000000e+000) (0, 0, 0.00000000000000000000e+000) (0, 0, 0.00000000000000000000e+000) (0, 0, 0.00000000000000000000e+000) (0, 0, 0.00000000000000000000e+000) (0, 0, 0.00000000000000000000e+000) (0, 0, 0.00000000000000000000e+000) (0, 0, 0.00000000000000000000e+000) (0, 0, 0.00000000000000000000e+000) (0, 0, 0.00000000000000000000e+000) (0, 0, 0.00000000000000000000e+000) (0, 0, 0.00000000000000000000e+000) (0, 0, 0.00000000000000000000e+000) (0, 0, 0.00000000000000000000e+000) (0, 0, 0.00000000000000000000e+000) (0, 0, 0.00000000000000000000e+000) (0, 0, 0.00000000000000000000e+000) (0, 0, 0.00000000000000000000e+000) (0, 0, 0.00000000000000000000e+000) (0, 0, 0.00000000000000000000e+000) (0, 0, 0.00000000000000000000e+000) (0, 0, 0.00000000000000000000e+000) (0, 0, 0.00000000000000000000e+000) (0, 0, 0.00000000000000000000e+000) (0, 0, 0.00000000000000000000e+000) (0, 0, 0.00000000000000000000e+000) (0, 0, 0.00000000000000000000e+000) (0, 0, 0.00000000000000000000e+000) (0, 0, 0.00000000000000000000e+000) (0, 0, 0.00000000000000000000e+000) (0, 0, 0.00000000000000000000e+000) (0, 0, 0.00000000000000000000e+000) (0, 0, 0.00000000000000000000e+000) (0, 0, 0.00000000000000000000e+000) (0, 0, 0.00000000000000000000e+000) (0, 0, 0.00000000000000000000e+000) (0, 0, 0.00000000000000000000e+000) (0, 0, 0.00000000000000000000e+000) (0, 0, 0.00000000000000000000e+000) (0, 0, 0.00000000000000000000e+000) (0, 0, 0.00000000000000000000e+000) (0, 0, 0.00000000000000000000e+000) (0, 0, 0.00000000000000000000e+000) (0, 0, 0.00000000000000000000e+000) (0, 0, 0.00000000000000000000e+000) (0, 0, 0.00000000000000000000e+000) (0, 0, 0.00000000000000000000e+000) (0, 0, 0.00000000000000000000e+000) (0, 0, 0.00000000000000000000e+000) (0, 0, 0.00000000000000000000e+000) (0, 0, 0.00000000000000000000e+000) (0, 0, 0.00000000000000000000e+000) (0, 0, 0.00000000000000000000e+000) (0, 0, 0.00000000000000000000e+000) (0, 0, 0.00000000000000000000e+000) (0, 0, 0.00000000000000000000e+000) (0, 0, 0.00000000000000000000e+000) (0, 0, 0.00000000000000000000e+000) (0, 0, 0.00000000000000000000e+000) (0, 0, 0.00000000000000000000e+000) (0, 0, 0.00000000000000000000e+000) (0, 0, 0.00000000000000000000e+000) (0, 0, 0.00000000000000000000e+000) (0, 0, 0.00000000000000000000e+000) (0, 0, 0.00000000000000000000e+000) (0, 0, 0.00000000000000000000e+000) (0, 0, 0.00000000000000000000e+000) (0, 0, 0.00000000000000000000e+000) (0, 0, 0.00000000000000000000e+000) (0, 0, 0.00000000000000000000e+000) (0, 0, 0.00000000000000000000e+000) (0, 0, 0.00000000000000000000e+000) (0, 0, 0.00000000000000000000e+000) (0, 0, 0.00000000000000000000e+000) (0, 0, 0.00000000000000000000e+000) (0, 0, 0.00000000000000000000e+000) (0, 0, 0.00000000000000000000e+000) (0, 0, 0.00000000000000000000e+000) (785, 3, 5.00000000000000000000e-001) (785, 3, 5.00000000000000000000e-001) (785, 3, 5.00000000000000000000e-001) (785, 3, 5.00000000000000000000e-001) (785, 3, 5.00000000000000000000e-001) (785, 3, 5.00000000000000000000e-001) (785, 3, 5.00000000000000000000e-001) (785, 3, 5.00000000000000000000e-001) (785, 3, 5.00000000000000000000e-001) (785, 3, 5.00000000000000000000e-001) (785, 3, 5.00000000000000000000e-001) (785, 3, 5.00000000000000000000e-001) (785, 3, 5.00000000000000000000e-001) (785, 3, 5.00000000000000000000e-001) (785, 3, 5.00000000000000000000e-001) (785, 3, 5.00000000000000000000e-001) (785, 3, 5.00000000000000000000e-001) (785, 3, 5.00000000000000000000e-001) (785, 3, 5.00000000000000000000e-001) (785, 3, 5.00000000000000000000e-001) (785, 3, 5.00000000000000000000e-001) (785, 3, 5.00000000000000000000e-001) (785, 3, 5.00000000000000000000e-001) (785, 3, 5.00000000000000000000e-001) (785, 3, 5.00000000000000000000e-001) (785, 3, 5.00000000000000000000e-001) (785, 3, 5.00000000000000000000e-001) (785, 3, 5.00000000000000000000e-001) (785, 3, 5.00000000000000000000e-001) (785, 3, 5.00000000000000000000e-001) (0, 3, 0.00000000000000000000e+000) (31, 3, 5.00000000000000000000e-001) (31, 3, 5.00000000000000000000e-001) (31, 3, 5.00000000000000000000e-001) (31, 3, 5.00000000000000000000e-001) (31, 3, 5.00000000000000000000e-001) (31, 3, 5.00000000000000000000e-001) (31, 3, 5.00000000000000000000e-001) (31, 3, 5.00000000000000000000e-001) (31, 3, 5.00000000000000000000e-001) (31, 3, 5.00000000000000000000e-001) (0, 3, 0.00000000000000000000e+000) 
connections (connected_to_neuron, weight)=(0, -5.58349617695057530000e-002) (1, -1.23352052619338790000e-002) (2, 4.16931158556508310000e-002) (3, -7.48535167404043020000e-002) (4, 4.08081060768381580000e-002) (5, -1.21704103376032440000e-002) (6, -1.15234376717126000000e-002) (7, -9.79003920838295020000e-003) (8, 8.75549329452951500000e-002) (9, 4.71740729685734550000e-002) (10, 3.55407720139737650000e-002) (11, -9.77355971594988660000e-002) (12, 4.79457920476061760000e+006) (13, 1.03562910772810330000e+008) (14, 1.03562910767988550000e+008) (15, 4.31512120169425940000e+006) (16, 6.26586923399372610000e-002) (17, 4.67285163213091440000e-002) (18, -7.12829600465738620000e-002) (19, -5.19836433527416380000e-002) (20, 9.07287611175888740000e-002) (21, -2.84118656577447840000e-002) (22, -3.04931645168835530000e-002) (23, 5.17822273341153050000e-002) (24, 8.41918957858069920000e-002) (25, -7.26745616298103410000e-002) (26, -5.72448738998900810000e-002) (27, 6.41967783003565270000e-002) (28, 8.99108900116516450000e-002) (29, 6.28906259371433410000e-002) (30, 3.29223637718314420000e-002) (31, 3.78295904074548160000e-002) (32, 3.23303227473843440000e-002) (33, -1.62409612290656450000e+006) (34, -2.05559886890333620000e+008) (35, -4.81626705589239060000e+008) (36, -5.12606421381959860000e+008) (37, -4.84744664129380400000e+008) (38, -6.03968308926482680000e+008) (39, -7.14327702447866920000e+008) (40, -1.26593379395773530000e+009) (41, -7.98949036404028650000e+008) (42, -2.86071114362282750000e+008) (43, -5.84906032801625250000e+008) (44, -7.40776446593207000000e+008) (45, -2.63517336934559290000e+008) (46, 3.98840364008224830000e+007) (47, -2.61634597041196040000e+007) (48, -1.83231690725314360000e+007) (49, -1.70789684511187020000e+008) (50, -2.26907309006549720000e+008) (51, -1.13227460547541800000e+008) (52, -7.07092295692746120000e-002) (53, 4.66308600698539520000e-002) (54, -6.22131356926729500000e-002) (55, 6.98425303376097870000e-002) (56, -4.80407722002382800000e-002) (57, 8.62854016763776600000e-002) (58, -5.32836922002388750000e-003) (59, -3.75890033722605780000e+007) (60, -2.95121875008190010000e+007) (61, 2.60358590951342580000e+007) (62, -7.03519457054324000000e+007) (63, -7.83193421749348760000e+008) (64, 1.56141512771933710000e+007) (65, 4.90901808697788360000e+008) (66, -1.51288649473235040000e+008) (67, -1.93920057490616940000e+009) (68, -2.90742088440192940000e+009) (69, -3.68160815784513470000e+009) (70, -3.26222799325302930000e+009) (71, -5.20593354012526230000e+009) (72, -1.64745470665226700000e+009) (73, 1.41172100115979360000e+009) (74, 9.74847545704329850000e+008) (75, 1.20229856507171770000e+009) (76, 1.74775052548279170000e+009) (77, 9.35572059449990270000e+008) (78, 4.70478057114231770000e+008) (79, 4.58102772509526070000e+008) (80, 1.86781830038381580000e+008) (81, 8.23598435012372560000e+005) (82, 5.20996101513446770000e-002) (83, -2.61840824214232270000e-003) (84, -3.46618657508770410000e-002) (85, 3.58642583469190870000e-002) (86, -3.57764645946035240000e+007) (87, -7.01103978271269800000e+007) (88, 3.01932942220873270000e+007) (89, -3.46464760446741160000e+008) (90, -7.47779851476659060000e+008) (91, -6.25663047828102470000e+008) (92, 1.24877623422400310000e+009) (93, 3.60564587104100700000e+009) (94, 4.12135600091628030000e+009) (95, 1.00090518104483030000e+009) (96, -5.68525576489358710000e+009) (97, -1.03446374544500500000e+010) (98, -1.03964148276637650000e+010) (99, -5.17929059838617990000e+009) (100, 7.67142395878633590000e+009) (101, 1.38766647463912640000e+010) (102, 1.81749217257830310000e+010) (103, 1.96930377157899780000e+010) (104, 1.59661880717456820000e+010) (105, 1.07096423606405280000e+010) (106, 5.41692878775341420000e+009) (107, 2.47153850288347050000e+009) (108, 1.06782654561858530000e+009) (109, 3.64125504413004270000e+006) (110, 1.16602639896171940000e+008) (111, -8.51318372060632100000e-002) (112, -3.98071294994224440000e-002) (113, -5.48195530547515400000e+006) (114, -1.19035154909213890000e+008) (115, -1.46885720308401140000e+008) (116, -1.27732952074866950000e+008) (117, -1.15171168704327900000e+008) (118, 6.94669394013209700000e+008) (119, 3.48149393198752980000e+009) (120, 4.09160342851057050000e+009) (121, 4.73958971501656720000e+009) (122, -1.78080117567314120000e+009) (123, -1.02499803051061360000e+010) (124, -2.02207256503120380000e+010) (125, -2.72794622476301960000e+010) (126, -2.88685562607135850000e+010) (127, -1.78440661280759960000e+010) (128, 4.48261277092658040000e+009) (129, 1.74721513218106920000e+010) (130, 2.39927193031185720000e+010) (131, 2.21488300550709950000e+010) (132, 1.80779067645184560000e+010) (133, 9.56134180774066930000e+009) (134, 7.81294240877209570000e+009) (135, 6.71514544997045800000e+009) (136, 4.06434963425300460000e+009) (137, 8.25436519159431580000e+008) (138, -2.85465017356238190000e+008) (139, 3.18159647263998580000e+006) (140, -1.63574221187445800000e-003) (141, 3.45153813736942540000e-002) (142, 4.66053447347203120000e+007) (143, -4.90161645053452730000e+008) (144, -1.19088286959816230000e+008) (145, 1.98577913354871150000e+009) (146, 8.43662291795646950000e+009) (147, 1.59718290913765850000e+010) (148, 2.39458349212799150000e+010) (149, 3.00265520585528450000e+010) (150, 1.99155591583393750000e+010) (151, -1.53232391376852630000e+009) (152, -1.77006350828884740000e+010) (153, -1.83715060913459210000e+010) (154, 2.00211957879309940000e+009) (155, 2.82070211095734750000e+010) (156, 6.63017492486711040000e+010) (157, 7.95260123322426450000e+010) (158, 6.55955854580780490000e+010) (159, 4.65560271457211000000e+010) (160, 3.22697074938281140000e+010) (161, 2.09910040788689540000e+010) (162, 2.60817473377183650000e+010) (163, 2.83789312410868570000e+010) (164, 1.35095545501113660000e+010) (165, 3.82289153576831100000e+009) (166, 1.06217303504414220000e+008) (167, 1.20774701920728800000e+008) (168, 9.78759780209657040000e-002) (169, 5.04644830898702060000e+004) (170, -1.06859525497364660000e+008) (171, -1.12392351137441370000e+009) (172, 9.02885226969206810000e+008) (173, 9.72086282251443670000e+009) (174, 1.77768384852590680000e+010) (175, 2.96825821352726780000e+010) (176, 3.63775334569465410000e+010) (177, 3.59699676611145550000e+010) (178, 1.16413092015017450000e+010) (179, -2.16218200838161240000e+010) (180, -4.46065770749362340000e+010) (181, -5.41867531968167110000e+010) (182, -5.94909426186011660000e+010) (183, -5.57302604499781040000e+010) (184, -2.50199647347165180000e+010) (185, -2.02835059035772490000e+009) (186, -1.76049789642068240000e+009) (187, 9.54714999562694740000e+009) (188, 1.27223488550873180000e+010) (189, 2.98062753307547990000e+010) (190, 5.24013112984573440000e+010) (191, 4.97167846235290910000e+010) (192, 2.40875494264495240000e+010) (193, 6.27620875287419890000e+009) (194, 7.44616211634317160000e+008) (195, 2.32365480857365640000e+008) (196, -3.46669696529388250000e+005) (197, 2.40750611597283970000e+007) (198, -1.99724171915364000000e+008) (199, -2.42829366714480610000e+008) (200, 2.41461206801813080000e+009) (201, 1.68117766950086060000e+010) (202, 2.98322581104908680000e+010) (203, 3.63317532917862780000e+010) (204, 3.31734591359923320000e+010) (205, 2.00193531760073320000e+010) (206, -1.18193597808419740000e+010) (207, -3.94995808976050490000e+010) (208, -7.28019629207909700000e+010) (209, -1.03322550227206150000e+011) (210, -1.37298455635027560000e+011) (211, -1.42148457379433290000e+011) (212, -1.10743566318341170000e+011) (213, -6.66554240909785840000e+010) (214, -4.57902599374118800000e+010) (215, -2.48769369286197850000e+010) (216, -1.54912039726010230000e+010) (217, 1.26636036660269200000e+010) (218, 3.58239683130956500000e+010) (219, 3.50501159141247100000e+010) (220, 1.94673080145873760000e+010) (221, 4.90634838265260310000e+009) (222, 5.70932656358539460000e+008) (223, 2.03982520420872180000e+008) (224, 1.35282765266981550000e+007) (225, 1.45671628865538610000e+007) (226, -1.75308373352680770000e+008) (227, -4.70386411335613490000e+008) (228, 2.11852213811702040000e+009) (229, 1.79443269561680720000e+010) (230, 2.63643265271951480000e+010) (231, 2.69297984419523740000e+010) (232, 1.37478777982274780000e+010) (233, 9.38913997511406140000e+009) (234, -1.27738844368053570000e+010) (235, -3.20841243682425420000e+010) (236, -6.30612537834085850000e+010) (237, -9.63168192947776030000e+010) (238, -1.31173370205627140000e+011) (239, -1.23376166485413930000e+011) (240, -9.17854042811988220000e+010) (241, -5.81530341532500840000e+010) (242, -4.18769109283964540000e+010) (243, -1.83225330798413540000e+010) (244, -1.22403515221688160000e+010) (245, -3.47886075115055560000e+009) (246, 6.62627310420259480000e+009) (247, 1.29471619044769150000e+010) (248, 5.52887600352386190000e+009) (249, -2.12627325113404730000e+007) (250, -2.10989415041813950000e+009) (251, -2.91184554078169350000e+008) (252, 2.12871149779463630000e+007) (253, 7.60795500671934780000e+007) (254, 1.68004000280471090000e+008) (255, -1.56683316470069190000e+009) (256, 1.62365808747651600000e+009) (257, 1.16366123627044200000e+010) (258, 6.09992507955382350000e+009) (259, 2.60450782399313690000e+009) (260, -6.34231125349236110000e+009) (261, -1.02805717658167380000e+010) (262, -2.03803045184354630000e+010) (263, -4.01344852376970600000e+010) (264, -4.15204766648703230000e+010) (265, -5.41816262426139910000e+010) (266, -9.71327654800252530000e+010) (267, -9.35688979929453580000e+010) (268, -4.70665099468176880000e+010) (269, -2.49884288957585180000e+010) (270, -7.18576735329868130000e+009) (271, -3.12927375733438970000e+009) (272, -1.32158773734942280000e+010) (273, -1.66190454790472680000e+010) (274, -1.93307098180002670000e+010) (275, -1.32624408433414610000e+010) (276, -1.04502237614821470000e+010) (277, -8.24076366805676170000e+009) (278, -4.03781636896783020000e+009) (279, -3.78932614161001860000e+008) (280, 5.16007096155103670000e+007) (281, 9.31042613080824020000e+007) (282, -2.26859585279795500000e+008) (283, -1.04186050503055330000e+009) (284, -3.64279619561216970000e+009) (285, -9.16003088364956670000e+009) (286, -1.91709899207504350000e+010) (287, -2.62238328354458430000e+010) (288, -3.55306745692125550000e+010) (289, -2.55868995250847510000e+010) (290, -3.89845478338739470000e+010) (291, -4.10229243937788620000e+010) (292, -9.52294649731977460000e+009) (293, -2.76935060244867670000e+010) (294, -9.66704435079969790000e+010) (295, -9.28226158545521550000e+010) (296, -4.37040079887281110000e+010) (297, -1.45337145777386090000e+010) (298, -5.80483282138159750000e+009) (299, -1.34681464941734180000e+010) (300, -2.61092429282910230000e+010) (301, -3.79463381723863070000e+010) (302, -3.98221121084289470000e+010) (303, -3.39126372967389300000e+010) (304, -1.57346948261652640000e+010) (305, -9.80112759629675670000e+009) (306, -3.22641087025102710000e+009) (307, -3.37629220216271700000e+008) (308, 4.61794325878620000000e+007) (309, 1.11227759921601830000e+008) (310, -8.19703232635358100000e+008) (311, -2.56721279928391740000e+009) (312, -1.48565802977002220000e+010) (313, -2.89708047511171070000e+010) (314, -3.89861146874645310000e+010) (315, -4.46789400963814470000e+010) (316, -4.24389416285558170000e+010) (317, -3.42105548438034710000e+010) (318, -2.60421133243520550000e+010) (319, -4.17378271483935120000e+009) (320, 1.92187802809040950000e+010) (321, -4.19569173399672390000e+010) (322, -1.17751840055385710000e+011) (323, -1.08186119989408740000e+011) (324, -2.91728141088544350000e+010) (325, -1.49370939708349760000e+010) (326, -3.50387619576796040000e+010) (327, -4.70419529983930820000e+010) (328, -5.51121269506052780000e+010) (329, -4.88840115728141940000e+010) (330, -4.32573611802268070000e+010) (331, -2.34829651622196880000e+010) (332, -1.12972903604192390000e+010) (333, -4.66756821949254700000e+009) (334, -8.98398136619153380000e+008) (335, -1.54519122030240800000e+008) (336, 4.64201014974513580000e+007) (337, -1.40897272849073560000e+008) (338, -8.14839957868526220000e+008) (339, -5.74312465512728690000e+009) (340, -2.44518876554097600000e+010) (341, -3.61038102858642580000e+010) (342, -3.37475889024596980000e+010) (343, -2.98496128629156380000e+010) (344, -2.34117269102928960000e+010) (345, -1.43547425972175480000e+010) (346, 1.49589113619423600000e+010) (347, 5.68701819051522450000e+010) (348, 4.95883893776904450000e+010) (349, -4.17906401351169050000e+010) (350, -1.26333519471621150000e+011) (351, -9.71245672660487060000e+010) (352, -1.33883096016546630000e+010) (353, -2.72099792429940910000e+010) (354, -4.74010296025932460000e+010) (355, -5.46857311151962510000e+010) (356, -5.15311802677607190000e+010) (357, -3.30543972074263460000e+010) (358, -2.19408465725905990000e+010) (359, -8.00147674085138610000e+009) (360, 1.44627708162997890000e+009) (361, -5.88969333988468410000e+008) (362, -4.36022875784654080000e+008) (363, -3.60158400978565450000e+008) (364, -2.19077336752638780000e+006) (365, -1.53925163694622870000e+008) (366, -9.47347543232319710000e+008) (367, -6.29675086276350210000e+009) (368, -2.35350076314065210000e+010) (369, -2.44160115778453290000e+010) (370, -5.73977008090665530000e+009) (371, 1.52602944649128910000e+009) (372, 1.49392044165657630000e+010) (373, 2.97548210712086300000e+010) (374, 6.47598439903202130000e+010) (375, 9.08341893509347690000e+010) (376, 3.85664354480719910000e+010) (377, -6.00913711449324800000e+010) (378, -1.10294673122002490000e+011) (379, -6.74852458982910770000e+010) (380, -2.27219598414748000000e+010) (381, -1.73168429207288890000e+010) (382, -2.90615307208532300000e+010) (383, -2.87463187712499430000e+010) (384, -9.96108705185138130000e+009) (385, -4.42184297282066440000e+009) (386, 8.38260932938700770000e+009) (387, 1.99384577736667590000e+010) (388, 1.28034257594305840000e+010) (389, 1.97758006330038830000e+009) (390, -7.41479385862044570000e+008) (391, -5.53880149187701820000e+008) (392, 7.33093272642690860000e-002) (393, -1.42594824070148590000e+008) (394, -4.70849181721041740000e+008) (395, -3.88527746065804240000e+009) (396, -8.79165469524321940000e+009) (397, 3.91420275924756380000e+009) (398, 2.93239757106445390000e+010) (399, 4.56226438908671340000e+010) (400, 4.48961403794849170000e+010) (401, 5.90708916908667760000e+010) (402, 7.98843332010323940000e+010) (403, 7.55260338372045750000e+010) (404, 2.31343831093952140000e+010) (405, -4.69466450121769640000e+010) (406, -6.36812280845480350000e+010) (407, -2.64068880987517010000e+010) (408, -5.78991381746598910000e+009) (409, 9.91073385905768590000e+009) (410, 9.29313922145886800000e+009) (411, 1.82985103813079910000e+010) (412, 2.42370602979645350000e+010) (413, 1.93579404101441500000e+010) (414, 3.03033840793055950000e+010) (415, 3.36997383847015800000e+010) (416, 1.81800813028273930000e+010) (417, 2.44409112274463990000e+009) (418, -9.07998702986058120000e+008) (419, -3.69035823042176440000e+007) (420, 1.56010711118356530000e+006) (421, -6.63043413697106760000e+007) (422, -5.71752887469623700000e+006) (423, -1.52382026492972020000e+009) (424, -2.59911738809743400000e+008) (425, 2.50976619151311380000e+010) (426, 5.12172947010978320000e+010) (427, 5.69131278796846540000e+010) (428, 6.60488490353632280000e+010) (429, 6.75314364069341430000e+010) (430, 6.78638000511838000000e+010) (431, 5.61882004941158980000e+010) (432, 2.48655793994348260000e+010) (433, -9.08286860259192660000e+009) (434, -2.83143741799607990000e+009) (435, 1.91545121253922540000e+010) (436, 2.50551389772044330000e+010) (437, 2.84786310130125160000e+010) (438, 2.62759433018538170000e+010) (439, 3.40728155918430290000e+010) (440, 3.05233013866683010000e+010) (441, 3.02985126106799810000e+010) (442, 3.44179516068770600000e+010) (443, 3.29174620963067590000e+010) (444, 1.78911547500355450000e+010) (445, 4.30840503102003670000e+009) (446, 5.88999605872925760000e+008) (447, 1.33547055102108260000e+008) (448, 8.91489741605242710000e+006) (449, -3.44892362825681870000e+007) (450, -2.09478537366980200000e+008) (451, -1.66622543467128130000e+009) (452, -1.28497230334914420000e+009) (453, 2.90997015592304950000e+010) (454, 5.82578216885234300000e+010) (455, 6.55663836198958590000e+010) (456, 6.14847035989580540000e+010) (457, 6.22169947018349690000e+010) (458, 5.02992431841644670000e+010) (459, 4.87791945042198260000e+010) (460, 4.11782393636227110000e+010) (461, 2.64557187346559100000e+010) (462, 3.90130925996334150000e+010) (463, 5.45500837935189290000e+010) (464, 5.00198884704121320000e+010) (465, 3.45906664692070160000e+010) (466, 3.67914572271265180000e+010) (467, 3.85696904925744780000e+010) (468, 4.18516395051702800000e+010) (469, 3.63834248013692930000e+010) (470, 2.82023201967146340000e+010) (471, 2.55677199514210780000e+010) (472, 1.67823940433672490000e+010) (473, 3.75601647783155730000e+009) (474, -1.29284296791100550000e+009) (475, -2.77433618961078410000e+008) (476, 5.85083016530916210000e-002) (477, -4.29076111857589150000e+006) (478, 4.12263321930004720000e+008) (479, -2.72505661665969660000e+009) (480, -8.26021163344959500000e+008) (481, 2.72795553143057140000e+010) (482, 5.29035340485259780000e+010) (483, 5.97704639622124710000e+010) (484, 5.49909384900682750000e+010) (485, 5.32190669410320590000e+010) (486, 4.28712675368658070000e+010) (487, 3.68608392565525740000e+010) (488, 3.46190917176000670000e+010) (489, 3.01290149090711060000e+010) (490, 4.17794610810326540000e+010) (491, 5.02359966561363300000e+010) (492, 5.13749494327488560000e+010) (493, 3.61315520383523480000e+010) (494, 3.24471793038513180000e+010) (495, 3.26041894037402690000e+010) (496, 3.78488329305283740000e+010) (497, 3.59475939576653520000e+010) (498, 2.43271805823575970000e+010) (499, 2.34510514073525350000e+010) (500, 1.43779508526938930000e+010) (501, 5.25473208357104110000e+009) (502, -3.73019121454181370000e+008) (503, -2.14653624125350480000e+008) (504, -1.78907974639090990000e+008) (505, -2.61400567564519360000e+006) (506, -2.98995067836204110000e+008) (507, -2.46318175045233680000e+009) (508, 5.38067448396031380000e+008) (509, 2.10073823649015810000e+010) (510, 3.88453086406603470000e+010) (511, 5.05004426772837520000e+010) (512, 4.10673326359387890000e+010) (513, 3.29215768252041890000e+010) (514, 3.09044348990634650000e+010) (515, 3.80397547213189010000e+010) (516, 4.25859484306278610000e+010) (517, 3.20376665085127790000e+010) (518, 2.12056275474311410000e+010) (519, 3.41197587784365650000e+010) (520, 3.27805162868251300000e+010) (521, 2.68534391577510910000e+010) (522, 2.19417122631312180000e+010) (523, 2.42215995681411250000e+010) (524, 2.96689130665725440000e+010) (525, 3.12631405920916520000e+010) (526, 2.20522511518740010000e+010) (527, 2.59789105394990880000e+010) (528, 1.73457359227687340000e+010) (529, 6.17952406707350350000e+009) (530, 3.90984439520927070000e+008) (531, -1.36159929858299260000e+008) (532, -5.09887702910418740000e-002) (533, 1.27545107926244830000e+007) (534, -6.39376867191541790000e+008) (535, -5.86744332411151530000e+008) (536, 3.81029190603305630000e+009) (537, 1.52310416770573230000e+010) (538, 2.47690590129342310000e+010) (539, 2.39051713909178810000e+010) (540, 2.05441149619151570000e+010) (541, 2.01595908982742610000e+010) (542, 3.42614503675216830000e+010) (543, 4.57909188859908980000e+010) (544, 3.59594941845176470000e+010) (545, 1.64642614149147740000e+010) (546, 2.25490778467795750000e+010) (547, 2.26276379688293950000e+010) (548, 1.66195905976558590000e+010) (549, 2.47586106689126630000e+010) (550, 2.44338191688071860000e+010) (551, 1.73730168910220340000e+010) (552, 2.46925616938854870000e+010) (553, 2.84459556842687910000e+010) (554, 2.16966723272882120000e+010) (555, 2.17999065647231520000e+010) (556, 1.42062189906415520000e+010) (557, 3.13984214532059570000e+009) (558, 1.57052253161630440000e+007) (559, -3.47008548853439760000e+007) (560, -8.09936535506494690000e-002) (561, -1.54943261848461940000e+007) (562, 2.86503098622430790000e+007) (563, 1.76291816759889220000e+009) (564, 3.81036896649151750000e+009) (565, 4.82128161300670340000e+009) (566, 6.40489908474202540000e+009) (567, 4.64862663605438900000e+009) (568, 2.11787989612742420000e+009) (569, 1.43860993347942090000e+010) (570, 3.10155175162483180000e+010) (571, 4.27665268615739900000e+010) (572, 3.00291872431002580000e+010) (573, 1.47135677752244660000e+010) (574, 1.57652230197447400000e+010) (575, 1.30119568126949330000e+010) (576, 1.87029523974343910000e+010) (577, 2.29454343968724780000e+010) (578, 2.64442273023896830000e+010) (579, 1.57628856335914570000e+010) (580, 1.69198600593744180000e+010) (581, 2.42963466840307310000e+010) (582, 2.24039531168706440000e+010) (583, 2.50847065607829020000e+010) (584, 1.51071430309763490000e+010) (585, 3.11737152099045850000e+009) (586, 3.77288441963008580000e+008) (587, 8.29220070244544650000e+005) (588, 2.03395169206254530000e+006) (589, -4.05528916562444720000e+007) (590, 6.12839600413044330000e+008) (591, 3.56354740517906330000e+009) (592, 3.25174309609526730000e+009) (593, -4.03041314685086110000e+009) (594, -1.17408803052926940000e+010) (595, -1.29169640102720390000e+010) (596, -9.06694880704627800000e+009) (597, 3.81558446781251340000e+009) (598, 1.28640608489478190000e+010) (599, 3.05677511059841080000e+010) (600, 3.51740797945385740000e+010) (601, 2.51330286700316010000e+010) (602, 1.10865510560259190000e+010) (603, 9.87992592591978260000e+009) (604, 9.81016437181476590000e+009) (605, 2.93455545984957050000e+010) (606, 2.69041918303108860000e+010) (607, 1.87261804738370590000e+010) (608, 1.68936504041653940000e+010) (609, 2.07760930355408360000e+010) (610, 2.28925623127781260000e+010) (611, 2.06887431058807300000e+010) (612, 9.23869078236929700000e+009) (613, 2.62034814578512910000e+009) (614, 8.13987747956732990000e+008) (615, 2.89338200632169700000e+006) (616, 1.97039070499837820000e+006) (617, -4.36469431225639640000e+004) (618, 6.98482491288852100000e+008) (619, 2.53467110161908100000e+009) (620, 2.11365436130308390000e+009) (621, -9.87806237909489820000e+009) (622, -1.56222101003793720000e+010) (623, -1.30047415683853760000e+010) (624, -6.74291246611259940000e+009) (625, 1.37860027874483320000e+009) (626, 6.80208687285925010000e+009) (627, 1.41048637065429100000e+010) (628, 2.33093738100839420000e+010) (629, 1.62029772482616480000e+010) (630, -9.36306187872441100000e+009) (631, -1.43370817054929470000e+009) (632, -1.61685320534002950000e+009) (633, 1.18664173371307540000e+010) (634, 1.75907421664437520000e+010) (635, 2.40817162362629130000e+010) (636, 2.06122931276652760000e+010) (637, 2.23845617339953040000e+010) (638, 1.16767415032813890000e+010) (639, 7.10634665700218390000e+009) (640, 4.06865732289741990000e+009) (641, 1.13661481720435550000e+009) (642, 1.22659156615060700000e+008) (643, 5.34162827794127450000e+006) (644, -3.99597173923211810000e-002) (645, -3.47961430966279290000e-002) (646, 1.92600516084306870000e+008) (647, 1.29160621838019540000e+009) (648, 9.99161699985800090000e+007) (649, -8.53971565684563060000e+009) (650, -1.53046954456938420000e+010) (651, -1.35954205257090070000e+010) (652, -7.91799559713462070000e+009) (653, 1.97116072139527990000e+009) (654, 5.47868907022633930000e+009) (655, 5.40419718533073430000e+009) (656, -1.79439269740281320000e+009) (657, -9.65092759647030070000e+009) (658, -1.30353637030876200000e+010) (659, -1.41527086014123540000e+010) (660, -1.95823182644099160000e+010) (661, -1.06495832512782990000e+010) (662, 6.95703890825854180000e+008) (663, 1.72281499776648660000e+009) (664, 4.50229017693617530000e+009) (665, 5.08411011581603340000e+009) (666, -1.34075697507509370000e+009) (667, 4.30206577259967920000e+008) (668, 4.60533922871748690000e+008) (669, 7.27726994158093090000e+008) (670, -9.04987385501123960000e+007) (671, 5.81298836787027540000e-002) (672, 2.88146976949974490000e-002) (673, 5.94787606519275870000e-002) (674, 6.75895980094924420000e+007) (675, 2.46113654158521060000e+008) (676, -1.52360067256165740000e+009) (677, -9.03713675530751800000e+009) (678, -1.57876424440588740000e+010) (679, -2.22254658500477450000e+010) (680, -2.02583683475765300000e+010) (681, -1.65545092715019090000e+010) (682, -1.79364770215328940000e+010) (683, -7.27980949818668170000e+009) (684, -1.19038432220140840000e+010) (685, -1.01561000999520440000e+010) (686, -9.71622854844548420000e+009) (687, -2.11047696776396520000e+010) (688, -2.96907371054003640000e+010) (689, -4.16318664809441600000e+010) (690, -3.59946886468159480000e+010) (691, -3.53428362066032180000e+010) (692, -2.79454266000982550000e+010) (693, -1.63194050780448280000e+010) (694, -9.05951454536371420000e+009) (695, -3.87200675658552790000e+009) (696, -1.12945203224096060000e+008) (697, 9.90476580707333680000e+008) (698, 1.08474476828508750000e+008) (699, 6.99279795576330800000e-002) (700, -1.54846193713638060000e-002) (701, -1.57104494528539360000e-002) (702, 4.14977677300051320000e+006) (703, -2.78401623402672290000e+008) (704, -1.19087113277819090000e+009) (705, -6.24676757886065010000e+009) (706, -1.46608905524765400000e+010) (707, -2.70102665179697040000e+010) (708, -4.06351593244797210000e+010) (709, -4.98440854568824230000e+010) (710, -5.86410654471647870000e+010) (711, -6.78994966547460020000e+010) (712, -7.69854219884102780000e+010) (713, -6.89050348880440830000e+010) (714, -6.42494043888918000000e+010) (715, -6.07900349244697270000e+010) (716, -6.93318664432078550000e+010) (717, -7.17049021098107450000e+010) (718, -6.52536501937903210000e+010) (719, -5.35194323204280930000e+010) (720, -3.73271654712177120000e+010) (721, -2.14027860969199980000e+010) (722, -8.81997782081571770000e+009) (723, -1.95048196292232370000e+009) (724, -4.33631524817262770000e+008) (725, 1.13829306260914470000e+008) (726, 1.36071814379328070000e+008) (727, -2.97485355995377180000e-002) (728, 9.41284193713727290000e-002) (729, 2.02148440512246450000e-002) (730, 3.97399908265470000000e-002) (731, 1.50390627240994950000e-002) (732, -4.07064523336380960000e+008) (733, -1.31205930434349630000e+009) (734, -3.89289822669642690000e+009) (735, -8.43921003833646680000e+009) (736, -1.60885755932552280000e+010) (737, -2.38699765112699240000e+010) (738, -2.68444195545656360000e+010) (739, -2.83698624576538770000e+010) (740, -2.82118943748373110000e+010) (741, -2.73197411520378000000e+010) (742, -3.50517191358986590000e+010) (743, -2.93501886891425550000e+010) (744, -2.97849555630325090000e+010) (745, -2.95215521903884320000e+010) (746, -2.50418763279870760000e+010) (747, -2.02052475820282630000e+010) (748, -1.47375066808159710000e+010) (749, -7.31638050344370080000e+009) (750, -3.06013111940561960000e+009) (751, -6.18056377079423900000e+008) (752, -2.61230472642637320000e-003) (753, 7.53796112061847380000e+004) (754, 5.87768563445933980000e-003) (755, -4.75524909429623220000e-002) (756, -9.59533705704416210000e-002) (757, 4.86694343189810750000e-002) (758, -3.52172856810284430000e-003) (759, -3.19335942258476280000e-002) (760, -1.00281970977178330000e+007) (761, -6.42836979717385990000e+007) (762, -3.14862030619099200000e+008) (763, -1.06069103123907280000e+009) (764, -1.09587311601253290000e+009) (765, -7.83732753558379410000e+008) (766, -9.90985212986082670000e+008) (767, -5.39142906378285050000e+008) (768, -5.65787615323645710000e+008) (769, -3.29606919544111910000e+008) (770, -2.59450324843144700000e+009) (771, -1.04087149545863560000e+009) (772, -4.66370284103648010000e+008) (773, -6.00565505565553070000e+008) (774, -1.81998580016499610000e+009) (775, -1.49068724565177040000e+009) (776, -3.19906282402547420000e+008) (777, -1.48779288619927880000e+008) (778, -4.27673379340967420000e+008) (779, -9.26318818800793140000e+007) (780, 1.86584475436575300000e-002) (781, 4.40063483119956800000e-003) (782, 1.73339846332964950000e-002) (783, 8.12255871478555490000e-002) (784, -2.94073822519500240000e+010) (0, 2.14294436786985900000e-002) (1, 4.21936041443586870000e-002) (2, -3.01391606053584840000e-002) (3, -8.66516126193346280000e-002) (4, -8.57543958090900560000e-002) (5, 8.49792493131644730000e-002) (6, -4.99267585564666660000e-002) (7, 3.02001957625179780000e-002) (8, 4.16137701513434880000e-002) (9, -8.20739758323725250000e-002) (10, 5.95642098719508790000e-002) (11, -8.38134778114181240000e-002) (12, -4.86189361358847560000e+006) (13, -1.05016902510398790000e+008) (14, -1.05016902551805050000e+008) (15, -4.37570435095911470000e+006) (16, -4.03808599767216950000e-002) (17, -9.12780775320243270000e-002) (18, -9.64782729220132750000e-002) (19, -1.70593264260787690000e-002) (20, 8.28186047497183610000e-002) (21, 8.00109875203816050000e-002) (22, -3.57299810011681980000e-002) (23, 8.50708020489037150000e-002) (24, 9.87182631897667310000e-002) (25, -6.07116708265493800000e-002) (26, 4.40063483119956800000e-002) (27, -6.24267587427311810000e-002) (28, 7.26684581140943920000e-002) (29, 3.10668949941828030000e-003) (30, -4.47082526193298690000e-002) (31, -8.38256848428500230000e-002) (32, -6.26159677299256150000e-002) (33, -6.97142176487906930000e+006) (34, -3.23644539429216860000e+008) (35, -6.93783651191582800000e+008) (36, -9.17722667672126290000e+008) (37, -1.51321779755638620000e+009) (38, -2.49321645204016020000e+009) (39, -2.55806110822348020000e+009) (40, -2.57114214262583160000e+009) (41, -1.52631650199102140000e+009) (42, -1.40912221119313930000e+009) (43, -1.37314208611876850000e+009) (44, -1.04773394490037620000e+009) (45, -7.33941752965549470000e+008) (46, -5.71030273392186400000e+008) (47, -4.93866658106413190000e+008) (48, -1.96191039663444220000e+008) (49, -4.15043849065066100000e+008) (50, -2.64521972338079090000e+008) (51, -6.56641504676915930000e+007) (52, 2.17102054016322650000e-002) (53, -3.75854497788168370000e-002) (54, -7.70446788824301620000e-002) (55, 8.19458020023375870000e-002) (56, 1.74316408847516870000e-002) (57, 7.07519541792862580000e-002) (58, -6.00646981606587360000e-002) (59, -2.52144188713159410000e+007) (60, -1.39427397433620420000e+008) (61, -3.47952156835643800000e+007) (62, -6.42379707042907360000e+008) (63, -2.20209745784325740000e+009) (64, -3.57816519074422220000e+009) (65, -6.19676935010050390000e+009) (66, -9.68657607246449470000e+009) (67, -1.09837547078209880000e+010) (68, -1.13903676413586030000e+010) (69, -1.26592002408888910000e+010) (70, -1.27825925380255600000e+010) (71, -1.27206245198708360000e+010) (72, -1.26796798192216150000e+010) (73, -1.14787349620923080000e+010) (74, -1.11491674827908100000e+010) (75, -8.81832044371755220000e+009) (76, -3.34112727902786400000e+009) (77, -2.31663572115819360000e+009) (78, -1.37036105947462420000e+009) (79, -2.90674461842466350000e+008) (80, 3.25375470833348100000e+008) (81, 2.22098665389023180000e+008) (82, 8.14636242607775780000e-002) (83, -5.74768074970961610000e-002) (84, 8.00781261932570490000e-002) (85, -8.54492200232925820000e-003) (86, -1.99840713390192130000e+007) (87, -1.61262904023583380000e+008) (88, -3.43787300576053500000e+008) (89, 7.39233118272900580000e+008) (90, -1.50848153404715780000e+009) (91, -4.50117566600634000000e+009) (92, -7.65370308621434590000e+009) (93, -9.88249452555627630000e+009) (94, -1.25630332210724810000e+010) (95, -9.52249873041872220000e+009) (96, -1.52091927204457340000e+010) (97, -1.79041943174679990000e+010) (98, -2.48847759460180510000e+010) (99, -3.42654930336142120000e+010) (100, -4.03036483724904170000e+010) (101, -4.51800136180606000000e+010) (102, -3.79215116279025960000e+010) (103, -2.48472129649624940000e+010) (104, -1.59713874193356440000e+010) (105, -1.16670887043106800000e+010) (106, -7.96742377805658150000e+009) (107, -2.09510833070493940000e+008) (108, 9.43549306659674170000e+008) (109, -3.55335302143696250000e+008) (110, -2.07130356535408320000e+008) (111, -4.57275397438934310000e-002) (112, -3.36303715948815810000e-003) (113, 1.07416368506205490000e+007) (114, -8.72422414680209610000e+007) (115, 3.99726324785447660000e+008) (116, 1.47261273740912960000e+009) (117, 2.79163413945415640000e+009) (118, 3.61818013002909040000e+009) (119, 6.73339639020544620000e+009) (120, 1.26804474011918850000e+010) (121, 1.80750570287051430000e+010) (122, 2.33432172527236330000e+010) (123, 3.78111521619436340000e+010) (124, 4.99228758082901990000e+010) (125, 5.77666716288855360000e+010) (126, 2.82575256201639980000e+010) (127, -1.07376786931755980000e+010) (128, -3.50270937831358180000e+010) (129, -5.65411345853041000000e+010) (130, -6.78992654197417830000e+010) (131, -6.83284362740637970000e+010) (132, -6.63818015816837310000e+010) (133, -8.06093987390630340000e+010) (134, -6.94362936702438510000e+010) (135, -4.92633394843883210000e+010) (136, -1.86672938135511050000e+010) (137, -2.53681015922792290000e+009) (138, -6.64766543694259230000e+007) (139, 6.77234828142962600000e+007) (140, -6.53259287078071790000e-002) (141, -9.30725111525134710000e-002) (142, 1.00388488456220220000e+008) (143, 1.99715992039620020000e+009) (144, 7.22968645358623120000e+009) (145, 1.38308184198189510000e+010) (146, 1.99120707761805460000e+010) (147, 2.54208919560116350000e+010) (148, 3.17271270724235500000e+010) (149, 4.66307450281208950000e+010) (150, 6.52542832602611160000e+010) (151, 1.07098602828226590000e+011) (152, 1.31805063952301120000e+011) (153, 1.21650982004782960000e+011) (154, 6.91096806628788300000e+010) (155, 2.63927486692569850000e+010) (156, 7.90423709516582300000e+009) (157, -1.71542502311553100000e+010) (158, -5.14637462805404360000e+010) (159, -8.39516908237973630000e+010) (160, -1.19378478242099260000e+011) (161, -1.50695432310885990000e+011) (162, -1.60967404821017490000e+011) (163, -1.25036671111807740000e+011) (164, -6.41818413871813960000e+010) (165, -1.59470543737892950000e+010) (166, -2.81554111107954360000e+009) (167, -6.76137833240914340000e+007) (168, -2.54638675669411900000e-002) (169, 5.96030106034391560000e+005) (170, 3.67349501779872060000e+008) (171, 5.27108055678150080000e+009) (172, 1.73912548785092350000e+010) (173, 2.85991417957215500000e+010) (174, 4.13104717985944440000e+010) (175, 4.95699987440740510000e+010) (176, 6.48059264496854250000e+010) (177, 1.00608316674119980000e+011) (178, 1.38471299060036770000e+011) (179, 1.74128839356974180000e+011) (180, 1.83735937540693330000e+011) (181, 1.43348745095588930000e+011) (182, 8.57082901887048340000e+010) (183, 9.13882243557769620000e+010) (184, 9.34055086796637730000e+010) (185, 5.99310997140330660000e+010) (186, -1.36520126110782740000e+010) (187, -6.15541491319265820000e+010) (188, -9.80253877850737150000e+010) (189, -1.44957812499404420000e+011) (190, -1.83021533579163090000e+011) (191, -1.80455467202153050000e+011) (192, -1.27861608996854310000e+011) (193, -4.84725783374226300000e+010) (194, -9.69105652977343940000e+009) (195, -6.51136445266040210000e+008) (196, 7.21322728287979960000e+006) (197, 2.97960065985815820000e+008) (198, 2.61553273193702460000e+009) (199, 1.03517596088474460000e+010) (200, 3.01934432880050390000e+010) (201, 4.52208581509490430000e+010) (202, 5.55345879386892170000e+010) (203, 6.76456638206112590000e+010) (204, 9.75098413683204040000e+010) (205, 1.38995051168742460000e+011) (206, 1.65549549282313420000e+011) (207, 1.50403173664043030000e+011) (208, 1.31693921480176130000e+011) (209, 1.01962212501808290000e+011) (210, 7.48812839677735750000e+010) (211, 1.29991374756211000000e+011) (212, 1.31224220969700760000e+011) (213, 8.15558463927894740000e+010) (214, 4.34926946301079860000e+010) (215, 1.48763756313447590000e+010) (216, 1.12120783692489100000e+009) (217, -5.49281787605473020000e+010) (218, -1.08236283850865520000e+011) (219, -1.67343761544390290000e+011) (220, -1.60365968858881070000e+011) (221, -8.46886762294684910000e+010) (222, -1.86607916284236300000e+010) (223, -1.33646256510431240000e+009) (224, -4.08405337023081630000e+007) (225, 5.08610016576546670000e+008) (226, 5.47612257209238620000e+009) (227, 1.77845060321625440000e+010) (228, 4.53476592962854230000e+010) (229, 6.15116981956858830000e+010) (230, 8.03414271299410400000e+010) (231, 8.91287641883331600000e+010) (232, 1.10297792817845370000e+011) (233, 1.27968539779424210000e+011) (234, 1.20096280585127560000e+011) (235, 6.31131986965538790000e+010) (236, 3.05948461126876450000e+010) (237, 2.29409871193676800000e+010) (238, 4.87220416150850450000e+010) (239, 9.78345236772463230000e+010) (240, 1.18836936658429760000e+011) (241, 1.07884832238750170000e+011) (242, 1.19614541679100910000e+011) (243, 1.22725650487631610000e+011) (244, 1.04635778721549800000e+011) (245, 5.95564322790291670000e+010) (246, -1.33749151101612110000e+010) (247, -1.28002753102075150000e+011) (248, -1.70648608043476780000e+011) (249, -1.04723262025441160000e+011) (250, -2.22578329794619410000e+010) (251, -2.80860990265400170000e+008) (252, -2.35044650421227140000e+007) (253, 3.78979966175327960000e+008) (254, 5.35797801316957280000e+009) (255, 2.08991072331279600000e+010) (256, 4.43420790583590010000e+010) (257, 6.46001850750424350000e+010) (258, 7.59779428448839570000e+010) (259, 6.70427336505390780000e+010) (260, 7.49958887813982700000e+010) (261, 7.94985653094599300000e+010) (262, 3.36566621041861110000e+010) (263, -4.49955205523709410000e+010) (264, -6.53942948243485490000e+010) (265, -4.38572561009562610000e+010) (266, 2.51263648211927380000e+010) (267, 8.92331770725327150000e+010) (268, 1.38446974443056340000e+011) (269, 1.66707148232990880000e+011) (270, 1.97927466913595370000e+011) (271, 2.28926001162705170000e+011) (272, 2.05517757798924930000e+011) (273, 1.49223814749295810000e+011) (274, 6.69830828890353240000e+010) (275, -5.90406756021630940000e+010) (276, -1.45570330400991030000e+011) (277, -1.02970645830920680000e+011) (278, -1.73492415481020770000e+010) (279, 1.45514406213346780000e+008) (280, -6.76537706144260170000e+007) (281, 7.41949227128426790000e+008) (282, 4.61127222756737520000e+009) (283, 1.43723493918000600000e+010) (284, 3.65428546870104220000e+010) (285, 6.12705936321711580000e+010) (286, 6.18688992411281430000e+010) (287, 4.24964796216170960000e+010) (288, 3.62001920786637270000e+010) (289, -1.50245620222269000000e+010) (290, -7.41815961129420320000e+010) (291, -1.42974865268623780000e+011) (292, -1.34838254541998720000e+011) (293, -7.79682858441210170000e+010) (294, -2.48780410424967920000e+010) (295, 5.52525743411153720000e+010) (296, 1.54622293436076140000e+011) (297, 2.19147140985350070000e+011) (298, 2.89410329114156010000e+011) (299, 3.50080207170944340000e+011) (300, 3.24171495361833560000e+011) (301, 2.50283963959961180000e+011) (302, 1.54548710727847020000e+011) (303, 2.37520495351479230000e+010) (304, -7.23783731614689940000e+010) (305, -6.96676201954819790000e+010) (306, -1.53616482368570820000e+010) (307, -3.46659522552608850000e+008) (308, -3.45653585064971150000e+007) (309, 8.29350974892086980000e+008) (310, 4.18504158104402400000e+009) (311, 1.17425874761226020000e+010) (312, 3.53670121851580810000e+010) (313, 6.02464836997947920000e+010) (314, 4.31736061386413120000e+010) (315, 2.39408871813360020000e+010) (316, -8.06586276252711010000e+009) (317, -6.74728633174460530000e+010) (318, -1.35624754832337270000e+011) (319, -1.74019149905659300000e+011) (320, -1.35733770968314150000e+011) (321, -8.35571868877775270000e+010) (322, -3.57016913310671770000e+010) (323, 5.45537762789887620000e+010) (324, 1.50786424756591090000e+011) (325, 2.49583827604014710000e+011) (326, 3.55258391668408810000e+011) (327, 4.32565885697665280000e+011) (328, 4.09867854905595950000e+011) (329, 3.09247295969407040000e+011) (330, 2.11313541067011290000e+011) (331, 9.05890428290902560000e+010) (332, 1.03478960665644630000e+010) (333, -2.53813952549297870000e+010) (334, -7.45549088393381120000e+009) (335, -5.06856677811462880000e+008) (336, -5.02221956040491390000e+007) (337, 3.91681838462137100000e+008) (338, 2.94205808958218050000e+009) (339, 9.88512191418138120000e+009) (340, 3.98339545156526110000e+010) (341, 5.62511626925714260000e+010) (342, 2.61854112814953920000e+010) (343, -3.29655423657132050000e+009) (344, -5.67558915061359480000e+010) (345, -1.16643933234425980000e+011) (346, -1.74662008672412510000e+011) (347, -1.56216647753320920000e+011) (348, -9.63717264460608830000e+010) (349, -5.48496908261576160000e+010) (350, -2.74084726567282490000e+010) (351, 4.99976113570016250000e+010) (352, 1.68884855794980380000e+011) (353, 