FANN_FLO_2.1
num_layers=3
learning_rate=0.100000
connection_rate=1.000000
network_type=0
learning_momentum=0.500000
training_algorithm=0
train_error_function=1
train_stop_function=0
cascade_output_change_fraction=0.010000
quickprop_decay=-0.000100
quickprop_mu=1.750000
rprop_increase_factor=1.200000
rprop_decrease_factor=0.500000
rprop_delta_min=0.000000
rprop_delta_max=50.000000
rprop_delta_zero=0.100000
cascade_output_stagnation_epochs=12
cascade_candidate_change_fraction=0.010000
cascade_candidate_stagnation_epochs=12
cascade_max_out_epochs=150
cascade_min_out_epochs=50
cascade_max_cand_epochs=150
cascade_min_cand_epochs=50
cascade_num_candidate_groups=2
bit_fail_limit=3.49999999999999980000e-001
cascade_candidate_limit=1.00000000000000000000e+003
cascade_weight_multiplier=4.00000000000000020000e-001
cascade_activation_functions_count=10
cascade_activation_functions=3 5 7 8 10 11 14 15 16 17 
cascade_activation_steepnesses_count=4
cascade_activation_steepnesses=2.50000000000000000000e-001 5.00000000000000000000e-001 7.50000000000000000000e-001 1.00000000000000000000e+000 
layer_sizes=785 31 11 
scale_included=1
scale_mean_in=0.000000 0.000000 0.000000 0.000000 0.000000 0.000000 0.000000 0.000000 0.000000 0.000000 0.000000 0.000000 0.000001 0.000019 0.000019 0.000001 0.000000 0.000000 0.000000 0.000000 0.000000 0.000000 0.000000 0.000000 0.000000 0.000000 0.000000 0.000000 0.000000 0.000000 0.000000 0.000000 0.000000 0.000001 0.000048 0.000104 0.000162 0.000246 0.000510 0.000675 0.000654 0.000671 0.000695 0.000618 0.000722 0.000632 0.000430 0.000301 0.000213 0.000085 0.000043 0.000018 0.000000 0.000000 0.000000 0.000000 0.000000 0.000000 0.000000 0.000004 0.000033 0.000019 0.000176 0.000596 0.001097 0.002053 0.003294 0.005000 0.007191 0.009624 0.012523 0.014257 0.014644 0.013237 0.010768 0.007929 0.004588 0.002283 0.001022 0.000333 0.000122 0.000020 0.000000 0.000000 0.000000 0.000000 0.000005 0.000030 0.000053 0.000312 0.000927 0.002340 0.004614 0.008576 0.013975 0.020909 0.028576 0.037525 0.046453 0.052236 0.052135 0.046646 0.037310 0.026463 0.015823 0.008433 0.003778 0.001382 0.000519 0.000102 0.000015 0.000000 0.000000 0.000003 0.000020 0.000059 0.000334 0.001652 0.004179 0.009490 0.018407 0.032428 0.051290 0.074996 0.104864 0.137183 0.163131 0.176820 0.174413 0.154148 0.122332 0.089402 0.057457 0.033036 0.017303 0.008168 0.003368 0.000795 0.000125 0.000011 0.000000 0.000000 0.000040 0.000222 0.001469 0.005536 0.013645 0.027877 0.050247 0.082173 0.122071 0.172386 0.230018 0.288523 0.332639 0.355028 0.349013 0.314619 0.258774 0.195919 0.134640 0.083930 0.048409 0.025933 0.011688 0.003139 0.000495 0.000013 0.000000 0.000000 0.000122 0.000785 0.004112 0.012307 0.028241 0.054925 0.093708 0.145165 0.207709 0.278168 0.349957 0.415706 0.463603 0.485396 0.476840 0.439387 0.377318 0.296411 0.212959 0.139256 0.082833 0.044892 0.020930 0.006911 0.001302 0.000092 0.000004 0.000088 0.000424 0.002278 0.008769 0.022772 0.048113 0.087266 0.142070 0.210863 0.289624 0.369974 0.438287 0.489985 0.519536 0.529521 0.522372 0.497398 0.446187 0.369660 0.275128 0.184571 0.111318 0.059803 0.027498 0.009908 0.002003 0.000107 0.000021 0.000215 0.001273 0.005000 0.014227 0.032691 0.065466 0.115884 0.184813 0.268013 0.355555 0.427237 0.470294 0.484329 0.481970 0.478537 0.480007 0.479867 0.457586 0.397156 0.305344 0.208163 0.125795 0.064679 0.027900 0.010083 0.001882 0.000073 0.000009 0.000293 0.001974 0.006480 0.017113 0.038217 0.075988 0.135244 0.215091 0.306582 0.389028 0.435558 0.436491 0.410303 0.386470 0.387398 0.407747 0.435272 0.436850 0.390347 0.303764 0.208047 0.124015 0.061020 0.023293 0.007415 0.001318 0.000086 0.000016 0.000410 0.002188 0.006487 0.016693 0.038493 0.080198 0.146271 0.234189 0.327384 0.394381 0.406131 0.369221 0.324436 0.308361 0.328858 0.366796 0.410439 0.418031 0.371210 0.283605 0.190849 0.112828 0.054079 0.018528 0.004664 0.000867 0.000077 0.000029 0.000320 0.001789 0.005154 0.014364 0.037499 0.083008 0.156731 0.251855 0.343633 0.389865 0.373925 0.320173 0.286325 0.296478 0.333939 0.381572 0.423132 0.416140 0.351320 0.256109 0.167555 0.100182 0.050296 0.016095 0.002380 0.000451 0.000031 0.000014 0.000170 0.000986 0.003449 0.012027 0.037369 0.089720 0.171931 0.272526 0.356277 0.385862 0.357161 0.312188 0.310667 0.349553 0.398183 0.443642 0.462004 0.422993 0.332765 0.231268 0.150895 0.093923 0.050479 0.016990 0.001637 0.000272 0.000038 0.000003 0.000085 0.000490 0.002261 0.011405 0.041768 0.100787 0.188136 0.287822 0.362198 0.380746 0.356600 0.340317 0.379833 0.435728 0.485830 0.509523 0.497103 0.427293 0.318879 0.217439 0.146543 0.095133 0.054161 0.020267 0.002256 0.000312 0.000032 0.000000 0.000043 0.000211 0.001735 0.011933 0.048816 0.112645 0.199419 0.291812 0.356468 0.373624 0.365451 0.383178 0.451786 0.509895 0.547302 0.538364 0.502434 0.418232 0.311327 0.220212 0.153665 0.101279 0.058160 0.022691 0.003197 0.000324 0.000007 0.000001 0.000020 0.000179 0.001934 0.013805 0.057009 0.122344 0.201583 0.281232 0.337018 0.358540 0.368536 0.410501 0.482095 0.531512 0.545031 0.517164 0.475229 0.395948 0.307298 0.228556 0.162436 0.106564 0.058562 0.022811 0.004103 0.000510 0.000040 0.000003 0.000021 0.000302 0.002467 0.017313 0.065258 0.128244 0.196635 0.260634 0.305014 0.326829 0.348589 0.394467 0.452764 0.494297 0.498272 0.473958 0.434655 0.373268 0.303221 0.233157 0.164564 0.104621 0.055552 0.021587 0.004729 0.000657 0.000060 0.000000 0.000032 0.000423 0.003755 0.023343 0.073094 0.131672 0.189524 0.236940 0.270696 0.290571 0.314132 0.349282 0.397834 0.440018 0.450889 0.439492 0.408926 0.362621 0.302938 0.231695 0.159200 0.097168 0.049957 0.019851 0.005261 0.000746 0.000037 0.000010 0.000022 0.000588 0.005777 0.030109 0.081130 0.137543 0.188729 0.227460 0.257772 0.279548 0.298212 0.322998 0.370519 0.416189 0.438936 0.437368 0.411990 0.366371 0.299318 0.221025 0.146730 0.087863 0.044199 0.017717 0.005082 0.000651 0.000039 0.000000 0.000027 0.001040 0.007857 0.034706 0.086485 0.145394 0.200007 0.243977 0.278882 0.304416 0.322260 0.350754 0.395622 0.439872 0.461993 0.455879 0.422348 0.362275 0.281095 0.198349 0.126579 0.072600 0.035288 0.014087 0.003994 0.000557 0.000014 0.000000 0.000046 0.001340 0.008717 0.033566 0.082040 0.147435 0.212422 0.270359 0.318942 0.354541 0.383256 0.417468 0.459146 0.490244 0.493049 0.464339 0.408152 0.329403 0.239508 0.159822 0.096803 0.052894 0.025383 0.010684 0.002783 0.000401 0.000004 0.000003 0.000045 0.001132 0.006912 0.025787 0.066721 0.130195 0.203761 0.277366 0.343002 0.396461 0.440316 0.480534 0.511689 0.517997 0.490006 0.431426 0.350801 0.261301 0.178415 0.111720 0.063566 0.033446 0.016247 0.006768 0.001742 0.000241 0.000003 0.000003 0.000001 0.000644 0.004128 0.015045 0.042687 0.092133 0.160586 0.240288 0.318622 0.388846 0.442902 0.480599 0.491838 0.473095 0.419854 0.343631 0.258812 0.178864 0.113071 0.065899 0.035651 0.018499 0.008803 0.003298 0.000759 0.000074 0.000006 0.000000 0.000000 0.000201 0.001606 0.006574 0.019254 0.046766 0.094011 0.158188 0.231699 0.303692 0.360772 0.391566 0.389569 0.355648 0.296358 0.225743 0.158266 0.101018 0.059987 0.032972 0.017196 0.008675 0.003802 0.001192 0.000232 0.000024 0.000000 0.000000 0.000000 0.000038 0.000458 0.002139 0.006251 0.016319 0.035927 0.066183 0.106521 0.150080 0.185950 0.204075 0.201051 0.179052 0.144095 0.107592 0.075622 0.047964 0.028342 0.015287 0.007659 0.003691 0.001484 0.000359 0.000092 0.000010 0.000000 0.000000 0.000000 0.000001 0.000047 0.000462 0.001696 0.005264 0.012119 0.023705 0.038298 0.054596 0.066281 0.071949 0.070316 0.063224 0.051834 0.041388 0.031065 0.020856 0.012464 0.006574 0.003140 0.001450 0.000506 0.000094 0.000008 0.000009 0.000000 0.000000 0.000000 0.000000 0.000000 0.000124 0.000527 0.001998 0.004597 0.008881 0.013561 0.019349 0.024102 0.025736 0.024715 0.022098 0.017580 0.013687 0.010295 0.006919 0.004098 0.002138 0.000912 0.000308 0.000067 0.000000 0.000005 0.000000 0.000000 0.000000 0.000000 0.000000 0.000000 0.000008 0.000048 0.000172 0.000315 0.000421 0.000809 0.001396 0.001773 0.002195 0.002523 0.002807 0.002275 0.001845 0.001401 0.000818 0.000329 0.000110 0.000038 0.000051 0.000010 0.000000 0.000000 0.000000 0.000000 
scale_deviation_in=0.000000 0.000000 0.000000 0.000000 0.000000 0.000000 0.000000 0.000000 0.000000 0.000000 0.000000 0.000000 0.000185 0.003993 0.003993 0.000166 0.000000 0.000000 0.000000 0.000000 0.000000 0.000000 0.000000 0.000000 0.000000 0.000000 0.000000 0.000000 0.000000 0.000000 0.000000 0.000000 0.000000 0.000148 0.004777 0.009108 0.011301 0.012477 0.020205 0.022476 0.021920 0.021909 0.022617 0.021470 0.023365 0.021941 0.017523 0.015185 0.012706 0.007391 0.005040 0.003652 0.000000 0.000000 0.000000 0.000000 0.000000 0.000000 0.000000 0.000587 0.003657 0.001685 0.010039 0.020631 0.028604 0.038961 0.049733 0.060575 0.073324 0.084209 0.096807 0.102876 0.105516 0.100628 0.090424 0.078508 0.059093 0.041557 0.027176 0.015118 0.009270 0.003219 0.000000 0.000000 0.000000 0.000000 0.000803 0.002983 0.003643 0.013532 0.024730 0.040859 0.058302 0.080501 0.102823 0.126478 0.146839 0.168046 0.187323 0.198668 0.197374 0.187722 0.168325 0.142668 0.108725 0.080172 0.051309 0.031389 0.019059 0.006688 0.002400 0.000000 0.000000 0.000702 0.002832 0.003770 0.014066 0.033140 0.052787 0.082128 0.115424 0.154244 0.194170 0.232855 0.270512 0.304807 0.328028 0.338656 0.336397 0.319820 0.289618 0.251315 0.203309 0.154161 0.110655 0.076073 0.047970 0.020875 0.008622 0.001596 0.000000 0.000000 0.003455 0.010825 0.028777 0.062515 0.099121 0.142884 0.191586 0.242618 0.290294 0.334922 0.374002 0.403867 0.420096 0.425537 0.423106 0.412116 0.388175 0.351703 0.300728 0.241850 0.185790 0.136576 0.089004 0.042983 0.016226 0.001915 0.000000 0.000074 0.007664 0.022606 0.053378 0.094162 0.143715 0.200807 0.259114 0.314283 0.361773 0.397991 0.422801 0.435839 0.440034 0.440612 0.440552 0.439810 0.431088 0.407590 0.365436 0.307024 0.242983 0.180303 0.121626 0.067783 0.028254 0.006686 0.000869 0.006189 0.016092 0.039103 0.078744 0.129095 0.187699 0.249649 0.309734 0.361013 0.398971 0.421685 0.431154 0.433015 0.433234 0.431662 0.432621 0.434075 0.435054 0.426488 0.396776 0.345327 0.278890 0.207143 0.139636 0.082563 0.035388 0.006854 0.003664 0.011849 0.029511 0.060255 0.103662 0.156220 0.219043 0.284461 0.346278 0.392930 0.421151 0.433124 0.435362 0.436324 0.436021 0.434255 0.434364 0.435231 0.436629 0.432871 0.410860 0.363529 0.295656 0.215726 0.141511 0.083994 0.034742 0.006220 0.001534 0.014511 0.037650 0.070651 0.114580 0.169599 0.235628 0.305842 0.368191 0.409197 0.431265 0.436840 0.436471 0.432246 0.426752 0.425472 0.428257 0.433331 0.435668 0.431800 0.410434 0.365090 0.294082 0.209217 0.128875 0.070863 0.028421 0.007248 0.003420 0.017702 0.040334 0.071113 0.113726 0.169943 0.241561 0.315548 0.378665 0.416952 0.432725 0.434717 0.423460 0.408035 0.402408 0.411391 0.421225 0.430489 0.433322 0.428078 0.402617 0.353564 0.282691 0.197793 0.115025 0.056558 0.023602 0.006312 0.003784 0.014613 0.036261 0.062160 0.104366 0.166350 0.244784 0.324160 0.387727 0.422665 0.432341 0.427271 0.408079 0.392023 0.402084 0.417290 0.423467 0.431193 0.433008 0.423773 0.389006 0.334009 0.269910 0.192913 0.106086 0.038621 0.016512 0.003249 0.003013 0.010464 0.026713 0.050316 0.094509 0.165521 0.253872 0.337566 0.398895 0.427937 0.432224 0.424103 0.407271 0.404105 0.426792 0.434729 0.430243 0.435661 0.436565 0.417660 0.373415 0.319493 0.263395 0.196055 0.109845 0.032035 0.013327 0.003658 0.000592 0.007413 0.019169 0.039577 0.091998 0.174780 0.268879 0.350744 0.407267 0.430191 0.431720 0.423970 0.416867 0.426723 0.446174 0.437354 0.431371 0.439526 0.437395 0.411232 0.365162 0.316929 0.266026 0.204139 0.122384 0.037699 0.013326 0.004769 0.000000 0.004676 0.011638 0.034470 0.092704 0.188827 0.284116 0.360505 0.409983 0.429403 0.430137 0.424916 0.424097 0.437055 0.445790 0.429633 0.430613 0.440338 0.434970 0.408638 0.368615 0.324414 0.273312 0.210945 0.130312 0.046460 0.013526 0.001083 0.000129 0.004179 0.009552 0.036246 0.098767 0.204733 0.295758 0.362993 0.405256 0.424381 0.425750 0.424752 0.429542 0.441466 0.441683 0.428741 0.436574 0.441929 0.430592 0.408256 0.374727 0.333061 0.278836 0.209848 0.130339 0.054076 0.017971 0.004081 0.000739 0.002678 0.013711 0.040710 0.110901 0.219202 0.302736 0.359428 0.394790 0.411873 0.415572 0.419756 0.430996 0.442740 0.441852 0.436150 0.439950 0.436107 0.425458 0.407536 0.379366 0.334128 0.275587 0.203569 0.124956 0.057744 0.020197 0.006180 0.000000 0.003451 0.016600 0.051065 0.131479 0.232916 0.306058 0.353545 0.381981 0.397380 0.404059 0.412392 0.425682 0.434723 0.439052 0.438110 0.435431 0.430109 0.424464 0.409124 0.378730 0.329393 0.264995 0.192462 0.118540 0.061163 0.021869 0.003247 0.001456 0.003730 0.018887 0.063868 0.150424 0.246012 0.312348 0.353156 0.376484 0.392100 0.402497 0.410362 0.416336 0.427071 0.435484 0.435076 0.431743 0.432358 0.427228 0.409722 0.373033 0.318499 0.253265 0.180674 0.112890 0.059829 0.020498 0.004284 0.000000 0.003682 0.027055 0.076153 0.162626 0.254648 0.320698 0.362038 0.386246 0.402892 0.413406 0.420057 0.425194 0.432118 0.436592 0.435502 0.433514 0.435744 0.427848 0.401785 0.358180 0.298535 0.230638 0.161406 0.101031 0.052531 0.019530 0.002065 0.000000 0.004944 0.030198 0.080808 0.160050 0.247286 0.321626 0.371902 0.401290 0.418612 0.428175 0.432977 0.435695 0.437530 0.436611 0.435978 0.436039 0.433543 0.418013 0.382601 0.328419 0.263885 0.197134 0.136271 0.087928 0.042888 0.015946 0.000943 0.000592 0.004691 0.028010 0.070356 0.137427 0.221839 0.302614 0.365844 0.405696 0.427184 0.436072 0.437139 0.435728 0.432758 0.433433 0.434984 0.433343 0.421391 0.391872 0.341638 0.280068 0.214975 0.157188 0.108893 0.069506 0.034584 0.011372 0.000721 0.000573 0.000226 0.019914 0.052951 0.102760 0.174778 0.254898 0.328747 0.384914 0.420081 0.437371 0.442184 0.441089 0.439967 0.440065 0.436419 0.420161 0.389456 0.340750 0.280622 0.217653 0.161542 0.116071 0.079332 0.046742 0.020205 0.006164 0.001331 0.000000 0.000000 0.009776 0.031389 0.066693 0.115294 0.179970 0.253811 0.322330 0.375687 0.411137 0.428337 0.433584 0.432342 0.422892 0.403073 0.368396 0.321011 0.264443 0.207296 0.155469 0.112609 0.078901 0.051355 0.027508 0.012129 0.002454 0.000000 0.000000 0.000000 0.004397 0.016147 0.037183 0.065945 0.106674 0.160614 0.217740 0.273633 0.318375 0.347517 0.358226 0.355449 0.338401 0.307522 0.271756 0.232092 0.186593 0.145626 0.106374 0.076072 0.051936 0.031514 0.014631 0.007592 0.001842 0.000000 0.000000 0.000000 0.000296 0.004640 0.017723 0.033822 0.061923 0.095844 0.136001 0.172049 0.204397 0.223432 0.232305 0.229091 0.216523 0.196037 0.176500 0.153511 0.126639 0.097635 0.070186 0.048303 0.031465 0.018230 0.006817 0.001608 0.001923 0.000000 0.000000 0.000000 0.000000 0.000000 0.008215 0.018378 0.038235 0.058929 0.082678 0.101656 0.122079 0.136198 0.139412 0.136333 0.129512 0.114367 0.101357 0.088339 0.072509 0.055381 0.040375 0.025604 0.014288 0.005119 0.000000 0.001091 0.000000 0.000000 0.000000 0.000000 0.000000 0.000000 0.001738 0.005752 0.010700 0.015166 0.016312 0.025017 0.031326 0.036568 0.040099 0.042779 0.045534 0.040778 0.036345 0.032061 0.023998 0.015060 0.008065 0.003938 0.006630 0.001569 0.000000 0.000000 0.000000 0.000000 
scale_new_min_in=0.000000 0.000000 0.000000 0.000000 0.000000 0.000000 0.000000 0.000000 0.000000 0.000000 0.000000 0.000000 0.000000 0.000000 0.000000 0.000000 0.000000 0.000000 0.000000 0.000000 0.000000 0.000000 0.000000 0.000000 0.000000 0.000000 0.000000 0.000000 0.000000 0.000000 0.000000 0.000000 0.000000 0.000000 0.000000 0.000000 0.000000 0.000000 0.000000 0.000000 0.000000 0.000000 0.000000 0.000000 0.000000 0.000000 0.000000 0.000000 0.000000 0.000000 0.000000 0.000000 0.000000 0.000000 0.000000 0.000000 0.000000 0.000000 0.000000 0.000000 0.000000 0.000000 0.000000 0.000000 0.000000 0.000000 0.000000 0.000000 0.000000 0.000000 0.000000 0.000000 0.000000 0.000000 0.000000 0.000000 0.000000 0.000000 0.000000 0.000000 0.000000 0.000000 0.000000 0.000000 0.000000 0.000000 0.000000 0.000000 0.000000 0.000000 0.000000 0.000000 0.000000 0.000000 0.000000 0.000000 0.000000 0.000000 0.000000 0.000000 0.000000 0.000000 0.000000 0.000000 0.000000 0.000000 0.000000 0.000000 0.000000 0.000000 0.000000 0.000000 0.000000 0.000000 0.000000 0.000000 0.000000 0.000000 0.000000 0.000000 0.000000 0.000000 0.000000 0.000000 0.000000 0.000000 0.000000 0.000000 0.000000 0.000000 0.000000 0.000000 0.000000 0.000000 0.000000 0.000000 0.000000 0.000000 0.000000 0.000000 0.000000 0.000000 0.000000 0.000000 0.000000 0.000000 0.000000 0.000000 0.000000 0.000000 0.000000 0.000000 0.000000 0.000000 0.000000 0.000000 0.000000 0.000000 0.000000 0.000000 0.000000 0.000000 0.000000 0.000000 0.000000 0.000000 0.000000 0.000000 0.000000 0.000000 0.000000 0.000000 0.000000 0.000000 0.000000 0.000000 0.000000 0.000000 0.000000 0.000000 0.000000 0.000000 0.000000 0.000000 0.000000 0.000000 0.000000 0.000000 0.000000 0.000000 0.000000 0.000000 0.000000 0.000000 0.000000 0.000000 0.000000 0.000000 0.000000 0.000000 0.000000 0.000000 0.000000 0.000000 0.000000 0.000000 0.000000 0.000000 0.000000 0.000000 0.000000 0.000000 0.000000 0.000000 0.000000 0.000000 0.000000 0.000000 0.000000 0.000000 0.000000 0.000000 0.000000 0.000000 0.000000 0.000000 0.000000 0.000000 0.000000 0.000000 0.000000 0.000000 0.000000 0.000000 0.000000 0.000000 0.000000 0.000000 0.000000 0.000000 0.000000 0.000000 0.000000 0.000000 0.000000 0.000000 0.000000 0.000000 0.000000 0.000000 0.000000 0.000000 0.000000 0.000000 0.000000 0.000000 0.000000 0.000000 0.000000 0.000000 0.000000 0.000000 0.000000 0.000000 0.000000 0.000000 0.000000 0.000000 0.000000 0.000000 0.000000 0.000000 0.000000 0.000000 0.000000 0.000000 0.000000 0.000000 0.000000 0.000000 0.000000 0.000000 0.000000 0.000000 0.000000 0.000000 0.000000 0.000000 0.000000 0.000000 0.000000 0.000000 0.000000 0.000000 0.000000 0.000000 0.000000 0.000000 0.000000 0.000000 0.000000 0.000000 0.000000 0.000000 0.000000 0.000000 0.000000 0.000000 0.000000 0.000000 0.000000 0.000000 0.000000 0.000000 0.000000 0.000000 0.000000 0.000000 0.000000 0.000000 0.000000 0.000000 0.000000 0.000000 0.000000 0.000000 0.000000 0.000000 0.000000 0.000000 0.000000 0.000000 0.000000 0.000000 0.000000 0.000000 0.000000 0.000000 0.000000 0.000000 0.000000 0.000000 0.000000 0.000000 0.000000 0.000000 0.000000 0.000000 0.000000 0.000000 0.000000 0.000000 0.000000 0.000000 0.000000 0.000000 0.000000 0.000000 0.000000 0.000000 0.000000 0.000000 0.000000 0.000000 0.000000 0.000000 0.000000 0.000000 0.000000 0.000000 0.000000 0.000000 0.000000 0.000000 0.000000 0.000000 0.000000 0.000000 0.000000 0.000000 0.000000 0.000000 0.000000 0.000000 0.000000 0.000000 0.000000 0.000000 0.000000 0.000000 0.000000 0.000000 0.000000 0.000000 0.000000 0.000000 0.000000 0.000000 0.000000 0.000000 0.000000 0.000000 0.000000 0.000000 0.000000 0.000000 0.000000 0.000000 0.000000 0.000000 0.000000 0.000000 0.000000 0.000000 0.000000 0.000000 0.000000 0.000000 0.000000 0.000000 0.000000 0.000000 0.000000 0.000000 0.000000 0.000000 0.000000 0.000000 0.000000 0.000000 0.000000 0.000000 0.000000 0.000000 0.000000 0.000000 0.000000 0.000000 0.000000 0.000000 0.000000 0.000000 0.000000 0.000000 0.000000 0.000000 0.000000 0.000000 0.000000 0.000000 0.000000 0.000000 0.000000 0.000000 0.000000 0.000000 0.000000 0.000000 0.000000 0.000000 0.000000 0.000000 0.000000 0.000000 0.000000 0.000000 0.000000 0.000000 0.000000 0.000000 0.000000 0.000000 0.000000 0.000000 0.000000 0.000000 0.000000 0.000000 0.000000 0.000000 0.000000 0.000000 0.000000 0.000000 0.000000 0.000000 0.000000 0.000000 0.000000 0.000000 0.000000 0.000000 0.000000 0.000000 0.000000 0.000000 0.000000 0.000000 0.000000 0.000000 0.000000 0.000000 0.000000 0.000000 0.000000 0.000000 0.000000 0.000000 0.000000 0.000000 0.000000 0.000000 0.000000 0.000000 0.000000 0.000000 0.000000 0.000000 0.000000 0.000000 0.000000 0.000000 0.000000 0.000000 0.000000 0.000000 0.000000 0.000000 0.000000 0.000000 0.000000 0.000000 0.000000 0.000000 0.000000 0.000000 0.000000 0.000000 0.000000 0.000000 0.000000 0.000000 0.000000 0.000000 0.000000 0.000000 0.000000 0.000000 0.000000 0.000000 0.000000 0.000000 0.000000 0.000000 0.000000 0.000000 0.000000 0.000000 0.000000 0.000000 0.000000 0.000000 0.000000 0.000000 0.000000 0.000000 0.000000 0.000000 0.000000 0.000000 0.000000 0.000000 0.000000 0.000000 0.000000 0.000000 0.000000 0.000000 0.000000 0.000000 0.000000 0.000000 0.000000 0.000000 0.000000 0.000000 0.000000 0.000000 0.000000 0.000000 0.000000 0.000000 0.000000 0.000000 0.000000 0.000000 0.000000 0.000000 0.000000 0.000000 0.000000 0.000000 0.000000 0.000000 0.000000 0.000000 0.000000 0.000000 0.000000 0.000000 0.000000 0.000000 0.000000 0.000000 0.000000 0.000000 0.000000 0.000000 0.000000 0.000000 0.000000 0.000000 0.000000 0.000000 0.000000 0.000000 0.000000 0.000000 0.000000 0.000000 0.000000 0.000000 0.000000 0.000000 0.000000 0.000000 0.000000 0.000000 0.000000 0.000000 0.000000 0.000000 0.000000 0.000000 0.000000 0.000000 0.000000 0.000000 0.000000 0.000000 0.000000 0.000000 0.000000 0.000000 0.000000 0.000000 0.000000 0.000000 0.000000 0.000000 0.000000 0.000000 0.000000 0.000000 0.000000 0.000000 0.000000 0.000000 0.000000 0.000000 0.000000 0.000000 0.000000 0.000000 0.000000 0.000000 0.000000 0.000000 0.000000 0.000000 0.000000 0.000000 0.000000 0.000000 0.000000 0.000000 0.000000 0.000000 0.000000 0.000000 0.000000 0.000000 0.000000 0.000000 0.000000 0.000000 0.000000 0.000000 0.000000 0.000000 0.000000 0.000000 0.000000 0.000000 0.000000 0.000000 0.000000 0.000000 0.000000 0.000000 0.000000 0.000000 0.000000 0.000000 0.000000 0.000000 0.000000 0.000000 0.000000 0.000000 0.000000 0.000000 0.000000 0.000000 0.000000 0.000000 0.000000 0.000000 0.000000 0.000000 0.000000 0.000000 0.000000 0.000000 0.000000 0.000000 0.000000 0.000000 0.000000 0.000000 0.000000 0.000000 0.000000 0.000000 0.000000 0.000000 0.000000 0.000000 0.000000 0.000000 0.000000 0.000000 0.000000 0.000000 0.000000 0.000000 0.000000 0.000000 0.000000 0.000000 0.000000 0.000000 0.000000 0.000000 0.000000 0.000000 0.000000 0.000000 0.000000 0.000000 0.000000 0.000000 0.000000 0.000000 0.000000 0.000000 0.000000 0.000000 0.000000 0.000000 0.000000 0.000000 0.000000 0.000000 
scale_factor_in=0.500000 0.500000 0.500000 0.500000 0.500000 0.500000 0.500000 0.500000 0.500000 0.500000 0.500000 0.500000 0.500000 0.500000 0.500000 0.500000 0.500000 0.500000 0.500000 0.500000 0.500000 0.500000 0.500000 0.500000 0.500000 0.500000 0.500000 0.500000 0.500000 0.500000 0.500000 0.500000 0.500000 0.500000 0.500000 0.500000 0.500000 0.500000 0.500000 0.500000 0.500000 0.500000 0.500000 0.500000 0.500000 0.500000 0.500000 0.500000 0.500000 0.500000 0.500000 0.500000 0.500000 0.500000 0.500000 0.500000 0.500000 0.500000 0.500000 0.500000 0.500000 0.500000 0.500000 0.500000 0.500000 0.500000 0.500000 0.500000 0.500000 0.500000 0.500000 0.500000 0.500000 0.500000 0.500000 0.500000 0.500000 0.500000 0.500000 0.500000 0.500000 0.500000 0.500000 0.500000 0.500000 0.500000 0.500000 0.500000 0.500000 0.500000 0.500000 0.500000 0.500000 0.500000 0.500000 0.500000 0.500000 0.500000 0.500000 0.500000 0.500000 0.500000 0.500000 0.500000 0.500000 0.500000 0.500000 0.500000 0.500000 0.500000 0.500000 0.500000 0.500000 0.500000 0.500000 0.500000 0.500000 0.500000 0.500000 0.500000 0.500000 0.500000 0.500000 0.500000 0.500000 0.500000 0.500000 0.500000 0.500000 0.500000 0.500000 0.500000 0.500000 0.500000 0.500000 0.500000 0.500000 0.500000 0.500000 0.500000 0.500000 0.500000 0.500000 0.500000 0.500000 0.500000 0.500000 0.500000 0.500000 0.500000 0.500000 0.500000 0.500000 0.500000 0.500000 0.500000 0.500000 0.500000 0.500000 0.500000 0.500000 0.500000 0.500000 0.500000 0.500000 0.500000 0.500000 0.500000 0.500000 0.500000 0.500000 0.500000 0.500000 0.500000 0.500000 0.500000 0.500000 0.500000 0.500000 0.500000 0.500000 0.500000 0.500000 0.500000 0.500000 0.500000 0.500000 0.500000 0.500000 0.500000 0.500000 0.500000 0.500000 0.500000 0.500000 0.500000 0.500000 0.500000 0.500000 0.500000 0.500000 0.500000 0.500000 0.500000 0.500000 0.500000 0.500000 0.500000 0.500000 0.500000 0.500000 0.500000 0.500000 0.500000 0.500000 0.500000 0.500000 0.500000 0.500000 0.500000 0.500000 0.500000 0.500000 0.500000 0.500000 0.500000 0.500000 0.500000 0.500000 0.500000 0.500000 0.500000 0.500000 0.500000 0.500000 0.500000 0.500000 0.500000 0.500000 0.500000 0.500000 0.500000 0.500000 0.500000 0.500000 0.500000 0.500000 0.500000 0.500000 0.500000 0.500000 0.500000 0.500000 0.500000 0.500000 0.500000 0.500000 0.500000 0.500000 0.500000 0.500000 0.500000 0.500000 0.500000 0.500000 0.500000 0.500000 0.500000 0.500000 0.500000 0.500000 0.500000 0.500000 0.500000 0.500000 0.500000 0.500000 0.500000 0.500000 0.500000 0.500000 0.500000 0.500000 0.500000 0.500000 0.500000 0.500000 0.500000 0.500000 0.500000 0.500000 0.500000 0.500000 0.500000 0.500000 0.500000 0.500000 0.500000 0.500000 0.500000 0.500000 0.500000 0.500000 0.500000 0.500000 0.500000 0.500000 0.500000 0.500000 0.500000 0.500000 0.500000 0.500000 0.500000 0.500000 0.500000 0.500000 0.500000 0.500000 0.500000 0.500000 0.500000 0.500000 0.500000 0.500000 0.500000 0.500000 0.500000 0.500000 0.500000 0.500000 0.500000 0.500000 0.500000 0.500000 0.500000 0.500000 0.500000 0.500000 0.500000 0.500000 0.500000 0.500000 0.500000 0.500000 0.500000 0.500000 0.500000 0.500000 0.500000 0.500000 0.500000 0.500000 0.500000 0.500000 0.500000 0.500000 0.500000 0.500000 0.500000 0.500000 0.500000 0.500000 0.500000 0.500000 0.500000 0.500000 0.500000 0.500000 0.500000 0.500000 0.500000 0.500000 0.500000 0.500000 0.500000 0.500000 0.500000 0.500000 0.500000 0.500000 0.500000 0.500000 0.500000 0.500000 0.500000 0.500000 0.500000 0.500000 0.500000 0.500000 0.500000 0.500000 0.500000 0.500000 0.500000 0.500000 0.500000 0.500000 0.500000 0.500000 0.500000 0.500000 0.500000 0.500000 0.500000 0.500000 0.500000 0.500000 0.500000 0.500000 0.500000 0.500000 0.500000 0.500000 0.500000 0.500000 0.500000 0.500000 0.500000 0.500000 0.500000 0.500000 0.500000 0.500000 0.500000 0.500000 0.500000 0.500000 0.500000 0.500000 0.500000 0.500000 0.500000 0.500000 0.500000 0.500000 0.500000 0.500000 0.500000 0.500000 0.500000 0.500000 0.500000 0.500000 0.500000 0.500000 0.500000 0.500000 0.500000 0.500000 0.500000 0.500000 0.500000 0.500000 0.500000 0.500000 0.500000 0.500000 0.500000 0.500000 0.500000 0.500000 0.500000 0.500000 0.500000 0.500000 0.500000 0.500000 0.500000 0.500000 0.500000 0.500000 0.500000 0.500000 0.500000 0.500000 0.500000 0.500000 0.500000 0.500000 0.500000 0.500000 0.500000 0.500000 0.500000 0.500000 0.500000 0.500000 0.500000 0.500000 0.500000 0.500000 0.500000 0.500000 0.500000 0.500000 0.500000 0.500000 0.500000 0.500000 0.500000 0.500000 0.500000 0.500000 0.500000 0.500000 0.500000 0.500000 0.500000 0.500000 0.500000 0.500000 0.500000 0.500000 0.500000 0.500000 0.500000 0.500000 0.500000 0.500000 0.500000 0.500000 0.500000 0.500000 0.500000 0.500000 0.500000 0.500000 0.500000 0.500000 0.500000 0.500000 0.500000 0.500000 0.500000 0.500000 0.500000 0.500000 0.500000 0.500000 0.500000 0.500000 0.500000 0.500000 0.500000 0.500000 0.500000 0.500000 0.500000 0.500000 0.500000 0.500000 0.500000 0.500000 0.500000 0.500000 0.500000 0.500000 0.500000 0.500000 0.500000 0.500000 0.500000 0.500000 0.500000 0.500000 0.500000 0.500000 0.500000 0.500000 0.500000 0.500000 0.500000 0.500000 0.500000 0.500000 0.500000 0.500000 0.500000 0.500000 0.500000 0.500000 0.500000 0.500000 0.500000 0.500000 0.500000 0.500000 0.500000 0.500000 0.500000 0.500000 0.500000 0.500000 0.500000 0.500000 0.500000 0.500000 0.500000 0.500000 0.500000 0.500000 0.500000 0.500000 0.500000 0.500000 0.500000 0.500000 0.500000 0.500000 0.500000 0.500000 0.500000 0.500000 0.500000 0.500000 0.500000 0.500000 0.500000 0.500000 0.500000 0.500000 0.500000 0.500000 0.500000 0.500000 0.500000 0.500000 0.500000 0.500000 0.500000 0.500000 0.500000 0.500000 0.500000 0.500000 0.500000 0.500000 0.500000 0.500000 0.500000 0.500000 0.500000 0.500000 0.500000 0.500000 0.500000 0.500000 0.500000 0.500000 0.500000 0.500000 0.500000 0.500000 0.500000 0.500000 0.500000 0.500000 0.500000 0.500000 0.500000 0.500000 0.500000 0.500000 0.500000 0.500000 0.500000 0.500000 0.500000 0.500000 0.500000 0.500000 0.500000 0.500000 0.500000 0.500000 0.500000 0.500000 0.500000 0.500000 0.500000 0.500000 0.500000 0.500000 0.500000 0.500000 0.500000 0.500000 0.500000 0.500000 0.500000 0.500000 0.500000 0.500000 0.500000 0.500000 0.500000 0.500000 0.500000 0.500000 0.500000 0.500000 0.500000 0.500000 0.500000 0.500000 0.500000 0.500000 0.500000 0.500000 0.500000 0.500000 0.500000 0.500000 0.500000 0.500000 0.500000 0.500000 0.500000 0.500000 0.500000 0.500000 0.500000 0.500000 0.500000 0.500000 0.500000 0.500000 0.500000 0.500000 0.500000 0.500000 0.500000 0.500000 0.500000 0.500000 0.500000 0.500000 0.500000 0.500000 0.500000 0.500000 0.500000 0.500000 0.500000 0.500000 0.500000 0.500000 0.500000 0.500000 0.500000 0.500000 0.500000 0.500000 0.500000 0.500000 0.500000 0.500000 0.500000 0.500000 0.500000 0.500000 0.500000 0.500000 0.500000 0.500000 0.500000 0.500000 0.500000 0.500000 0.500000 0.500000 0.500000 0.500000 0.500000 0.500000 0.500000 0.500000 0.500000 0.500000 0.500000 0.500000 0.500000 
scale_mean_out=0.100378 0.111600 0.098378 0.101133 0.098178 0.090422 0.097333 0.105244 0.097978 0.099356 
scale_deviation_out=0.300474 0.314901 0.297883 0.301532 0.297467 0.286709 0.296454 0.306816 0.297245 0.299077 
scale_new_min_out=0.000000 0.000000 0.000000 0.000000 0.000000 0.000000 0.000000 0.000000 0.000000 0.000000 
scale_factor_out=0.500000 0.500000 0.500000 0.500000 0.500000 0.500000 0.500000 0.500000 0.500000 0.500000 
neurons (num_inputs, activation_function, activation_steepness)=(0, 0, 0.00000000000000000000e+000) (0, 0, 0.00000000000000000000e+000) (0, 0, 0.00000000000000000000e+000) (0, 0, 0.00000000000000000000e+000) (0, 0, 0.00000000000000000000e+000) (0, 0, 0.00000000000000000000e+000) (0, 0, 0.00000000000000000000e+000) (0, 0, 0.00000000000000000000e+000) (0, 0, 0.00000000000000000000e+000) (0, 0, 0.00000000000000000000e+000) (0, 0, 0.00000000000000000000e+000) (0, 0, 0.00000000000000000000e+000) (0, 0, 0.00000000000000000000e+000) (0, 0, 0.00000000000000000000e+000) (0, 0, 0.00000000000000000000e+000) (0, 0, 0.00000000000000000000e+000) (0, 0, 0.00000000000000000000e+000) (0, 0, 0.00000000000000000000e+000) (0, 0, 0.00000000000000000000e+000) (0, 0, 0.00000000000000000000e+000) (0, 0, 0.00000000000000000000e+000) (0, 0, 0.00000000000000000000e+000) (0, 0, 0.00000000000000000000e+000) (0, 0, 0.00000000000000000000e+000) (0, 0, 0.00000000000000000000e+000) (0, 0, 0.00000000000000000000e+000) (0, 0, 0.00000000000000000000e+000) (0, 0, 0.00000000000000000000e+000) (0, 0, 0.00000000000000000000e+000) (0, 0, 0.00000000000000000000e+000) (0, 0, 0.00000000000000000000e+000) (0, 0, 0.00000000000000000000e+000) (0, 0, 0.00000000000000000000e+000) (0, 0, 0.00000000000000000000e+000) (0, 0, 0.00000000000000000000e+000) (0, 0, 0.00000000000000000000e+000) (0, 0, 0.00000000000000000000e+000) (0, 0, 0.00000000000000000000e+000) (0, 0, 0.00000000000000000000e+000) (0, 0, 0.00000000000000000000e+000) (0, 0, 0.00000000000000000000e+000) (0, 0, 0.00000000000000000000e+000) (0, 0, 0.00000000000000000000e+000) (0, 0, 0.00000000000000000000e+000) (0, 0, 0.00000000000000000000e+000) (0, 0, 0.00000000000000000000e+000) (0, 0, 0.00000000000000000000e+000) (0, 0, 0.00000000000000000000e+000) (0, 0, 0.00000000000000000000e+000) (0, 0, 0.00000000000000000000e+000) (0, 0, 0.00000000000000000000e+000) (0, 0, 0.00000000000000000000e+000) (0, 0, 0.00000000000000000000e+000) (0, 0, 0.00000000000000000000e+000) (0, 0, 0.00000000000000000000e+000) (0, 0, 0.00000000000000000000e+000) (0, 0, 0.00000000000000000000e+000) (0, 0, 0.00000000000000000000e+000) (0, 0, 0.00000000000000000000e+000) (0, 0, 0.00000000000000000000e+000) (0, 0, 0.00000000000000000000e+000) (0, 0, 0.00000000000000000000e+000) (0, 0, 0.00000000000000000000e+000) (0, 0, 0.00000000000000000000e+000) (0, 0, 0.00000000000000000000e+000) (0, 0, 0.00000000000000000000e+000) (0, 0, 0.00000000000000000000e+000) (0, 0, 0.00000000000000000000e+000) (0, 0, 0.00000000000000000000e+000) (0, 0, 0.00000000000000000000e+000) (0, 0, 0.00000000000000000000e+000) (0, 0, 0.00000000000000000000e+000) (0, 0, 0.00000000000000000000e+000) (0, 0, 0.00000000000000000000e+000) (0, 0, 0.00000000000000000000e+000) (0, 0, 0.00000000000000000000e+000) (0, 0, 0.00000000000000000000e+000) (0, 0, 0.00000000000000000000e+000) (0, 0, 0.00000000000000000000e+000) (0, 0, 0.00000000000000000000e+000) (0, 0, 0.00000000000000000000e+000) (0, 0, 0.00000000000000000000e+000) (0, 0, 0.00000000000000000000e+000) (0, 0, 0.00000000000000000000e+000) (0, 0, 0.00000000000000000000e+000) (0, 0, 0.00000000000000000000e+000) (0, 0, 0.00000000000000000000e+000) (0, 0, 0.00000000000000000000e+000) (0, 0, 0.00000000000000000000e+000) (0, 0, 0.00000000000000000000e+000) (0, 0, 0.00000000000000000000e+000) (0, 0, 0.00000000000000000000e+000) (0, 0, 0.00000000000000000000e+000) (0, 0, 0.00000000000000000000e+000) (0, 0, 0.00000000000000000000e+000) (0, 0, 0.00000000000000000000e+000) (0, 0, 0.00000000000000000000e+000) (0, 0, 0.00000000000000000000e+000) (0, 0, 0.00000000000000000000e+000) (0, 0, 0.00000000000000000000e+000) (0, 0, 0.00000000000000000000e+000) (0, 0, 0.00000000000000000000e+000) (0, 0, 0.00000000000000000000e+000) (0, 0, 0.00000000000000000000e+000) (0, 0, 0.00000000000000000000e+000) (0, 0, 0.00000000000000000000e+000) (0, 0, 0.00000000000000000000e+000) (0, 0, 0.00000000000000000000e+000) (0, 0, 0.00000000000000000000e+000) (0, 0, 0.00000000000000000000e+000) (0, 0, 0.00000000000000000000e+000) (0, 0, 0.00000000000000000000e+000) (0, 0, 0.00000000000000000000e+000) (0, 0, 0.00000000000000000000e+000) (0, 0, 0.00000000000000000000e+000) (0, 0, 0.00000000000000000000e+000) (0, 0, 0.00000000000000000000e+000) (0, 0, 0.00000000000000000000e+000) (0, 0, 0.00000000000000000000e+000) (0, 0, 0.00000000000000000000e+000) (0, 0, 0.00000000000000000000e+000) (0, 0, 0.00000000000000000000e+000) (0, 0, 0.00000000000000000000e+000) (0, 0, 0.00000000000000000000e+000) (0, 0, 0.00000000000000000000e+000) (0, 0, 0.00000000000000000000e+000) (0, 0, 0.00000000000000000000e+000) (0, 0, 0.00000000000000000000e+000) (0, 0, 0.00000000000000000000e+000) (0, 0, 0.00000000000000000000e+000) (0, 0, 0.00000000000000000000e+000) (0, 0, 0.00000000000000000000e+000) (0, 0, 0.00000000000000000000e+000) (0, 0, 0.00000000000000000000e+000) (0, 0, 0.00000000000000000000e+000) (0, 0, 0.00000000000000000000e+000) (0, 0, 0.00000000000000000000e+000) (0, 0, 0.00000000000000000000e+000) (0, 0, 0.00000000000000000000e+000) (0, 0, 0.00000000000000000000e+000) (0, 0, 0.00000000000000000000e+000) (0, 0, 0.00000000000000000000e+000) (0, 0, 0.00000000000000000000e+000) (0, 0, 0.00000000000000000000e+000) (0, 0, 0.00000000000000000000e+000) (0, 0, 0.00000000000000000000e+000) (0, 0, 0.00000000000000000000e+000) (0, 0, 0.00000000000000000000e+000) (0, 0, 0.00000000000000000000e+000) (0, 0, 0.00000000000000000000e+000) (0, 0, 0.00000000000000000000e+000) (0, 0, 0.00000000000000000000e+000) (0, 0, 0.00000000000000000000e+000) (0, 0, 0.00000000000000000000e+000) (0, 0, 0.00000000000000000000e+000) (0, 0, 0.00000000000000000000e+000) (0, 0, 0.00000000000000000000e+000) (0, 0, 0.00000000000000000000e+000) (0, 0, 0.00000000000000000000e+000) (0, 0, 0.00000000000000000000e+000) (0, 0, 0.00000000000000000000e+000) (0, 0, 0.00000000000000000000e+000) (0, 0, 0.00000000000000000000e+000) (0, 0, 0.00000000000000000000e+000) (0, 0, 0.00000000000000000000e+000) (0, 0, 0.00000000000000000000e+000) (0, 0, 0.00000000000000000000e+000) (0, 0, 0.00000000000000000000e+000) (0, 0, 0.00000000000000000000e+000) (0, 0, 0.00000000000000000000e+000) (0, 0, 0.00000000000000000000e+000) (0, 0, 0.00000000000000000000e+000) (0, 0, 0.00000000000000000000e+000) (0, 0, 0.00000000000000000000e+000) (0, 0, 0.00000000000000000000e+000) (0, 0, 0.00000000000000000000e+000) (0, 0, 0.00000000000000000000e+000) (0, 0, 0.00000000000000000000e+000) (0, 0, 0.00000000000000000000e+000) (0, 0, 0.00000000000000000000e+000) (0, 0, 0.00000000000000000000e+000) (0, 0, 0.00000000000000000000e+000) (0, 0, 0.00000000000000000000e+000) (0, 0, 0.00000000000000000000e+000) (0, 0, 0.00000000000000000000e+000) (0, 0, 0.00000000000000000000e+000) (0, 0, 0.00000000000000000000e+000) (0, 0, 0.00000000000000000000e+000) (0, 0, 0.00000000000000000000e+000) (0, 0, 0.00000000000000000000e+000) (0, 0, 0.00000000000000000000e+000) (0, 0, 0.00000000000000000000e+000) (0, 0, 0.00000000000000000000e+000) (0, 0, 0.00000000000000000000e+000) (0, 0, 0.00000000000000000000e+000) (0, 0, 0.00000000000000000000e+000) (0, 0, 0.00000000000000000000e+000) (0, 0, 0.00000000000000000000e+000) (0, 0, 0.00000000000000000000e+000) (0, 0, 0.00000000000000000000e+000) (0, 0, 0.00000000000000000000e+000) (0, 0, 0.00000000000000000000e+000) (0, 0, 0.00000000000000000000e+000) (0, 0, 0.00000000000000000000e+000) (0, 0, 0.00000000000000000000e+000) (0, 0, 0.00000000000000000000e+000) (0, 0, 0.00000000000000000000e+000) (0, 0, 0.00000000000000000000e+000) (0, 0, 0.00000000000000000000e+000) (0, 0, 0.00000000000000000000e+000) (0, 0, 0.00000000000000000000e+000) (0, 0, 0.00000000000000000000e+000) (0, 0, 0.00000000000000000000e+000) (0, 0, 0.00000000000000000000e+000) (0, 0, 0.00000000000000000000e+000) (0, 0, 0.00000000000000000000e+000) (0, 0, 0.00000000000000000000e+000) (0, 0, 0.00000000000000000000e+000) (0, 0, 0.00000000000000000000e+000) (0, 0, 0.00000000000000000000e+000) (0, 0, 0.00000000000000000000e+000) (0, 0, 0.00000000000000000000e+000) (0, 0, 0.00000000000000000000e+000) (0, 0, 0.00000000000000000000e+000) (0, 0, 0.00000000000000000000e+000) (0, 0, 0.00000000000000000000e+000) (0, 0, 0.00000000000000000000e+000) (0, 0, 0.00000000000000000000e+000) (0, 0, 0.00000000000000000000e+000) (0, 0, 0.00000000000000000000e+000) (0, 0, 0.00000000000000000000e+000) (0, 0, 0.00000000000000000000e+000) (0, 0, 0.00000000000000000000e+000) (0, 0, 0.00000000000000000000e+000) (0, 0, 0.00000000000000000000e+000) (0, 0, 0.00000000000000000000e+000) (0, 0, 0.00000000000000000000e+000) (0, 0, 0.00000000000000000000e+000) (0, 0, 0.00000000000000000000e+000) (0, 0, 0.00000000000000000000e+000) (0, 0, 0.00000000000000000000e+000) (0, 0, 0.00000000000000000000e+000) (0, 0, 0.00000000000000000000e+000) (0, 0, 0.00000000000000000000e+000) (0, 0, 0.00000000000000000000e+000) (0, 0, 0.00000000000000000000e+000) (0, 0, 0.00000000000000000000e+000) (0, 0, 0.00000000000000000000e+000) (0, 0, 0.00000000000000000000e+000) (0, 0, 0.00000000000000000000e+000) (0, 0, 0.00000000000000000000e+000) (0, 0, 0.00000000000000000000e+000) (0, 0, 0.00000000000000000000e+000) (0, 0, 0.00000000000000000000e+000) (0, 0, 0.00000000000000000000e+000) (0, 0, 0.00000000000000000000e+000) (0, 0, 0.00000000000000000000e+000) (0, 0, 0.00000000000000000000e+000) (0, 0, 0.00000000000000000000e+000) (0, 0, 0.00000000000000000000e+000) (0, 0, 0.00000000000000000000e+000) (0, 0, 0.00000000000000000000e+000) (0, 0, 0.00000000000000000000e+000) (0, 0, 0.00000000000000000000e+000) (0, 0, 0.00000000000000000000e+000) (0, 0, 0.00000000000000000000e+000) (0, 0, 0.00000000000000000000e+000) (0, 0, 0.00000000000000000000e+000) (0, 0, 0.00000000000000000000e+000) (0, 0, 0.00000000000000000000e+000) (0, 0, 0.00000000000000000000e+000) (0, 0, 0.00000000000000000000e+000) (0, 0, 0.00000000000000000000e+000) (0, 0, 0.00000000000000000000e+000) (0, 0, 0.00000000000000000000e+000) (0, 0, 0.00000000000000000000e+000) (0, 0, 0.00000000000000000000e+000) (0, 0, 0.00000000000000000000e+000) (0, 0, 0.00000000000000000000e+000) (0, 0, 0.00000000000000000000e+000) (0, 0, 0.00000000000000000000e+000) (0, 0, 0.00000000000000000000e+000) (0, 0, 0.00000000000000000000e+000) (0, 0, 0.00000000000000000000e+000) (0, 0, 0.00000000000000000000e+000) (0, 0, 0.00000000000000000000e+000) (0, 0, 0.00000000000000000000e+000) (0, 0, 0.00000000000000000000e+000) (0, 0, 0.00000000000000000000e+000) (0, 0, 0.00000000000000000000e+000) (0, 0, 0.00000000000000000000e+000) (0, 0, 0.00000000000000000000e+000) (0, 0, 0.00000000000000000000e+000) (0, 0, 0.00000000000000000000e+000) (0, 0, 0.00000000000000000000e+000) (0, 0, 0.00000000000000000000e+000) (0, 0, 0.00000000000000000000e+000) (0, 0, 0.00000000000000000000e+000) (0, 0, 0.00000000000000000000e+000) (0, 0, 0.00000000000000000000e+000) (0, 0, 0.00000000000000000000e+000) (0, 0, 0.00000000000000000000e+000) (0, 0, 0.00000000000000000000e+000) (0, 0, 0.00000000000000000000e+000) (0, 0, 0.00000000000000000000e+000) (0, 0, 0.00000000000000000000e+000) (0, 0, 0.00000000000000000000e+000) (0, 0, 0.00000000000000000000e+000) (0, 0, 0.00000000000000000000e+000) (0, 0, 0.00000000000000000000e+000) (0, 0, 0.00000000000000000000e+000) (0, 0, 0.00000000000000000000e+000) (0, 0, 0.00000000000000000000e+000) (0, 0, 0.00000000000000000000e+000) (0, 0, 0.00000000000000000000e+000) (0, 0, 0.00000000000000000000e+000) (0, 0, 0.00000000000000000000e+000) (0, 0, 0.00000000000000000000e+000) (0, 0, 0.00000000000000000000e+000) (0, 0, 0.00000000000000000000e+000) (0, 0, 0.00000000000000000000e+000) (0, 0, 0.00000000000000000000e+000) (0, 0, 0.00000000000000000000e+000) (0, 0, 0.00000000000000000000e+000) (0, 0, 0.00000000000000000000e+000) (0, 0, 0.00000000000000000000e+000) (0, 0, 0.00000000000000000000e+000) (0, 0, 0.00000000000000000000e+000) (0, 0, 0.00000000000000000000e+000) (0, 0, 0.00000000000000000000e+000) (0, 0, 0.00000000000000000000e+000) (0, 0, 0.00000000000000000000e+000) (0, 0, 0.00000000000000000000e+000) (0, 0, 0.00000000000000000000e+000) (0, 0, 0.00000000000000000000e+000) (0, 0, 0.00000000000000000000e+000) (0, 0, 0.00000000000000000000e+000) (0, 0, 0.00000000000000000000e+000) (0, 0, 0.00000000000000000000e+000) (0, 0, 0.00000000000000000000e+000) (0, 0, 0.00000000000000000000e+000) (0, 0, 0.00000000000000000000e+000) (0, 0, 0.00000000000000000000e+000) (0, 0, 0.00000000000000000000e+000) (0, 0, 0.00000000000000000000e+000) (0, 0, 0.00000000000000000000e+000) (0, 0, 0.00000000000000000000e+000) (0, 0, 0.00000000000000000000e+000) (0, 0, 0.00000000000000000000e+000) (0, 0, 0.00000000000000000000e+000) (0, 0, 0.00000000000000000000e+000) (0, 0, 0.00000000000000000000e+000) (0, 0, 0.00000000000000000000e+000) (0, 0, 0.00000000000000000000e+000) (0, 0, 0.00000000000000000000e+000) (0, 0, 0.00000000000000000000e+000) (0, 0, 0.00000000000000000000e+000) (0, 0, 0.00000000000000000000e+000) (0, 0, 0.00000000000000000000e+000) (0, 0, 0.00000000000000000000e+000) (0, 0, 0.00000000000000000000e+000) (0, 0, 0.00000000000000000000e+000) (0, 0, 0.00000000000000000000e+000) (0, 0, 0.00000000000000000000e+000) (0, 0, 0.00000000000000000000e+000) (0, 0, 0.00000000000000000000e+000) (0, 0, 0.00000000000000000000e+000) (0, 0, 0.00000000000000000000e+000) (0, 0, 0.00000000000000000000e+000) (0, 0, 0.00000000000000000000e+000) (0, 0, 0.00000000000000000000e+000) (0, 0, 0.00000000000000000000e+000) (0, 0, 0.00000000000000000000e+000) (0, 0, 0.00000000000000000000e+000) (0, 0, 0.00000000000000000000e+000) (0, 0, 0.00000000000000000000e+000) (0, 0, 0.00000000000000000000e+000) (0, 0, 0.00000000000000000000e+000) (0, 0, 0.00000000000000000000e+000) (0, 0, 0.00000000000000000000e+000) (0, 0, 0.00000000000000000000e+000) (0, 0, 0.00000000000000000000e+000) (0, 0, 0.00000000000000000000e+000) (0, 0, 0.00000000000000000000e+000) (0, 0, 0.00000000000000000000e+000) (0, 0, 0.00000000000000000000e+000) (0, 0, 0.00000000000000000000e+000) (0, 0, 0.00000000000000000000e+000) (0, 0, 0.00000000000000000000e+000) (0, 0, 0.00000000000000000000e+000) (0, 0, 0.00000000000000000000e+000) (0, 0, 0.00000000000000000000e+000) (0, 0, 0.00000000000000000000e+000) (0, 0, 0.00000000000000000000e+000) (0, 0, 0.00000000000000000000e+000) (0, 0, 0.00000000000000000000e+000) (0, 0, 0.00000000000000000000e+000) (0, 0, 0.00000000000000000000e+000) (0, 0, 0.00000000000000000000e+000) (0, 0, 0.00000000000000000000e+000) (0, 0, 0.00000000000000000000e+000) (0, 0, 0.00000000000000000000e+000) (0, 0, 0.00000000000000000000e+000) (0, 0, 0.00000000000000000000e+000) (0, 0, 0.00000000000000000000e+000) (0, 0, 0.00000000000000000000e+000) (0, 0, 0.00000000000000000000e+000) (0, 0, 0.00000000000000000000e+000) (0, 0, 0.00000000000000000000e+000) (0, 0, 0.00000000000000000000e+000) (0, 0, 0.00000000000000000000e+000) (0, 0, 0.00000000000000000000e+000) (0, 0, 0.00000000000000000000e+000) (0, 0, 0.00000000000000000000e+000) (0, 0, 0.00000000000000000000e+000) (0, 0, 0.00000000000000000000e+000) (0, 0, 0.00000000000000000000e+000) (0, 0, 0.00000000000000000000e+000) (0, 0, 0.00000000000000000000e+000) (0, 0, 0.00000000000000000000e+000) (0, 0, 0.00000000000000000000e+000) (0, 0, 0.00000000000000000000e+000) (0, 0, 0.00000000000000000000e+000) (0, 0, 0.00000000000000000000e+000) (0, 0, 0.00000000000000000000e+000) (0, 0, 0.00000000000000000000e+000) (0, 0, 0.00000000000000000000e+000) (0, 0, 0.00000000000000000000e+000) (0, 0, 0.00000000000000000000e+000) (0, 0, 0.00000000000000000000e+000) (0, 0, 0.00000000000000000000e+000) (0, 0, 0.00000000000000000000e+000) (0, 0, 0.00000000000000000000e+000) (0, 0, 0.00000000000000000000e+000) (0, 0, 0.00000000000000000000e+000) (0, 0, 0.00000000000000000000e+000) (0, 0, 0.00000000000000000000e+000) (0, 0, 0.00000000000000000000e+000) (0, 0, 0.00000000000000000000e+000) (0, 0, 0.00000000000000000000e+000) (0, 0, 0.00000000000000000000e+000) (0, 0, 0.00000000000000000000e+000) (0, 0, 0.00000000000000000000e+000) (0, 0, 0.00000000000000000000e+000) (0, 0, 0.00000000000000000000e+000) (0, 0, 0.00000000000000000000e+000) (0, 0, 0.00000000000000000000e+000) (0, 0, 0.00000000000000000000e+000) (0, 0, 0.00000000000000000000e+000) (0, 0, 0.00000000000000000000e+000) (0, 0, 0.00000000000000000000e+000) (0, 0, 0.00000000000000000000e+000) (0, 0, 0.00000000000000000000e+000) (0, 0, 0.00000000000000000000e+000) (0, 0, 0.00000000000000000000e+000) (0, 0, 0.00000000000000000000e+000) (0, 0, 0.00000000000000000000e+000) (0, 0, 0.00000000000000000000e+000) (0, 0, 0.00000000000000000000e+000) (0, 0, 0.00000000000000000000e+000) (0, 0, 0.00000000000000000000e+000) (0, 0, 0.00000000000000000000e+000) (0, 0, 0.00000000000000000000e+000) (0, 0, 0.00000000000000000000e+000) (0, 0, 0.00000000000000000000e+000) (0, 0, 0.00000000000000000000e+000) (0, 0, 0.00000000000000000000e+000) (0, 0, 0.00000000000000000000e+000) (0, 0, 0.00000000000000000000e+000) (0, 0, 0.00000000000000000000e+000) (0, 0, 0.00000000000000000000e+000) (0, 0, 0.00000000000000000000e+000) (0, 0, 0.00000000000000000000e+000) (0, 0, 0.00000000000000000000e+000) (0, 0, 0.00000000000000000000e+000) (0, 0, 0.00000000000000000000e+000) (0, 0, 0.00000000000000000000e+000) (0, 0, 0.00000000000000000000e+000) (0, 0, 0.00000000000000000000e+000) (0, 0, 0.00000000000000000000e+000) (0, 0, 0.00000000000000000000e+000) (0, 0, 0.00000000000000000000e+000) (0, 0, 0.00000000000000000000e+000) (0, 0, 0.00000000000000000000e+000) (0, 0, 0.00000000000000000000e+000) (0, 0, 0.00000000000000000000e+000) (0, 0, 0.00000000000000000000e+000) (0, 0, 0.00000000000000000000e+000) (0, 0, 0.00000000000000000000e+000) (0, 0, 0.00000000000000000000e+000) (0, 0, 0.00000000000000000000e+000) (0, 0, 0.00000000000000000000e+000) (0, 0, 0.00000000000000000000e+000) (0, 0, 0.00000000000000000000e+000) (0, 0, 0.00000000000000000000e+000) (0, 0, 0.00000000000000000000e+000) (0, 0, 0.00000000000000000000e+000) (0, 0, 0.00000000000000000000e+000) (0, 0, 0.00000000000000000000e+000) (0, 0, 0.00000000000000000000e+000) (0, 0, 0.00000000000000000000e+000) (0, 0, 0.00000000000000000000e+000) (0, 0, 0.00000000000000000000e+000) (0, 0, 0.00000000000000000000e+000) (0, 0, 0.00000000000000000000e+000) (0, 0, 0.00000000000000000000e+000) (0, 0, 0.00000000000000000000e+000) (0, 0, 0.00000000000000000000e+000) (0, 0, 0.00000000000000000000e+000) (0, 0, 0.00000000000000000000e+000) (0, 0, 0.00000000000000000000e+000) (0, 0, 0.00000000000000000000e+000) (0, 0, 0.00000000000000000000e+000) (0, 0, 0.00000000000000000000e+000) (0, 0, 0.00000000000000000000e+000) (0, 0, 0.00000000000000000000e+000) (0, 0, 0.00000000000000000000e+000) (0, 0, 0.00000000000000000000e+000) (0, 0, 0.00000000000000000000e+000) (0, 0, 0.00000000000000000000e+000) (0, 0, 0.00000000000000000000e+000) (0, 0, 0.00000000000000000000e+000) (0, 0, 0.00000000000000000000e+000) (0, 0, 0.00000000000000000000e+000) (0, 0, 0.00000000000000000000e+000) (0, 0, 0.00000000000000000000e+000) (0, 0, 0.00000000000000000000e+000) (0, 0, 0.00000000000000000000e+000) (0, 0, 0.00000000000000000000e+000) (0, 0, 0.00000000000000000000e+000) (0, 0, 0.00000000000000000000e+000) (0, 0, 0.00000000000000000000e+000) (0, 0, 0.00000000000000000000e+000) (0, 0, 0.00000000000000000000e+000) (0, 0, 0.00000000000000000000e+000) (0, 0, 0.00000000000000000000e+000) (0, 0, 0.00000000000000000000e+000) (0, 0, 0.00000000000000000000e+000) (0, 0, 0.00000000000000000000e+000) (0, 0, 0.00000000000000000000e+000) (0, 0, 0.00000000000000000000e+000) (0, 0, 0.00000000000000000000e+000) (0, 0, 0.00000000000000000000e+000) (0, 0, 0.00000000000000000000e+000) (0, 0, 0.00000000000000000000e+000) (0, 0, 0.00000000000000000000e+000) (0, 0, 0.00000000000000000000e+000) (0, 0, 0.00000000000000000000e+000) (0, 0, 0.00000000000000000000e+000) (0, 0, 0.00000000000000000000e+000) (0, 0, 0.00000000000000000000e+000) (0, 0, 0.00000000000000000000e+000) (0, 0, 0.00000000000000000000e+000) (0, 0, 0.00000000000000000000e+000) (0, 0, 0.00000000000000000000e+000) (0, 0, 0.00000000000000000000e+000) (0, 0, 0.00000000000000000000e+000) (0, 0, 0.00000000000000000000e+000) (0, 0, 0.00000000000000000000e+000) (0, 0, 0.00000000000000000000e+000) (0, 0, 0.00000000000000000000e+000) (0, 0, 0.00000000000000000000e+000) (0, 0, 0.00000000000000000000e+000) (0, 0, 0.00000000000000000000e+000) (0, 0, 0.00000000000000000000e+000) (0, 0, 0.00000000000000000000e+000) (0, 0, 0.00000000000000000000e+000) (0, 0, 0.00000000000000000000e+000) (0, 0, 0.00000000000000000000e+000) (0, 0, 0.00000000000000000000e+000) (0, 0, 0.00000000000000000000e+000) (0, 0, 0.00000000000000000000e+000) (0, 0, 0.00000000000000000000e+000) (0, 0, 0.00000000000000000000e+000) (0, 0, 0.00000000000000000000e+000) (0, 0, 0.00000000000000000000e+000) (0, 0, 0.00000000000000000000e+000) (0, 0, 0.00000000000000000000e+000) (0, 0, 0.00000000000000000000e+000) (0, 0, 0.00000000000000000000e+000) (0, 0, 0.00000000000000000000e+000) (0, 0, 0.00000000000000000000e+000) (0, 0, 0.00000000000000000000e+000) (0, 0, 0.00000000000000000000e+000) (0, 0, 0.00000000000000000000e+000) (0, 0, 0.00000000000000000000e+000) (0, 0, 0.00000000000000000000e+000) (0, 0, 0.00000000000000000000e+000) (0, 0, 0.00000000000000000000e+000) (0, 0, 0.00000000000000000000e+000) (0, 0, 0.00000000000000000000e+000) (0, 0, 0.00000000000000000000e+000) (0, 0, 0.00000000000000000000e+000) (0, 0, 0.00000000000000000000e+000) (0, 0, 0.00000000000000000000e+000) (0, 0, 0.00000000000000000000e+000) (0, 0, 0.00000000000000000000e+000) (0, 0, 0.00000000000000000000e+000) (0, 0, 0.00000000000000000000e+000) (0, 0, 0.00000000000000000000e+000) (0, 0, 0.00000000000000000000e+000) (0, 0, 0.00000000000000000000e+000) (0, 0, 0.00000000000000000000e+000) (0, 0, 0.00000000000000000000e+000) (0, 0, 0.00000000000000000000e+000) (0, 0, 0.00000000000000000000e+000) (0, 0, 0.00000000000000000000e+000) (0, 0, 0.00000000000000000000e+000) (0, 0, 0.00000000000000000000e+000) (0, 0, 0.00000000000000000000e+000) (0, 0, 0.00000000000000000000e+000) (0, 0, 0.00000000000000000000e+000) (0, 0, 0.00000000000000000000e+000) (0, 0, 0.00000000000000000000e+000) (0, 0, 0.00000000000000000000e+000) (0, 0, 0.00000000000000000000e+000) (0, 0, 0.00000000000000000000e+000) (0, 0, 0.00000000000000000000e+000) (0, 0, 0.00000000000000000000e+000) (0, 0, 0.00000000000000000000e+000) (0, 0, 0.00000000000000000000e+000) (0, 0, 0.00000000000000000000e+000) (0, 0, 0.00000000000000000000e+000) (0, 0, 0.00000000000000000000e+000) (0, 0, 0.00000000000000000000e+000) (0, 0, 0.00000000000000000000e+000) (0, 0, 0.00000000000000000000e+000) (0, 0, 0.00000000000000000000e+000) (0, 0, 0.00000000000000000000e+000) (0, 0, 0.00000000000000000000e+000) (0, 0, 0.00000000000000000000e+000) (0, 0, 0.00000000000000000000e+000) (0, 0, 0.00000000000000000000e+000) (0, 0, 0.00000000000000000000e+000) (0, 0, 0.00000000000000000000e+000) (0, 0, 0.00000000000000000000e+000) (0, 0, 0.00000000000000000000e+000) (0, 0, 0.00000000000000000000e+000) (0, 0, 0.00000000000000000000e+000) (0, 0, 0.00000000000000000000e+000) (0, 0, 0.00000000000000000000e+000) (0, 0, 0.00000000000000000000e+000) (0, 0, 0.00000000000000000000e+000) (0, 0, 0.00000000000000000000e+000) (0, 0, 0.00000000000000000000e+000) (0, 0, 0.00000000000000000000e+000) (0, 0, 0.00000000000000000000e+000) (0, 0, 0.00000000000000000000e+000) (0, 0, 0.00000000000000000000e+000) (0, 0, 0.00000000000000000000e+000) (0, 0, 0.00000000000000000000e+000) (0, 0, 0.00000000000000000000e+000) (0, 0, 0.00000000000000000000e+000) (0, 0, 0.00000000000000000000e+000) (0, 0, 0.00000000000000000000e+000) (0, 0, 0.00000000000000000000e+000) (0, 0, 0.00000000000000000000e+000) (0, 0, 0.00000000000000000000e+000) (0, 0, 0.00000000000000000000e+000) (0, 0, 0.00000000000000000000e+000) (0, 0, 0.00000000000000000000e+000) (0, 0, 0.00000000000000000000e+000) (0, 0, 0.00000000000000000000e+000) (0, 0, 0.00000000000000000000e+000) (0, 0, 0.00000000000000000000e+000) (0, 0, 0.00000000000000000000e+000) (0, 0, 0.00000000000000000000e+000) (0, 0, 0.00000000000000000000e+000) (0, 0, 0.00000000000000000000e+000) (0, 0, 0.00000000000000000000e+000) (0, 0, 0.00000000000000000000e+000) (0, 0, 0.00000000000000000000e+000) (0, 0, 0.00000000000000000000e+000) (0, 0, 0.00000000000000000000e+000) (0, 0, 0.00000000000000000000e+000) (0, 0, 0.00000000000000000000e+000) (0, 0, 0.00000000000000000000e+000) (0, 0, 0.00000000000000000000e+000) (0, 0, 0.00000000000000000000e+000) (0, 0, 0.00000000000000000000e+000) (0, 0, 0.00000000000000000000e+000) (0, 0, 0.00000000000000000000e+000) (0, 0, 0.00000000000000000000e+000) (0, 0, 0.00000000000000000000e+000) (0, 0, 0.00000000000000000000e+000) (0, 0, 0.00000000000000000000e+000) (0, 0, 0.00000000000000000000e+000) (0, 0, 0.00000000000000000000e+000) (0, 0, 0.00000000000000000000e+000) (0, 0, 0.00000000000000000000e+000) (0, 0, 0.00000000000000000000e+000) (0, 0, 0.00000000000000000000e+000) (0, 0, 0.00000000000000000000e+000) (0, 0, 0.00000000000000000000e+000) (0, 0, 0.00000000000000000000e+000) (0, 0, 0.00000000000000000000e+000) (0, 0, 0.00000000000000000000e+000) (0, 0, 0.00000000000000000000e+000) (0, 0, 0.00000000000000000000e+000) (0, 0, 0.00000000000000000000e+000) (0, 0, 0.00000000000000000000e+000) (0, 0, 0.00000000000000000000e+000) (0, 0, 0.00000000000000000000e+000) (0, 0, 0.00000000000000000000e+000) (0, 0, 0.00000000000000000000e+000) (0, 0, 0.00000000000000000000e+000) (0, 0, 0.00000000000000000000e+000) (0, 0, 0.00000000000000000000e+000) (0, 0, 0.00000000000000000000e+000) (0, 0, 0.00000000000000000000e+000) (0, 0, 0.00000000000000000000e+000) (0, 0, 0.00000000000000000000e+000) (0, 0, 0.00000000000000000000e+000) (0, 0, 0.00000000000000000000e+000) (0, 0, 0.00000000000000000000e+000) (0, 0, 0.00000000000000000000e+000) (0, 0, 0.00000000000000000000e+000) (0, 0, 0.00000000000000000000e+000) (0, 0, 0.00000000000000000000e+000) (0, 0, 0.00000000000000000000e+000) (0, 0, 0.00000000000000000000e+000) (0, 0, 0.00000000000000000000e+000) (0, 0, 0.00000000000000000000e+000) (0, 0, 0.00000000000000000000e+000) (0, 0, 0.00000000000000000000e+000) (0, 0, 0.00000000000000000000e+000) (0, 0, 0.00000000000000000000e+000) (0, 0, 0.00000000000000000000e+000) (0, 0, 0.00000000000000000000e+000) (0, 0, 0.00000000000000000000e+000) (0, 0, 0.00000000000000000000e+000) (0, 0, 0.00000000000000000000e+000) (0, 0, 0.00000000000000000000e+000) (0, 0, 0.00000000000000000000e+000) (0, 0, 0.00000000000000000000e+000) (0, 0, 0.00000000000000000000e+000) (0, 0, 0.00000000000000000000e+000) (0, 0, 0.00000000000000000000e+000) (0, 0, 0.00000000000000000000e+000) (0, 0, 0.00000000000000000000e+000) (0, 0, 0.00000000000000000000e+000) (0, 0, 0.00000000000000000000e+000) (0, 0, 0.00000000000000000000e+000) (0, 0, 0.00000000000000000000e+000) (0, 0, 0.00000000000000000000e+000) (0, 0, 0.00000000000000000000e+000) (0, 0, 0.00000000000000000000e+000) (0, 0, 0.00000000000000000000e+000) (0, 0, 0.00000000000000000000e+000) (0, 0, 0.00000000000000000000e+000) (0, 0, 0.00000000000000000000e+000) (0, 0, 0.00000000000000000000e+000) (0, 0, 0.00000000000000000000e+000) (0, 0, 0.00000000000000000000e+000) (0, 0, 0.00000000000000000000e+000) (0, 0, 0.00000000000000000000e+000) (0, 0, 0.00000000000000000000e+000) (0, 0, 0.00000000000000000000e+000) (0, 0, 0.00000000000000000000e+000) (0, 0, 0.00000000000000000000e+000) (0, 0, 0.00000000000000000000e+000) (0, 0, 0.00000000000000000000e+000) (0, 0, 0.00000000000000000000e+000) (0, 0, 0.00000000000000000000e+000) (0, 0, 0.00000000000000000000e+000) (0, 0, 0.00000000000000000000e+000) (0, 0, 0.00000000000000000000e+000) (0, 0, 0.00000000000000000000e+000) (0, 0, 0.00000000000000000000e+000) (0, 0, 0.00000000000000000000e+000) (0, 0, 0.00000000000000000000e+000) (0, 0, 0.00000000000000000000e+000) (0, 0, 0.00000000000000000000e+000) (0, 0, 0.00000000000000000000e+000) (0, 0, 0.00000000000000000000e+000) (0, 0, 0.00000000000000000000e+000) (0, 0, 0.00000000000000000000e+000) (0, 0, 0.00000000000000000000e+000) (0, 0, 0.00000000000000000000e+000) (0, 0, 0.00000000000000000000e+000) (0, 0, 0.00000000000000000000e+000) (0, 0, 0.00000000000000000000e+000) (0, 0, 0.00000000000000000000e+000) (0, 0, 0.00000000000000000000e+000) (0, 0, 0.00000000000000000000e+000) (785, 3, 5.00000000000000000000e-001) (785, 3, 5.00000000000000000000e-001) (785, 3, 5.00000000000000000000e-001) (785, 3, 5.00000000000000000000e-001) (785, 3, 5.00000000000000000000e-001) (785, 3, 5.00000000000000000000e-001) (785, 3, 5.00000000000000000000e-001) (785, 3, 5.00000000000000000000e-001) (785, 3, 5.00000000000000000000e-001) (785, 3, 5.00000000000000000000e-001) (785, 3, 5.00000000000000000000e-001) (785, 3, 5.00000000000000000000e-001) (785, 3, 5.00000000000000000000e-001) (785, 3, 5.00000000000000000000e-001) (785, 3, 5.00000000000000000000e-001) (785, 3, 5.00000000000000000000e-001) (785, 3, 5.00000000000000000000e-001) (785, 3, 5.00000000000000000000e-001) (785, 3, 5.00000000000000000000e-001) (785, 3, 5.00000000000000000000e-001) (785, 3, 5.00000000000000000000e-001) (785, 3, 5.00000000000000000000e-001) (785, 3, 5.00000000000000000000e-001) (785, 3, 5.00000000000000000000e-001) (785, 3, 5.00000000000000000000e-001) (785, 3, 5.00000000000000000000e-001) (785, 3, 5.00000000000000000000e-001) (785, 3, 5.00000000000000000000e-001) (785, 3, 5.00000000000000000000e-001) (785, 3, 5.00000000000000000000e-001) (0, 3, 0.00000000000000000000e+000) (31, 3, 5.00000000000000000000e-001) (31, 3, 5.00000000000000000000e-001) (31, 3, 5.00000000000000000000e-001) (31, 3, 5.00000000000000000000e-001) (31, 3, 5.00000000000000000000e-001) (31, 3, 5.00000000000000000000e-001) (31, 3, 5.00000000000000000000e-001) (31, 3, 5.00000000000000000000e-001) (31, 3, 5.00000000000000000000e-001) (31, 3, 5.00000000000000000000e-001) (0, 3, 0.00000000000000000000e+000) 
connections (connected_to_neuron, weight)=(0, 6.90917979045480020000e-003) (1, 8.42346203958186380000e-002) (2, 4.93469245634514660000e-002) (3, -4.51416022351622810000e-002) (4, -4.04785162281768860000e-002) (5, -8.92761243771929000000e-002) (6, 7.50915538533263320000e-002) (7, 8.73535169266688170000e-002) (8, -4.33410650989571880000e-002) (9, 6.39526376717185490000e-002) (10, -4.05273443539044820000e-003) (11, -6.02111825378415230000e-002) (12, 8.43951826528604320000e-002) (13, 3.55848444494336060000e-002) (14, -1.15159863305483880000e-002) (15, -6.96278338755387670000e-002) (16, -5.39794929918571140000e-002) (17, -5.85449227473873180000e-002) (18, 2.43225101280586390000e-002) (19, 7.90466320372615880000e-002) (20, -2.76184086146713530000e-002) (21, -8.25622570896484830000e-002) (22, -8.55834973690434710000e-002) (23, 5.05371101280616130000e-003) (24, 5.43457039348140820000e-002) (25, -5.49011238649654840000e-002) (26, 5.01770027008205940000e-002) (27, 2.31628421420282390000e-002) (28, 7.89306652386585480000e-002) (29, -3.06091313154865930000e-002) (30, 7.88940441443628520000e-002) (31, 4.51110846565825340000e-002) (32, 5.00732429336494530000e-002) (33, 6.09876017491702630000e-002) (34, 4.14664396805278430000e-002) (35, 9.45507367945456760000e-002) (36, -2.10649577870984620000e-002) (37, 8.37651758493513920000e-002) (38, 1.59812225224340470000e-002) (39, -5.89453748578603050000e-002) (40, 2.94757825694435160000e-002) (41, 3.62177162270307520000e-002) (42, -9.16532517883093260000e-002) (43, -5.75686335302470850000e-003) (44, -1.37113572913498790000e-002) (45, -4.51856912077890220000e-002) (46, -1.19118027041586800000e-001) (47, 2.37197797529880680000e-002) (48, -1.18711423583538160000e-001) (49, -1.25796244542939720000e-001) (50, 1.30474419979314370000e-002) (51, -8.53681460961900620000e-002) (52, -3.41674809778851340000e-002) (53, -5.87829598603093470000e-002) (54, -7.87231457043162660000e-002) (55, 7.79846203026863800000e-002) (56, -2.94006352037285980000e-002) (57, -5.57189949709027130000e-002) (58, -5.05615241909254110000e-002) (59, 1.09825695329543660000e-002) (60, -8.88079163982718330000e-002) (61, 6.64920524840893620000e-002) (62, -1.10400967028426500000e-002) (63, -6.33697905443327410000e-002) (64, 6.80969608612836950000e-002) (65, 9.08845457845337130000e-002) (66, 9.56184226517232260000e-002) (67, 9.84999668424051640000e-003) (68, -2.21768303849551290000e-001) (69, -1.36979526144077380000e-001) (70, -1.09186027216956350000e-001) (71, -1.95462400897234160000e-001) (72, -4.45448539003864480000e-002) (73, -1.00490627578415080000e-001) (74, -5.22467836754632390000e-002) (75, -1.17296467170253520000e-001) (76, -7.73946620696315530000e-002) (77, -8.81643519136474930000e-002) (78, -6.84841470566002060000e-002) (79, -6.62220741188490890000e-002) (80, -5.76864922418885430000e-002) (81, -3.28731746582416190000e-003) (82, 3.86474615133920450000e-002) (83, -1.33117677764857940000e-002) (84, -7.11547862165389230000e-002) (85, 1.60827639115268540000e-002) (86, 1.00299465718610740000e-001) (87, 9.29044911205602480000e-002) (88, -4.05711447424297320000e-002) (89, 2.30369681705334880000e-002) (90, -1.09606104846966900000e-001) (91, 1.32898533838395230000e-001) (92, 1.01076619287905080000e-002) (93, -6.96659329712885630000e-002) (94, -1.04201812947180010000e-001) (95, -3.36011471096620160000e-001) (96, -5.57251481596878430000e-001) (97, -4.73041365880394190000e-001) (98, -7.41958644270979130000e-001) (99, -5.54290048268027970000e-001) (100, -1.91995902082346100000e-001) (101, 3.12355716058837880000e-001) (102, 1.23750943566871180000e-001) (103, 1.97999028065259930000e-001) (104, 3.35292368469284510000e-001) (105, 1.15880646503990760000e-001) (106, -1.21629091181377730000e-002) (107, 1.02925039304849170000e-001) (108, 9.31664210476496750000e-002) (109, 3.86395686671338470000e-002) (110, 2.60810011764008550000e-002) (111, 4.48913580908083530000e-002) (112, -2.47009281024475060000e-002) (113, 9.44068741457448480000e-002) (114, -1.88393811242410190000e-002) (115, 1.12143165947449470000e-001) (116, -1.02482196058173530000e-001) (117, 1.39049576908614610000e-002) (118, 2.17884597661072960000e-001) (119, 7.81570000134682170000e-002) (120, -2.00202274490348160000e-001) (121, -4.27326168408009190000e-001) (122, -5.33845565254597030000e-001) (123, -7.38045314608072540000e-001) (124, -1.07667769601000200000e+000) (125, -1.12945572055229860000e+000) (126, -2.31827954640658280000e-001) (127, -2.80603799259759870000e-001) (128, -8.30574255569500320000e-002) (129, -2.99735309380203210000e-001) (130, 3.24331423341781830000e-001) (131, -3.74658276744621990000e-001) (132, -4.32479941294681040000e-001) (133, -2.69949726323144180000e-001) (134, -3.22282852456968310000e-001) (135, -1.83373794756439890000e-001) (136, 6.81412969991721520000e-002) (137, 8.75018953956264720000e-002) (138, 1.31288334913117750000e-002) (139, -4.20481028199531160000e-002) (140, -6.43310556461074160000e-002) (141, -2.17834475902236590000e-002) (142, 3.45701527417291020000e-002) (143, 7.69584697557361970000e-002) (144, -1.30130480127099970000e-002) (145, -1.72395751786523390000e-002) (146, -2.26148559384506730000e-001) (147, -5.71206276673769330000e-001) (148, -8.86459884532710300000e-001) (149, -4.46664162438638270000e-001) (150, 7.96145357052236770000e-001) (151, -2.65170925825941370000e-001) (152, -5.19373347790668570000e-001) (153, -1.63826994476559380000e-001) (154, -2.30649513392272980000e+000) (155, -5.21850039399248340000e-001) (156, -9.82601670246298190000e-001) (157, -1.08748454606891460000e-001) (158, 1.24863811985622150000e+000) (159, 1.29082550549620900000e+000) (160, 1.06037758083736430000e+000) (161, -4.80192951294933480000e-003) (162, -6.13676205745045780000e-001) (163, -1.10797414102723810000e+000) (164, -4.29813040532931840000e-001) (165, -1.01556602197237430000e-001) (166, -2.21994340808513440000e-002) (167, 9.15985190630262400000e-002) (168, 6.01318368335341800000e-002) (169, -3.03955108896303460000e-002) (170, -5.86821846378792130000e-002) (171, 1.00459153722026820000e-001) (172, 7.02244025930005980000e-002) (173, -8.48387161392238460000e-001) (174, -1.73121878780489010000e-001) (175, -9.72207803080372690000e-001) (176, -1.83834605265946390000e-001) (177, 1.06002190636568150000e+000) (178, 9.00580852651838850000e-001) (179, 1.41365580686968760000e+000) (180, 1.70194764812842010000e+000) (181, 8.56515413767310660000e-001) (182, 1.79726544165081310000e+000) (183, 1.40657361476534800000e+000) (184, 7.05729973780964910000e-001) (185, 2.87310541412774300000e+000) (186, 1.80994080218299920000e+000) (187, 1.85102206571014260000e+000) (188, 1.77615762936653090000e+000) (189, 1.04974652089141360000e+000) (190, -7.42565385364971410000e-001) (191, -1.46308496333180500000e+000) (192, -5.98939026418641940000e-001) (193, -2.34165279992184120000e-001) (194, -1.08815018839212800000e-002) (195, -9.41758397357682630000e-002) (196, -9.65068308783713640000e-002) (197, -9.64406397120170370000e-002) (198, -4.55360602046529580000e-002) (199, -1.24238978580724950000e-002) (200, -1.33224886113867180000e-001) (201, -5.96580243341850790000e-002) (202, 6.95737473547780040000e-001) (203, -4.93864132074090910000e-001) (204, 1.07240180948166160000e+000) (205, 2.02749490026341570000e-001) (206, 1.32624857725100780000e+000) (207, 4.40782153339495770000e-001) (208, 2.08261137507216220000e+000) (209, 3.16898241302507390000e+000) (210, 1.29947098028032640000e+000) (211, 2.21269166820859460000e+000) (212, 3.72432436035866000000e+000) (213, 1.03307029385676090000e+000) (214, 1.07757866253720480000e+000) (215, 1.13384659265475950000e-003) (216, 1.55076884068538750000e+000) (217, -3.83087033727008610000e-003) (218, -5.83268919789800000000e-001) (219, -1.54465399693980010000e+000) (220, -1.64941885422263960000e+000) (221, -7.12443760705182890000e-001) (222, -2.11637162098209600000e-001) (223, -8.99899534983101130000e-002) (224, -1.68133124418958780000e-002) (225, -3.71052082557435660000e-002) (226, 1.06661299588157110000e-001) (227, 1.96273802806547580000e-001) (228, 6.53747414243558640000e-001) (229, 1.48308281272083820000e+000) (230, 9.84590822114797760000e-001) (231, 1.03924605033930950000e+000) (232, 1.57279041610146830000e+000) (233, 3.97036115188711510000e-001) (234, 1.33091845362222030000e+000) (235, 5.66885637812621020000e-001) (236, 1.36888528006313680000e+000) (237, 2.03509905061613770000e+000) (238, 1.62534680676463310000e+000) (239, 1.00765505271654930000e+000) (240, 1.79732728441190280000e+000) (241, -3.47670153327583110000e-001) (242, 8.39643145811703300000e-001) (243, -2.94587555175340080000e-001) (244, 1.36907597192843070000e-001) (245, -2.71013591482475390000e-001) (246, 1.11203796131978260000e+000) (247, -9.99688223509878070000e-001) (248, -1.36048692693621120000e+000) (249, -8.96021056757914550000e-001) (250, -1.65123023132944080000e-001) (251, -2.03946015370828000000e-002) (252, 3.83396313435096160000e-002) (253, 1.19756671621344580000e-001) (254, -6.18711294091253170000e-003) (255, 3.81405924876798140000e-001) (256, 1.13412657935880130000e+000) (257, 1.84235948305725050000e+000) (258, 2.11844572211956230000e+000) (259, 1.42319299627055100000e+000) (260, 3.71379320556004030000e-001) (261, 3.41806290419477050000e+000) (262, 1.64639425343207010000e+000) (263, 1.94272738095038360000e+000) (264, 1.81851748581412860000e+000) (265, 2.02445815713109800000e+000) (266, 2.95262439138884100000e+000) (267, 2.55099912925139760000e+000) (268, 4.01226112343188220000e-001) (269, 1.13786155246023800000e+000) (270, 2.81812041184228150000e-001) (271, -9.20268912026398820000e-001) (272, 1.28379768484436730000e+000) (273, 8.21384198198258250000e-001) (274, 9.82081864690049880000e-001) (275, -1.61299196795257890000e-001) (276, -2.76762210539918170000e-001) (277, 2.03089195607010750000e-001) (278, 3.85204868099223510000e-002) (279, -8.72883889528915450000e-003) (280, -4.42451554975118070000e-003) (281, 9.79098235027693890000e-002) (282, 1.85602274558950510000e-001) (283, 6.86740909149987980000e-001) (284, 1.01340439934032100000e+000) (285, 1.61253886160947000000e+000) (286, 2.51587381705610320000e+000) (287, 9.80407179515583870000e-001) (288, 7.35465993418664480000e-001) (289, 1.96445302697350810000e+000) (290, 3.12117936057079470000e+000) (291, 2.89943368035990190000e+000) (292, 2.16780580978906690000e+000) (293, 3.02689421188062010000e+000) (294, 1.82058852009852750000e+000) (295, -4.20836809487429520000e-001) (296, -3.70853405255954010000e-001) (297, -1.69191829327316450000e+000) (298, 9.63581706264405090000e-001) (299, -1.27742881127437280000e+000) (300, 1.93382874835454130000e+000) (301, 8.53426973770601280000e-001) (302, 8.91516444801758070000e-001) (303, 1.41469050598237200000e+000) (304, 3.83794409424123350000e-001) (305, 5.40372458887014910000e-001) (306, 3.46530570778465430000e-002) (307, 4.95420719713078470000e-002) (308, 8.18645073803078720000e-002) (309, -9.06356376071441350000e-003) (310, 1.74553029995315050000e-001) (311, 5.78960217640918100000e-001) (312, 1.66865881990554250000e+000) (313, 8.01455079283486360000e-001) (314, 9.23021049065528620000e-001) (315, -5.88442881803778740000e-002) (316, 5.27950687483233370000e-001) (317, 6.36365691615691680000e-001) (318, -1.18601084499410510000e+000) (319, 1.24048404122246540000e+000) (320, 1.48370517505875750000e+000) (321, 5.75196045565609220000e-001) (322, -1.61207002337773940000e-001) (323, -3.30278553780140760000e-001) (324, 4.94326190432668040000e-002) (325, 1.40343937931850400000e-001) (326, 1.70601213096447000000e+000) (327, 8.92557129676003200000e-001) (328, 1.40662543213506040000e+000) (329, 5.23779682135143370000e-001) (330, 1.51661979796315220000e+000) (331, 1.02334727422615890000e+000) (332, 6.10535524466131680000e-001) (333, 3.79247683374465570000e-001) (334, 1.69566010871407710000e-001) (335, 7.19272781927497020000e-002) (336, 8.16049703322893480000e-002) (337, -2.13006530135569780000e-003) (338, 1.01400728767281000000e-001) (339, 6.10039650612122950000e-001) (340, 1.96218296987803620000e+000) (341, 8.18596954237489350000e-001) (342, -1.98561138170057660000e-001) (343, -1.19377158126449070000e+000) (344, -4.00362885335547480000e-001) (345, -6.46086878570046990000e-001) (346, -2.23957616381380650000e+000) (347, -2.64835385587629090000e+000) (348, -2.91258209002657060000e+000) (349, -1.78331665284286740000e+000) (350, 1.27792097246533600000e+000) (351, 1.67885433631896270000e+000) (352, 8.31175775411061250000e-001) (353, 6.13593782730897490000e-001) (354, 6.55358743458773980000e-001) (355, -4.61003137645539030000e-002) (356, -6.50315995308319850000e-001) (357, -1.78189032875849170000e+000) (358, -4.36365722322580360000e-001) (359, 4.91235901874020280000e-001) (360, -6.62344386978848950000e-002) (361, 1.91918256064024680000e-001) (362, 3.24178699591290640000e-001) (363, -3.49203660545661030000e-002) (364, 6.98248764127994410000e-002) (365, 4.33151031854220260000e-002) (366, 2.01674809595124930000e-001) (367, 6.19540523703947190000e-001) (368, 1.50884540507352450000e+000) (369, 8.97619606970624370000e-002) (370, -1.37926462560726830000e+000) (371, -1.38121168605253190000e+000) (372, -1.16377220047100580000e+000) (373, -1.43120885804274000000e+000) (374, -1.70633593981996450000e+000) (375, -2.57814467713505870000e+000) (376, -2.34926900946509680000e+000) (377, -9.11609161239106620000e-001) (378, -6.60479200764383820000e-001) (379, -1.74041666707347610000e-001) (380, -5.14369654840849290000e-001) (381, -3.88611953278517500000e-001) (382, -1.21542767459089610000e-001) (383, -4.44222296634563580000e-001) (384, -9.49541243142214660000e-001) (385, -2.21939917673810690000e-001) (386, 4.26368806464342890000e-001) (387, -1.45340913303861540000e+000) (388, -1.62479069019194230000e-001) (389, 3.05085634419169860000e-001) (390, 2.95380769933069110000e-001) (391, 7.36628735900709960000e-002) (392, 3.57360845168841480000e-002) (393, -5.83283113597191300000e-002) (394, 2.48677371428063720000e-002) (395, 1.84995700280132960000e-001) (396, 3.05968587541338770000e-001) (397, -8.35635828928952610000e-001) (398, -1.81056006981562740000e+000) (399, -1.79371043881679420000e+000) (400, -3.25565627976338870000e-001) (401, -1.98209574797637810000e+000) (402, -1.44563658785774930000e-001) (403, -2.07565580851091800000e+000) (404, -1.27749895675821850000e+000) (405, -6.55973288264898540000e-001) (406, -6.88148152960670450000e-001) (407, 6.47588093290922040000e-001) (408, 5.71616734456390160000e-001) (409, -6.76395320526071210000e-001) (410, 1.37563719556437580000e+000) (411, -1.10240877570749470000e+000) (412, 1.11386371033248240000e-001) (413, 3.24614616243808880000e-001) (414, -8.99757479459352580000e-001) (415, -1.00087688714282600000e+000) (416, -1.21706834662481190000e-001) (417, 5.59679132974935030000e-002) (418, 2.06112394743804470000e-001) (419, 9.37492183532619010000e-002) (420, -8.41671412901975340000e-002) (421, 7.93733923325955770000e-002) (422, -7.59921207449550110000e-002) (423, -5.58388038595867390000e-001) (424, 5.85749167004675160000e-001) (425, 3.67556661901627060000e-001) (426, -1.00434523463952010000e+000) (427, -5.85150234705572040000e-001) (428, 5.29221415796407690000e-001) (429, -6.74316542318701420000e-001) (430, 2.34991589085068180000e-001) (431, -2.45437687507310960000e-001) (432, -4.76749603632033860000e-002) (433, -1.44426528598746740000e+000) (434, -1.57128291414963230000e+000) (435, -4.92386874991708860000e-001) (436, -1.21023637299205870000e+000) (437, 1.64428400613815920000e+000) (438, 4.32892316450162350000e-001) (439, -4.63176384688550490000e-001) (440, 6.06930805407207560000e-001) (441, -8.08579878901187880000e-001) (442, -1.61613690171412580000e+000) (443, -7.87528095294328430000e-001) (444, 9.35512331509383980000e-002) (445, -6.04950868226062030000e-001) (446, -3.12214729203297510000e-001) (447, 9.35827777387460980000e-002) (448, 5.85521690157173040000e-003) (449, -6.06306458445560120000e-002) (450, 6.30901491753093900000e-002) (451, -5.56411288431522650000e-001) (452, 6.91091953814861440000e-001) (453, 1.64603969159910600000e-001) (454, -7.37322878605054630000e-001) (455, -7.77838950584746500000e-001) (456, 2.31001733334935680000e-002) (457, -2.51648336236721400000e+000) (458, -8.79695466625352470000e-001) (459, 2.73901076313313900000e-001) (460, 4.93604074868225500000e-001) (461, -9.99868058710258520000e-001) (462, -2.69327568729506470000e+000) (463, -2.34435850163873690000e+000) (464, -2.34421899215453290000e+000) (465, -6.64234707991541720000e-001) (466, -1.92206718352583610000e+000) (467, -8.40038775963802940000e-001) (468, -1.77791516461136930000e+000) (469, -7.15507866619328640000e-001) (470, -4.26519484732884650000e-001) (471, -7.66844842278015860000e-001) (472, -3.56792545815522500000e-001) (473, -1.69853534355689870000e-001) (474, 3.25439533480454730000e-001) (475, 6.47040452146797060000e-002) (476, 1.97570803725284350000e-002) (477, -9.13875386300681270000e-002) (478, 2.32892951959520690000e-002) (479, -2.56560986688876950000e-001) (480, -2.93745181714258170000e-001) (481, 2.82746761865674050000e-001) (482, -6.27388053079986350000e-001) (483, -1.11927769312222910000e-001) (484, 1.58318542144724090000e+000) (485, 3.22531023897237260000e-001) (486, -2.29779566007121370000e-002) (487, -3.01887193223896290000e-001) (488, 9.86257240780721630000e-001) (489, -1.40946186468650510000e+000) (490, -9.53476293149108980000e-001) (491, -6.14790015021615900000e-001) (492, -2.80488650416682010000e+000) (493, -2.04663633780537010000e-001) (494, -1.24497074146083770000e-001) (495, 1.58316275610017630000e-001) (496, -8.93220479987144710000e-001) (497, -4.03580064200927620000e-001) (498, -3.40584168674992800000e-001) (499, 4.46458757833964740000e-002) (500, 2.70415964603335500000e-001) (501, 7.24289881128923670000e-001) (502, 6.32132801649015060000e-002) (503, -4.11766055779787050000e-002) (504, -1.89159507916082660000e-002) (505, -1.31544986306597350000e-002) (506, 1.20665205625208950000e-001) (507, -1.48294256962687640000e-001) (508, -1.03347577373295720000e-001) (509, 8.44428519987094200000e-002) (510, -3.26046322956333510000e-001) (511, -1.42722296380960280000e+000) (512, -5.83590863727863730000e-001) (513, 4.04767452032665180000e-001) (514, 1.01312245193172660000e+000) (515, 8.10628874606939550000e-001) (516, -2.82744907987247410000e+000) (517, -1.79152367317461110000e+000) (518, -1.36021947789273300000e+000) (519, 2.38978939135308790000e-001) (520, -8.65030382268627940000e-001) (521, -3.99286742260532900000e-001) (522, 1.25572876373578590000e+000) (523, 1.19689307191501150000e+000) (524, -4.06379020531237530000e-001) (525, 4.52265045182401240000e-001) (526, 7.32723951918800240000e-001) (527, 1.49172471707809510000e-001) (528, 6.24055479393971550000e-001) (529, 2.58789683278994880000e-001) (530, 7.68281772394946440000e-002) (531, 4.23117010417844020000e-002) (532, -9.85473647497201450000e-002) (533, -2.27597828754961440000e-002) (534, 1.44113688796799170000e-001) (535, -1.82341114271647840000e-001) (536, -3.71253912052166500000e-002) (537, -1.10661049497665000000e-001) (538, -1.12271352169691590000e-001) (539, -1.53487970533142420000e-001) (540, -5.09961631869953800000e-001) (541, -5.76125537122864630000e-001) (542, -1.28016284446622970000e-001) (543, -1.07283857350920720000e+000) (544, -7.28988520893163460000e-001) (545, -1.74444800687865590000e+000) (546, -7.62428345320601770000e-001) (547, -1.72628078917419760000e+000) (548, -4.47798299373687200000e-001) (549, -6.48320700486655800000e-001) (550, -7.40031837323791630000e-001) (551, 7.38042972865473820000e-001) (552, -4.59527338043746900000e-001) (553, -4.05494388023018020000e-002) (554, -2.05266694551217580000e-003) (555, 2.17717638386771660000e-001) (556, 6.92526911364557800000e-001) (557, 3.10101824853883660000e-001) (558, 1.80521259884919740000e-001) (559, 9.72134190221802530000e-002) (560, -4.34021002561166820000e-002) (561, 6.33103467644477720000e-002) (562, 6.62169316826860530000e-002) (563, 2.02180276122068290000e-001) (564, 3.29388030868834890000e-001) (565, 5.62472693977104310000e-001) (566, 1.19401571800458670000e-001) (567, -4.06195213353382540000e-001) (568, 1.25103845487804090000e-001) (569, -6.67704209511600700000e-001) (570, -2.26318301667553490000e+000) (571, -3.79567105706473340000e+000) (572, -1.95844174767187010000e+000) (573, -1.66053530344132620000e+000) (574, -9.02061686442262150000e-001) (575, 5.91028750704588160000e-001) (576, -3.20893218021069180000e-001) (577, -1.55493972894827290000e+000) (578, -1.38780197841494360000e+000) (579, 3.64171852751249530000e-001) (580, -7.28438178486778170000e-001) (581, -4.20989095584531460000e-001) (582, 2.15823555904508750000e-001) (583, 3.78567458066258020000e-001) (584, 3.84370076684077970000e-001) (585, 1.30046472180640670000e-001) (586, 8.84818740119228400000e-002) (587, -5.56442181259214140000e-002) (588, 5.93067374803286500000e-002) (589, 3.15231815431103860000e-003) (590, 1.25610031868310780000e-002) (591, 2.83759526460047460000e-002) (592, 3.20416762661135560000e-001) (593, 4.34898314110647280000e-001) (594, 1.70911744601845910000e-001) (595, -2.97650184498753080000e-001) (596, 1.46841947638999910000e-001) (597, -3.13743276628463130000e-001) (598, -2.61806105071276910000e+000) (599, -1.45137809911564110000e+000) (600, -1.06302952587508570000e+000) (601, -4.79744958110162380000e-001) (602, -1.58926111715289960000e+000) (603, -2.89707274973597380000e-001) (604, -4.41944581850082730000e-001) (605, -2.52447729878626030000e+000) (606, -5.03214467105518090000e-001) (607, -5.00693316495039680000e-001) (608, -7.43664353305249830000e-001) (609, -2.03254034898206070000e-001) (610, 3.12474561728792340000e-001) (611, 4.27631298952207690000e-001) (612, 3.13323682736797840000e-001) (613, 6.01340261293480810000e-002) (614, 9.23210671568803070000e-002) (615, -5.30916233733571970000e-002) (616, -3.26060705382933900000e-002) (617, -2.71529489502284620000e-002) (618, -7.92261589376121590000e-002) (619, 1.37839121028194030000e-002) (620, -1.37114836731838800000e-001) (621, -4.00853959231831590000e-001) (622, -2.87562310695340330000e-001) (623, 5.23783692371895930000e-001) (624, 1.00532784422400500000e+000) (625, 1.35652695323533880000e+000) (626, 8.11113369601109800000e-001) (627, 4.43015788020201360000e-001) (628, 2.75227280524700690000e-001) (629, -5.40331319082747450000e-001) (630, -9.67981268782459600000e-001) (631, -2.42081274015821890000e+000) (632, 1.24751078762911240000e-001) (633, -2.48114656074001120000e+000) (634, -8.55143652521475730000e-001) (635, -1.67532192544783400000e+000) (636, -1.10794611983938180000e+000) (637, -2.75370109928800730000e-001) (638, 9.60073595110657710000e-001) (639, 9.35674111436260890000e-001) (640, 3.31468859987081810000e-001) (641, -2.04271381130972300000e-002) (642, -4.82157339036069260000e-003) (643, 6.75049990091409900000e-002) (644, 5.38513191618221750000e-002) (645, -6.62231455180517510000e-003) (646, -7.00030512706480700000e-002) (647, -2.23015065437089540000e-001) (648, -4.43863714782876950000e-001) (649, -2.48695677256268290000e-001) (650, -2.82094514945120720000e-001) (651, 9.32304974955059820000e-001) (652, 2.05983753474018800000e+000) (653, 8.85823373847670740000e-001) (654, 1.31680161524732030000e+000) (655, 1.60762529961724730000e+000) (656, -6.83235558646013430000e-002) (657, 5.16522485086522210000e-001) (658, -2.90501421401940460000e-001) (659, -1.22787969655779360000e+000) (660, -5.71335537973054920000e-001) (661, -4.81458548032978160000e-001) (662, -2.57677085975976160000e-001) (663, -1.00895402969005050000e+000) (664, -1.13630882034437390000e+000) (665, -3.96400708827718110000e-001) (666, 1.45999058729102390000e+000) (667, 8.00157571996097940000e-001) (668, 3.72326283760130830000e-001) (669, -6.90219991184001370000e-002) (670, -1.74466846134878510000e-002) (671, -5.66162117811472850000e-002) (672, 2.17224124330641640000e-002) (673, 9.14306654249230630000e-003) (674, 9.16702493363284740000e-003) (675, -7.09700658604881240000e-002) (676, -1.50487644689350220000e-001) (677, 1.39114707483521090000e-001) (678, 4.46040234410128080000e-001) (679, 1.38790131847701410000e+000) (680, 1.89639418462433750000e+000) (681, -3.92073353650276790000e-001) (682, 9.92317650452031460000e-001) (683, 1.41242374438121710000e+000) (684, 7.48373920038062130000e-001) (685, 1.00793594840784810000e+000) (686, 4.80188125890424480000e-001) (687, 9.29914406990176130000e-001) (688, 6.11134777416183830000e-001) (689, 2.04460736694635160000e+000) (690, 8.89726620654319290000e-001) (691, -3.72355647064922860000e-001) (692, -6.30575108396350450000e-001) (693, -4.82132286962882790000e-001) (694, 2.52930330564056950000e-001) (695, 6.19862588382871560000e-001) (696, 1.98347939191629630000e-001) (697, -6.18522961370966410000e-002) (698, -6.90458632220800340000e-002) (699, 4.19494635157207090000e-002) (700, 1.63330080558807820000e-002) (701, 4.15100103841723470000e-002) (702, 1.19605705378750490000e-002) (703, -2.38496013181571550000e-002) (704, 1.64772199724038920000e-001) (705, 4.97852044965488850000e-001) (706, 7.81368070706573440000e-001) (707, 2.12542585342625580000e+000) (708, 3.36763840649679260000e+000) (709, 2.20278394789272400000e+000) (710, 1.80810727895702870000e+000) (711, 1.81200815791796880000e+000) (712, 8.73786284084639760000e-001) (713, 4.29504365771261220000e-001) (714, 2.46516143839709390000e+000) (715, 2.11537253014892550000e+000) (716, 1.13501742888030610000e+000) (717, 1.37472246046087370000e+000) (718, 4.37680338304270220000e-001) (719, 5.98999806176163550000e-001) (720, 7.98492576853710780000e-001) (721, 1.98121059321935270000e-001) (722, -1.84230237482250230000e-001) (723, -2.72118388610961340000e-002) (724, 3.09050035472081990000e-002) (725, -3.59556087788522260000e-002) (726, -2.26607790671774920000e-002) (727, 2.63977054714814590000e-002) (728, -9.65332045634568200000e-002) (729, 2.70324711059402030000e-002) (730, 1.02539064027951100000e-002) (731, 4.40490729220073260000e-002) (732, -3.24324199034838360000e-003) (733, 1.20674107546681970000e-001) (734, 4.41424712965086950000e-001) (735, 7.58438343609685760000e-001) (736, 1.87901756783223610000e+000) (737, 2.25640228410905760000e+000) (738, 2.38910024622640060000e+000) (739, 2.04796733225556560000e+000) (740, 2.34294379154703100000e+000) (741, 1.76021240095004970000e+000) (742, 3.05386760190131710000e+000) (743, 2.55078087868933960000e+000) (744, 2.47124123407024050000e+000) (745, 2.05624896714981680000e+000) (746, 9.84524414310862240000e-001) (747, 3.42762824743233550000e-001) (748, 8.32268753306931290000e-001) (749, 7.36693615757926360000e-001) (750, 2.32471942529422490000e-001) (751, 6.43833188558424750000e-002) (752, 7.26684581140943920000e-002) (753, -3.38075743076872580000e-002) (754, 7.04772959720685320000e-002) (755, -2.36145023050085000000e-002) (756, -1.76696779976737160000e-002) (757, -4.64599616298073670000e-002) (758, 9.26208509895332100000e-002) (759, -4.22607428172341320000e-002) (760, 9.37187912233895940000e-002) (761, 5.66201066287999670000e-002) (762, 1.45831401378231360000e-001) (763, 5.29102914928162420000e-001) (764, 3.75145672540786180000e-001) (765, 1.95695164374550310000e-001) (766, 3.40176964480554230000e-001) (767, 1.78043770614931710000e-001) (768, 1.31207589270421030000e-001) (769, 4.81657012881975270000e-002) (770, 1.09901649825173410000e-001) (771, 7.45153732099718690000e-002) (772, 2.09983480479622060000e-003) (773, 1.36587738359168100000e-001) (774, 1.67220650363899960000e-001) (775, 3.80450695720871260000e-001) (776, -8.34005171043514380000e-002) (777, -3.52290780405435520000e-002) (778, -5.76085162612917020000e-002) (779, -9.17978433170689860000e-002) (780, 5.05065925494818660000e-002) (781, 6.06628427008217840000e-002) (782, -8.32641613969826720000e-002) (783, 7.55004894062949460000e-003) (784, -7.12656578929562250000e-001) (0, -1.42883302910377100000e-002) (1, -7.02880869848740990000e-002) (2, -7.65930187194499010000e-002) (3, -6.72790537369110100000e-002) (4, 3.11096196041944490000e-002) (5, -3.57177739697362990000e-002) (6, -4.22302252386543840000e-002) (7, 6.42333993946522240000e-002) (8, -1.36840822351587120000e-002) (9, 8.89038099185199830000e-002) (10, 9.48486342258547670000e-002) (11, 7.52685558090888660000e-002) (12, 2.11878735790092320000e-002) (13, -2.36590765374595710000e-002) (14, 7.06890693996872770000e-002) (15, -2.58618753908040160000e-003) (16, 2.34558108963938140000e-002) (17, -8.48144543888338380000e-002) (18, 5.99548348777716460000e-002) (19, 7.69653331781228190000e-002) (20, 3.83056646332988750000e-002) (21, -8.17138684051315070000e-002) (22, 8.30932629569360870000e-002) (23, -1.59301760186281170000e-002) (24, -3.40454106635661450000e-002) (25, 5.28381355529745630000e-002) (26, -6.64245615366780840000e-002) (27, 5.03234870780033820000e-002) (28, -2.61535648428434800000e-002) (29, 2.98950199767205050000e-002) (30, -6.19323739697392740000e-002) (31, 1.61560061001182480000e-002) (32, -2.05383303841699670000e-002) (33, -1.92848845854105590000e-002) (34, -5.54507952777955410000e-002) (35, 5.28592331051417270000e-002) (36, -1.21690156753647860000e-001) (37, 1.25452067832534710000e-003) (38, -6.58045389394879550000e-002) (39, -6.12970393227284800000e-002) (40, -1.54094694037753720000e-001) (41, -3.02823559743800600000e-001) (42, -1.11757930068275380000e-001) (43, -4.74633665618040890000e-002) (44, 1.23947700223228010000e-001) (45, 4.37466681358965740000e-002) (46, -2.07748839538284100000e-001) (47, -2.05215426605220910000e-001) (48, -4.41680890553271880000e-002) (49, -1.28078799192938570000e-001) (50, -1.06688448630232840000e-001) (51, 1.53520010571626500000e-003) (52, -6.40930185331853860000e-002) (53, 5.46508797206115560000e-002) (54, -8.54003918975649870000e-002) (55, -1.66076662630985080000e-002) (56, 3.95751959022163650000e-002) (57, -4.21203619557672940000e-002) (58, 1.88537600465679130000e-002) (59, 5.53207420720206040000e-002) (60, -4.51953227753977490000e-002) (61, 3.76539966233536690000e-002) (62, 5.43682548134881150000e-002) (63, -1.05817208532628230000e-001) (64, -1.37519960959548910000e-001) (65, -1.47522696716318260000e-001) (66, -4.51183247345199390000e-002) (67, 1.37270589731190940000e-001) (68, -2.00626756393006980000e-001) (69, -4.74623984021001530000e-001) (70, -3.45732616674111040000e-001) (71, -9.89484534029523970000e-001) (72, -6.58255779031235670000e-001) (73, -8.37999997380182850000e-002) (74, 1.58801062367803340000e-001) (75, 2.07120909619655900000e-001) (76, 2.25749129442872310000e-001) (77, 1.00700246733488940000e-002) (78, -1.70105593401847640000e-001) (79, -1.84977462451755640000e-001) (80, 5.42227413057661690000e-004) (81, 1.33181557074401550000e-002) (82, -6.42517099418000730000e-002) (83, -3.46740727823089400000e-002) (84, 3.22814946216567480000e-002) (85, -5.95947274505306270000e-002) (86, 6.41953013212896580000e-002) (87, -6.31964159637137810000e-002) (88, 1.17387182232986580000e-001) (89, -1.27641629724995100000e-001) (90, -2.37834760325219640000e-001) (91, -3.04535116974158750000e-001) (92, -3.86990916915602170000e-001) (93, -8.19805761017173980000e-002) (94, 2.03401332913380110000e-001) (95, -7.43462630124772790000e-002) (96, -3.17030475410289000000e-001) (97, -4.30086205946145440000e-001) (98, -3.78837430976096470000e-002) (99, -8.84934823936032290000e-001) (100, -1.49491995399062240000e+000) (101, -5.09255631087135800000e-002) (102, -6.75099769969806580000e-001) (103, -3.23958960725403200000e-001) (104, 1.08783505880794370000e-001) (105, -1.23227893569563590000e-004) (106, -4.50252671939750100000e-001) (107, -4.39031345898821810000e-001) (108, 1.53521432262637840000e-001) (109, 1.62237734940774430000e-001) (110, 8.17973879370897800000e-002) (111, -1.37878420023298530000e-002) (112, -5.00183112922059080000e-002) (113, -2.13947931822275620000e-002) (114, -1.37068322827655960000e-002) (115, -8.55045089432978080000e-002) (116, 6.22369831833731460000e-003) (117, -3.09463589197425500000e-001) (118, -3.83453155116863450000e-001) (119, -4.55349831584546170000e-001) (120, -8.82091043988151750000e-001) (121, 5.43442946850212770000e-001) (122, 1.09978120285524230000e+000) (123, 1.17934709997731230000e-001) (124, 1.25261810911697740000e-002) (125, -6.08210463622148810000e-001) (126, 1.71458183627001800000e+000) (127, 6.20351206651907900000e-001) (128, 7.39611462398554910000e-001) (129, -3.84812508952747490000e-001) (130, -5.92396837965305400000e-001) (131, -4.63126991894806770000e-001) (132, 5.35702386054230480000e-001) (133, 8.71297861764563470000e-001) (134, 8.72340349941927580000e-002) (135, 1.83892495810694860000e-001) (136, 7.12144954513212800000e-001) (137, 2.27884190948660640000e-001) (138, 1.24732385419293120000e-001) (139, -7.42288073267917680000e-002) (140, -8.16101086379603660000e-002) (141, 8.59863294062961360000e-002) (142, 4.91334311072984670000e-002) (143, 8.97673846051060260000e-002) (144, -1.39209030191958500000e-002) (145, -1.34307157693506850000e-001) (146, -5.70784892039914450000e-001) (147, -6.01056017158597580000e-001) (148, 2.09796112234298200000e-001) (149, 2.27597756371763320000e+000) (150, 2.28717358004621740000e+000) (151, 1.03581832442296910000e+000) (152, -1.64043927269151400000e-001) (153, -1.26677568024279010000e+000) (154, 6.51275820514717110000e-001) (155, -1.01004081824106360000e+000) (156, 2.48688973469065820000e-001) (157, -4.49050717669924070000e-003) (158, 1.00199505707984140000e-001) (159, 6.75159503781199490000e-001) (160, 2.32396156770726490000e+000) (161, 1.64496428481342870000e+000) (162, 1.61312984381676760000e+000) (163, 1.19058889324040670000e+000) (164, 1.11117029025360160000e+000) (165, 4.19985084926098040000e-001) (166, 1.24026608669890680000e-001) (167, 4.17293698222021420000e-002) (168, 2.19665530617021430000e-002) (169, -3.01081707021985250000e-002) (170, -4.61135940457117130000e-002) (171, 2.80875448922800230000e-002) (172, 1.74190514653721180000e-001) (173, 7.61679298272475270000e-001) (174, 1.33242186149958470000e-001) (175, -2.09663717283534890000e-001) (176, 1.98918414728587930000e-001) (177, 1.08436320707203280000e+000) (178, 4.56769568137831210000e-001) (179, -1.06532211183200460000e+000) (180, -2.06065873288990530000e+000) (181, -3.31352529331910840000e-001) (182, 6.88945185382886850000e-001) (183, -9.27226917712578590000e-001) (184, -6.49958359428865480000e-001) (185, -7.59494272759999030000e-001) (186, 5.23661155110197400000e-001) (187, 1.64569969934340370000e+000) (188, 1.90354074226605730000e+000) (189, 1.20648174580113610000e-001) (190, 1.37682836102209990000e+000) (191, 1.93387293541614720000e+000) (192, 1.48050341173903650000e+000) (193, 4.88488441650040460000e-001) (194, 3.54344940572908720000e-001) (195, 1.44474978094912750000e-001) (196, -1.93313799755876030000e-002) (197, 2.26456046462269610000e-002) (198, -1.31955551472608010000e-001) (199, -1.92414227219350410000e-002) (200, 4.25416307496959970000e-002) (201, 7.32351968269720270000e-001) (202, 5.07623039691623590000e-001) (203, 1.55902312725498790000e-001) (204, 7.75508212401608720000e-001) (205, -5.81288819354740420000e-001) (206, 8.18441300165028360000e-001) (207, 4.92690402702082310000e-001) (208, -1.87638827134456590000e+000) (209, -9.97208789309156020000e-001) (210, -7.29824414386331830000e-001) (211, -2.47528169236037510000e+000) (212, -1.51475678742215150000e+000) (213, 1.39324198375255280000e-001) (214, 5.99179192932124400000e-001) (215, 5.83308650214450330000e-001) (216, 6.93386917904485590000e-001) (217, 2.77247176162936370000e-001) (218, 4.19765878717175470000e-001) (219, 1.26785511584649190000e+000) (220, 9.14099662431338780000e-001) (221, 3.59187972443727970000e-001) (222, 3.53135101235858620000e-001) (223, 1.03775972495447750000e-001) (224, -3.17589686105225750000e-002) (225, -1.11905488909710360000e-002) (226, -1.07521812194383520000e-001) (227, -2.67299797855524020000e-003) (228, -5.26317624012726640000e-001) (229, 4.37121917080414770000e-003) (230, 4.49200685814160170000e-001) (231, 5.51193350618181750000e-001) (232, -1.10526655316666860000e-001) (233, -1.31164745149546180000e-001) (234, -4.91249836530966930000e-001) (235, 1.99991493083515140000e+000) (236, 9.10077066290529200000e-001) (237, 2.51102346455094440000e-001) (238, -1.60020583513845870000e+000) (239, -4.14747050958246490000e-001) (240, 1.08429707184068880000e+000) (241, -1.02475902843037200000e+000) (242, 1.83509905188916280000e+000) (243, 6.74267861601549280000e-001) (244, -1.55675476598108630000e-001) (245, 3.51689364764571130000e-001) (246, -6.98684094869162160000e-001) (247, 2.11135936966183300000e-001) (248, 9.20475878944300720000e-001) (249, 8.06884641566082970000e-001) (250, 2.77894978345657460000e-001) (251, 1.22296217763313830000e-001) (252, -4.93952374221235110000e-002) (253, 5.76555442711916620000e-002) (254, -1.16768042904296990000e-001) (255, 2.18280219930347690000e-002) (256, -3.18531005597925130000e-001) (257, -4.19848626740673780000e-003) (258, -5.58008387047059800000e-002) (259, -1.73887084434226180000e+000) (260, 4.45142838999889050000e-001) (261, 5.22651255751476470000e-002) (262, -1.64960180238562540000e+000) (263, -3.82155352862744050000e-001) (264, -8.67205080781012990000e-001) (265, -7.99360623697893850000e-001) (266, -3.42702482840857940000e+000) (267, -2.21845704264475650000e+000) (268, 7.63170777925920360000e-001) (269, -9.17075874011741620000e-001) (270, 6.31173515257728020000e-001) (271, 4.35459154817346980000e-001) (272, 2.88303956416098630000e-001) (273, 6.69869932756397830000e-001) (274, -4.62862587883441650000e-001) (275, -5.50800593877357360000e-001) (276, 1.07123773572320410000e+000) (277, 1.08996965923034630000e+000) (278, 2.72715369617659460000e-001) (279, -3.25613956490462060000e-002) (280, 8.45064227763254740000e-002) (281, -8.15771282631914950000e-002) (282, 7.25055536088994870000e-003) (283, 2.21789038694868410000e-001) (284, -7.40567578600873600000e-003) (285, 1.38300402338317030000e-001) (286, 1.25647623539108970000e-001) (287, 3.45103485879394050000e-001) (288, -6.73718934006477950000e-002) (289, 1.25198158370365910000e-001) (290, -1.21377559388157770000e+000) (291, -3.91825081001033080000e-001) (292, -1.12068648532776230000e+000) (293, -1.11840971620863460000e-001) (294, -1.49105456362070930000e+000) (295, -1.33061825636778930000e+000) (296, -9.23587917008868220000e-001) (297, -2.39748222144436140000e-001) (298, -3.05650152051999020000e-001) (299, -2.41528886495974090000e-001) (300, -1.11786527764013370000e+000) (301, -4.84753253021522000000e-001) (302, -7.24371780500391190000e-001) (303, -5.17054808405310040000e-001) (304, 1.36778311637954950000e+000) (305, 1.34580725618956750000e+000) (306, 3.13257333203846190000e-001) (307, -1.74390956201669060000e-002) (308, 9.22780660542082270000e-002) (309, 3.71016822309518310000e-002) (310, -9.75689119543713370000e-003) (311, 1.53415779241510650000e-001) (312, -8.59543154301167230000e-001) (313, -9.50291983005144140000e-002) (314, -1.05337183029533750000e-001) (315, -1.31469839830497110000e+000) (316, -9.30413475177977120000e-001) (317, -2.80894635256592640000e-001) (318, -1.16265140588258390000e+000) (319, 2.56463440791674070000e-002) (320, 5.53803410777316100000e-001) (321, 5.97093311619039110000e-001) (322, 6.07971546114030700000e-001) (323, 3.92794981846998130000e-001) (324, -8.51703428475430730000e-002) (325, 4.12209426461711660000e-001) (326, 3.44523773487683980000e-001) (327, 1.48074387677979410000e-002) (328, -3.31601887467729780000e+000) (329, -2.53472446740428840000e+000) (330, -1.13821863816573930000e+000) (331, -7.16391111260333140000e-002) (332, 9.69876478928064720000e-001) (333, 1.53799727821279820000e+000) (334, 3.87743023421593950000e-001) (335, 1.26981480630453080000e-002) (336, -1.59252582308853540000e-002) (337, 1.11653457153781910000e-002) (338, -5.04205979428741440000e-002) (339, -2.41091796417161890000e-001) (340, -1.19812383826540050000e+000) (341, -7.70322896515482140000e-001) (342, -1.08619541522083310000e+000) (343, -2.14913055740990220000e+000) (344, -8.88194743228801210000e-001) (345, -1.05327424751632240000e+000) (346, 1.25558649607066600000e+000) (347, 1.03898321211914820000e+000) (348, 1.62797248915598390000e+000) (349, 5.51938633937859140000e-001) (350, 9.44687506796583640000e-001) (351, 1.46347003600597460000e-001) (352, 2.47397448024845870000e-001) (353, 