FANN_FLO_2.1
num_layers=3
learning_rate=0.100000
connection_rate=1.000000
network_type=0
learning_momentum=0.700000
training_algorithm=0
train_error_function=1
train_stop_function=0
cascade_output_change_fraction=0.010000
quickprop_decay=-0.000100
quickprop_mu=1.750000
rprop_increase_factor=1.200000
rprop_decrease_factor=0.500000
rprop_delta_min=0.000000
rprop_delta_max=50.000000
rprop_delta_zero=0.100000
cascade_output_stagnation_epochs=12
cascade_candidate_change_fraction=0.010000
cascade_candidate_stagnation_epochs=12
cascade_max_out_epochs=150
cascade_min_out_epochs=50
cascade_max_cand_epochs=150
cascade_min_cand_epochs=50
cascade_num_candidate_groups=2
bit_fail_limit=3.49999999999999980000e-001
cascade_candidate_limit=1.00000000000000000000e+003
cascade_weight_multiplier=4.00000000000000020000e-001
cascade_activation_functions_count=10
cascade_activation_functions=3 5 7 8 10 11 14 15 16 17 
cascade_activation_steepnesses_count=4
cascade_activation_steepnesses=2.50000000000000000000e-001 5.00000000000000000000e-001 7.50000000000000000000e-001 1.00000000000000000000e+000 
layer_sizes=785 31 11 
scale_included=1
scale_mean_in=0.000000 0.000000 0.000000 0.000000 0.000000 0.000000 0.000000 0.000000 0.000000 0.000000 0.000000 0.000000 0.000001 0.000019 0.000019 0.000001 0.000000 0.000000 0.000000 0.000000 0.000000 0.000000 0.000000 0.000000 0.000000 0.000000 0.000000 0.000000 0.000000 0.000000 0.000000 0.000000 0.000000 0.000001 0.000048 0.000104 0.000162 0.000246 0.000510 0.000675 0.000654 0.000671 0.000695 0.000618 0.000722 0.000632 0.000430 0.000301 0.000213 0.000085 0.000043 0.000018 0.000000 0.000000 0.000000 0.000000 0.000000 0.000000 0.000000 0.000004 0.000033 0.000019 0.000176 0.000596 0.001097 0.002053 0.003294 0.005000 0.007191 0.009624 0.012523 0.014257 0.014644 0.013237 0.010768 0.007929 0.004588 0.002283 0.001022 0.000333 0.000122 0.000020 0.000000 0.000000 0.000000 0.000000 0.000005 0.000030 0.000053 0.000312 0.000927 0.002340 0.004614 0.008576 0.013975 0.020909 0.028576 0.037525 0.046453 0.052236 0.052135 0.046646 0.037310 0.026463 0.015823 0.008433 0.003778 0.001382 0.000519 0.000102 0.000015 0.000000 0.000000 0.000003 0.000020 0.000059 0.000334 0.001652 0.004179 0.009490 0.018407 0.032428 0.051290 0.074996 0.104864 0.137183 0.163131 0.176820 0.174413 0.154148 0.122332 0.089402 0.057457 0.033036 0.017303 0.008168 0.003368 0.000795 0.000125 0.000011 0.000000 0.000000 0.000040 0.000222 0.001469 0.005536 0.013645 0.027877 0.050247 0.082173 0.122071 0.172386 0.230018 0.288523 0.332639 0.355028 0.349013 0.314619 0.258774 0.195919 0.134640 0.083930 0.048409 0.025933 0.011688 0.003139 0.000495 0.000013 0.000000 0.000000 0.000122 0.000785 0.004112 0.012307 0.028241 0.054925 0.093708 0.145165 0.207709 0.278168 0.349957 0.415706 0.463603 0.485396 0.476840 0.439387 0.377318 0.296411 0.212959 0.139256 0.082833 0.044892 0.020930 0.006911 0.001302 0.000092 0.000004 0.000088 0.000424 0.002278 0.008769 0.022772 0.048113 0.087266 0.142070 0.210863 0.289624 0.369974 0.438287 0.489985 0.519536 0.529521 0.522372 0.497398 0.446187 0.369660 0.275128 0.184571 0.111318 0.059803 0.027498 0.009908 0.002003 0.000107 0.000021 0.000215 0.001273 0.005000 0.014227 0.032691 0.065466 0.115884 0.184813 0.268013 0.355555 0.427237 0.470294 0.484329 0.481970 0.478537 0.480007 0.479867 0.457586 0.397156 0.305344 0.208163 0.125795 0.064679 0.027900 0.010083 0.001882 0.000073 0.000009 0.000293 0.001974 0.006480 0.017113 0.038217 0.075988 0.135244 0.215091 0.306582 0.389028 0.435558 0.436491 0.410303 0.386470 0.387398 0.407747 0.435272 0.436850 0.390347 0.303764 0.208047 0.124015 0.061020 0.023293 0.007415 0.001318 0.000086 0.000016 0.000410 0.002188 0.006487 0.016693 0.038493 0.080198 0.146271 0.234189 0.327384 0.394381 0.406131 0.369221 0.324436 0.308361 0.328858 0.366796 0.410439 0.418031 0.371210 0.283605 0.190849 0.112828 0.054079 0.018528 0.004664 0.000867 0.000077 0.000029 0.000320 0.001789 0.005154 0.014364 0.037499 0.083008 0.156731 0.251855 0.343633 0.389865 0.373925 0.320173 0.286325 0.296478 0.333939 0.381572 0.423132 0.416140 0.351320 0.256109 0.167555 0.100182 0.050296 0.016095 0.002380 0.000451 0.000031 0.000014 0.000170 0.000986 0.003449 0.012027 0.037369 0.089720 0.171931 0.272526 0.356277 0.385862 0.357161 0.312188 0.310667 0.349553 0.398183 0.443642 0.462004 0.422993 0.332765 0.231268 0.150895 0.093923 0.050479 0.016990 0.001637 0.000272 0.000038 0.000003 0.000085 0.000490 0.002261 0.011405 0.041768 0.100787 0.188136 0.287822 0.362198 0.380746 0.356600 0.340317 0.379833 0.435728 0.485830 0.509523 0.497103 0.427293 0.318879 0.217439 0.146543 0.095133 0.054161 0.020267 0.002256 0.000312 0.000032 0.000000 0.000043 0.000211 0.001735 0.011933 0.048816 0.112645 0.199419 0.291812 0.356468 0.373624 0.365451 0.383178 0.451786 0.509895 0.547302 0.538364 0.502434 0.418232 0.311327 0.220212 0.153665 0.101279 0.058160 0.022691 0.003197 0.000324 0.000007 0.000001 0.000020 0.000179 0.001934 0.013805 0.057009 0.122344 0.201583 0.281232 0.337018 0.358540 0.368536 0.410501 0.482095 0.531512 0.545031 0.517164 0.475229 0.395948 0.307298 0.228556 0.162436 0.106564 0.058562 0.022811 0.004103 0.000510 0.000040 0.000003 0.000021 0.000302 0.002467 0.017313 0.065258 0.128244 0.196635 0.260634 0.305014 0.326829 0.348589 0.394467 0.452764 0.494297 0.498272 0.473958 0.434655 0.373268 0.303221 0.233157 0.164564 0.104621 0.055552 0.021587 0.004729 0.000657 0.000060 0.000000 0.000032 0.000423 0.003755 0.023343 0.073094 0.131672 0.189524 0.236940 0.270696 0.290571 0.314132 0.349282 0.397834 0.440018 0.450889 0.439492 0.408926 0.362621 0.302938 0.231695 0.159200 0.097168 0.049957 0.019851 0.005261 0.000746 0.000037 0.000010 0.000022 0.000588 0.005777 0.030109 0.081130 0.137543 0.188729 0.227460 0.257772 0.279548 0.298212 0.322998 0.370519 0.416189 0.438936 0.437368 0.411990 0.366371 0.299318 0.221025 0.146730 0.087863 0.044199 0.017717 0.005082 0.000651 0.000039 0.000000 0.000027 0.001040 0.007857 0.034706 0.086485 0.145394 0.200007 0.243977 0.278882 0.304416 0.322260 0.350754 0.395622 0.439872 0.461993 0.455879 0.422348 0.362275 0.281095 0.198349 0.126579 0.072600 0.035288 0.014087 0.003994 0.000557 0.000014 0.000000 0.000046 0.001340 0.008717 0.033566 0.082040 0.147435 0.212422 0.270359 0.318942 0.354541 0.383256 0.417468 0.459146 0.490244 0.493049 0.464339 0.408152 0.329403 0.239508 0.159822 0.096803 0.052894 0.025383 0.010684 0.002783 0.000401 0.000004 0.000003 0.000045 0.001132 0.006912 0.025787 0.066721 0.130195 0.203761 0.277366 0.343002 0.396461 0.440316 0.480534 0.511689 0.517997 0.490006 0.431426 0.350801 0.261301 0.178415 0.111720 0.063566 0.033446 0.016247 0.006768 0.001742 0.000241 0.000003 0.000003 0.000001 0.000644 0.004128 0.015045 0.042687 0.092133 0.160586 0.240288 0.318622 0.388846 0.442902 0.480599 0.491838 0.473095 0.419854 0.343631 0.258812 0.178864 0.113071 0.065899 0.035651 0.018499 0.008803 0.003298 0.000759 0.000074 0.000006 0.000000 0.000000 0.000201 0.001606 0.006574 0.019254 0.046766 0.094011 0.158188 0.231699 0.303692 0.360772 0.391566 0.389569 0.355648 0.296358 0.225743 0.158266 0.101018 0.059987 0.032972 0.017196 0.008675 0.003802 0.001192 0.000232 0.000024 0.000000 0.000000 0.000000 0.000038 0.000458 0.002139 0.006251 0.016319 0.035927 0.066183 0.106521 0.150080 0.185950 0.204075 0.201051 0.179052 0.144095 0.107592 0.075622 0.047964 0.028342 0.015287 0.007659 0.003691 0.001484 0.000359 0.000092 0.000010 0.000000 0.000000 0.000000 0.000001 0.000047 0.000462 0.001696 0.005264 0.012119 0.023705 0.038298 0.054596 0.066281 0.071949 0.070316 0.063224 0.051834 0.041388 0.031065 0.020856 0.012464 0.006574 0.003140 0.001450 0.000506 0.000094 0.000008 0.000009 0.000000 0.000000 0.000000 0.000000 0.000000 0.000124 0.000527 0.001998 0.004597 0.008881 0.013561 0.019349 0.024102 0.025736 0.024715 0.022098 0.017580 0.013687 0.010295 0.006919 0.004098 0.002138 0.000912 0.000308 0.000067 0.000000 0.000005 0.000000 0.000000 0.000000 0.000000 0.000000 0.000000 0.000008 0.000048 0.000172 0.000315 0.000421 0.000809 0.001396 0.001773 0.002195 0.002523 0.002807 0.002275 0.001845 0.001401 0.000818 0.000329 0.000110 0.000038 0.000051 0.000010 0.000000 0.000000 0.000000 0.000000 
scale_deviation_in=0.000000 0.000000 0.000000 0.000000 0.000000 0.000000 0.000000 0.000000 0.000000 0.000000 0.000000 0.000000 0.000185 0.003993 0.003993 0.000166 0.000000 0.000000 0.000000 0.000000 0.000000 0.000000 0.000000 0.000000 0.000000 0.000000 0.000000 0.000000 0.000000 0.000000 0.000000 0.000000 0.000000 0.000148 0.004777 0.009108 0.011301 0.012477 0.020205 0.022476 0.021920 0.021909 0.022617 0.021470 0.023365 0.021941 0.017523 0.015185 0.012706 0.007391 0.005040 0.003652 0.000000 0.000000 0.000000 0.000000 0.000000 0.000000 0.000000 0.000587 0.003657 0.001685 0.010039 0.020631 0.028604 0.038961 0.049733 0.060575 0.073324 0.084209 0.096807 0.102876 0.105516 0.100628 0.090424 0.078508 0.059093 0.041557 0.027176 0.015118 0.009270 0.003219 0.000000 0.000000 0.000000 0.000000 0.000803 0.002983 0.003643 0.013532 0.024730 0.040859 0.058302 0.080501 0.102823 0.126478 0.146839 0.168046 0.187323 0.198668 0.197374 0.187722 0.168325 0.142668 0.108725 0.080172 0.051309 0.031389 0.019059 0.006688 0.002400 0.000000 0.000000 0.000702 0.002832 0.003770 0.014066 0.033140 0.052787 0.082128 0.115424 0.154244 0.194170 0.232855 0.270512 0.304807 0.328028 0.338656 0.336397 0.319820 0.289618 0.251315 0.203309 0.154161 0.110655 0.076073 0.047970 0.020875 0.008622 0.001596 0.000000 0.000000 0.003455 0.010825 0.028777 0.062515 0.099121 0.142884 0.191586 0.242618 0.290294 0.334922 0.374002 0.403867 0.420096 0.425537 0.423106 0.412116 0.388175 0.351703 0.300728 0.241850 0.185790 0.136576 0.089004 0.042983 0.016226 0.001915 0.000000 0.000074 0.007664 0.022606 0.053378 0.094162 0.143715 0.200807 0.259114 0.314283 0.361773 0.397991 0.422801 0.435839 0.440034 0.440612 0.440552 0.439810 0.431088 0.407590 0.365436 0.307024 0.242983 0.180303 0.121626 0.067783 0.028254 0.006686 0.000869 0.006189 0.016092 0.039103 0.078744 0.129095 0.187699 0.249649 0.309734 0.361013 0.398971 0.421685 0.431154 0.433015 0.433234 0.431662 0.432621 0.434075 0.435054 0.426488 0.396776 0.345327 0.278890 0.207143 0.139636 0.082563 0.035388 0.006854 0.003664 0.011849 0.029511 0.060255 0.103662 0.156220 0.219043 0.284461 0.346278 0.392930 0.421151 0.433124 0.435362 0.436324 0.436021 0.434255 0.434364 0.435231 0.436629 0.432871 0.410860 0.363529 0.295656 0.215726 0.141511 0.083994 0.034742 0.006220 0.001534 0.014511 0.037650 0.070651 0.114580 0.169599 0.235628 0.305842 0.368191 0.409197 0.431265 0.436840 0.436471 0.432246 0.426752 0.425472 0.428257 0.433331 0.435668 0.431800 0.410434 0.365090 0.294082 0.209217 0.128875 0.070863 0.028421 0.007248 0.003420 0.017702 0.040334 0.071113 0.113726 0.169943 0.241561 0.315548 0.378665 0.416952 0.432725 0.434717 0.423460 0.408035 0.402408 0.411391 0.421225 0.430489 0.433322 0.428078 0.402617 0.353564 0.282691 0.197793 0.115025 0.056558 0.023602 0.006312 0.003784 0.014613 0.036261 0.062160 0.104366 0.166350 0.244784 0.324160 0.387727 0.422665 0.432341 0.427271 0.408079 0.392023 0.402084 0.417290 0.423467 0.431193 0.433008 0.423773 0.389006 0.334009 0.269910 0.192913 0.106086 0.038621 0.016512 0.003249 0.003013 0.010464 0.026713 0.050316 0.094509 0.165521 0.253872 0.337566 0.398895 0.427937 0.432224 0.424103 0.407271 0.404105 0.426792 0.434729 0.430243 0.435661 0.436565 0.417660 0.373415 0.319493 0.263395 0.196055 0.109845 0.032035 0.013327 0.003658 0.000592 0.007413 0.019169 0.039577 0.091998 0.174780 0.268879 0.350744 0.407267 0.430191 0.431720 0.423970 0.416867 0.426723 0.446174 0.437354 0.431371 0.439526 0.437395 0.411232 0.365162 0.316929 0.266026 0.204139 0.122384 0.037699 0.013326 0.004769 0.000000 0.004676 0.011638 0.034470 0.092704 0.188827 0.284116 0.360505 0.409983 0.429403 0.430137 0.424916 0.424097 0.437055 0.445790 0.429633 0.430613 0.440338 0.434970 0.408638 0.368615 0.324414 0.273312 0.210945 0.130312 0.046460 0.013526 0.001083 0.000129 0.004179 0.009552 0.036246 0.098767 0.204733 0.295758 0.362993 0.405256 0.424381 0.425750 0.424752 0.429542 0.441466 0.441683 0.428741 0.436574 0.441929 0.430592 0.408256 0.374727 0.333061 0.278836 0.209848 0.130339 0.054076 0.017971 0.004081 0.000739 0.002678 0.013711 0.040710 0.110901 0.219202 0.302736 0.359428 0.394790 0.411873 0.415572 0.419756 0.430996 0.442740 0.441852 0.436150 0.439950 0.436107 0.425458 0.407536 0.379366 0.334128 0.275587 0.203569 0.124956 0.057744 0.020197 0.006180 0.000000 0.003451 0.016600 0.051065 0.131479 0.232916 0.306058 0.353545 0.381981 0.397380 0.404059 0.412392 0.425682 0.434723 0.439052 0.438110 0.435431 0.430109 0.424464 0.409124 0.378730 0.329393 0.264995 0.192462 0.118540 0.061163 0.021869 0.003247 0.001456 0.003730 0.018887 0.063868 0.150424 0.246012 0.312348 0.353156 0.376484 0.392100 0.402497 0.410362 0.416336 0.427071 0.435484 0.435076 0.431743 0.432358 0.427228 0.409722 0.373033 0.318499 0.253265 0.180674 0.112890 0.059829 0.020498 0.004284 0.000000 0.003682 0.027055 0.076153 0.162626 0.254648 0.320698 0.362038 0.386246 0.402892 0.413406 0.420057 0.425194 0.432118 0.436592 0.435502 0.433514 0.435744 0.427848 0.401785 0.358180 0.298535 0.230638 0.161406 0.101031 0.052531 0.019530 0.002065 0.000000 0.004944 0.030198 0.080808 0.160050 0.247286 0.321626 0.371902 0.401290 0.418612 0.428175 0.432977 0.435695 0.437530 0.436611 0.435978 0.436039 0.433543 0.418013 0.382601 0.328419 0.263885 0.197134 0.136271 0.087928 0.042888 0.015946 0.000943 0.000592 0.004691 0.028010 0.070356 0.137427 0.221839 0.302614 0.365844 0.405696 0.427184 0.436072 0.437139 0.435728 0.432758 0.433433 0.434984 0.433343 0.421391 0.391872 0.341638 0.280068 0.214975 0.157188 0.108893 0.069506 0.034584 0.011372 0.000721 0.000573 0.000226 0.019914 0.052951 0.102760 0.174778 0.254898 0.328747 0.384914 0.420081 0.437371 0.442184 0.441089 0.439967 0.440065 0.436419 0.420161 0.389456 0.340750 0.280622 0.217653 0.161542 0.116071 0.079332 0.046742 0.020205 0.006164 0.001331 0.000000 0.000000 0.009776 0.031389 0.066693 0.115294 0.179970 0.253811 0.322330 0.375687 0.411137 0.428337 0.433584 0.432342 0.422892 0.403073 0.368396 0.321011 0.264443 0.207296 0.155469 0.112609 0.078901 0.051355 0.027508 0.012129 0.002454 0.000000 0.000000 0.000000 0.004397 0.016147 0.037183 0.065945 0.106674 0.160614 0.217740 0.273633 0.318375 0.347517 0.358226 0.355449 0.338401 0.307522 0.271756 0.232092 0.186593 0.145626 0.106374 0.076072 0.051936 0.031514 0.014631 0.007592 0.001842 0.000000 0.000000 0.000000 0.000296 0.004640 0.017723 0.033822 0.061923 0.095844 0.136001 0.172049 0.204397 0.223432 0.232305 0.229091 0.216523 0.196037 0.176500 0.153511 0.126639 0.097635 0.070186 0.048303 0.031465 0.018230 0.006817 0.001608 0.001923 0.000000 0.000000 0.000000 0.000000 0.000000 0.008215 0.018378 0.038235 0.058929 0.082678 0.101656 0.122079 0.136198 0.139412 0.136333 0.129512 0.114367 0.101357 0.088339 0.072509 0.055381 0.040375 0.025604 0.014288 0.005119 0.000000 0.001091 0.000000 0.000000 0.000000 0.000000 0.000000 0.000000 0.001738 0.005752 0.010700 0.015166 0.016312 0.025017 0.031326 0.036568 0.040099 0.042779 0.045534 0.040778 0.036345 0.032061 0.023998 0.015060 0.008065 0.003938 0.006630 0.001569 0.000000 0.000000 0.000000 0.000000 
scale_new_min_in=0.000000 0.000000 0.000000 0.000000 0.000000 0.000000 0.000000 0.000000 0.000000 0.000000 0.000000 0.000000 0.000000 0.000000 0.000000 0.000000 0.000000 0.000000 0.000000 0.000000 0.000000 0.000000 0.000000 0.000000 0.000000 0.000000 0.000000 0.000000 0.000000 0.000000 0.000000 0.000000 0.000000 0.000000 0.000000 0.000000 0.000000 0.000000 0.000000 0.000000 0.000000 0.000000 0.000000 0.000000 0.000000 0.000000 0.000000 0.000000 0.000000 0.000000 0.000000 0.000000 0.000000 0.000000 0.000000 0.000000 0.000000 0.000000 0.000000 0.000000 0.000000 0.000000 0.000000 0.000000 0.000000 0.000000 0.000000 0.000000 0.000000 0.000000 0.000000 0.000000 0.000000 0.000000 0.000000 0.000000 0.000000 0.000000 0.000000 0.000000 0.000000 0.000000 0.000000 0.000000 0.000000 0.000000 0.000000 0.000000 0.000000 0.000000 0.000000 0.000000 0.000000 0.000000 0.000000 0.000000 0.000000 0.000000 0.000000 0.000000 0.000000 0.000000 0.000000 0.000000 0.000000 0.000000 0.000000 0.000000 0.000000 0.000000 0.000000 0.000000 0.000000 0.000000 0.000000 0.000000 0.000000 0.000000 0.000000 0.000000 0.000000 0.000000 0.000000 0.000000 0.000000 0.000000 0.000000 0.000000 0.000000 0.000000 0.000000 0.000000 0.000000 0.000000 0.000000 0.000000 0.000000 0.000000 0.000000 0.000000 0.000000 0.000000 0.000000 0.000000 0.000000 0.000000 0.000000 0.000000 0.000000 0.000000 0.000000 0.000000 0.000000 0.000000 0.000000 0.000000 0.000000 0.000000 0.000000 0.000000 0.000000 0.000000 0.000000 0.000000 0.000000 0.000000 0.000000 0.000000 0.000000 0.000000 0.000000 0.000000 0.000000 0.000000 0.000000 0.000000 0.000000 0.000000 0.000000 0.000000 0.000000 0.000000 0.000000 0.000000 0.000000 0.000000 0.000000 0.000000 0.000000 0.000000 0.000000 0.000000 0.000000 0.000000 0.000000 0.000000 0.000000 0.000000 0.000000 0.000000 0.000000 0.000000 0.000000 0.000000 0.000000 0.000000 0.000000 0.000000 0.000000 0.000000 0.000000 0.000000 0.000000 0.000000 0.000000 0.000000 0.000000 0.000000 0.000000 0.000000 0.000000 0.000000 0.000000 0.000000 0.000000 0.000000 0.000000 0.000000 0.000000 0.000000 0.000000 0.000000 0.000000 0.000000 0.000000 0.000000 0.000000 0.000000 0.000000 0.000000 0.000000 0.000000 0.000000 0.000000 0.000000 0.000000 0.000000 0.000000 0.000000 0.000000 0.000000 0.000000 0.000000 0.000000 0.000000 0.000000 0.000000 0.000000 0.000000 0.000000 0.000000 0.000000 0.000000 0.000000 0.000000 0.000000 0.000000 0.000000 0.000000 0.000000 0.000000 0.000000 0.000000 0.000000 0.000000 0.000000 0.000000 0.000000 0.000000 0.000000 0.000000 0.000000 0.000000 0.000000 0.000000 0.000000 0.000000 0.000000 0.000000 0.000000 0.000000 0.000000 0.000000 0.000000 0.000000 0.000000 0.000000 0.000000 0.000000 0.000000 0.000000 0.000000 0.000000 0.000000 0.000000 0.000000 0.000000 0.000000 0.000000 0.000000 0.000000 0.000000 0.000000 0.000000 0.000000 0.000000 0.000000 0.000000 0.000000 0.000000 0.000000 0.000000 0.000000 0.000000 0.000000 0.000000 0.000000 0.000000 0.000000 0.000000 0.000000 0.000000 0.000000 0.000000 0.000000 0.000000 0.000000 0.000000 0.000000 0.000000 0.000000 0.000000 0.000000 0.000000 0.000000 0.000000 0.000000 0.000000 0.000000 0.000000 0.000000 0.000000 0.000000 0.000000 0.000000 0.000000 0.000000 0.000000 0.000000 0.000000 0.000000 0.000000 0.000000 0.000000 0.000000 0.000000 0.000000 0.000000 0.000000 0.000000 0.000000 0.000000 0.000000 0.000000 0.000000 0.000000 0.000000 0.000000 0.000000 0.000000 0.000000 0.000000 0.000000 0.000000 0.000000 0.000000 0.000000 0.000000 0.000000 0.000000 0.000000 0.000000 0.000000 0.000000 0.000000 0.000000 0.000000 0.000000 0.000000 0.000000 0.000000 0.000000 0.000000 0.000000 0.000000 0.000000 0.000000 0.000000 0.000000 0.000000 0.000000 0.000000 0.000000 0.000000 0.000000 0.000000 0.000000 0.000000 0.000000 0.000000 0.000000 0.000000 0.000000 0.000000 0.000000 0.000000 0.000000 0.000000 0.000000 0.000000 0.000000 0.000000 0.000000 0.000000 0.000000 0.000000 0.000000 0.000000 0.000000 0.000000 0.000000 0.000000 0.000000 0.000000 0.000000 0.000000 0.000000 0.000000 0.000000 0.000000 0.000000 0.000000 0.000000 0.000000 0.000000 0.000000 0.000000 0.000000 0.000000 0.000000 0.000000 0.000000 0.000000 0.000000 0.000000 0.000000 0.000000 0.000000 0.000000 0.000000 0.000000 0.000000 0.000000 0.000000 0.000000 0.000000 0.000000 0.000000 0.000000 0.000000 0.000000 0.000000 0.000000 0.000000 0.000000 0.000000 0.000000 0.000000 0.000000 0.000000 0.000000 0.000000 0.000000 0.000000 0.000000 0.000000 0.000000 0.000000 0.000000 0.000000 0.000000 0.000000 0.000000 0.000000 0.000000 0.000000 0.000000 0.000000 0.000000 0.000000 0.000000 0.000000 0.000000 0.000000 0.000000 0.000000 0.000000 0.000000 0.000000 0.000000 0.000000 0.000000 0.000000 0.000000 0.000000 0.000000 0.000000 0.000000 0.000000 0.000000 0.000000 0.000000 0.000000 0.000000 0.000000 0.000000 0.000000 0.000000 0.000000 0.000000 0.000000 0.000000 0.000000 0.000000 0.000000 0.000000 0.000000 0.000000 0.000000 0.000000 0.000000 0.000000 0.000000 0.000000 0.000000 0.000000 0.000000 0.000000 0.000000 0.000000 0.000000 0.000000 0.000000 0.000000 0.000000 0.000000 0.000000 0.000000 0.000000 0.000000 0.000000 0.000000 0.000000 0.000000 0.000000 0.000000 0.000000 0.000000 0.000000 0.000000 0.000000 0.000000 0.000000 0.000000 0.000000 0.000000 0.000000 0.000000 0.000000 0.000000 0.000000 0.000000 0.000000 0.000000 0.000000 0.000000 0.000000 0.000000 0.000000 0.000000 0.000000 0.000000 0.000000 0.000000 0.000000 0.000000 0.000000 0.000000 0.000000 0.000000 0.000000 0.000000 0.000000 0.000000 0.000000 0.000000 0.000000 0.000000 0.000000 0.000000 0.000000 0.000000 0.000000 0.000000 0.000000 0.000000 0.000000 0.000000 0.000000 0.000000 0.000000 0.000000 0.000000 0.000000 0.000000 0.000000 0.000000 0.000000 0.000000 0.000000 0.000000 0.000000 0.000000 0.000000 0.000000 0.000000 0.000000 0.000000 0.000000 0.000000 0.000000 0.000000 0.000000 0.000000 0.000000 0.000000 0.000000 0.000000 0.000000 0.000000 0.000000 0.000000 0.000000 0.000000 0.000000 0.000000 0.000000 0.000000 0.000000 0.000000 0.000000 0.000000 0.000000 0.000000 0.000000 0.000000 0.000000 0.000000 0.000000 0.000000 0.000000 0.000000 0.000000 0.000000 0.000000 0.000000 0.000000 0.000000 0.000000 0.000000 0.000000 0.000000 0.000000 0.000000 0.000000 0.000000 0.000000 0.000000 0.000000 0.000000 0.000000 0.000000 0.000000 0.000000 0.000000 0.000000 0.000000 0.000000 0.000000 0.000000 0.000000 0.000000 0.000000 0.000000 0.000000 0.000000 0.000000 0.000000 0.000000 0.000000 0.000000 0.000000 0.000000 0.000000 0.000000 0.000000 0.000000 0.000000 0.000000 0.000000 0.000000 0.000000 0.000000 0.000000 0.000000 0.000000 0.000000 0.000000 0.000000 0.000000 0.000000 0.000000 0.000000 0.000000 0.000000 0.000000 0.000000 0.000000 0.000000 0.000000 0.000000 0.000000 0.000000 0.000000 0.000000 0.000000 0.000000 0.000000 0.000000 0.000000 0.000000 0.000000 0.000000 0.000000 0.000000 0.000000 0.000000 0.000000 0.000000 0.000000 0.000000 0.000000 0.000000 0.000000 0.000000 0.000000 0.000000 0.000000 0.000000 0.000000 0.000000 0.000000 0.000000 0.000000 
scale_factor_in=0.500000 0.500000 0.500000 0.500000 0.500000 0.500000 0.500000 0.500000 0.500000 0.500000 0.500000 0.500000 0.500000 0.500000 0.500000 0.500000 0.500000 0.500000 0.500000 0.500000 0.500000 0.500000 0.500000 0.500000 0.500000 0.500000 0.500000 0.500000 0.500000 0.500000 0.500000 0.500000 0.500000 0.500000 0.500000 0.500000 0.500000 0.500000 0.500000 0.500000 0.500000 0.500000 0.500000 0.500000 0.500000 0.500000 0.500000 0.500000 0.500000 0.500000 0.500000 0.500000 0.500000 0.500000 0.500000 0.500000 0.500000 0.500000 0.500000 0.500000 0.500000 0.500000 0.500000 0.500000 0.500000 0.500000 0.500000 0.500000 0.500000 0.500000 0.500000 0.500000 0.500000 0.500000 0.500000 0.500000 0.500000 0.500000 0.500000 0.500000 0.500000 0.500000 0.500000 0.500000 0.500000 0.500000 0.500000 0.500000 0.500000 0.500000 0.500000 0.500000 0.500000 0.500000 0.500000 0.500000 0.500000 0.500000 0.500000 0.500000 0.500000 0.500000 0.500000 0.500000 0.500000 0.500000 0.500000 0.500000 0.500000 0.500000 0.500000 0.500000 0.500000 0.500000 0.500000 0.500000 0.500000 0.500000 0.500000 0.500000 0.500000 0.500000 0.500000 0.500000 0.500000 0.500000 0.500000 0.500000 0.500000 0.500000 0.500000 0.500000 0.500000 0.500000 0.500000 0.500000 0.500000 0.500000 0.500000 0.500000 0.500000 0.500000 0.500000 0.500000 0.500000 0.500000 0.500000 0.500000 0.500000 0.500000 0.500000 0.500000 0.500000 0.500000 0.500000 0.500000 0.500000 0.500000 0.500000 0.500000 0.500000 0.500000 0.500000 0.500000 0.500000 0.500000 0.500000 0.500000 0.500000 0.500000 0.500000 0.500000 0.500000 0.500000 0.500000 0.500000 0.500000 0.500000 0.500000 0.500000 0.500000 0.500000 0.500000 0.500000 0.500000 0.500000 0.500000 0.500000 0.500000 0.500000 0.500000 0.500000 0.500000 0.500000 0.500000 0.500000 0.500000 0.500000 0.500000 0.500000 0.500000 0.500000 0.500000 0.500000 0.500000 0.500000 0.500000 0.500000 0.500000 0.500000 0.500000 0.500000 0.500000 0.500000 0.500000 0.500000 0.500000 0.500000 0.500000 0.500000 0.500000 0.500000 0.500000 0.500000 0.500000 0.500000 0.500000 0.500000 0.500000 0.500000 0.500000 0.500000 0.500000 0.500000 0.500000 0.500000 0.500000 0.500000 0.500000 0.500000 0.500000 0.500000 0.500000 0.500000 0.500000 0.500000 0.500000 0.500000 0.500000 0.500000 0.500000 0.500000 0.500000 0.500000 0.500000 0.500000 0.500000 0.500000 0.500000 0.500000 0.500000 0.500000 0.500000 0.500000 0.500000 0.500000 0.500000 0.500000 0.500000 0.500000 0.500000 0.500000 0.500000 0.500000 0.500000 0.500000 0.500000 0.500000 0.500000 0.500000 0.500000 0.500000 0.500000 0.500000 0.500000 0.500000 0.500000 0.500000 0.500000 0.500000 0.500000 0.500000 0.500000 0.500000 0.500000 0.500000 0.500000 0.500000 0.500000 0.500000 0.500000 0.500000 0.500000 0.500000 0.500000 0.500000 0.500000 0.500000 0.500000 0.500000 0.500000 0.500000 0.500000 0.500000 0.500000 0.500000 0.500000 0.500000 0.500000 0.500000 0.500000 0.500000 0.500000 0.500000 0.500000 0.500000 0.500000 0.500000 0.500000 0.500000 0.500000 0.500000 0.500000 0.500000 0.500000 0.500000 0.500000 0.500000 0.500000 0.500000 0.500000 0.500000 0.500000 0.500000 0.500000 0.500000 0.500000 0.500000 0.500000 0.500000 0.500000 0.500000 0.500000 0.500000 0.500000 0.500000 0.500000 0.500000 0.500000 0.500000 0.500000 0.500000 0.500000 0.500000 0.500000 0.500000 0.500000 0.500000 0.500000 0.500000 0.500000 0.500000 0.500000 0.500000 0.500000 0.500000 0.500000 0.500000 0.500000 0.500000 0.500000 0.500000 0.500000 0.500000 0.500000 0.500000 0.500000 0.500000 0.500000 0.500000 0.500000 0.500000 0.500000 0.500000 0.500000 0.500000 0.500000 0.500000 0.500000 0.500000 0.500000 0.500000 0.500000 0.500000 0.500000 0.500000 0.500000 0.500000 0.500000 0.500000 0.500000 0.500000 0.500000 0.500000 0.500000 0.500000 0.500000 0.500000 0.500000 0.500000 0.500000 0.500000 0.500000 0.500000 0.500000 0.500000 0.500000 0.500000 0.500000 0.500000 0.500000 0.500000 0.500000 0.500000 0.500000 0.500000 0.500000 0.500000 0.500000 0.500000 0.500000 0.500000 0.500000 0.500000 0.500000 0.500000 0.500000 0.500000 0.500000 0.500000 0.500000 0.500000 0.500000 0.500000 0.500000 0.500000 0.500000 0.500000 0.500000 0.500000 0.500000 0.500000 0.500000 0.500000 0.500000 0.500000 0.500000 0.500000 0.500000 0.500000 0.500000 0.500000 0.500000 0.500000 0.500000 0.500000 0.500000 0.500000 0.500000 0.500000 0.500000 0.500000 0.500000 0.500000 0.500000 0.500000 0.500000 0.500000 0.500000 0.500000 0.500000 0.500000 0.500000 0.500000 0.500000 0.500000 0.500000 0.500000 0.500000 0.500000 0.500000 0.500000 0.500000 0.500000 0.500000 0.500000 0.500000 0.500000 0.500000 0.500000 0.500000 0.500000 0.500000 0.500000 0.500000 0.500000 0.500000 0.500000 0.500000 0.500000 0.500000 0.500000 0.500000 0.500000 0.500000 0.500000 0.500000 0.500000 0.500000 0.500000 0.500000 0.500000 0.500000 0.500000 0.500000 0.500000 0.500000 0.500000 0.500000 0.500000 0.500000 0.500000 0.500000 0.500000 0.500000 0.500000 0.500000 0.500000 0.500000 0.500000 0.500000 0.500000 0.500000 0.500000 0.500000 0.500000 0.500000 0.500000 0.500000 0.500000 0.500000 0.500000 0.500000 0.500000 0.500000 0.500000 0.500000 0.500000 0.500000 0.500000 0.500000 0.500000 0.500000 0.500000 0.500000 0.500000 0.500000 0.500000 0.500000 0.500000 0.500000 0.500000 0.500000 0.500000 0.500000 0.500000 0.500000 0.500000 0.500000 0.500000 0.500000 0.500000 0.500000 0.500000 0.500000 0.500000 0.500000 0.500000 0.500000 0.500000 0.500000 0.500000 0.500000 0.500000 0.500000 0.500000 0.500000 0.500000 0.500000 0.500000 0.500000 0.500000 0.500000 0.500000 0.500000 0.500000 0.500000 0.500000 0.500000 0.500000 0.500000 0.500000 0.500000 0.500000 0.500000 0.500000 0.500000 0.500000 0.500000 0.500000 0.500000 0.500000 0.500000 0.500000 0.500000 0.500000 0.500000 0.500000 0.500000 0.500000 0.500000 0.500000 0.500000 0.500000 0.500000 0.500000 0.500000 0.500000 0.500000 0.500000 0.500000 0.500000 0.500000 0.500000 0.500000 0.500000 0.500000 0.500000 0.500000 0.500000 0.500000 0.500000 0.500000 0.500000 0.500000 0.500000 0.500000 0.500000 0.500000 0.500000 0.500000 0.500000 0.500000 0.500000 0.500000 0.500000 0.500000 0.500000 0.500000 0.500000 0.500000 0.500000 0.500000 0.500000 0.500000 0.500000 0.500000 0.500000 0.500000 0.500000 0.500000 0.500000 0.500000 0.500000 0.500000 0.500000 0.500000 0.500000 0.500000 0.500000 0.500000 0.500000 0.500000 0.500000 0.500000 0.500000 0.500000 0.500000 0.500000 0.500000 0.500000 0.500000 0.500000 0.500000 0.500000 0.500000 0.500000 0.500000 0.500000 0.500000 0.500000 0.500000 0.500000 0.500000 0.500000 0.500000 0.500000 0.500000 0.500000 0.500000 0.500000 0.500000 0.500000 0.500000 0.500000 0.500000 0.500000 0.500000 0.500000 0.500000 0.500000 0.500000 0.500000 0.500000 0.500000 0.500000 0.500000 0.500000 0.500000 0.500000 0.500000 0.500000 0.500000 0.500000 0.500000 0.500000 0.500000 0.500000 0.500000 0.500000 0.500000 0.500000 0.500000 0.500000 0.500000 0.500000 0.500000 0.500000 0.500000 0.500000 0.500000 0.500000 0.500000 0.500000 0.500000 0.500000 0.500000 0.500000 0.500000 0.500000 0.500000 0.500000 0.500000 0.500000 
scale_mean_out=0.100378 0.111600 0.098378 0.101133 0.098178 0.090422 0.097333 0.105244 0.097978 0.099356 
scale_deviation_out=0.300474 0.314901 0.297883 0.301532 0.297467 0.286709 0.296454 0.306816 0.297245 0.299077 
scale_new_min_out=0.000000 0.000000 0.000000 0.000000 0.000000 0.000000 0.000000 0.000000 0.000000 0.000000 
scale_factor_out=0.500000 0.500000 0.500000 0.500000 0.500000 0.500000 0.500000 0.500000 0.500000 0.500000 
neurons (num_inputs, activation_function, activation_steepness)=(0, 0, 0.00000000000000000000e+000) (0, 0, 0.00000000000000000000e+000) (0, 0, 0.00000000000000000000e+000) (0, 0, 0.00000000000000000000e+000) (0, 0, 0.00000000000000000000e+000) (0, 0, 0.00000000000000000000e+000) (0, 0, 0.00000000000000000000e+000) (0, 0, 0.00000000000000000000e+000) (0, 0, 0.00000000000000000000e+000) (0, 0, 0.00000000000000000000e+000) (0, 0, 0.00000000000000000000e+000) (0, 0, 0.00000000000000000000e+000) (0, 0, 0.00000000000000000000e+000) (0, 0, 0.00000000000000000000e+000) (0, 0, 0.00000000000000000000e+000) (0, 0, 0.00000000000000000000e+000) (0, 0, 0.00000000000000000000e+000) (0, 0, 0.00000000000000000000e+000) (0, 0, 0.00000000000000000000e+000) (0, 0, 0.00000000000000000000e+000) (0, 0, 0.00000000000000000000e+000) (0, 0, 0.00000000000000000000e+000) (0, 0, 0.00000000000000000000e+000) (0, 0, 0.00000000000000000000e+000) (0, 0, 0.00000000000000000000e+000) (0, 0, 0.00000000000000000000e+000) (0, 0, 0.00000000000000000000e+000) (0, 0, 0.00000000000000000000e+000) (0, 0, 0.00000000000000000000e+000) (0, 0, 0.00000000000000000000e+000) (0, 0, 0.00000000000000000000e+000) (0, 0, 0.00000000000000000000e+000) (0, 0, 0.00000000000000000000e+000) (0, 0, 0.00000000000000000000e+000) (0, 0, 0.00000000000000000000e+000) (0, 0, 0.00000000000000000000e+000) (0, 0, 0.00000000000000000000e+000) (0, 0, 0.00000000000000000000e+000) (0, 0, 0.00000000000000000000e+000) (0, 0, 0.00000000000000000000e+000) (0, 0, 0.00000000000000000000e+000) (0, 0, 0.00000000000000000000e+000) (0, 0, 0.00000000000000000000e+000) (0, 0, 0.00000000000000000000e+000) (0, 0, 0.00000000000000000000e+000) (0, 0, 0.00000000000000000000e+000) (0, 0, 0.00000000000000000000e+000) (0, 0, 0.00000000000000000000e+000) (0, 0, 0.00000000000000000000e+000) (0, 0, 0.00000000000000000000e+000) (0, 0, 0.00000000000000000000e+000) (0, 0, 0.00000000000000000000e+000) (0, 0, 0.00000000000000000000e+000) (0, 0, 0.00000000000000000000e+000) (0, 0, 0.00000000000000000000e+000) (0, 0, 0.00000000000000000000e+000) (0, 0, 0.00000000000000000000e+000) (0, 0, 0.00000000000000000000e+000) (0, 0, 0.00000000000000000000e+000) (0, 0, 0.00000000000000000000e+000) (0, 0, 0.00000000000000000000e+000) (0, 0, 0.00000000000000000000e+000) (0, 0, 0.00000000000000000000e+000) (0, 0, 0.00000000000000000000e+000) (0, 0, 0.00000000000000000000e+000) (0, 0, 0.00000000000000000000e+000) (0, 0, 0.00000000000000000000e+000) (0, 0, 0.00000000000000000000e+000) (0, 0, 0.00000000000000000000e+000) (0, 0, 0.00000000000000000000e+000) (0, 0, 0.00000000000000000000e+000) (0, 0, 0.00000000000000000000e+000) (0, 0, 0.00000000000000000000e+000) (0, 0, 0.00000000000000000000e+000) (0, 0, 0.00000000000000000000e+000) (0, 0, 0.00000000000000000000e+000) (0, 0, 0.00000000000000000000e+000) (0, 0, 0.00000000000000000000e+000) (0, 0, 0.00000000000000000000e+000) (0, 0, 0.00000000000000000000e+000) (0, 0, 0.00000000000000000000e+000) (0, 0, 0.00000000000000000000e+000) (0, 0, 0.00000000000000000000e+000) (0, 0, 0.00000000000000000000e+000) (0, 0, 0.00000000000000000000e+000) (0, 0, 0.00000000000000000000e+000) (0, 0, 0.00000000000000000000e+000) (0, 0, 0.00000000000000000000e+000) (0, 0, 0.00000000000000000000e+000) (0, 0, 0.00000000000000000000e+000) (0, 0, 0.00000000000000000000e+000) (0, 0, 0.00000000000000000000e+000) (0, 0, 0.00000000000000000000e+000) (0, 0, 0.00000000000000000000e+000) (0, 0, 0.00000000000000000000e+000) (0, 0, 0.00000000000000000000e+000) (0, 0, 0.00000000000000000000e+000) (0, 0, 0.00000000000000000000e+000) (0, 0, 0.00000000000000000000e+000) (0, 0, 0.00000000000000000000e+000) (0, 0, 0.00000000000000000000e+000) (0, 0, 0.00000000000000000000e+000) (0, 0, 0.00000000000000000000e+000) (0, 0, 0.00000000000000000000e+000) (0, 0, 0.00000000000000000000e+000) (0, 0, 0.00000000000000000000e+000) (0, 0, 0.00000000000000000000e+000) (0, 0, 0.00000000000000000000e+000) (0, 0, 0.00000000000000000000e+000) (0, 0, 0.00000000000000000000e+000) (0, 0, 0.00000000000000000000e+000) (0, 0, 0.00000000000000000000e+000) (0, 0, 0.00000000000000000000e+000) (0, 0, 0.00000000000000000000e+000) (0, 0, 0.00000000000000000000e+000) (0, 0, 0.00000000000000000000e+000) (0, 0, 0.00000000000000000000e+000) (0, 0, 0.00000000000000000000e+000) (0, 0, 0.00000000000000000000e+000) (0, 0, 0.00000000000000000000e+000) (0, 0, 0.00000000000000000000e+000) (0, 0, 0.00000000000000000000e+000) (0, 0, 0.00000000000000000000e+000) (0, 0, 0.00000000000000000000e+000) (0, 0, 0.00000000000000000000e+000) (0, 0, 0.00000000000000000000e+000) (0, 0, 0.00000000000000000000e+000) (0, 0, 0.00000000000000000000e+000) (0, 0, 0.00000000000000000000e+000) (0, 0, 0.00000000000000000000e+000) (0, 0, 0.00000000000000000000e+000) (0, 0, 0.00000000000000000000e+000) (0, 0, 0.00000000000000000000e+000) (0, 0, 0.00000000000000000000e+000) (0, 0, 0.00000000000000000000e+000) (0, 0, 0.00000000000000000000e+000) (0, 0, 0.00000000000000000000e+000) (0, 0, 0.00000000000000000000e+000) (0, 0, 0.00000000000000000000e+000) (0, 0, 0.00000000000000000000e+000) (0, 0, 0.00000000000000000000e+000) (0, 0, 0.00000000000000000000e+000) (0, 0, 0.00000000000000000000e+000) (0, 0, 0.00000000000000000000e+000) (0, 0, 0.00000000000000000000e+000) (0, 0, 0.00000000000000000000e+000) (0, 0, 0.00000000000000000000e+000) (0, 0, 0.00000000000000000000e+000) (0, 0, 0.00000000000000000000e+000) (0, 0, 0.00000000000000000000e+000) (0, 0, 0.00000000000000000000e+000) (0, 0, 0.00000000000000000000e+000) (0, 0, 0.00000000000000000000e+000) (0, 0, 0.00000000000000000000e+000) (0, 0, 0.00000000000000000000e+000) (0, 0, 0.00000000000000000000e+000) (0, 0, 0.00000000000000000000e+000) (0, 0, 0.00000000000000000000e+000) (0, 0, 0.00000000000000000000e+000) (0, 0, 0.00000000000000000000e+000) (0, 0, 0.00000000000000000000e+000) (0, 0, 0.00000000000000000000e+000) (0, 0, 0.00000000000000000000e+000) (0, 0, 0.00000000000000000000e+000) (0, 0, 0.00000000000000000000e+000) (0, 0, 0.00000000000000000000e+000) (0, 0, 0.00000000000000000000e+000) (0, 0, 0.00000000000000000000e+000) (0, 0, 0.00000000000000000000e+000) (0, 0, 0.00000000000000000000e+000) (0, 0, 0.00000000000000000000e+000) (0, 0, 0.00000000000000000000e+000) (0, 0, 0.00000000000000000000e+000) (0, 0, 0.00000000000000000000e+000) (0, 0, 0.00000000000000000000e+000) (0, 0, 0.00000000000000000000e+000) (0, 0, 0.00000000000000000000e+000) (0, 0, 0.00000000000000000000e+000) (0, 0, 0.00000000000000000000e+000) (0, 0, 0.00000000000000000000e+000) (0, 0, 0.00000000000000000000e+000) (0, 0, 0.00000000000000000000e+000) (0, 0, 0.00000000000000000000e+000) (0, 0, 0.00000000000000000000e+000) (0, 0, 0.00000000000000000000e+000) (0, 0, 0.00000000000000000000e+000) (0, 0, 0.00000000000000000000e+000) (0, 0, 0.00000000000000000000e+000) (0, 0, 0.00000000000000000000e+000) (0, 0, 0.00000000000000000000e+000) (0, 0, 0.00000000000000000000e+000) (0, 0, 0.00000000000000000000e+000) (0, 0, 0.00000000000000000000e+000) (0, 0, 0.00000000000000000000e+000) (0, 0, 0.00000000000000000000e+000) (0, 0, 0.00000000000000000000e+000) (0, 0, 0.00000000000000000000e+000) (0, 0, 0.00000000000000000000e+000) (0, 0, 0.00000000000000000000e+000) (0, 0, 0.00000000000000000000e+000) (0, 0, 0.00000000000000000000e+000) (0, 0, 0.00000000000000000000e+000) (0, 0, 0.00000000000000000000e+000) (0, 0, 0.00000000000000000000e+000) (0, 0, 0.00000000000000000000e+000) (0, 0, 0.00000000000000000000e+000) (0, 0, 0.00000000000000000000e+000) (0, 0, 0.00000000000000000000e+000) (0, 0, 0.00000000000000000000e+000) (0, 0, 0.00000000000000000000e+000) (0, 0, 0.00000000000000000000e+000) (0, 0, 0.00000000000000000000e+000) (0, 0, 0.00000000000000000000e+000) (0, 0, 0.00000000000000000000e+000) (0, 0, 0.00000000000000000000e+000) (0, 0, 0.00000000000000000000e+000) (0, 0, 0.00000000000000000000e+000) (0, 0, 0.00000000000000000000e+000) (0, 0, 0.00000000000000000000e+000) (0, 0, 0.00000000000000000000e+000) (0, 0, 0.00000000000000000000e+000) (0, 0, 0.00000000000000000000e+000) (0, 0, 0.00000000000000000000e+000) (0, 0, 0.00000000000000000000e+000) (0, 0, 0.00000000000000000000e+000) (0, 0, 0.00000000000000000000e+000) (0, 0, 0.00000000000000000000e+000) (0, 0, 0.00000000000000000000e+000) (0, 0, 0.00000000000000000000e+000) (0, 0, 0.00000000000000000000e+000) (0, 0, 0.00000000000000000000e+000) (0, 0, 0.00000000000000000000e+000) (0, 0, 0.00000000000000000000e+000) (0, 0, 0.00000000000000000000e+000) (0, 0, 0.00000000000000000000e+000) (0, 0, 0.00000000000000000000e+000) (0, 0, 0.00000000000000000000e+000) (0, 0, 0.00000000000000000000e+000) (0, 0, 0.00000000000000000000e+000) (0, 0, 0.00000000000000000000e+000) (0, 0, 0.00000000000000000000e+000) (0, 0, 0.00000000000000000000e+000) (0, 0, 0.00000000000000000000e+000) (0, 0, 0.00000000000000000000e+000) (0, 0, 0.00000000000000000000e+000) (0, 0, 0.00000000000000000000e+000) (0, 0, 0.00000000000000000000e+000) (0, 0, 0.00000000000000000000e+000) (0, 0, 0.00000000000000000000e+000) (0, 0, 0.00000000000000000000e+000) (0, 0, 0.00000000000000000000e+000) (0, 0, 0.00000000000000000000e+000) (0, 0, 0.00000000000000000000e+000) (0, 0, 0.00000000000000000000e+000) (0, 0, 0.00000000000000000000e+000) (0, 0, 0.00000000000000000000e+000) (0, 0, 0.00000000000000000000e+000) (0, 0, 0.00000000000000000000e+000) (0, 0, 0.00000000000000000000e+000) (0, 0, 0.00000000000000000000e+000) (0, 0, 0.00000000000000000000e+000) (0, 0, 0.00000000000000000000e+000) (0, 0, 0.00000000000000000000e+000) (0, 0, 0.00000000000000000000e+000) (0, 0, 0.00000000000000000000e+000) (0, 0, 0.00000000000000000000e+000) (0, 0, 0.00000000000000000000e+000) (0, 0, 0.00000000000000000000e+000) (0, 0, 0.00000000000000000000e+000) (0, 0, 0.00000000000000000000e+000) (0, 0, 0.00000000000000000000e+000) (0, 0, 0.00000000000000000000e+000) (0, 0, 0.00000000000000000000e+000) (0, 0, 0.00000000000000000000e+000) (0, 0, 0.00000000000000000000e+000) (0, 0, 0.00000000000000000000e+000) (0, 0, 0.00000000000000000000e+000) (0, 0, 0.00000000000000000000e+000) (0, 0, 0.00000000000000000000e+000) (0, 0, 0.00000000000000000000e+000) (0, 0, 0.00000000000000000000e+000) (0, 0, 0.00000000000000000000e+000) (0, 0, 0.00000000000000000000e+000) (0, 0, 0.00000000000000000000e+000) (0, 0, 0.00000000000000000000e+000) (0, 0, 0.00000000000000000000e+000) (0, 0, 0.00000000000000000000e+000) (0, 0, 0.00000000000000000000e+000) (0, 0, 0.00000000000000000000e+000) (0, 0, 0.00000000000000000000e+000) (0, 0, 0.00000000000000000000e+000) (0, 0, 0.00000000000000000000e+000) (0, 0, 0.00000000000000000000e+000) (0, 0, 0.00000000000000000000e+000) (0, 0, 0.00000000000000000000e+000) (0, 0, 0.00000000000000000000e+000) (0, 0, 0.00000000000000000000e+000) (0, 0, 0.00000000000000000000e+000) (0, 0, 0.00000000000000000000e+000) (0, 0, 0.00000000000000000000e+000) (0, 0, 0.00000000000000000000e+000) (0, 0, 0.00000000000000000000e+000) (0, 0, 0.00000000000000000000e+000) (0, 0, 0.00000000000000000000e+000) (0, 0, 0.00000000000000000000e+000) (0, 0, 0.00000000000000000000e+000) (0, 0, 0.00000000000000000000e+000) (0, 0, 0.00000000000000000000e+000) (0, 0, 0.00000000000000000000e+000) (0, 0, 0.00000000000000000000e+000) (0, 0, 0.00000000000000000000e+000) (0, 0, 0.00000000000000000000e+000) (0, 0, 0.00000000000000000000e+000) (0, 0, 0.00000000000000000000e+000) (0, 0, 0.00000000000000000000e+000) (0, 0, 0.00000000000000000000e+000) (0, 0, 0.00000000000000000000e+000) (0, 0, 0.00000000000000000000e+000) (0, 0, 0.00000000000000000000e+000) (0, 0, 0.00000000000000000000e+000) (0, 0, 0.00000000000000000000e+000) (0, 0, 0.00000000000000000000e+000) (0, 0, 0.00000000000000000000e+000) (0, 0, 0.00000000000000000000e+000) (0, 0, 0.00000000000000000000e+000) (0, 0, 0.00000000000000000000e+000) (0, 0, 0.00000000000000000000e+000) (0, 0, 0.00000000000000000000e+000) (0, 0, 0.00000000000000000000e+000) (0, 0, 0.00000000000000000000e+000) (0, 0, 0.00000000000000000000e+000) (0, 0, 0.00000000000000000000e+000) (0, 0, 0.00000000000000000000e+000) (0, 0, 0.00000000000000000000e+000) (0, 0, 0.00000000000000000000e+000) (0, 0, 0.00000000000000000000e+000) (0, 0, 0.00000000000000000000e+000) (0, 0, 0.00000000000000000000e+000) (0, 0, 0.00000000000000000000e+000) (0, 0, 0.00000000000000000000e+000) (0, 0, 0.00000000000000000000e+000) (0, 0, 0.00000000000000000000e+000) (0, 0, 0.00000000000000000000e+000) (0, 0, 0.00000000000000000000e+000) (0, 0, 0.00000000000000000000e+000) (0, 0, 0.00000000000000000000e+000) (0, 0, 0.00000000000000000000e+000) (0, 0, 0.00000000000000000000e+000) (0, 0, 0.00000000000000000000e+000) (0, 0, 0.00000000000000000000e+000) (0, 0, 0.00000000000000000000e+000) (0, 0, 0.00000000000000000000e+000) (0, 0, 0.00000000000000000000e+000) (0, 0, 0.00000000000000000000e+000) (0, 0, 0.00000000000000000000e+000) (0, 0, 0.00000000000000000000e+000) (0, 0, 0.00000000000000000000e+000) (0, 0, 0.00000000000000000000e+000) (0, 0, 0.00000000000000000000e+000) (0, 0, 0.00000000000000000000e+000) (0, 0, 0.00000000000000000000e+000) (0, 0, 0.00000000000000000000e+000) (0, 0, 0.00000000000000000000e+000) (0, 0, 0.00000000000000000000e+000) (0, 0, 0.00000000000000000000e+000) (0, 0, 0.00000000000000000000e+000) (0, 0, 0.00000000000000000000e+000) (0, 0, 0.00000000000000000000e+000) (0, 0, 0.00000000000000000000e+000) (0, 0, 0.00000000000000000000e+000) (0, 0, 0.00000000000000000000e+000) (0, 0, 0.00000000000000000000e+000) (0, 0, 0.00000000000000000000e+000) (0, 0, 0.00000000000000000000e+000) (0, 0, 0.00000000000000000000e+000) (0, 0, 0.00000000000000000000e+000) (0, 0, 0.00000000000000000000e+000) (0, 0, 0.00000000000000000000e+000) (0, 0, 0.00000000000000000000e+000) (0, 0, 0.00000000000000000000e+000) (0, 0, 0.00000000000000000000e+000) (0, 0, 0.00000000000000000000e+000) (0, 0, 0.00000000000000000000e+000) (0, 0, 0.00000000000000000000e+000) (0, 0, 0.00000000000000000000e+000) (0, 0, 0.00000000000000000000e+000) (0, 0, 0.00000000000000000000e+000) (0, 0, 0.00000000000000000000e+000) (0, 0, 0.00000000000000000000e+000) (0, 0, 0.00000000000000000000e+000) (0, 0, 0.00000000000000000000e+000) (0, 0, 0.00000000000000000000e+000) (0, 0, 0.00000000000000000000e+000) (0, 0, 0.00000000000000000000e+000) (0, 0, 0.00000000000000000000e+000) (0, 0, 0.00000000000000000000e+000) (0, 0, 0.00000000000000000000e+000) (0, 0, 0.00000000000000000000e+000) (0, 0, 0.00000000000000000000e+000) (0, 0, 0.00000000000000000000e+000) (0, 0, 0.00000000000000000000e+000) (0, 0, 0.00000000000000000000e+000) (0, 0, 0.00000000000000000000e+000) (0, 0, 0.00000000000000000000e+000) (0, 0, 0.00000000000000000000e+000) (0, 0, 0.00000000000000000000e+000) (0, 0, 0.00000000000000000000e+000) (0, 0, 0.00000000000000000000e+000) (0, 0, 0.00000000000000000000e+000) (0, 0, 0.00000000000000000000e+000) (0, 0, 0.00000000000000000000e+000) (0, 0, 0.00000000000000000000e+000) (0, 0, 0.00000000000000000000e+000) (0, 0, 0.00000000000000000000e+000) (0, 0, 0.00000000000000000000e+000) (0, 0, 0.00000000000000000000e+000) (0, 0, 0.00000000000000000000e+000) (0, 0, 0.00000000000000000000e+000) (0, 0, 0.00000000000000000000e+000) (0, 0, 0.00000000000000000000e+000) (0, 0, 0.00000000000000000000e+000) (0, 0, 0.00000000000000000000e+000) (0, 0, 0.00000000000000000000e+000) (0, 0, 0.00000000000000000000e+000) (0, 0, 0.00000000000000000000e+000) (0, 0, 0.00000000000000000000e+000) (0, 0, 0.00000000000000000000e+000) (0, 0, 0.00000000000000000000e+000) (0, 0, 0.00000000000000000000e+000) (0, 0, 0.00000000000000000000e+000) (0, 0, 0.00000000000000000000e+000) (0, 0, 0.00000000000000000000e+000) (0, 0, 0.00000000000000000000e+000) (0, 0, 0.00000000000000000000e+000) (0, 0, 0.00000000000000000000e+000) (0, 0, 0.00000000000000000000e+000) (0, 0, 0.00000000000000000000e+000) (0, 0, 0.00000000000000000000e+000) (0, 0, 0.00000000000000000000e+000) (0, 0, 0.00000000000000000000e+000) (0, 0, 0.00000000000000000000e+000) (0, 0, 0.00000000000000000000e+000) (0, 0, 0.00000000000000000000e+000) (0, 0, 0.00000000000000000000e+000) (0, 0, 0.00000000000000000000e+000) (0, 0, 0.00000000000000000000e+000) (0, 0, 0.00000000000000000000e+000) (0, 0, 0.00000000000000000000e+000) (0, 0, 0.00000000000000000000e+000) (0, 0, 0.00000000000000000000e+000) (0, 0, 0.00000000000000000000e+000) (0, 0, 0.00000000000000000000e+000) (0, 0, 0.00000000000000000000e+000) (0, 0, 0.00000000000000000000e+000) (0, 0, 0.00000000000000000000e+000) (0, 0, 0.00000000000000000000e+000) (0, 0, 0.00000000000000000000e+000) (0, 0, 0.00000000000000000000e+000) (0, 0, 0.00000000000000000000e+000) (0, 0, 0.00000000000000000000e+000) (0, 0, 0.00000000000000000000e+000) (0, 0, 0.00000000000000000000e+000) (0, 0, 0.00000000000000000000e+000) (0, 0, 0.00000000000000000000e+000) (0, 0, 0.00000000000000000000e+000) (0, 0, 0.00000000000000000000e+000) (0, 0, 0.00000000000000000000e+000) (0, 0, 0.00000000000000000000e+000) (0, 0, 0.00000000000000000000e+000) (0, 0, 0.00000000000000000000e+000) (0, 0, 0.00000000000000000000e+000) (0, 0, 0.00000000000000000000e+000) (0, 0, 0.00000000000000000000e+000) (0, 0, 0.00000000000000000000e+000) (0, 0, 0.00000000000000000000e+000) (0, 0, 0.00000000000000000000e+000) (0, 0, 0.00000000000000000000e+000) (0, 0, 0.00000000000000000000e+000) (0, 0, 0.00000000000000000000e+000) (0, 0, 0.00000000000000000000e+000) (0, 0, 0.00000000000000000000e+000) (0, 0, 0.00000000000000000000e+000) (0, 0, 0.00000000000000000000e+000) (0, 0, 0.00000000000000000000e+000) (0, 0, 0.00000000000000000000e+000) (0, 0, 0.00000000000000000000e+000) (0, 0, 0.00000000000000000000e+000) (0, 0, 0.00000000000000000000e+000) (0, 0, 0.00000000000000000000e+000) (0, 0, 0.00000000000000000000e+000) (0, 0, 0.00000000000000000000e+000) (0, 0, 0.00000000000000000000e+000) (0, 0, 0.00000000000000000000e+000) (0, 0, 0.00000000000000000000e+000) (0, 0, 0.00000000000000000000e+000) (0, 0, 0.00000000000000000000e+000) (0, 0, 0.00000000000000000000e+000) (0, 0, 0.00000000000000000000e+000) (0, 0, 0.00000000000000000000e+000) (0, 0, 0.00000000000000000000e+000) (0, 0, 0.00000000000000000000e+000) (0, 0, 0.00000000000000000000e+000) (0, 0, 0.00000000000000000000e+000) (0, 0, 0.00000000000000000000e+000) (0, 0, 0.00000000000000000000e+000) (0, 0, 0.00000000000000000000e+000) (0, 0, 0.00000000000000000000e+000) (0, 0, 0.00000000000000000000e+000) (0, 0, 0.00000000000000000000e+000) (0, 0, 0.00000000000000000000e+000) (0, 0, 0.00000000000000000000e+000) (0, 0, 0.00000000000000000000e+000) (0, 0, 0.00000000000000000000e+000) (0, 0, 0.00000000000000000000e+000) (0, 0, 0.00000000000000000000e+000) (0, 0, 0.00000000000000000000e+000) (0, 0, 0.00000000000000000000e+000) (0, 0, 0.00000000000000000000e+000) (0, 0, 0.00000000000000000000e+000) (0, 0, 0.00000000000000000000e+000) (0, 0, 0.00000000000000000000e+000) (0, 0, 0.00000000000000000000e+000) (0, 0, 0.00000000000000000000e+000) (0, 0, 0.00000000000000000000e+000) (0, 0, 0.00000000000000000000e+000) (0, 0, 0.00000000000000000000e+000) (0, 0, 0.00000000000000000000e+000) (0, 0, 0.00000000000000000000e+000) (0, 0, 0.00000000000000000000e+000) (0, 0, 0.00000000000000000000e+000) (0, 0, 0.00000000000000000000e+000) (0, 0, 0.00000000000000000000e+000) (0, 0, 0.00000000000000000000e+000) (0, 0, 0.00000000000000000000e+000) (0, 0, 0.00000000000000000000e+000) (0, 0, 0.00000000000000000000e+000) (0, 0, 0.00000000000000000000e+000) (0, 0, 0.00000000000000000000e+000) (0, 0, 0.00000000000000000000e+000) (0, 0, 0.00000000000000000000e+000) (0, 0, 0.00000000000000000000e+000) (0, 0, 0.00000000000000000000e+000) (0, 0, 0.00000000000000000000e+000) (0, 0, 0.00000000000000000000e+000) (0, 0, 0.00000000000000000000e+000) (0, 0, 0.00000000000000000000e+000) (0, 0, 0.00000000000000000000e+000) (0, 0, 0.00000000000000000000e+000) (0, 0, 0.00000000000000000000e+000) (0, 0, 0.00000000000000000000e+000) (0, 0, 0.00000000000000000000e+000) (0, 0, 0.00000000000000000000e+000) (0, 0, 0.00000000000000000000e+000) (0, 0, 0.00000000000000000000e+000) (0, 0, 0.00000000000000000000e+000) (0, 0, 0.00000000000000000000e+000) (0, 0, 0.00000000000000000000e+000) (0, 0, 0.00000000000000000000e+000) (0, 0, 0.00000000000000000000e+000) (0, 0, 0.00000000000000000000e+000) (0, 0, 0.00000000000000000000e+000) (0, 0, 0.00000000000000000000e+000) (0, 0, 0.00000000000000000000e+000) (0, 0, 0.00000000000000000000e+000) (0, 0, 0.00000000000000000000e+000) (0, 0, 0.00000000000000000000e+000) (0, 0, 0.00000000000000000000e+000) (0, 0, 0.00000000000000000000e+000) (0, 0, 0.00000000000000000000e+000) (0, 0, 0.00000000000000000000e+000) (0, 0, 0.00000000000000000000e+000) (0, 0, 0.00000000000000000000e+000) (0, 0, 0.00000000000000000000e+000) (0, 0, 0.00000000000000000000e+000) (0, 0, 0.00000000000000000000e+000) (0, 0, 0.00000000000000000000e+000) (0, 0, 0.00000000000000000000e+000) (0, 0, 0.00000000000000000000e+000) (0, 0, 0.00000000000000000000e+000) (0, 0, 0.00000000000000000000e+000) (0, 0, 0.00000000000000000000e+000) (0, 0, 0.00000000000000000000e+000) (0, 0, 0.00000000000000000000e+000) (0, 0, 0.00000000000000000000e+000) (0, 0, 0.00000000000000000000e+000) (0, 0, 0.00000000000000000000e+000) (0, 0, 0.00000000000000000000e+000) (0, 0, 0.00000000000000000000e+000) (0, 0, 0.00000000000000000000e+000) (0, 0, 0.00000000000000000000e+000) (0, 0, 0.00000000000000000000e+000) (0, 0, 0.00000000000000000000e+000) (0, 0, 0.00000000000000000000e+000) (0, 0, 0.00000000000000000000e+000) (0, 0, 0.00000000000000000000e+000) (0, 0, 0.00000000000000000000e+000) (0, 0, 0.00000000000000000000e+000) (0, 0, 0.00000000000000000000e+000) (0, 0, 0.00000000000000000000e+000) (0, 0, 0.00000000000000000000e+000) (0, 0, 0.00000000000000000000e+000) (0, 0, 0.00000000000000000000e+000) (0, 0, 0.00000000000000000000e+000) (0, 0, 0.00000000000000000000e+000) (0, 0, 0.00000000000000000000e+000) (0, 0, 0.00000000000000000000e+000) (0, 0, 0.00000000000000000000e+000) (0, 0, 0.00000000000000000000e+000) (0, 0, 0.00000000000000000000e+000) (0, 0, 0.00000000000000000000e+000) (0, 0, 0.00000000000000000000e+000) (0, 0, 0.00000000000000000000e+000) (0, 0, 0.00000000000000000000e+000) (0, 0, 0.00000000000000000000e+000) (0, 0, 0.00000000000000000000e+000) (0, 0, 0.00000000000000000000e+000) (0, 0, 0.00000000000000000000e+000) (0, 0, 0.00000000000000000000e+000) (0, 0, 0.00000000000000000000e+000) (0, 0, 0.00000000000000000000e+000) (0, 0, 0.00000000000000000000e+000) (0, 0, 0.00000000000000000000e+000) (0, 0, 0.00000000000000000000e+000) (0, 0, 0.00000000000000000000e+000) (0, 0, 0.00000000000000000000e+000) (0, 0, 0.00000000000000000000e+000) (0, 0, 0.00000000000000000000e+000) (0, 0, 0.00000000000000000000e+000) (0, 0, 0.00000000000000000000e+000) (0, 0, 0.00000000000000000000e+000) (0, 0, 0.00000000000000000000e+000) (0, 0, 0.00000000000000000000e+000) (0, 0, 0.00000000000000000000e+000) (0, 0, 0.00000000000000000000e+000) (0, 0, 0.00000000000000000000e+000) (0, 0, 0.00000000000000000000e+000) (0, 0, 0.00000000000000000000e+000) (0, 0, 0.00000000000000000000e+000) (0, 0, 0.00000000000000000000e+000) (0, 0, 0.00000000000000000000e+000) (0, 0, 0.00000000000000000000e+000) (0, 0, 0.00000000000000000000e+000) (0, 0, 0.00000000000000000000e+000) (0, 0, 0.00000000000000000000e+000) (0, 0, 0.00000000000000000000e+000) (0, 0, 0.00000000000000000000e+000) (0, 0, 0.00000000000000000000e+000) (0, 0, 0.00000000000000000000e+000) (0, 0, 0.00000000000000000000e+000) (0, 0, 0.00000000000000000000e+000) (0, 0, 0.00000000000000000000e+000) (0, 0, 0.00000000000000000000e+000) (0, 0, 0.00000000000000000000e+000) (0, 0, 0.00000000000000000000e+000) (0, 0, 0.00000000000000000000e+000) (0, 0, 0.00000000000000000000e+000) (0, 0, 0.00000000000000000000e+000) (0, 0, 0.00000000000000000000e+000) (0, 0, 0.00000000000000000000e+000) (0, 0, 0.00000000000000000000e+000) (0, 0, 0.00000000000000000000e+000) (0, 0, 0.00000000000000000000e+000) (0, 0, 0.00000000000000000000e+000) (0, 0, 0.00000000000000000000e+000) (0, 0, 0.00000000000000000000e+000) (0, 0, 0.00000000000000000000e+000) (0, 0, 0.00000000000000000000e+000) (0, 0, 0.00000000000000000000e+000) (0, 0, 0.00000000000000000000e+000) (0, 0, 0.00000000000000000000e+000) (0, 0, 0.00000000000000000000e+000) (0, 0, 0.00000000000000000000e+000) (0, 0, 0.00000000000000000000e+000) (0, 0, 0.00000000000000000000e+000) (0, 0, 0.00000000000000000000e+000) (0, 0, 0.00000000000000000000e+000) (0, 0, 0.00000000000000000000e+000) (0, 0, 0.00000000000000000000e+000) (0, 0, 0.00000000000000000000e+000) (0, 0, 0.00000000000000000000e+000) (0, 0, 0.00000000000000000000e+000) (0, 0, 0.00000000000000000000e+000) (0, 0, 0.00000000000000000000e+000) (0, 0, 0.00000000000000000000e+000) (0, 0, 0.00000000000000000000e+000) (0, 0, 0.00000000000000000000e+000) (0, 0, 0.00000000000000000000e+000) (0, 0, 0.00000000000000000000e+000) (0, 0, 0.00000000000000000000e+000) (0, 0, 0.00000000000000000000e+000) (0, 0, 0.00000000000000000000e+000) (0, 0, 0.00000000000000000000e+000) (0, 0, 0.00000000000000000000e+000) (0, 0, 0.00000000000000000000e+000) (0, 0, 0.00000000000000000000e+000) (0, 0, 0.00000000000000000000e+000) (0, 0, 0.00000000000000000000e+000) (0, 0, 0.00000000000000000000e+000) (0, 0, 0.00000000000000000000e+000) (0, 0, 0.00000000000000000000e+000) (0, 0, 0.00000000000000000000e+000) (0, 0, 0.00000000000000000000e+000) (0, 0, 0.00000000000000000000e+000) (0, 0, 0.00000000000000000000e+000) (0, 0, 0.00000000000000000000e+000) (0, 0, 0.00000000000000000000e+000) (0, 0, 0.00000000000000000000e+000) (0, 0, 0.00000000000000000000e+000) (0, 0, 0.00000000000000000000e+000) (0, 0, 0.00000000000000000000e+000) (0, 0, 0.00000000000000000000e+000) (0, 0, 0.00000000000000000000e+000) (0, 0, 0.00000000000000000000e+000) (0, 0, 0.00000000000000000000e+000) (0, 0, 0.00000000000000000000e+000) (0, 0, 0.00000000000000000000e+000) (0, 0, 0.00000000000000000000e+000) (0, 0, 0.00000000000000000000e+000) (0, 0, 0.00000000000000000000e+000) (0, 0, 0.00000000000000000000e+000) (0, 0, 0.00000000000000000000e+000) (0, 0, 0.00000000000000000000e+000) (0, 0, 0.00000000000000000000e+000) (0, 0, 0.00000000000000000000e+000) (0, 0, 0.00000000000000000000e+000) (0, 0, 0.00000000000000000000e+000) (0, 0, 0.00000000000000000000e+000) (0, 0, 0.00000000000000000000e+000) (0, 0, 0.00000000000000000000e+000) (0, 0, 0.00000000000000000000e+000) (0, 0, 0.00000000000000000000e+000) (0, 0, 0.00000000000000000000e+000) (0, 0, 0.00000000000000000000e+000) (0, 0, 0.00000000000000000000e+000) (0, 0, 0.00000000000000000000e+000) (0, 0, 0.00000000000000000000e+000) (0, 0, 0.00000000000000000000e+000) (0, 0, 0.00000000000000000000e+000) (0, 0, 0.00000000000000000000e+000) (0, 0, 0.00000000000000000000e+000) (0, 0, 0.00000000000000000000e+000) (0, 0, 0.00000000000000000000e+000) (0, 0, 0.00000000000000000000e+000) (0, 0, 0.00000000000000000000e+000) (0, 0, 0.00000000000000000000e+000) (0, 0, 0.00000000000000000000e+000) (0, 0, 0.00000000000000000000e+000) (0, 0, 0.00000000000000000000e+000) (0, 0, 0.00000000000000000000e+000) (0, 0, 0.00000000000000000000e+000) (0, 0, 0.00000000000000000000e+000) (0, 0, 0.00000000000000000000e+000) (0, 0, 0.00000000000000000000e+000) (0, 0, 0.00000000000000000000e+000) (0, 0, 0.00000000000000000000e+000) (0, 0, 0.00000000000000000000e+000) (0, 0, 0.00000000000000000000e+000) (0, 0, 0.00000000000000000000e+000) (0, 0, 0.00000000000000000000e+000) (0, 0, 0.00000000000000000000e+000) (0, 0, 0.00000000000000000000e+000) (0, 0, 0.00000000000000000000e+000) (0, 0, 0.00000000000000000000e+000) (0, 0, 0.00000000000000000000e+000) (0, 0, 0.00000000000000000000e+000) (0, 0, 0.00000000000000000000e+000) (0, 0, 0.00000000000000000000e+000) (0, 0, 0.00000000000000000000e+000) (0, 0, 0.00000000000000000000e+000) (0, 0, 0.00000000000000000000e+000) (0, 0, 0.00000000000000000000e+000) (0, 0, 0.00000000000000000000e+000) (0, 0, 0.00000000000000000000e+000) (0, 0, 0.00000000000000000000e+000) (0, 0, 0.00000000000000000000e+000) (0, 0, 0.00000000000000000000e+000) (0, 0, 0.00000000000000000000e+000) (0, 0, 0.00000000000000000000e+000) (0, 0, 0.00000000000000000000e+000) (0, 0, 0.00000000000000000000e+000) (0, 0, 0.00000000000000000000e+000) (0, 0, 0.00000000000000000000e+000) (0, 0, 0.00000000000000000000e+000) (0, 0, 0.00000000000000000000e+000) (0, 0, 0.00000000000000000000e+000) (785, 3, 5.00000000000000000000e-001) (785, 3, 5.00000000000000000000e-001) (785, 3, 5.00000000000000000000e-001) (785, 3, 5.00000000000000000000e-001) (785, 3, 5.00000000000000000000e-001) (785, 3, 5.00000000000000000000e-001) (785, 3, 5.00000000000000000000e-001) (785, 3, 5.00000000000000000000e-001) (785, 3, 5.00000000000000000000e-001) (785, 3, 5.00000000000000000000e-001) (785, 3, 5.00000000000000000000e-001) (785, 3, 5.00000000000000000000e-001) (785, 3, 5.00000000000000000000e-001) (785, 3, 5.00000000000000000000e-001) (785, 3, 5.00000000000000000000e-001) (785, 3, 5.00000000000000000000e-001) (785, 3, 5.00000000000000000000e-001) (785, 3, 5.00000000000000000000e-001) (785, 3, 5.00000000000000000000e-001) (785, 3, 5.00000000000000000000e-001) (785, 3, 5.00000000000000000000e-001) (785, 3, 5.00000000000000000000e-001) (785, 3, 5.00000000000000000000e-001) (785, 3, 5.00000000000000000000e-001) (785, 3, 5.00000000000000000000e-001) (785, 3, 5.00000000000000000000e-001) (785, 3, 5.00000000000000000000e-001) (785, 3, 5.00000000000000000000e-001) (785, 3, 5.00000000000000000000e-001) (785, 3, 5.00000000000000000000e-001) (0, 3, 0.00000000000000000000e+000) (31, 3, 5.00000000000000000000e-001) (31, 3, 5.00000000000000000000e-001) (31, 3, 5.00000000000000000000e-001) (31, 3, 5.00000000000000000000e-001) (31, 3, 5.00000000000000000000e-001) (31, 3, 5.00000000000000000000e-001) (31, 3, 5.00000000000000000000e-001) (31, 3, 5.00000000000000000000e-001) (31, 3, 5.00000000000000000000e-001) (31, 3, 5.00000000000000000000e-001) (0, 3, 0.00000000000000000000e+000) 
connections (connected_to_neuron, weight)=(0, -2.19543460302702440000e-002) (1, 5.67077645168865270000e-002) (2, 9.34326185797544890000e-002) (3, 8.06396496391244000000e-002) (4, -1.97021487310848900000e-002) (5, -6.27624521071084020000e-002) (6, 7.94372570430823540000e-002) (7, -2.85034183934840260000e-002) (8, -3.38317876135079130000e-002) (9, -1.09558107101292990000e-002) (10, -5.85266122002394700000e-002) (11, -4.10766607683399340000e-003) (12, 7.28280182113037190000e-002) (13, 9.59428373686608410000e-002) (14, 4.41850240974098400000e-002) (15, -8.40763678706117620000e-002) (16, -5.15869148312049220000e-002) (17, 9.13696302677635690000e-003) (18, -5.91796883818460630000e-002) (19, -6.14868173224749630000e-002) (20, 6.43920908032669100000e-002) (21, -6.16394052153736990000e-002) (22, 3.61328130384208630000e-002) (23, 6.02600106635691190000e-002) (24, -9.38415541327231040000e-002) (25, -9.81933608381950760000e-002) (26, -4.97009284749765360000e-002) (27, 9.21569837951210500000e-002) (28, -7.63793956693916700000e-002) (29, 9.94873061699763640000e-004) (30, -7.50671397904625340000e-002) (31, -2.92175297322501140000e-002) (32, 2.27294925261958270000e-002) (33, 7.09361797036317520000e-002) (34, 9.72121902322966300000e-002) (35, 6.44775103462460610000e-002) (36, 7.83822355569687710000e-002) (37, 3.41377477308807480000e-002) (38, -9.96470477190383450000e-002) (39, 3.72474852993407570000e-002) (40, 2.82927481473125890000e-002) (41, -2.17642644485347760000e-001) (42, -3.75167562953966970000e-001) (43, -3.60426934943452460000e-001) (44, 1.18637678858609490000e-001) (45, -3.54729308369776880000e-002) (46, 9.93365158814951340000e-003) (47, -3.65291776614570450000e-002) (48, -9.90846129696369430000e-002) (49, -5.20899621517846230000e-002) (50, -1.75791652973998030000e-002) (51, -6.33322055317315360000e-002) (52, 3.16650395343458510000e-002) (53, -7.58605968335359650000e-002) (54, -4.33349615832412380000e-002) (55, 4.32067877532062990000e-002) (56, -1.06933595343434720000e-002) (57, -4.04724127124609370000e-002) (58, 4.62585456111810340000e-002) (59, 2.54684088232648220000e-002) (60, -1.98824599259146070000e-002) (61, -7.37673685423504560000e-002) (62, 6.41470761635828950000e-002) (63, -4.25589611632835010000e-003) (64, -1.88325775915098220000e-001) (65, -1.19837736948557650000e-001) (66, 1.68474719988684380000e-001) (67, -1.06832959523759510000e-001) (68, -9.56393166448169380000e-002) (69, -1.31148100120431940000e+000) (70, -5.67497831618763990000e-001) (71, -1.12600206702105700000e-001) (72, -1.92060711649397200000e-001) (73, 3.01012100967174740000e-002) (74, -6.69913187046018770000e-001) (75, -8.78679874140250620000e-001) (76, -5.82918367125731970000e-001) (77, -4.08761952029660200000e-001) (78, -2.33391477582900190000e-001) (79, -1.33932231613920650000e-001) (80, -7.91157184361530180000e-002) (81, 3.16472848397534170000e-002) (82, -8.53942883818490370000e-002) (83, -6.30004892200304310000e-002) (84, -5.93811044004723950000e-002) (85, 8.72802747380774240000e-004) (86, 5.65442182553045830000e-002) (87, -7.02029494093245190000e-002) (88, 1.94971156172234690000e-002) (89, -1.62266917858897240000e-001) (90, -1.97802476991863400000e-001) (91, -3.21852620264772630000e-001) (92, -2.95315294878702510000e-001) (93, 7.20499866035148710000e-001) (94, 6.81822858558416070000e-001) (95, 5.53913723027163250000e-002) (96, -4.87199459147835860000e-001) (97, -1.31658522742617800000e+000) (98, -1.00052228610493650000e+000) (99, -4.88313334825914050000e-001) (100, -2.53897924238605520000e-001) (101, -1.31428708124030210000e-001) (102, -1.63184471412745750000e+000) (103, -1.44991295229931370000e+000) (104, -9.58960392427241070000e-001) (105, -4.73992324757102510000e-001) (106, -1.46407054684693420000e-001) (107, -3.72295971675017600000e-001) (108, -1.88957622608685620000e-001) (109, 5.27783518737622440000e-002) (110, 4.10527486779685840000e-002) (111, -7.11669932479708220000e-002) (112, 6.09741220023352070000e-003) (113, 5.61349729198861170000e-002) (114, 1.24559345932520220000e-002) (115, -1.96583220272717320000e-002) (116, -3.03812762881836280000e-001) (117, -5.03310604004609700000e-001) (118, -3.63823076545375380000e-001) (119, -4.08885799363186750000e-001) (120, 6.55432569254298940000e-002) (121, 1.20288921560107910000e+000) (122, 9.08806814069022200000e-001) (123, 1.62698004065269220000e+000) (124, -3.17085508770427570000e-001) (125, 6.02347245828739220000e-001) (126, -6.17965035454067340000e-001) (127, -1.47026117556916370000e+000) (128, -2.54262843853632690000e+000) (129, 1.85475061099708630000e-001) (130, -7.66378431180159470000e-001) (131, -1.65261134515592460000e+000) (132, -2.25507350576761740000e+000) (133, -1.24137191305670000000e+000) (134, -1.21328872095338650000e+000) (135, -3.34450712442782570000e-001) (136, -1.52002483757794770000e-001) (137, -3.80385610105360040000e-001) (138, -3.39415377601755440000e-001) (139, -1.32483705660296940000e-001) (140, 3.90686040977925590000e-002) (141, -9.14306654249230630000e-002) (142, 3.17532303344430220000e-002) (143, -3.32223302823126950000e-002) (144, -2.28326495918076610000e-001) (145, -5.02650756899566840000e-001) (146, -7.36102246577768790000e-001) (147, -6.41804756983718970000e-001) (148, -8.35401226789746270000e-001) (149, -9.74456186293997440000e-001) (150, -7.50859788571756610000e-001) (151, 2.42716323907707920000e-001) (152, 1.86122905844216450000e+000) (153, 3.48761909216217640000e-001) (154, -1.04949602011073220000e+000) (155, 6.23119294857004460000e-001) (156, -2.82005664814005960000e-001) (157, -2.83566558422029710000e+000) (158, 1.04305448914714380000e+000) (159, -4.99407257828434090000e-001) (160, -1.30571429743490740000e+000) (161, 3.74884264470870750000e-001) (162, -2.97487949719159480000e-001) (163, -2.12854161377415140000e-001) (164, -6.63557089759863290000e-003) (165, -4.74229196036370980000e-001) (166, -4.17145512489466160000e-002) (167, -1.29816650871204500000e-001) (168, -7.32482921071095920000e-002) (169, 4.13724673162131000000e-002) (170, -8.22685028968207640000e-002) (171, -2.77132134631685960000e-001) (172, -2.81172502615663460000e-001) (173, -1.11005233935735870000e+000) (174, -4.70484897325815000000e-001) (175, -4.64012686562399330000e-002) (176, -1.58185803269606720000e+000) (177, -2.46673515907170150000e+000) (178, -1.54860779419466500000e+000) (179, -7.83584799621458880000e-001) (180, 2.22026893995226210000e-001) (181, -9.74599149471334520000e-001) (182, -1.17031347277096940000e+000) (183, -6.53289489717704840000e-001) (184, 6.78853697009388690000e-001) (185, -1.90798843213513170000e+000) (186, 1.43353285471646080000e-001) (187, -1.72671571551897270000e+000) (188, -1.85851977583043730000e+000) (189, -5.31363831039461940000e-001) (190, -4.87953237283859860000e-001) (191, 1.04576559204219730000e-002) (192, -1.69357169101132910000e-001) (193, -3.15016968179516400000e-002) (194, 1.78905631584449140000e-001) (195, -1.83895631176649750000e-001) (196, 1.52767211640130880000e-002) (197, 2.16823692332715310000e-002) (198, 5.52235767320761810000e-002) (199, -1.50554708361382990000e-001) (200, -5.07767988764495250000e-001) (201, -1.09429090584620740000e+000) (202, -9.17620187588298110000e-001) (203, -1.94245544411922830000e+000) (204, -1.20954297455477170000e+000) (205, -1.97919749361974580000e+000) (206, -2.90940487472409660000e+000) (207, -1.31946523474207900000e+000) (208, 2.21849326763987610000e-001) (209, -2.33314106357384810000e-001) (210, 2.10323976349996270000e+000) (211, -4.37676344417059880000e-001) (212, 2.36335974593869830000e-002) (213, -1.64198731723451010000e+000) (214, -2.40794951162783640000e+000) (215, -9.90912868060305760000e-001) (216, -3.14029343160223130000e-001) (217, -1.39909343354475070000e+000) (218, -8.69027367856614050000e-001) (219, -3.70528829780528200000e-001) (220, -1.32247485595132490000e+000) (221, -6.83281243427425690000e-001) (222, -1.69670686816879160000e-001) (223, -3.47563751080525170000e-002) (224, 2.66603118610397590000e-002) (225, -1.11866897049551370000e-001) (226, -1.90701629250171410000e-002) (227, 9.40532098056747900000e-002) (228, -6.34051429199846470000e-001) (229, -1.31042227725223230000e+000) (230, -8.21933073566265220000e-001) (231, -1.79780188745750120000e+000) (232, -1.11501335029667640000e+000) (233, -1.02378980074870500000e+000) (234, -5.36464401992826190000e-001) (235, -1.36380687483228710000e+000) (236, 4.14221795477563490000e-001) (237, -8.31378424490156090000e-001) (238, 2.30256771100556150000e-001) (239, -2.50584263998425080000e+000) (240, -2.45589885383362190000e+000) (241, 6.49300014105535280000e-001) (242, -2.80079009717811320000e+000) (243, 3.66397756612218340000e-002) (244, -1.10731435314868330000e+000) (245, -2.81205338818516810000e+000) (246, -2.17271123855176060000e+000) (247, -1.28929179474974890000e+000) (248, -1.28565681202863340000e+000) (249, -7.13499014716322160000e-001) (250, -4.87956833962807200000e-001) (251, -8.29473965964657860000e-002) (252, -1.33377716807009850000e-002) (253, -6.08358747155425680000e-002) (254, 1.66581958352525620000e-002) (255, -5.85912004618685260000e-002) (256, -1.33543095308086210000e+000) (257, -2.33069453357759620000e+000) (258, -1.42601786302644200000e+000) (259, 1.04608738589150610000e-001) (260, -5.51988996771826560000e-001) (261, 1.81912974245294870000e-001) (262, -2.97133640959972470000e-001) (263, 5.15964944760681550000e-001) (264, -1.21151833623893970000e+000) (265, 9.69244983273915390000e-001) (266, 8.45062495530843890000e-001) (267, 6.14412012910617310000e-002) (268, 1.98737488821639220000e-001) (269, 2.28784568558161460000e-001) (270, -9.72757459741301460000e-001) (271, -2.91466896460201590000e+000) (272, -3.39868930621724760000e+000) (273, -3.10394116222375200000e+000) (274, -2.99572374035525350000e+000) (275, -2.53818554975105840000e+000) (276, -3.90019554446599690000e-001) (277, -4.76556917365521300000e-001) (278, -1.53744587348197850000e-001) (279, 4.24640125371167700000e-002) (280, -1.86287412506557090000e-002) (281, 3.66414540522035790000e-002) (282, -5.73364195801970500000e-002) (283, 1.76957798329284040000e-001) (284, -9.20881532046169400000e-001) (285, -1.00500613943414810000e+000) (286, -5.98515305607140610000e-001) (287, -3.76485846262430700000e-001) (288, -8.62312004385194730000e-001) (289, -2.18674796661138230000e-001) (290, 2.37833771341687040000e-001) (291, 8.65503234802659780000e-001) (292, 2.58220006674253100000e-001) (293, 3.00368632529288690000e-001) (294, 4.36247176811917290000e+000) (295, 3.71451065154456650000e+000) (296, 5.34091434749998760000e-001) (297, 1.39301935681459630000e+000) (298, -5.59758189639379840000e-001) (299, -1.51455258358924500000e+000) (300, -3.45794249392174450000e+000) (301, -2.61943428597199550000e+000) (302, -3.51744385854387340000e+000) (303, -1.84255525776167590000e+000) (304, -5.36494930633576890000e-001) (305, -2.04710720618286880000e-001) (306, -9.97735604208132950000e-003) (307, -3.04856741119839850000e-001) (308, 6.28058881546747490000e-002) (309, -1.10803362349942270000e-001) (310, -3.55502188393823010000e-002) (311, -3.88591180550468430000e-001) (312, 2.08600748519278120000e-001) (313, 1.77298222635392720000e-001) (314, 4.79931433087386780000e-001) (315, -8.97112546520884570000e-001) (316, -1.90844261368880890000e+000) (317, -1.29392399278073960000e+000) (318, -1.28715682097507480000e+000) (319, -7.72731062917309530000e-001) (320, -7.07807828529209760000e-001) (321, -7.95403131148275650000e-002) (322, 1.25272683541688350000e+000) (323, 4.00995568710092080000e+000) (324, 1.89542262867347940000e+000) (325, 7.86458974007376300000e-001) (326, 6.24171193373861180000e-001) (327, -7.76208867913768310000e-001) (328, -2.85793492510027700000e+000) (329, -1.51904722049444140000e+000) (330, -2.46546314332434240000e+000) (331, -1.73892700253045130000e+000) (332, -1.27930646578178990000e+000) (333, -5.49329044242030000000e-001) (334, -2.65873237864812930000e-001) (335, -9.04711612714602510000e-002) (336, 2.10567716052956940000e-002) (337, 6.43526906939496100000e-002) (338, -9.42672754871849430000e-002) (339, -1.00284793542596810000e-001) (340, 4.54221929377040200000e-001) (341, -4.98603355027641620000e-002) (342, -1.34162620220785400000e-001) (343, -1.18463564919538200000e+000) (344, -1.11083732792712690000e+000) (345, -2.02345923622750900000e+000) (346, -1.27977594460758290000e+000) (347, -2.48045570510505710000e+000) (348, -2.65585222196020830000e+000) (349, -1.07912448908345300000e+000) (350, -3.86201378750076260000e-001) (351, -1.68852549974619740000e+000) (352, 3.03283265080745370000e+000) (353, 8.44893075243473680000e-001) (354, 2.09040883090565320000e-001) (355, -3.22236472771681770000e+000) (356, -2.74493175891460650000e+000) (357, -2.38513745683864050000e+000) (358, -1.48147512598997260000e+000) (359, -4.86153413429699200000e-001) (360, -6.57631632095365020000e-001) (361, -9.98715328300402300000e-002) (362, 2.79348416566662430000e-001) (363, 1.29201549198105810000e-001) (364, 4.17994109500162070000e-002) (365, 4.83484878618487480000e-002) (366, -8.88466524576283360000e-002) (367, -3.05037555764070020000e-002) (368, 7.19574541363019040000e-002) (369, -9.68782512331392120000e-001) (370, -1.48252279128557700000e+000) (371, -1.60920848543613950000e+000) (372, -1.80531416562273160000e+000) (373, -1.22805533635240600000e+000) (374, 1.11869578353376480000e+000) (375, -2.49229687196220320000e-002) (376, 4.72530093378446090000e-001) (377, 2.69457869433843020000e+000) (378, 8.07197966744186760000e-001) (379, -2.22408572704155860000e+000) (380, 2.30035695208285900000e-001) (381, 2.39794762366908690000e+000) (382, -5.59251251241100200000e-001) (383, -3.59442023245937700000e+000) (384, -3.17124661614770180000e+000) (385, -3.04991271146615880000e+000) (386, -4.24634971257341950000e-001) (387, 3.13820946533884590000e-001) (388, 3.70275532679928410000e-001) (389, 4.28246287573865070000e-001) (390, 9.65796261706229680000e-001) (391, 3.27566070873235910000e-001) (392, -3.15124516414471150000e-002) (393, -4.32122187938084460000e-002) (394, 2.08702549733998760000e-002) (395, 2.34909188129464430000e-001) (396, -4.72766223515440840000e-001) (397, -1.11738878741109530000e+000) (398, -1.77139691866317220000e+000) (399, -1.08534655994432510000e+000) (400, -1.78639987076019180000e+000) (401, -3.88135665265791910000e-002) (402, 6.83025892302124180000e-001) (403, 6.50280616253042560000e-001) (404, 2.38623485926982100000e+000) (405, 2.47654499755412120000e+000) (406, 1.26622022493716820000e-001) (407, -1.05913180852261360000e+000) (408, 1.15846918314019190000e+000) (409, -1.12243901473338290000e+000) (410, -2.47743044812169530000e+000) (411, -4.13097725262347470000e+000) (412, -3.23484812657855160000e+000) (413, -2.34350164898985110000e-001) (414, 1.68902071835098870000e+000) (415, 1.62216445804736240000e+000) (416, 2.09143562734485580000e+000) (417, 1.10687491862126870000e+000) (418, 8.71436704165130300000e-001) (419, 1.15971361683687980000e-001) (420, -6.91753292384259120000e-002) (421, -4.71816255010852410000e-002) (422, 8.23494780673335170000e-002) (423, 1.49977587220709610000e-001) (424, -3.91286515247569240000e-001) (425, -3.84006647119610470000e-001) (426, -1.52331933646012340000e+000) (427, -1.57039182009488830000e+000) (428, 2.16101987456362580000e-001) (429, 8.33201261515985500000e-001) (430, 7.42723952324677810000e-001) (431, 9.23690346278877140000e-001) (432, 2.31530646429232520000e-001) (433, 1.68451717411555930000e+000) (434, -1.14670315671946810000e+000) (435, -2.55120082693050950000e+000) (436, 1.73977381362835760000e+000) (437, -2.48173814014595440000e+000) (438, -5.00708421502884700000e+000) (439, -3.09614207316853340000e+000) (440, -1.26629545632846650000e+000) (441, 6.49040651745540260000e-001) (442, -1.04886004784497460000e+000) (443, -4.43814093035427790000e-001) (444, 6.07927558309905520000e-001) (445, 1.08308110349746680000e+000) (446, 7.83843005106413690000e-001) (447, 1.34053680550799890000e-001) (448, 7.48950996306998930000e-003) (449, -8.40027871659189410000e-002) (450, -2.24041902348078550000e-002) (451, 9.64733388803027010000e-003) (452, -5.15929860602442060000e-001) (453, -5.53573737046883730000e-001) (454, -8.18420068008471000000e-001) (455, 3.44253076655751720000e-001) (456, -4.09317862219677920000e-001) (457, -1.10489526744429020000e+000) (458, 5.75310065531541850000e-001) (459, 7.01200686274267240000e-001) (460, -7.60615134887460020000e-001) (461, 1.54887950173608700000e+000) (462, 2.20927575575243300000e+000) (463, -2.20610543654685580000e-001) (464, 2.17468698791472500000e+000) (465, -9.00220976764929740000e-001) (466, -2.45656794187073620000e+000) (467, -2.12440009033123990000e+000) (468, -1.08723747128088720000e+000) (469, 7.87473431959955120000e-001) (470, 1.51939330317754930000e+000) (471, 1.64503838189503690000e+000) (472, 1.27843186137024210000e+000) (473, 2.16655236246747940000e+000) (474, 1.21532698849845680000e+000) (475, 2.64548289935328030000e-001) (476, 9.27795423981478960000e-002) (477, 3.76525930567910010000e-002) (478, -1.87550872069565530000e-001) (479, -5.88941176001123720000e-001) (480, -9.82275153854937360000e-001) (481, -4.94248169529552580000e-001) (482, 1.37868570907272000000e+000) (483, 9.95983507151394050000e-001) (484, -1.67109534201897290000e+000) (485, -1.56805078191688920000e+000) (486, 1.63369341922784760000e+000) (487, -4.83969350048904070000e-001) (488, 1.19088947562438330000e+000) (489, 2.06644524165452060000e-001) (490, 2.20750903433814870000e+000) (491, -3.39126768866495010000e-001) (492, -1.62225645959104890000e+000) (493, -2.32655616517430360000e+000) (494, -1.12702238116245070000e+000) (495, 1.08928845891918310000e+000) (496, 1.58251100036553920000e+000) (497, 1.54127837803825970000e+000) (498, 1.98728520299040560000e+000) (499, 6.04184428577721030000e-001) (500, 1.80756111013435690000e+000) (501, 2.35324826383253250000e+000) (502, 7.49863210388771910000e-001) (503, 1.17799734560994070000e-001) (504, 2.20397492501822160000e-002) (505, -1.55120430089542170000e-002) (506, -9.69931871726484320000e-002) (507, -7.56106874587492930000e-001) (508, 5.05814026992989360000e-002) (509, 3.96137463677957320000e-001) (510, 2.11474946149934030000e+000) (511, 1.39027938371744720000e+000) (512, 9.39909361958146450000e-001) (513, 1.95138571483873720000e+000) (514, 1.15219509823338730000e+000) (515, 1.03372024979567540000e+000) (516, 2.21225383953459920000e+000) (517, -5.53064021128967730000e-002) (518, 6.71383421153965880000e-001) (519, -1.60618508998723870000e+000) (520, -1.31046805413582000000e+000) (521, -1.54436844412779720000e+000) (522, -5.65291359546836620000e-001) (523, -8.86211707854790840000e-002) (524, 1.08045573417227710000e+000) (525, 1.29946578375281630000e+000) (526, 1.53415677846615540000e+000) (527, 2.05943266418869570000e+000) (528, 3.00470250622400310000e+000) (529, 1.21764637370092510000e+000) (530, 8.41293151056558000000e-001) (531, 5.53678311580572680000e-001) (532, 1.70715334575106680000e-002) (533, -2.33861506791279570000e-002) (534, 6.82641830071611940000e-002) (535, -2.55853778285571490000e-001) (536, 5.82806997910541360000e-001) (537, 5.08524053333616500000e-001) (538, 6.16893016481853350000e-001) (539, 1.92940421435846640000e+000) (540, 1.03783474190939320000e+000) (541, 1.91503413734579860000e+000) (542, -2.26303010515393370000e-001) (543, 1.96931766532845250000e+000) (544, 2.55538557930214600000e+000) (545, 2.19769445578999220000e+000) (546, 2.49762779562775390000e+000) (547, -1.26949016857594280000e+000) (548, -6.19942808838730990000e-001) (549, -1.05004415694037330000e+000) (550, 7.92265681425283860000e-001) (551, 8.07477094194977150000e-001) (552, -6.07834021878244090000e-001) (553, 6.74508842113524690000e-001) (554, 1.52795274048987160000e+000) (555, 1.12665705196866650000e+000) (556, 1.65918875838856320000e+000) (557, 1.14790746081158890000e+000) (558, 5.61680962446760360000e-001) (559, 7.21130022819095690000e-003) (560, 4.47326666821936670000e-002) (561, -9.00811898516425260000e-002) (562, 1.05023278407192110000e-001) (563, 1.46395145264357820000e-001) (564, 6.06351893426942730000e-001) (565, 1.08200231785446270000e+000) (566, -6.45434137527834520000e-001) (567, -1.07539187066925560000e+000) (568, 3.86474068604325750000e-002) (569, -8.38644748763114460000e-001) (570, -1.21113407254557530000e+000) (571, -2.90340636856744330000e-001) (572, 1.62082393314877700000e+000) (573, 3.03720226027765550000e-003) (574, 1.86442563092047140000e+000) (575, -1.27412934777707540000e+000) (576, 2.07503621695122490000e-001) (577, -1.20325624614354370000e+000) (578, -6.21058013278592340000e-001) (579, -9.63506254390740110000e-001) (580, -1.19848506874985720000e+000) (581, -3.96667292764532220000e-001) (582, -1.65910759619230600000e-001) (583, 6.91744850781680350000e-001) (584, 1.12310063377532640000e+000) (585, 8.07851022307569890000e-001) (586, 1.26673580019447900000e-001) (587, 4.94130151747149970000e-002) (588, -8.41949894496896440000e-002) (589, -8.11206065829771090000e-002) (590, 1.18476045702403320000e-001) (591, 1.93184585755809020000e-001) (592, 9.28821773487615630000e-001) (593, 1.08027351604666590000e+000) (594, -1.08953283503608930000e+000) (595, -5.54784780854425840000e-001) (596, -1.30548168223679470000e+000) (597, -1.76471534393611580000e+000) (598, 7.62611497888402430000e-001) (599, -1.54446222211843230000e+000) (600, -5.98995687355252770000e-001) (601, -2.24778924845651540000e+000) (602, -1.10853385349380760000e+000) (603, -8.66879391174402380000e-001) (604, -1.79208466507816700000e+000) (605, -2.24141651464134520000e+000) (606, -8.62709623759978730000e-001) (607, -4.89023191404335870000e-001) (608, 2.96379827801247830000e-001) (609, -1.98772114848629330000e-001) (610, 6.72328006040203820000e-001) (611, 1.33014732099367780000e+000) (612, 7.78111801972591670000e-001) (613, 4.30696295171565600000e-001) (614, 9.00765606237925180000e-002) (615, 8.28662019010299180000e-002) (616, -6.51093898637855470000e-002) (617, 3.36959112679109180000e-002) (618, -2.51522719185586360000e-002) (619, 4.21314003778677570000e-002) (620, 1.12948379740893780000e+000) (621, 1.77847857338637480000e+000) (622, 6.12057436611995190000e-002) (623, -1.11581261200414960000e+000) (624, -1.82409890956385800000e+000) (625, -2.16119856452267770000e+000) (626, 6.75662446339560850000e-001) (627, -1.86098394608400790000e+000) (628, -1.63761095828732350000e+000) (629, -1.87042954281041070000e+000) (630, -5.35034346223618010000e-001) (631, -9.87776697876722620000e-001) (632, -4.94391051324940930000e-001) (633, -9.97058449985964600000e-001) (634, 1.27354578398806200000e+000) (635, 6.02024451585617460000e-001) (636, 1.51931158618127760000e+000) (637, 5.66058826877228970000e-001) (638, 6.04884125924311400000e-001) (639, 3.59729738783759250000e-001) (640, 5.38933283663522890000e-001) (641, 1.95022875864001270000e-001) (642, -2.19185356722159790000e-003) (643, 1.49889010326368190000e-002) (644, -5.51574715250353620000e-002) (645, 3.17993168800967400000e-003) (646, 2.35406430723981810000e-002) (647, -2.21166908463010510000e-001) (648, 8.79870651732215510000e-002) (649, 9.95071206564574480000e-001) (650, 3.29338627713468700000e-002) (651, -9.93006717767728750000e-001) (652, -9.84456198777943080000e-002) (653, -1.25834674443747030000e+000) (654, -6.28327124493015420000e-001) (655, 3.99082853233007180000e-001) (656, 5.55240466549983160000e-001) (657, -7.32714795375697720000e-001) (658, -7.18570185931151850000e-001) (659, -3.01937737759247150000e-001) (660, -3.21487828807364930000e-001) (661, -4.09469667770412880000e-001) (662, 6.00824402138205200000e-001) (663, -1.65198802709170840000e+000) (664, -5.94267511958713190000e-001) (665, 3.67385180228200660000e-001) (666, 4.79557436623848530000e-001) (667, -5.13989290048255220000e-001) (668, 6.08973511541041140000e-002) (669, 2.40736079029409020000e-001) (670, -1.45828009457439690000e-002) (671, 8.03161633061790780000e-002) (672, -5.71716317112986870000e-002) (673, 2.70568851688040010000e-002) (674, 1.02588291386089620000e-001) (675, -1.51383631958605940000e-001) (676, -3.97133524756995040000e-001) (677, -2.21646702451837820000e-001) (678, -1.16448815882896570000e+000) (679, -1.26764732148632380000e+000) (680, -2.54741659991910840000e-001) (681, 1.78401547190513440000e+000) (682, 4.71625265523234970000e-001) (683, -2.02517779347526170000e+000) (684, -1.96337445479941990000e+000) (685, -3.21383729410567610000e+000) (686, -2.62039889216413520000e-001) (687, -2.27471321049866230000e-001) (688, -1.24841660221236390000e+000) (689, 1.94893786181262810000e-002) (690, 5.18845769441212860000e-001) (691, -4.90610672059132220000e-001) (692, 2.15172557761890370000e-001) (693, 1.50937328194386190000e+000) (694, 9.68754357268543640000e-001) (695, 3.34905042830280000000e-001) (696, 3.79403581640010090000e-001) (697, 2.43565719370596650000e-001) (698, 8.89436838770463620000e-002) (699, 9.12780775320243270000e-002) (700, 4.99389655878985650000e-002) (701, -3.34289555762552480000e-002) (702, 4.85510318633460070000e-002) (703, -2.33673702642906290000e-002) (704, -1.47919844411670000000e-001) (705, -2.12332582135087460000e-001) (706, -4.60095921197128330000e-001) (707, -7.32558094998419170000e-001) (708, -6.13804852835069030000e-001) (709, -2.48497999183605540000e-001) (710, -2.74320732550723840000e+000) (711, -2.79885650720406340000e+000) (712, -3.70883687356014400000e+000) (713, -3.72966856537902600000e+000) (714, -2.19493018191010900000e+000) (715, -1.42391350455488960000e+000) (716, -9.70328920987954090000e-001) (717, -2.51768132094948480000e-003) (718, -4.50687638350102780000e-001) (719, -1.58389844081935680000e+000) (720, -6.48726568440038840000e-001) (721, 1.10240475131730920000e-001) (722, 7.73479403166057730000e-002) (723, 1.57709714344042770000e-001) (724, 4.03022698485170640000e-002) (725, 2.52987448237707020000e-002) (726, -5.88900580277040010000e-002) (727, -3.39660649592588020000e-002) (728, -9.69299330849935360000e-002) (729, 3.71337896158365770000e-002) (730, -4.01367193480837160000e-002) (731, 3.55712895925535120000e-002) (732, -3.66438759498567340000e-002) (733, 1.76764881025757520000e-001) (734, 1.20481818765957480000e-001) (735, -1.61284438972921520000e-001) (736, -2.94812384700814780000e-001) (737, -2.42705908189573250000e-003) (738, -6.23584099629381150000e-002) (739, -2.43714507311004000000e-001) (740, -4.06293161475274220000e-001) (741, -2.53374779973245030000e-001) (742, -2.12331478527283320000e-001) (743, 6.29673298146688630000e-002) (744, 2.78630086293881090000e-001) (745, 1.19242225513097450000e-001) (746, -3.03247642562515070000e-002) (747, -2.10436132086641720000e-001) (748, 1.03972241259043610000e-001) (749, 6.44765380441178760000e-002) (750, -5.77554762090275660000e-002) (751, -3.18918644991445720000e-002) (752, -8.38195813271340740000e-002) (753, -4.44218049804751890000e-002) (754, 3.66516118742765680000e-002) (755, -7.58056651920924200000e-003) (756, 3.77990728288750690000e-002) (757, -6.53564462863869270000e-002) (758, -6.78039560884826640000e-002) (759, 1.42089845867303670000e-002) (760, 2.69401804433732140000e-002) (761, 6.08537385254109480000e-002) (762, 8.70921536956973660000e-002) (763, 9.69399686071476810000e-002) (764, 3.56911948055332800000e-003) (765, 3.72654373915209460000e-002) (766, -9.34116486477520600000e-002) (767, -5.47610976716148000000e-002) (768, 3.21517362964823810000e-002) (769, -5.74976593490485880000e-002) (770, 7.68676522937461890000e-002) (771, -7.87466807469976580000e-002) (772, -6.85964458610469340000e-002) (773, 3.11347061868803880000e-002) (774, -1.44536672066284790000e-001) (775, -2.87048786449164500000e-002) (776, 2.55221282587807690000e-002) (777, -3.40731398760240890000e-002) (778, -1.17727843532617920000e-001) (779, -1.90444802691657100000e-003) (780, -3.30200200232866340000e-002) (781, -7.30041514784716130000e-002) (782, -1.66381838416782560000e-002) (783, 7.21191416996589400000e-002) (784, -4.64097029510713810000e+000) (0, -1.74255373690357370000e-002) (1, 3.17138676600734470000e-002) (2, -9.27917494295797950000e-002) (3, 9.16748060535610420000e-003) (4, 2.64709476600728520000e-002) (5, -2.05139163213061690000e-002) (6, 8.21289074738160710000e-002) (7, 5.97717294062931610000e-002) (8, 5.83251961816131370000e-002) (9, 3.67431646100158100000e-003) (10, 3.82568365075712790000e-002) (11, -5.83679207916247830000e-002) (12, 5.29853493322096840000e-002) (13, 2.58824546885294340000e-002) (14, -2.77369308760866610000e-002) (15, 8.05304428180842330000e-002) (16, -1.40075685681040340000e-002) (17, 6.10107430966309040000e-002) (18, -8.52417004889503000000e-002) (19, 5.79895028172359160000e-002) (20, -7.87353527357481650000e-003) (21, -3.34655766705509450000e-002) (22, 8.05053722933735120000e-003) (23, 3.61328130384208630000e-003) (24, -8.64746106635720930000e-002) (25, 2.31567386263122900000e-002) (26, 8.85803235855746610000e-002) (27, 7.21679698253865350000e-002) (28, -6.54296884749783200000e-003) (29, 7.85461437485537320000e-002) (30, -1.89941409080347510000e-002) (31, -1.33544923864974410000e-002) (32, -2.79846195576283210000e-002) (33, 8.51961130517436270000e-002) (34, 8.69106359530843160000e-003) (35, -7.16435317234714870000e-002) (36, -6.64832629590064450000e-002) (37, -3.99261060533557460000e-002) (38, -1.19597718744469420000e-001) (39, -2.18461771825492980000e-001) (40, -1.72708093376999300000e-001) (41, -5.21335226597704130000e-002) (42, 9.06794613519888020000e-002) (43, 1.78541954525180850000e-002) (44, -2.22268533928212280000e-001) (45, -4.04424600694948190000e-002) (46, -3.13873638642809750000e-002) (47, -1.09092909205887390000e-002) (48, -1.51598956131135540000e-002) (49, -9.40356447234244190000e-002) (50, -4.24367559763799210000e-002) (51, -6.88695885205889290000e-002) (52, -3.86413579976760960000e-002) (53, 3.28979497089676440000e-003) (54, 4.25292975087359080000e-002) (55, -6.84265146915095100000e-002) (56, 3.85742193248006520000e-002) (57, -8.81347669383103490000e-002) (58, 5.90454110360951740000e-002) (59, -3.69469720912887630000e-002) (60, -5.21858495403117110000e-002) (61, -4.40211734688564850000e-002) (62, 2.57409714337851200000e-002) (63, -1.66812137767639620000e-002) (64, -8.18385639668253730000e-002) (65, -2.83737931871915540000e-001) (66, -4.28406467274605520000e-001) (67, -4.38557873414017750000e-001) (68, -7.69796072605174910000e-001) (69, -2.94978540260745710000e-001) (70, 5.43149378471694750000e-001) (71, 1.12881625316291110000e+000) (72, 5.67138874118235380000e-001) (73, 6.54319528998944190000e-001) (74, 1.42344345033824360000e+000) (75, 1.48668287588426480000e-001) (76, -2.51962645862804870000e-001) (77, -4.71431472424254210000e-001) (78, -3.09305784188392940000e-001) (79, -5.74672450967759350000e-002) (80, -1.40181062034129140000e-002) (81, 3.65950568477948910000e-002) (82, 9.88525405355176190000e-002) (83, -5.02929694994236340000e-003) (84, 1.96289065424934960000e-002) (85, 4.98962409778869190000e-002) (86, 1.90372795774526840000e-002) (87, -9.93361973550579980000e-002) (88, 5.80866054929348520000e-002) (89, -1.78030885656726930000e-003) (90, -8.11241127590199560000e-002) (91, 2.54434776873827290000e-003) (92, -1.49765768991596800000e-001) (93, -6.66586722144523970000e-001) (94, -1.04550836611714140000e+000) (95, -1.13246049595541410000e+000) (96, 6.89312427399238480000e-001) (97, 1.74546618903250560000e+000) (98, 3.51241481051083060000e+000) (99, 2.07378122095580820000e+000) (100, 2.90674144139383970000e-001) (101, 1.90188690444324270000e+000) (102, 2.89114396997782250000e+000) (103, 1.39935363830255820000e+000) (104, 4.91085141488826930000e-001) (105, -1.12344511587565310000e+000) (106, 7.02366154967762200000e-002) (107, -1.82858653683704380000e-001) (108, 1.19322111137691960000e-001) (109, 1.02572161397885840000e-001) (110, -3.82759763685403470000e-002) (111, -6.73217783469226560000e-002) (112, 3.61022954598411160000e-002) (113, -3.71582271616288030000e-002) (114, 4.55195741319225770000e-002) (115, 1.03270379091500140000e-001) (116, 1.37373170451079470000e-001) (117, 5.78581000832636190000e-001) (118, 6.90380471696859010000e-001) (119, 7.48577785204565530000e-001) (120, 1.02667502383832920000e-001) (121, -1.19549099683030340000e+000) (122, -3.12781860901482490000e-002) (123, 2.57389717073233900000e+000) (124, 3.23699258922826290000e+000) (125, -7.30953205040821510000e-001) (126, -1.52587687600799350000e-001) (127, 3.62870647075140830000e+000) (128, 8.34198154555291450000e-001) (129, -5.88136611705094460000e-001) (130, 4.14016821672747730000e-001) (131, 5.90675587835968410000e-001) (132, -4.79917674822379960000e-001) (133, 1.14320124187970840000e+000) (134, 7.89809919114610960000e-001) (135, 1.13355871820809070000e-001) (136, 8.26202937815649130000e-001) (137, -1.45674189881302730000e-001) (138, -1.86458620958199120000e-001) (139, 4.76663169605009220000e-002) (140, 4.20471197671759000000e-002) (141, 7.75451671711380190000e-002) (142, 7.49030619868950450000e-002) (143, 3.17012168279045770000e-001) (144, 2.46552405327658740000e-001) (145, 9.91438577255088660000e-001) (146, 1.77923404663609560000e+000) (147, 1.53694409079297370000e+000) (148, -1.51117684126861440000e+000) (149, -2.34707097862089940000e+000) (150, -8.16371502807567650000e-001) (151, 3.37184547315492800000e-001) (152, -1.45743092493521660000e-001) (153, -6.92472442675388660000e-001) (154, 1.28702834559731790000e+000) (155, 1.22340789419151870000e+000) (156, 1.59865430958337320000e+000) (157, -5.83813825457461970000e-001) (158, -4.68974595697545240000e-002) (159, 5.49055057455726580000e-001) (160, -1.77764483518269190000e-002) (161, -6.82436786030657050000e-001) (162, 1.72450328959969170000e+000) (163, 1.78542475552298630000e+000) (164, 1.26094003889401000000e+000) (165, 6.14706525216773940000e-001) (166, 2.41858149264964540000e-001) (167, 2.02045767874913830000e-002) (168, -1.38610841909212470000e-002) (169, -6.77701281696494880000e-002) (170, 6.99385341400314690000e-002) (171, 9.20051803125254280000e-002) (172, 5.89398819655787410000e-002) (173, -2.26960323945150810000e-001) (174, 7.73123002456981430000e-002) (175, -6.08594671742637260000e-001) (176, -9.46822639000225730000e-002) (177, -1.42618450707755580000e+000) (178, 5.30687987650394270000e-001) (179, 8.93431665504511590000e-001) (180, -4.65527430175501470000e-001) (181, 7.54024337386231760000e-001) (182, 1.19512854914709670000e+000) (183, 1.31139611673437950000e+000) (184, 8.96811389499009290000e-001) (185, -5.15870690200564750000e-001) (186, 2.48024947690904250000e-001) (187, -9.92107874012230880000e-001) (188, 9.40264462509809660000e-001) (189, -6.14356427251969930000e-001) (190, 5.56881485628734410000e-001) (191, 2.16945360885232530000e+000) (192, 2.48419835721762270000e+000) (193, 1.92123631682136820000e+000) (194, 7.73909817160847170000e-001) (195, -7.40901571502064760000e-002) (196, -7.14046541443165010000e-002) (197, 1.75223571623410960000e-003) (198, -2.25278125877667740000e-001) (199, -7.63027458148177180000e-001) (200, -1.10724255476285150000e+000) (201, -1.63140034108151310000e-001) (202, -7.24947617612700880000e-001) (203, -2.43217245709719920000e+000) (204, -2.97760329581539470000e-001) (205, -4.66824830188834530000e-001) (206, -2.54206716629114760000e-001) (207, -3.98068572050146840000e-001) (208, 3.21772451508098250000e-001) (209, -1.14219770632354960000e+000) (210, 2.57314371325702410000e+000) (211, 3.47057583431040480000e-001) (212, -2.02814088937453190000e+000) (213, 1.16178749870439100000e+000) (214, 8.47630869431278080000e-001) (215, 1.89616705765700970000e-001) (216, 4.12313057354340540000e-001) (217, -7.55449729280352700000e-001) (218, 6.28305707023671830000e-001) (219, 7.51248209968162330000e-001) (220, 1.52814644379786000000e+000) (221, 2.23435348591893580000e+000) (222, 5.21625624165692690000e-001) (223, 5.53401560879154610000e-002) (224, -7.95252500367243930000e-002) (225, -1.35504273309079100000e-001) (226, -1.08448209502926270000e-001) (227, -7.31721072748583330000e-001) (228, -1.06568815205512490000e+000) (229, 2.89605624975071640000e-001) (230, 4.61076369559373870000e-001) (231, -1.06111744582226850000e+000) (232, 2.91918975788758530000e-001) (233, -1.45952761645079730000e+000) (234, -2.00477009452051070000e+000) (235, 1.38441433524638360000e+000) (236, -2.12536263658102130000e-001) (237, 1.14593643861243640000e+000) (238, 1.40159876279128600000e+000) (239, 1.19931313254278820000e+000) (240, 3.00318115919797070000e-002) (241, -1.63443964701229480000e+000) (242, 1.72106902295469450000e+000) (243, 1.25995940044672360000e+000) (244, -6.78407500658990140000e-001) (245, 5.02064079889616150000e-002) (246, -6.49837782105436720000e-002) (247, -7.18172948546030420000e-001) (248, 1.83054562720624460000e+000) (249, 1.91817953595266990000e+000) (250, 3.83120313629501720000e-001) (251, -4.91814000757350360000e-002) (252, -2.18144931087463790000e-003) (253, -8.84157130111198900000e-002) (254, -4.21262429441085660000e-001) (255, -6.20248043884759830000e-002) (256, 1.18330365027490010000e+000) (257, -2.40106183189490810000e-001) (258, 9.89768750305105470000e-001) (259, 4.91668432411902500000e-001) (260, 4.52736209193627230000e-001) (261, -1.53388393491943840000e+000) (262, 4.40848555428878380000e-002) (263, -9.84376844815581630000e-001) (264, -1.36659249799632270000e+000) (265, 7.49449737632357230000e-001) (266, 5.22494853102707490000e-001) (267, 1.43168444657973070000e-002) (268, 2.21482253354851750000e-001) (269, -1.34616754734582970000e+000) (270, -1.22091550499997870000e+000) (271, -1.85156235556767300000e+000) (272, -1.82372455068085420000e-001) (273, 1.22386541631741700000e+000) (274, 1.24472891838269790000e+000) (275, -4.77741418794921770000e-001) (276, 1.56169631363158760000e+000) (277, 2.23411923358358600000e+000) (278, 2.58868037512127000000e-001) (279, -2.90207412664650510000e-002) (280, -9.20759900261255290000e-002) (281, -3.57556267365662370000e-002) (282, -4.68275484766469460000e-001) (283, 8.77065071689787310000e-001) (284, -5.62147647066919480000e-002) (285, -1.93780791893699880000e+000) (286, -1.26325212064575900000e+000) (287, 3.72149344196949450000e-001) (288, 2.08789317391857380000e-001) (289, 5.62951029827433060000e-001) (290, 4.17933417824298330000e-001) (291, 4.07130750172207840000e-001) (292, 7.99432578432317080000e-001) (293, 4.55981704375535480000e-001) (294, 5.05176843122509210000e-001) (295, -4.59767461817729930000e-001) (296, -7.35572321784592860000e-001) (297, -1.61087424076893450000e+000) (298, -2.68388153220914070000e+000) (299, -1.17417726564962190000e+000) (300, -7.52235030944010670000e-001) (301, -4.40955912251024820000e-001) (302, -1.38264386435176360000e+000) (303, -4.78135954713564740000e-001) (304, 1.42139410891028000000e-001) (305, 1.55040934994939160000e+000) (306, 3.97010711037354300000e-001) (307, 3.93951884486668030000e-002) (308, -4.43325394273442470000e-002) (309, -1.91125134134521780000e-001) (310, -6.62086289870289830000e-001) (311, -7.79789043210944720000e-002) (312, -6.10331047675857660000e-001) (313, -2.76531930562238640000e+000) (314, 7.54430103529043530000e-003) (315, -2.84153574983804720000e-001) (316, -1.38634850181883220000e+000) (317, -3.17067210520456920000e+000) (318, -1.68227946293726100000e+000) (319, -1.49878809418281470000e+000) (320, 2.13382696018473310000e+000) (321, 3.24287902069913290000e+000) (322, 1.78518930951916400000e+000) (323, 8.75755708481384510000e-001) (324, 1.34689619035872110000e+000) (325, 9.91814650640146620000e-001) (326, 2.38422985108815280000e+000) (327, -9.02240222834973180000e-001) (328, 1.35669110523922960000e+000) (329, -2.10879875535298830000e+000) (330, -3.57972357619634530000e+000) (331, -1.89073284116639910000e+000) (332, -1.10583943231642710000e+000) (333, 6.54622505574014140000e-001) (334, 2.56326084030502440000e-001) (335, 1.67248021534376590000e-002) (336, 6.96561801070651880000e-002) (337, -6.78377750370542510000e-002) (338, -8.02328717398718580000e-001) (339, -2.57351399519942010000e-001) (340, -5.16499551885589600000e-001) (341, -1.57895601042618990000e+000) (342, -1.50412430748367370000e+000) (343, 6.00897585765526250000e-002) (344, -2.53580013589784640000e+000) (345, -6.01252220641321000000e-001) (346, 1.70710869052183560000e+000) (347, -7.21406537373327630000e-002) (348, 1.06947450340933890000e+000) (349, 4.91876880572345350000e-001) (350, 1.61273665085731130000e+000) (351, 