FANN_FLO_2.1
num_layers=3
learning_rate=0.000000
connection_rate=1.000000
network_type=0
learning_momentum=0.700000
training_algorithm=0
train_error_function=1
train_stop_function=0
cascade_output_change_fraction=0.010000
quickprop_decay=-0.000100
quickprop_mu=1.750000
rprop_increase_factor=1.200000
rprop_decrease_factor=0.500000
rprop_delta_min=0.000000
rprop_delta_max=50.000000
rprop_delta_zero=0.100000
cascade_output_stagnation_epochs=12
cascade_candidate_change_fraction=0.010000
cascade_candidate_stagnation_epochs=12
cascade_max_out_epochs=150
cascade_min_out_epochs=50
cascade_max_cand_epochs=150
cascade_min_cand_epochs=50
cascade_num_candidate_groups=2
bit_fail_limit=3.49999999999999980000e-001
cascade_candidate_limit=1.00000000000000000000e+003
cascade_weight_multiplier=4.00000000000000020000e-001
cascade_activation_functions_count=10
cascade_activation_functions=3 5 7 8 10 11 14 15 16 17 
cascade_activation_steepnesses_count=4
cascade_activation_steepnesses=2.50000000000000000000e-001 5.00000000000000000000e-001 7.50000000000000000000e-001 1.00000000000000000000e+000 
layer_sizes=785 31 11 
scale_included=1
scale_mean_in=0.000000 0.000000 0.000000 0.000000 0.000000 0.000000 0.000000 0.000000 0.000000 0.000000 0.000000 0.000000 0.000001 0.000019 0.000019 0.000001 0.000000 0.000000 0.000000 0.000000 0.000000 0.000000 0.000000 0.000000 0.000000 0.000000 0.000000 0.000000 0.000000 0.000000 0.000000 0.000000 0.000000 0.000001 0.000048 0.000104 0.000162 0.000246 0.000510 0.000675 0.000654 0.000671 0.000695 0.000618 0.000722 0.000632 0.000430 0.000301 0.000213 0.000085 0.000043 0.000018 0.000000 0.000000 0.000000 0.000000 0.000000 0.000000 0.000000 0.000004 0.000033 0.000019 0.000176 0.000596 0.001097 0.002053 0.003294 0.005000 0.007191 0.009624 0.012523 0.014257 0.014644 0.013237 0.010768 0.007929 0.004588 0.002283 0.001022 0.000333 0.000122 0.000020 0.000000 0.000000 0.000000 0.000000 0.000005 0.000030 0.000053 0.000312 0.000927 0.002340 0.004614 0.008576 0.013975 0.020909 0.028576 0.037525 0.046453 0.052236 0.052135 0.046646 0.037310 0.026463 0.015823 0.008433 0.003778 0.001382 0.000519 0.000102 0.000015 0.000000 0.000000 0.000003 0.000020 0.000059 0.000334 0.001652 0.004179 0.009490 0.018407 0.032428 0.051290 0.074996 0.104864 0.137183 0.163131 0.176820 0.174413 0.154148 0.122332 0.089402 0.057457 0.033036 0.017303 0.008168 0.003368 0.000795 0.000125 0.000011 0.000000 0.000000 0.000040 0.000222 0.001469 0.005536 0.013645 0.027877 0.050247 0.082173 0.122071 0.172386 0.230018 0.288523 0.332639 0.355028 0.349013 0.314619 0.258774 0.195919 0.134640 0.083930 0.048409 0.025933 0.011688 0.003139 0.000495 0.000013 0.000000 0.000000 0.000122 0.000785 0.004112 0.012307 0.028241 0.054925 0.093708 0.145165 0.207709 0.278168 0.349957 0.415706 0.463603 0.485396 0.476840 0.439387 0.377318 0.296411 0.212959 0.139256 0.082833 0.044892 0.020930 0.006911 0.001302 0.000092 0.000004 0.000088 0.000424 0.002278 0.008769 0.022772 0.048113 0.087266 0.142070 0.210863 0.289624 0.369974 0.438287 0.489985 0.519536 0.529521 0.522372 0.497398 0.446187 0.369660 0.275128 0.184571 0.111318 0.059803 0.027498 0.009908 0.002003 0.000107 0.000021 0.000215 0.001273 0.005000 0.014227 0.032691 0.065466 0.115884 0.184813 0.268013 0.355555 0.427237 0.470294 0.484329 0.481970 0.478537 0.480007 0.479867 0.457586 0.397156 0.305344 0.208163 0.125795 0.064679 0.027900 0.010083 0.001882 0.000073 0.000009 0.000293 0.001974 0.006480 0.017113 0.038217 0.075988 0.135244 0.215091 0.306582 0.389028 0.435558 0.436491 0.410303 0.386470 0.387398 0.407747 0.435272 0.436850 0.390347 0.303764 0.208047 0.124015 0.061020 0.023293 0.007415 0.001318 0.000086 0.000016 0.000410 0.002188 0.006487 0.016693 0.038493 0.080198 0.146271 0.234189 0.327384 0.394381 0.406131 0.369221 0.324436 0.308361 0.328858 0.366796 0.410439 0.418031 0.371210 0.283605 0.190849 0.112828 0.054079 0.018528 0.004664 0.000867 0.000077 0.000029 0.000320 0.001789 0.005154 0.014364 0.037499 0.083008 0.156731 0.251855 0.343633 0.389865 0.373925 0.320173 0.286325 0.296478 0.333939 0.381572 0.423132 0.416140 0.351320 0.256109 0.167555 0.100182 0.050296 0.016095 0.002380 0.000451 0.000031 0.000014 0.000170 0.000986 0.003449 0.012027 0.037369 0.089720 0.171931 0.272526 0.356277 0.385862 0.357161 0.312188 0.310667 0.349553 0.398183 0.443642 0.462004 0.422993 0.332765 0.231268 0.150895 0.093923 0.050479 0.016990 0.001637 0.000272 0.000038 0.000003 0.000085 0.000490 0.002261 0.011405 0.041768 0.100787 0.188136 0.287822 0.362198 0.380746 0.356600 0.340317 0.379833 0.435728 0.485830 0.509523 0.497103 0.427293 0.318879 0.217439 0.146543 0.095133 0.054161 0.020267 0.002256 0.000312 0.000032 0.000000 0.000043 0.000211 0.001735 0.011933 0.048816 0.112645 0.199419 0.291812 0.356468 0.373624 0.365451 0.383178 0.451786 0.509895 0.547302 0.538364 0.502434 0.418232 0.311327 0.220212 0.153665 0.101279 0.058160 0.022691 0.003197 0.000324 0.000007 0.000001 0.000020 0.000179 0.001934 0.013805 0.057009 0.122344 0.201583 0.281232 0.337018 0.358540 0.368536 0.410501 0.482095 0.531512 0.545031 0.517164 0.475229 0.395948 0.307298 0.228556 0.162436 0.106564 0.058562 0.022811 0.004103 0.000510 0.000040 0.000003 0.000021 0.000302 0.002467 0.017313 0.065258 0.128244 0.196635 0.260634 0.305014 0.326829 0.348589 0.394467 0.452764 0.494297 0.498272 0.473958 0.434655 0.373268 0.303221 0.233157 0.164564 0.104621 0.055552 0.021587 0.004729 0.000657 0.000060 0.000000 0.000032 0.000423 0.003755 0.023343 0.073094 0.131672 0.189524 0.236940 0.270696 0.290571 0.314132 0.349282 0.397834 0.440018 0.450889 0.439492 0.408926 0.362621 0.302938 0.231695 0.159200 0.097168 0.049957 0.019851 0.005261 0.000746 0.000037 0.000010 0.000022 0.000588 0.005777 0.030109 0.081130 0.137543 0.188729 0.227460 0.257772 0.279548 0.298212 0.322998 0.370519 0.416189 0.438936 0.437368 0.411990 0.366371 0.299318 0.221025 0.146730 0.087863 0.044199 0.017717 0.005082 0.000651 0.000039 0.000000 0.000027 0.001040 0.007857 0.034706 0.086485 0.145394 0.200007 0.243977 0.278882 0.304416 0.322260 0.350754 0.395622 0.439872 0.461993 0.455879 0.422348 0.362275 0.281095 0.198349 0.126579 0.072600 0.035288 0.014087 0.003994 0.000557 0.000014 0.000000 0.000046 0.001340 0.008717 0.033566 0.082040 0.147435 0.212422 0.270359 0.318942 0.354541 0.383256 0.417468 0.459146 0.490244 0.493049 0.464339 0.408152 0.329403 0.239508 0.159822 0.096803 0.052894 0.025383 0.010684 0.002783 0.000401 0.000004 0.000003 0.000045 0.001132 0.006912 0.025787 0.066721 0.130195 0.203761 0.277366 0.343002 0.396461 0.440316 0.480534 0.511689 0.517997 0.490006 0.431426 0.350801 0.261301 0.178415 0.111720 0.063566 0.033446 0.016247 0.006768 0.001742 0.000241 0.000003 0.000003 0.000001 0.000644 0.004128 0.015045 0.042687 0.092133 0.160586 0.240288 0.318622 0.388846 0.442902 0.480599 0.491838 0.473095 0.419854 0.343631 0.258812 0.178864 0.113071 0.065899 0.035651 0.018499 0.008803 0.003298 0.000759 0.000074 0.000006 0.000000 0.000000 0.000201 0.001606 0.006574 0.019254 0.046766 0.094011 0.158188 0.231699 0.303692 0.360772 0.391566 0.389569 0.355648 0.296358 0.225743 0.158266 0.101018 0.059987 0.032972 0.017196 0.008675 0.003802 0.001192 0.000232 0.000024 0.000000 0.000000 0.000000 0.000038 0.000458 0.002139 0.006251 0.016319 0.035927 0.066183 0.106521 0.150080 0.185950 0.204075 0.201051 0.179052 0.144095 0.107592 0.075622 0.047964 0.028342 0.015287 0.007659 0.003691 0.001484 0.000359 0.000092 0.000010 0.000000 0.000000 0.000000 0.000001 0.000047 0.000462 0.001696 0.005264 0.012119 0.023705 0.038298 0.054596 0.066281 0.071949 0.070316 0.063224 0.051834 0.041388 0.031065 0.020856 0.012464 0.006574 0.003140 0.001450 0.000506 0.000094 0.000008 0.000009 0.000000 0.000000 0.000000 0.000000 0.000000 0.000124 0.000527 0.001998 0.004597 0.008881 0.013561 0.019349 0.024102 0.025736 0.024715 0.022098 0.017580 0.013687 0.010295 0.006919 0.004098 0.002138 0.000912 0.000308 0.000067 0.000000 0.000005 0.000000 0.000000 0.000000 0.000000 0.000000 0.000000 0.000008 0.000048 0.000172 0.000315 0.000421 0.000809 0.001396 0.001773 0.002195 0.002523 0.002807 0.002275 0.001845 0.001401 0.000818 0.000329 0.000110 0.000038 0.000051 0.000010 0.000000 0.000000 0.000000 0.000000 
scale_deviation_in=0.000000 0.000000 0.000000 0.000000 0.000000 0.000000 0.000000 0.000000 0.000000 0.000000 0.000000 0.000000 0.000185 0.003993 0.003993 0.000166 0.000000 0.000000 0.000000 0.000000 0.000000 0.000000 0.000000 0.000000 0.000000 0.000000 0.000000 0.000000 0.000000 0.000000 0.000000 0.000000 0.000000 0.000148 0.004777 0.009108 0.011301 0.012477 0.020205 0.022476 0.021920 0.021909 0.022617 0.021470 0.023365 0.021941 0.017523 0.015185 0.012706 0.007391 0.005040 0.003652 0.000000 0.000000 0.000000 0.000000 0.000000 0.000000 0.000000 0.000587 0.003657 0.001685 0.010039 0.020631 0.028604 0.038961 0.049733 0.060575 0.073324 0.084209 0.096807 0.102876 0.105516 0.100628 0.090424 0.078508 0.059093 0.041557 0.027176 0.015118 0.009270 0.003219 0.000000 0.000000 0.000000 0.000000 0.000803 0.002983 0.003643 0.013532 0.024730 0.040859 0.058302 0.080501 0.102823 0.126478 0.146839 0.168046 0.187323 0.198668 0.197374 0.187722 0.168325 0.142668 0.108725 0.080172 0.051309 0.031389 0.019059 0.006688 0.002400 0.000000 0.000000 0.000702 0.002832 0.003770 0.014066 0.033140 0.052787 0.082128 0.115424 0.154244 0.194170 0.232855 0.270512 0.304807 0.328028 0.338656 0.336397 0.319820 0.289618 0.251315 0.203309 0.154161 0.110655 0.076073 0.047970 0.020875 0.008622 0.001596 0.000000 0.000000 0.003455 0.010825 0.028777 0.062515 0.099121 0.142884 0.191586 0.242618 0.290294 0.334922 0.374002 0.403867 0.420096 0.425537 0.423106 0.412116 0.388175 0.351703 0.300728 0.241850 0.185790 0.136576 0.089004 0.042983 0.016226 0.001915 0.000000 0.000074 0.007664 0.022606 0.053378 0.094162 0.143715 0.200807 0.259114 0.314283 0.361773 0.397991 0.422801 0.435839 0.440034 0.440612 0.440552 0.439810 0.431088 0.407590 0.365436 0.307024 0.242983 0.180303 0.121626 0.067783 0.028254 0.006686 0.000869 0.006189 0.016092 0.039103 0.078744 0.129095 0.187699 0.249649 0.309734 0.361013 0.398971 0.421685 0.431154 0.433015 0.433234 0.431662 0.432621 0.434075 0.435054 0.426488 0.396776 0.345327 0.278890 0.207143 0.139636 0.082563 0.035388 0.006854 0.003664 0.011849 0.029511 0.060255 0.103662 0.156220 0.219043 0.284461 0.346278 0.392930 0.421151 0.433124 0.435362 0.436324 0.436021 0.434255 0.434364 0.435231 0.436629 0.432871 0.410860 0.363529 0.295656 0.215726 0.141511 0.083994 0.034742 0.006220 0.001534 0.014511 0.037650 0.070651 0.114580 0.169599 0.235628 0.305842 0.368191 0.409197 0.431265 0.436840 0.436471 0.432246 0.426752 0.425472 0.428257 0.433331 0.435668 0.431800 0.410434 0.365090 0.294082 0.209217 0.128875 0.070863 0.028421 0.007248 0.003420 0.017702 0.040334 0.071113 0.113726 0.169943 0.241561 0.315548 0.378665 0.416952 0.432725 0.434717 0.423460 0.408035 0.402408 0.411391 0.421225 0.430489 0.433322 0.428078 0.402617 0.353564 0.282691 0.197793 0.115025 0.056558 0.023602 0.006312 0.003784 0.014613 0.036261 0.062160 0.104366 0.166350 0.244784 0.324160 0.387727 0.422665 0.432341 0.427271 0.408079 0.392023 0.402084 0.417290 0.423467 0.431193 0.433008 0.423773 0.389006 0.334009 0.269910 0.192913 0.106086 0.038621 0.016512 0.003249 0.003013 0.010464 0.026713 0.050316 0.094509 0.165521 0.253872 0.337566 0.398895 0.427937 0.432224 0.424103 0.407271 0.404105 0.426792 0.434729 0.430243 0.435661 0.436565 0.417660 0.373415 0.319493 0.263395 0.196055 0.109845 0.032035 0.013327 0.003658 0.000592 0.007413 0.019169 0.039577 0.091998 0.174780 0.268879 0.350744 0.407267 0.430191 0.431720 0.423970 0.416867 0.426723 0.446174 0.437354 0.431371 0.439526 0.437395 0.411232 0.365162 0.316929 0.266026 0.204139 0.122384 0.037699 0.013326 0.004769 0.000000 0.004676 0.011638 0.034470 0.092704 0.188827 0.284116 0.360505 0.409983 0.429403 0.430137 0.424916 0.424097 0.437055 0.445790 0.429633 0.430613 0.440338 0.434970 0.408638 0.368615 0.324414 0.273312 0.210945 0.130312 0.046460 0.013526 0.001083 0.000129 0.004179 0.009552 0.036246 0.098767 0.204733 0.295758 0.362993 0.405256 0.424381 0.425750 0.424752 0.429542 0.441466 0.441683 0.428741 0.436574 0.441929 0.430592 0.408256 0.374727 0.333061 0.278836 0.209848 0.130339 0.054076 0.017971 0.004081 0.000739 0.002678 0.013711 0.040710 0.110901 0.219202 0.302736 0.359428 0.394790 0.411873 0.415572 0.419756 0.430996 0.442740 0.441852 0.436150 0.439950 0.436107 0.425458 0.407536 0.379366 0.334128 0.275587 0.203569 0.124956 0.057744 0.020197 0.006180 0.000000 0.003451 0.016600 0.051065 0.131479 0.232916 0.306058 0.353545 0.381981 0.397380 0.404059 0.412392 0.425682 0.434723 0.439052 0.438110 0.435431 0.430109 0.424464 0.409124 0.378730 0.329393 0.264995 0.192462 0.118540 0.061163 0.021869 0.003247 0.001456 0.003730 0.018887 0.063868 0.150424 0.246012 0.312348 0.353156 0.376484 0.392100 0.402497 0.410362 0.416336 0.427071 0.435484 0.435076 0.431743 0.432358 0.427228 0.409722 0.373033 0.318499 0.253265 0.180674 0.112890 0.059829 0.020498 0.004284 0.000000 0.003682 0.027055 0.076153 0.162626 0.254648 0.320698 0.362038 0.386246 0.402892 0.413406 0.420057 0.425194 0.432118 0.436592 0.435502 0.433514 0.435744 0.427848 0.401785 0.358180 0.298535 0.230638 0.161406 0.101031 0.052531 0.019530 0.002065 0.000000 0.004944 0.030198 0.080808 0.160050 0.247286 0.321626 0.371902 0.401290 0.418612 0.428175 0.432977 0.435695 0.437530 0.436611 0.435978 0.436039 0.433543 0.418013 0.382601 0.328419 0.263885 0.197134 0.136271 0.087928 0.042888 0.015946 0.000943 0.000592 0.004691 0.028010 0.070356 0.137427 0.221839 0.302614 0.365844 0.405696 0.427184 0.436072 0.437139 0.435728 0.432758 0.433433 0.434984 0.433343 0.421391 0.391872 0.341638 0.280068 0.214975 0.157188 0.108893 0.069506 0.034584 0.011372 0.000721 0.000573 0.000226 0.019914 0.052951 0.102760 0.174778 0.254898 0.328747 0.384914 0.420081 0.437371 0.442184 0.441089 0.439967 0.440065 0.436419 0.420161 0.389456 0.340750 0.280622 0.217653 0.161542 0.116071 0.079332 0.046742 0.020205 0.006164 0.001331 0.000000 0.000000 0.009776 0.031389 0.066693 0.115294 0.179970 0.253811 0.322330 0.375687 0.411137 0.428337 0.433584 0.432342 0.422892 0.403073 0.368396 0.321011 0.264443 0.207296 0.155469 0.112609 0.078901 0.051355 0.027508 0.012129 0.002454 0.000000 0.000000 0.000000 0.004397 0.016147 0.037183 0.065945 0.106674 0.160614 0.217740 0.273633 0.318375 0.347517 0.358226 0.355449 0.338401 0.307522 0.271756 0.232092 0.186593 0.145626 0.106374 0.076072 0.051936 0.031514 0.014631 0.007592 0.001842 0.000000 0.000000 0.000000 0.000296 0.004640 0.017723 0.033822 0.061923 0.095844 0.136001 0.172049 0.204397 0.223432 0.232305 0.229091 0.216523 0.196037 0.176500 0.153511 0.126639 0.097635 0.070186 0.048303 0.031465 0.018230 0.006817 0.001608 0.001923 0.000000 0.000000 0.000000 0.000000 0.000000 0.008215 0.018378 0.038235 0.058929 0.082678 0.101656 0.122079 0.136198 0.139412 0.136333 0.129512 0.114367 0.101357 0.088339 0.072509 0.055381 0.040375 0.025604 0.014288 0.005119 0.000000 0.001091 0.000000 0.000000 0.000000 0.000000 0.000000 0.000000 0.001738 0.005752 0.010700 0.015166 0.016312 0.025017 0.031326 0.036568 0.040099 0.042779 0.045534 0.040778 0.036345 0.032061 0.023998 0.015060 0.008065 0.003938 0.006630 0.001569 0.000000 0.000000 0.000000 0.000000 
scale_new_min_in=0.000000 0.000000 0.000000 0.000000 0.000000 0.000000 0.000000 0.000000 0.000000 0.000000 0.000000 0.000000 0.000000 0.000000 0.000000 0.000000 0.000000 0.000000 0.000000 0.000000 0.000000 0.000000 0.000000 0.000000 0.000000 0.000000 0.000000 0.000000 0.000000 0.000000 0.000000 0.000000 0.000000 0.000000 0.000000 0.000000 0.000000 0.000000 0.000000 0.000000 0.000000 0.000000 0.000000 0.000000 0.000000 0.000000 0.000000 0.000000 0.000000 0.000000 0.000000 0.000000 0.000000 0.000000 0.000000 0.000000 0.000000 0.000000 0.000000 0.000000 0.000000 0.000000 0.000000 0.000000 0.000000 0.000000 0.000000 0.000000 0.000000 0.000000 0.000000 0.000000 0.000000 0.000000 0.000000 0.000000 0.000000 0.000000 0.000000 0.000000 0.000000 0.000000 0.000000 0.000000 0.000000 0.000000 0.000000 0.000000 0.000000 0.000000 0.000000 0.000000 0.000000 0.000000 0.000000 0.000000 0.000000 0.000000 0.000000 0.000000 0.000000 0.000000 0.000000 0.000000 0.000000 0.000000 0.000000 0.000000 0.000000 0.000000 0.000000 0.000000 0.000000 0.000000 0.000000 0.000000 0.000000 0.000000 0.000000 0.000000 0.000000 0.000000 0.000000 0.000000 0.000000 0.000000 0.000000 0.000000 0.000000 0.000000 0.000000 0.000000 0.000000 0.000000 0.000000 0.000000 0.000000 0.000000 0.000000 0.000000 0.000000 0.000000 0.000000 0.000000 0.000000 0.000000 0.000000 0.000000 0.000000 0.000000 0.000000 0.000000 0.000000 0.000000 0.000000 0.000000 0.000000 0.000000 0.000000 0.000000 0.000000 0.000000 0.000000 0.000000 0.000000 0.000000 0.000000 0.000000 0.000000 0.000000 0.000000 0.000000 0.000000 0.000000 0.000000 0.000000 0.000000 0.000000 0.000000 0.000000 0.000000 0.000000 0.000000 0.000000 0.000000 0.000000 0.000000 0.000000 0.000000 0.000000 0.000000 0.000000 0.000000 0.000000 0.000000 0.000000 0.000000 0.000000 0.000000 0.000000 0.000000 0.000000 0.000000 0.000000 0.000000 0.000000 0.000000 0.000000 0.000000 0.000000 0.000000 0.000000 0.000000 0.000000 0.000000 0.000000 0.000000 0.000000 0.000000 0.000000 0.000000 0.000000 0.000000 0.000000 0.000000 0.000000 0.000000 0.000000 0.000000 0.000000 0.000000 0.000000 0.000000 0.000000 0.000000 0.000000 0.000000 0.000000 0.000000 0.000000 0.000000 0.000000 0.000000 0.000000 0.000000 0.000000 0.000000 0.000000 0.000000 0.000000 0.000000 0.000000 0.000000 0.000000 0.000000 0.000000 0.000000 0.000000 0.000000 0.000000 0.000000 0.000000 0.000000 0.000000 0.000000 0.000000 0.000000 0.000000 0.000000 0.000000 0.000000 0.000000 0.000000 0.000000 0.000000 0.000000 0.000000 0.000000 0.000000 0.000000 0.000000 0.000000 0.000000 0.000000 0.000000 0.000000 0.000000 0.000000 0.000000 0.000000 0.000000 0.000000 0.000000 0.000000 0.000000 0.000000 0.000000 0.000000 0.000000 0.000000 0.000000 0.000000 0.000000 0.000000 0.000000 0.000000 0.000000 0.000000 0.000000 0.000000 0.000000 0.000000 0.000000 0.000000 0.000000 0.000000 0.000000 0.000000 0.000000 0.000000 0.000000 0.000000 0.000000 0.000000 0.000000 0.000000 0.000000 0.000000 0.000000 0.000000 0.000000 0.000000 0.000000 0.000000 0.000000 0.000000 0.000000 0.000000 0.000000 0.000000 0.000000 0.000000 0.000000 0.000000 0.000000 0.000000 0.000000 0.000000 0.000000 0.000000 0.000000 0.000000 0.000000 0.000000 0.000000 0.000000 0.000000 0.000000 0.000000 0.000000 0.000000 0.000000 0.000000 0.000000 0.000000 0.000000 0.000000 0.000000 0.000000 0.000000 0.000000 0.000000 0.000000 0.000000 0.000000 0.000000 0.000000 0.000000 0.000000 0.000000 0.000000 0.000000 0.000000 0.000000 0.000000 0.000000 0.000000 0.000000 0.000000 0.000000 0.000000 0.000000 0.000000 0.000000 0.000000 0.000000 0.000000 0.000000 0.000000 0.000000 0.000000 0.000000 0.000000 0.000000 0.000000 0.000000 0.000000 0.000000 0.000000 0.000000 0.000000 0.000000 0.000000 0.000000 0.000000 0.000000 0.000000 0.000000 0.000000 0.000000 0.000000 0.000000 0.000000 0.000000 0.000000 0.000000 0.000000 0.000000 0.000000 0.000000 0.000000 0.000000 0.000000 0.000000 0.000000 0.000000 0.000000 0.000000 0.000000 0.000000 0.000000 0.000000 0.000000 0.000000 0.000000 0.000000 0.000000 0.000000 0.000000 0.000000 0.000000 0.000000 0.000000 0.000000 0.000000 0.000000 0.000000 0.000000 0.000000 0.000000 0.000000 0.000000 0.000000 0.000000 0.000000 0.000000 0.000000 0.000000 0.000000 0.000000 0.000000 0.000000 0.000000 0.000000 0.000000 0.000000 0.000000 0.000000 0.000000 0.000000 0.000000 0.000000 0.000000 0.000000 0.000000 0.000000 0.000000 0.000000 0.000000 0.000000 0.000000 0.000000 0.000000 0.000000 0.000000 0.000000 0.000000 0.000000 0.000000 0.000000 0.000000 0.000000 0.000000 0.000000 0.000000 0.000000 0.000000 0.000000 0.000000 0.000000 0.000000 0.000000 0.000000 0.000000 0.000000 0.000000 0.000000 0.000000 0.000000 0.000000 0.000000 0.000000 0.000000 0.000000 0.000000 0.000000 0.000000 0.000000 0.000000 0.000000 0.000000 0.000000 0.000000 0.000000 0.000000 0.000000 0.000000 0.000000 0.000000 0.000000 0.000000 0.000000 0.000000 0.000000 0.000000 0.000000 0.000000 0.000000 0.000000 0.000000 0.000000 0.000000 0.000000 0.000000 0.000000 0.000000 0.000000 0.000000 0.000000 0.000000 0.000000 0.000000 0.000000 0.000000 0.000000 0.000000 0.000000 0.000000 0.000000 0.000000 0.000000 0.000000 0.000000 0.000000 0.000000 0.000000 0.000000 0.000000 0.000000 0.000000 0.000000 0.000000 0.000000 0.000000 0.000000 0.000000 0.000000 0.000000 0.000000 0.000000 0.000000 0.000000 0.000000 0.000000 0.000000 0.000000 0.000000 0.000000 0.000000 0.000000 0.000000 0.000000 0.000000 0.000000 0.000000 0.000000 0.000000 0.000000 0.000000 0.000000 0.000000 0.000000 0.000000 0.000000 0.000000 0.000000 0.000000 0.000000 0.000000 0.000000 0.000000 0.000000 0.000000 0.000000 0.000000 0.000000 0.000000 0.000000 0.000000 0.000000 0.000000 0.000000 0.000000 0.000000 0.000000 0.000000 0.000000 0.000000 0.000000 0.000000 0.000000 0.000000 0.000000 0.000000 0.000000 0.000000 0.000000 0.000000 0.000000 0.000000 0.000000 0.000000 0.000000 0.000000 0.000000 0.000000 0.000000 0.000000 0.000000 0.000000 0.000000 0.000000 0.000000 0.000000 0.000000 0.000000 0.000000 0.000000 0.000000 0.000000 0.000000 0.000000 0.000000 0.000000 0.000000 0.000000 0.000000 0.000000 0.000000 0.000000 0.000000 0.000000 0.000000 0.000000 0.000000 0.000000 0.000000 0.000000 0.000000 0.000000 0.000000 0.000000 0.000000 0.000000 0.000000 0.000000 0.000000 0.000000 0.000000 0.000000 0.000000 0.000000 0.000000 0.000000 0.000000 0.000000 0.000000 0.000000 0.000000 0.000000 0.000000 0.000000 0.000000 0.000000 0.000000 0.000000 0.000000 0.000000 0.000000 0.000000 0.000000 0.000000 0.000000 0.000000 0.000000 0.000000 0.000000 0.000000 0.000000 0.000000 0.000000 0.000000 0.000000 0.000000 0.000000 0.000000 0.000000 0.000000 0.000000 0.000000 0.000000 0.000000 0.000000 0.000000 0.000000 0.000000 0.000000 0.000000 0.000000 0.000000 0.000000 0.000000 0.000000 0.000000 0.000000 0.000000 0.000000 0.000000 0.000000 0.000000 0.000000 0.000000 0.000000 0.000000 0.000000 0.000000 0.000000 0.000000 0.000000 0.000000 0.000000 0.000000 0.000000 0.000000 0.000000 0.000000 0.000000 0.000000 0.000000 0.000000 0.000000 0.000000 0.000000 0.000000 
scale_factor_in=0.500000 0.500000 0.500000 0.500000 0.500000 0.500000 0.500000 0.500000 0.500000 0.500000 0.500000 0.500000 0.500000 0.500000 0.500000 0.500000 0.500000 0.500000 0.500000 0.500000 0.500000 0.500000 0.500000 0.500000 0.500000 0.500000 0.500000 0.500000 0.500000 0.500000 0.500000 0.500000 0.500000 0.500000 0.500000 0.500000 0.500000 0.500000 0.500000 0.500000 0.500000 0.500000 0.500000 0.500000 0.500000 0.500000 0.500000 0.500000 0.500000 0.500000 0.500000 0.500000 0.500000 0.500000 0.500000 0.500000 0.500000 0.500000 0.500000 0.500000 0.500000 0.500000 0.500000 0.500000 0.500000 0.500000 0.500000 0.500000 0.500000 0.500000 0.500000 0.500000 0.500000 0.500000 0.500000 0.500000 0.500000 0.500000 0.500000 0.500000 0.500000 0.500000 0.500000 0.500000 0.500000 0.500000 0.500000 0.500000 0.500000 0.500000 0.500000 0.500000 0.500000 0.500000 0.500000 0.500000 0.500000 0.500000 0.500000 0.500000 0.500000 0.500000 0.500000 0.500000 0.500000 0.500000 0.500000 0.500000 0.500000 0.500000 0.500000 0.500000 0.500000 0.500000 0.500000 0.500000 0.500000 0.500000 0.500000 0.500000 0.500000 0.500000 0.500000 0.500000 0.500000 0.500000 0.500000 0.500000 0.500000 0.500000 0.500000 0.500000 0.500000 0.500000 0.500000 0.500000 0.500000 0.500000 0.500000 0.500000 0.500000 0.500000 0.500000 0.500000 0.500000 0.500000 0.500000 0.500000 0.500000 0.500000 0.500000 0.500000 0.500000 0.500000 0.500000 0.500000 0.500000 0.500000 0.500000 0.500000 0.500000 0.500000 0.500000 0.500000 0.500000 0.500000 0.500000 0.500000 0.500000 0.500000 0.500000 0.500000 0.500000 0.500000 0.500000 0.500000 0.500000 0.500000 0.500000 0.500000 0.500000 0.500000 0.500000 0.500000 0.500000 0.500000 0.500000 0.500000 0.500000 0.500000 0.500000 0.500000 0.500000 0.500000 0.500000 0.500000 0.500000 0.500000 0.500000 0.500000 0.500000 0.500000 0.500000 0.500000 0.500000 0.500000 0.500000 0.500000 0.500000 0.500000 0.500000 0.500000 0.500000 0.500000 0.500000 0.500000 0.500000 0.500000 0.500000 0.500000 0.500000 0.500000 0.500000 0.500000 0.500000 0.500000 0.500000 0.500000 0.500000 0.500000 0.500000 0.500000 0.500000 0.500000 0.500000 0.500000 0.500000 0.500000 0.500000 0.500000 0.500000 0.500000 0.500000 0.500000 0.500000 0.500000 0.500000 0.500000 0.500000 0.500000 0.500000 0.500000 0.500000 0.500000 0.500000 0.500000 0.500000 0.500000 0.500000 0.500000 0.500000 0.500000 0.500000 0.500000 0.500000 0.500000 0.500000 0.500000 0.500000 0.500000 0.500000 0.500000 0.500000 0.500000 0.500000 0.500000 0.500000 0.500000 0.500000 0.500000 0.500000 0.500000 0.500000 0.500000 0.500000 0.500000 0.500000 0.500000 0.500000 0.500000 0.500000 0.500000 0.500000 0.500000 0.500000 0.500000 0.500000 0.500000 0.500000 0.500000 0.500000 0.500000 0.500000 0.500000 0.500000 0.500000 0.500000 0.500000 0.500000 0.500000 0.500000 0.500000 0.500000 0.500000 0.500000 0.500000 0.500000 0.500000 0.500000 0.500000 0.500000 0.500000 0.500000 0.500000 0.500000 0.500000 0.500000 0.500000 0.500000 0.500000 0.500000 0.500000 0.500000 0.500000 0.500000 0.500000 0.500000 0.500000 0.500000 0.500000 0.500000 0.500000 0.500000 0.500000 0.500000 0.500000 0.500000 0.500000 0.500000 0.500000 0.500000 0.500000 0.500000 0.500000 0.500000 0.500000 0.500000 0.500000 0.500000 0.500000 0.500000 0.500000 0.500000 0.500000 0.500000 0.500000 0.500000 0.500000 0.500000 0.500000 0.500000 0.500000 0.500000 0.500000 0.500000 0.500000 0.500000 0.500000 0.500000 0.500000 0.500000 0.500000 0.500000 0.500000 0.500000 0.500000 0.500000 0.500000 0.500000 0.500000 0.500000 0.500000 0.500000 0.500000 0.500000 0.500000 0.500000 0.500000 0.500000 0.500000 0.500000 0.500000 0.500000 0.500000 0.500000 0.500000 0.500000 0.500000 0.500000 0.500000 0.500000 0.500000 0.500000 0.500000 0.500000 0.500000 0.500000 0.500000 0.500000 0.500000 0.500000 0.500000 0.500000 0.500000 0.500000 0.500000 0.500000 0.500000 0.500000 0.500000 0.500000 0.500000 0.500000 0.500000 0.500000 0.500000 0.500000 0.500000 0.500000 0.500000 0.500000 0.500000 0.500000 0.500000 0.500000 0.500000 0.500000 0.500000 0.500000 0.500000 0.500000 0.500000 0.500000 0.500000 0.500000 0.500000 0.500000 0.500000 0.500000 0.500000 0.500000 0.500000 0.500000 0.500000 0.500000 0.500000 0.500000 0.500000 0.500000 0.500000 0.500000 0.500000 0.500000 0.500000 0.500000 0.500000 0.500000 0.500000 0.500000 0.500000 0.500000 0.500000 0.500000 0.500000 0.500000 0.500000 0.500000 0.500000 0.500000 0.500000 0.500000 0.500000 0.500000 0.500000 0.500000 0.500000 0.500000 0.500000 0.500000 0.500000 0.500000 0.500000 0.500000 0.500000 0.500000 0.500000 0.500000 0.500000 0.500000 0.500000 0.500000 0.500000 0.500000 0.500000 0.500000 0.500000 0.500000 0.500000 0.500000 0.500000 0.500000 0.500000 0.500000 0.500000 0.500000 0.500000 0.500000 0.500000 0.500000 0.500000 0.500000 0.500000 0.500000 0.500000 0.500000 0.500000 0.500000 0.500000 0.500000 0.500000 0.500000 0.500000 0.500000 0.500000 0.500000 0.500000 0.500000 0.500000 0.500000 0.500000 0.500000 0.500000 0.500000 0.500000 0.500000 0.500000 0.500000 0.500000 0.500000 0.500000 0.500000 0.500000 0.500000 0.500000 0.500000 0.500000 0.500000 0.500000 0.500000 0.500000 0.500000 0.500000 0.500000 0.500000 0.500000 0.500000 0.500000 0.500000 0.500000 0.500000 0.500000 0.500000 0.500000 0.500000 0.500000 0.500000 0.500000 0.500000 0.500000 0.500000 0.500000 0.500000 0.500000 0.500000 0.500000 0.500000 0.500000 0.500000 0.500000 0.500000 0.500000 0.500000 0.500000 0.500000 0.500000 0.500000 0.500000 0.500000 0.500000 0.500000 0.500000 0.500000 0.500000 0.500000 0.500000 0.500000 0.500000 0.500000 0.500000 0.500000 0.500000 0.500000 0.500000 0.500000 0.500000 0.500000 0.500000 0.500000 0.500000 0.500000 0.500000 0.500000 0.500000 0.500000 0.500000 0.500000 0.500000 0.500000 0.500000 0.500000 0.500000 0.500000 0.500000 0.500000 0.500000 0.500000 0.500000 0.500000 0.500000 0.500000 0.500000 0.500000 0.500000 0.500000 0.500000 0.500000 0.500000 0.500000 0.500000 0.500000 0.500000 0.500000 0.500000 0.500000 0.500000 0.500000 0.500000 0.500000 0.500000 0.500000 0.500000 0.500000 0.500000 0.500000 0.500000 0.500000 0.500000 0.500000 0.500000 0.500000 0.500000 0.500000 0.500000 0.500000 0.500000 0.500000 0.500000 0.500000 0.500000 0.500000 0.500000 0.500000 0.500000 0.500000 0.500000 0.500000 0.500000 0.500000 0.500000 0.500000 0.500000 0.500000 0.500000 0.500000 0.500000 0.500000 0.500000 0.500000 0.500000 0.500000 0.500000 0.500000 0.500000 0.500000 0.500000 0.500000 0.500000 0.500000 0.500000 0.500000 0.500000 0.500000 0.500000 0.500000 0.500000 0.500000 0.500000 0.500000 0.500000 0.500000 0.500000 0.500000 0.500000 0.500000 0.500000 0.500000 0.500000 0.500000 0.500000 0.500000 0.500000 0.500000 0.500000 0.500000 0.500000 0.500000 0.500000 0.500000 0.500000 0.500000 0.500000 0.500000 0.500000 0.500000 0.500000 0.500000 0.500000 0.500000 0.500000 0.500000 0.500000 0.500000 0.500000 0.500000 0.500000 0.500000 0.500000 0.500000 0.500000 0.500000 0.500000 0.500000 0.500000 0.500000 0.500000 0.500000 0.500000 0.500000 0.500000 0.500000 0.500000 0.500000 0.500000 0.500000 
scale_mean_out=0.100378 0.111600 0.098378 0.101133 0.098178 0.090422 0.097333 0.105244 0.097978 0.099356 
scale_deviation_out=0.300474 0.314901 0.297883 0.301532 0.297467 0.286709 0.296454 0.306816 0.297245 0.299077 
scale_new_min_out=0.000000 0.000000 0.000000 0.000000 0.000000 0.000000 0.000000 0.000000 0.000000 0.000000 
scale_factor_out=0.500000 0.500000 0.500000 0.500000 0.500000 0.500000 0.500000 0.500000 0.500000 0.500000 
neurons (num_inputs, activation_function, activation_steepness)=(0, 0, 0.00000000000000000000e+000) (0, 0, 0.00000000000000000000e+000) (0, 0, 0.00000000000000000000e+000) (0, 0, 0.00000000000000000000e+000) (0, 0, 0.00000000000000000000e+000) (0, 0, 0.00000000000000000000e+000) (0, 0, 0.00000000000000000000e+000) (0, 0, 0.00000000000000000000e+000) (0, 0, 0.00000000000000000000e+000) (0, 0, 0.00000000000000000000e+000) (0, 0, 0.00000000000000000000e+000) (0, 0, 0.00000000000000000000e+000) (0, 0, 0.00000000000000000000e+000) (0, 0, 0.00000000000000000000e+000) (0, 0, 0.00000000000000000000e+000) (0, 0, 0.00000000000000000000e+000) (0, 0, 0.00000000000000000000e+000) (0, 0, 0.00000000000000000000e+000) (0, 0, 0.00000000000000000000e+000) (0, 0, 0.00000000000000000000e+000) (0, 0, 0.00000000000000000000e+000) (0, 0, 0.00000000000000000000e+000) (0, 0, 0.00000000000000000000e+000) (0, 0, 0.00000000000000000000e+000) (0, 0, 0.00000000000000000000e+000) (0, 0, 0.00000000000000000000e+000) (0, 0, 0.00000000000000000000e+000) (0, 0, 0.00000000000000000000e+000) (0, 0, 0.00000000000000000000e+000) (0, 0, 0.00000000000000000000e+000) (0, 0, 0.00000000000000000000e+000) (0, 0, 0.00000000000000000000e+000) (0, 0, 0.00000000000000000000e+000) (0, 0, 0.00000000000000000000e+000) (0, 0, 0.00000000000000000000e+000) (0, 0, 0.00000000000000000000e+000) (0, 0, 0.00000000000000000000e+000) (0, 0, 0.00000000000000000000e+000) (0, 0, 0.00000000000000000000e+000) (0, 0, 0.00000000000000000000e+000) (0, 0, 0.00000000000000000000e+000) (0, 0, 0.00000000000000000000e+000) (0, 0, 0.00000000000000000000e+000) (0, 0, 0.00000000000000000000e+000) (0, 0, 0.00000000000000000000e+000) (0, 0, 0.00000000000000000000e+000) (0, 0, 0.00000000000000000000e+000) (0, 0, 0.00000000000000000000e+000) (0, 0, 0.00000000000000000000e+000) (0, 0, 0.00000000000000000000e+000) (0, 0, 0.00000000000000000000e+000) (0, 0, 0.00000000000000000000e+000) (0, 0, 0.00000000000000000000e+000) (0, 0, 0.00000000000000000000e+000) (0, 0, 0.00000000000000000000e+000) (0, 0, 0.00000000000000000000e+000) (0, 0, 0.00000000000000000000e+000) (0, 0, 0.00000000000000000000e+000) (0, 0, 0.00000000000000000000e+000) (0, 0, 0.00000000000000000000e+000) (0, 0, 0.00000000000000000000e+000) (0, 0, 0.00000000000000000000e+000) (0, 0, 0.00000000000000000000e+000) (0, 0, 0.00000000000000000000e+000) (0, 0, 0.00000000000000000000e+000) (0, 0, 0.00000000000000000000e+000) (0, 0, 0.00000000000000000000e+000) (0, 0, 0.00000000000000000000e+000) (0, 0, 0.00000000000000000000e+000) (0, 0, 0.00000000000000000000e+000) (0, 0, 0.00000000000000000000e+000) (0, 0, 0.00000000000000000000e+000) (0, 0, 0.00000000000000000000e+000) (0, 0, 0.00000000000000000000e+000) (0, 0, 0.00000000000000000000e+000) (0, 0, 0.00000000000000000000e+000) (0, 0, 0.00000000000000000000e+000) (0, 0, 0.00000000000000000000e+000) (0, 0, 0.00000000000000000000e+000) (0, 0, 0.00000000000000000000e+000) (0, 0, 0.00000000000000000000e+000) (0, 0, 0.00000000000000000000e+000) (0, 0, 0.00000000000000000000e+000) (0, 0, 0.00000000000000000000e+000) (0, 0, 0.00000000000000000000e+000) (0, 0, 0.00000000000000000000e+000) (0, 0, 0.00000000000000000000e+000) (0, 0, 0.00000000000000000000e+000) (0, 0, 0.00000000000000000000e+000) (0, 0, 0.00000000000000000000e+000) (0, 0, 0.00000000000000000000e+000) (0, 0, 0.00000000000000000000e+000) (0, 0, 0.00000000000000000000e+000) (0, 0, 0.00000000000000000000e+000) (0, 0, 0.00000000000000000000e+000) (0, 0, 0.00000000000000000000e+000) (0, 0, 0.00000000000000000000e+000) (0, 0, 0.00000000000000000000e+000) (0, 0, 0.00000000000000000000e+000) (0, 0, 0.00000000000000000000e+000) (0, 0, 0.00000000000000000000e+000) (0, 0, 0.00000000000000000000e+000) (0, 0, 0.00000000000000000000e+000) (0, 0, 0.00000000000000000000e+000) (0, 0, 0.00000000000000000000e+000) (0, 0, 0.00000000000000000000e+000) (0, 0, 0.00000000000000000000e+000) (0, 0, 0.00000000000000000000e+000) (0, 0, 0.00000000000000000000e+000) (0, 0, 0.00000000000000000000e+000) (0, 0, 0.00000000000000000000e+000) (0, 0, 0.00000000000000000000e+000) (0, 0, 0.00000000000000000000e+000) (0, 0, 0.00000000000000000000e+000) (0, 0, 0.00000000000000000000e+000) (0, 0, 0.00000000000000000000e+000) (0, 0, 0.00000000000000000000e+000) (0, 0, 0.00000000000000000000e+000) (0, 0, 0.00000000000000000000e+000) (0, 0, 0.00000000000000000000e+000) (0, 0, 0.00000000000000000000e+000) (0, 0, 0.00000000000000000000e+000) (0, 0, 0.00000000000000000000e+000) (0, 0, 0.00000000000000000000e+000) (0, 0, 0.00000000000000000000e+000) (0, 0, 0.00000000000000000000e+000) (0, 0, 0.00000000000000000000e+000) (0, 0, 0.00000000000000000000e+000) (0, 0, 0.00000000000000000000e+000) (0, 0, 0.00000000000000000000e+000) (0, 0, 0.00000000000000000000e+000) (0, 0, 0.00000000000000000000e+000) (0, 0, 0.00000000000000000000e+000) (0, 0, 0.00000000000000000000e+000) (0, 0, 0.00000000000000000000e+000) (0, 0, 0.00000000000000000000e+000) (0, 0, 0.00000000000000000000e+000) (0, 0, 0.00000000000000000000e+000) (0, 0, 0.00000000000000000000e+000) (0, 0, 0.00000000000000000000e+000) (0, 0, 0.00000000000000000000e+000) (0, 0, 0.00000000000000000000e+000) (0, 0, 0.00000000000000000000e+000) (0, 0, 0.00000000000000000000e+000) (0, 0, 0.00000000000000000000e+000) (0, 0, 0.00000000000000000000e+000) (0, 0, 0.00000000000000000000e+000) (0, 0, 0.00000000000000000000e+000) (0, 0, 0.00000000000000000000e+000) (0, 0, 0.00000000000000000000e+000) (0, 0, 0.00000000000000000000e+000) (0, 0, 0.00000000000000000000e+000) (0, 0, 0.00000000000000000000e+000) (0, 0, 0.00000000000000000000e+000) (0, 0, 0.00000000000000000000e+000) (0, 0, 0.00000000000000000000e+000) (0, 0, 0.00000000000000000000e+000) (0, 0, 0.00000000000000000000e+000) (0, 0, 0.00000000000000000000e+000) (0, 0, 0.00000000000000000000e+000) (0, 0, 0.00000000000000000000e+000) (0, 0, 0.00000000000000000000e+000) (0, 0, 0.00000000000000000000e+000) (0, 0, 0.00000000000000000000e+000) (0, 0, 0.00000000000000000000e+000) (0, 0, 0.00000000000000000000e+000) (0, 0, 0.00000000000000000000e+000) (0, 0, 0.00000000000000000000e+000) (0, 0, 0.00000000000000000000e+000) (0, 0, 0.00000000000000000000e+000) (0, 0, 0.00000000000000000000e+000) (0, 0, 0.00000000000000000000e+000) (0, 0, 0.00000000000000000000e+000) (0, 0, 0.00000000000000000000e+000) (0, 0, 0.00000000000000000000e+000) (0, 0, 0.00000000000000000000e+000) (0, 0, 0.00000000000000000000e+000) (0, 0, 0.00000000000000000000e+000) (0, 0, 0.00000000000000000000e+000) (0, 0, 0.00000000000000000000e+000) (0, 0, 0.00000000000000000000e+000) (0, 0, 0.00000000000000000000e+000) (0, 0, 0.00000000000000000000e+000) (0, 0, 0.00000000000000000000e+000) (0, 0, 0.00000000000000000000e+000) (0, 0, 0.00000000000000000000e+000) (0, 0, 0.00000000000000000000e+000) (0, 0, 0.00000000000000000000e+000) (0, 0, 0.00000000000000000000e+000) (0, 0, 0.00000000000000000000e+000) (0, 0, 0.00000000000000000000e+000) (0, 0, 0.00000000000000000000e+000) (0, 0, 0.00000000000000000000e+000) (0, 0, 0.00000000000000000000e+000) (0, 0, 0.00000000000000000000e+000) (0, 0, 0.00000000000000000000e+000) (0, 0, 0.00000000000000000000e+000) (0, 0, 0.00000000000000000000e+000) (0, 0, 0.00000000000000000000e+000) (0, 0, 0.00000000000000000000e+000) (0, 0, 0.00000000000000000000e+000) (0, 0, 0.00000000000000000000e+000) (0, 0, 0.00000000000000000000e+000) (0, 0, 0.00000000000000000000e+000) (0, 0, 0.00000000000000000000e+000) (0, 0, 0.00000000000000000000e+000) (0, 0, 0.00000000000000000000e+000) (0, 0, 0.00000000000000000000e+000) (0, 0, 0.00000000000000000000e+000) (0, 0, 0.00000000000000000000e+000) (0, 0, 0.00000000000000000000e+000) (0, 0, 0.00000000000000000000e+000) (0, 0, 0.00000000000000000000e+000) (0, 0, 0.00000000000000000000e+000) (0, 0, 0.00000000000000000000e+000) (0, 0, 0.00000000000000000000e+000) (0, 0, 0.00000000000000000000e+000) (0, 0, 0.00000000000000000000e+000) (0, 0, 0.00000000000000000000e+000) (0, 0, 0.00000000000000000000e+000) (0, 0, 0.00000000000000000000e+000) (0, 0, 0.00000000000000000000e+000) (0, 0, 0.00000000000000000000e+000) (0, 0, 0.00000000000000000000e+000) (0, 0, 0.00000000000000000000e+000) (0, 0, 0.00000000000000000000e+000) (0, 0, 0.00000000000000000000e+000) (0, 0, 0.00000000000000000000e+000) (0, 0, 0.00000000000000000000e+000) (0, 0, 0.00000000000000000000e+000) (0, 0, 0.00000000000000000000e+000) (0, 0, 0.00000000000000000000e+000) (0, 0, 0.00000000000000000000e+000) (0, 0, 0.00000000000000000000e+000) (0, 0, 0.00000000000000000000e+000) (0, 0, 0.00000000000000000000e+000) (0, 0, 0.00000000000000000000e+000) (0, 0, 0.00000000000000000000e+000) (0, 0, 0.00000000000000000000e+000) (0, 0, 0.00000000000000000000e+000) (0, 0, 0.00000000000000000000e+000) (0, 0, 0.00000000000000000000e+000) (0, 0, 0.00000000000000000000e+000) (0, 0, 0.00000000000000000000e+000) (0, 0, 0.00000000000000000000e+000) (0, 0, 0.00000000000000000000e+000) (0, 0, 0.00000000000000000000e+000) (0, 0, 0.00000000000000000000e+000) (0, 0, 0.00000000000000000000e+000) (0, 0, 0.00000000000000000000e+000) (0, 0, 0.00000000000000000000e+000) (0, 0, 0.00000000000000000000e+000) (0, 0, 0.00000000000000000000e+000) (0, 0, 0.00000000000000000000e+000) (0, 0, 0.00000000000000000000e+000) (0, 0, 0.00000000000000000000e+000) (0, 0, 0.00000000000000000000e+000) (0, 0, 0.00000000000000000000e+000) (0, 0, 0.00000000000000000000e+000) (0, 0, 0.00000000000000000000e+000) (0, 0, 0.00000000000000000000e+000) (0, 0, 0.00000000000000000000e+000) (0, 0, 0.00000000000000000000e+000) (0, 0, 0.00000000000000000000e+000) (0, 0, 0.00000000000000000000e+000) (0, 0, 0.00000000000000000000e+000) (0, 0, 0.00000000000000000000e+000) (0, 0, 0.00000000000000000000e+000) (0, 0, 0.00000000000000000000e+000) (0, 0, 0.00000000000000000000e+000) (0, 0, 0.00000000000000000000e+000) (0, 0, 0.00000000000000000000e+000) (0, 0, 0.00000000000000000000e+000) (0, 0, 0.00000000000000000000e+000) (0, 0, 0.00000000000000000000e+000) (0, 0, 0.00000000000000000000e+000) (0, 0, 0.00000000000000000000e+000) (0, 0, 0.00000000000000000000e+000) (0, 0, 0.00000000000000000000e+000) (0, 0, 0.00000000000000000000e+000) (0, 0, 0.00000000000000000000e+000) (0, 0, 0.00000000000000000000e+000) (0, 0, 0.00000000000000000000e+000) (0, 0, 0.00000000000000000000e+000) (0, 0, 0.00000000000000000000e+000) (0, 0, 0.00000000000000000000e+000) (0, 0, 0.00000000000000000000e+000) (0, 0, 0.00000000000000000000e+000) (0, 0, 0.00000000000000000000e+000) (0, 0, 0.00000000000000000000e+000) (0, 0, 0.00000000000000000000e+000) (0, 0, 0.00000000000000000000e+000) (0, 0, 0.00000000000000000000e+000) (0, 0, 0.00000000000000000000e+000) (0, 0, 0.00000000000000000000e+000) (0, 0, 0.00000000000000000000e+000) (0, 0, 0.00000000000000000000e+000) (0, 0, 0.00000000000000000000e+000) (0, 0, 0.00000000000000000000e+000) (0, 0, 0.00000000000000000000e+000) (0, 0, 0.00000000000000000000e+000) (0, 0, 0.00000000000000000000e+000) (0, 0, 0.00000000000000000000e+000) (0, 0, 0.00000000000000000000e+000) (0, 0, 0.00000000000000000000e+000) (0, 0, 0.00000000000000000000e+000) (0, 0, 0.00000000000000000000e+000) (0, 0, 0.00000000000000000000e+000) (0, 0, 0.00000000000000000000e+000) (0, 0, 0.00000000000000000000e+000) (0, 0, 0.00000000000000000000e+000) (0, 0, 0.00000000000000000000e+000) (0, 0, 0.00000000000000000000e+000) (0, 0, 0.00000000000000000000e+000) (0, 0, 0.00000000000000000000e+000) (0, 0, 0.00000000000000000000e+000) (0, 0, 0.00000000000000000000e+000) (0, 0, 0.00000000000000000000e+000) (0, 0, 0.00000000000000000000e+000) (0, 0, 0.00000000000000000000e+000) (0, 0, 0.00000000000000000000e+000) (0, 0, 0.00000000000000000000e+000) (0, 0, 0.00000000000000000000e+000) (0, 0, 0.00000000000000000000e+000) (0, 0, 0.00000000000000000000e+000) (0, 0, 0.00000000000000000000e+000) (0, 0, 0.00000000000000000000e+000) (0, 0, 0.00000000000000000000e+000) (0, 0, 0.00000000000000000000e+000) (0, 0, 0.00000000000000000000e+000) (0, 0, 0.00000000000000000000e+000) (0, 0, 0.00000000000000000000e+000) (0, 0, 0.00000000000000000000e+000) (0, 0, 0.00000000000000000000e+000) (0, 0, 0.00000000000000000000e+000) (0, 0, 0.00000000000000000000e+000) (0, 0, 0.00000000000000000000e+000) (0, 0, 0.00000000000000000000e+000) (0, 0, 0.00000000000000000000e+000) (0, 0, 0.00000000000000000000e+000) (0, 0, 0.00000000000000000000e+000) (0, 0, 0.00000000000000000000e+000) (0, 0, 0.00000000000000000000e+000) (0, 0, 0.00000000000000000000e+000) (0, 0, 0.00000000000000000000e+000) (0, 0, 0.00000000000000000000e+000) (0, 0, 0.00000000000000000000e+000) (0, 0, 0.00000000000000000000e+000) (0, 0, 0.00000000000000000000e+000) (0, 0, 0.00000000000000000000e+000) (0, 0, 0.00000000000000000000e+000) (0, 0, 0.00000000000000000000e+000) (0, 0, 0.00000000000000000000e+000) (0, 0, 0.00000000000000000000e+000) (0, 0, 0.00000000000000000000e+000) (0, 0, 0.00000000000000000000e+000) (0, 0, 0.00000000000000000000e+000) (0, 0, 0.00000000000000000000e+000) (0, 0, 0.00000000000000000000e+000) (0, 0, 0.00000000000000000000e+000) (0, 0, 0.00000000000000000000e+000) (0, 0, 0.00000000000000000000e+000) (0, 0, 0.00000000000000000000e+000) (0, 0, 0.00000000000000000000e+000) (0, 0, 0.00000000000000000000e+000) (0, 0, 0.00000000000000000000e+000) (0, 0, 0.00000000000000000000e+000) (0, 0, 0.00000000000000000000e+000) (0, 0, 0.00000000000000000000e+000) (0, 0, 0.00000000000000000000e+000) (0, 0, 0.00000000000000000000e+000) (0, 0, 0.00000000000000000000e+000) (0, 0, 0.00000000000000000000e+000) (0, 0, 0.00000000000000000000e+000) (0, 0, 0.00000000000000000000e+000) (0, 0, 0.00000000000000000000e+000) (0, 0, 0.00000000000000000000e+000) (0, 0, 0.00000000000000000000e+000) (0, 0, 0.00000000000000000000e+000) (0, 0, 0.00000000000000000000e+000) (0, 0, 0.00000000000000000000e+000) (0, 0, 0.00000000000000000000e+000) (0, 0, 0.00000000000000000000e+000) (0, 0, 0.00000000000000000000e+000) (0, 0, 0.00000000000000000000e+000) (0, 0, 0.00000000000000000000e+000) (0, 0, 0.00000000000000000000e+000) (0, 0, 0.00000000000000000000e+000) (0, 0, 0.00000000000000000000e+000) (0, 0, 0.00000000000000000000e+000) (0, 0, 0.00000000000000000000e+000) (0, 0, 0.00000000000000000000e+000) (0, 0, 0.00000000000000000000e+000) (0, 0, 0.00000000000000000000e+000) (0, 0, 0.00000000000000000000e+000) (0, 0, 0.00000000000000000000e+000) (0, 0, 0.00000000000000000000e+000) (0, 0, 0.00000000000000000000e+000) (0, 0, 0.00000000000000000000e+000) (0, 0, 0.00000000000000000000e+000) (0, 0, 0.00000000000000000000e+000) (0, 0, 0.00000000000000000000e+000) (0, 0, 0.00000000000000000000e+000) (0, 0, 0.00000000000000000000e+000) (0, 0, 0.00000000000000000000e+000) (0, 0, 0.00000000000000000000e+000) (0, 0, 0.00000000000000000000e+000) (0, 0, 0.00000000000000000000e+000) (0, 0, 0.00000000000000000000e+000) (0, 0, 0.00000000000000000000e+000) (0, 0, 0.00000000000000000000e+000) (0, 0, 0.00000000000000000000e+000) (0, 0, 0.00000000000000000000e+000) (0, 0, 0.00000000000000000000e+000) (0, 0, 0.00000000000000000000e+000) (0, 0, 0.00000000000000000000e+000) (0, 0, 0.00000000000000000000e+000) (0, 0, 0.00000000000000000000e+000) (0, 0, 0.00000000000000000000e+000) (0, 0, 0.00000000000000000000e+000) (0, 0, 0.00000000000000000000e+000) (0, 0, 0.00000000000000000000e+000) (0, 0, 0.00000000000000000000e+000) (0, 0, 0.00000000000000000000e+000) (0, 0, 0.00000000000000000000e+000) (0, 0, 0.00000000000000000000e+000) (0, 0, 0.00000000000000000000e+000) (0, 0, 0.00000000000000000000e+000) (0, 0, 0.00000000000000000000e+000) (0, 0, 0.00000000000000000000e+000) (0, 0, 0.00000000000000000000e+000) (0, 0, 0.00000000000000000000e+000) (0, 0, 0.00000000000000000000e+000) (0, 0, 0.00000000000000000000e+000) (0, 0, 0.00000000000000000000e+000) (0, 0, 0.00000000000000000000e+000) (0, 0, 0.00000000000000000000e+000) (0, 0, 0.00000000000000000000e+000) (0, 0, 0.00000000000000000000e+000) (0, 0, 0.00000000000000000000e+000) (0, 0, 0.00000000000000000000e+000) (0, 0, 0.00000000000000000000e+000) (0, 0, 0.00000000000000000000e+000) (0, 0, 0.00000000000000000000e+000) (0, 0, 0.00000000000000000000e+000) (0, 0, 0.00000000000000000000e+000) (0, 0, 0.00000000000000000000e+000) (0, 0, 0.00000000000000000000e+000) (0, 0, 0.00000000000000000000e+000) (0, 0, 0.00000000000000000000e+000) (0, 0, 0.00000000000000000000e+000) (0, 0, 0.00000000000000000000e+000) (0, 0, 0.00000000000000000000e+000) (0, 0, 0.00000000000000000000e+000) (0, 0, 0.00000000000000000000e+000) (0, 0, 0.00000000000000000000e+000) (0, 0, 0.00000000000000000000e+000) (0, 0, 0.00000000000000000000e+000) (0, 0, 0.00000000000000000000e+000) (0, 0, 0.00000000000000000000e+000) (0, 0, 0.00000000000000000000e+000) (0, 0, 0.00000000000000000000e+000) (0, 0, 0.00000000000000000000e+000) (0, 0, 0.00000000000000000000e+000) (0, 0, 0.00000000000000000000e+000) (0, 0, 0.00000000000000000000e+000) (0, 0, 0.00000000000000000000e+000) (0, 0, 0.00000000000000000000e+000) (0, 0, 0.00000000000000000000e+000) (0, 0, 0.00000000000000000000e+000) (0, 0, 0.00000000000000000000e+000) (0, 0, 0.00000000000000000000e+000) (0, 0, 0.00000000000000000000e+000) (0, 0, 0.00000000000000000000e+000) (0, 0, 0.00000000000000000000e+000) (0, 0, 0.00000000000000000000e+000) (0, 0, 0.00000000000000000000e+000) (0, 0, 0.00000000000000000000e+000) (0, 0, 0.00000000000000000000e+000) (0, 0, 0.00000000000000000000e+000) (0, 0, 0.00000000000000000000e+000) (0, 0, 0.00000000000000000000e+000) (0, 0, 0.00000000000000000000e+000) (0, 0, 0.00000000000000000000e+000) (0, 0, 0.00000000000000000000e+000) (0, 0, 0.00000000000000000000e+000) (0, 0, 0.00000000000000000000e+000) (0, 0, 0.00000000000000000000e+000) (0, 0, 0.00000000000000000000e+000) (0, 0, 0.00000000000000000000e+000) (0, 0, 0.00000000000000000000e+000) (0, 0, 0.00000000000000000000e+000) (0, 0, 0.00000000000000000000e+000) (0, 0, 0.00000000000000000000e+000) (0, 0, 0.00000000000000000000e+000) (0, 0, 0.00000000000000000000e+000) (0, 0, 0.00000000000000000000e+000) (0, 0, 0.00000000000000000000e+000) (0, 0, 0.00000000000000000000e+000) (0, 0, 0.00000000000000000000e+000) (0, 0, 0.00000000000000000000e+000) (0, 0, 0.00000000000000000000e+000) (0, 0, 0.00000000000000000000e+000) (0, 0, 0.00000000000000000000e+000) (0, 0, 0.00000000000000000000e+000) (0, 0, 0.00000000000000000000e+000) (0, 0, 0.00000000000000000000e+000) (0, 0, 0.00000000000000000000e+000) (0, 0, 0.00000000000000000000e+000) (0, 0, 0.00000000000000000000e+000) (0, 0, 0.00000000000000000000e+000) (0, 0, 0.00000000000000000000e+000) (0, 0, 0.00000000000000000000e+000) (0, 0, 0.00000000000000000000e+000) (0, 0, 0.00000000000000000000e+000) (0, 0, 0.00000000000000000000e+000) (0, 0, 0.00000000000000000000e+000) (0, 0, 0.00000000000000000000e+000) (0, 0, 0.00000000000000000000e+000) (0, 0, 0.00000000000000000000e+000) (0, 0, 0.00000000000000000000e+000) (0, 0, 0.00000000000000000000e+000) (0, 0, 0.00000000000000000000e+000) (0, 0, 0.00000000000000000000e+000) (0, 0, 0.00000000000000000000e+000) (0, 0, 0.00000000000000000000e+000) (0, 0, 0.00000000000000000000e+000) (0, 0, 0.00000000000000000000e+000) (0, 0, 0.00000000000000000000e+000) (0, 0, 0.00000000000000000000e+000) (0, 0, 0.00000000000000000000e+000) (0, 0, 0.00000000000000000000e+000) (0, 0, 0.00000000000000000000e+000) (0, 0, 0.00000000000000000000e+000) (0, 0, 0.00000000000000000000e+000) (0, 0, 0.00000000000000000000e+000) (0, 0, 0.00000000000000000000e+000) (0, 0, 0.00000000000000000000e+000) (0, 0, 0.00000000000000000000e+000) (0, 0, 0.00000000000000000000e+000) (0, 0, 0.00000000000000000000e+000) (0, 0, 0.00000000000000000000e+000) (0, 0, 0.00000000000000000000e+000) (0, 0, 0.00000000000000000000e+000) (0, 0, 0.00000000000000000000e+000) (0, 0, 0.00000000000000000000e+000) (0, 0, 0.00000000000000000000e+000) (0, 0, 0.00000000000000000000e+000) (0, 0, 0.00000000000000000000e+000) (0, 0, 0.00000000000000000000e+000) (0, 0, 0.00000000000000000000e+000) (0, 0, 0.00000000000000000000e+000) (0, 0, 0.00000000000000000000e+000) (0, 0, 0.00000000000000000000e+000) (0, 0, 0.00000000000000000000e+000) (0, 0, 0.00000000000000000000e+000) (0, 0, 0.00000000000000000000e+000) (0, 0, 0.00000000000000000000e+000) (0, 0, 0.00000000000000000000e+000) (0, 0, 0.00000000000000000000e+000) (0, 0, 0.00000000000000000000e+000) (0, 0, 0.00000000000000000000e+000) (0, 0, 0.00000000000000000000e+000) (0, 0, 0.00000000000000000000e+000) (0, 0, 0.00000000000000000000e+000) (0, 0, 0.00000000000000000000e+000) (0, 0, 0.00000000000000000000e+000) (0, 0, 0.00000000000000000000e+000) (0, 0, 0.00000000000000000000e+000) (0, 0, 0.00000000000000000000e+000) (0, 0, 0.00000000000000000000e+000) (0, 0, 0.00000000000000000000e+000) (0, 0, 0.00000000000000000000e+000) (0, 0, 0.00000000000000000000e+000) (0, 0, 0.00000000000000000000e+000) (0, 0, 0.00000000000000000000e+000) (0, 0, 0.00000000000000000000e+000) (0, 0, 0.00000000000000000000e+000) (0, 0, 0.00000000000000000000e+000) (0, 0, 0.00000000000000000000e+000) (0, 0, 0.00000000000000000000e+000) (0, 0, 0.00000000000000000000e+000) (0, 0, 0.00000000000000000000e+000) (0, 0, 0.00000000000000000000e+000) (0, 0, 0.00000000000000000000e+000) (0, 0, 0.00000000000000000000e+000) (0, 0, 0.00000000000000000000e+000) (0, 0, 0.00000000000000000000e+000) (0, 0, 0.00000000000000000000e+000) (0, 0, 0.00000000000000000000e+000) (0, 0, 0.00000000000000000000e+000) (0, 0, 0.00000000000000000000e+000) (0, 0, 0.00000000000000000000e+000) (0, 0, 0.00000000000000000000e+000) (0, 0, 0.00000000000000000000e+000) (0, 0, 0.00000000000000000000e+000) (0, 0, 0.00000000000000000000e+000) (0, 0, 0.00000000000000000000e+000) (0, 0, 0.00000000000000000000e+000) (0, 0, 0.00000000000000000000e+000) (0, 0, 0.00000000000000000000e+000) (0, 0, 0.00000000000000000000e+000) (0, 0, 0.00000000000000000000e+000) (0, 0, 0.00000000000000000000e+000) (0, 0, 0.00000000000000000000e+000) (0, 0, 0.00000000000000000000e+000) (0, 0, 0.00000000000000000000e+000) (0, 0, 0.00000000000000000000e+000) (0, 0, 0.00000000000000000000e+000) (0, 0, 0.00000000000000000000e+000) (0, 0, 0.00000000000000000000e+000) (0, 0, 0.00000000000000000000e+000) (0, 0, 0.00000000000000000000e+000) (0, 0, 0.00000000000000000000e+000) (0, 0, 0.00000000000000000000e+000) (0, 0, 0.00000000000000000000e+000) (0, 0, 0.00000000000000000000e+000) (0, 0, 0.00000000000000000000e+000) (0, 0, 0.00000000000000000000e+000) (0, 0, 0.00000000000000000000e+000) (0, 0, 0.00000000000000000000e+000) (0, 0, 0.00000000000000000000e+000) (0, 0, 0.00000000000000000000e+000) (0, 0, 0.00000000000000000000e+000) (0, 0, 0.00000000000000000000e+000) (0, 0, 0.00000000000000000000e+000) (0, 0, 0.00000000000000000000e+000) (0, 0, 0.00000000000000000000e+000) (0, 0, 0.00000000000000000000e+000) (0, 0, 0.00000000000000000000e+000) (0, 0, 0.00000000000000000000e+000) (0, 0, 0.00000000000000000000e+000) (0, 0, 0.00000000000000000000e+000) (0, 0, 0.00000000000000000000e+000) (0, 0, 0.00000000000000000000e+000) (0, 0, 0.00000000000000000000e+000) (0, 0, 0.00000000000000000000e+000) (0, 0, 0.00000000000000000000e+000) (0, 0, 0.00000000000000000000e+000) (0, 0, 0.00000000000000000000e+000) (0, 0, 0.00000000000000000000e+000) (0, 0, 0.00000000000000000000e+000) (0, 0, 0.00000000000000000000e+000) (0, 0, 0.00000000000000000000e+000) (0, 0, 0.00000000000000000000e+000) (0, 0, 0.00000000000000000000e+000) (0, 0, 0.00000000000000000000e+000) (0, 0, 0.00000000000000000000e+000) (0, 0, 0.00000000000000000000e+000) (0, 0, 0.00000000000000000000e+000) (0, 0, 0.00000000000000000000e+000) (0, 0, 0.00000000000000000000e+000) (0, 0, 0.00000000000000000000e+000) (0, 0, 0.00000000000000000000e+000) (0, 0, 0.00000000000000000000e+000) (0, 0, 0.00000000000000000000e+000) (0, 0, 0.00000000000000000000e+000) (0, 0, 0.00000000000000000000e+000) (0, 0, 0.00000000000000000000e+000) (0, 0, 0.00000000000000000000e+000) (0, 0, 0.00000000000000000000e+000) (0, 0, 0.00000000000000000000e+000) (0, 0, 0.00000000000000000000e+000) (0, 0, 0.00000000000000000000e+000) (0, 0, 0.00000000000000000000e+000) (0, 0, 0.00000000000000000000e+000) (0, 0, 0.00000000000000000000e+000) (0, 0, 0.00000000000000000000e+000) (0, 0, 0.00000000000000000000e+000) (0, 0, 0.00000000000000000000e+000) (0, 0, 0.00000000000000000000e+000) (0, 0, 0.00000000000000000000e+000) (0, 0, 0.00000000000000000000e+000) (0, 0, 0.00000000000000000000e+000) (0, 0, 0.00000000000000000000e+000) (0, 0, 0.00000000000000000000e+000) (0, 0, 0.00000000000000000000e+000) (0, 0, 0.00000000000000000000e+000) (0, 0, 0.00000000000000000000e+000) (0, 0, 0.00000000000000000000e+000) (0, 0, 0.00000000000000000000e+000) (0, 0, 0.00000000000000000000e+000) (0, 0, 0.00000000000000000000e+000) (0, 0, 0.00000000000000000000e+000) (0, 0, 0.00000000000000000000e+000) (0, 0, 0.00000000000000000000e+000) (0, 0, 0.00000000000000000000e+000) (0, 0, 0.00000000000000000000e+000) (0, 0, 0.00000000000000000000e+000) (0, 0, 0.00000000000000000000e+000) (0, 0, 0.00000000000000000000e+000) (0, 0, 0.00000000000000000000e+000) (0, 0, 0.00000000000000000000e+000) (0, 0, 0.00000000000000000000e+000) (0, 0, 0.00000000000000000000e+000) (0, 0, 0.00000000000000000000e+000) (0, 0, 0.00000000000000000000e+000) (0, 0, 0.00000000000000000000e+000) (0, 0, 0.00000000000000000000e+000) (0, 0, 0.00000000000000000000e+000) (0, 0, 0.00000000000000000000e+000) (0, 0, 0.00000000000000000000e+000) (0, 0, 0.00000000000000000000e+000) (0, 0, 0.00000000000000000000e+000) (0, 0, 0.00000000000000000000e+000) (0, 0, 0.00000000000000000000e+000) (0, 0, 0.00000000000000000000e+000) (0, 0, 0.00000000000000000000e+000) (0, 0, 0.00000000000000000000e+000) (0, 0, 0.00000000000000000000e+000) (0, 0, 0.00000000000000000000e+000) (0, 0, 0.00000000000000000000e+000) (0, 0, 0.00000000000000000000e+000) (0, 0, 0.00000000000000000000e+000) (0, 0, 0.00000000000000000000e+000) (0, 0, 0.00000000000000000000e+000) (0, 0, 0.00000000000000000000e+000) (0, 0, 0.00000000000000000000e+000) (0, 0, 0.00000000000000000000e+000) (0, 0, 0.00000000000000000000e+000) (0, 0, 0.00000000000000000000e+000) (0, 0, 0.00000000000000000000e+000) (0, 0, 0.00000000000000000000e+000) (0, 0, 0.00000000000000000000e+000) (0, 0, 0.00000000000000000000e+000) (0, 0, 0.00000000000000000000e+000) (0, 0, 0.00000000000000000000e+000) (0, 0, 0.00000000000000000000e+000) (0, 0, 0.00000000000000000000e+000) (0, 0, 0.00000000000000000000e+000) (0, 0, 0.00000000000000000000e+000) (0, 0, 0.00000000000000000000e+000) (0, 0, 0.00000000000000000000e+000) (0, 0, 0.00000000000000000000e+000) (0, 0, 0.00000000000000000000e+000) (0, 0, 0.00000000000000000000e+000) (0, 0, 0.00000000000000000000e+000) (0, 0, 0.00000000000000000000e+000) (0, 0, 0.00000000000000000000e+000) (0, 0, 0.00000000000000000000e+000) (0, 0, 0.00000000000000000000e+000) (0, 0, 0.00000000000000000000e+000) (0, 0, 0.00000000000000000000e+000) (0, 0, 0.00000000000000000000e+000) (0, 0, 0.00000000000000000000e+000) (0, 0, 0.00000000000000000000e+000) (0, 0, 0.00000000000000000000e+000) (0, 0, 0.00000000000000000000e+000) (0, 0, 0.00000000000000000000e+000) (0, 0, 0.00000000000000000000e+000) (0, 0, 0.00000000000000000000e+000) (0, 0, 0.00000000000000000000e+000) (0, 0, 0.00000000000000000000e+000) (0, 0, 0.00000000000000000000e+000) (0, 0, 0.00000000000000000000e+000) (0, 0, 0.00000000000000000000e+000) (0, 0, 0.00000000000000000000e+000) (0, 0, 0.00000000000000000000e+000) (0, 0, 0.00000000000000000000e+000) (0, 0, 0.00000000000000000000e+000) (0, 0, 0.00000000000000000000e+000) (0, 0, 0.00000000000000000000e+000) (0, 0, 0.00000000000000000000e+000) (0, 0, 0.00000000000000000000e+000) (0, 0, 0.00000000000000000000e+000) (0, 0, 0.00000000000000000000e+000) (0, 0, 0.00000000000000000000e+000) (0, 0, 0.00000000000000000000e+000) (0, 0, 0.00000000000000000000e+000) (0, 0, 0.00000000000000000000e+000) (0, 0, 0.00000000000000000000e+000) (0, 0, 0.00000000000000000000e+000) (0, 0, 0.00000000000000000000e+000) (0, 0, 0.00000000000000000000e+000) (0, 0, 0.00000000000000000000e+000) (0, 0, 0.00000000000000000000e+000) (0, 0, 0.00000000000000000000e+000) (0, 0, 0.00000000000000000000e+000) (0, 0, 0.00000000000000000000e+000) (0, 0, 0.00000000000000000000e+000) (0, 0, 0.00000000000000000000e+000) (0, 0, 0.00000000000000000000e+000) (0, 0, 0.00000000000000000000e+000) (0, 0, 0.00000000000000000000e+000) (0, 0, 0.00000000000000000000e+000) (785, 3, 5.00000000000000000000e-001) (785, 3, 5.00000000000000000000e-001) (785, 3, 5.00000000000000000000e-001) (785, 3, 5.00000000000000000000e-001) (785, 3, 5.00000000000000000000e-001) (785, 3, 5.00000000000000000000e-001) (785, 3, 5.00000000000000000000e-001) (785, 3, 5.00000000000000000000e-001) (785, 3, 5.00000000000000000000e-001) (785, 3, 5.00000000000000000000e-001) (785, 3, 5.00000000000000000000e-001) (785, 3, 5.00000000000000000000e-001) (785, 3, 5.00000000000000000000e-001) (785, 3, 5.00000000000000000000e-001) (785, 3, 5.00000000000000000000e-001) (785, 3, 5.00000000000000000000e-001) (785, 3, 5.00000000000000000000e-001) (785, 3, 5.00000000000000000000e-001) (785, 3, 5.00000000000000000000e-001) (785, 3, 5.00000000000000000000e-001) (785, 3, 5.00000000000000000000e-001) (785, 3, 5.00000000000000000000e-001) (785, 3, 5.00000000000000000000e-001) (785, 3, 5.00000000000000000000e-001) (785, 3, 5.00000000000000000000e-001) (785, 3, 5.00000000000000000000e-001) (785, 3, 5.00000000000000000000e-001) (785, 3, 5.00000000000000000000e-001) (785, 3, 5.00000000000000000000e-001) (785, 3, 5.00000000000000000000e-001) (0, 3, 0.00000000000000000000e+000) (31, 3, 5.00000000000000000000e-001) (31, 3, 5.00000000000000000000e-001) (31, 3, 5.00000000000000000000e-001) (31, 3, 5.00000000000000000000e-001) (31, 3, 5.00000000000000000000e-001) (31, 3, 5.00000000000000000000e-001) (31, 3, 5.00000000000000000000e-001) (31, 3, 5.00000000000000000000e-001) (31, 3, 5.00000000000000000000e-001) (31, 3, 5.00000000000000000000e-001) (0, 3, 0.00000000000000000000e+000) 
connections (connected_to_neuron, weight)=(0, 1.41174318509911250000e-002) (1, -4.98779304307390700000e-002) (2, -3.50891118509935040000e-002) (3, -5.89233407217761850000e-002) (4, -1.58935549243324200000e-002) (5, -5.88439950174688420000e-002) (6, -9.04479993946551990000e-002) (7, 9.18518080093235770000e-002) (8, -3.59863286612380760000e-002) (9, -5.42663582305067390000e-002) (10, -6.01562508963979780000e-002) (11, 3.80371099417970980000e-002) (12, -9.19891767750403430000e-002) (13, 1.19103148979516090000e-001) (14, 1.53189677455116690000e-002) (15, 8.71657981225062300000e-002) (16, 5.41870125261993960000e-002) (17, 8.16650402794039110000e-002) (18, 3.53454595110633820000e-002) (19, 7.36816417229420040000e-002) (20, -6.26098642142096650000e-002) (21, 7.95715343888332430000e-002) (22, -5.51574715250353620000e-002) (23, 9.84741225611287520000e-002) (24, 1.45080568568118910000e-002) (25, -4.02709966938346040000e-002) (26, 7.17529307567019710000e-002) (27, -9.02954115017564620000e-002) (28, -7.74597179511147260000e-002) (29, 5.77514657043138870000e-002) (30, -3.04687504540197550000e-002) (31, 6.62231455180517510000e-002) (32, 2.71972660302708390000e-002) (33, 4.95580458172599280000e-002) (34, -2.26999152455400160000e-002) (35, 4.37346206506512430000e-002) (36, 9.48765173551440880000e-002) (37, -4.24172420123195840000e-002) (38, -1.04148406333755120000e-001) (39, -1.90632678654743480000e-001) (40, 6.03531616991258380000e-003) (41, -1.05740029083299000000e-002) (42, 6.02945035332705730000e-002) (43, 8.90236375054224810000e-003) (44, 1.19417816968890990000e-001) (45, 5.83359582661453840000e-002) (46, -4.43733516595012160000e-002) (47, 9.18370800625435690000e-003) (48, -3.33377292031092000000e-003) (49, -4.55033892315808150000e-002) (50, -2.96698005676137820000e-002) (51, -1.79386811051866350000e-002) (52, -8.61267102677629740000e-002) (53, 4.45800787892949300000e-002) (54, -4.29870611874321180000e-002) (55, -3.15246586728790130000e-002) (56, 6.10351571594947020000e-004) (57, 6.62536630966314990000e-002) (58, -1.69677736903395270000e-003) (59, 8.05943345720471910000e-002) (60, -2.41165954880732320000e-002) (61, -8.04992563463346190000e-002) (62, 3.41106353453878440000e-002) (63, -1.05381111945151830000e-001) (64, -1.44779390284708320000e-001) (65, 1.40806217617449520000e-001) (66, -1.48155152000564340000e-001) (67, -4.62377184143873580000e-001) (68, -1.49818113088984290000e+000) (69, -1.41024997487147630000e+000) (70, -9.89165474300117700000e-001) (71, -3.40502375283417200000e-001) (72, -1.87430746040736620000e-001) (73, -3.90738546307606630000e-001) (74, -8.69469710435471390000e-001) (75, -7.55622510013024270000e-001) (76, -3.04920326074579580000e-001) (77, -3.20238117586819030000e-001) (78, -1.53003466225977910000e-001) (79, -5.09702935458091090000e-001) (80, -2.09023962226954660000e-001) (81, 2.51919995390161370000e-002) (82, 3.90319830034968620000e-002) (83, 2.35900882421447020000e-002) (84, -6.39953622817301950000e-002) (85, -5.50781258207280190000e-002) (86, -5.87206612433221480000e-002) (87, -5.24305430564656130000e-002) (88, 2.63038456620168820000e-002) (89, -2.33801327470764350000e-001) (90, -1.02642829746594600000e-001) (91, 3.05900166200399720000e-002) (92, 2.91416658049640010000e-001) (93, 1.42923529927515450000e+000) (94, 2.30150321024554930000e+000) (95, 1.45333372349707000000e+000) (96, 4.17956063344844810000e-001) (97, 3.90004600311334770000e-001) (98, -1.63103424845314480000e-001) (99, -1.15163646424720780000e-001) (100, 2.45959952790608620000e-001) (101, -3.16107490232624520000e-001) (102, -1.15096131342475560000e+000) (103, -1.47444723582828670000e+000) (104, -1.09174864962498020000e+000) (105, -1.13321072614800240000e+000) (106, -1.08853257894813460000e+000) (107, -6.55178441506564240000e-001) (108, 9.30327483641033020000e-002) (109, 1.08889537993794930000e-001) (110, -2.74378156550748840000e-002) (111, 8.59802258905801860000e-002) (112, 2.63244632828900650000e-002) (113, -9.01239377227586320000e-002) (114, -7.89425772470037920000e-002) (115, -1.10880147656980040000e-001) (116, 1.72268061343574110000e-002) (117, -5.81072970327617070000e-001) (118, 8.83753565032942140000e-002) (119, 6.92578088700762430000e-001) (120, 9.42596086509460920000e-001) (121, 1.93064109212808700000e+000) (122, 2.41904327054236520000e+000) (123, 3.04755136768742880000e+000) (124, 3.56264701408232170000e+000) (125, 3.25267191148339170000e+000) (126, 3.25906133003507440000e+000) (127, 2.20802437349255290000e+000) (128, 2.30188916230007520000e+000) (129, 9.70878293457549170000e-001) (130, 3.21587456134044100000e-001) (131, 1.93799771432338040000e-001) (132, 7.82374565420471790000e-001) (133, 8.37977178719462420000e-001) (134, 4.96604734857943650000e-001) (135, 1.06173459252654330000e+000) (136, 9.18962259597479240000e-001) (137, 3.27118730966554420000e-001) (138, -2.25500128893770140000e-003) (139, -2.93534128944151970000e-002) (140, 8.57788098719538540000e-002) (141, -2.11425784400489650000e-002) (142, 2.61774296383474920000e-002) (143, -1.71196935483846260000e-001) (144, -4.77724632225600740000e-001) (145, -9.31877404870366740000e-001) (146, -7.17849404513732800000e-001) (147, 1.91859195997929390000e-001) (148, 1.46148403501541920000e+000) (149, 2.96784108095366510000e+000) (150, 4.81468324892209320000e+000) (151, 5.12646702471644830000e+000) (152, 1.62922772845846380000e+000) (153, 2.46551934185134100000e-001) (154, -3.21511602820252080000e+000) (155, -4.68589682092421440000e+000) (156, -6.04282715895191560000e+000) (157, -3.36889813019907660000e+000) (158, -1.69501285369310590000e+000) (159, -1.79668037864001180000e+000) (160, 1.05759168065060670000e+000) (161, 3.18954854911129450000e+000) (162, 5.08238038522686080000e+000) (163, 4.37669290975916070000e+000) (164, 2.66703134765748380000e+000) (165, 1.03846989716191110000e+000) (166, 1.49985851955942520000e-001) (167, 3.55980665427841280000e-002) (168, 5.54565437951168860000e-002) (169, 1.56973883065821830000e-002) (170, -1.68611902269847740000e-001) (171, -5.02061548690419630000e-001) (172, -1.22244597713508310000e+000) (173, -1.29900874774468100000e+000) (174, -1.18505477688034940000e+000) (175, -8.09466881725000480000e-001) (176, -3.96411534566601110000e-001) (177, 1.33300369463304010000e+000) (178, 9.70143706283526090000e-001) (179, -2.71751322573955180000e+000) (180, -8.02171791002678880000e+000) (181, -1.00846168168754500000e+001) (182, -1.28534705730174230000e+001) (183, -1.53680338002047030000e+001) (184, -1.21977322151035350000e+001) (185, -9.24257320042484840000e+000) (186, -6.85533691129703990000e+000) (187, -5.49250924050385780000e+000) (188, -3.72123329044053010000e+000) (189, 7.97279105687974440000e-001) (190, 4.36617412483804120000e+000) (191, 4.67206663868927840000e+000) (192, 3.30611495052234660000e+000) (193, 1.77028585051995040000e+000) (194, 3.67374784322594740000e-001) (195, -5.83548133884988700000e-002) (196, -1.42155096459858180000e-002) (197, 5.14689638697997530000e-002) (198, -1.23078517009581830000e-001) (199, -5.63359778953366090000e-001) (200, -1.56197801967905230000e+000) (201, -1.53224736168841850000e+000) (202, -7.65169433329629720000e-001) (203, -8.91517340258185630000e-001) (204, -2.64854892548769130000e+000) (205, -2.75453426618506070000e+000) (206, -5.12906433306879970000e+000) (207, -8.69188422426938700000e+000) (208, -1.16411572499046870000e+001) (209, -1.15390896242472290000e+001) (210, -1.27825152024708970000e+001) (211, -1.62849061603661410000e+001) (212, -1.25743589054031250000e+001) (213, -1.00661737582296680000e+001) (214, -1.02820518730223680000e+001) (215, -1.03823020881496860000e+001) (216, -8.34113317286105980000e+000) (217, -1.27664894040197830000e+000) (218, 3.96391227185436360000e+000) (219, 5.08967858607871640000e+000) (220, 3.92986708561752930000e+000) (221, 3.37609328589312030000e+000) (222, 4.64492084781640670000e-001) (223, -3.45846924712549100000e-002) (224, -2.38458472540861270000e-002) (225, 3.62815938778692300000e-003) (226, -9.88913521037111390000e-002) (227, -6.78935530689935400000e-001) (228, -1.79726698331652650000e+000) (229, -1.11532079701620560000e+000) (230, -2.45262994189003570000e+000) (231, -3.68562748418554480000e+000) (232, -4.29453411917281880000e+000) (233, -5.98899869365644570000e+000) (234, -6.75956549698913900000e+000) (235, -6.19697499908112540000e+000) (236, -5.89273383264850900000e+000) (237, -7.11831441198701590000e+000) (238, -6.36876067885189560000e+000) (239, -3.83365035143967340000e+000) (240, -4.35368342972006420000e+000) (241, -4.54248786137546730000e+000) (242, -7.33739399426723350000e+000) (243, -1.08385169329680820000e+001) (244, -8.27611943568825130000e+000) (245, -3.93159595355804510000e+000) (246, 9.12892096153466560000e-001) (247, 6.42458576928960670000e+000) (248, 6.68856043405612330000e+000) (249, 4.15934023775163020000e+000) (250, 4.94990030656669410000e-001) (251, 5.47736700887235880000e-002) (252, 2.78730515523226420000e-002) (253, -6.05662356788750360000e-002) (254, -1.50490547007480690000e-001) (255, -5.29907603420308850000e-001) (256, -1.05187399533885470000e+000) (257, -7.37098711494145850000e-001) (258, -3.88144417001333420000e+000) (259, -4.60209593286345700000e+000) (260, -6.54400185354504860000e+000) (261, -7.56225723783930710000e+000) (262, -5.56984043956464880000e+000) (263, -2.72582905506251280000e+000) (264, -2.89070511815168580000e+000) (265, -2.29463013230482280000e+000) (266, 1.47685771115857680000e+000) (267, 1.12070308497700210000e+000) (268, -6.27185135098895510000e-001) (269, -3.91403938525749550000e+000) (270, -6.01208417071149710000e+000) (271, -1.10583328062563860000e+001) (272, -9.95317756210230800000e+000) (273, -5.76644599084726120000e+000) (274, -4.95989493512991870000e-001) (275, 5.59047704224783800000e+000) (276, 7.86788864246686080000e+000) (277, 4.43780163837708220000e+000) (278, 5.04529399188647250000e-001) (279, -9.35913582007971870000e-003) (280, -8.35001275385442030000e-002) (281, 4.63951600387839670000e-002) (282, -9.54044242079258310000e-002) (283, -2.32899030106670540000e-001) (284, -6.53131411061208640000e-001) (285, -1.73997337533727500000e+000) (286, -3.53082595086869590000e+000) (287, -4.85193099914195170000e+000) (288, -6.30637916765748670000e+000) (289, -4.95022228560002020000e+000) (290, -5.08947797265562940000e+000) (291, -4.01383722617581990000e+000) (292, -2.98132278606469340000e+000) (293, 8.60429529035230960000e-001) (294, 3.05510388368451840000e+000) (295, 3.83763242663794570000e-004) (296, -4.87458944416999970000e+000) (297, -8.45086883727658390000e+000) (298, -1.10242845857366550000e+001) (299, -1.65508820806002820000e+001) (300, -1.31540458766103060000e+001) (301, -9.36728479448609620000e+000) (302, -3.60805482218390280000e+000) (303, 2.48733001459614480000e+000) (304, 5.48147701494656300000e+000) (305, 2.95010647059782770000e+000) (306, 2.19590573800726270000e-001) (307, -1.00163949873730580000e-002) (308, -1.03074618780702900000e-002) (309, -1.10955198672623930000e-001) (310, -1.27702359144876930000e-001) (311, 5.24474100974662360000e-002) (312, -9.97786592871916840000e-001) (313, -2.64192663983725450000e+000) (314, -3.77326398917923320000e+000) (315, -6.19255082834712840000e+000) (316, -7.40200775094614110000e+000) (317, -8.50166482722358020000e+000) (318, -7.04315978649043560000e+000) (319, -4.70031918322441110000e+000) (320, -2.19564669689014910000e+000) (321, -1.88591795399316590000e+000) (322, -7.36139898437472070000e+000) (323, -1.21491988935190440000e+001) (324, -1.50623952452128280000e+001) (325, -1.72442842040326060000e+001) (326, -2.01796861390214060000e+001) (327, -2.14540108106946370000e+001) (328, -1.71519150544001280000e+001) (329, -1.07523252498722930000e+001) (330, -5.87488508839433530000e+000) (331, -1.90480618207516430000e+000) (332, 7.09177496149307360000e-001) (333, 6.03088929100075830000e-001) (334, 8.40568438095481980000e-002) (335, 1.55371420742764200000e-002) (336, 2.45214620077968160000e-002) (337, -8.56311403245531290000e-002) (338, -2.10101872440003420000e-001) (339, -2.76499179927996550000e-001) (340, -1.17196220387579020000e+000) (341, -2.30993100267392530000e+000) (342, -3.39056772055656450000e+000) (343, -5.41013890426808870000e+000) (344, -7.50783175552936480000e+000) (345, -7.89747489903502850000e+000) (346, -4.17095192409548600000e+000) (347, -1.00822094966141720000e+000) (348, -5.63177094326106790000e+000) (349, -1.30379190897915130000e+001) (350, -2.20302397786164550000e+001) (351, -2.45775897557201440000e+001) (352, -2.71040498510863190000e+001) (353, -2.67907543078983040000e+001) (354, -2.15165097440184670000e+001) (355, -1.78233318999909830000e+001) (356, -1.38290935708135210000e+001) (357, -9.48297056525688300000e+000) (358, -6.01633828419973330000e+000) (359, -4.28525204737120280000e+000) (360, -1.24176898264329450000e+000) (361, 4.08094512166285590000e-002) (362, 2.60769991862928540000e-001) (363, -1.62758725555021900000e-002) (364, 6.92641063454050300000e-002) (365, 8.87848108687554760000e-002) (366, -7.55735236361012720000e-002) (367, -8.33015494019002660000e-002) (368, -7.46939599389310320000e-001) (369, -1.55550542260244070000e+000) (370, -1.41545087254340500000e+000) (371, -2.30131377702654530000e+000) (372, -2.33285400579846060000e+000) (373, 1.12456830446978520000e+000) (374, 8.44128372532331280000e+000) (375, 6.87104297360177970000e+000) (376, -6.44538216007010160000e+000) (377, -1.79349688793342280000e+001) (378, -2.50618870432127280000e+001) (379, -3.03631158228195370000e+001) (380, -2.95919941243754680000e+001) (381, -2.16176063612894150000e+001) (382, -1.38762920243406340000e+001) (383, -9.03233231484430380000e+000) (384, -6.04131064710005460000e+000) (385, -4.73148464946846930000e+000) (386, -3.35716702930478350000e+000) (387, -1.37865968265706340000e+000) (388, 4.14681415126753880000e-001) (389, 7.65522954717275160000e-001) (390, 4.26060759057165730000e-001) (391, 7.43954197212252920000e-002) (392, -4.25720221187475540000e-002) (393, 5.56494920126470590000e-003) (394, -2.14046631468075570000e-002) (395, 1.52978390450930230000e-001) (396, -3.16637318074312370000e-003) (397, 9.33012507420138080000e-001) (398, 2.62667451079915400000e+000) (399, 1.94004157877273680000e+000) (400, 3.23012018067346180000e+000) (401, 9.56994016396027010000e+000) (402, 1.60909305710703770000e+001) (403, 1.17529672752844260000e+001) (404, -3.09714250151093480000e+000) (405, -1.69291337576595600000e+001) (406, -2.39532221874022540000e+001) (407, -2.64636368807339510000e+001) (408, -2.10929463965010660000e+001) (409, -1.35466491307425990000e+001) (410, -5.29302267417184250000e+000) (411, -1.57722899826669520000e+000) (412, -7.49524222242057060000e-001) (413, -2.49166128181425470000e+000) (414, -1.88900979202414420000e+000) (415, 6.70277406132030570000e-001) (416, 1.58981268404468910000e+000) (417, 8.06831047781230940000e-001) (418, 6.16872177170949660000e-001) (419, 1.76466876431739150000e-002) (420, -5.66505879800349240000e-002) (421, -1.11817939237433870000e-001) (422, 8.07687426264151740000e-003) (423, 6.26178055086601850000e-001) (424, 1.60029495419799890000e+000) (425, 3.75385424235817620000e+000) (426, 5.48950056961493700000e+000) (427, 5.63013632836050260000e+000) (428, 5.93806935697340870000e+000) (429, 8.53289360647153390000e+000) (430, 1.06014589762772040000e+001) (431, 2.22420096708792770000e+000) (432, -1.01857173701159670000e+001) (433, -1.92497656432023730000e+001) (434, -2.20377256668137850000e+001) (435, -1.99671372117566430000e+001) (436, -1.26689218028571220000e+001) (437, -6.38084540816283670000e+000) (438, -3.26269912893048690000e-001) (439, 2.66866564315182720000e+000) (440, 2.78359702639834840000e-001) (441, -3.53227831805950130000e-001) (442, -9.98197059633975430000e-001) (443, 5.51497166764160720000e-001) (444, 1.92558118524378450000e+000) (445, 1.66662498244691790000e+000) (446, 8.36475187002256650000e-001) (447, 2.37648453461088090000e-001) (448, 2.87481799644503030000e-002) (449, 3.70103604580836880000e-002) (450, -8.94066623777246690000e-002) (451, 1.00773619784019840000e+000) (452, 2.38445941808308830000e+000) (453, 6.36651558043510240000e+000) (454, 1.00123545952623850000e+001) (455, 8.23669680870517060000e+000) (456, 4.86799265435778940000e+000) (457, 1.99178918596832970000e+000) (458, -1.83783253951827310000e+000) (459, -7.28133596286355810000e+000) (460, -1.09887961921937030000e+001) (461, -1.30043162514606830000e+001) (462, -1.21701831103992310000e+001) (463, -7.77460080949236240000e+000) (464, -2.63774617643748720000e+000) (465, 3.74723256750691120000e-001) (466, 1.73951190044187350000e+000) (467, 3.19756230811826600000e+000) (468, 2.24905563617459860000e+000) (469, 2.36876661502930070000e+000) (470, 1.28574524332857080000e+000) (471, 2.60260972151898070000e+000) (472, 3.53525427972559130000e+000) (473, 3.14451425427649370000e+000) (474, 1.52435324241403270000e+000) (475, 3.66644725603242070000e-001) (476, 5.06713874738125010000e-002) (477, 2.73234868503291830000e-002) (478, 1.13044028387587470000e-001) (479, 7.85843922929967190000e-001) (480, 3.48653859300528430000e+000) (481, 9.42327723641823670000e+000) (482, 1.51841701884189360000e+001) (483, 9.91460977729861530000e+000) (484, 2.69828186007354320000e+000) (485, -1.76011584600627340000e+000) (486, -8.63214754524404350000e+000) (487, -1.15297287416044230000e+001) (488, -8.89803839724690530000e+000) (489, -5.55605558988050330000e+000) (490, -3.42683923956111510000e+000) (491, 3.29585605508008920000e-001) (492, 3.00169378529842450000e+000) (493, 1.65244680118699700000e+000) (494, 1.00821117582539000000e+000) (495, 3.77889348383305810000e+000) (496, 3.76245483555417340000e+000) (497, 2.81408617855308130000e+000) (498, 3.64619160368481010000e+000) (499, 5.38743002790814350000e+000) (500, 5.97677227816253700000e+000) (501, 4.17496755975134180000e+000) (502, 1.22615351847325730000e+000) (503, 8.89201110718598610000e-002) (504, 8.18301313670904140000e-002) (505, 6.61286569517923330000e-002) (506, -1.67320121105029670000e-001) (507, -2.70534592806461970000e-001) (508, 3.52005097591351520000e+000) (509, 1.05263601573335530000e+001) (510, 1.70717426467709360000e+001) (511, 1.42485838818131430000e+001) (512, 3.23611729332101610000e+000) (513, -2.90478254031552070000e+000) (514, -5.46365635256606200000e+000) (515, -5.95545459992065410000e+000) (516, 8.48549071255471410000e-001) (517, 5.36281967405436700000e+000) (518, 3.58299111285150660000e+000) (519, 2.46344422127990010000e+000) (520, 1.95356554602657660000e+000) (521, -2.07326352282851710000e-001) (522, 2.60328574946465940000e-001) (523, 3.04931022827447240000e+000) (524, 2.11990658232688570000e+000) (525, 1.96127835998996480000e+000) (526, 4.96530938964114470000e+000) (527, 8.29453144046686570000e+000) (528, 7.43978112334611020000e+000) (529, 3.44606759328820770000e+000) (530, 7.88225438616110720000e-001) (531, -3.15953441757070640000e-002) (532, -9.96337905471591510000e-002) (533, -3.85426965176028990000e-002) (534, -1.96932298830552580000e-001) (535, -1.32845923858128060000e+000) (536, 1.95750317852483710000e+000) (537, 7.65765458321604960000e+000) (538, 1.25746517338899990000e+001) (539, 1.28010939416714960000e+001) (540, 5.47502988062694750000e+000) (541, 1.53881382546468240000e+000) (542, -1.20327088108863830000e+000) (543, 2.34737024717696090000e+000) (544, 6.65275015287528420000e+000) (545, 7.10444760864927360000e+000) (546, 5.54729856864514390000e+000) (547, 2.11335385490346890000e+000) (548, -2.36213333030035160000e+000) (549, -1.76311855350129880000e+000) (550, 7.98629727488004200000e-001) (551, 1.45713154049460770000e+000) (552, 1.50083912412411040000e+000) (553, 1.79657937162145640000e+000) (554, 5.07314730355885860000e+000) (555, 7.75351208914400300000e+000) (556, 6.09032615022647580000e+000) (557, 2.66578087593026500000e+000) (558, 6.87913776461903440000e-001) (559, 5.26212164548963480000e-002) (560, 5.92407235390055580000e-002) (561, -5.77649458664467600000e-002) (562, -3.63829044119280760000e-002) (563, -1.27099029682002530000e+000) (564, 2.84550772348968140000e-001) (565, 3.52516031899737970000e+000) (566, 7.09359225629726440000e+000) (567, 7.38405451897548030000e+000) (568, 5.31088941183473740000e+000) (569, 3.62870466465857030000e+000) (570, 2.79504279977862470000e+000) (571, 6.60054583579928080000e+000) (572, 5.36158444795204670000e+000) (573, 3.69738984049695140000e+000) (574, 8.53251134420359050000e-001) (575, -4.04437580906787810000e+000) (576, -4.82685114578521900000e+000) (577, -3.30392772448940960000e+000) (578, 4.02566284912613950000e-002) (579, 1.60468955829463480000e+000) (580, 1.38264475376520670000e+000) (581, 4.27153847480490080000e+000) (582, 6.43060177398256720000e+000) (583, 7.70189409159636360000e+000) (584, 4.27318354114653150000e+000) (585, 1.30285163787861480000e+000) (586, 2.92851130241289390000e-001) (587, -2.44734049909579780000e-003) (588, 5.30259807647105640000e-003) (589, -7.70919288577567590000e-002) (590, -1.71026245760947870000e-002) (591, -4.51349559956123300000e-001) (592, -4.37511775253921040000e-001) (593, -1.04851032791230180000e+000) (594, -8.16768598752334210000e-001) (595, 1.09291719803587120000e+000) (596, 2.06388633782336230000e+000) (597, 1.26193235291507900000e+000) (598, 2.21754208202177020000e+000) (599, 2.78052548199876880000e+000) (600, -9.13444053444429220000e-002) (601, -5.12107967086304950000e+000) (602, -7.56452240145291820000e+000) (603, -7.01547154541544590000e+000) (604, -5.60929933384875050000e+000) (605, -1.72135158379487540000e+000) (606, 7.30150035078940160000e-001) (607, 3.18576635072473870000e+000) (608, 3.90079914667394510000e+000) (609, 7.20504934987875250000e+000) (610, 6.94069692746961490000e+000) (611, 5.76964475062740420000e+000) (612, 2.59926621500796880000e+000) (613, 9.04402840085714590000e-001) (614, 2.66482320479443760000e-001) (615, -4.76366747375228230000e-003) (616, 4.61389753222671150000e-002) (617, -7.25724665708961100000e-002) (618, 1.25720695106390140000e-001) (619, 1.20443970379032640000e-001) (620, -1.56306089030502670000e-001) (621, -1.52306277660718140000e+000) (622, -4.53551972227279170000e+000) (623, -4.83727806627400890000e+000) (624, -3.80610558367751750000e+000) (625, -3.22273632093896190000e+000) (626, -5.59160384743881170000e+000) (627, -9.04367638254939270000e+000) (628, -1.23688356594745650000e+001) (629, -1.31132410218654720000e+001) (630, -1.40042937276966630000e+001) (631, -9.64201129660562370000e+000) (632, -5.23794217915001690000e+000) (633, -1.77502314029912340000e+000) (634, 3.11331545612395780000e+000) (635, 4.91346543250263320000e+000) (636, 5.27399359035479080000e+000) (637, 5.41576283428534390000e+000) (638, 4.17889301466092360000e+000) (639, 2.92475674817312740000e+000) (640, 1.25394509174152380000e+000) (641, 4.71093713216902910000e-001) (642, -4.25102799355819850000e-002) (643, -3.00454962477750690000e-002) (644, 4.48120123865010100000e-002) (645, -1.86950686379532270000e-002) (646, -4.13643238521171010000e-002) (647, -2.71591572359978490000e-001) (648, -6.60186030524582800000e-001) (649, -1.48478837468992530000e+000) (650, -4.41923458973903130000e+000) (651, -7.44968387309390770000e+000) (652, -1.05768825715659820000e+001) (653, -1.22333216220635080000e+001) (654, -1.40893751128304990000e+001) (655, -1.86757143348641570000e+001) (656, -2.04792074685164810000e+001) (657, -2.01165282634323080000e+001) (658, -1.64564851897379010000e+001) (659, -1.12404404776711800000e+001) (660, -6.42789819844625580000e+000) (661, -3.19739292993693120000e+000) (662, -4.06869744336302410000e-001) (663, 1.97627902043272940000e+000) (664, 2.66629225842856870000e+000) (665, 2.94118652078876860000e+000) (666, 1.42467313957080650000e+000) (667, 6.18065703474300790000e-001) (668, 1.35303256936700920000e-001) (669, 1.59170093879687890000e-001) (670, 5.15873433911370540000e-002) (671, 8.35388196042003980000e-002) (672, -5.00854499650813520000e-002) (673, 1.99890139697345150000e-002) (674, 9.37306215432059530000e-002) (675, -2.51654880493960790000e-001) (676, -7.50558182425750120000e-001) (677, -1.55855224483147900000e+000) (678, -3.08164269989030880000e+000) (679, -5.63872932037525580000e+000) (680, -8.79188383375351460000e+000) (681, -1.15838109608816190000e+001) (682, -1.47717558587203950000e+001) (683, -1.63545966471680550000e+001) (684, -1.48293606394185500000e+001) (685, -1.26593318081678630000e+001) (686, -1.02252343830357120000e+001) (687, -6.63399428399373380000e+000) (688, -4.49021579961623820000e+000) (689, -3.14717299355477300000e+000) (690, -2.09499941716541290000e+000) (691, -1.95156792613206180000e+000) (692, -1.07394511534323760000e+000) (693, -3.83098414427109570000e-001) (694, -6.67134099284378830000e-001) (695, -2.23251860989298200000e-001) (696, 3.00129424236476760000e-001) (697, 2.64583994695039510000e-001) (698, 8.75473402413924770000e-002) (699, -8.26965344353993710000e-002) (700, 3.93066412107145880000e-002) (701, 5.43762215133938300000e-002) (702, 4.31388203441200950000e-002) (703, -1.18919175355178780000e-001) (704, -2.12538550657036780000e-001) (705, -8.50692987354076830000e-001) (706, -1.52454652415584050000e+000) (707, -2.20044257517162300000e+000) (708, -3.28631123061026820000e+000) (709, -3.72912617842943380000e+000) (710, -3.62491712699593860000e+000) (711, -3.51216170208207100000e+000) (712, -4.12649192198868060000e+000) (713, -3.39922179326639420000e+000) (714, -3.07684022538701200000e+000) (715, -3.14102848545068890000e+000) (716, -3.96056403412000570000e+000) (717, -4.57273747527738910000e+000) (718, -4.50678014909955320000e+000) (719, -3.31034873132907850000e+000) (720, -1.87764226855302870000e+000) (721, -1.15960139206908550000e+000) (722, -8.23204856088792130000e-001) (723, -2.06523346453903240000e-001) (724, -1.01543938119480880000e-001) (725, 1.22303666455517850000e-001) (726, -7.80371870058908960000e-003) (727, 2.28820804190945640000e-002) (728, 3.47167973923205860000e-002) (729, 8.75610364610110990000e-002) (730, 1.65893557159506600000e-002) (731, 8.91723646100217590000e-003) (732, -4.93418017039845350000e-002) (733, -2.35550534125307660000e-001) (734, -2.75102357926462760000e-001) (735, -5.26507849343008870000e-001) (736, -9.64081618878440790000e-001) (737, -9.35653912588660260000e-001) (738, -4.72876632972235420000e-001) (739, -6.77016907386076450000e-001) (740, -8.18517035049019850000e-001) (741, -1.19742683596700170000e+000) (742, -2.00936257925539370000e+000) (743, -2.03716195225442710000e+000) (744, -1.74449369367157870000e+000) (745, -1.40311872272995770000e+000) (746, -1.33720034704036310000e+000) (747, -9.37411121015296780000e-001) (748, -2.38592856669997330000e-001) (749, -1.67810056665228450000e-002) (750, -2.54032610198552280000e-001) (751, -2.25393949323293570000e-001) (752, 1.38488771594893480000e-002) (753, 1.15470081739846800000e-002) (754, 5.34240730617057120000e-002) (755, 9.30419935739337230000e-002) (756, -3.20922856344623140000e-002) (757, -5.90820321303908710000e-003) (758, -3.26171879860339690000e-002) (759, -2.06115725727613610000e-002) (760, -1.48436933974358770000e-002) (761, 2.50950662812047460000e-002) (762, 5.63536269282194910000e-002) (763, -5.48384280020004710000e-002) (764, -1.54980790561647710000e-001) (765, -1.21851927173450600000e-001) (766, -1.00084032569767470000e-001) (767, 1.04237049349499170000e-002) (768, -1.08647650708164400000e-002) (769, 1.44635435038478910000e-002) (770, -8.40721793060252990000e-002) (771, -2.51178306342283790000e-002) (772, 1.11793325972053840000e-001) (773, 7.27525539623071760000e-002) (774, -1.69191172123320800000e-001) (775, -1.21299193838911550000e-001) (776, 7.89740040477746040000e-003) (777, -6.29982444303116200000e-003) (778, 1.67502611484806290000e-002) (779, -1.62684348678688340000e-002) (780, 5.56396492665953700000e-002) (781, -8.46069348544915560000e-002) (782, -9.45190443771934950000e-002) (783, 9.27001966938405530000e-002) (784, 3.47476528053954770000e+000) (0, 5.09948738067578230000e-002) (1, 2.41210941094323060000e-002) (2, 9.21081556693934540000e-002) (3, -9.71130385564720200000e-002) (4, -4.26025396973273020000e-003) (5, -6.66931162281798610000e-002) (6, -2.88085941792814990000e-003) (7, -9.85412612340041960000e-002) (8, 2.52136234225872610000e-002) (9, 7.12768565308579130000e-002) (10, -1.79443362048914420000e-003) (11, -2.92114262165341640000e-002) (12, 4.52119751416795650000e-002) (13, -5.76462058664932030000e-002) (14, -3.35983539456522900000e-002) (15, -6.28224075087052550000e-002) (16, 5.04211433294585730000e-002) (17, -4.14306646798650040000e-002) (18, -7.03613291734654920000e-002) (19, -4.95300300349299500000e-002) (20, -7.59948741792868530000e-002) (21, 8.07861340163071870000e-002) (22, -7.80456554598458750000e-002) (23, -6.70288095925570810000e-002) (24, -1.07727052386508150000e-002) (25, -2.60681156228201870000e-002) (26, -4.76684577415653620000e-003) (27, -2.45361331781168700000e-003) (28, -8.54797376018723300000e-002) (29, -7.58117687078083690000e-002) (30, -8.35754406984960950000e-002) (31, 6.68945322468061930000e-002) (32, -3.88000494062907820000e-002) (33, -4.12043783438649990000e-002) (34, 8.06343008498946500000e-003) (35, -2.92325850984574200000e-001) (36, -6.47607982194582490000e-001) (37, -6.00236232618406420000e-001) (38, -4.59523700266421360000e-001) (39, -7.26191693379799720000e-001) (40, -9.41424681186348700000e-001) (41, -8.81098582819239140000e-001) (42, -1.92383280747371400000e-001) (43, -1.65786177841180520000e-001) (44, -5.11345666711850220000e-001) (45, -3.27409618436600550000e-001) (46, -1.66714813145853650000e-001) (47, -1.82581143645241030000e-001) (48, -1.65953378630326720000e-001) (49, -3.75629747189719920000e-002) (50, 1.27064305401682570000e-002) (51, 6.04389476881527290000e-002) (52, -9.22058119208486460000e-002) (53, -8.11523449592641550000e-002) (54, 6.75964365541403820000e-002) (55, 3.21716313387696570000e-002) (56, -6.36718759487848730000e-002) (57, 3.90869146449404070000e-002) (58, -4.15283209313201950000e-002) (59, -8.89965153592634470000e-003) (60, -6.38699428449995140000e-002) (61, 1.03304700009753810000e-003) (62, -6.23525206530393190000e-002) (63, -4.36749092098978500000e-001) (64, -1.27822476310144120000e+000) (65, -1.41137162376949200000e+000) (66, -1.41316039461372390000e+000) (67, -1.67529105036627080000e+000) (68, -3.30585642266787130000e+000) (69, -3.46889716763139690000e+000) (70, -2.01614298388344970000e+000) (71, -2.20711319372278860000e+000) (72, -2.15726268389247270000e+000) (73, -1.32710291989661800000e+000) (74, -6.54284324419637910000e-001) (75, -4.34708636228138380000e-001) (76, -5.13839982241754310000e-001) (77, -3.69389813824066440000e-001) (78, -2.01101173391095400000e-001) (79, -1.30503366592763400000e-001) (80, 4.26824660424910340000e-002) (81, 3.48824225367590570000e-002) (82, -5.19531257741618900000e-002) (83, -5.75744637485513520000e-002) (84, 1.28784181606533820000e-002) (85, 1.23901369033774240000e-003) (86, 5.42060877756471850000e-002) (87, 3.53632616175875510000e-002) (88, 7.67414936694526050000e-003) (89, -1.35055533943610250000e-001) (90, -3.14301483979167300000e-001) (91, -1.02790818520033620000e+000) (92, -1.87018220313491130000e+000) (93, -1.97129216678986550000e+000) (94, -1.94905212607798340000e+000) (95, -3.10146612667881570000e+000) (96, -5.00722675171371190000e+000) (97, -4.73785265353667740000e+000) (98, -4.20023460508369250000e+000) (99, -5.08788536667802930000e+000) (100, -3.73405628428876880000e+000) (101, -2.70654291247008500000e+000) (102, -1.63508297478154300000e+000) (103, -1.34899059352816740000e+000) (104, -9.70192978910420000000e-001) (105, -6.04987097475504500000e-001) (106, -9.31676224536011290000e-001) (107, -5.18813876353531160000e-001) (108, -2.76320919546901520000e-001) (109, 2.68854967977551830000e-002) (110, 7.95794784974273440000e-002) (111, 5.66406258440110830000e-002) (112, 6.17492684982607900000e-002) (113, 5.00676632368493930000e-002) (114, 8.56427232326046300000e-003) (115, -2.14774747239375070000e-002) (116, -1.56727717995385210000e-001) (117, -7.96727513193760670000e-001) (118, -1.21152694516341870000e+000) (119, -1.58079117738344530000e+000) (120, -2.16928198437777690000e+000) (121, -2.09912180040892120000e+000) (122, -2.66075682574662540000e+000) (123, -3.05819239492077970000e+000) (124, -6.35382215136904890000e+000) (125, -7.28775857182430450000e+000) (126, -6.17845859681524970000e+000) (127, -5.07615197024888780000e+000) (128, -3.55839328256765250000e+000) (129, -3.97587275814889150000e+000) (130, -3.51570617518374370000e+000) (131, -7.03880680298968110000e-001) (132, 2.53246157656717210000e-001) (133, 9.07397020703741730000e-001) (134, 1.21577447375394950000e+000) (135, 2.33573185193973120000e+000) (136, 2.70196447207462140000e+000) (137, 9.29258657215228270000e-001) (138, 3.07180535806698520000e-001) (139, -4.81286525829150570000e-002) (140, -8.12805187892990940000e-002) (141, -8.46740735273670000000e-002) (142, 1.90857803305733710000e-002) (143, -1.79215742421482890000e-001) (144, -5.30275731293105230000e-001) (145, -1.03311224968253760000e+000) (146, -1.27391025893569900000e+000) (147, -5.22721685365236330000e-001) (148, 2.96369336584740960000e-001) (149, -3.85461416311552340000e-001) (150, -1.99822074399890660000e+000) (151, -5.28586612896897630000e+000) (152, -1.09145483656525610000e+001) (153, -1.16809354413972280000e+001) (154, -1.05180619957662640000e+001) (155, -1.01860565083177170000e+001) (156, -6.79212103400746600000e+000) (157, -3.82464163522279280000e+000) (158, -3.33374650648837620000e+000) (159, -1.92399356969698700000e+000) (160, 1.64412886701375570000e+000) (161, 4.98289723812021010000e+000) (162, 1.00846358238047190000e+001) (163, 1.11891614113122080000e+001) (164, 8.02218928490584740000e+000) (165, 2.12724501441730450000e+000) (166, 2.50969805153159090000e-001) (167, 6.69521165712845530000e-002) (168, -5.07568366938357940000e-002) (169, -4.13099469105336560000e-002) (170, 3.39609747407436600000e-003) (171, -5.33298969207732230000e-001) (172, -4.91954650292601880000e-001) (173, 5.58344648216391740000e-001) (174, 5.81441833532961640000e-001) (175, 3.06857204452903790000e+000) (176, 4.91587482683234360000e+000) (177, 3.78123923275315520000e+000) (178, -2.14378476448462490000e-002) (179, -7.01386272462093710000e+000) (180, -1.67938957058172170000e+001) (181, -1.95558794384623230000e+001) (182, -2.29739193310606500000e+001) (183, -2.93127053685518960000e+001) (184, -2.38799315493459150000e+001) (185, -1.53208200071914650000e+001) (186, -7.50285568770523880000e+000) (187, -2.70074225970197500000e+000) (188, 1.33591563578421350000e+000) (189, 9.57934910426729050000e+000) (190, 1.72167568692180490000e+001) (191, 1.77328337980424780000e+001) (192, 9.93527428959343870000e+000) (193, 3.41367507015690920000e+000) (194, 7.56506943120561330000e-001) (195, 3.76044059595808870000e-002) (196, -3.18284643520528740000e-002) (197, -1.26042548411482130000e-003) (198, 1.71039992395154380000e-001) (199, 3.68538832501623230000e-001) (200, 3.29323289916568510000e-002) (201, 2.23032652180903620000e+000) (202, 4.10095548028182580000e+000) (203, 6.64171500433229410000e+000) (204, 7.31119419918114220000e+000) (205, 4.28277741339427640000e+000) (206, -7.75298452489763150000e-001) (207, -9.02426403594643390000e+000) (208, -1.45170919137376410000e+001) (209, -1.75658084603677120000e+001) (210, -2.68746713406517910000e+001) (211, -3.46145603386071770000e+001) (212, -2.87232476178987460000e+001) (213, -1.61894769807351080000e+001) (214, -6.68880783362734290000e+000) (215, -2.36155168802958130000e+000) (216, -1.83591563005597980000e+000) (217, 8.83190892925515670000e+000) (218, 1.62719470837768550000e+001) (219, 1.55987044674406800000e+001) (220, 8.59099059742425550000e+000) (221, 4.81629225051181460000e+000) (222, 8.74947897942722320000e-001) (223, 4.39500568406365550000e-002) (224, -3.27196364693447470000e-002) (225, -3.16573735262540730000e-001) (226, 1.67470735151077500000e-003) (227, 1.27120665050605770000e+000) (228, 7.80642271253709110000e-001) (229, 3.50476338673747940000e+000) (230, 5.16202861336617590000e+000) (231, 5.44930721022366260000e+000) (232, 2.83653872432219560000e+000) (233, 5.25191825620839990000e-001) (234, -4.55196042301712290000e+000) (235, -4.31713495289724760000e+000) (236, -7.34354331176338790000e+000) (237, -1.66556853705028980000e+001) (238, -2.79277753545433600000e+001) (239, -3.01182928448201710000e+001) (240, -1.77064251611235800000e+001) (241, -7.92866115843535810000e+000) (242, 5.44219573840266090000e-001) (243, 7.25576045105091990000e-001) (244, 2.72195198517164090000e+000) (245, 7.92756594427503990000e+000) (246, 1.10240905890149090000e+001) (247, 1.23875480149068020000e+001) (248, 9.14912907888664680000e+000) (249, 4.60293750116564480000e+000) (250, 3.97997811745147590000e-001) (251, -1.19031923559770860000e-002) (252, 3.40335311780077570000e-003) (253, -5.74644887424787140000e-001) (254, -2.16459375410209790000e-001) (255, 6.09650932746745640000e-001) (256, 1.33047902136750730000e+000) (257, 2.48496948665873240000e+000) (258, 1.19737079201599370000e+000) (259, -3.09262273505997580000e-002) (260, -6.25695152769033540000e-001) (261, -3.09889951495618730000e+000) (262, -1.99897264235094370000e+000) (263, -6.24769205664082560000e-001) (264, -3.66072067135959940000e+000) (265, -9.52078000173631980000e+000) (266, -2.11751544113067890000e+001) (267, -1.49340480970963260000e+001) (268, -1.02997745603900230000e+000) (269, 1.74509742496557710000e+000) (270, 9.68023841337241730000e-001) (271, 1.27645442632846100000e+000) (272, 2.39757827461116200000e+000) (273, 2.71970523522472750000e+000) (274, 4.00194154972105040000e+000) (275, 6.35438274753437500000e+000) (276, 7.53036715595809540000e+000) (277, 3.84369692797104620000e+000) (278, -8.89102648969767590000e-002) (279, 8.25998788953200420000e-002) (280, 6.35779499440860540000e-002) (281, -5.29892336519690590000e-001) (282, -3.59256859350731320000e-001) (283, 3.66587690323564590000e-001) (284, 1.19604845977526850000e+000) (285, 9.76043446113748630000e-002) (286, -4.03232968383813440000e+000) (287, -2.85768371774459950000e+000) (288, -1.28137804149885600000e+000) (289, 1.69692189275858140000e+000) (290, 3.40654942477781250000e+000) (291, 1.58687909558896070000e+000) (292, 8.07447092827258910000e-001) (293, -3.75275708147816190000e+000) (294, -9.54084668551224090000e+000) (295, 1.98918591974712040000e+000) (296, 8.52718492794492630000e+000) (297, 5.31174327478298740000e+000) (298, -1.84723090510594590000e+000) (299, -1.96715875480083930000e+000) (300, -5.88747773581512130000e+000) (301, -5.36570046792669240000e+000) (302, -3.35906054952728720000e+000) (303, -6.95781227163783210000e-001) (304, 3.28974954145240380000e+000) (305, 3.16727247734396400000e+000) (306, 5.67344036735555330000e-001) (307, 1.44337380820626260000e-002) (308, 9.58143035606612570000e-002) (309, -3.28398489312102970000e-001) (310, -5.47787785309947320000e-001) (311, -1.25869386877158230000e-001) (312, -1.45006452888866930000e-001) (313, -2.67347761138458080000e+000) (314, -5.23553089847054400000e+000) (315, -2.57810185682417540000e+000) (316, 2.18396142345303050000e+000) (317, 4.76869241899823850000e+000) (318, 7.07648650539699900000e+000) (319, 9.89289669078086750000e+000) (320, 9.75934306768869320000e+000) (321, -9.75528145885268480000e-001) (322, -9.32844893408645250000e+000) (323, -9.41277098192732200000e-001) (324, 4.89492052846315500000e+000) (325, -2.82803668798536250000e+000) (326, -8.96598503507427050000e+000) (327, -1.38686705712716250000e+001) (328, -1.92894666352893400000e+001) (329, -1.57689238574239510000e+001) (330, -1.22620383514265590000e+001) (331, -8.12542486447981100000e+000) (332, -3.03516746118370230000e+000) (333, -2.96637302762086210000e-002) (334, 3.52863314936599230000e-001) (335, 1.11255753403201420000e-001) (336, -9.20911799795369470000e-002) (337, 2.46502956834394120000e-002) (338, -3.47975450664382900000e-001) (339, -9.44121563686382780000e-001) (340, -2.16518246038191630000e+000) (341, -4.29439839391357750000e+000) (342, -3.35327049234053610000e+000) (343, 2.13633798248437890000e+000) (344, 9.71320569116138980000e+000) (345, 8.99199342088814290000e+000) (346, 1.70042949846096290000e+001) (347, 2.22177955543769630000e+001) (348, 1.54120695111836490000e+001) (349, -1.01022589745088230000e+001) (350, 